Language model created by QuickLM on Sun Feb 18 09:01:45 EST 2018
Copyright (c) 1996-2010 Carnegie Mellon University and Alexander I. Rudnicky

The model is in standard ARPA format, designed by Doug Paul while he was at MITRE.

The code that was used to produce this language model is available in Open Source.
Please visit http://www.speech.cs.cmu.edu/tools/ for more information

The (fixed) discount mass is 0.5. The backoffs are computed using the ratio method.
This model based on a corpus of 2553 sentences and 3253 words

\data\
ngram 1=3253
ngram 2=7389
ngram 3=8757

\1-grams:
-1.1265 </s> -0.2673
-1.1265 <s> -0.1882
-2.6499 а -0.2771
-4.3574 аббатство -0.2995
-4.3574 аванс -0.3010
-4.3574 австралии -0.2673
-4.3574 австралийская -0.3010
-4.3574 ад -0.2958
-4.3574 азербайджанский -0.3010
-4.3574 азии -0.2958
-4.3574 алексей -0.3010
-4.3574 американец -0.3010
-4.3574 американской -0.3010
-4.3574 америки -0.3010
-4.0564 англии -0.2662
-4.3574 анекдоты -0.3006
-4.3574 анну -0.2958
-4.3574 антоша -0.3010
-4.3574 апельсинового -0.3003
-3.7554 аппарат -0.2995
-4.3574 аппараты -0.3010
-4.3574 аристократических -0.3010
-4.3574 армянский -0.3010
-4.3574 архитектору -0.2673
-4.3574 арчибальд -0.3010
-4.3574 астрономов -0.3010
-4.3574 атаку -0.2673
-4.3574 атлантическом -0.3010
-4.3574 ауэрбах -0.3010
-4.3574 африки -0.2972
-4.3574 ах -0.3010
-4.3574 ахали -0.2673
-4.0564 б -0.3008
-4.3574 багровые -0.3010
-4.3574 бакенбарды -0.3005
-4.3574 баки -0.3010
-4.3574 балки -0.3010
-4.3574 баранками -0.2673
-4.3574 барином -0.3010
-4.3574 барского -0.3010
-4.0564 бархатные -0.2958
-4.3574 барышни -0.3001
-4.0564 бегал -0.3003
-4.3574 бежала -0.3009
-4.3574 бежали -0.3005
-4.3574 бежать -0.2673
-3.2783 без -0.3003
-4.3574 безвоздушном -0.3010
-4.0564 бездна -0.3010
-4.3574 бездны -0.2984
-4.3574 безнадёжное -0.3010
-4.3574 безобразили -0.3001
-4.3574 безоглядность -0.3010
-4.3574 безошибочно -0.2673
-4.3574 безумном -0.3009
-4.3574 белой -0.3010
-4.0564 белом -0.3010
-4.3574 белых -0.3010
-4.3574 берега -0.3007
-4.0564 берегу -0.2672
-4.3574 берлин -0.2673
-4.3574 берлине -0.3010
-4.3574 беру -0.2985
-4.3574 берёзы -0.2673
-4.0564 бесконечно -0.3008
-4.3574 беспорядочное -0.3010
-4.3574 беспредметно -0.3010
-4.3574 бессмысленное -0.3010
-4.3574 бизонов -0.3010
-4.3574 била -0.2972
-4.3574 били -0.3007
-4.3574 биться -0.2972
-4.3574 благовидные -0.3008
-4.3574 благодать -0.3010
-4.3574 бледный -0.3010
-4.3574 блеск -0.3007
-4.3574 блеска -0.3005
-4.3574 блеснуло -0.3010
-4.3574 блестели -0.2999
-4.3574 ближайшей -0.3010
-4.0564 ближе -0.3006
-4.3574 близ -0.3009
-4.0564 блин -0.2956
-4.3574 блюда -0.3009
-4.0564 бог -0.3006
-4.3574 богатыри -0.2673
-4.3574 богом -0.3010
-4.0564 богу -0.2955
-4.3574 боже -0.3010
-4.3574 божия -0.2673
-4.3574 бойкий -0.3010
-4.0564 бойко -0.3010
-3.5123 более -0.3001
-4.3574 больных -0.3001
-3.4543 больше -0.2615
-4.3574 большее -0.3001
-4.3574 большей -0.3010
-4.0564 большинство -0.3009
-3.6585 большой -0.2955
-4.3574 большою -0.3010
-3.8803 большую -0.3010
-3.7554 бора -0.2670
-4.3574 бородавки -0.2673
-4.3574 бородою -0.2673
-4.3574 бостончик -0.3007
-4.3574 босую -0.3010
-4.3574 ботинки -0.2996
-3.8803 брат -0.2672
-3.8803 брата -0.2673
-4.3574 брату -0.2673
-4.0564 братья -0.2958
-4.0564 бричка -0.2673
-4.0564 бричке -0.3009
-4.3574 бровями -0.2958
-4.3574 бронзовым -0.3010
-4.3574 бросил -0.3006
-4.3574 бросилась -0.3005
-4.3574 бросить -0.3000
-4.3574 брусничного -0.3010
-4.3574 бубен -0.2673
-4.3574 бубнили -0.3010
-4.3574 будем -0.3008
-3.4543 будет -0.2976
-4.3574 будете -0.3001
-4.3574 будешь -0.3009
-4.3574 будочников -0.3001
-4.0564 будто -0.3006
-4.0564 буду -0.3009
-4.3574 будут -0.2673
-4.3574 будущее -0.3001
-4.3574 булавкою -0.2996
-4.3574 бумагу -0.3010
-4.3574 бумажке -0.3009
-4.3574 бумажки -0.3003
-4.3574 бурной -0.2958
-4.3574 бурому -0.3010
-4.3574 бурь -0.2972
-4.3574 буфер -0.2673
-3.0564 бы -0.2955
-4.0564 бывает -0.2970
-4.0564 бывал -0.3007
-4.3574 бывало -0.2673
-3.7554 бывают -0.3006
-2.8011 был -0.2473
-2.9772 была -0.2598
-3.0150 были -0.2960
-2.6499 было -0.2516
-4.3574 быстро -0.2958
-3.2113 быть -0.2599
-4.3574 бычье -0.3010
-4.0564 бьётся -0.3010
-2.0608 в -0.2904
-4.3574 важнее -0.3010
-4.3574 важнейшие -0.3010
-4.0564 важно -0.2673
-4.3574 важное -0.2673
-3.5123 вам -0.2565
-4.3574 варёную -0.3010
-3.3574 вас -0.2663
-4.3574 ваше -0.3010
-4.3574 вашего -0.3010
-4.3574 ваши -0.3009
-3.8803 вашу -0.3010
-4.0564 вверх -0.2997
-4.3574 вверху -0.3007
-4.3574 вглядывался -0.2972
-4.3574 вглядываясь -0.2972
-3.7554 вдруг -0.2984
-3.2435 ведь -0.2951
-4.3574 ведёрке -0.3010
-4.3574 вежливым -0.2673
-3.5793 везде -0.2663
-4.3574 век -0.3009
-4.3574 веки -0.2673
-3.8803 веку -0.2672
-4.3574 вел -0.2673
-4.3574 вела -0.3007
-4.3574 велел -0.3010
-4.3574 вельможами -0.3010
-4.3574 верили -0.3010
-4.3574 верить -0.3001
-4.0564 верно -0.3008
-4.0564 вернулась -0.3010
-4.0564 вернуть -0.3004
-4.0564 вернуться -0.2664
-4.0564 вероятно -0.2985
-4.3574 вертелся -0.3009
-4.3574 вертлявым -0.3007
-4.3574 верхний -0.3003
-4.3574 верхнюю -0.2673
-4.3574 верёвками -0.2958
-4.0564 верёвки -0.2998
-3.7554 верёвочки -0.2998
-4.3574 вести -0.3009
-4.3574 вестибюль -0.2958
-3.8803 весь -0.3010
-3.3574 весьма -0.2669
-4.3574 весёлая -0.3009
-4.3574 весёлыми -0.3010
-4.0564 ветер -0.3008
-4.3574 ветра -0.2958
-4.0564 вечеринке -0.2673
-4.3574 вечеринку -0.2673
-4.3574 вечеру -0.3007
-4.3574 вечной -0.3010
-4.3574 вечною -0.3010
-4.3574 вечный -0.3010
-4.3574 вещей -0.2979
-4.3574 вещи -0.3010
-4.3574 вещь -0.2673
-3.8803 взгляд -0.2958
-4.3574 взгляды -0.3010
-4.3574 взглянув -0.2985
-4.3574 взглянул -0.2985
-3.8803 взглянуть -0.2933
-4.3574 вздор -0.3005
-4.3574 вздохнул -0.2958
-3.8803 взлохмаченная -0.3010
-4.3574 взошёл -0.2985
-4.3574 взявши -0.2972
-4.3574 взял -0.3009
-4.0564 взяла -0.2995
-4.3574 взять -0.2996
-3.8803 вид -0.2985
-4.3574 вида -0.3009
-4.3574 видали -0.3001
-3.5123 видел -0.2644
-4.3574 видели -0.2985
-3.6585 видеть -0.2673
-3.8803 видимо -0.2960
-3.8803 видна -0.3004
-3.8803 видно -0.2657
-4.3574 видны -0.3010
-4.0564 виду -0.2673
-4.3574 видывал -0.3010
-4.3574 видывано -0.3009
-4.3574 вижу -0.3008
-4.3574 визит -0.3009
-4.3574 визитам -0.2673
-4.3574 визитных -0.3010
-4.3574 визитов -0.2984
-4.3574 визиты -0.3010
-4.3574 виляют -0.3009
-4.3574 висела -0.3003
-4.3574 висели -0.3005
-4.3574 висит -0.3010
-4.3574 виски -0.3003
-4.0564 висящих -0.3010
-4.3574 витал -0.2972
-4.3574 вице-губернатору -0.3008
-4.3574 вицегубернатором -0.2958
-4.3574 вишь -0.3006
-4.3574 вкратце -0.3010
-4.3574 вкусом -0.3010
-4.3574 властителями -0.2984
-4.3574 влетают -0.3010
-4.3574 влетит -0.2972
-4.3574 вложена -0.2972
-3.7554 вместе -0.2657
-4.0564 вместо -0.3005
-4.3574 внесено -0.3010
-4.3574 внесены -0.3006
-4.3574 внесли -0.3010
-4.3574 внесён -0.3003
-4.3574 внизу -0.3006
-4.3574 внимание -0.3010
-4.3574 внимания -0.2673
-4.0564 внимательно -0.2672
-4.3574 внимательность -0.3002
-4.3574 вновь -0.3010
-4.3574 внутренности -0.3004
-4.3574 внутренность -0.3005
-4.0564 внутри -0.3007
-4.3574 внутрь -0.3010
-3.2435 во -0.2968
-4.3574 вовсе -0.3009
-4.3574 воде -0.2673
-4.0564 водится -0.2978
-4.3574 воду -0.2673
-4.3574 водя -0.3003
-4.3574 военной -0.3010
-4.3574 возвращались -0.3010
-4.0564 воздух -0.3003
-4.3574 воздухом -0.3010
-4.3574 воздушно -0.2958
-4.3574 воздушные -0.3010
-4.3574 возились -0.3009
-4.3574 возиться -0.3010
-4.0564 возле -0.3006
-4.3574 возможно -0.2984
-4.3574 возможном -0.3010
-4.3574 возможность -0.2673
-4.3574 возмущённо -0.2673
-4.3574 войне -0.2673
-4.3574 войны -0.2673
-4.3574 войти -0.2995
-4.3574 вокруг -0.2673
-4.3574 волнистых -0.3010
-4.3574 володи -0.3010
-4.0564 волос -0.2667
-4.0564 волосами -0.2617
-4.3574 волоска -0.2958
-4.0564 волосы -0.2999
-4.3574 вольном -0.3010
-4.0564 вон -0.2971
-4.3574 воображении -0.2673
-4.3574 вообразить -0.2979
-3.8803 вообще -0.2672
-4.3574 вопрос -0.3010
-4.3574 вопроса -0.2673
-4.3574 вопросов -0.3010
-4.3574 вопросы -0.2673
-3.7554 ворона -0.2673
-4.3574 ворот -0.3006
-4.0564 ворота -0.3005
-4.3574 воротник -0.2995
-4.0564 восемнадцатого -0.3010
-4.3574 восемнадцать -0.2673
-4.0564 восемь -0.3008
-4.3574 восемьдесят -0.2673
-4.3574 восклицания -0.3010
-4.3574 воскресенье -0.3010
-4.3574 востоку -0.3007
-4.3574 восьми -0.2996
-4.3574 восьмого -0.3010
-3.4543 вот -0.2903
-4.3574 вот-вот -0.3010
-4.3574 вошедши -0.2972
-4.0564 вошли -0.2972
-4.0564 впервые -0.3010
-4.3574 впереди -0.2958
-4.3574 вперёд -0.3010
-4.3574 вполне -0.3009
-4.3574 впоследствии -0.3006
-4.3574 вправду -0.3010
-3.4032 впрочем -0.2996
-4.3574 врачебной -0.3010
-4.3574 времена -0.3010
-3.8803 времени -0.2931
-3.4032 время -0.2631
-4.0564 врознь -0.2673
-4.3574 вряд -0.3008
-2.6672 все -0.2567
-4.3574 всевобуча -0.2972
-3.3574 всегда -0.3000
-3.5123 всего -0.2928
-4.0564 всей -0.3010
-4.3574 вселенной -0.2673
-3.8803 всем -0.3010
-4.3574 всеми -0.3010
-4.3574 всему -0.3008
-4.3574 всеобщее -0.3010
-4.3574 всерьёз -0.2673
-3.4032 всех -0.2635
-4.3574 вскользь -0.2985
-4.3574 вскоре -0.3009
-3.8803 вслед -0.3004
-4.3574 вслух -0.2984
-4.0564 вспоминал -0.2996
-4.3574 вспомнил -0.3010
-4.3574 вспомнить -0.2984
-4.3574 вспыхнул -0.3010
-4.3574 встал -0.3010
-4.0564 встретил -0.3009
-4.3574 встретился -0.3010
-4.3574 встречал -0.3010
-4.3574 встречен -0.3010
-4.3574 встречи -0.3004
-4.3574 встряхивал -0.3010
-4.3574 встряхнул -0.3010
-3.7554 всю -0.3008
-3.5123 всякий -0.3006
-4.3574 всякого -0.3010
-4.0564 всяком -0.3010
-4.3574 всё -0.3001
-4.0564 всё-таки -0.3008
-4.3574 всём -0.3010
-4.3574 вторая -0.3010
-4.3574 второго -0.3010
-4.3574 второй -0.3010
-4.3574 втянули -0.3000
-4.3574 входа -0.2673
-4.3574 входил -0.3010
-4.3574 входит -0.2972
-4.3574 въезд -0.3000
-4.3574 въезжаешь -0.2995
-4.3574 въехал -0.2985
-4.3574 въехала -0.3010
-3.3160 вы -0.2653
-4.3574 выбегали -0.3010
-4.3574 выбритые -0.3010
-4.3574 выводиться -0.3010
-4.3574 выглядывала -0.2985
-4.3574 выглядывающими -0.2995
-4.3574 выдать -0.3010
-4.3574 выждав -0.3009
-4.3574 вызвали -0.3010
-4.3574 выкладками -0.2673
-4.3574 выключил -0.3010
-4.3574 выкрашен -0.3010
-4.3574 выкрашенные -0.3010
-4.3574 вылезавшие -0.2673
-4.3574 вылезшие -0.3005
-4.3574 выражена -0.3009
-4.0564 выражения -0.2662
-4.3574 вырази -0.3010
-4.3574 выразил -0.2985
-4.0564 выразить -0.3008
-4.3574 вырывались -0.3010
-4.3574 выслушивал -0.3009
-4.3574 высмаркивался -0.3010
-4.3574 высокие -0.2958
-4.3574 высокую -0.3010
-4.3574 высоты -0.2958
-4.3574 высохшие -0.3010
-4.3574 высочество -0.3003
-4.3574 вытащил -0.3010
-4.3574 вытирал -0.3010
-4.3574 вытребовать -0.2999
-4.3574 вытягивая -0.3010
-4.0564 выхода -0.2667
-4.3574 выходки -0.2958
-4.3574 выходя -0.2996
-3.8803 выше -0.2999
-4.0564 вышел -0.2667
-4.3574 вышивал -0.3009
-4.3574 вышли -0.2972
-4.3574 выщекатурен -0.2958
-4.3574 выщипнул -0.3010
-4.3574 выяснить -0.3007
-4.3574 вязли -0.3003
-4.3574 вёзших -0.3006
-4.3574 вёл -0.3007
-4.0564 вёрст -0.3005
-4.0564 газеты -0.2673
-4.3574 галерее -0.3010
-4.3574 гвоздиками -0.3010
-3.1533 где -0.2934
-3.8803 где-нибудь -0.2972
-4.3574 где-то -0.3009
-4.3574 генетики -0.3010
-4.3574 геометрически -0.3010
-4.3574 германии -0.2673
-4.3574 героические -0.3005
-4.3574 гимнастёрках -0.3010
-4.3574 гитлеровской -0.3010
-4.3574 главный -0.3010
-4.3574 главным -0.3010
-4.3574 гладких -0.3010
-4.3574 гладко -0.3010
-4.3574 гладкое -0.3010
-4.0564 глаз -0.2673
-3.5793 глаза -0.3006
-4.3574 глазах -0.2673
-4.3574 глазки -0.3010
-4.0564 глазков -0.2673
-4.3574 глазом -0.3002
-4.3574 глубине -0.3000
-4.3574 глубины -0.2673
-4.3574 глубокие -0.3010
-4.0564 глубоко -0.3010
-3.8803 глядел -0.2985
-4.3574 глядели -0.2985
-4.3574 глядь -0.2984
-4.3574 глядя -0.2972
-4.3574 глядят -0.3010
-4.3574 глянул -0.2985
-4.3574 гневно -0.2958
-4.3574 говор -0.3009
-4.3574 говори -0.3006
-3.5793 говорил -0.2662
-4.0564 говорила -0.2999
-3.8803 говорили -0.2666
-3.8803 говорит -0.2615
-3.5793 говорить -0.2652
-4.0564 говорю -0.2672
-4.0564 говоря -0.3006
-4.0564 говорят -0.3009
-3.8803 года -0.2662
-4.3574 году -0.2673
-3.8803 годы -0.2611
-4.3574 голландец -0.3004
-4.0564 голова -0.2974
-4.3574 голове -0.2979
-3.8803 головой -0.2673
-4.0564 голову -0.2672
-4.3574 головы -0.2958
-3.5123 голос -0.2660
-4.0564 гораздо -0.3006
-4.3574 горела -0.3010
-4.3574 горелому -0.3010
-4.3574 горизонте -0.3007
-3.6585 город -0.2672
-3.6585 города -0.2631
-4.3574 городам -0.3010
-4.3574 городах -0.3007
-3.5793 городе -0.2636
-4.3574 городским -0.3010
-4.3574 городских -0.3010
-4.3574 городской -0.3010
-4.3574 городскому -0.3010
-4.0564 горошком -0.2958
-4.3574 горькие -0.3010
-4.3574 господа -0.3010
-4.3574 господами -0.3010
-3.4543 господин -0.2969
-4.3574 господина -0.3010
-4.3574 госте -0.2979
-4.3574 гостиница -0.3006
-4.3574 гостинице -0.2673
-3.5793 гостиницы -0.2631
-4.3574 гостиную -0.3010
-4.0564 гость -0.2617
-4.3574 государю -0.3010
-4.3574 готов -0.3001
-4.3574 готовый -0.3002
-4.0564 грек -0.3010
-4.3574 грива -0.3000
-4.3574 громкая -0.3010
-3.7554 громко -0.2645
-4.3574 грубость -0.2673
-4.0564 грудь -0.2673
-4.0564 грудями -0.2672
-4.3574 группа -0.3010
-4.3574 группами -0.3010
-4.3574 группы -0.2673
-4.3574 грустно -0.2673
-4.3574 грязноватых -0.3006
-4.3574 грязной -0.3010
-4.3574 губ -0.3006
-4.0564 губами -0.2617
-4.0564 губернатор -0.3006
-4.3574 губернатора -0.3009
-4.3574 губернатором -0.3009
-4.3574 губернаторский -0.3009
-4.3574 губернаторской -0.3010
-4.3574 губернатору -0.3010
-4.3574 губернаторше -0.2673
-4.3574 губернию -0.3010
-4.3574 губернским -0.3010
-4.3574 губернских -0.3010
-4.3574 губернского -0.3009
-4.0564 губу -0.2984
-3.8803 гусев -0.3009
-4.3574 гусеву -0.3010
-4.3574 густафсон -0.2673
-4.3574 густая -0.3010
-4.3574 густо -0.3006
-4.3574 густой -0.3010
-4.3574 густыми -0.3010
-4.3574 гуще -0.3010
-3.4032 да -0.2944
-3.7554 давно -0.2631
-3.0150 даже -0.2858
-4.3574 дал -0.3007
-4.0564 далеко -0.2639
-4.3574 дальнем -0.3010
-4.3574 дальний -0.3010
-4.0564 дальше -0.2992
-3.8803 дам -0.2949
-4.0564 дама -0.2673
-4.3574 дамам -0.3002
-4.3574 дамских -0.3010
-4.0564 дамы -0.2668
-4.3574 дан -0.3010
-4.3574 дают -0.3002
-4.3574 даёт -0.3010
-3.3574 два -0.3006
-4.3574 двадцать -0.3010
-4.3574 дважды -0.2673
-3.8803 две -0.3006
-4.3574 двенадцати -0.3008
-4.3574 дверей -0.3010
-4.3574 двери -0.2673
-4.3574 дверца -0.2972
-4.3574 дверцу -0.3009
-4.0564 дверь -0.2632
-4.3574 дверью -0.2972
-4.3574 двести -0.3010
-4.3574 двигатель -0.2673
-4.0564 движения -0.2958
-4.3574 движениями -0.3010
-4.3574 движется -0.3010
-4.3574 движущего -0.3010
-4.3574 двинулся -0.2972
-4.3574 двое -0.3004
-4.3574 двойку -0.2673
-4.3574 двойная -0.3010
-4.3574 двор -0.3009
-4.3574 дворце -0.3010
-4.3574 двумя -0.3010
-3.8803 двух -0.2672
-4.3574 девочка -0.2673
-4.3574 девчонка -0.2673
-3.8803 девятьсот -0.3009
-4.0564 действительно -0.3007
-4.3574 действительности -0.2673
-4.3574 действовать -0.2673
-3.8803 дела -0.2672
-4.0564 делает -0.2999
-4.0564 делается -0.2673
-3.8803 делал -0.2631
-4.3574 делало -0.3010
-3.5123 делать -0.2657
-4.3574 делают -0.3004
-4.0564 делая -0.3010
-4.3574 деле -0.2979
-4.3574 деликатно -0.3010
-4.3574 делит -0.3000
-3.7554 дело -0.2666
-4.3574 деловая -0.3010
-4.3574 дельному -0.2673
-4.3574 денег -0.2673
-3.8803 день -0.3010
-4.3574 деньгами -0.2958
-4.3574 деньгах -0.2673
-3.8803 деньги -0.2657
-4.3574 дерева -0.2996
-4.3574 деревенька -0.3008
-4.3574 деревне -0.3010
-4.0564 деревню -0.2673
-4.3574 деревьев -0.3009
-4.3574 деревьям -0.3010
-4.3574 деревянной -0.3010
-3.8803 держал -0.3010
-4.3574 держала -0.3010
-4.3574 держался -0.2984
-4.3574 держит -0.3009
-4.3574 дескать -0.3009
-4.3574 десять -0.3010
-4.3574 детей -0.2673
-3.8803 дети -0.2965
-4.3574 деятельность -0.3010
-4.3574 джузеппе -0.3010
-4.3574 диковатость -0.2673
-4.3574 длинна -0.2972
-4.3574 длиннорукий -0.2673
-4.0564 длинные -0.3010
-4.3574 длинными -0.3010
-3.0787 для -0.2988
-4.3574 дне -0.3010
-4.0564 дня -0.2970
-4.3574 дням -0.3010
-3.1813 до -0.3000
-4.3574 добраться -0.2673
-4.0564 добржанский -0.2673
-4.3574 добро -0.3009
-4.3574 доброй -0.3005
-4.3574 добряк -0.2958
-3.8803 довольно -0.3007
-3.6585 доедет -0.2666
-4.3574 доклады -0.3010
-4.3574 доктор -0.3010
-4.3574 докучными -0.3010
-4.0564 долг -0.2672
-3.5793 долго -0.3007
-3.5793 должен -0.2996
-4.0564 должна -0.2996
-3.8803 должно -0.2998
-4.3574 должное -0.2673
-4.0564 должны -0.3006
-3.8803 дом -0.2672
-3.7554 дома -0.2664
-4.3574 домах -0.2673
-4.3574 домашнюю -0.3010
-4.3574 доме -0.3010
-4.3574 домов -0.3010
-4.0564 домой -0.2932
-4.3574 донёсся -0.3010
-4.3574 допытывался -0.2999
-4.3574 дороги -0.3009
-4.3574 дорогое -0.3007
-4.3574 дорогой -0.2673
-4.3574 досками -0.3010
-4.0564 достаточно -0.3005
-4.0564 достоин -0.3008
-4.3574 достоинство -0.3010
-4.3574 достойны -0.3009
-4.3574 дохода -0.2958
-4.3574 дочь -0.2673
-4.3574 драках -0.2996
-4.3574 древний -0.3010
-4.0564 друг -0.2996
-4.0564 друга -0.2673
-3.8803 другая -0.3009
-4.0564 другие -0.3010
-4.0564 другим -0.3010
-4.3574 других -0.3009
-3.8803 другого -0.3009
-3.8803 другое -0.2673
-3.4543 другой -0.2667
-3.7554 другом -0.2672
-3.6585 другому -0.2672
-3.8803 другую -0.2671
-4.3574 друзья -0.2673
-4.3574 думаете -0.2673
-3.7554 думаешь -0.2661
-3.7554 думал -0.2640
-4.3574 думала -0.2673
-4.3574 думали -0.2985
-4.0564 думать -0.2673
-3.6585 думаю -0.2921
-4.3574 думают -0.3005
-4.3574 дурной -0.3010
-4.3574 духа -0.2673
-4.0564 душ -0.3010
-4.0564 душа -0.2673
-4.3574 душе -0.3001
-4.0564 души -0.2673
-4.3574 душу -0.2985
-4.3574 дыбом -0.3010
-4.3574 дыма -0.2958
-4.3574 дышалось -0.3010
-4.3574 европе -0.3002
-4.3574 европы -0.3010
-2.6171 его -0.2405
-4.3574 едва -0.3003
-4.3574 единственное -0.3010
-4.3574 единственные -0.3010
-4.3574 единственный -0.3005
-4.3574 еду -0.3008
-4.3574 еды -0.2984
-4.3574 ездят -0.3010
-3.3574 ей -0.2591
-2.9595 ему -0.2608
-3.1270 если -0.2966
-4.3574 естественно -0.3007
-3.1813 есть -0.2627
-4.3574 ехал -0.3010
-4.3574 ехать -0.3010
-2.9772 ещё -0.2561
-4.3574 ею -0.3010
-2.9425 её -0.2567
-3.6585 ж -0.2939
-4.3574 жадно -0.3010
-4.3574 жал -0.3006
-4.3574 жалованье -0.3010
-4.3574 жаль -0.2985
-4.0564 жареная -0.3010
-4.3574 жарко -0.2673
-4.3574 жаркого -0.3010
-4.3574 жатву -0.3010
-4.0564 ждал -0.2979
-4.3574 ждановскую -0.3010
-4.0564 ждать -0.3006
-4.0564 ждёт -0.3000
-2.5721 же -0.2521
-4.0564 желал -0.2999
-4.3574 желание -0.2999
-4.3574 желаю -0.3005
-4.3574 желая -0.3010
-4.3574 железный -0.3009
-4.0564 жена -0.2673
-4.3574 женатым -0.3010
-4.0564 женился -0.2933
-4.3574 женские -0.3010
-4.3574 женский -0.3009
-4.3574 женщин -0.3009
-3.6585 женщина -0.2990
-4.3574 женщину -0.2972
-4.3574 женщины -0.2996
-4.3574 жестяном -0.3010
-4.3574 жив -0.2984
-4.0564 живое -0.2954
-4.3574 живоносного -0.3010
-4.3574 животные -0.3010
-4.3574 живу -0.3002
-4.3574 живые -0.3010
-4.3574 живым -0.2958
-4.0564 живёт -0.2617
-3.7554 жизни -0.2673
-3.7554 жизнь -0.2998
-4.0564 жила -0.2661
-4.3574 жительства -0.2673
-3.7554 жить -0.2643
-4.3574 жёлтая -0.3010
-4.3574 жёлтой -0.3010
-4.3574 жёлтою -0.3010
-4.0564 жёны -0.3007
-4.3574 жёстких -0.3010
-2.8661 за -0.2967
-4.3574 забавно -0.3010
-4.3574 забирался -0.3010
-4.0564 заботились -0.2985
-4.3574 забранные -0.3010
-4.3574 заброшена -0.2673
-3.5793 забыл -0.2637
-4.3574 забыла -0.2985
-4.3574 заваленном -0.3010
-4.3574 завела -0.3010
-3.8803 завтра -0.2667
-4.3574 завёрнутая -0.2972
-4.3574 задубили -0.2673
-4.3574 зажмурить -0.3009
-4.3574 зажёг -0.3010
-4.3574 заката -0.2958
-4.3574 заколоченные -0.3010
-4.3574 законы -0.2673
-4.3574 закопчённый -0.3010
-4.3574 закричал -0.2984
-4.3574 закруглённые -0.2958
-4.3574 закружился -0.3010
-4.3574 закрытые -0.3010
-4.3574 закутываться -0.3001
-4.3574 зал -0.3009
-4.3574 зала -0.2673
-4.0564 залито -0.2673
-4.3574 заложенной -0.2972
-4.3574 заложив -0.3009
-4.3574 залоснённые -0.3010
-4.0564 залу -0.2672
-4.3574 залы -0.3009
-4.3574 замаслившимся -0.2995
-4.0564 заметил -0.2969
-4.3574 заметила -0.3004
-4.3574 заметили -0.3010
-4.3574 заметною -0.3010
-4.3574 замечает -0.2673
-4.0564 замечания -0.3010
-4.3574 замечателен -0.2985
-4.3574 замирал -0.3009
-4.3574 занимали -0.3010
-4.3574 занимались -0.3010
-4.3574 занимают -0.3010
-4.3574 заногу -0.3009
-4.3574 заняли -0.3010
-4.3574 заняло -0.2996
-4.3574 занятию -0.3010
-4.3574 запад -0.3007
-4.3574 западу -0.2958
-4.0564 запах -0.2671
-4.3574 запаха -0.3010
-4.3574 записку -0.3008
-4.3574 заповеднике -0.3005
-4.3574 запомнил -0.2673
-4.3574 зарабатываю -0.2673
-4.3574 заранее -0.3010
-4.3574 заросли -0.3010
-3.8803 засвидетельствовать -0.3009
-4.3574 заслуживши -0.3010
-4.3574 заснул -0.3008
-4.0564 заставил -0.3010
-4.3574 заставить -0.3007
-4.3574 заставленною -0.3010
-4.3574 заставляет -0.3009
-4.3574 заставы -0.2985
-4.3574 застёгнутая -0.3010
-3.8803 затем -0.3001
-4.3574 зато -0.2972
-4.3574 затрещит -0.3005
-4.3574 захлюпал -0.3010
-4.3574 зачем -0.2993
-4.3574 зачёсанные -0.3010
-4.3574 зашагал -0.3009
-4.3574 заявил -0.2984
-4.3574 звал -0.3000
-4.3574 звезда -0.3010
-4.3574 звезде -0.3009
-4.0564 звенели -0.3009
-4.3574 звонки -0.3010
-4.0564 звук -0.3010
-4.3574 звука -0.2673
-4.3574 звучал -0.2995
-4.0564 звёзд -0.2673
-4.3574 звёздную -0.3010
-3.2113 здесь -0.2566
-4.3574 здравствует -0.3010
-4.3574 зевать -0.2958
-4.3574 зеленью -0.2958
-4.3574 зелёный -0.3010
-4.0564 земле -0.3000
-4.3574 земли -0.2673
-4.0564 землю -0.2985
-4.3574 земля -0.3010
-4.3574 земную -0.3010
-4.3574 зеркалом -0.3010
-4.3574 зловещие -0.2673
-4.3574 знаем -0.3005
-3.5793 знает -0.2955
-4.0564 знаете -0.2985
-4.3574 знаешь -0.2995
-4.3574 знакомо -0.3010
-4.3574 знакомства -0.3010
-4.3574 знакомы -0.3010
-4.3574 знакомые -0.3010
-3.8803 знал -0.2645
-3.8803 знали -0.2632
-4.3574 знаменитостей -0.3008
-4.0564 знаменитости -0.3010
-4.3574 знамёна -0.3010
-3.8803 знать -0.3001
-4.3574 значит -0.3010
-4.3574 значительного -0.3010
-4.3574 значительной -0.2673
-3.6585 знаю -0.2637
-3.8803 знают -0.2671
-4.3574 зовут -0.2673
-4.3574 зовёт -0.3010
-4.3574 золото -0.2673
-4.3574 зорко -0.2673
-4.3574 зрелища -0.3010
-4.3574 зубами -0.2999
-4.3574 зубах -0.3000
-3.2435 зубр -0.2583
-3.4543 зубра -0.2547
-4.3574 зубрами -0.2999
-4.3574 зубре -0.3010
-4.3574 зубров -0.3010
-4.0564 зубрость -0.2673
-3.7554 зубру -0.2673
-4.3574 зубчатым -0.3010
-1.9229 и -0.2596
-3.6585 ибо -0.2984
-4.3574 иванова -0.2993
-3.8803 иванович -0.3009
-4.0564 игра -0.2673
-4.3574 играл -0.2673
-4.3574 игру -0.2993
-4.0564 игры -0.2673
-3.6585 идти -0.2634
-4.3574 идёт -0.3005
-2.8803 из -0.2995
-3.5123 из-за -0.3006
-3.8803 из-под -0.3009
-4.3574 избегал -0.3008
-4.3574 избрать -0.3010
-4.3574 известная -0.3010
-4.0564 известно -0.2978
-3.7554 известного -0.2672
-4.3574 известную -0.3010
-4.3574 изволили -0.3010
-3.8803 издали -0.2670
-4.3574 изменился -0.3001
-4.0564 изображена -0.3006
-4.3574 изображён -0.3008
-4.3574 изредка -0.3010
-4.3574 изрезано -0.3010
-4.3574 изречения -0.3010
-4.3574 изучали -0.3010
-4.3574 изысканность -0.2958
-2.9261 или -0.2936
-3.7554 им -0.3009
-4.3574 имевший -0.3009
-3.6585 имел -0.2981
-4.0564 имела -0.3009
-4.0564 имели -0.2998
-4.3574 имело -0.3010
-4.3574 именем -0.3009
-4.3574 имения -0.3001
-3.5123 именно -0.2998
-4.0564 иметь -0.2673
-4.3574 имею -0.2972
-4.3574 имеющего -0.3010
-4.3574 имеющие -0.3010
-3.8803 имя -0.2958
-4.3574 иначе -0.2673
-4.3574 инженера -0.3010
-3.6585 иногда -0.2973
-4.3574 иного -0.3010
-4.3574 иной -0.3007
-4.3574 инспектору -0.3010
-4.3574 институтам -0.3010
-4.3574 инструментов -0.2958
-4.0564 интерес -0.2998
-4.0564 интересно -0.2646
-4.3574 интересовались -0.2673
-4.3574 интересует -0.2673
-4.3574 интересующийся -0.3010
-3.7554 иные -0.3009
-4.3574 иных -0.3006
-4.3574 искал -0.3010
-4.3574 искателем -0.3010
-4.3574 исключением -0.3010
-4.3574 искоркой -0.2673
-4.3574 искренним -0.2673
-4.3574 искрой -0.3009
-4.0564 искусно -0.3002
-4.3574 искусств -0.3010
-4.3574 испивать -0.3009
-4.3574 исподлобья -0.3010
-4.3574 исполинского -0.3010
-4.3574 исполнить -0.3003
-4.0564 испытал -0.3008
-4.3574 историей -0.3010
-4.3574 истории -0.3010
-4.3574 исторических -0.3010
-4.3574 исторического -0.3010
-4.3574 источили -0.3000
-4.3574 истребить -0.2673
-4.3574 истреблённого -0.3010
-4.0564 истёртым -0.3010
-4.0564 исчез -0.2673
-4.3574 италии -0.3003
-3.0352 их -0.2588
-4.3574 ищет -0.2673
-4.3574 июльского -0.3010
-2.7342 к -0.2996
-4.3574 кабака -0.3010
-4.3574 кабинете -0.3006
-4.3574 кадре -0.3010
-4.0564 каждого -0.2673
-4.3574 каждом -0.3010
-4.3574 каждому -0.2673
-4.3574 каждую -0.3010
-4.3574 каждый -0.3010
-4.3574 кажется -0.2673
-4.3574 казалась -0.3010
-4.0564 казались -0.3010
-3.4543 казалось -0.2944
-4.0564 казань -0.2973
-4.3574 казёнными -0.3010
-2.4436 как -0.2714
-3.6585 как-то -0.2981
-4.3574 какая -0.3010
-3.7554 какие -0.2997
-3.8803 какие-то -0.3010
-4.3574 каким-то -0.3010
-4.3574 какими -0.3005
-4.3574 какими-то -0.3010
-4.3574 какого-нибудь -0.3010
-3.5793 какое -0.2995
-3.8803 какой -0.2994
-4.0564 какой-то -0.3010
-4.3574 каком -0.3010
-4.0564 какую -0.2998
-4.0564 каменных -0.3010
-4.3574 камина -0.3010
-4.0564 каналы -0.3010
-4.0564 канелис -0.2993
-4.3574 канифасовых -0.3010
-4.3574 капустой -0.3010
-4.3574 карельской -0.3010
-4.3574 кармане -0.2673
-4.3574 карт -0.2673
-4.3574 картинах -0.3010
-4.0564 картине -0.3010
-4.3574 картину -0.2673
-4.0564 картины -0.3008
-4.3574 карточек -0.3010
-4.3574 карточки -0.3008
-4.3574 картошку -0.3010
-4.0564 картуз -0.2958
-4.3574 карты -0.2673
-4.3574 катей -0.3010
-4.3574 кати -0.2984
-4.3574 катились -0.3003
-4.3574 катюшиной -0.3010
-4.3574 катя -0.2673
-4.3574 квадратные -0.3010
-4.0564 квартире -0.2984
-4.0564 квартиру -0.2955
-4.0564 кем -0.2958
-4.3574 кивал -0.3010
-4.3574 кивнул -0.3008
-4.3574 кидались -0.2972
-4.3574 километров -0.2673
-4.3574 кинохроники -0.3010
-4.3574 кинул -0.3010
-4.3574 кинулся -0.3002
-4.3574 кипение -0.2996
-4.3574 кирпичиках -0.2673
-4.3574 кирпично-красный -0.3010
-4.3574 кислородные -0.3010
-4.3574 кистью -0.3010
-4.3574 кладу -0.2985
-4.3574 кланялись -0.3010
-4.3574 класса -0.2673
-4.3574 классики -0.3005
-4.3574 клетки -0.3010
-4.0564 клеёнкам -0.3010
-4.3574 клубки -0.2673
-4.3574 клубы -0.3010
-4.3574 ключница -0.3010
-4.3574 клёпкой -0.3010
-4.3574 книгами -0.3010
-4.3574 книгах -0.2673
-4.0564 книги -0.2673
-4.3574 книжные -0.3010
-3.8803 ко -0.3005
-4.3574 кобуру -0.3010
-2.9957 когда -0.2920
-4.0564 когда-нибудь -0.3009
-3.8803 когда-то -0.2997
-4.0564 кого -0.3004
-4.3574 кого-то -0.3010
-4.3574 кое -0.3007
-4.3574 кое-где -0.3010
-4.0564 кое-какие -0.3010
-4.3574 кое-кто -0.3010
-4.3574 кожаного -0.3010
-3.8803 кожи -0.2665
-4.3574 козырьки -0.3010
-4.3574 коленях -0.2673
-4.0564 колесо -0.2669
-4.3574 коллежский -0.3010
-4.3574 колодки -0.2958
-4.3574 колюче -0.2958
-4.3574 колючую -0.3010
-3.8803 комнату -0.2993
-4.3574 комнаты -0.3007
-4.3574 комодом -0.2673
-4.3574 комплимент -0.3008
-4.0564 кому -0.3000
-3.6585 конгресса -0.2999
-4.3574 конгрессе -0.3010
-3.8803 конец -0.3009
-3.5793 конечно -0.2616
-4.0564 конурке -0.2983
-4.3574 конусе -0.2673
-4.0564 конца -0.2673
-3.8803 конце -0.3008
-4.3574 концом -0.3010
-3.8803 концу -0.3009
-4.3574 кончился -0.2673
-4.3574 конюшню -0.3010
-4.3574 координатор -0.2958
-4.3574 копчёная -0.3010
-4.3574 корзинку -0.2996
-4.3574 корифеи -0.3010
-4.3574 корифей -0.2958
-4.3574 коричневую -0.3010
-4.3574 король -0.3009
-4.3574 коротких -0.2673
-4.3574 корреспондент -0.3010
-4.3574 корточках -0.3010
-4.3574 кору -0.3010
-4.3574 косвенных -0.3010
-4.3574 косились -0.2958
-4.0564 косынку -0.3008
-4.3574 косынок -0.2673
-3.5793 которого -0.3002
-3.7554 которое -0.2984
-3.7554 которой -0.2974
-4.0564 котором -0.3010
-4.3574 которому -0.3010
-3.3160 которые -0.2993
-3.4032 который -0.2953
-4.3574 которым -0.3003
-4.0564 которыми -0.3010
-3.6585 которых -0.2986
-4.3574 крайней -0.3010
-4.0564 красавец -0.3003
-4.3574 красе -0.2673
-4.3574 красивая -0.3010
-4.3574 краска -0.2985
-4.0564 красками -0.3009
-4.0564 краской -0.2673
-4.3574 краскою -0.3010
-4.3574 красная -0.3010
-4.3574 красноармейцев -0.2673
-4.0564 красноармейцы -0.2632
-4.3574 красного -0.3010
-4.0564 красной -0.3010
-4.0564 красным -0.2994
-4.3574 крепкие -0.3001
-4.3574 крепкий -0.3010
-4.0564 крепко -0.2673
-4.3574 кресле -0.3009
-4.3574 крестом -0.2673
-3.8803 крестьян -0.2957
-4.3574 крикнуть -0.3009
-4.3574 кричали -0.3007
-4.3574 кричит -0.2673
-4.0564 кровати -0.2673
-4.3574 кровать -0.3010
-4.3574 крови -0.3009
-4.3574 кровь -0.2972
-4.0564 кроме -0.3006
-4.3574 круглая -0.3010
-4.3574 круглое -0.3010
-4.3574 круглые -0.2673
-4.3574 кругом -0.3010
-4.3574 кружение -0.3001
-4.3574 крупными -0.3010
-4.3574 крутой -0.3009
-4.3574 кстати -0.2972
-3.1270 кто -0.2924
-4.3574 кто-то -0.3010
-3.5793 куда -0.2987
-4.3574 куда-то -0.2972
-4.3574 кудрявочёрные -0.2673
-4.3574 купеческими -0.3009
-4.3574 купленный -0.2985
-4.3574 купола -0.2673
-4.3574 купцы -0.3003
-4.3574 курица -0.2673
-4.3574 курьеров -0.2673
-4.3574 курьерских -0.3001
-4.0564 кухню -0.2673
-4.0564 кучами -0.3007
-4.3574 куче -0.3010
-4.0564 кучер -0.3010
-4.3574 кучки -0.3010
-4.3574 кущи -0.3010
-4.3574 лабораториям -0.3010
-4.3574 лавочек -0.3005
-4.3574 лавочки -0.2996
-4.3574 ладно -0.3010
-4.0564 лакей -0.3010
-4.3574 лакейским -0.3010
-4.3574 лакированные -0.2673
-4.3574 лаконически -0.2673
-4.3574 ламп -0.2958
-4.3574 лампочка -0.2972
-4.3574 лапчатой -0.3010
-4.3574 ларчик -0.3010
-4.3574 лауреат -0.3010
-4.3574 лацканах -0.2673
-4.3574 левым -0.3010
-4.3574 легенд -0.3009
-4.3574 легендам -0.3005
-4.3574 легенды -0.3010
-3.7554 легко -0.3008
-4.0564 легче -0.2673
-4.3574 лед -0.2673
-4.3574 ледяную -0.3010
-4.3574 лежавший -0.2985
-4.3574 лежал -0.2984
-4.3574 лежали -0.2985
-4.3574 лежащей -0.2972
-4.3574 лежит -0.3010
-4.3574 лейтенант -0.3010
-4.3574 ленивые -0.3010
-4.3574 лесенку -0.3010
-4.0564 лесов -0.3010
-4.3574 лестницы -0.3010
-4.3574 лестное -0.3010
-4.3574 лестные -0.3010
-3.2783 лет -0.2647
-4.3574 лета -0.3006
-4.3574 летает -0.3010
-4.3574 летел -0.2985
-4.3574 летела -0.2979
-4.3574 лететь -0.3005
-3.2113 ли -0.2892
-4.3574 лидеры -0.3010
-4.0564 линий -0.3009
-4.3574 линию -0.3005
-4.3574 лихих -0.3010
-4.3574 лиц -0.3002
-3.8803 лица -0.2997
-4.3574 лицах -0.3010
-4.0564 лице -0.3009
-3.4543 лицо -0.2579
-4.3574 лицом -0.3002
-4.3574 лицу -0.2673
-4.3574 лишком -0.3008
-3.5793 лишь -0.3003
-4.0564 лоб -0.2972
-4.3574 ловким -0.2958
-4.3574 ловко -0.3010
-4.3574 ложь -0.2996
-4.3574 ломбард -0.2999
-4.3574 лондон -0.3010
-4.3574 лоскутке -0.3010
-3.4032 лось -0.2942
-4.3574 лося -0.3010
-4.3574 лохматилась -0.2673
-4.3574 лошадей -0.3001
-4.3574 лупить -0.3010
-4.3574 луч -0.3010
-4.3574 лучи -0.2673
-3.5793 лучше -0.2601
-4.3574 льды -0.2673
-4.3574 любви -0.2673
-4.3574 любезного -0.3009
-4.3574 любила -0.3007
-4.3574 любимого -0.3000
-4.0564 любит -0.2672
-4.3574 любителями -0.3010
-4.3574 любить -0.3010
-4.3574 любишь -0.2673
-3.8803 люблю -0.2672
-4.3574 любовь -0.3010
-4.3574 любознательность -0.3003
-4.3574 любопытно -0.3004
-4.3574 любопытный -0.3010
-4.3574 любопытство -0.2673
-4.3574 любят -0.2985
-3.6585 людей -0.2670
-3.8803 люди -0.2639
-4.3574 люка -0.2673
-4.0564 люстра -0.3008
-4.3574 лёгкие -0.3010
-4.0564 лёгким -0.2673
-4.3574 лёгкими -0.3010
-4.3574 магнитных -0.3010
-4.3574 майкл -0.3010
-4.3574 малейшие -0.3010
-4.3574 маленькие -0.3010
-4.0564 маленький -0.3010
-4.3574 маленькой -0.3010
-3.8803 мало -0.2993
-3.8803 малый -0.2670
-3.8803 мальчик -0.2971
-4.3574 мальчика -0.2673
-4.0564 манилов -0.2953
-4.3574 маниловым -0.2958
-4.3574 манишка -0.3010
-4.3574 манишку -0.3010
-3.7554 марс -0.2956
-4.3574 марса -0.2673
-4.3574 марсе -0.3010
-4.3574 маршала -0.3005
-4.3574 масляной -0.3010
-4.0564 масляными -0.3010
-4.3574 массивной -0.3010
-4.3574 масти -0.2972
-4.3574 материи -0.3010
-4.3574 материк -0.3010
-4.3574 матерью -0.3010
-3.7554 мать -0.2644
-4.3574 махновщина -0.3010
-4.3574 машина -0.3010
-4.3574 машине -0.2984
-4.3574 машиной -0.2984
-4.3574 машины -0.2673
-4.3574 мая -0.3010
-4.3574 меди -0.2958
-4.3574 медленно -0.3007
-4.3574 медные -0.3010
-3.4543 между -0.3006
-4.3574 междузвёздном -0.3010
-4.3574 мелкую -0.3010
-4.3574 мелькавших -0.2673
-4.0564 мелькали -0.2958
-4.3574 менее -0.3010
-3.1022 меня -0.2515
-4.0564 меняется -0.3005
-4.3574 меняющиеся -0.3010
-4.3574 мере -0.2979
-4.3574 мест -0.3001
-4.3574 места -0.3007
-4.3574 местами -0.2996
-4.3574 месте -0.2673
-4.0564 место -0.3006
-4.3574 месяц -0.3001
-4.3574 месяцев -0.2673
-4.3574 металлическая -0.2996
-3.8803 метров -0.2632
-4.3574 механизм -0.3010
-4.3574 механизма -0.3001
-4.3574 механизме -0.3010
-4.3574 мешку -0.2996
-4.3574 милостиво -0.3010
-4.3574 мимо -0.3010
-4.3574 миновали -0.3010
-4.3574 минувших -0.3010
-4.3574 минули -0.3010
-4.0564 минуту -0.3009
-3.8803 минуты -0.2977
-4.3574 мир -0.3010
-4.0564 мира -0.2672
-4.0564 мириады -0.3010
-4.3574 миров -0.2673
-4.3574 мифы -0.3010
-4.3574 младенцами -0.2673
-2.8950 мне -0.2545
-4.3574 многие -0.3010
-3.2783 много -0.2974
-4.3574 многоугольную -0.3010
-4.3574 многоэтажных -0.3010
-4.3574 множество -0.3010
-4.0564 множеством -0.3010
-4.3574 множится -0.3009
-3.7554 мной -0.2627
-3.5123 мог -0.2633
-3.8803 могла -0.3010
-4.0564 могли -0.3007
-3.6585 могу -0.2994
-4.3574 могут -0.3010
-4.3574 могучая -0.3000
-4.3574 моде -0.2673
-4.3574 моду -0.3010
-4.3574 моего -0.3010
-4.3574 можем -0.2673
-3.2783 может -0.2937
-4.0564 можете -0.3010
-4.3574 можешь -0.3005
-3.2113 можно -0.2981
-4.3574 мозги -0.2996
-3.6585 мои -0.3009
-4.0564 моих -0.3010
-4.0564 мой -0.3009
-4.0564 мол -0.3010
-4.3574 молод -0.2673
-4.3574 молоденьких -0.3010
-3.8803 молодой -0.3008
-4.3574 молодую -0.3010
-3.7554 молодые -0.2982
-4.3574 молот -0.3001
-4.3574 молчал -0.2958
-4.3574 молчаливого -0.3010
-4.3574 молчаливый -0.2958
-4.3574 молчании -0.3007
-4.3574 момент -0.3010
-4.3574 монетную -0.3010
-4.3574 монталенти -0.3008
-4.0564 морском -0.3010
-4.3574 морщинами -0.3010
-4.3574 морщины -0.2979
-4.3574 моря -0.2673
-4.3574 москве -0.3010
-4.3574 москву -0.3005
-4.3574 москвы -0.2972
-4.3574 московский -0.3010
-4.3574 мошенник -0.2673
-3.8803 моя -0.2977
-3.8803 моё -0.3010
-4.3574 мудрых -0.3010
-4.3574 муж -0.2958
-4.3574 мужеством -0.3010
-4.3574 мужик -0.3001
-4.3574 мужика -0.3010
-4.3574 мужикам -0.3010
-4.3574 мужчин -0.2673
-4.3574 мужчина -0.3009
-4.3574 мужчину -0.3010
-4.3574 мужчины -0.3008
-4.3574 музея -0.3010
-4.3574 мутация -0.3009
-4.3574 мух -0.2673
-4.0564 мухи -0.2985
-4.3574 муху -0.3009
-4.0564 мучительно -0.2669
-3.1533 мы -0.2561
-4.3574 мылом -0.3008
-4.3574 мыслей -0.3010
-4.3574 мысль -0.2673
-4.3574 мыслями -0.2673
-4.3574 мыслящую -0.3010
-4.3574 мышь -0.3010
-4.3574 мягкой -0.2958
-2.2435 на -0.2896
-4.3574 набережной -0.3010
-4.3574 набережную -0.2673
-4.3574 наблюдения -0.2958
-4.3574 набычена -0.3010
-4.3574 наверно -0.3007
-4.0564 наверное -0.2969
-4.3574 наверняка -0.3009
-4.3574 навсегда -0.2673
-4.3574 навстречу -0.2673
-4.3574 нагнулся -0.2958
-3.3574 над -0.3005
-4.3574 надежд -0.3010
-4.0564 надежды -0.2970
-4.3574 надел -0.2673
-4.3574 надеялся -0.2673
-3.4543 надо -0.2646
-4.3574 надобностям -0.2673
-4.3574 надоедать -0.2673
-4.3574 надоело -0.3010
-4.3574 надписи -0.2673
-4.3574 надёжно -0.2958
-3.7554 назад -0.2971
-4.0564 названия -0.3005
-4.3574 назвать -0.3010
-4.3574 назначают -0.3010
-3.8803 называют -0.2971
-4.3574 наибольшее -0.3010
-4.3574 наилучшей -0.3010
-4.3574 найти -0.3010
-4.3574 наказание -0.2673
-4.3574 накинул -0.3010
-4.3574 наклонением -0.3010
-3.7554 наконец -0.2672
-4.3574 накрыв -0.3005
-4.3574 накрытыми -0.3010
-4.3574 накупившими -0.3006
-3.6585 нам -0.2970
-4.3574 намекнул -0.3009
-4.0564 написал -0.2975
-4.3574 направлению -0.3002
-4.3574 направления -0.3010
-4.0564 напротив -0.3007
-4.3574 нарочно -0.3010
-4.3574 наружного -0.3010
-4.3574 наружности -0.2673
-4.3574 наружный -0.3010
-3.6585 нас -0.2669
-4.3574 наследники -0.3010
-4.3574 наследственности -0.2972
-4.3574 наставлениями -0.2995
-4.3574 настолько -0.2985
-4.3574 настоящее -0.3010
-4.3574 настроение -0.2673
-4.3574 наступил -0.2985
-4.3574 наступление -0.2673
-4.0564 насчёт -0.3010
-4.3574 натуральности -0.3001
-4.3574 натуре -0.2984
-4.3574 натуры -0.3010
-4.3574 наук -0.3005
-4.3574 науки -0.3010
-4.3574 наукой -0.2673
-4.3574 находились -0.3010
-4.3574 находится -0.3008
-4.3574 находчиво -0.3010
-4.3574 находятся -0.3006
-3.8803 начал -0.2984
-4.3574 начала -0.2958
-4.3574 начале -0.3009
-4.3574 начались -0.3010
-4.3574 начало -0.3010
-4.3574 начался -0.3009
-4.0564 начальника -0.3008
-4.3574 начинать -0.2673
-4.3574 начинают -0.3010
-4.3574 начиная -0.3009
-4.3574 начисто -0.3010
-3.8803 наш -0.3007
-4.3574 наша -0.3010
-4.3574 нашими -0.3010
-4.3574 наших -0.3010
-4.3574 нашли -0.2673
-4.3574 нашлось -0.3010
-4.3574 нашумевшие -0.3010
-3.8803 нашёл -0.2981
-2.1400 не -0.2897
-4.0564 небольшая -0.3010
-4.3574 небольшим -0.3010
-4.3574 небольшого -0.3010
-4.0564 небольшой -0.3010
-4.3574 небрежно -0.3010
-4.3574 неважно -0.3005
-4.3574 неве -0.3010
-4.3574 невероятнее -0.3009
-4.3574 невзначай -0.3010
-4.3574 невинное -0.3010
-4.3574 невозможно -0.2673
-4.3574 невозможные -0.2673
-3.8803 невольно -0.3010
-3.1533 него -0.2594
-4.3574 негодяйка -0.2673
-4.3574 недавно -0.3010
-4.3574 недаром -0.3005
-4.3574 неделей -0.3010
-4.3574 недолго -0.3010
-4.3574 нежели -0.3010
-4.3574 неживого -0.2673
-4.3574 нежилыми -0.3006
-3.8803 незначащий -0.3010
-4.0564 неизвестно -0.2957
-4.3574 неизменно -0.3010
-4.3574 неизменным -0.2673
-3.4032 ней -0.2670
-4.3574 некогда -0.3010
-3.8803 некоторые -0.2996
-3.5793 нельзя -0.2995
-3.4032 нем -0.2667
-4.3574 немало -0.2673
-3.8803 немного -0.3009
-4.3574 немолодая -0.3010
-3.6585 нему -0.2669
-4.0564 немцев -0.2667
-4.3574 ненадёжно -0.3010
-4.3574 ненаучного -0.3010
-4.3574 необходимо -0.3009
-4.3574 необыкновенного -0.3010
-4.3574 необыкновенную -0.3010
-4.3574 необычайно -0.3010
-4.3574 неожиданный -0.3010
-4.3574 непосвящённые -0.3010
-4.3574 непосредственно -0.3004
-4.3574 непостигаемые -0.3010
-4.3574 непостижимая -0.3010
-4.3574 непременно -0.3009
-4.3574 непременный -0.3010
-4.3574 неприрученность -0.3010
-4.3574 неприятелей -0.3010
-4.3574 нервы -0.3009
-4.3574 нерождённых -0.3005
-4.3574 нескладный -0.3010
-4.3574 нескольких -0.3010
-3.1813 несколько -0.2664
-4.0564 несомненно -0.2673
-3.1533 нет -0.2632
-4.3574 нетрудно -0.2673
-4.3574 неудачи -0.2673
-3.7554 неужели -0.2988
-4.3574 неуклюжим -0.2985
-4.3574 нечего -0.3009
-4.0564 нечто -0.3008
-4.3574 неширокие -0.3010
-4.0564 нею -0.2673
-3.5123 неё -0.2578
-3.0564 ни -0.2972
-4.3574 нигде -0.3006
-4.3574 нижнею -0.3010
-4.3574 нижний -0.2979
-4.3574 нижнюю -0.3010
-4.3574 низенький -0.3009
-4.3574 низенького -0.3009
-4.3574 низко -0.3010
-4.3574 низкое -0.3010
-4.0564 никак -0.2979
-4.3574 никаких -0.3000
-4.3574 никакого -0.3010
-3.3574 никогда -0.2923
-4.0564 никого -0.3007
-4.3574 никому -0.2979
-3.8803 никто -0.2977
-3.7554 нильса -0.3010
-3.3574 ним -0.2613
-3.8803 ними -0.2672
-4.0564 нимфа -0.2996
-4.3574 ниспосланный -0.3006
-3.0787 них -0.2595
-3.2435 ничего -0.2627
-4.3574 ничем -0.3010
-4.0564 ничто -0.2972
-4.3574 ничтожнейших -0.3010
-2.7664 но -0.2775
-4.3574 нобелевской -0.3010
-4.3574 новом -0.3010
-3.7554 новые -0.2957
-4.3574 новыми -0.3010
-4.0564 новых -0.3010
-4.3574 ног -0.3010
-4.0564 ноги -0.2617
-4.3574 ногой -0.3010
-4.3574 ногою -0.3010
-3.7554 ногу -0.2672
-4.0564 номер -0.3010
-3.8803 нос -0.2999
-4.0564 носил -0.3009
-4.0564 носились -0.3010
-4.0564 носом -0.2673
-4.3574 носу -0.3008
-3.8803 носятся -0.3010
-4.3574 ночевал -0.2673
-3.7554 ночь -0.2663
-4.3574 нравилась -0.3010
-4.3574 нравится -0.2673
-3.4032 ну -0.2910
-4.3574 нужна -0.2673
-3.5793 нужно -0.2660
-4.3574 нужное -0.3010
-4.3574 нумер -0.3007
-4.3574 нынешнее -0.3009
-4.0564 нынче -0.2632
-4.3574 нём -0.3006
-2.9103 о -0.2980
-3.5793 об -0.3008
-4.3574 оба -0.3010
-4.3574 обделывать -0.3010
-4.3574 обдуманно -0.2958
-4.0564 обед -0.3006
-4.3574 обеспечить -0.3010
-4.3574 обещавшие -0.3010
-4.0564 обещаний -0.2673
-4.0564 облака -0.3008
-4.3574 обломки -0.3009
-4.3574 обмотками -0.3010
-4.3574 обмотках -0.2673
-4.3574 обнял -0.3009
-4.3574 обняла -0.3000
-4.3574 обоз -0.3010
-4.3574 оборотился -0.3010
-4.3574 обороты -0.2673
-3.7554 образом -0.2979
-4.3574 обсыпавшиеся -0.3010
-4.3574 обутою -0.2972
-4.3574 обходительными -0.2958
-4.3574 общего -0.2999
-4.0564 общества -0.2673
-4.0564 обществе -0.2670
-4.3574 общество -0.2958
-4.3574 общие -0.3010
-4.3574 общими -0.3010
-4.3574 общих -0.3010
-4.3574 общую -0.3010
-4.3574 объединяло -0.3010
-4.3574 объявление -0.3010
-4.0564 объявлением -0.3010
-4.0564 объяснить -0.3000
-4.3574 объяснять -0.2985
-4.3574 обыкновению -0.3009
-4.3574 обычаю -0.2985
-4.3574 обычная -0.3010
-4.3574 обычные -0.2972
-4.3574 овалы -0.3010
-4.3574 огибали -0.3010
-4.3574 оглянул -0.3010
-4.3574 огненные -0.3010
-4.3574 огня -0.3010
-4.3574 оголённую -0.3010
-4.0564 огромными -0.3010
-4.3574 огурец -0.3010
-4.3574 одевшись -0.2958
-4.3574 одежде -0.3010
-4.3574 оделись -0.3008
-4.3574 одеты -0.2958
-4.3574 одеяло -0.2673
-3.4032 один -0.2604
-4.3574 одиночество -0.3010
-3.5123 одна -0.2667
-3.7554 однако -0.3009
-3.7554 одни -0.2957
-4.3574 одним -0.3005
-4.0564 одно -0.3004
-3.6585 одного -0.2667
-4.3574 одногодки -0.2673
-3.6585 одной -0.3004
-4.0564 одну -0.2958
-4.0564 одобрительно -0.3004
-4.3574 одушевлённое -0.2673
-4.3574 оживлённых -0.2995
-4.3574 ожидал -0.3009
-4.3574 ожидании -0.2673
-4.3574 ожидающей -0.3010
-4.3574 ожила -0.3010
-4.3574 озарённым -0.3010
-4.3574 оказал -0.3010
-4.0564 оказалась -0.3008
-4.0564 оказалось -0.3010
-4.0564 оказался -0.3010
-4.0564 океан -0.2645
-4.3574 океане -0.2673
-4.3574 океаны -0.2673
-3.6585 окна -0.2957
-4.0564 окне -0.3010
-4.3574 окном -0.2673
-3.8803 около -0.3009
-4.3574 окон -0.2673
-4.3574 окончании -0.3010
-4.3574 окоченелый -0.3010
-4.3574 окружала -0.3010
-4.3574 окунул -0.2972
-2.2271 он -0.2344
-2.8523 она -0.2543
-2.9103 они -0.2947
-4.3574 оправдались -0.3007
-4.3574 определил -0.2985
-4.3574 опрятном -0.3010
-4.3574 опускался -0.3010
-4.3574 опустив -0.3010
-4.3574 опыт -0.2673
-3.6585 опять -0.3006
-4.3574 оранжевые -0.2996
-4.3574 организмов -0.2673
-4.3574 оробел -0.2958
-4.3574 оружие -0.2985
-4.3574 осведомились -0.2673
-4.0564 осведомился -0.2989
-4.3574 освещением -0.3005
-4.3574 освещён -0.3008
-4.3574 освещённая -0.3010
-4.3574 освещённые -0.3009
-4.0564 оседают -0.2985
-4.3574 осенний -0.3010
-4.3574 осколки -0.3010
-4.3574 ослепительный -0.3010
-4.3574 осматривал -0.3009
-4.3574 осмотреться -0.2995
-4.3574 основательность -0.3009
-4.3574 особ -0.3010
-3.8803 особенно -0.3002
-4.0564 особенным -0.2673
-4.0564 особливо -0.2972
-4.3574 оставалась -0.3010
-3.8803 оставалось -0.3003
-3.8803 оставался -0.2969
-4.3574 оставить -0.3001
-4.3574 оставляет -0.3010
-4.0564 осталось -0.2671
-4.3574 остановились -0.2673
-4.0564 остановился -0.3010
-4.3574 остаётся -0.3006
-4.0564 осторожно -0.3010
-4.3574 острый -0.3008
-4.3574 остряка -0.2958
-4.3574 остывающих -0.3010
-4.3574 остывших -0.3010
-3.0787 от -0.2998
-4.3574 отверстие -0.3010
-4.0564 отверстия -0.3010
-4.3574 отвести -0.3007
-4.0564 ответил -0.2672
-4.3574 ответить -0.3003
-4.3574 отвечает -0.3004
-3.6585 отвечал -0.2973
-4.3574 отвечающую -0.3010
-4.0564 отдать -0.2958
-4.3574 отдела -0.2673
-4.3574 отдохнувши -0.2984
-3.8803 отец -0.2994
-4.3574 отказаться -0.2673
-4.3574 отклонил -0.3010
-3.7554 открыл -0.3005
-4.3574 открытия -0.3009
-4.3574 открытым -0.2673
-3.8803 откуда -0.2952
-4.3574 откупщика -0.2999
-4.3574 отличает -0.3010
-4.3574 отличить -0.3006
-4.0564 относившиеся -0.3009
-4.3574 относится -0.3002
-4.3574 относящие -0.3010
-4.3574 отношение -0.2673
-4.3574 отобьём -0.2958
-4.3574 отозвавши -0.3008
-4.3574 оторвался -0.3007
-3.6585 отправился -0.2937
-4.3574 отрицательно -0.3010
-4.3574 отставные -0.3010
-4.3574 отсюда -0.3006
-4.0564 оттого -0.3008
-4.3574 оттопырив -0.3010
-4.3574 отца -0.2985
-4.3574 отцовское -0.3010
-4.3574 отцом -0.2673
-4.3574 отчаянных -0.3010
-4.3574 отчего -0.2999
-4.3574 отчество -0.2673
-4.3574 отыскал -0.3010
-4.3574 офицеры -0.3010
-4.3574 охотою -0.3010
-4.3574 очаровать -0.3006
-3.1022 очень -0.3003
-4.3574 очередь -0.3002
-4.3574 очутился -0.3008
-4.3574 ошибкою -0.3008
-4.3574 ощутил -0.3010
-4.0564 павел -0.3010
-4.3574 падаем -0.2673
-3.7554 палаты -0.2992
-4.3574 пальмы -0.2673
-4.3574 пальто -0.2958
-4.3574 пальцев -0.2673
-4.3574 памяти -0.2984
-4.3574 памятные -0.3004
-4.3574 память -0.3009
-4.3574 панталонах -0.3008
-4.0564 парад -0.2994
-4.3574 парень -0.2673
-4.3574 пару -0.3010
-4.3574 пары -0.3010
-4.3574 паслись -0.3007
-4.3574 патриарха -0.2984
-4.3574 паук -0.3010
-4.3574 паша -0.3010
-4.3574 первого -0.3010
-4.3574 первый -0.3007
-4.3574 первым -0.3000
-4.3574 первых -0.3010
-4.3574 перебирается -0.2958
-4.3574 переводе -0.2985
-3.6585 перед -0.3009
-4.3574 передавали -0.2985
-4.3574 передней -0.3007
-4.3574 передо -0.3010
-4.3574 перекрестили -0.3005
-4.3574 переливался -0.3010
-4.0564 перелёт -0.2967
-4.3574 перелёта -0.3010
-4.3574 перемен -0.2958
-4.3574 перемолвился -0.3010
-4.3574 перепрыгивали -0.3009
-4.3574 переулков -0.3010
-4.3574 пером -0.2673
-4.3574 песку -0.3009
-4.3574 петербурга -0.2958
-4.3574 петербурге -0.2673
-4.3574 петербургом -0.2958
-4.3574 петербургских -0.2673
-4.0564 петрушка -0.3009
-4.3574 петя -0.3007
-4.3574 пиво -0.2958
-4.3574 пикендрас -0.2673
-4.3574 пикенция -0.3005
-4.3574 пирожком -0.3010
-4.3574 пирожок -0.3008
-4.0564 писанные -0.3010
-4.3574 писать -0.3010
-4.3574 пистолетом -0.2673
-4.3574 письмо -0.2673
-4.3574 пить -0.2673
-4.3574 пичу -0.2673
-4.3574 пичук -0.2673
-4.3574 пичура -0.2958
-4.3574 плакать -0.2673
-4.3574 план -0.3010
-4.3574 планет -0.3010
-4.3574 планы -0.2673
-4.3574 платье -0.3004
-4.3574 платьев -0.3003
-4.0564 плачет -0.2672
-4.3574 плеча -0.2673
-4.3574 плечо -0.2673
-4.3574 плоским -0.2995
-4.0564 плохо -0.3010
-4.3574 площадь -0.2673
-4.3574 плутовские -0.3010
-2.7892 по -0.2981
-4.3574 по-иному -0.3008
-4.3574 по-итальянски -0.2673
-4.3574 по-моему -0.3009
-4.3574 по-французски -0.2958
-4.3574 побежал -0.3009
-4.3574 поблёскивала -0.3010
-4.3574 побывал -0.2673
-4.3574 поведения -0.3010
-4.3574 повернуться -0.2958
-4.3574 поверхность -0.3010
-4.3574 повесил -0.3005
-4.3574 поводу -0.2673
-4.3574 повёл -0.3010
-4.3574 погиб -0.3010
-4.3574 погибших -0.3010
-4.3574 поглощения -0.3010
-4.3574 поглядывали -0.2985
-4.3574 поговаривали -0.3006
-4.3574 поговорить -0.2996
-4.3574 погода -0.3006
-4.3574 погодных -0.3010
-3.5793 под -0.3008
-4.3574 подавались -0.3010
-3.8803 подавалось -0.2958
-4.3574 подавая -0.3006
-3.8803 подать -0.3006
-4.3574 подвёртки -0.2673
-4.3574 поделаешь -0.3010
-4.3574 подержанном -0.3010
-4.3574 подлец -0.3006
-4.3574 подмигивавшим -0.3010
-4.3574 поднимая -0.3010
-4.0564 подносом -0.2673
-4.3574 поднявшийся -0.3006
-4.3574 поднявшихся -0.2996
-4.3574 поднял -0.3010
-4.0564 подняла -0.2995
-4.3574 поднялся -0.3010
-4.3574 поднятые -0.3010
-4.3574 подобием -0.3010
-4.3574 подобная -0.3010
-4.3574 подобно -0.3010
-4.3574 подобное -0.2673
-4.3574 подобные -0.3010
-3.8803 подошёл -0.3002
-4.3574 подполковники -0.3010
-4.3574 подпускают -0.3002
-4.3574 подробности -0.2673
-4.3574 подробностях -0.3010
-4.3574 подседали -0.3002
-4.3574 подстрижены -0.3005
-4.3574 подтвердились -0.2673
-4.0564 подумать -0.2646
-4.3574 подушки -0.3007
-3.8803 подходили -0.3001
-4.3574 подходит -0.2673
-4.3574 подштаники -0.3010
-4.3574 подъехала -0.3002
-4.3574 подымающих -0.3010
-4.3574 пожал -0.3009
-4.3574 пожаловать -0.3002
-4.3574 пожалуй -0.2979
-4.3574 пожатием -0.3009
-4.3574 пожилой -0.3010
-4.3574 пожилым -0.3010
-4.3574 пожимали -0.3009
-4.3574 пожитки -0.3010
-4.3574 позади -0.3009
-4.3574 позволить -0.3008
-4.3574 позволял -0.3008
-4.3574 поздно -0.3005
-4.3574 познакомился -0.2984
-4.3574 поистасканный -0.2673
-4.3574 пойдём -0.3010
-4.0564 пойдёт -0.3008
-4.3574 пойму -0.3007
-3.8803 пойти -0.2653
-4.3574 пока -0.3009
-4.3574 показал -0.3010
-4.3574 показали -0.2972
-4.3574 показалось -0.2985
-4.0564 показать -0.3006
-4.3574 показывать -0.2673
-4.3574 покалывало -0.3010
-3.7554 покамест -0.3005
-4.0564 покатился -0.2673
-4.0564 покачал -0.3010
-4.0564 покой -0.2666
-4.3574 покойную -0.3010
-4.3574 поколение -0.3004
-4.3574 поколением -0.3010
-4.3574 покрыл -0.3010
-4.3574 покрыть -0.3010
-4.3574 покушавшихся -0.3006
-4.3574 покушать -0.2972
-4.3574 покушеньями -0.2985
-4.3574 полгода -0.3010
-4.3574 ползает -0.3009
-4.3574 полицеймейстера -0.2999
-4.3574 полицеймейстеру -0.3008
-4.3574 полицию -0.2673
-4.3574 полиция -0.3010
-4.3574 полицмейстер -0.3003
-4.3574 полно -0.3007
-4.3574 полной -0.3010
-4.0564 полные -0.2958
-4.3574 половина -0.2673
-4.3574 половинки -0.3010
-4.3574 половиной -0.3010
-4.3574 половины -0.3010
-4.0564 полового -0.2673
-3.6585 половой -0.2993
-4.3574 половым -0.2995
-4.0564 положение -0.2997
-4.3574 положении -0.3010
-4.3574 положенные -0.3009
-4.3574 положив -0.3009
-4.3574 положил -0.2972
-4.3574 положила -0.3010
-4.3574 полосы -0.3010
-4.3574 полукружий -0.3010
-4.3574 получают -0.3010
-4.3574 получился -0.2673
-4.0564 получить -0.2669
-4.3574 полые -0.3010
-4.3574 польстить -0.3010
-4.3574 полюсы -0.2673
-4.3574 полях -0.3010
-4.0564 помахивая -0.3010
-4.3574 померли -0.3010
-4.3574 помещался -0.3010
-4.3574 помещение -0.3008
-4.0564 помещик -0.3003
-4.0564 помещики -0.3010
-4.0564 помещиком -0.2673
-4.0564 помнил -0.3000
-4.3574 помнила -0.3010
-4.3574 помнился -0.3010
-4.3574 помнишь -0.3001
-4.3574 помню -0.2985
-4.3574 помог -0.3008
-4.3574 поможет -0.3006
-4.0564 помочь -0.2672
-4.3574 понемногу -0.3010
-4.0564 понимает -0.2672
-4.3574 понимаешь -0.2985
-4.3574 понимал -0.2985
-4.3574 понимаю -0.3010
-4.3574 понравилось -0.3010
-4.0564 понял -0.2662
-4.3574 поняла -0.2985
-3.8803 понять -0.2941
-4.3574 попадья -0.3007
-4.3574 попал -0.2673
-4.0564 попали -0.2985
-4.3574 попасть -0.2972
-4.3574 поперечнике -0.2673
-4.3574 попросить -0.3008
-3.5793 пор -0.2632
-4.3574 пороге -0.3009
-4.3574 породистую -0.3010
-4.3574 портрет -0.3010
-4.3574 портрете -0.3010
-4.3574 портреты -0.3010
-4.3574 пору -0.3010
-4.3574 поручениям -0.3005
-4.3574 посвящён -0.3003
-4.0564 посетителей -0.2666
-4.3574 послал -0.2673
-3.4543 после -0.3004
-4.3574 последнее -0.3010
-4.3574 последние -0.3010
-4.3574 последний -0.3007
-4.3574 последних -0.3007
-4.0564 последняя -0.3009
-4.3574 послеобеденного -0.3010
-4.3574 послуживши -0.3010
-4.3574 послушай -0.3006
-4.3574 посматривали -0.3004
-4.3574 посмотрел -0.3010
-4.0564 посмотреть -0.2984
-4.3574 постигали -0.3005
-4.3574 постоянно -0.3010
-4.3574 построен -0.3005
-4.3574 поступки -0.3009
-4.3574 потемневшие -0.3010
-4.3574 потемневших -0.3007
-4.3574 поток -0.2673
-4.3574 потолок -0.3010
-3.2113 потом -0.2875
-3.6585 потому -0.2985
-4.3574 потушено -0.2958
-4.3574 пофыркивал -0.3010
-4.3574 похвалы -0.3010
-4.3574 походили -0.2985
-4.3574 похож -0.2985
-4.3574 похоже -0.3001
-4.3574 похожие -0.2985
-4.3574 похожих -0.2985
-4.3574 поцеловал -0.3005
-4.3574 почве -0.2673
-3.5793 почему -0.2967
-3.8803 почтение -0.2673
-4.3574 почтением -0.2999
-4.3574 почтенных -0.3009
-3.5793 почти -0.2967
-4.0564 почтмейстера -0.2673
-4.3574 почтёт -0.3004
-4.3574 почувствовал -0.2673
-4.3574 почувствовать -0.2673
-4.3574 почёл -0.3004
-4.3574 почётные -0.3010
-4.3574 пошатнётся -0.3006
-3.8803 пошла -0.3007
-4.3574 пошли -0.3003
-4.3574 пошутить -0.3008
-3.5793 пошёл -0.2963
-4.3574 поэтому -0.2993
-4.3574 появилось -0.3010
-4.3574 пояса -0.2972
-4.3574 права -0.2673
-3.8803 правда -0.2646
-4.3574 правду -0.3009
-4.3574 правило -0.2979
-4.3574 правильно -0.2673
-4.3574 правильные -0.3010
-4.3574 правительства -0.3008
-4.3574 право -0.2673
-4.3574 праха -0.3010
-4.3574 праху -0.3010
-4.3574 превосходительство -0.2673
-4.3574 предаются -0.3010
-4.3574 предках -0.2958
-4.3574 предложил -0.3010
-4.3574 предполагал -0.2985
-4.3574 предположить -0.2673
-4.3574 председателем -0.3010
-4.0564 председатель -0.3009
-3.8803 председателя -0.2957
-4.0564 представил -0.3000
-4.3574 представитель -0.3010
-4.0564 представить -0.2974
-4.3574 представлен -0.3002
-4.3574 представлял -0.3008
-4.3574 предстоит -0.3010
-4.3574 предстояло -0.3010
-4.3574 предупредил -0.3005
-3.8803 прежде -0.3009
-4.3574 прежним -0.3001
-4.3574 президент -0.3010
-4.3574 прекрасно -0.3009
-4.3574 прекрасной -0.2958
-4.3574 прекратились -0.2995
-4.3574 премии -0.3010
-4.3574 преминуло -0.3010
-4.3574 претерпел -0.2985
-4.0564 при -0.3010
-4.3574 приблизился -0.3010
-4.3574 приборы -0.3010
-4.3574 прибывши -0.2972
-4.3574 привезённых -0.3002
-4.3574 привилегию -0.3010
-4.3574 привычной -0.3010
-3.8803 привязана -0.3004
-4.3574 приглашение -0.3010
-4.3574 приговаривал -0.3001
-4.3574 приговаривая -0.3007
-4.3574 пригожусь -0.3009
-4.3574 приготовление -0.3002
-4.3574 приготовляет -0.3010
-4.3574 приготовь -0.3010
-4.3574 придержал -0.3010
-4.3574 придумывая -0.3010
-4.0564 придётся -0.3005
-4.3574 приездом -0.2972
-4.3574 приезжего -0.3010
-4.3574 приезжем -0.3010
-3.5123 приезжий -0.2990
-4.0564 приехал -0.2972
-4.3574 приехала -0.3005
-4.3574 признался -0.3008
-4.3574 признаться -0.2673
-4.0564 приказал -0.3010
-4.3574 приколоченное -0.3010
-4.3574 прикосновение -0.3002
-4.0564 приладил -0.2664
-4.3574 прилететь -0.2996
-4.3574 прилизаны -0.2673
-4.3574 приличный -0.3007
-4.3574 приличными -0.3010
-4.3574 прилёгши -0.3010
-4.3574 пример -0.2995
-4.3574 принести -0.2995
-4.3574 принесённому -0.3010
-4.0564 принимал -0.3006
-4.0564 принимать -0.2670
-4.3574 принц -0.2673
-4.3574 принцип -0.3010
-4.3574 принялся -0.3010
-4.3574 приобрело -0.3010
-4.3574 приотворена -0.2985
-4.3574 приписывались -0.3010
-4.3574 природу -0.2995
-4.3574 природы -0.3009
-4.3574 присоединился -0.3002
-4.3574 присутствие -0.3010
-4.3574 присутствует -0.3010
-4.3574 присуща -0.3000
-4.3574 притащить -0.3009
-4.3574 притиснули -0.3009
-4.3574 притягиваемся -0.3010
-4.3574 приходили -0.3010
-4.3574 причину -0.2673
-4.3574 пришлось -0.3010
-4.3574 пришёл -0.3010
-4.3574 прищурясь -0.3010
-4.3574 приятно -0.3010
-4.0564 приём -0.3001
-4.3574 приёмах -0.3010
-4.0564 про -0.3009
-4.3574 проблема -0.2972
-4.3574 проверить -0.3010
-4.3574 провизии -0.2673
-4.3574 проворно -0.3010
-4.0564 продать -0.2673
-4.3574 продержав -0.3000
-4.3574 продолжал -0.3010
-4.3574 продуктами -0.2673
-4.3574 проезжающего -0.2673
-4.3574 проезжающие -0.3010
-4.3574 проезжающий -0.3009
-4.0564 проезжающих -0.2632
-4.3574 прозвучал -0.3009
-4.3574 произвёл -0.2972
-4.3574 произнесла -0.3000
-4.3574 произносил -0.3010
-4.3574 произнёс -0.3004
-4.3574 произошло -0.2972
-4.3574 происходили -0.2972
-4.3574 происходило -0.3010
-4.3574 происходящего -0.2673
-4.0564 пройдёт -0.2617
-4.3574 проку -0.3010
-4.3574 прокурор -0.3009
-4.0564 прокурора -0.2657
-4.3574 проломанный -0.3010
-4.0564 проникал -0.2971
-4.3574 пропадали -0.2985
-4.3574 пропасть -0.2673
-4.3574 пропустил -0.3006
-4.3574 пропустить -0.3008
-4.3574 прорезывал -0.3010
-4.0564 просвещённой -0.3010
-4.3574 просил -0.3010
-4.3574 простейшего -0.3010
-4.3574 простите -0.2993
-3.1813 просто -0.2962
-4.3574 просторном -0.3010
-4.0564 пространстве -0.3009
-4.3574 проступает -0.3010
-4.3574 просьбе -0.3010
-3.8803 против -0.3006
-4.3574 противоположные -0.3010
-4.3574 протискивался -0.3002
-3.8803 профессор -0.3009
-4.3574 профиль -0.3010
-4.3574 проходя -0.3010
-4.3574 прохожих -0.2958
-4.3574 прочая -0.3009
-4.3574 прочесть -0.2673
-4.0564 прочие -0.3010
-4.3574 прочитал -0.3003
-4.0564 прочих -0.2672
-4.3574 прошептал -0.3006
-4.3574 прошло -0.2996
-4.3574 прошлого -0.3010
-4.0564 прошу -0.3010
-4.3574 проще -0.2673
-4.3574 прощения -0.3009
-4.3574 прудики -0.2673
-4.0564 прыгали -0.2958
-4.3574 прядь -0.3010
-4.0564 прямо -0.3007
-4.3574 прямой -0.3010
-4.3574 прямые -0.2958
-3.8803 птиц -0.2646
-4.3574 публику -0.2673
-4.3574 пуля -0.3006
-4.3574 пулярка -0.3010
-4.3574 пустившее -0.3009
-4.3574 пустил -0.3000
-4.3574 пусто -0.3010
-4.0564 пустые -0.3009
-4.3574 пустынные -0.3010
-4.3574 пустыню -0.2673
-4.3574 пустырь -0.2985
-4.3574 пусть -0.3010
-4.3574 путешествие -0.2985
-4.3574 пути -0.2999
-4.3574 пхнул -0.3010
-4.3574 пыльцу -0.2958
-4.3574 пытались -0.3010
-4.3574 пятились -0.3007
-4.3574 пятнадцать -0.3010
-3.7554 пять -0.3002
-4.3574 работаю -0.3010
-4.3574 работой -0.2673
-4.0564 рабочий -0.2958
-4.3574 рабочих -0.2958
-4.3574 равнина -0.3008
-4.3574 равниной -0.2958
-4.3574 равнину -0.2673
-4.0564 рад -0.2983
-4.0564 ради -0.3005
-4.3574 радости -0.3010
-4.0564 радужных -0.3010
-3.1022 раз -0.2589
-3.8803 раза -0.2668
-4.3574 разбил -0.3010
-4.3574 разбирал -0.3003
-4.3574 разбитые -0.3010
-4.3574 разбросанных -0.3003
-4.3574 разбросано -0.3002
-4.0564 разве -0.2977
-4.3574 развернул -0.3010
-4.3574 развивается -0.3010
-4.3574 развёлся -0.2673
-4.3574 разглядывая -0.2972
-4.3574 разговаривали -0.3009
-4.0564 разговор -0.2947
-4.0564 разговорах -0.2996
-3.8803 разговоры -0.2971
-4.0564 раздался -0.3010
-4.3574 различимые -0.2673
-4.3574 разломил -0.3010
-4.3574 разлучённых -0.3010
-4.3574 размера -0.3010
-4.3574 размешивал -0.2972
-4.3574 размотавши -0.3010
-4.3574 размотал -0.2996
-4.3574 размышления -0.3010
-4.0564 разницы -0.2985
-4.3574 разновозрастную -0.3010
-4.3574 разноликую -0.3010
-4.3574 разноязычную -0.3010
-4.3574 разноязычный -0.3010
-4.0564 разные -0.3010
-4.3574 разным -0.3010
-4.0564 разных -0.3010
-3.8803 разогретое -0.2617
-4.3574 разум -0.3010
-4.0564 разумеется -0.3008
-4.3574 разыскивали -0.3010
-4.3574 рай -0.3010
-4.3574 ракета -0.2673
-4.3574 рано -0.2673
-3.8803 раньше -0.2952
-4.3574 раскалённость -0.3009
-4.3574 раскованнее -0.2673
-4.3574 раскрытые -0.3010
-4.3574 распростро -0.3010
-4.3574 распростёртое -0.2972
-4.3574 рассеянно-улыбчивых -0.3010
-4.3574 расскажу -0.3001
-4.3574 рассказал -0.3006
-4.3574 рассказывать -0.3009
-4.3574 рассматривал -0.3010
-4.3574 рассмеялся -0.2958
-4.3574 рассмотреть -0.3009
-4.0564 расспросил -0.2981
-4.3574 расстались -0.2673
-4.3574 расстегнул -0.3010
-4.3574 рассудительного -0.2958
-4.3574 рассыпающей -0.3010
-4.3574 растёт -0.2985
-4.3574 расходы -0.2993
-4.3574 расцеловала -0.2673
-4.0564 ребёнка -0.2673
-4.0564 ребёнок -0.2673
-4.3574 револьвер -0.3010
-4.3574 ревя -0.2958
-4.3574 редактор -0.3010
-4.3574 редко -0.3010
-4.3574 резкие -0.3010
-4.3574 реостатам -0.3010
-4.3574 рессорная -0.3010
-4.3574 речист -0.3003
-3.7554 решил -0.2985
-4.3574 решительно -0.2958
-4.3574 риске -0.2673
-4.3574 рисовал -0.3000
-4.3574 ровно -0.3010
-4.3574 род -0.2673
-3.5793 рода -0.2638
-4.3574 родился -0.2958
-4.3574 родители -0.2958
-4.3574 родов -0.2673
-4.3574 роль -0.3010
-4.3574 ромбами -0.3010
-4.3574 рослый -0.3010
-4.3574 россии -0.3007
-4.3574 россию -0.3010
-4.3574 россказни -0.3010
-4.3574 рот -0.3010
-4.3574 рубахе -0.3008
-4.3574 рубашке -0.3010
-4.3574 рубашки -0.3010
-4.3574 рубит -0.2958
-4.3574 рубля -0.2972
-4.3574 рук -0.3005
-4.3574 рукам -0.2673
-4.0564 руками -0.3009
-4.0564 руках -0.2957
-3.8803 руке -0.2984
-3.5793 руки -0.2587
-4.3574 рукой -0.2984
-4.3574 рукопожатий -0.2984
-4.0564 рукою -0.3010
-3.5793 руку -0.2611
-4.3574 руси -0.3010
-4.3574 русские -0.3010
-4.3574 русский -0.2673
-4.3574 русским -0.3010
-4.0564 русских -0.2673
-4.3574 русскому -0.3010
-4.3574 руч -0.2673
-4.3574 рыба -0.2972
-4.3574 рычал -0.3004
-4.3574 рябоват -0.3010
-3.6585 рядом -0.2655
-4.3574 рёбрами -0.2958
-2.4824 с -0.2977
-4.3574 садимся -0.3009
-3.2783 сам -0.2958
-4.3574 сама -0.3006
-4.3574 самая -0.3010
-4.0564 сами -0.3010
-4.3574 самим -0.3010
-4.3574 самих -0.3003
-4.0564 самовар -0.2639
-4.3574 самовара -0.3007
-4.3574 самоваром -0.3005
-3.8803 самое -0.3010
-4.0564 самой -0.3000
-4.3574 самом -0.3010
-4.3574 самоуверенный -0.3010
-4.3574 самсьм -0.3010
-4.3574 самшест -0.2958
-4.3574 самый -0.3010
-4.0564 сановникам -0.2673
-4.3574 сановников -0.3010
-4.3574 сапог -0.3009
-4.3574 сапожные -0.3010
-4.3574 сарай -0.3010
-4.0564 сарая -0.2673
-4.3574 сахар -0.2958
-4.3574 сберегаемым -0.3007
-4.3574 сбивались -0.2972
-4.3574 сбитенщик -0.2673
-4.3574 свежий -0.3010
-4.3574 сверкали -0.3010
-3.8803 свет -0.2958
-3.8803 свете -0.2670
-4.0564 светом -0.3010
-4.3574 светский -0.3010
-4.3574 свечей -0.3010
-4.3574 свободнее -0.3010
-4.3574 свободной -0.3010
-4.3574 сводчатого -0.3010
-4.3574 сводящие -0.2996
-3.7554 своей -0.3009
-3.7554 свои -0.3009
-4.3574 своим -0.3010
-4.0564 своими -0.3010
-4.3574 своих -0.3009
-4.0564 свой -0.3010
-3.5123 свою -0.3008
-3.7554 своё -0.3008
-3.6585 своём -0.2672
-4.3574 связанные -0.2996
-4.3574 святой -0.2673
-4.3574 священнейший -0.3010
-4.3574 свёрнутая -0.2972
-3.8803 сделал -0.3001
-4.0564 сделали -0.3010
-4.3574 сделанных -0.3010
-3.7554 сделать -0.2667
-3.2435 себе -0.2571
-3.1813 себя -0.2550
-3.8803 сего -0.2951
-3.7554 сегодня -0.2662
-4.3574 сегодняшние -0.3010
-4.3574 седая -0.3010
-4.3574 седой -0.3001
-3.6585 сейчас -0.2656
-4.3574 секрет -0.2673
-4.0564 сел -0.2964
-4.3574 села -0.3009
-4.0564 селифан -0.3009
-4.3574 село -0.3008
-4.0564 семена -0.3010
-3.8803 семь -0.2670
-4.3574 семьдесят -0.2673
-4.0564 семью -0.2958
-4.0564 сердце -0.3007
-4.3574 серо-карие -0.2958
-4.3574 серой -0.2996
-4.3574 серьёзно -0.2673
-4.3574 серьёзного -0.2958
-4.3574 сестра -0.3006
-4.3574 сестры -0.2673
-4.0564 сеть -0.3009
-4.3574 сзади -0.3010
-4.3574 сигару -0.2673
-4.0564 сидевшему -0.2972
-3.5793 сидел -0.2931
-3.8803 сидела -0.3006
-4.3574 сидеть -0.3008
-4.3574 сидит -0.3010
-3.8803 сил -0.2673
-4.3574 силе -0.2958
-4.3574 силу -0.3009
-4.3574 сильно -0.3010
-4.3574 сильную -0.3010
-4.3574 сильных -0.3010
-4.3574 сими -0.2673
-4.3574 симпозиуме -0.3010
-4.3574 синюю -0.3010
-4.3574 ситцевом -0.3010
-3.6585 сих -0.3009
-4.0564 сияющем -0.2673
-4.3574 сияющие -0.3010
-4.3574 скажем -0.3009
-4.3574 скажу -0.2673
-4.3574 сказавши -0.3010
-3.2435 сказал -0.2625
-4.3574 сказала -0.2673
-4.3574 сказали -0.2673
-3.3160 сказать -0.2633
-4.3574 сказочные -0.3010
-4.0564 скайлс -0.3010
-4.0564 скайльс -0.3007
-4.3574 скайльса -0.3008
-4.3574 скал -0.3005
-4.3574 сквере -0.3010
-3.5793 сквозь -0.3009
-4.3574 скинул -0.2996
-4.0564 складам -0.3010
-4.3574 скользили -0.3010
-4.0564 сколько -0.2661
-4.0564 скорее -0.3010
-4.3574 скорей -0.2673
-4.0564 скоро -0.2974
-4.3574 скоростью -0.3010
-4.3574 скроен -0.2995
-4.3574 скромностию -0.2958
-3.7554 скучно -0.2608
-4.3574 слабо -0.3010
-4.3574 слабый -0.3010
-4.0564 слава -0.2958
-4.3574 славным -0.3010
-4.3574 сладкие -0.2995
-4.3574 сладкий -0.3010
-4.3574 следов -0.2673
-4.0564 следствием -0.3008
-3.8803 следует -0.2632
-4.3574 следующее -0.3010
-4.3574 следующий -0.3010
-4.0564 следы -0.3010
-4.3574 следя -0.3010
-4.3574 следят -0.3001
-4.3574 слетевший -0.3007
-4.0564 слетят -0.2673
-4.3574 сличали -0.3000
-3.3160 слишком -0.3003
-4.0564 слов -0.3009
-3.8803 слова -0.2673
-4.3574 словам -0.3001
-4.3574 словно -0.3010
-3.7554 слово -0.2612
-3.6585 словом -0.2969
-4.3574 сложно -0.3008
-4.3574 сложность -0.3010
-4.3574 слоёный -0.3010
-4.3574 слоёным -0.3010
-3.8803 слуги -0.3002
-4.0564 слугою -0.2667
-4.0564 слугу -0.3005
-4.3574 служат -0.3009
-4.3574 службе -0.3004
-4.3574 службу -0.3010
-4.0564 случае -0.2984
-4.0564 случается -0.2984
-4.0564 случай -0.2672
-4.3574 случайно -0.3010
-4.3574 случаях -0.3010
-3.7554 случилось -0.2616
-3.6585 слышал -0.2588
-4.0564 слышала -0.3004
-4.3574 слышали -0.3005
-4.3574 слышать -0.3006
-4.3574 слышишь -0.2958
-4.3574 слёзы -0.3010
-4.3574 смело -0.2995
-4.3574 смены -0.3010
-4.0564 смерти -0.3009
-4.0564 смерть -0.2669
-4.3574 сметливым -0.3010
-4.3574 смешили -0.3010
-4.3574 смеялся -0.3003
-4.3574 смогу -0.3006
-4.3574 смоль -0.3010
-4.3574 сморщился -0.2673
-4.3574 смотрели -0.2673
-3.8803 смотреть -0.2673
-3.8803 смотрит -0.2665
-4.3574 смутно -0.2673
-4.3574 смущённо -0.3010
-4.3574 смысл -0.2673
-4.3574 смысла -0.2673
-4.3574 сна -0.2984
-4.3574 снабжая -0.3010
-4.3574 снаружи -0.3010
-4.3574 сначала -0.3010
-4.3574 снизу -0.3010
-4.3574 снова -0.3010
-4.3574 сновали -0.3010
-4.3574 снятой -0.3010
-3.3574 со -0.3008
-4.3574 соавтор -0.2673
-4.0564 собакевич -0.3002
-4.3574 собакевичем -0.3009
-4.3574 собирая -0.3009
-4.3574 собираясь -0.2996
-3.8803 собой -0.2672
-4.3574 собою -0.2673
-4.3574 собравшись -0.3010
-4.3574 собрался -0.3010
-3.7554 собственно -0.3004
-4.3574 собственной -0.2673
-4.0564 собственный -0.3010
-4.3574 событий -0.3007
-4.3574 события -0.2673
-3.6585 совершенно -0.3008
-4.3574 совершенства -0.3010
-4.3574 советник -0.3010
-4.3574 советники -0.3008
-4.3574 совету -0.3010
-3.4543 совсем -0.2984
-4.3574 согласить -0.2673
-4.3574 согласиться -0.3010
-4.3574 содержал -0.3010
-4.3574 солдат -0.2972
-4.3574 солдата -0.3010
-4.3574 солидное -0.2958
-4.3574 солнца -0.2673
-4.3574 солнце -0.3010
-4.3574 соль -0.2985
-4.3574 солёный -0.2958
-4.0564 сообщения -0.3000
-4.3574 сообщён -0.2958
-4.3574 соответствовало -0.3010
-4.0564 сопровождал -0.3008
-4.3574 сопровождён -0.3010
-4.0564 сорок -0.3009
-4.3574 сосед -0.3010
-4.3574 соседнее -0.3010
-4.3574 соседстве -0.2996
-4.3574 сосиски -0.2996
-4.3574 сосредоточенность -0.2673
-4.3574 составляли -0.3010
-4.3574 составляло -0.3009
-4.3574 состоит -0.3005
-4.3574 состояние -0.2673
-4.3574 состоянии -0.3009
-4.3574 сотни -0.3010
-4.3574 сотня -0.3010
-4.3574 сотрудниц -0.3010
-4.3574 сотрясаясь -0.3010
-4.3574 сохранил -0.3009
-4.3574 сохранить -0.3010
-4.3574 сохранял -0.3009
-4.3574 сохраняя -0.3010
-4.3574 сошлись -0.3006
-4.3574 союз -0.3010
-4.3574 спальне -0.2673
-4.3574 спальни -0.2979
-4.3574 спальню -0.3007
-4.3574 спас -0.3008
-4.3574 спасибо -0.3005
-4.3574 спинами -0.3010
-4.3574 спиной -0.2673
-4.3574 спираль -0.3010
-4.3574 спокойно -0.3010
-4.3574 спокойный -0.3009
-4.3574 спокойным -0.3010
-4.3574 спокойствие -0.3010
-3.8803 спорил -0.2992
-4.3574 спорили -0.2995
-3.8803 способен -0.2985
-4.3574 способность -0.3010
-4.3574 спохватывались -0.3010
-4.3574 справа -0.2673
-4.0564 спрашивал -0.2979
-4.3574 спрашивали -0.3010
-4.3574 спросил -0.2673
-4.3574 спросила -0.3004
-4.3574 спросить -0.2985
-4.3574 спускают -0.3003
-4.3574 спускаясь -0.2673
-4.3574 спустя -0.2673
-3.5793 сразу -0.2659
-4.3574 среди -0.3010
-4.3574 средней -0.3009
-4.3574 средних -0.3008
-4.3574 средства -0.2673
-3.8803 стал -0.3005
-4.0564 стала -0.3010
-3.7554 стали -0.3008
-3.7554 стало -0.3004
-4.0564 стар -0.3002
-4.3574 старались -0.3010
-3.6585 старая -0.3009
-4.3574 стараясь -0.2979
-4.3574 старили -0.3000
-4.3574 старшим -0.3009
-4.3574 статейка -0.2673
-4.3574 статские -0.3010
-4.3574 стеклом -0.3010
-4.3574 стенах -0.3010
-3.8803 стене -0.2982
-4.0564 стену -0.3010
-4.3574 стены -0.3010
-4.3574 степени -0.2985
-4.3574 стихи -0.3005
-3.8803 стоит -0.2632
-4.3574 стокгольме -0.2673
-4.0564 столами -0.3007
-4.3574 столиком -0.2999
-4.3574 столовой -0.2673
-4.3574 столом -0.3010
-3.7554 столу -0.2672
-4.3574 сторона -0.3010
-4.3574 сторонам -0.2673
-3.6585 сторону -0.2667
-3.7554 стороны -0.2669
-4.3574 стоявшие -0.2999
-4.3574 стоявшую -0.3009
-4.0564 стоял -0.3000
-4.3574 стояли -0.2985
-4.0564 стояло -0.3004
-4.3574 стоят -0.2972
-4.3574 стоять -0.2958
-4.3574 страна -0.3010
-3.8803 странно -0.2997
-4.3574 странные -0.3010
-4.3574 страшно -0.3001
-4.3574 страшный -0.2673
-4.0564 стрелять -0.2665
-4.3574 строк -0.3010
-4.0564 строю -0.3010
-4.3574 стучала -0.3010
-4.3574 стыда -0.2673
-4.3574 стёганого -0.3010
-4.3574 стёганой -0.3010
-4.3574 стёкла -0.3010
-4.0564 стёклышек -0.2671
-4.3574 сударь -0.3010
-4.3574 судить -0.2673
-4.3574 судя -0.3003
-4.3574 сумели -0.3009
-4.3574 сумерек -0.3010
-4.3574 сумерки -0.3010
-4.3574 сумку -0.2673
-4.3574 сунул -0.2972
-4.3574 супруга -0.3010
-4.3574 сурик -0.2673
-4.3574 суровый -0.2985
-4.3574 сутки -0.3010
-4.3574 сутуловатый -0.3010
-4.3574 сух -0.2673
-4.0564 существовали -0.3010
-4.3574 существование -0.3009
-4.3574 существовать -0.3010
-4.3574 сферического -0.3010
-4.0564 схваток -0.2979
-4.3574 схвачен -0.3009
-4.3574 сходилось -0.2673
-4.3574 счастья -0.2673
-4.3574 считаю -0.2673
-4.3574 съезде -0.3010
-4.3574 съездов -0.2673
-4.3574 сын -0.2673
-4.3574 сына -0.3001
-4.0564 сюда -0.2673
-4.3574 сюртуке -0.2995
-4.0564 сядут -0.3007
-3.8803 та -0.2998
-4.3574 табак -0.2673
-4.3574 табакерку -0.2673
-4.3574 таинственное -0.3010
-4.3574 тайна -0.3010
-2.7240 так -0.2495
-3.5793 такая -0.2616
-4.3574 также -0.3010
-3.6585 такие -0.2632
-4.0564 таким -0.2998
-4.0564 такими -0.3010
-3.5793 таких -0.2993
-4.3574 таков -0.2972
-3.5793 такого -0.2975
-3.5793 такое -0.2658
-3.7554 такой -0.3010
-4.0564 такси -0.3006
-3.1270 там -0.2556
-4.3574 тамбовский -0.3010
-4.3574 танцующих -0.3010
-4.3574 тараканами -0.3010
-4.3574 твои -0.3010
-4.0564 твоим -0.3010
-4.3574 твёрдо -0.3008
-3.5123 те -0.2998
-3.4543 тебе -0.2667
-3.6585 тебя -0.2665
-4.3574 тела -0.2673
-4.3574 телескопа -0.3010
-4.0564 телефона -0.2671
-3.5123 тем -0.3008
-4.3574 тени -0.3007
-3.1533 теперь -0.2921
-4.3574 термины -0.3003
-4.3574 теряли -0.3000
-4.3574 тех -0.3009
-4.3574 течение -0.3010
-3.8803 тихо -0.2616
-4.3574 ткнул -0.3010
-4.3574 ткнулся -0.2972
-2.8661 то -0.2858
-3.7554 тогда -0.2633
-3.2113 того -0.2932
-3.1813 тоже -0.2960
-4.3574 той -0.3010
-4.0564 толку -0.3008
-4.3574 толпе -0.3010
-4.0564 толст -0.3006
-4.3574 толстого -0.3010
-3.7554 толстые -0.2993
-4.3574 толстый -0.2673
-4.3574 толстым -0.2673
-2.8134 только -0.2433
-3.6585 том -0.3003
-4.0564 тому -0.3009
-4.3574 тон -0.3006
-3.7554 тоненькие -0.3007
-4.3574 тоненький -0.3003
-4.3574 тоненьких -0.3010
-4.3574 тоненького -0.2972
-4.3574 тонкие -0.2673
-3.8803 тонок -0.2616
-4.3574 тоном -0.2673
-4.3574 торговым -0.3010
-4.3574 тостов -0.3010
-3.5123 тот -0.2989
-3.8803 тотчас -0.2998
-4.3574 точек -0.2958
-4.3574 точно -0.3010
-4.3574 точностию -0.3010
-4.3574 тощим -0.3010
-4.3574 трава -0.3005
-4.3574 траве -0.3010
-4.3574 трактир -0.2958
-4.0564 трактирах -0.2673
-4.3574 трактире -0.3010
-4.0564 трактирного -0.3010
-4.3574 трактирным -0.3010
-4.3574 требовалось -0.3010
-4.3574 трепетной -0.3009
-4.3574 трепещет -0.3010
-4.3574 третьем -0.3010
-3.5793 три -0.2981
-4.3574 тридцати -0.2972
-3.8803 тридцать -0.3009
-4.3574 тротуара -0.3010
-4.3574 труба -0.2673
-4.3574 трубки -0.3010
-4.3574 трубкой -0.2972
-4.0564 трубку -0.2617
-4.3574 трубочного -0.3010
-3.8803 трудно -0.3009
-4.3574 труднопроизносимые -0.3010
-4.0564 трудом -0.3007
-4.3574 труп -0.3010
-4.3574 трёхногую -0.3010
-4.0564 ту -0.2999
-4.3574 туалетом -0.2673
-4.3574 туалету -0.2673
-4.3574 тугоплавкой -0.3010
-3.6585 туда -0.2606
-4.3574 туземными -0.3010
-4.3574 тулупчике -0.2958
-4.3574 тульскою -0.3010
-4.3574 тусклого -0.3010
-4.3574 тусклой -0.3010
-3.2783 тут -0.2592
-4.3574 тут-то -0.2958
-4.3574 туч -0.3010
-3.0150 ты -0.2935
-4.3574 тысяч -0.3010
-3.8803 тысяча -0.3010
-4.3574 тысячи -0.3009
-4.3574 тысячу -0.3008
-4.3574 тьме -0.2673
-4.3574 тью -0.3010
-4.3574 тюлю -0.2673
-4.3574 тюфяка -0.3010
-4.3574 тяжёлая -0.3010
-4.3574 тянулись -0.3009
-4.3574 тянулся -0.3010
-4.3574 тёмно-красных -0.3010
-4.0564 тёмной -0.2673
-4.3574 тёмный -0.3010
-4.3574 тёплый -0.3010
-4.3574 тёр -0.3010
-4.3574 тёртый -0.3010
-4.3574 тётя -0.2673
-2.5793 у -0.2975
-4.3574 уайт -0.3010
-4.3574 уайта -0.2984
-4.3574 уайтом -0.3010
-4.3574 убедительно -0.3010
-4.0564 убедиться -0.2646
-4.3574 убил -0.3010
-4.3574 убили -0.3008
-4.3574 убиты -0.3010
-4.3574 убитым -0.2958
-4.3574 убить -0.3009
-4.3574 уважение -0.3010
-4.3574 уважения -0.3008
-4.3574 уверенно -0.2958
-4.3574 увивались -0.3010
-4.0564 увидел -0.3009
-4.3574 увидела -0.2673
-4.3574 увидите -0.2673
-4.3574 увы -0.3010
-4.3574 углекислоты -0.3010
-4.3574 углов -0.2958
-4.3574 углу -0.2972
-4.3574 угнетётся -0.3009
-4.3574 угодьями -0.3010
-4.3574 угол -0.3010
-4.3574 уголовниками -0.2673
-4.3574 угольной -0.3005
-3.8803 удалось -0.3005
-4.3574 удара -0.3010
-4.3574 ударе -0.3010
-4.3574 ударял -0.3003
-4.3574 удаётся -0.3008
-4.3574 удивился -0.3010
-4.3574 удивительно -0.3001
-4.3574 удивлённо -0.2673
-4.3574 удобно -0.3008
-4.3574 удовлетворён -0.3009
-4.3574 удовольствие -0.2958
-3.3574 уж -0.2936
-4.3574 ужасно -0.3003
-2.9957 уже -0.2902
-4.3574 ужин -0.2972
-4.3574 узенькую -0.3010
-4.3574 узкие -0.2995
-4.3574 узких -0.2958
-4.3574 узнаваемый -0.3010
-4.0564 узнал -0.2672
-4.3574 узнали -0.2972
-4.0564 узнать -0.2968
-4.3574 узнаю -0.3003
-4.3574 уйти -0.3006
-4.3574 украшали -0.3000
-4.3574 украшение -0.3009
-4.3574 украшений -0.3009
-4.3574 укреплён -0.3010
-4.0564 улететь -0.2673
-4.3574 улицам -0.3010
-4.0564 улице -0.2639
-3.8803 улицу -0.2664
-4.3574 улицы -0.3010
-4.3574 улыбалась -0.2673
-4.3574 улыбаться -0.2673
-4.3574 улыбаясь -0.2673
-4.3574 ума -0.3010
-4.3574 умел -0.3010
-3.8803 умерла -0.2667
-4.3574 умеют -0.3009
-4.3574 умеющий -0.3007
-4.3574 умные -0.3003
-4.3574 умылась -0.2673
-4.3574 умыться -0.2673
-4.3574 университетам -0.3010
-4.3574 упал -0.3010
-4.3574 уполномоченный -0.3010
-4.3574 упомнить -0.2673
-4.0564 упомянуто -0.3010
-4.3574 упорство -0.3010
-4.3574 употребляли -0.3010
-4.3574 управлялись -0.2958
-4.3574 управы -0.2958
-4.3574 уровне -0.3010
-4.3574 уронил -0.3007
-4.0564 усам -0.2673
-4.0564 усами -0.2673
-4.3574 усачом -0.3010
-4.3574 условиях -0.3010
-4.3574 услугам -0.3010
-3.5793 успел -0.2645
-4.3574 успокоиться -0.3010
-4.3574 установившиеся -0.3010
-4.3574 устраивается -0.3010
-4.3574 устроиваться -0.2972
-4.3574 устроиться -0.2972
-4.3574 устройства -0.3010
-4.3574 уступал -0.3010
-4.3574 утаить -0.2673
-4.3574 утомлённым -0.3010
-4.3574 утра -0.2673
-4.3574 утро -0.2673
-3.8803 ухо -0.2638
-4.3574 уходила -0.3004
-4.0564 уходит -0.3004
-4.0564 уходить -0.2673
-4.3574 участника -0.2673
-4.3574 ученика -0.3010
-4.3574 учесть -0.2972
-4.3574 учился -0.2985
-4.3574 учителе -0.2673
-4.3574 учтивыми -0.2673
-4.3574 ушла -0.2985
-4.3574 ушёл -0.2673
-4.3574 фабриками -0.2673
-4.3574 факты -0.3000
-4.0564 фамилию -0.2669
-4.3574 фамилия -0.2958
-4.3574 фаринаде -0.2972
-4.3574 фасад -0.3009
-4.3574 федька -0.3010
-4.3574 фельетонов -0.3003
-4.3574 фермами -0.2673
-4.3574 фиалки -0.2673
-4.3574 фигуре -0.3009
-4.3574 фигуры -0.2984
-4.0564 физиономию -0.2673
-4.3574 философа -0.3010
-4.3574 форме -0.2673
-4.3574 формы -0.2673
-3.8803 фотографии -0.2582
-4.3574 фотографию -0.2673
-4.0564 фотография -0.3002
-4.3574 фразы -0.3010
-4.3574 фрак -0.2979
-4.3574 фраке -0.3010
-4.0564 фраки -0.3010
-4.3574 франков -0.2673
-4.3574 французы -0.2673
-4.3574 фронт -0.2673
-4.3574 фуражечки -0.3010
-4.3574 характер -0.2999
-4.3574 хватало -0.3010
-4.3574 хватит -0.3010
-4.3574 хваткой -0.3010
-4.3574 хлебосолом -0.2958
-3.5123 хм -0.2672
-4.3574 хмыкал -0.2673
-4.3574 ходил -0.2972
-4.0564 ходили -0.2972
-4.3574 хозяева -0.2673
-3.8803 хозяин -0.2938
-4.3574 хозяина -0.3009
-4.3574 холмистая -0.3010
-4.3574 холода -0.2673
-4.0564 холодное -0.2984
-4.3574 холодным -0.2995
-4.3574 холостым -0.3010
-4.3574 холостяки -0.3010
-4.3574 хомутами -0.3010
-4.3574 хорошее -0.3010
-3.7554 хорошо -0.2671
-4.3574 хоругви -0.3009
-3.5123 хотел -0.2665
-4.3574 хотела -0.3007
-4.3574 хотели -0.3006
-4.0564 хотелось -0.3009
-4.3574 хотите -0.2673
-3.8803 хоть -0.3001
-3.5123 хотя -0.3000
-4.0564 хочет -0.2984
-3.7554 хочу -0.3003
-4.3574 хребтом -0.2673
-4.3574 худенькая -0.3010
-3.8803 художник -0.2978
-3.8803 хуже -0.2637
-4.3574 цвет -0.3008
-4.0564 цвета -0.2657
-4.0564 цветов -0.2673
-4.3574 цветом -0.3008
-4.3574 целует -0.3005
-4.0564 целый -0.3010
-4.3574 цель -0.3009
-4.3574 цену -0.2958
-4.3574 цепи -0.2985
-4.0564 чайных -0.3010
-4.0564 час -0.3009
-3.6585 часа -0.2672
-4.0564 часов -0.2667
-4.3574 часто -0.3010
-4.3574 частой -0.3010
-4.0564 часть -0.3009
-4.3574 частью -0.3010
-4.3574 часы -0.2673
-4.3574 чахлой -0.3010
-4.0564 чашек -0.2995
-4.3574 чашку -0.3010
-4.0564 чаще -0.3006
-4.0564 чаю -0.2667
-3.5793 чего -0.2962
-4.3574 чей-то -0.3010
-4.3574 чек -0.3010
-3.5123 человек -0.2930
-3.6585 человека -0.2998
-4.0564 человеком -0.2673
-4.3574 человеческий -0.3010
-4.3574 человеческих -0.3010
-4.3574 челюсть -0.3010
-3.3160 чем -0.2606
-3.8803 чемодан -0.2952
-4.3574 чемоданом -0.3010
-4.3574 черви -0.2673
-4.3574 червоточина -0.3010
-4.3574 червь -0.3010
-4.3574 червяка -0.2972
-3.5793 через -0.3006
-4.3574 череп -0.2972
-4.3574 чернослив -0.3005
-4.3574 чертах -0.3003
-4.3574 чертежами -0.2958
-4.3574 черты -0.3010
-4.0564 честь -0.3010
-4.0564 чин -0.2978
-4.3574 чиновника -0.2673
-4.0564 чиновники -0.2969
-4.3574 чиновников -0.2972
-4.3574 числятся -0.2958
-4.3574 чистое -0.3010
-4.3574 читала -0.3010
-4.3574 читатель -0.3010
-4.3574 читать -0.2673
-3.5793 чичиков -0.2987
-4.3574 чичикова -0.2972
-4.3574 чичикову -0.3003
-3.7554 чрезвычайно -0.3008
-4.3574 чрезвычайною -0.3010
-2.2369 что -0.2270
-3.5123 что-то -0.2990
-4.0564 чтоб -0.2953
-3.1813 чтобы -0.2641
-3.8803 чувствовал -0.2982
-4.3574 чувствовалось -0.2985
-4.3574 чувствую -0.2673
-4.3574 чудовище -0.2673
-4.3574 чудом -0.3010
-4.3574 чужим -0.2673
-3.8803 чуть -0.2979
-4.3574 чьи -0.3010
-4.3574 чёрной -0.3010
-4.3574 чёрною -0.2995
-4.0564 чёрные -0.3010
-4.0564 чёрными -0.3010
-4.3574 шагал -0.3010
-4.3574 шагов -0.3005
-4.3574 шапки -0.3003
-4.3574 шарик -0.2673
-4.3574 шаркнувши -0.3010
-4.0564 шарлотта -0.3010
-4.3574 швед -0.3010
-4.3574 шевелить -0.3010
-4.3574 шевеля -0.3010
-4.3574 шее -0.3010
-4.3574 шеи -0.3010
-4.3574 шептались -0.3010
-4.0564 шерстяную -0.3010
-4.3574 шести -0.3010
-3.8803 шесть -0.3009
-4.0564 шестьдесят -0.2672
-4.3574 шинель -0.2673
-4.0564 широкие -0.2673
-4.3574 широким -0.3010
-4.3574 широко -0.2673
-4.3574 широкоплечий -0.3009
-4.3574 шкатулках -0.3010
-4.0564 школу -0.2672
-4.3574 шла -0.2673
-3.6585 шли -0.2979
-4.3574 шофёр -0.2673
-4.3574 штабскапитаны -0.3010
-4.3574 штанов -0.2673
-4.3574 штука -0.2985
-4.3574 штучными -0.3010
-4.3574 штык -0.2979
-4.3574 шума -0.2958
-4.0564 шёпотом -0.2673
-4.3574 щекам -0.2673
-4.3574 щеки -0.2673
-4.3574 щели -0.3010
-4.3574 щетинистые -0.3010
-4.3574 щи -0.2996
-4.3574 щиколотку -0.2972
-4.3574 щуривший -0.2673
-4.3574 щух -0.2673
-4.3574 щёки -0.2972
-4.0564 э -0.3010
-4.3574 э-э -0.3010
-4.3574 эволюции -0.2673
-4.3574 эдак -0.2673
-4.3574 эй -0.3010
-4.3574 экваториальной -0.3010
-4.0564 экипаж -0.3010
-4.3574 экипаже -0.3003
-4.0564 экипажу -0.3008
-4.3574 электрическая -0.3010
-4.3574 электричество -0.3001
-4.3574 эмблема -0.3009
-4.0564 эн -0.3010
-4.3574 эпохи -0.3010
-4.3574 эскадронами -0.3009
-4.3574 эскадроны -0.3010
-4.3574 эта -0.3010
-4.3574 этажа -0.3010
-3.7554 эти -0.3008
-4.0564 этим -0.2673
-4.3574 этими -0.3010
-3.8803 этих -0.3009
-2.6499 это -0.2480
-3.2783 этого -0.2992
-3.4032 этой -0.3008
-3.3574 этом -0.2663
-4.3574 этому -0.3010
-3.5793 этот -0.2997
-3.6585 эту -0.3008
-4.3574 юноша -0.3009
-2.4032 я -0.2455
-3.8803 явился -0.3006
-4.3574 явно -0.3010
-4.3574 яйца -0.3010
-4.3574 яйцеобразный -0.3010
-4.3574 якобы -0.3009
-4.0564 ярко -0.3010
-4.3574 ясно -0.3008
-4.3574 ясный -0.3010
-4.3574 ящериц -0.3010
-4.3574 ящики -0.3007

\2-grams:
-0.6021 </s> </s> -0.3010
-0.6021 <s> <s> -0.1761
-2.0848 <s> а -0.1313
-3.5320 <s> аванс 0.0000
-3.2310 <s> аппарат -0.0969
-3.5320 <s> ах 0.0000
-3.2310 <s> без -0.2632
-3.5320 <s> большинство -0.1761
-3.5320 <s> бросил 0.0000
-3.5320 <s> будете 0.0000
-3.5320 <s> будущее 0.0000
-3.5320 <s> бывают -0.2430
-3.2310 <s> был -0.2825
-3.2310 <s> были -0.2808
-3.5320 <s> было -0.2881
-3.5320 <s> быть -0.2852
-3.5320 <s> бычье 0.0000
-2.0406 <s> в -0.2548
-3.5320 <s> ваше 0.0000
-2.5320 <s> ведь -0.0621
-3.5320 <s> вела 0.0000
-3.5320 <s> вернуться -0.1761
-3.5320 <s> весь -0.2218
-3.5320 <s> взглянув 0.0000
-3.5320 <s> взглянуть -0.2218
-3.2310 <s> видимо -0.1249
-3.5320 <s> вишь 0.0000
-3.5320 <s> вместе -0.0969
-3.5320 <s> внутри -0.1761
-3.2310 <s> во -0.2663
-3.5320 <s> воздух -0.1761
-3.5320 <s> возможно 0.0000
-3.5320 <s> волосы -0.1761
-3.5320 <s> вон -0.1761
-2.9299 <s> вот -0.1761
-3.5320 <s> вошедши 0.0000
-3.2310 <s> впрочем -0.2499
-2.5320 <s> все -0.1963
-3.5320 <s> всех -0.2762
-3.5320 <s> вскоре 0.0000
-3.5320 <s> вслед 0.0000
-3.5320 <s> встретился 0.0000
-3.5320 <s> встряхнул 0.0000
-3.5320 <s> въезд 0.0000
-2.9299 <s> вы -0.2139
-3.5320 <s> вызвали 0.0000
-3.5320 <s> вылезшие 0.0000
-3.5320 <s> выходя 0.0000
-3.5320 <s> выщекатурен 0.0000
-3.0549 <s> где -0.2272
-3.5320 <s> главным 0.0000
-3.5320 <s> глаза -0.2632
-3.5320 <s> говорила -0.1761
-3.5320 <s> голос -0.2688
-3.5320 <s> гораздо -0.1761
-3.5320 <s> господа 0.0000
-3.5320 <s> господин -0.2730
-3.5320 <s> губернатору 0.0000
-3.5320 <s> гусев -0.2218
-3.5320 <s> густая 0.0000
-2.8330 <s> да -0.1597
-2.8330 <s> даже -0.2374
-3.5320 <s> дал 0.0000
-3.5320 <s> дальше -0.1761
-3.5320 <s> два -0.2788
-3.2310 <s> действительно 0.0000
-3.5320 <s> деликатно 0.0000
-3.5320 <s> деловая 0.0000
-3.5320 <s> день -0.2218
-3.5320 <s> дескать 0.0000
-3.5320 <s> дети -0.2218
-3.0549 <s> для -0.2653
-3.0549 <s> до -0.2553
-3.5320 <s> доедет -0.2041
-3.5320 <s> долго -0.2632
-3.5320 <s> должна -0.1761
-3.5320 <s> домой -0.1761
-3.5320 <s> донёсся 0.0000
-3.5320 <s> древний 0.0000
-3.5320 <s> другие -0.1761
-3.5320 <s> другого -0.1249
-3.5320 <s> другой -0.2730
-3.2310 <s> его -0.2931
-3.5320 <s> ей -0.2788
-3.2310 <s> ему -0.2833
-2.9299 <s> если -0.2467
-3.5320 <s> естественно 0.0000
-3.2310 <s> есть -0.2553
-3.5320 <s> ехал 0.0000
-3.5320 <s> ещё -0.2730
-3.5320 <s> её -0.2926
-3.5320 <s> жаль 0.0000
-3.5320 <s> желание 0.0000
-3.2310 <s> женщина -0.2041
-3.5320 <s> живым 0.0000
-3.5320 <s> живёт -0.1761
-2.9299 <s> за -0.2410
-3.5320 <s> завтра -0.2218
-3.5320 <s> заметил -0.1761
-3.5320 <s> затем -0.2218
-3.5320 <s> зачем 0.0000
-3.5320 <s> заявил 0.0000
-3.2310 <s> здесь -0.2688
-3.5320 <s> зелёный 0.0000
-3.5320 <s> знать -0.2218
-3.5320 <s> значит 0.0000
-3.5320 <s> знаю -0.2553
-3.2310 <s> зубр -0.2663
-1.9087 <s> и -0.2375
-3.5320 <s> идти -0.2553
-3.0549 <s> из -0.2632
-3.5320 <s> из-под -0.2218
-3.5320 <s> избрать 0.0000
-3.0549 <s> или -0.2676
-3.5320 <s> им -0.2430
-3.5320 <s> имели -0.1761
-3.5320 <s> иногда -0.2553
-3.5320 <s> историей 0.0000
-3.0549 <s> их -0.2688
-3.0549 <s> к -0.2688
-3.2310 <s> казалось -0.2430
-2.3559 <s> как -0.2415
-3.5320 <s> как-то -0.2553
-3.5320 <s> какие -0.2430
-3.5320 <s> каким-то 0.0000
-3.2310 <s> какое -0.1761
-3.2310 <s> какой -0.1249
-3.5320 <s> какую -0.1761
-3.5320 <s> кинул 0.0000
-2.5777 <s> когда -0.1823
-3.2310 <s> когда-то -0.1249
-3.5320 <s> кого-то 0.0000
-3.5320 <s> кое 0.0000
-3.5320 <s> кое-кто 0.0000
-3.5320 <s> корреспондент 0.0000
-3.2310 <s> которые -0.2374
-3.5320 <s> красная 0.0000
-3.5320 <s> красноармейцы -0.1761
-3.5320 <s> красным -0.1761
-3.5320 <s> кружение 0.0000
-3.5320 <s> куда -0.2632
-3.5320 <s> ладно 0.0000
-3.5320 <s> лица -0.2218
-3.2310 <s> лицо -0.2430
-3.5320 <s> ложь 0.0000
-2.7538 <s> лось -0.1249
-3.5320 <s> лучше -0.2218
-3.5320 <s> люблю -0.2218
-3.5320 <s> люстра 0.0000
-3.5320 <s> лёгкие 0.0000
-3.5320 <s> маленький -0.1761
-3.5320 <s> малый -0.2218
-3.2310 <s> мальчик -0.1249
-3.0549 <s> между -0.2109
-3.5320 <s> место -0.1761
-3.5320 <s> миновали 0.0000
-2.6869 <s> мне -0.2278
-3.5320 <s> многие 0.0000
-3.5320 <s> могла -0.2218
-3.5320 <s> могучая 0.0000
-3.0549 <s> может -0.1996
-3.5320 <s> мои -0.2553
-3.5320 <s> молодой -0.1249
-3.2310 <s> моя -0.1249
-3.5320 <s> мужчин 0.0000
-3.5320 <s> мужчина 0.0000
-3.5320 <s> мужчины 0.0000
-2.6869 <s> мы -0.1938
-3.5320 <s> мышь 0.0000
-2.3279 <s> на -0.2717
-3.5320 <s> наверно 0.0000
-3.0549 <s> над -0.2304
-3.5320 <s> надо -0.2730
-3.5320 <s> надоело 0.0000
-3.5320 <s> названия -0.1761
-3.5320 <s> накинул 0.0000
-3.5320 <s> наклонением 0.0000
-3.5320 <s> нам -0.2553
-3.5320 <s> наружного 0.0000
-3.5320 <s> наружный 0.0000
-3.5320 <s> настолько 0.0000
-3.5320 <s> начиная 0.0000
-2.4180 <s> не -0.2781
-3.5320 <s> небольшая -0.1761
-3.5320 <s> недаром 0.0000
-3.5320 <s> недолго 0.0000
-3.5320 <s> некоторые -0.2218
-2.9299 <s> нельзя -0.1249
-3.5320 <s> непосвящённые 0.0000
-3.5320 <s> неприрученность 0.0000
-3.0549 <s> несколько -0.2553
-2.8330 <s> нет -0.2272
-2.9299 <s> неужели 0.0000
-3.0549 <s> ни -0.2553
-3.5320 <s> нигде 0.0000
-3.5320 <s> никогда -0.0792
-3.2310 <s> никто -0.1249
-3.5320 <s> ниспосланный 0.0000
-2.3559 <s> но -0.1943
-3.5320 <s> новые -0.2430
-3.5320 <s> номер 0.0000
-2.6289 <s> ну -0.0458
-3.2310 <s> о -0.2518
-3.5320 <s> обдуманно 0.0000
-3.5320 <s> обоз 0.0000
-3.5320 <s> обычная 0.0000
-3.5320 <s> одна -0.2688
-2.9299 <s> одни 0.0000
-3.5320 <s> одним 0.0000
-3.5320 <s> океан -0.1761
-3.2310 <s> окна -0.2041
-3.5320 <s> окном 0.0000
-1.9522 <s> он -0.2001
-2.8330 <s> она -0.2507
-2.9299 <s> они -0.2688
-3.5320 <s> опять -0.2553
-3.5320 <s> осенний 0.0000
-3.5320 <s> особенно -0.2218
-3.5320 <s> особливо -0.1761
-3.5320 <s> от -0.2894
-3.5320 <s> ответил -0.1761
-3.5320 <s> отвечает 0.0000
-3.5320 <s> отец -0.2218
-3.5320 <s> откуда -0.2218
-3.5320 <s> отсюда 0.0000
-3.2310 <s> оттого 0.0000
-3.5320 <s> оттопырив 0.0000
-3.5320 <s> отчего 0.0000
-3.5320 <s> парад -0.1761
-3.5320 <s> паша 0.0000
-3.5320 <s> первый 0.0000
-3.5320 <s> перед -0.2553
-3.5320 <s> петя 0.0000
-3.5320 <s> пичу 0.0000
-3.5320 <s> пичура 0.0000
-3.2310 <s> по -0.2831
-3.5320 <s> повернуться 0.0000
-3.5320 <s> подавалось 0.0000
-3.5320 <s> поднятые 0.0000
-3.5320 <s> подошёл -0.2218
-3.5320 <s> пожатием 0.0000
-3.5320 <s> пока 0.0000
-3.5320 <s> покалывало 0.0000
-3.2310 <s> покамест 0.0000
-3.5320 <s> покой -0.1761
-3.5320 <s> поколение 0.0000
-3.5320 <s> покушеньями 0.0000
-3.5320 <s> полиция 0.0000
-3.5320 <s> половины 0.0000
-3.5320 <s> положение -0.1761
-3.5320 <s> положенные 0.0000
-3.5320 <s> положил 0.0000
-3.5320 <s> помещиком -0.1761
-3.5320 <s> помню 0.0000
-3.5320 <s> посетителей -0.1761
-3.5320 <s> после -0.2730
-3.5320 <s> последние 0.0000
-3.5320 <s> последних 0.0000
-3.5320 <s> послуживши 0.0000
-3.5320 <s> послушай 0.0000
-2.6869 <s> потом -0.1761
-3.5320 <s> похоже 0.0000
-3.5320 <s> почему -0.2632
-3.5320 <s> пошла -0.2218
-3.5320 <s> поэтому 0.0000
-3.5320 <s> правда -0.2218
-3.5320 <s> предложил 0.0000
-3.5320 <s> привычной 0.0000
-3.5320 <s> приготовление 0.0000
-3.5320 <s> придётся -0.1761
-3.0549 <s> приезжий -0.1963
-3.5320 <s> признался 0.0000
-3.5320 <s> прикосновение 0.0000
-3.5320 <s> пример 0.0000
-3.5320 <s> принести 0.0000
-3.5320 <s> присоединился 0.0000
-3.5320 <s> приём -0.1761
-3.5320 <s> проблема 0.0000
-3.5320 <s> проверить 0.0000
-3.5320 <s> простите 0.0000
-3.2310 <s> просто -0.2711
-3.5320 <s> прочие -0.1761
-3.5320 <s> пустил 0.0000
-3.5320 <s> пусть 0.0000
-3.2310 <s> разве 0.0000
-3.5320 <s> развернул 0.0000
-3.5320 <s> раздался -0.1761
-3.5320 <s> размотавши 0.0000
-3.2310 <s> раньше -0.1249
-3.5320 <s> раскалённость 0.0000
-3.5320 <s> рассказывать 0.0000
-3.5320 <s> расходы 0.0000
-3.5320 <s> решил -0.0969
-3.5320 <s> руч 0.0000
-2.7538 <s> с -0.2833
-3.0549 <s> сам -0.1996
-3.5320 <s> сама 0.0000
-3.5320 <s> сапожные 0.0000
-3.5320 <s> сарай 0.0000
-3.5320 <s> свет -0.1249
-3.5320 <s> светом 0.0000
-3.2310 <s> сделали 0.0000
-3.5320 <s> сейчас -0.2553
-3.5320 <s> семь -0.2218
-3.2310 <s> сказал -0.2663
-3.5320 <s> скайльс -0.1761
-3.2310 <s> сквозь -0.2218
-3.5320 <s> сколько -0.1761
-3.5320 <s> скоро -0.1761
-3.5320 <s> славным 0.0000
-3.5320 <s> следы -0.1761
-3.5320 <s> следя 0.0000
-3.0549 <s> слишком -0.2374
-3.5320 <s> словом -0.0792
-3.5320 <s> случай -0.1761
-3.5320 <s> слышал -0.2553
-3.5320 <s> сначала 0.0000
-3.5320 <s> со -0.2788
-3.5320 <s> собакевич -0.1761
-3.5320 <s> совсем -0.2730
-3.5320 <s> сорок -0.1761
-3.5320 <s> составляли 0.0000
-3.5320 <s> сразу -0.2632
-3.5320 <s> среди 0.0000
-3.2310 <s> стало -0.1761
-3.5320 <s> странно -0.2218
-3.5320 <s> судя 0.0000
-3.5320 <s> та -0.2218
-3.5320 <s> тайна 0.0000
-2.5777 <s> так -0.1794
-3.5320 <s> также 0.0000
-3.5320 <s> такие -0.2553
-3.5320 <s> таким -0.1761
-3.5320 <s> таков 0.0000
-3.5320 <s> такого -0.2632
-3.5320 <s> такое -0.2632
-3.0549 <s> там -0.2467
-3.5320 <s> твои 0.0000
-3.5320 <s> те -0.1091
-3.5320 <s> тебе -0.2730
-2.7538 <s> теперь -0.2109
-3.5320 <s> тихо -0.2218
-2.7538 <s> то -0.2076
-3.5320 <s> тогда -0.2430
-3.2310 <s> тоже -0.2553
-2.6289 <s> только -0.2413
-3.5320 <s> тоненький 0.0000
-3.2310 <s> тот -0.1963
-3.5320 <s> точно 0.0000
-2.9299 <s> тут -0.1513
-3.5320 <s> тут-то 0.0000
-2.7538 <s> ты -0.1761
-3.5320 <s> тью 0.0000
-2.4528 <s> у -0.1761
-3.5320 <s> уже -0.2915
-3.5320 <s> учился 0.0000
-3.5320 <s> федька 0.0000
-3.5320 <s> хм -0.0580
-3.5320 <s> хотели 0.0000
-3.5320 <s> хоть -0.2218
-3.5320 <s> хотя -0.2688
-3.5320 <s> хочет -0.1761
-3.2310 <s> художник -0.1249
-3.2310 <s> целый 0.0000
-3.5320 <s> чего -0.2632
-3.5320 <s> человека -0.2553
-3.5320 <s> чемодан -0.2218
-3.5320 <s> червоточина 0.0000
-3.2310 <s> через -0.2218
-2.0848 <s> что -0.1933
-3.2310 <s> чтобы -0.2553
-3.5320 <s> чувствовалось 0.0000
-3.5320 <s> шарлотта -0.1761
-3.5320 <s> шерстяную 0.0000
-3.5320 <s> шли -0.2553
-3.5320 <s> шёпотом -0.1761
-3.5320 <s> щух 0.0000
-3.5320 <s> э -0.1761
-3.5320 <s> экипаже 0.0000
-3.5320 <s> электричество 0.0000
-3.5320 <s> этим -0.1761
-2.8330 <s> это -0.2702
-2.0268 <s> я -0.1761
-2.0086 а больше -0.2730
-1.7076 а была -0.2825
-2.0086 а были -0.2910
-1.5315 а в -0.2955
-2.0086 а воздушные 0.0000
-2.0086 а вот -0.2730
-2.0086 а все -0.2966
-2.0086 а всё-таки -0.1761
-1.7076 а где -0.2583
-2.0086 а другая -0.2218
-2.0086 а другое -0.2218
-2.0086 а ещё -0.2730
-2.0086 а зубр -0.2840
-2.0086 а иногда -0.2553
-2.0086 а к -0.2906
-2.0086 а лакей 0.0000
-2.0086 а лондон 0.0000
-2.0086 а лучше -0.2218
-2.0086 а между -0.2430
-1.4065 а может -0.1249
-2.0086 а мы -0.2872
-2.0086 а на -0.2977
-2.0086 а не -0.2984
-1.7076 а он -0.2978
-2.0086 а после -0.2730
-2.0086 а потом -0.2852
-2.0086 а почему -0.2632
-2.0086 а председатель -0.1761
-2.0086 а просто -0.2863
-2.0086 а сам -0.2430
-2.0086 а сегодня -0.2430
-1.7076 а скорее 0.0000
-2.0086 а то -0.2868
-1.5315 а уж -0.2304
-2.0086 а холостым 0.0000
-2.0086 а черты 0.0000
-1.7076 а что -0.2944
-1.7076 а я -0.2888
-0.3010 аббатство как -0.2984
-0.3010 аванс шесть -0.2218
-0.3010 австралии </s> -0.1761
-0.3010 австралийская звезда 0.0000
-0.3010 ад и -0.3002
-0.3010 азербайджанский молодой -0.2218
-0.3010 азии и -0.2986
-0.3010 алексей иванович -0.2218
-0.3010 американец лауреат 0.0000
-0.3010 американской газеты -0.1761
-0.3010 америки азии 0.0000
-0.6021 англии </s> -0.1761
-0.6021 англии это -0.2924
-0.3010 анекдоты ему -0.2923
-0.3010 анну и -0.3002
-0.3010 антоша канелис -0.1761
-0.3010 апельсинового но -0.2954
-0.6021 аппарат был -0.2888
-0.9031 аппарат прорезывал 0.0000
-0.9031 аппарат так -0.2960
-0.3010 аппараты наблюдения 0.0000
-0.3010 аристократических предках 0.0000
-0.3010 армянский художник -0.2218
-0.3010 архитектору </s> -0.1761
-0.3010 арчибальд скайлс -0.1761
-0.3010 астрономов постоянно 0.0000
-0.3010 атаку </s> -0.1761
-0.3010 атлантическом океане 0.0000
-0.3010 ауэрбах чьи 0.0000
-0.3010 африки в -0.2999
-0.3010 ах боже 0.0000
-0.3010 ахали </s> -0.1761
-0.6021 б один -0.2762
-0.6021 б случилось -0.2430
-0.3010 багровые полосы 0.0000
-0.3010 бакенбарды или -0.2929
-0.3010 баки ящики 0.0000
-0.3010 балки лесов -0.1761
-0.3010 баранками </s> -0.1761
-0.3010 барином хлебосолом 0.0000
-0.3010 барского плеча 0.0000
-0.6021 бархатные знамёна 0.0000
-0.6021 бархатные и -0.2978
-0.3010 барышни было -0.2924
-0.3010 бегал по -0.2891
-0.3010 бежала туда -0.2553
-0.3010 бежали из -0.2937
-0.3010 бежать </s> -0.1761
-1.3802 без всякого 0.0000
-1.3802 без дела -0.2218
-1.3802 без кожи -0.2218
-1.3802 без окна -0.2553
-1.3802 без памяти 0.0000
-1.3802 без пояса 0.0000
-1.3802 без слов -0.1761
-1.3802 без того -0.2852
-1.3802 без толку -0.1761
-1.3802 без часов -0.1761
-1.3802 без шапки 0.0000
-1.3802 без штанов 0.0000
-0.3010 безвоздушном пространстве -0.1761
-0.3010 бездна чайных 0.0000
-0.3010 бездны он -0.2962
-0.3010 безнадёжное одиночество 0.0000
-0.3010 безобразили а -0.2924
-0.3010 безоглядность присуща 0.0000
-0.3010 безошибочно </s> -0.1761
-0.3010 безумном городе -0.2632
-0.3010 белой кожи -0.2218
-0.3010 белом сияющем 0.0000
-0.3010 белых канифасовых 0.0000
-0.3010 берега до -0.2863
-0.6021 берегу </s> -0.1761
-0.6021 берегу те -0.1091
-0.3010 берлин </s> -0.1761
-0.3010 берлине продержав 0.0000
-0.3010 беру на -0.2994
-0.3010 берёзы </s> -0.1761
-0.6021 бесконечно много -0.2825
-0.6021 бесконечно широким 0.0000
-0.3010 беспорядочное бессмысленное 0.0000
-0.3010 беспредметно появилось 0.0000
-0.3010 бессмысленное составляло 0.0000
-0.3010 бизонов вида 0.0000
-0.3010 била в -0.2988
-0.3010 били меня -0.2888
-0.3010 биться в -0.2999
-0.3010 благовидные весьма -0.2788
-0.3010 благодать божия 0.0000
-0.3010 бледный свет -0.1249
-0.3010 блеск от -0.2894
-0.3010 блеска они -0.2604
-0.3010 блеснуло золото 0.0000
-0.3010 блестели у -0.2974
-0.3010 ближайшей кущи 0.0000
-0.6021 ближе один -0.2499
-0.6021 ближе чем -0.2808
-0.3010 близ города -0.2553
-0.6021 блин и -0.3002
-0.6021 блин который -0.2762
-0.3010 блюда как-то -0.2553
-0.6021 бог их -0.2906
-0.6021 бог послал 0.0000
-0.3010 богатыри </s> -0.1761
-0.3010 богом покой -0.1761
-0.6021 богу если -0.2881
-0.6021 богу и -0.3002
-0.3010 боже мой -0.1761
-0.3010 божия </s> -0.1761
-0.3010 бойкий профессор -0.2218
-0.3010 бойко подносом 0.0000
-0.8451 более к -0.2906
-1.1461 более потемневших 0.0000
-1.1461 более сложно 0.0000
-1.1461 более согласиться 0.0000
-1.1461 более туземными 0.0000
-1.1461 более тусклого 0.0000
-0.3010 больных а -0.2968
-1.2041 больше </s> -0.1761
-1.2041 больше в -0.2955
-1.2041 больше денег 0.0000
-1.2041 больше закруглённые 0.0000
-1.2041 больше меня -0.2762
-1.2041 больше ничего -0.1648
-1.2041 больше по -0.2951
-1.2041 больше чем -0.2808
-0.3010 большее было -0.2968
-0.3010 большей частью 0.0000
-0.6021 большинство лишь -0.2632
-0.6021 большинство подходили -0.2218
-1.0000 большой добряк 0.0000
-1.0000 большой и -0.2905
-1.0000 большой ли -0.2852
-1.0000 большой похвалы 0.0000
-1.0000 большой сударь 0.0000
-0.3010 большою охотою 0.0000
-0.7782 большую игру 0.0000
-0.7782 большую монетную 0.0000
-0.7782 большую часть -0.1761
-0.4260 бора </s> -0.1761
-0.9031 бора тоже -0.2863
-0.3010 бородавки </s> -0.1761
-0.3010 бородою </s> -0.1761
-0.3010 бостончик кто -0.2609
-0.3010 босую молодую 0.0000
-0.3010 ботинки с -0.2981
-0.4771 брат </s> -0.1761
-0.7782 брат конечно -0.2632
-0.3010 брата </s> -0.1761
-0.3010 брату </s> -0.1761
-0.6021 братья и -0.3002
-0.6021 братья убиты 0.0000
-0.6021 бричка </s> -0.1761
-0.6021 бричка подъехала 0.0000
-0.6021 бричке придумывая 0.0000
-0.6021 бричке сидел -0.2632
-0.3010 бровями и -0.2994
-0.3010 бронзовым пистолетом 0.0000
-0.3010 бросил ты -0.2910
-0.3010 бросилась мне -0.2935
-0.3010 бросить его -0.2971
-0.3010 брусничного цвета -0.1761
-0.3010 бубен </s> -0.1761
-0.3010 бубнили сбивались 0.0000
-0.3010 будем ли -0.2852
-1.2041 будет жить -0.2430
-1.2041 будет идти -0.2553
-0.9031 будет не -0.2984
-1.2041 будет нетрудно 0.0000
-1.2041 будет продать 0.0000
-1.2041 будет проще 0.0000
-1.2041 будет семью -0.1761
-0.3010 будете это -0.2968
-0.3010 будешь делать -0.1549
-0.3010 будочников а -0.2881
-0.6021 будто бы -0.2900
-0.6021 будто ждал -0.1761
-0.6021 буду жить -0.2430
-0.6021 буду стоять 0.0000
-0.3010 будут </s> -0.1761
-0.3010 будущее было -0.2924
-0.3010 булавкою с -0.2981
-0.3010 бумагу жареная -0.1761
-0.3010 бумажке половой -0.2553
-0.3010 бумажки по -0.2951
-0.3010 бурной и -0.3002
-0.3010 бурому праху 0.0000
-0.3010 бурь в -0.2999
-0.3010 буфер </s> -0.1761
-1.6021 бы беспредметно 0.0000
-1.6021 бы выразить -0.1761
-1.6021 бы говорил -0.2632
-1.6021 бы думать -0.1761
-1.6021 бы ещё -0.2825
-1.6021 бы издали -0.2218
-1.6021 бы как -0.2984
-1.6021 бы он -0.2880
-1.6021 бы подобные 0.0000
-1.3010 бы подумать 0.0000
-1.6021 бы получить -0.1761
-1.6021 бы сделал -0.2218
-1.6021 бы сегодня -0.2430
-1.6021 бы сейчас -0.2553
-1.6021 бы собираясь 0.0000
-1.6021 бы собственно -0.2430
-1.6021 бы странно -0.2218
-1.6021 бы тебя -0.2553
-1.6021 бы тогда -0.2430
-0.6021 бывает в -0.2999
-0.6021 бывает тут -0.1996
-0.6021 бывал здесь -0.2518
-0.6021 бывал похож 0.0000
-0.3010 бывало </s> -0.1761
-0.6021 бывают гостиницы -0.1249
-0.9031 бывают ли -0.2341
-0.9031 бывают эти -0.2430
-1.8573 был </s> -0.1761
-1.8573 был а -0.2837
-1.8573 был большой -0.2553
-1.8573 был визитам 0.0000
-1.8573 был встречен 0.0000
-1.8573 был выкрашен 0.0000
-1.8573 был дан 0.0000
-1.5563 был и -0.2994
-1.8573 был известного -0.0969
-1.8573 был как -0.2957
-1.8573 был конечно -0.2632
-1.8573 был корифей 0.0000
-1.8573 был крепкий 0.0000
-1.8573 был ли -0.2852
-1.8573 был на -0.2994
-1.8573 был не -0.2997
-1.8573 был небольшой -0.1761
-1.8573 был ни -0.2900
-1.8573 был освещён 0.0000
-1.8573 был от -0.2894
-1.8573 был очень -0.2888
-1.8573 был построен 0.0000
-1.8573 был представлен 0.0000
-1.8573 был принцип 0.0000
-1.5563 был с -0.2952
-1.8573 был сообщён 0.0000
-1.8573 был сопровождён 0.0000
-1.8573 был страшный 0.0000
-1.8573 был схвачен 0.0000
-1.8573 был сын 0.0000
-1.8573 был тем -0.2688
-1.8573 был тонок -0.2218
-1.8573 был у -0.2974
-1.8573 был швед 0.0000
-1.6812 была </s> -0.1761
-1.3802 была видна -0.1249
-1.6812 была дама 0.0000
-1.6812 была ли -0.2341
-1.6812 была манишка 0.0000
-1.6812 была набычена 0.0000
-1.6812 была не -0.2984
-1.3802 была нимфа 0.0000
-1.3802 была она -0.2730
-1.6812 была очень -0.2888
-1.2041 была привязана 0.0000
-1.6812 была приотворена 0.0000
-1.6812 была ракета 0.0000
-1.6812 была та -0.2218
-1.6812 была такая -0.2632
-1.6812 была тоже -0.2553
-1.6812 была трава 0.0000
-1.6812 была эмблема 0.0000
-1.6812 была я -0.2986
-1.6435 были бородавки 0.0000
-1.6435 были братья -0.1761
-1.6435 были видны 0.0000
-1.6435 были вместе -0.2430
-1.6435 были двух -0.2218
-1.6435 были его -0.2971
-1.6435 были ему -0.2648
-1.6435 были ещё -0.2919
-1.6435 были же -0.2975
-1.6435 были знаменитости -0.1761
-1.6435 были изысканность 0.0000
-1.6435 были или -0.2929
-1.6435 были иные -0.2430
-1.6435 были лавочки 0.0000
-1.6435 были одногодки 0.0000
-1.6435 были очень -0.2888
-1.6435 были полные -0.1761
-1.6435 были почётные 0.0000
-1.6435 были просто -0.2863
-1.6435 были такие -0.2553
-1.6435 были такого -0.1761
-1.6435 были хорошо -0.2430
-1.4065 было </s> -0.1761
-1.5315 было бы -0.2553
-2.0086 было быть -0.2852
-1.7076 было в -0.2988
-2.0086 было важно 0.0000
-2.0086 было видеть -0.2553
-1.7076 было видно -0.1249
-2.0086 было внесено 0.0000
-2.0086 было восемнадцать 0.0000
-2.0086 было впереди 0.0000
-2.0086 было выяснить 0.0000
-2.0086 было давно -0.2430
-2.0086 было до -0.2863
-2.0086 было жарко 0.0000
-1.7076 было залито 0.0000
-2.0086 было идти -0.2553
-2.0086 было изрезано 0.0000
-2.0086 было именно -0.2688
-2.0086 было ко 0.0000
-2.0086 было лет -0.2825
-2.0086 было лицо -0.2430
-2.0086 было мне -0.2935
-2.0086 было мучительно -0.1761
-1.7076 было не -0.2931
-2.0086 было невозможно 0.0000
-2.0086 было необходимо 0.0000
-2.0086 было необычайно 0.0000
-2.0086 было ни -0.2900
-2.0086 было ничего -0.2840
-2.0086 было отличить 0.0000
-2.0086 было потушено 0.0000
-2.0086 было против -0.1249
-2.0086 было рассмотреть 0.0000
-2.0086 было состояние 0.0000
-1.7076 было то -0.2645
-1.7076 было только -0.2884
-2.0086 было трудно -0.2218
-1.7076 было упомянуто 0.0000
-2.0086 было что -0.2994
-0.3010 быстро и -0.2986
-1.4472 быть </s> -0.1761
-1.4472 быть вы -0.2808
-1.4472 быть где-нибудь 0.0000
-1.4472 быть дела -0.2218
-1.4472 быть из-за -0.2688
-1.4472 быть может -0.2825
-1.4472 быть не -0.2984
-1.4472 быть они -0.2604
-1.4472 быть потому 0.0000
-1.4472 быть просто -0.2863
-1.4472 быть самим 0.0000
-1.4472 быть своё -0.2430
-1.4472 быть так -0.2530
-1.4472 быть у -0.2974
-0.3010 бычье упорство 0.0000
-0.6021 бьётся трепещет 0.0000
-0.6021 бьётся чаще -0.1761
-2.5977 в англии -0.1761
-2.5977 в атаку 0.0000
-2.5977 в атлантическом 0.0000
-2.5977 в безвоздушном 0.0000
-2.5977 в белых 0.0000
-2.5977 в берлин 0.0000
-2.5977 в берлине 0.0000
-2.2967 в бричке 0.0000
-2.5977 в ведёрке 0.0000
-2.5977 в вечной 0.0000
-2.5977 в виду -0.1761
-2.5977 в виски 0.0000
-2.5977 в воде 0.0000
-2.5977 в вольном 0.0000
-2.5977 в ворота -0.1761
-2.5977 в воскресенье 0.0000
-2.5977 в гимнастёрках 0.0000
-2.5977 в гладких 0.0000
-2.2967 в глаза -0.2218
