
\data\
ngram 1=100
ngram 2=2177
ngram 3=8821

\1-grams:
-1.819777	</s>
-99	<s>	-0.6778418
-1.794199	<sil>	-0.1663181
-1.574677	A	-0.1116768
-1.574677	A0	-0.1025144
-2.865523	A0l	-0.2747726
-2.01632	Al	-0.3080428
-1.794199	B	-0.5852803
-1.819777	B0	-0.6094016
-2.739383	B0l	-0.3656476
-2.739383	Bl	-0.2301334
-1.794199	D	-0.6221655
-1.781953	D0	-0.6430264
-2.494805	D0l	-0.3935486
-2.739383	DZ	-0.2235054
-3.104299	DZ0	-0.2792936
-2.562093	DZH	-0.197372
-2.562093	DZH0	-0.222821
-2.297766	Dl	-0.4095781
-1.567248	E0	-0.07456046
-2.739383	E0l	-0.5290068
-1.781953	F	-0.3629789
-1.846958	F0	-0.1002115
-3.061698	F0l	-0.2745585
-2.865523	Fl	-0.2414533
-1.781953	G	-0.6178949
-1.875953	G0	-0.8184383
-2.865523	G0l	-0.240974
-2.339289	GH	-0.4815166
-2.865523	Gl	-0.2204794
-1.675411	I	-0.01181233
-1.781953	I0	0.1617766
-2.494805	I0l	-0.3095182
-2.08338	Il	-0.1287879
-1.666064	J0	0.08498013
-2.641754	J0l	-0.4220158
-1.74716	K	-0.5028725
-1.794199	K0	-0.9382586
-3.061698	K0l	-0.2697644
-1.781953	KH	-0.3472236
-1.923435	KH0	-0.669646
-3.104299	KH0l	-0.2839842
-2.739383	KHl	-0.2369637
-2.339289	Kl	-0.411617
-1.74716	L	-0.07870692
-1.684963	L0	-0.007469475
-2.494805	L0l	-0.417057
-2.739383	Ll	-0.225477
-1.684963	M	-0.1770421
-1.69473	M0	-0.2458766
-2.739383	M0l	-0.3177803
-2.494805	Ml	-0.3683505
-1.704722	N	-0.1323078
-1.704722	N0	0.04375213
-2.385205	N0l	-0.5598791
-2.339289	Nl	-0.5241523
-3.104299	O	-0.2839842
-1.589925	O0	0.01166171
-2.641754	O0l	-0.2815357
-1.736156	P	-0.4639536
-1.8068	P0	-0.393212
-2.739383	P0l	-0.5277857
-2.562093	Pl	-0.412117
-1.684963	R	-0.1013038
-1.725423	R0	0.002334654
-3.061698	R0l	-0.2745585
-3.061698	Rl	-0.2554966
-1.770043	S	-0.5471272
-1.794199	S0	-0.1998
-2.385205	S0l	-0.4076889
-1.781953	SH	-0.2477072
-1.875953	SH0	-0.204172
-3.104299	SH0l	-0.281951
-2.865523	SHl	-0.2414551
-2.192751	Sl	-0.2136081
-1.736156	T	-0.521667
-1.794199	T0	-0.3059783
-2.297766	T0l	-0.5257063
-1.833155	TS	-0.2348644
-1.8068	TSH0	-0.3125423
-3.061698	TSH0l	-0.2745585
-3.104299	TSl	-0.284187
-2.297766	Tl	-0.3552615
-1.582234	U	-0.2346323
-1.605729	U0	-0.1261511
-3.061698	U0l	-0.2747658
-2.739383	Ul	-0.2511574
-1.704722	V	-0.7541984
-1.725423	V0	-0.8594906
-2.436557	V0l	-0.4757313
-2.494805	Vl	-0.3863824
-1.794199	Y	0.09772289
-2.01632	Y0	0.02651936
-1.794199	Z	-0.5526141
-1.833155	Z0	-0.4777643
-2.641754	Z0l	-0.2208256
-1.819777	ZH	-0.4594367
-2.739383	ZH0	-0.2299689
-2.865523	ZHl	-0.2438985
-2.385205	Zl	-0.4987321

\2-grams:
-1.041005	<s> A	-0.1830483
-2.872882	<s> A0	-0.1589456
-1.91105	<s> B	-0.2507585
-2.68426	<s> B0	-0.1942375
-1.634401	<s> D	-0.2568246
-2.553189	<s> D0	-0.0436991
-1.885995	<s> E0	-0.2982416
-1.515778	<s> F	-0.3028014
-3.448421	<s> F0
-1.662577	<s> G	-0.1620493
-1.21391	<s> I	-0.1079499
-2.68426	<s> I0	-0.1629474
-1.263229	<s> J0	-0.8728408
-1.318874	<s> K	-0.6499805
-3.448421	<s> K0
-2.45264	<s> KH	-0.07382164
-3.448421	<s> KH0
-3.448421	<s> Kl
-2.028839	<s> L	-0.5471499
-1.965963	<s> L0	-0.1487755
-1.485703	<s> M	-0.3859089
-2.302391	<s> M0	-0.2196887
-1.133728	<s> N	-0.8699985
-1.406261	<s> N0	-0.9466536
-1.353175	<s> O0	-0.8111569
-1.146844	<s> P	-0.685112
-1.965963	<s> P0	-0.2049361
-1.91105	<s> R	-0.3869267
-2.553189	<s> R0	-0.1721637
-1.299523	<s> S	-0.2280355
-2.45264	<s> S0	-0.06054446
-1.515778	<s> SH	-0.8031427
-3.19684	<s> SH0
-3.448421	<s> Sl
-1.263229	<s> T	-0.6855793
-1.91105	<s> T0	-0.4003751
-2.68426	<s> TS	-0.3294315
-2.190974	<s> TSH0	-0.7017939
-1.760074	<s> U	-0.08341342
-3.19684	<s> U0
-1.280997	<s> V	0.1628391
-1.778686	<s> V0	-0.1587244
-3.448421	<s> Vl
-2.243119	<s> Y	-0.04268086
-1.839844	<s> Z	-0.4701327
-2.144424	<s> Z0	-0.2940143
-2.144424	<s> ZH	-0.200677
-1.344368	<sil> A	-0.2533398
-2.492164	<sil> A0
-3.067703	<sil> Al
-1.505277	<sil> B	-0.1603546
-1.810256	<sil> B0	-0.2591588
-1.585245	<sil> D	-0.207185
-1.990332	<sil> D0	-0.1819347
-3.067703	<sil> DZH
-1.505277	<sil> E0	-0.4737515
-1.556921	<sil> F	-0.188326
-2.816122	<sil> F0	-0.1301754
-1.721666	<sil> G	-0.03256795
-2.303542	<sil> G0	0.1745996
-1.379357	<sil> I	-0.08344412
-2.303542	<sil> I0	-0.07563367
-3.067703	<sil> I0l
-2.492164	<sil> Il	-0.129756
-1.615546	<sil> J0	-0.5867771
-1.36151	<sil> K	-0.5797826
-2.816122	<sil> K0	-0.02735995
-1.990332	<sil> KH	-0.2279033
-3.067703	<sil> Kl
-1.990332	<sil> L	-0.1262086
-1.862401	<sil> L0	-0.2055128
-1.585245	<sil> M	-0.2886592
-1.921673	<sil> M0	-0.02054885
-1.437769	<sil> N	-0.73338
-1.530332	<sil> N0	-0.8403096
-1.505277	<sil> O0	-0.6181629
-1.327877	<sil> P	-0.5388324
-1.763706	<sil> P0	-0.2587903
-1.721666	<sil> R	-0.4841295
-2.492164	<sil> R0	-0.1546444
-1.397968	<sil> S	-0.1788667
-1.810256	<sil> S0	-0.2967156
-1.505277	<sil> SH	-0.5179431
-2.492164	<sil> SH0	-0.05048352
-1.481589	<sil> T	-0.3830399
-1.763706	<sil> T0	-0.4878672
-3.067703	<sil> TS
-1.763706	<sil> TSH0	-0.1025761
-1.585245	<sil> U	-0.04614212
-2.303542	<sil> U0	-0.2209653
-1.459126	<sil> V	-0.09466624
-1.556921	<sil> V0	0.03663665
-3.067703	<sil> Vl
-1.921673	<sil> Y	-0.02508399
-3.067703	<sil> Y0
-1.585245	<sil> Z	-0.7053756
-2.492164	<sil> Z0	-0.1158405
-1.921673	<sil> ZH	-0.04992604
-2.816122	<sil> Zl
-1.557035	A </s>
-1.542719	A <sil>	0.03770596
-1.587166	A B	-0.2068172
-1.890722	A B0	-0.3950989
-3.34288	A B0l
-3.091298	A Bl
-1.571839	A D	-0.1655251
-1.571839	A D0	-0.578426
-2.447647	A D0l	0.07086696
-3.34288	A DZ0	0.02052012
-3.091298	A DZH
-3.34288	A DZH0
-2.447647	A Dl	-0.1264686
-1.860421	A E0	-0.673864
-1.692589	A F	-0.2819451
-2.347098	A F0	0.09314302
-3.34288	A F0l
-2.76734	A Fl
-1.636686	A G	-0.4486142
-2.085432	A G0	-0.009349287
-3.34288	A G0l
-2.447647	A GH	-0.04746434
-3.091298	A Gl	-0.1237737
-1.712945	A I	-0.07433692
-2.137577	A I0	-0.2073116
-3.34288	A I0l
-3.091298	A Il
-1.619544	A J0	-0.3615227
-3.34288	A J0l
-1.557035	A K	-0.3810826
-1.890722	A K0	-0.4194264
-3.34288	A K0l
-1.734303	A KH	-0.1748671
-3.091298	A KH0	-0.03461394
-2.76734	A Kl
-1.636686	A L	-0.3030067
-1.673144	A L0	-0.4849473
-2.447647	A L0l	-0.04618964
-1.654533	A M	-0.1669687
-1.673144	A M0	-0.7345872
-3.091298	A Ml	0.01525129
-1.571839	A N	-0.5055771
-1.515429	A N0	-0.7238133
-2.038882	A Nl	-0.5016091
-1.923297	A O0	-0.2921184
-1.489752	A P	-0.5372531
-1.805508	A P0	-0.2898344
-3.091298	A P0l	0.2663548
-2.347098	A Pl	-0.4546892
-1.571839	A R	-0.389113
-1.890722	A R0	-0.4945571
-3.091298	A R0l	-0.2591258
-1.489752	A S	-0.4074448
-1.692589	A S0	-0.3718141
-2.578718	A S0l	-0.02627893
-1.756765	A SH	-0.3591734
-2.085432	A SH0	-0.02563271
-2.447647	A Sl	-0.207299
-1.502401	A T	-0.3165579
-1.654533	A T0	-0.2054299
-3.34288	A T0l	0.04798165
-1.734303	A TS	0.001323849
-1.734303	A TSH0	-0.1907051
-2.347098	A Tl	0.05307452
-1.832097	A U	-0.111987
-1.958514	A U0	-0.3314089
-1.619544	A V	-0.4938005
-1.780453	A V0	-0.4141754
-3.091298	A V0l
-3.091298	A Vl	0.003897414
-2.196849	A Y	-0.2987364
-1.734303	A Z	-0.2320346
-1.923297	A Z0	0.01465255
-3.34288	A Z0l
-1.636686	A ZH	-0.4785253
-3.34288	A ZH0
-3.34288	A ZHl
-3.34288	A Zl
-1.657617	A0 </s>
-1.716242	A0 <sil>	-0.04535678
-1.716242	A0 B	-0.09012151
-2.404238	A0 B0	-0.2909381
-3.1684	A0 B0l
-1.605973	A0 D	-0.4177667
-1.631028	A0 D0	-0.3597284
-2.59286	A0 Dl
-2.404238	A0 E0	-0.4450398
-1.559823	A0 F	-0.3824161
-2.273167	A0 F0	-0.03558894
-3.1684	A0 Fl
-1.685941	A0 G	-0.2944684
-2.273167	A0 G0	-0.4690625
-2.404238	A0 GH	-0.04746434
-2.916818	A0 Gl	-0.09245828
-1.864402	A0 I	-0.07273506
-2.273167	A0 I0	-0.07087512
-1.428574	A0 J0	-0.6610445
-3.1684	A0 J0l	0.01314458
-1.582285	A0 K	0.04606652
-2.172619	A0 K0	-0.310638
-1.631028	A0 KH	-0.2102476
-2.59286	A0 KH0	-0.2415943
-2.916818	A0 Kl	-0.0669626
-1.462206	A0 L	-0.4057495
-1.462206	A0 L0	-0.6470058
-2.59286	A0 L0l	0.008473814
-2.916818	A0 Ll	-0.2111744
-1.582285	A0 M	-0.149626
-1.685941	A0 M0	-0.5446854
-2.916818	A0 Ml	-0.03097709
-1.498664	A0 N	-0.3306303
-1.538465	A0 N0	-0.6345819
-2.404238	A0 N0l	0.0552696
-1.963098	A0 Nl	-0.05290124
-2.091029	A0 O0	-0.5119228
-1.538465	A0 P	-0.4664102
-2.916818	A0 P0
-3.1684	A0 Pl
-1.538465	A0 R	-0.1823961
-1.864402	A0 R0	-0.7834548
-1.462206	A0 S	-0.1343647
-1.784034	A0 S0	-0.1991635
-2.59286	A0 S0l	-0.2377524
-1.748817	A0 SH	-0.2751852
-1.822362	A0 SH0	-0.5753269
-3.1684	A0 SHl
-2.273167	A0 Sl	-0.001827165
-1.445065	A0 T	-0.2415243
-1.462206	A0 T0	-0.2994044
-2.404238	A0 T0l	-0.06208876
-1.657617	A0 TS	-0.5094125
-1.963098	A0 TSH0	-0.5126433
-2.916818	A0 Tl	-0.2112327
-1.963098	A0 U	-0.1051437
-2.091029	A0 U0	-0.463879
-1.685941	A0 V	-0.226547
-1.822362	A0 V0	-0.4945164
-3.1684	A0 Vl
-2.916818	A0 Y
-1.657617	A0 Z	-0.4034641
-1.963098	A0 Z0	-0.04555398
-3.1684	A0 Z0l
-1.631028	A0 ZH	-0.5952511
-2.172619	A0 Zl	-0.03892525
-0.7881887	A0l D
-0.7881887	A0l Nl
-0.7881887	A0l SH
-1.26712	Al B	-0.1118138
-2.344491	Al B0
-1.198461	Al D	-0.6388857
-1.449258	Al D0	0.007843375
-2.344491	Al D0l
-2.344491	Al Dl
-2.344491	Al F
-2.344491	Al F0
-1.449258	Al G	-0.09715714
-2.344491	Al G0
-1.580329	Al K	-0.08853336
-2.09291	Al KH
-2.344491	Al L
-2.09291	Al M
-1.580329	Al N	-0.6812302
-1.26712	Al N0	-0.4563882
-1.26712	Al P	-0.3131025
-2.09291	Al P0	-0.140235
-2.09291	Al Pl	0.00756374
-1.449258	Al R	-0.07938879
-2.09291	Al R0	-0.2038024
-1.087043	Al S	-0.2210557
-2.344491	Al S0	-0.1984936
-2.344491	Al SH0
-2.344491	Al Sl
-0.8923336	Al T	-0.1455364
-2.344491	Al T0
-1.580329	Al TS
-1.768952	Al TSH0
-2.344491	Al Tl
-2.344491	Al Z
-2.344491	Al ZH
-1.013571	B A	-0.209212
-1.339508	B A0	-0.1379701
-2.391924	B D	-0.08619055
-2.067966	B D0
-2.643506	B E0	-0.3481298
-2.391924	B G	-0.2092508
-2.643506	B G0
-2.643506	B J0	-0.3690034
-1.438204	B L	-0.5205665
-1.25914	B L0	-0.312331
-2.643506	B L0l
-2.391924	B M	-0.08207068
-2.643506	B M0
-1.748273	B N	-0.4112129
-2.391924	B N0	-0.08280898
-1.057391	B O0	-0.4262291
-1.161047	B R	-0.7883756
-1.438204	B R0	-0.2701338
-1.132723	B U	-0.2878712
-1.057391	B U0	-0.4752814
-2.643506	B V
-2.391924	B V0	-0.2610698
-1.013571	B Y	-0.1531235
-0.9551589	B Y0	-0.9717767
-2.391924	B Z
-2.391924	B Z0	-0.1466253
-2.067966	B ZH
-2.180299	B0 A
-1.60476	B0 A0	-0.1160028
-1.928717	B0 D	-0.222689
-2.180299	B0 D0
-0.6695167	B0 E0	-0.08601958
-2.180299	B0 E0l	0.2663548
-1.928717	B0 G	-0.230083
-0.4569638	B0 I	-0.3426252
-1.034269	B0 I0	-0.3474565
-1.184518	B0 J0	-0.255841
-2.180299	B0 O0	-0.531379
-1.928717	B0 U
-2.180299	B0 U0	-0.2544136
-2.180299	B0 Z
-2.180299	B0 Z0
-0.337588	B0l I
-0.9131275	B0l Il
-1.010037	Bl A
-0.7584558	Bl A0
-1.010037	Bl U
-1.010037	Bl Y
-0.9802353	D A	-0.1710063
-1.173522	D A0	-0.1707733
-1.740168	D Al	-0.2491115
-1.840716	D B	-0.3426854
-1.971787	D B0	-0.02104855
-2.735949	D E0
-1.589918	D G	-0.336745
-2.16041	D G0	0.1903786
-2.735949	D J0	-0.07131847
-2.16041	D L	-0.3054662
-1.253491	D L0	-0.7527672
-2.735949	D M	-0.2267042
-2.484367	D M0	0.1010782
-1.478501	D N	-0.8213158
-1.351584	D N0	-0.4673565
-1.198577	D O0	-0.3539193
-1.173522	D R	-0.6957251
-1.530647	D R0	-0.07208955
-1.316366	D U	-0.1064498
-1.283792	D U0	-0.5346641
-2.484367	D Ul	-0.2260428
-1.283792	D V	-0.6244131
-1.198577	D V0	-0.3507532
-1.283792	D Y	-0.2324066
-1.740168	D Y0	-0.09847435
-1.840716	D Z	-0.29967
-1.971787	D Z0
-1.840716	D ZH	-0.4142679
-1.549373	D0 A	-0.1028858
-1.187159	D0 A0	-0.3018905
-1.448825	D0 B	-0.1435861
-1.680445	D0 B0	0.0890218
-0.7384129	D0 E0	-0.3411294
-1.367235	D0 G	-0.02914109
-2.193025	D0 G0	0.08034056
-0.6735657	D0 I	-0.257434
-1.187159	D0 I0	-0.3899346
-1.549373	D0 Il
-1.549373	D0 J0	-0.2410161
-2.444606	D0 M
-2.193025	D0 M0	-0.2071264
-1.239304	D0 O0	-0.4230183
-1.869067	D0 U
-1.549373	D0 Z	-0.05755813
-1.869067	D0 Z0
-1.869067	D0 ZH	-0.1071463
-0.7769207	D0l A0	-0.2455534
-0.5882984	D0l E0	-0.3800602
-0.7769207	D0l I	-0.1819296
-1.35246	D0l U
-1.26531	DZ B
-1.26531	DZ B0
-1.26531	DZ D
-1.26531	DZ D0
-1.013728	DZ G	-0.2092508
-1.26531	DZ G0
-1.26531	DZ Z
-1.26531	DZ ZH
-0.3110675	DZ0 E0	-0.2583848
-1.214157	DZH A
-1.214157	DZH A0
-0.9625757	DZH E0
-0.9625757	DZH O0
-0.9625757	DZH U
-1.26531	DZH0 B
-1.26531	DZH0 B0
-1.26531	DZH0 D
-1.26531	DZH0 D0
-1.26531	DZH0 G
-1.013728	DZH0 Z	-0.197784
-1.26531	DZH0 Z0
-1.26531	DZH0 ZH
-0.7380537	Dl A	-0.04544516
-0.7380537	Dl A0	-0.0886953
-1.633287	Dl L0
-1.057747	Dl O0	-0.1619163
-1.057747	Dl R	-0.1301841
-1.057747	Dl U0	-0.1515116
-1.633287	Dl V
-1.621307	E0 </s>
-1.58609	E0 <sil>	-0.07696279
-2.11044	E0 A	-0.09217457
-3.005673	E0 A0
-1.748225	E0 B	-0.149664
-1.928301	E0 B0	-0.1742478
-1.659635	E0 D	-0.4155924
-1.80037	E0 D0	-0.1591521
-2.754091	E0 DZ
-3.005673	E0 DZH0
-3.005673	E0 Dl
-1.748225	E0 F	-0.2795047
-2.754091	E0 F0	-0.1301754
-1.80037	E0 G	-0.179642
-3.005673	E0 GH
-2.11044	E0 I
-3.005673	E0 I0
-1.419558	E0 J0	-0.2032834
-1.621307	E0 K	-0.2237358
-2.754091	E0 K0	-0.2316894
-1.748225	E0 KH	-0.2646341
-1.58609	E0 L	-0.500088
-1.553515	E0 L0	-0.6065984
-3.005673	E0 L0l
-3.005673	E0 Ll	-0.1874693
-1.553515	E0 M	-0.02712458
-1.928301	E0 M0	-0.3303394
-2.241511	E0 M0l	0.02264154
-1.859642	E0 Ml	-0.2348815
-1.419558	E0 N	-0.2684959
-1.443246	E0 N0	-0.6763907
-2.11044	E0 N0l	-0.4914826
-1.80037	E0 Nl	-0.2214615
-2.241511	E0 O0	-0.3270496
-1.859642	E0 P	-0.2226426
-2.241511	E0 P0	0.008665442
-3.005673	E0 P0l
-3.005673	E0 Pl
-1.419558	E0 R	-0.3006812
-1.58609	E0 R0	-0.2061111
-3.005673	E0 R0l
-3.005673	E0 Rl
-1.58609	E0 S	-0.7261268
-1.701675	E0 S0	-0.422098
-2.241511	E0 S0l	0.00528565
-1.80037	E0 SH	-0.3843511
-2.11044	E0 SH0	-0.3127501
-2.241511	E0 Sl	-0.06404569
-1.140255	E0 T	-0.5772097
-1.375738	E0 T0	-0.319879
-2.754091	E0 T0l	0.04798165
-1.859642	E0 TS	-0.1085731
-1.859642	E0 TSH0	-0.4460366
-2.430133	E0 Tl	0.04123117
-2.11044	E0 U	-0.02789359
-3.005673	E0 U0
-1.701675	E0 V	-0.1666413
-2.11044	E0 V0	0.04339123
-1.928301	E0 Z	-0.3685227
-1.80037	E0 Z0	-0.1460655
-1.80037	E0 ZH	-0.4961041
-3.005673	E0 ZH0
-0.1489657	E0l T	-0.6908699
-1.735242	F </s>
-1.653652	F <sil>	-0.2401787
-1.346658	F A	-0.1869134
-1.83579	F A0	-0.06641991
-2.155484	F E0
-2.155484	F J0	-0.2023766
-1.193651	F K	-0.4755184
-2.155484	F K0	-0.1347794
-1.584993	F KH	-0.2279033
-2.731023	F KH0
-2.155484	F L	-0.1989762
-2.479441	F L0
-1.966861	F M	-0.09095725
-2.479441	F M0	-0.03533088
-1.966861	F N	-0.3279687
-2.479441	F N0	-0.1888072
-1.31144	F O0	-0.4087014
-1.144909	F P	-0.5062623
-1.653652	F P0	-0.3512736
-1.584993	F R	-0.3257442
-2.479441	F R0	-0.05947468
-1.080732	F S	-0.3181878
-1.042676	F S0	-1.019277
-1.384985	F SH	-0.8478912
-2.731023	F SH0	-0.09479524
-1.220241	F T	-0.4764903
-1.427025	F T0	-0.2693179
-1.653652	F TS	-0.2194925
-1.584993	F TSH0	-0.1138601
-2.155484	F U	-0.1642016
-2.155484	F U0	-0.1706754
-1.653652	F V	-0.1130594
-2.479441	F V0
-1.735242	F Y	-0.04478956
-2.155484	F Y0
-1.957113	F0 <sil>
-1.957113	F0 A
-2.208694	F0 A0
-1.003392	F0 E0	-0.2801704
-0.5584036	F0 I	-0.1005223
-1.313462	F0 I0	-0.06634128
-2.208694	F0 Il
-1.957113	F0 J0
-2.208694	F0 K
-2.208694	F0 K0
-2.208694	F0 L
-2.208694	F0 L0
-2.208694	F0 M
-1.957113	F0 M0
-2.208694	F0 N
-2.208694	F0 N0
-1.444533	F0 O0	-0.1652847
-2.208694	F0 P
-2.208694	F0 P0
-2.208694	F0 R
-2.208694	F0 R0
-2.208694	F0 S
-1.957113	F0 S0
-2.208694	F0 SH
-1.957113	F0 T	-0.2410609
-1.957113	F0 T0	-0.2056253
-2.208694	F0 TSH0	-0.2524021
-1.957113	F0 U
-1.633155	F0 U0
-2.208694	F0 V
-2.208694	F0 V0
-2.208694	F0 V0l
-0.6120974	F0l I
-0.6120974	F0l I0
-0.7584558	Fl P	-0.220022
-1.010037	Fl R
-1.010037	Fl S0
-1.010037	Fl SH
-0.879636	G A	-0.3201861
-1.557979	G A0	-0.2466187
-2.383768	G Al	-0.1365245
-1.871188	G B	-0.3024655
-2.383768	G B0	-0.08416714
-1.489319	G D	-0.8667165
-1.124567	G D0	-0.8429434
-2.05981	G E0	-0.107659
-1.097978	G L	-0.754773
-1.215767	G L0	-0.6735127
-2.63535	G M
-2.63535	G M0
-1.740117	G N	-0.1788892
-1.557979	G N0	-0.052691
-1.049235	G O0	-0.4246282
-1.072923	G R	-0.613839
-1.331352	G R0	-0.3792282
-1.183192	G U	-0.2902619
-1.331352	G U0	-0.3381973
-2.383768	G V	-0.1323532
-2.63535	G V0
-2.383768	G Y0	-0.2448573
-1.557979	G Z	-0.1378383
-1.871188	G Z0	0.02366328
-2.63535	G ZH	-0.4781895
-0.9487545	G0 E0	-0.09140268
-0.2561889	G0 I	-0.1338671
-0.7985054	G0 I0	-0.1627753
-1.944536	G0 J0
-1.944536	G0 U
-1.692954	G0 U0	-0.2544136
-0.7881887	G0l E0
-0.536607	G0l I
-0.7388461	GH B	-0.1054197
-1.564636	GH B0
-0.9209844	GH D	-0.1005117
-1.240678	GH D0	-0.07293984
-0.8204361	GH G	-0.0410853
-1.816217	GH G0
-0.9209844	GH Z	-0.1171767
-1.816217	GH Z0
-1.564636	GH ZH
-0.837637	Gl A	-0.1501049
-1.089219	Gl L
-1.089219	Gl O0	-0.2622198
-1.089219	Gl U
-1.089219	Gl U0
-1.710536	I </s>
-1.603227	I <sil>	0.0399794
-1.790504	I A	-0.3419426
-2.195591	I A0	-0.3109803
-3.272963	I A0l
-1.735591	I B	-0.1691495
-1.888597	I B0	-0.4664893
-1.664386	I D	-0.1936733
-1.686848	I D0	-0.5448545
-3.272963	I D0l
-3.021381	I DZ
-3.272963	I DZH
-3.272963	I DZH0
-2.37773	I Dl	0.02228619
-2.195591	I E0	-0.4825238
-1.710536	I F	0.01112521
-2.508801	I F0	0.04391707
-1.549628	I G	-0.2222219
-2.37773	I G0	0.2619133
-3.272963	I G0l
-2.508801	I GH	-0.01460628
-3.021381	I Gl
-1.566769	I J0	-0.4328751
-3.272963	I J0l
-1.549628	I K	-0.2859297
-1.888597	I K0	0.1384254
-1.926925	I KH	-0.002727509
-3.021381	I KH0	-0.100285
-3.272963	I KHl
-3.272963	I Kl
-1.664386	I L	-0.2664474
-1.501922	I L0	-0.2813457
-2.697423	I L0l	-0.08858088
-3.272963	I Ll	-0.2260428
-1.584616	I M	-0.3291417
-1.664386	I M0	-0.3503822
-3.272963	I M0l
-3.021381	I Ml	-0.1109534
-1.487118	I N	-0.2915459
-1.603227	I N0	-0.3694329
-2.37773	I N0l	-0.4043324
-1.926925	I Nl	-0.6093925
-1.790504	I O0	-0.4740748
-1.566769	I P	-0.5171458
-1.820805	I P0	-0.5210279
-3.021381	I Pl	0.00756374
-1.549628	I R	-0.202277
-1.735591	I R0	-0.7747561
-3.021381	I Rl
-1.501922	I S	-0.1568074
-1.664386	I S0	-0.2500556
-2.508801	I S0l	-0.07271219
-1.686848	I SH	-0.08682305
-1.820805	I SH0	-0.3611928
-3.272963	I SH0l
-3.021381	I SHl	-0.05386849
-2.277182	I Sl	-0.05494377
-1.566769	I T	0.09258574
-1.686848	I T0	-0.2715396
-2.126932	I T0l	0.2019379
-1.686848	I TS	-0.3808868
-1.76218	I TSH0	-0.2193907
-3.272963	I TSH0l	-0.1490554
-2.697423	I Tl	-0.004838645
-1.85338	I U	-0.05578882
-2.126932	I U0	-0.2694724
-1.533137	I V	-0.5285314
-1.76218	I V0	-0.254844
-3.272963	I V0l	-0.08123336
-3.272963	I Vl
-2.277182	I Y	-0.0817944
-1.603227	I Z	-0.1376001
-1.888597	I Z0	-0.09334829
-3.272963	I Z0l
-1.820805	I ZH	-0.4078756
-3.021381	I ZH0
-2.067661	I Zl	-0.3399552
-1.594781	I0 </s>
-1.693476	I0 <sil>	-0.01500137
-2.134617	I0 A	-0.1828116
-2.898778	I0 A0
-1.821407	I0 B	-0.07936209
-2.647197	I0 B0
-2.898778	I0 Bl
-1.641331	I0 D	-0.3163277
-1.821407	I0 D0	-0.7049192
-2.898778	I0 D0l
-2.898778	I0 DZH0
-2.647197	I0 Dl
-2.647197	I0 E0	-0.2231911
-1.641331	I0 F	-0.3450529
-2.898778	I0 F0
-2.647197	I0 Fl	-0.2260428
-1.902997	I0 G	-0.2237823
-2.647197	I0 G0	-0.1266398
-2.003546	I0 GH	0.03196511
-1.752748	I0 J0	-0.4514553
-1.752748	I0 K	-0.201055
-2.647197	I0 K0	-0.2316894
-1.514413	I0 KH	-0.190812
-2.323239	I0 KH0	-0.1446843
-2.898778	I0 Kl
-1.479195	I0 L	-0.2743837
-1.41632	I0 L0	-0.6327538
-2.647197	I0 L0l
-2.647197	I0 Ll
-1.361407	I0 M	-0.1728045
-1.693476	I0 M0	-0.4515927
-2.898778	I0 M0l
-2.898778	I0 Ml
-1.387996	I0 N	-0.3492428
-1.514413	I0 N0	-0.5906166
-2.647197	I0 N0l	0.05792055
-2.134617	I0 Nl	-0.181274
-2.323239	I0 O0	-0.1509584
-1.641331	I0 P	-0.1251579
-2.647197	I0 P0
-2.898778	I0 P0l
-1.821407	I0 R	-0.3673763
-2.323239	I0 R0	-0.2513449
-1.514413	I0 S	-0.3649353
-1.902997	I0 S0	-0.07074251
-1.693476	I0 SH	-0.2848331
-1.902997	I0 SH0	-0.1121418
-2.898778	I0 Sl
-1.479195	I0 T	-0.04334679
-1.446621	I0 T0	-0.320749
-2.647197	I0 T0l
-1.55274	I0 TS	-0.4064808
-1.514413	I0 TSH0	-0.5924091
-2.898778	I0 TSl
-2.898778	I0 Tl
-2.134617	I0 U
-2.003546	I0 U0	-0.07082553
-1.594781	I0 V	-0.3152809
-2.323239	I0 V0	-0.1428954
-2.898778	I0 Y
-1.55274	I0 Z	-0.1418711
-1.902997	I0 Z0	-0.04392582
-1.902997	I0 ZH	-0.3160866
-2.898778	I0 ZHl
-2.898778	I0 Zl
-1.35246	I0l DZ
-1.35246	I0l GH
-0.5882984	I0l KH
-1.35246	I0l L0
-1.35246	I0l M
-1.35246	I0l M0
-1.100878	I0l S
-1.345253	Il </s>
-1.094456	Il <sil>	-0.03112875
-1.664947	Il A
-2.240486	Il B	-0.2264238
-2.240486	Il D
-1.664947	Il D0
-2.240486	Il E0
-2.240486	Il F
-2.240486	Il G
-1.988905	Il J0
-1.476325	Il K	-0.1159613
-2.240486	Il L
-1.244705	Il L0	-0.4143659
-2.240486	Il M
-1.988905	Il M0	-0.1834665
-1.163115	Il N	-0.1371928
-1.664947	Il N0
-1.476325	Il P	-0.2226039
-1.163115	Il S	-0.1040001
-1.988905	Il S0
-2.240486	Il SH
-2.240486	Il Sl
-1.988905	Il T
-2.240486	Il T0	-0.1199111
-2.240486	Il T0l
-2.240486	Il TS
-2.240486	Il U
-2.240486	Il U0
-1.476325	Il V	-0.10619
-1.345253	Il Z	-0.1505134
-1.988905	Il Z0	-0.07751049
-1.988905	Il Zl	-0.02854411
-1.952393	J0 </s>
-1.770254	J0 <sil>	-0.04198653
-1.501588	J0 A	-0.08710998
-1.047465	J0 A0	-0.1968764
-1.770254	J0 Al	-0.05884324
-1.952393	J0 B	-0.1389494
-2.596044	J0 B0	0.03694338
-1.701595	J0 D	-0.1387858
-1.952393	J0 D0	-0.2006581
-2.847626	J0 DZH
-1.076585	J0 E0	-0.6128893
-1.851845	J0 F	-0.1011199
-2.847626	J0 F0
-1.851845	J0 G	-0.132764
-2.847626	J0 G0
-0.9362551	J0 I	-0.33086
-2.847626	J0 I0
-2.272086	J0 I0l
-2.083464	J0 Il	-0.07906316
-1.952393	J0 K	-0.2963663
-2.272086	J0 K0	-0.1065412
-1.952393	J0 KH	-0.05195422
-2.847626	J0 KH0
-1.851845	J0 L	-0.107239
-1.851845	J0 L0	-0.2567511
-1.952393	J0 M	-0.1784014
-2.083464	J0 M0	-0.2605258
-1.770254	J0 N	-0.4457952
-1.770254	J0 N0	-0.5756357
-1.590178	J0 O0	-0.1345178
-2.847626	J0 O0l
-1.851845	J0 P	-0.2401955
-2.272086	J0 P0	-0.319783
-1.851845	J0 R	-0.4601839
-2.596044	J0 R0	-0.05947468
-1.770254	J0 S	-0.2159465
-1.952393	J0 S0	-0.5240939
-2.847626	J0 S0l
-1.851845	J0 SH	-0.3392099
-2.596044	J0 SH0	-0.05048352
-1.851845	J0 T	-0.2798445
-1.770254	J0 T0	-0.4724959
-2.083464	J0 TS	-0.1640843
-2.083464	J0 TSH0	-0.3816916
-1.310254	J0 U	-0.1430485
-1.590178	J0 U0	-0.1218517
-2.847626	J0 U0l	-0.1490554
-2.847626	J0 Ul
-2.083464	J0 V	-0.09032646
-2.083464	J0 V0	-0.3437583
-2.272086	J0 Y
-2.083464	J0 Z	-0.2334414
-2.847626	J0 Z0
-2.596044	J0 ZH	-0.1068599
-0.9625757	J0l A0	-0.1510009
-1.214157	J0l E0
-0.3189245	J0l I	-0.1379468
-1.627651	K </s>
-1.627651	K <sil>	0.02778876
-1.019681	K A	-0.4704839
-1.145272	K A0	-0.3266131
-1.889317	K Al	-0.04025786
-1.989866	K E0	-0.5242211
-1.739068	K F	-0.02567303
-2.633517	K F0
-1.989866	K J0	-0.2994091
-2.309559	K KH
-2.885099	K KH0
-1.581101	K L	-0.473883
-1.465516	K L0	-0.1905534
-1.989866	K M	-0.1018907
-2.885099	K M0	-0.1453689
-1.465516	K N	-0.5309407
-1.374316	K N0	-0.5844627
-1.234808	K O0	-0.4457066
-1.739068	K P	-0.3456264
-2.633517	K P0
-1.255164	K R	-0.8084805
-1.432941	K R0	-0.6088726
-1.539061	K S	-0.09979014
-1.539061	K S0	-0.3501483
-2.120937	K SH	-0.3590113
-2.885099	K SH0	-0.2324594
-1.40264	K T	-0.5662503
-1.989866	K T0	-0.7578138
-2.633517	K TS
-2.309559	K TSH0	-0.03242812
-1.161763	K U	-0.1747461
-1.374316	K U0	-0.1919034
-1.500733	K V	-0.5593812
-1.679796	K V0	0.0514605
-1.989866	K Y	-0.06354243
-2.633517	K Y0	-0.1597183
-1.072545	K0 E0	-0.1486522
-0.3640716	K0 I	-0.4742038
-0.5638019	K0 I0	-0.3653128
-1.072545	K0 Il
-2.149917	K0 J0
-2.149917	K0 U
-1.898335	K0 U0
-0.6120974	K0l E0
-0.6120974	K0l I
-1.487782	KH </s>
-1.547054	KH <sil>	-0.07155287
-0.9220439	KH A	-0.4124362
-1.347046	KH A0	-0.1215873
-2.693084	KH Al
-1.797852	KH F	-0.05943687
-2.693084	KH F0
-1.797852	KH J0	-0.1734678
-1.487782	KH K	-0.2700275
-2.117545	KH K0	-0.4358094
-1.697303	KH L	-0.3337799
-1.797852	KH L0	-0.1262172
-1.435637	KH M	-0.2589022
-2.117545	KH M0	-0.08880326
-1.389087	KH N	-0.337419
-1.547054	KH N0	-0.4443041
-1.210626	KH O0	-0.3389255
-1.435637	KH P	-0.444455
-2.441503	KH P0	-0.05644634
-1.435637	KH R	-0.3140685
-1.928923	KH R0	-0.2513449
-1.487782	KH S	-0.08171181
-2.117545	KH S0	-0.3668396
-2.693084	KH S0l
-1.697303	KH SH	-0.1159666
-2.693084	KH SH0
-1.487782	KH T	-0.08056511
-2.441503	KH T0	-0.2299491
-2.441503	KH TS	-0.07530423
-2.117545	KH TSH0	-0.2731143
-1.347046	KH U	-0.2005944
-1.797852	KH U0	-0.17997
-1.487782	KH V	-0.1781224
-2.693084	KH V0
-1.547054	KH Y	-0.07874839
-2.441503	KH Y0
-1.578	KH0 E0
-0.3774238	KH0 I	-0.1842619
-0.5255835	KH0 I0	-0.1643013
-1.578	KH0 Il
-1.829581	KH0 J0
-1.578	KH0 U0	-0.2696908
-0.3110675	KH0l I0
-0.6615457	KHl A
-0.9131275	KHl L0
-0.9131275	KHl U0
-0.5919257	Kl A	-0.2503669
-0.722997	Kl A0	-0.4450332
-1.487159	Kl N0
-0.9116193	Kl R	-0.120398
-1.487159	Kl T
-1.487159	Kl U0
-1.505359	L </s>
-1.705366	L <sil>	-0.1022716
-1.128062	L A	-0.2990361
-1.24282	L A0	-0.07482198
-1.705366	L Al	-0.3173808
-1.956164	L B	-0.2390472
-2.851397	L B0
-1.705366	L D	-0.3214103
-2.599815	L D0
-2.275857	L E0	-0.1438003
-1.593949	L F	-0.1232617
-2.599815	L F0	-0.225317
-1.774026	L G	-0.3016264
-2.851397	L G0
-2.851397	L G0l
-1.705366	L J0	-0.7095836
-1.646095	L K	-0.2308984
-1.956164	L K0	-0.01057357
-2.599815	L KH
-2.851397	L KH0
-2.851397	L Kl
-1.855616	L M	-0.2269084
-2.087235	L M0	-0.08880326
-1.593949	L N	-0.7163106
-1.855616	L N0	-0.5071954
-1.111571	L O0	-0.2008117
-1.646095	L P	-0.3707128
-2.599815	L P0
-2.087235	L R	-0.1941077
-2.599815	L R0
-1.593949	L S	-0.2402264
-1.646095	L S0	-1.099864
-2.851397	L S0l
-1.774026	L SH	-0.4240313
-2.599815	L SH0	-0.2273295
-2.851397	L Sl
-1.646095	L T	-0.2526195
-2.851397	L T0
-2.599815	L TS
-1.956164	L TSH0	-0.1186987
-1.340614	L U	-0.3067446
-1.340614	L U0	-0.2612585
-1.646095	L V	-0.07619086
-2.851397	L V0
-2.851397	L V0l	-0.01899046
-2.851397	L Vl
-1.368938	L Y	-0.1945907
-1.547399	L Y0	-0.2873844
-1.774026	L Z	-0.217259
-2.599815	L Z0	-0.03658725
-1.956164	L ZH	-0.2829901
-2.158774	L0 </s>
-1.588283	L0 <sil>	-0.04596996
-1.738532	L0 A	-0.1365685
-1.430315	L0 A0	-0.1945082
-1.970152	L0 B	-0.07476655
-2.734313	L0 B0
-2.482732	L0 D	-0.1526886
-2.734313	L0 D0
-2.734313	L0 Dl
-1.02812	L0 E0	-0.3095359
-2.734313	L0 E0l	0.2812232
-2.734313	L0 F
-2.734313	L0 F0
-2.734313	L0 G	-0.2585125
-2.734313	L0 G0
-0.8688956	L0 I	-0.1895202
-1.045966	L0 I0	-0.1348864
-2.482732	L0 I0l	-0.1410746
-1.476866	L0 Il	-0.1695917
-1.83908	L0 J0	-0.1708443
-2.158774	L0 K	-0.9602447
-2.158774	L0 K0	0.06955005
-2.482732	L0 KH
-2.734313	L0 KH0
-1.970152	L0 M
-2.734313	L0 M0	-0.1453689
-1.588283	L0 N	-0.8710999
-1.970152	L0 N0	-0.5341288
-1.31473	L0 O0	-0.3193981
-2.158774	L0 P	-0.08427511
-2.734313	L0 P0
-2.734313	L0 R
-2.734313	L0 R0
-1.656942	L0 S	-0.3925852
-2.158774	L0 S0
-1.970152	L0 SH	-0.5024058
-2.734313	L0 SH0
-2.734313	L0 Sl
-2.158774	L0 T	-0.04220175
-2.158774	L0 T0	-0.3305641
-1.970152	L0 TS	-0.335821
-2.734313	L0 TSH0	-0.7431866
-1.148199	L0 U	-0.5088782
-1.282156	L0 U0	-0.1566972
-2.158774	L0 V	-0.06160978
-2.482732	L0 V0	-0.1453144
-2.482732	L0 Z	-0.08188345
-2.482732	L0 Z0	-0.562813
-2.734313	L0 ZH
-1.487159	L0l <sil>
-1.235577	L0l E0	-0.07771371
-0.4913774	L0l I
-0.722997	L0l I0	-0.07563367
-1.487159	L0l U
-1.487159	L0l U0
-0.7584558	Ll A
-1.010037	Ll A0
-1.010037	Ll O0	-0.1548414
-1.010037	Ll U	-0.2654572
-1.577613	M </s>
-1.577613	M <sil>	-0.1248077
-1.016193	M A	-0.1523556
-1.273033	M A0	-0.2733519
-1.986377	M Al	-0.08560567
-1.885829	M B	0.07896793
-2.306071	M B0	-0.2911475
-1.804239	M D	-0.1279981
-2.306071	M D0	-0.0436991
-1.885829	M E0	-0.05929475
-1.804239	M F	-0.1429413
-2.88161	M F0	-0.1301754
-1.804239	M G	-0.04696989
-2.88161	M G0
-1.885829	M J0	-0.3429062
-1.73558	M K	-0.3232531
-2.88161	M K0	-0.024709
-2.117449	M KH	-0.06461169
-2.88161	M KH0
-2.117449	M L	-0.1874228
-1.986377	M L0	-0.3508841
-1.399152	M N	-0.7373357
-1.370828	M N0	-0.9831326
-1.141784	M O0	-0.407562
-1.676308	M P	-0.2279865
-2.306071	M P0	-0.1156629
-1.73558	M R	-0.2516675
-2.88161	M R0	-0.2038024
-1.73558	M S	-0.09791814
-1.885829	M S0	-0.119069
-1.885829	M SH	-0.07276415
-2.630029	M SH0
-1.885829	M T	-0.2813656
-1.885829	M T0	-0.07338431
-2.630029	M TS	-0.2981275
-1.885829	M TSH0	-0.2021215
-1.577613	M U	-0.1251256
-1.344239	M U0	0.05873516
-2.88161	M U0l
-2.88161	M Ul
-1.804239	M V	-0.01668838
-1.804239	M V0	0.06251597
-1.429453	M Y	-0.05586752
-1.273033	M Y0	-0.148811
-1.986377	M Z	-0.425142
-2.306071	M Z0	-0.03658725
-2.117449	M ZH	-0.2649792
-2.428339	M0 </s>
-2.428339	M0 <sil>
-1.664177	M0 A	-0.1724064
-1.350967	M0 A0	-0.2227023
-2.428339	M0 Al
-2.428339	M0 B0
-2.428339	M0 D
-2.428339	M0 D0	-0.2772693
-0.7399917	M0 E0	-0.359588
-2.428339	M0 F	-0.2676525
-2.428339	M0 G
-0.6008875	M0 I	-0.2192956
-0.8659121	M0 I0	-0.2383747
-2.428339	M0 I0l
-1.533106	M0 Il	-0.05277082
-2.176757	M0 J0	-0.1236479
-2.428339	M0 K
-2.428339	M0 K0
-2.428339	M0 KH
-2.176757	M0 L0	-0.2279566
-2.428339	M0 N
-2.428339	M0 N0
-1.533106	M0 O0	-0.09784299
-2.428339	M0 P
-2.428339	M0 P0
-2.428339	M0 R
-2.428339	M0 S
-2.428339	M0 SH
-2.428339	M0 T
-2.428339	M0 T0
-2.428339	M0 TSH0	-0.1937835
-2.428339	M0 U	-0.2513495
-2.428339	M0 U0
-2.428339	M0 V
-2.428339	M0 V0
-2.428339	M0 Z
-2.428339	M0 ZH
-0.7584558	M0l E0	-0.1519422
-0.434498	M0l I	-0.07474381
-0.545735	Ml A	-0.1384585
-0.965977	Ml A0	-0.2332526
-0.965977	Ml O0	-0.1501763
-1.289935	Ml U
-1.541516	Ml U0
-1.541516	Ml Y
-1.541516	Ml Y0
-1.775275	N </s>
-1.775275	N <sil>	-0.02151667
-0.9412759	N A	-0.3985849
-1.129311	N A0	-0.2023674
-1.370188	N Al	0.03735326
-2.088485	N B	-0.3430944
-2.852647	N B0
-1.775275	N D	-0.06078485
-2.601065	N D0	-0.03781275
-2.852647	N DZH
-2.088485	N E0	-0.09945963
-1.856865	N F	-0.1726456
-2.852647	N F0
-2.088485	N G	-0.05137414
-2.601065	N G0	0.09520891
-2.088485	N J0	-0.2179675
-1.856865	N K	-0.3859987
-2.088485	N K0	-0.4358094
-2.852647	N K0l
-2.852647	N KH	-0.03377588
-2.601065	N KH0
-2.852647	N L
-2.277107	N L0
-2.277107	N M	-0.2408295
-2.852647	N M0
-1.129311	N O0	-0.2201496
-2.601065	N O0l	-0.2264406
-1.706616	N P	-0.5887682
-2.277107	N P0	-0.01875295
-2.277107	N R	-0.1361769
-1.957414	N R0	-0.1395993
-1.647344	N S	-0.2621591
-2.277107	N S0	-0.1724744
-2.277107	N SH	-0.05378645
-2.852647	N SH0
-1.647344	N T	-0.2133847
-2.852647	N T0
-1.775275	N TS	-0.2026881
-2.852647	N TSH0	-0.03767564
-1.202356	N U	-0.3715864
-1.222712	N U0	-0.4632935
-2.601065	N Ul
-1.856865	N V	-0.2158494
-1.957414	N V0	0.1252721
-1.1643	N Y	-0.4694657
-1.29022	N Y0	-0.1892453
-2.601065	N Z	-0.3630671
-2.601065	N Z0	-0.04564124
-2.088485	N ZH	-0.4410705
-1.901014	N0 </s>
-2.089637	N0 <sil>
-1.669394	N0 A	-0.06292759
-1.407728	N0 A0	-0.1336088
-2.665176	N0 A0l
-2.665176	N0 Al
-2.413594	N0 B
-2.413594	N0 B0
-2.665176	N0 D
-1.769943	N0 D0	-0.03415141
-0.8793309	N0 E0	-0.2265049
-2.665176	N0 E0l
-2.413594	N0 F
-2.665176	N0 F0
-2.413594	N0 G	-0.3443244
-2.665176	N0 G0	-0.1266398
-0.7648456	N0 I	-0.4087449
-1.127804	N0 I0	-0.1031134
-2.413594	N0 I0l
-1.213018	N0 Il	-0.1507293
-1.769943	N0 J0	-0.3767269
-1.901014	N0 K	-0.4715388
-2.413594	N0 K0	-0.3660834
-2.665176	N0 KH	-0.325419
-2.665176	N0 KH0
-2.665176	N0 L
-2.665176	N0 L0
-2.413594	N0 M
-2.665176	N0 M0
-1.407728	N0 O0	-0.1883149
-2.413594	N0 P
-2.665176	N0 P0
-2.665176	N0 R	-0.230436
-2.413594	N0 R0
-2.665176	N0 S
-2.413594	N0 S0	-0.1622746
-2.413594	N0 SH	-0.3263795
-2.089637	N0 SH0	-0.8446232
-2.089637	N0 T	-0.1310228
-1.769943	N0 T0	-0.4927866
-2.665176	N0 TS
-1.669394	N0 TSH0	-0.5510956
-1.319138	N0 U	-0.3221883
-2.089637	N0 U0	-0.1816918
-2.413594	N0 V
-2.665176	N0 V0
-2.665176	N0 Z
-2.665176	N0 Z0
-2.665176	N0 ZH
-0.7769207	N0l E0	-0.1067666
-0.2750888	N0l I	-0.2340126
-1.35246	N0l I0
-0.5160177	Nl A	-0.2501147
-1.773466	Nl A0
-1.521884	Nl Al
-1.773466	Nl O0	-0.1756947
-1.773466	Nl O0l
-1.773466	Nl R
-1.009304	Nl U	-0.4182229
-1.773466	Nl V
-0.6274349	Nl Y	-0.9196417
-0.3110675	O KH
-1.713653	O0 </s>
-1.74887	O0 <sil>	-0.05287431
-2.055864	O0 A	-0.1542949
-3.133235	O0 A0
-1.713653	O0 B	-0.3440801
-2.055864	O0 B0	-0.8709311
-3.133235	O0 B0l
-1.595864	O0 D	-0.250647
-1.927933	O0 D0	-0.4539342
-2.881654	O0 D0l	-0.03103656
-2.881654	O0 DZH0	-0.09035101
-2.557696	O0 Dl	-0.1681659
-2.557696	O0 E0	-0.5831331
-1.622453	O0 F	-0.1851684
-2.238003	O0 F0	0.009140372
-1.787197	O0 G	-0.2751165
-2.557696	O0 G0	-0.8256098
-3.133235	O0 GH
-1.987205	O0 I	-0.1173809
-2.881654	O0 I0
-1.547121	O0 J0	-0.2478295
-2.369074	O0 J0l	-0.06446929
-1.427042	O0 K	-0.02834305
-2.055864	O0 K0	-0.8337494
-1.829238	O0 KH	-0.1537514
-3.133235	O0 KH0
-1.524658	O0 L	-0.3767703
-1.713653	O0 L0	-0.5395752
-1.482945	O0 M	-0.2455615
-1.927933	O0 M0	-0.4763009
-3.133235	O0 M0l	-0.1874693
-2.881654	O0 Ml
-1.244234	O0 N	-0.08234841
-1.829238	O0 N0	-0.7266636
-1.829238	O0 N0l	-0.4762093
-1.547121	O0 Nl	-0.5363342
-1.524658	O0 P	-0.3609276
-2.369074	O0 P0	-0.261791
-1.377522	O0 R	-0.5124693
-2.055864	O0 R0	-0.3522431
-1.427042	O0 S	-0.1875037
-1.875788	O0 S0	-0.197217
-2.557696	O0 S0l	-0.07838538
-1.713653	O0 SH	-0.1546462
-2.137454	O0 SH0	-0.3671429
-2.881654	O0 Sl	-0.1281071
-1.393409	O0 T	-0.1179494
-1.713653	O0 T0	-0.3697077
-2.557696	O0 T0l	0.06285
-1.927933	O0 TS	-0.4752946
-1.503301	O0 TSH0	-0.6187783
-3.133235	O0 TSH0l
-2.238003	O0 Tl	0.09589116
-1.829238	O0 U	-0.03726411
-2.881654	O0 U0
-1.595864	O0 V	-0.412101
-1.787197	O0 V0	-0.1543078
-3.133235	O0 Vl
-2.369074	O0 Y
-1.595864	O0 Z	-0.3864475
-1.987205	O0 Z0	0.05809978
-2.881654	O0 Z0l
-1.622453	O0 ZH	-0.8451966
-3.133235	O0 ZH0
-3.133235	O0 ZHl
-2.557696	O0 Zl	0.1325024
-1.26531	O0l G
-0.6897705	O0l N	-0.06069544
-1.013728	O0l N0l	-0.2282411
-1.26531	O0l Nl
-1.26531	O0l P
-1.26531	O0l TSH0
-2.758225	P </s>
-1.680854	P <sil>	-0.05456696
-0.9580643	P A	-0.3969628
-1.220854	P A0	-0.2988798
-2.758225	P A0l
-1.862993	P Al	-0.06360408
-2.758225	P F
-2.182686	P F0	-0.2279679
-2.758225	P J0
-1.994064	P K	-0.5757318
-1.680854	P K0	-0.474518
-2.182686	P KH	-0.1210896
-1.275767	P L	-0.6405156
-1.412187	P L0	-0.4612964
-2.758225	P M	-0.2267042
-2.758225	P M0
-1.862993	P N	-0.05654288
-2.506644	P N0
-1.08849	P O0	-0.3779533
-1.018399	P R	-1.274929
-0.9580643	P R0	-1.333773
-2.182686	P S	-0.3275397
-2.182686	P S0
-1.862993	P SH	-0.05495374
-1.994064	P SH0	-0.4372331
-2.182686	P T	-0.07860228
-2.182686	P T0	-0.1902796
-2.182686	P TS	-0.1668367
-1.994064	P TSH0	-0.09516104
-1.338643	P U	-0.6163566
-1.454228	P U0	-0.1251571
-1.994064	P V
-2.758225	P V0
-1.412187	P Y	-0.1941489
-1.762444	P Y0	-0.1638722
-1.726754	P0 <sil>
-1.096991	P0 A0	-0.4755118
-0.7915111	P0 E0	-0.6884106
-2.302294	P0 F
-0.5164486	P0 I	-0.4991271
-1.044846	P0 I0	-0.3054167
-1.726754	P0 J0	-0.119871
-2.050712	P0 K
-2.302294	P0 K0
-2.302294	P0 KH
-2.302294	P0 L0
-2.302294	P0 M
-2.302294	P0 M0
-2.302294	P0 N
-2.302294	P0 N0
-1.726754	P0 O0	-0.0959906
-2.302294	P0 R
-2.302294	P0 R0
-2.050712	P0 S
-2.050712	P0 S0
-2.050712	P0 T
-2.302294	P0 T0
-2.302294	P0 U	-0.2592436
-2.302294	P0 U0
-2.302294	P0 V
-0.1489657	P0l I
-0.3250569	Pl A	-0.5522457
-1.089219	Pl S
-1.089219	Pl Y
-1.761326	R </s>
-1.692667	R <sil>	-0.01648109
-0.9613276	R A	-0.361152
-1.052852	R A0	-0.321942
-2.263158	R Al	-0.09045468
-2.838697	R B	-0.4376454
-2.587116	R B0	0.0258709
-2.263158	R D	-0.1661234
-1.943464	R D0	-0.2011413
-2.838697	R DZ
-2.838697	R DZH
-2.838697	R Dl
-2.587116	R E0
-1.943464	R F	-0.06487893
-2.263158	R F0
-1.842916	R G	-0.3689664
-1.943464	R G0	0.2107393
-2.587116	R J0	-0.2172449
-1.692667	R K	-0.2526295
-1.842916	R K0	-0.5044813
-2.074536	R KH	-0.1670619
-2.263158	R KH0	0.05964512
-2.838697	R L	-0.4521123
-2.263158	R L0	-0.001891181
-1.943464	R M	-0.260313
-2.074536	R M0	-0.2554393
-1.633395	R N	-0.5870886
-1.943464	R N0	-0.17352
-1.208763	R O0	-0.2178489
-1.943464	R P	-0.05260246
-2.587116	R P0	-0.3168023
-1.692667	R S	-0.1683606
-1.842916	R S0	-0.5247615
-1.842916	R SH	-0.2743033
-2.263158	R SH0	-0.07172783
-1.692667	R T	-0.1418281
-1.842916	R T0	-0.5163249
-2.074536	R TS	-0.2976256
-2.074536	R TSH0	-0.04170911
-1.168962	R U	-0.2384101
-1.15035	R U0	-0.3176233
-1.842916	R V	-0.4226364
-2.587116	R V0
-1.38654	R Y	-0.2759734
-1.492659	R Y0	-0.2298913
-2.263158	R Z	-0.1647307
-2.838697	R Z0	-0.1407549
-2.263158	R ZH	-0.1723039
-2.509725	R0 </s>
-1.745563	R0 <sil>
-1.745563	R0 A	-0.07972097
-1.090142	R0 A0	-0.2469033
-2.509725	R0 B	-0.2196611
-2.509725	R0 B0
-2.509725	R0 D
-2.509725	R0 D0	-0.1831145
-0.9472979	R0 E0	-0.3470031
-2.509725	R0 F	-0.2330513
-2.509725	R0 F0
-2.509725	R0 G
-2.509725	R0 G0
-0.6822733	R0 I	-0.2279071
-0.9472979	R0 I0	-0.1438658
-1.745563	R0 Il	-0.1298574
-1.513943	R0 J0	-0.1590395
-2.509725	R0 K	-0.2270744
-2.509725	R0 K0
-2.509725	R0 KH
-2.509725	R0 KH0
-2.509725	R0 L
-2.509725	R0 L0	-0.1592297
-2.258143	R0 M
-2.509725	R0 M0
-2.258143	R0 N	-0.2030299
-2.509725	R0 N0
-2.509725	R0 O
-1.252277	R0 O0	-0.1610981
-2.509725	R0 P	-0.220022
-2.509725	R0 P0
-2.258143	R0 S	-0.1508117
-2.509725	R0 S0
-2.509725	R0 SH
-2.509725	R0 T
-2.509725	R0 T0
-2.509725	R0 TS
-2.509725	R0 TSH0
-2.258143	R0 U
-1.745563	R0 U0
-2.258143	R0 V
-2.509725	R0 V0	-0.1402445
-2.509725	R0 Z	-0.197784
-2.509725	R0 Z0
-2.509725	R0 ZH	-0.183147
-0.6120974	R0l I	-0.2439697
-0.6120974	R0l I0
-0.7881887	Rl A
-0.7881887	Rl A0
-0.7881887	Rl O0
-1.852789	S </s>
-1.510578	S <sil>	-0.0660409
-1.241814	S A	-0.2248675
-1.447702	S A0	-0.4301855
-1.78413	S Al	-0.09472156
-2.678579	S E0
-1.852789	S F	-0.1496226
-2.034928	S F0	-0.07360978
-2.165999	S J0	-0.1089282
-1.174447	S K	-0.8460615
-1.392789	S K0	-0.5649524
-2.165999	S KH	-0.1087287
-2.678579	S KH0	-0.006913215
-1.27987	S L	-0.7931483
-1.510578	S L0	-0.7953279
-1.545795	S M	-0.6131425
-1.584123	S M0	-0.5488226
-1.419378	S N	-0.6627084
-2.678579	S N0	-0.2706394
-1.392789	S O0	-0.2486124
-1.321584	S P	-0.4182267
-1.510578	S P0	-0.3172161
-1.852789	S R	-0.2915464
-1.724858	S R0	-0.2814769
-2.165999	S SH	-0.06851536
-2.678579	S SH0
-1.144316	S T	-0.7498313
-2.930161	S T0l
-2.165999	S TS	-0.05493997
-2.678579	S TSH0	-0.05803659
-1.626163	S U	-0.08525641
-1.626163	S U0	-0.1826396
-1.344046	S V	-0.7445462
-1.419378	S V0	-0.2631274
-1.584123	S Y	-0.09016516
-1.672713	S Y0	-0.3013747
-1.651746	S0 </s>
-1.570156	S0 <sil>	-0.09609088
-1.301489	S0 A	-0.2295159
-1.752294	S0 A0	-0.2324147
-2.071988	S0 Al	-0.2929808
-1.085101	S0 E0	-0.1757953
-2.647527	S0 E0l	-0.1447455
-1.752294	S0 F	-0.1346607
-2.647527	S0 F0
-0.9077009	S0 I	-0.3966887
-1.19537	S0 I0	-0.2562003
-2.647527	S0 Il
-2.071988	S0 J0	-0.2410161
-1.883365	S0 K	-0.05059497
-2.647527	S0 K0
-2.647527	S0 KH
-2.647527	S0 KH0
-2.395946	S0 L	-0.2370931
-2.395946	S0 L0	-0.1133358
-1.883365	S0 M	-0.2908905
-2.071988	S0 M0	-0.1505608
-2.071988	S0 N	-0.2282794
-1.390079	S0 N0	-0.502098
-2.071988	S0 O0	-0.08647756
-1.883365	S0 P	-0.3361035
-2.071988	S0 P0	-0.01875295
-1.883365	S0 R	-0.1260156
-2.395946	S0 R0	-0.2338934
-1.752294	S0 SH	-0.4785291
-2.395946	S0 SH0	-0.05048352
-1.651746	S0 T	-0.06119301
-0.9972363	S0 T0	-0.414183
-2.395946	S0 T0l
-2.395946	S0 TS
-1.883365	S0 TSH0	0.02338856
-2.647527	S0 Tl	-0.1148767
-1.570156	S0 U	-0.2894144
-1.883365	S0 U0	-0.09124722
-1.651746	S0 V	-0.08811179
-2.395946	S0 V0
-1.612098	S0l A
-1.612098	S0l E0
-0.4660669	S0l I	-0.04744938
-1.036558	S0l I0	-0.150477
-1.360516	S0l Il
-1.360516	S0l N0
-1.036558	S0l T0	-0.09215617
-2.093463	SH </s>
-1.773769	SH <sil>
-1.186544	SH A	-0.1629427
-1.15822	SH A0	-0.1944573
-2.669002	SH Al
-1.365004	SH E0	-0.2833835
-2.417421	SH F	-0.2294346
-2.669002	SH F0
-2.669002	SH I
-2.417421	SH I0
-1.904841	SH J0	-0.06113707
-1.322964	SH K	-0.5881644
-1.904841	SH K0	-0.3155071
-2.417421	SH KH	-0.2153486
-2.669002	SH KH0
-1.591631	SH L	-0.5184422
-1.365004	SH L0	-0.3498926
-1.904841	SH M	-0.0702304
-2.669002	SH M0
-1.904841	SH N	-0.6219065
-1.773769	SH N0	-0.2615542
-1.365004	SH O0	-0.4068386
-1.673221	SH P	-0.06823166
-2.669002	SH P0
-2.669002	SH R
-2.093463	SH R0	-0.1086327
-2.093463	SH S	-0.0590455
-2.669002	SH S0	-0.1384089
-0.9628088	SH T	-1.177472
-2.417421	SH T0	-0.1104556
-2.417421	SH TS
-2.669002	SH TSH0
-1.522972	SH U	-0.1543861
-1.904841	SH U0	-0.2346316
-1.673221	SH V	-0.040995
-2.417421	SH V0
-0.929176	SH Y	-0.2639509
-1.4637	SH Y0	-0.2401879
-2.27955	SH0 </s>
-2.27955	SH0 <sil>
-2.027969	SH0 A	-0.1019624
-1.202179	SH0 A0	-0.2357598
-1.074248	SH0 E0	-0.2236471
-2.27955	SH0 F
-0.6496158	SH0 I	-0.4322977
-1.384317	SH0 I0	-0.1931525
-2.27955	SH0 J0
-2.27955	SH0 K
-2.27955	SH0 K0
-2.27955	SH0 KH
-2.27955	SH0 L0
-2.027969	SH0 M
-2.27955	SH0 M0
-1.704011	SH0 N	-0.1298433
-2.027969	SH0 N0	-0.1888072
-1.022103	SH0 O0	-0.09754109
-2.27955	SH0 P
-2.27955	SH0 P0
-2.27955	SH0 R
-2.027969	SH0 R0
-2.027969	SH0 S0
-2.27955	SH0 T
-2.27955	SH0 T0
-2.27955	SH0 TSH0
-1.283769	SH0 U	-0.2165232
-1.515389	SH0 U0	-0.1025472
-2.27955	SH0 V
-2.27955	SH0 V0
-0.3110675	SH0l I
-0.9131275	SHl K
-0.6615457	SHl T	-0.2250893
-0.9131275	SHl U
-1.944536	Sl </s>
-0.7985054	Sl A	-0.09525897
-1.944536	Sl A0
-1.944536	Sl E0
-1.049303	Sl K	-0.3741445
-1.944536	Sl K0	-0.173488
-1.944536	Sl KH
-1.368997	Sl L
-1.692954	Sl L0	-0.2130883
-1.692954	Sl M	-0.09095725
-1.944536	Sl M0	-0.03533088
-1.944536	Sl N
-1.692954	Sl O0
-1.368997	Sl P	-0.2050997
-1.944536	Sl R0
-1.180374	Sl T	-0.06794626
-1.944536	Sl U
-1.692954	Sl V	-0.1375823
-1.368997	Sl Y
-1.453921	T </s>
-1.552014	T <sil>	-0.07020399
-1.180666	T A	-0.3819583
-1.165339	T A0	-0.4222467
-2.041147	T Al	0.01230726
-2.041147	T E0	-0.1872431
-1.859009	T F	-0.04333957
-2.93638	T F0	-0.1301754
-1.678932	T J0	-0.6230766
-1.590342	T K	-0.352316
-1.632382	T K0	-0.1738511
-2.172218	T KH	-0.1532146
-2.684798	T KH0
-1.940598	T L	-0.2680054
-1.790349	T L0	-0.3394876
-1.940598	T M	-0.1417151
-2.041147	T M0	0.109512
-1.552014	T N	-0.5696211
-1.552014	T N0	-0.4931927
-1.165339	T O0	-0.3759186
-2.93638	T O0l	-0.3218416
-1.632382	T P	-0.3632622
-1.940598	T P0	-0.3922384
-1.327803	T R	-0.7397665
-1.306445	T R0	-0.7708758
-1.632382	T S	-0.1430233
-2.172218	T S0	-0.1824401
-1.940598	T SH	-0.5121815
-2.360841	T SH0	-0.1871232
-2.684798	T TS
-2.041147	T TSH0	-0.3147104
-1.286089	T U	0.006076872
-1.552014	T U0	-0.1021895
-1.516797	T V	-0.4374934
-1.516797	T V0	-0.4250702
-2.93638	T V0l
-1.399008	T Y	-0.1955791
-1.327803	T Y0	-0.01165932
-1.41361	T0 </s>
-1.571577	T0 <sil>	-0.09968878
-1.571577	T0 A	-0.05712622
-1.822375	T0 A0	-0.1366553
-1.047872	T0 E0	-0.2630685
-1.571577	T0 F	-0.05794953
-2.466026	T0 F0	-0.0201374
-0.9618938	T0 I	-0.2761868
-1.206825	T0 I0	-0.190106
-2.466026	T0 Il
-1.46016	T0 J0	-0.3921508
-1.571577	T0 K	-0.1511732
-2.466026	T0 K0	-0.1322203
-2.466026	T0 KH	-0.2153486
-2.717608	T0 KH0
-2.717608	T0 L
-1.721826	T0 L0	-0.1917375
-1.512305	T0 M	-0.2244603
-1.822375	T0 M0	0.05468982
-1.571577	T0 N	-0.4478236
-1.46016	T0 N0	-0.6110284
-1.298025	T0 O0	-0.2717161
-1.640236	T0 P	-0.2707619
-2.466026	T0 P0
-2.466026	T0 R	-0.06431635
-2.717608	T0 R0
-1.571577	T0 S	-0.1344257
-1.640236	T0 S0	-0.3552149
-1.640236	T0 SH	-0.2920645
-2.717608	T0 SH0
-2.466026	T0 Sl
-2.717608	T0 TS
-2.142068	T0 TSH0	-0.08374546
-1.512305	T0 U	-0.04297923
-2.466026	T0 U0	-0.1606428
-1.571577	T0 V	-0.03764307
-1.953446	T0 V0	-0.1506256
-2.717608	T0 V0l
-1.541516	T0l A0
-1.289935	T0l E0
-0.2840686	T0l I	-0.1776422
-0.965977	T0l I0	-0.06290957
-1.541516	T0l O0
-1.751026	TS </s>
-1.751026	TS <sil>	-0.08186778
-1.130822	TS A	-0.1294189
-1.369157	TS A0	-0.1091744
-1.619954	TS Al	-0.01223329
-0.9527608	TS E0	-0.3553033
-2.263606	TS F
-2.515188	TS F0
-2.515188	TS J0
-1.519406	TS K	-0.2519795
-1.619954	TS K0	-0.03188443
-2.515188	TS KH0
-2.515188	TS L
-2.263606	TS L0
-2.263606	TS M
-1.751026	TS M0	-0.08920746
-2.263606	TS N	-0.1236392
-2.515188	TS N0
-1.619954	TS O0	-0.2211771
-2.263606	TS P	-0.109984
-2.515188	TS P0
-2.515188	TS R
-2.515188	TS R0
-2.515188	TS S	-0.1020529
-2.515188	TS S0
-2.515188	TS SH
-2.515188	TS SH0
-1.369157	TS T	-0.5392399
-2.263606	TS T0
-1.619954	TS U	-0.3183182
-1.619954	TS U0	-0.09478424
-2.263606	TS V
-1.06303	TS V0	-0.4898863
-0.9290729	TS Y	-0.1414367
-1.369157	TS Y0	-0.08121196
-1.825659	TSH0 </s>
-1.694588	TSH0 <sil>	-0.1553224
-1.825659	TSH0 A
-0.981244	TSH0 A0	-0.3337235
-1.107363	TSH0 E0	-0.4275249
-2.338239	TSH0 F
-2.589821	TSH0 F0
-0.7896599	TSH0 I	-0.4714531
-1.384519	TSH0 I0	-0.30155
-2.014282	TSH0 J0	-0.183529
-1.59404	TSH0 K	-0.6102844
-1.59404	TSH0 K0	-0.3329144
-2.589821	TSH0 KH
-2.589821	TSH0 L
-1.825659	TSH0 L0	-0.1825559
-2.589821	TSH0 M
-2.589821	TSH0 M0
-1.332373	TSH0 N	-0.8555967
-1.694588	TSH0 N0	-0.6510601
-1.205456	TSH0 O0	-0.2288951
-2.338239	TSH0 P	-0.220022
-2.589821	TSH0 P0
-2.589821	TSH0 R
-1.825659	TSH0 R0	-0.4556744
-2.589821	TSH0 S
-2.589821	TSH0 S0
-2.589821	TSH0 SH	-0.7243195
-1.51245	TSH0 T	-0.5013018
-1.825659	TSH0 T0	-0.4682609
-2.589821	TSH0 TS
-1.332373	TSH0 U	-0.1040549
-1.443791	TSH0 U0	-0.2699045
-2.014282	TSH0 V
-2.589821	TSH0 V0	-0.1402445
-0.6120974	TSH0l I
-0.6120974	TSH0l I0	-0.2572064
-0.3110675	TSl Y
-0.5207384	Tl A	-0.1173004
-1.150501	Tl A0
-0.9618791	Tl O0	-0.2056541
-1.726041	Tl P
-1.726041	Tl R
-1.726041	Tl R0
-1.474459	Tl U	-0.1610554
-1.474459	Tl U0
-1.726041	Tl V0
-1.726041	Tl Y
-1.726041	Tl Y0	-0.2672735
-1.458365	U </s>
-1.55616	U <sil>	0.1136394
-1.720904	U A	-0.1707243
-2.302781	U A0	-0.2683253
-1.720904	U B	-0.2188096
-1.647359	U B0	-0.4124527
-1.458365	U D	-0.5331765
-1.55616	U D0	-0.1544168
-3.066942	U Dl
-2.491403	U E0	-0.1280214
-1.809495	U F	-0.07063076
-2.302781	U F0	0.03117993
-1.504516	U G	-0.2158704
-2.491403	U G0	-0.4747032
-3.066942	U GH
-1.584484	U I	-0.09796181
-2.491403	U I0	-0.07214686
-1.397207	U J0	-0.8484638
-1.504516	U K	-0.5112358
-2.815361	U K0	-0.3115784
-1.762944	U KH	-0.2713186
-2.815361	U KH0
-3.066942	U KHl
-1.682577	U L	-0.176366
-1.720904	U L0	-0.178924
-1.55616	U M	-0.3944481
-1.529571	U M0	-0.5421176
-1.504516	U N	-0.5942962
-1.647359	U N0	-0.6550802
-3.066942	U N0l
-2.302781	U O0	-0.06364467
-1.529571	U P	-0.2312137
-1.920912	U P0	-0.2496326
-1.55616	U R	-0.1845099
-1.989571	U R0	-0.07961987
-1.360749	U S	-0.2933283
-1.720904	U S0	-0.2641076
-1.584484	U SH	-0.08230111
-1.809495	U SH0	-0.7012935
-1.529571	U T	0.03950143
-1.682577	U T0	-0.1198207
-2.071161	U TS	-0.2414994
-1.584484	U TSH0	-0.398306
-2.815361	U Tl	-0.1616248
-1.529571	U V	-0.1254965
-1.647359	U V0	-0.06358922
-3.066942	U V0l
-2.491403	U Y
-1.809495	U Z	-0.150517
-2.171709	U Z0	-0.2058739
-3.066942	U Z0l	-0.2024963
-1.647359	U ZH	-0.09910092
-1.540217	U0 </s>
-1.466672	U0 <sil>	-0.08061399
-1.740225	U0 A	-0.04124005
-2.886255	U0 A0
-1.540217	U0 B	-0.1624114
-2.122093	U0 B0	-0.2586039
-2.886255	U0 B0l
-2.886255	U0 Bl
-1.50189	U0 D	-0.3743054
-1.991022	U0 D0	-0.8509959
-2.886255	U0 DZH0
-2.886255	U0 E0
-1.808884	U0 F	-0.3265743
-2.886255	U0 F0	-0.1301754
-2.886255	U0 F0l
-2.122093	U0 G	-0.4982424
-2.634674	U0 G0	0.08034056
-1.680953	U0 I	-0.08192392
-1.466672	U0 J0	-0.6510026
-1.466672	U0 K	-0.1920083
-2.122093	U0 K0	-0.32839
-1.540217	U0 KH	-0.2544981
-2.310716	U0 KH0	-0.1164461
-2.886255	U0 Kl
-2.310716	U0 L	-0.2703078
-1.434098	U0 L0	-0.6260213
-1.680953	U0 M	-0.6269531
-1.808884	U0 M0	-0.3521399
-1.582257	U0 N	-0.2967021
-2.634674	U0 N0	-0.2706394
-2.634674	U0 O0	-0.1468131
-1.466672	U0 P	-0.1284694
-2.634674	U0 P0
-2.886255	U0 P0l
-2.886255	U0 Pl
-1.434098	U0 R	-0.1001588
-1.808884	U0 R0	-0.5900683
-1.375473	U0 S	-0.2603144
-1.680953	U0 S0	-0.5131561
-1.277678	U0 SH	-0.1968166
-1.808884	U0 SH0	-0.5781459
-2.886255	U0 SHl
-2.310716	U0 Sl	-0.385262
-1.375473	U0 T	-0.1751578
-1.808884	U0 T0	-0.1492209
-2.634674	U0 T0l	0.06285
-2.122093	U0 TS	-0.452767
-1.628808	U0 TSH0	-0.387767
-2.886255	U0 Tl	-0.6228871
-1.808884	U0 V	-0.05825713
-1.991022	U0 V0	-0.09783268
-1.740225	U0 Z	-0.1830384
-2.122093	U0 Z0	0.03494747
-1.323829	U0 ZH	-0.6585392
-0.6120974	U0l L0	-0.2075949
-0.6120974	U0l SH
-1.010037	Ul F
-1.010037	Ul K
-1.010037	Ul P
-1.010037	Ul S
-1.010037	Ul T
-1.06759	V A	-0.3831336
-1.211875	V A0	-0.4069215
-1.535572	V Al	-0.005825609
-1.804239	V B	-0.07211389
-1.885829	V B0	-0.1572688
-1.319184	V D	-0.3069242
-1.676308	V D0	-0.1345133
-1.624163	V E0	-0.653219
-1.399152	V G	-0.3246517
-2.630029	V G0	-0.2188558
-1.676308	V J0	-0.2668912
-1.676308	V L	-0.1618948
-1.497245	V L0	-0.7552895
-1.535572	V M	-0.2499656
-1.804239	V M0	-0.3274726
-1.399152	V N	-0.5005181
-1.319184	V N0	-0.6337992
-1.193263	V O0	-0.2586545
-2.88161	V O0l
-1.319184	V R	-0.5105156
-1.676308	V R0	-0.5677836
-1.73558	V U	-0.1580031
-1.676308	V U0	-0.2005493
-1.193263	V Y	-0.3116172
-1.231319	V Y0	-0.1346987
-1.344239	V Z	-0.2338962
-1.804239	V Z0	-0.417326
-1.986377	V ZH	-0.04740014
-1.225735	V0 A0	-0.2603596
-2.120183	V0 B	-0.2308744
-2.371765	V0 B0
-2.371765	V0 D0
-0.6007246	V0 E0	-0.4997023
-0.5859203	V0 I	-0.52388
-0.7214743	V0 I0	-0.4942388
-2.371765	V0 Il
-1.607604	V0 J0	-0.2124906
-1.114318	V0 O0	-0.4824531
-2.371765	V0 U0	-0.2544136
-2.371765	V0 Z
-2.371765	V0 Z0
-2.371765	V0 ZH
-0.7769207	V0l E0	-0.2475658
-0.3566788	V0l I	-0.1105262
-1.35246	V0l I0
-1.35246	V0l O0
-0.6897705	Vl A
-1.26531	Vl A0
-0.5011482	Vl O0	-0.08330668
-1.26531	Vl Y
-1.439277	Y </s>
-1.524491	Y <sil>	-0.1071529
-1.592283	Y A	-0.2188437
-2.401109	Y A0
-1.672651	Y B	-0.2442171
-2.212487	Y B0	0.244477
-2.976649	Y Bl
-1.63061	Y D	-0.2239774
-1.830618	Y D0	-0.03194757
-2.401109	Y E0	-0.3868384
-1.63061	Y F	-0.1470245
-2.725067	Y F0	-0.2490673
-1.524491	Y G	-0.09200905
-2.725067	Y G0
-1.899277	Y GH	-0.04068789
-1.719201	Y I	-0.1709503
-2.976649	Y I0
-2.976649	Y Il
-1.557065	Y J0	-0.3011838
-2.725067	Y J0l
-1.524491	Y K	-0.1950683
-1.980867	Y K0	-0.23148
-1.63061	Y KH	0.06056884
-2.725067	Y KH0	-0.1169513
-2.976649	Y KH0l
-2.976649	Y KHl
-2.976649	Y Kl	-0.06955575
-1.672651	Y L	-0.5096008
-1.49419	Y L0	-0.3952494
-1.557065	Y M	0.08761305
-1.592283	Y M0	-0.5915086
-2.401109	Y Ml
-1.524491	Y N	-0.416605
-1.63061	Y N0	-0.5314338
-2.725067	Y Nl	-0.1398813
-1.771346	Y O0	-0.3520044
-1.439277	Y P	-0.3559622
-2.081415	Y P0	0.05734237
-1.771346	Y R	-0.3463769
-2.081415	Y R0	-0.1403584
-1.368071	Y S	-0.3238045
-1.830618	Y S0	-0.2802286
-2.725067	Y S0l
-1.771346	Y SH	-0.1407623
-2.081415	Y SH0	-0.1065802
-2.401109	Y Sl	-0.1517636
-1.592283	Y T	-0.1226568
-2.212487	Y T0	-0.4130305
-2.725067	Y T0l
-2.212487	Y TS	-0.1429059
-1.980867	Y TSH0	-0.2721952
-1.980867	Y U	-0.1500666
-2.976649	Y U0
-1.465866	Y V	-0.524332
-1.719201	Y V0	-0.186127
-1.524491	Y Z	-0.1009145
-1.980867	Y Z0	-0.007881954
-2.081415	Y ZH	-0.01997073
-2.725067	Y Zl	-0.02854411
-1.534253	Y0 </s>
-1.474981	Y0 <sil>	-0.03117818
-1.916122	Y0 A
-1.684502	Y0 B	0.01813771
-2.104744	Y0 B0	-0.02920331
-1.916122	Y0 D	-0.2038347
-1.78505	Y0 D0	-0.07781312
-2.680283	Y0 D0l	-0.1912714
-1.684502	Y0 F	-0.2328538
-2.680283	Y0 F0
-1.916122	Y0 G	-0.2776239
-2.680283	Y0 G0	0.08034056
-1.916122	Y0 GH	-0.06827742
-1.684502	Y0 I	-0.02729699
-2.680283	Y0 I0l
-1.684502	Y0 J0	-0.768116
-1.684502	Y0 K	-0.05693904
-2.428702	Y0 K0	0.08532904
-1.422836	Y0 KH	-0.2111503
-2.680283	Y0 KH0
-2.680283	Y0 KHl
-2.680283	Y0 Kl
-1.534253	Y0 L	-0.2830864
-1.474981	Y0 L0	-0.6514074
-2.428702	Y0 L0l	-0.1015642
-1.334245	Y0 M	-0.02576479
-1.602912	Y0 M0	-0.466066
-1.602912	Y0 N	-0.1915193
-1.602912	Y0 N0	-0.3115557
-2.680283	Y0 N0l	-0.1912714
-2.428702	Y0 Nl	-0.0438616
-1.376285	Y0 P	-0.1067045
-1.916122	Y0 P0	-0.2352773
-1.602912	Y0 R	-0.263414
-2.104744	Y0 R0	-0.3616144
-1.422836	Y0 S	-0.262983
-2.104744	Y0 S0	-0.6244623
-1.684502	Y0 SH	-0.4793038
-2.104744	Y0 SH0	-0.367502
-1.534253	Y0 T	-0.1606497
-1.78505	Y0 T0	-0.1629829
-2.104744	Y0 TS	-0.1272764
-2.104744	Y0 TSH0	-0.2603925
-2.428702	Y0 Tl
-2.680283	Y0 U
-2.680283	Y0 U0
-2.104744	Y0 V	-0.1101383
-2.428702	Y0 V0	-0.05105536
-2.680283	Y0 V0l
-1.916122	Y0 Z	-0.06536637
-2.428702	Y0 Z0	-0.654174
-1.684502	Y0 ZH	-0.1467304
-2.680283	Y0 Zl
-0.8109142	Z A	-0.277677
-1.240569	Z A0	-0.3706477
-2.624935	Z Al
-1.320937	Z B	-0.06277302
-1.629153	Z B0	-0.0815759
-1.240569	Z D	-0.13495
-2.373353	Z D0	-0.08885547
-2.624935	Z E0	-0.1280214
-1.419632	Z G	-0.2837299
-2.049395	Z G0	0.1903786
-2.049395	Z J0	-0.1072069
-1.478904	Z L	-0.2096241
-1.547563	Z L0	-0.4933315
-1.860773	Z M	-0.2711676
-1.860773	Z M0	-0.1374869
-1.016358	Z N	-0.9754786
-1.860773	Z O0	-0.1318015
-1.547563	Z R	-0.1140437
-1.729702	Z R0	-0.1129471
-1.547563	Z U	-0.1603839
-2.049395	Z U0	-0.147294
-1.240569	Z V	-0.3357643
-1.240569	Z V0	-0.2234271
-1.478904	Z Y	-0.2620086
-1.860773	Z Y0	-0.0866341
-2.049395	Z ZH	-0.2515201
-2.344491	Z0 A
-1.580329	Z0 A0	-0.1598281
-1.768952	Z0 B	-0.0477322
-2.09291	Z0 B0	-0.1942375
-1.449258	Z0 D	-0.02018202
-0.8071194	Z0 D0	-0.6540018
-2.09291	Z0 D0l	-0.1410746
-2.344491	Z0 Dl
-1.198461	Z0 E0	-0.3693522
-1.449258	Z0 G	-0.04789545
-2.344491	Z0 G0
-0.6046649	Z0 I	-0.4099198
-1.34871	Z0 I0	-0.116962
-2.344491	Z0 Il	-0.2506301
-1.768952	Z0 J0
-2.344491	Z0 M
-2.344491	Z0 M0
-1.087043	Z0 N0	-0.1876172
-2.344491	Z0 N0l
-2.09291	Z0 O0	-0.1020917
-2.344491	Z0 U
-2.09291	Z0 U0	-0.2556111
-2.09291	Z0 ZH
-1.089219	Z0l A0
-0.837637	Z0l D0	-0.1831145
-0.837637	Z0l E0	-0.1483468
-1.089219	Z0l I
-1.273082	ZH A	-0.1550185
-0.9959263	ZH A0	-0.488646
-2.226803	ZH B	-0.07476655
-2.226803	ZH B0	-0.08416714
-1.094019	ZH D	-0.6489797
-1.401013	ZH D0	-0.3225681
-1.220937	ZH E0	-0.6888846
-1.902845	ZH G
-2.226803	ZH G0	-0.1954767
-2.226803	ZH J0	-0.1072069
-2.226803	ZH L0	-0.3176653
-2.226803	ZH M	-0.2505821
-2.478385	ZH M0
-1.332354	ZH N	-0.7357106
-1.583152	ZH N0	-0.3823822
-1.583152	ZH O0	-0.3826124
-2.478385	ZH R
-2.478385	ZH R0
-1.482603	ZH U	-0.07762021
-2.226803	ZH U0	-0.09246434
-2.478385	ZH V0
-0.7385585	ZH Y	-0.1938966
-1.026227	ZH Y0	-0.3608997
-2.226803	ZH Z	-0.103525
-2.226803	ZH Z0
-1.214157	ZH0 B
-0.9625757	ZH0 D	-0.222689
-1.214157	ZH0 D0
-1.214157	ZH0 G
-1.214157	ZH0 G0
-1.214157	ZH0 Z
-1.214157	ZH0 Z0
-0.7881887	ZHl O0
-0.536607	ZHl Y
-0.3691569	Zl A	-0.05285216
-0.7510257	Zl A0	-0.07884898
-1.515188	Zl B
-1.515188	Zl U
-1.515188	Zl U0
-1.515188	Zl V0

\3-grams:
-1.224781	A <sil> A
-2.586492	A <sil> B
-2.428247	A <sil> B0
-1.688455	A <sil> D
-2.030725	A <sil> E0
-1.82671	A <sil> F
-2.428247	A <sil> G
-0.9702822	A <sil> I
-2.586492	A <sil> I0
-1.82671	A <sil> J0
-1.290591	A <sil> K
-2.185508	A <sil> K0
-2.586492	A <sil> KH
-2.030725	A <sil> L0
-1.583747	A <sil> M
-1.267528	A <sil> N
-1.397471	A <sil> N0
-1.82671	A <sil> O0
-1.150154	A <sil> P
-2.030725	A <sil> P0
-1.583747	A <sil> R
-1.290591	A <sil> S
-1.688455	A <sil> S0
-1.314947	A <sil> SH
-1.583747	A <sil> T
-2.030725	A <sil> T0
-2.428247	A <sil> TSH0
-1.82671	A <sil> U
-1.267528	A <sil> V
-2.586492	A <sil> V0
-2.428247	A <sil> Y
-1.583747	A <sil> Z
-2.428247	A <sil> Z0
-2.030725	A <sil> ZH
-1.355901	A0 <sil> A
-1.756885	A0 <sil> D
-1.756885	A0 <sil> D0
-1.087239	A0 <sil> I
-1.756885	A0 <sil> N
-1.59864	A0 <sil> N0
-1.201118	A0 <sil> P
-1.59864	A0 <sil> S
-1.59864	A0 <sil> S0
-1.087239	A0 <sil> SH
-1.756885	A0 <sil> T
-1.59864	A0 <sil> T0
-1.59864	A0 <sil> V
-1.336762	E0 <sil> A
-1.495007	E0 <sil> E0
-1.094023	E0 <sil> P
-0.9392403	E0 <sil> SH
-1.336762	E0 <sil> T
-1.247694	F <sil> A
-1.803461	F <sil> F
-0.8007156	F <sil> I
-0.9690729	F <sil> K
-1.803461	F <sil> N
-0.8007156	F <sil> P
-1.803461	F <sil> R
-1.133815	F <sil> S
-1.803461	F <sil> T
-1.007891	I <sil> A
-2.043245	I <sil> B
-1.441483	I <sil> D
-2.444229	I <sil> D0
-2.444229	I <sil> E0
-1.490689	I <sil> F
-1.441483	I <sil> G
-0.8758767	I <sil> I
-2.043245	I <sil> J0
-1.255208	I <sil> K
-2.444229	I <sil> KH
-2.285984	I <sil> L0
-1.546191	I <sil> M
-1.684447	I <sil> N
-1.546191	I <sil> N0
-1.888462	I <sil> O0
-1.043603	I <sil> P
-2.285984	I <sil> P0
-2.285984	I <sil> R
-1.546191	I <sil> S
-2.444229	I <sil> S0
-1.684447	I <sil> SH
-1.888462	I <sil> T
-2.285984	I <sil> T0
-2.043245	I <sil> TSH0
-1.490689	I <sil> U
-1.684447	I <sil> V
-2.444229	I <sil> V0
-1.609841	I <sil> Z
-2.444229	I <sil> Zl
-1.305728	I0 <sil> A
-1.463973	I0 <sil> E0
-1.463973	I0 <sil> G
-1.463973	I0 <sil> I
-1.463973	I0 <sil> N
-1.305728	I0 <sil> P
-1.305728	I0 <sil> S
-0.9535456	Il <sil> A
-1.191905	J0 <sil> A
-1.550703	J0 <sil> B0
-1.951687	J0 <sil> D
-1.793442	J0 <sil> G
-1.117299	J0 <sil> I
-1.550703	J0 <sil> J0
-1.282041	J0 <sil> K
-1.550703	J0 <sil> L0
-1.951687	J0 <sil> M
-1.793442	J0 <sil> O0
-1.282041	J0 <sil> P
-1.191905	J0 <sil> S
-1.793442	J0 <sil> S0
-1.793442	J0 <sil> SH
-1.793442	J0 <sil> T
-1.282041	J0 <sil> V
-1.951687	J0 <sil> V0
-1.217205	K <sil> A
-1.614727	K <sil> B0
-1.772972	K <sil> F
-0.9385836	K <sil> I
-1.772972	K <sil> K
-1.772972	K <sil> L0
-1.614727	K <sil> N
-1.772972	K <sil> N0
-1.614727	K <sil> P
-1.772972	K <sil> S
-1.371988	K <sil> SH
-1.772972	K <sil> T
-1.772972	K <sil> U
-1.614727	K <sil> V
-1.614727	K <sil> Z
-1.612393	KH <sil> A
-1.454148	KH <sil> B
-1.612393	KH <sil> B0
-1.454148	KH <sil> F
-0.9427469	KH <sil> I
-1.612393	KH <sil> K
-1.056626	KH <sil> P
-1.612393	KH <sil> U0
-1.025721	L <sil> A
-1.695367	L <sil> I
-1.695367	L <sil> J0
-1.294383	L <sil> K
-1.1396	L <sil> N
-1.695367	L <sil> N0
-1.1396	L <sil> P
-1.695367	L <sil> S
-0.9355848	L <sil> SH
-1.695367	L <sil> V
-1.695367	L <sil> V0
-1.287882	L0 <sil> A
-1.129637	L0 <sil> I
-1.287882	L0 <sil> K
-1.287882	L0 <sil> N0
-1.287882	L0 <sil> S
-1.132719	M <sil> A
-1.411341	M <sil> G
-0.920168	M <sil> I
-1.411341	M <sil> J0
-1.207325	M <sil> K
-1.967108	M <sil> KH
-1.967108	M <sil> L
-1.411341	M <sil> N
-1.566123	M <sil> O0
-1.06907	M <sil> P
-1.411341	M <sil> S
-1.967108	M <sil> SH
-1.967108	M <sil> T
-1.967108	M <sil> Y
-1.967108	M <sil> Z
-1.564088	N <sil> A
-1.163104	N <sil> I
-1.405843	N <sil> K
-1.163104	N <sil> N
-1.564088	N <sil> N0
-1.405843	N <sil> P
-1.405843	N <sil> SH
-1.463973	O0 <sil> A
-1.062989	O0 <sil> I
-1.463973	O0 <sil> K
-1.463973	O0 <sil> KH
-1.463973	O0 <sil> N
-1.463973	O0 <sil> S0
-1.305728	O0 <sil> SH
-1.463973	O0 <sil> T
-1.032609	P <sil> I
-1.032609	P <sil> V
-1.311363	R <sil> A
-1.311363	R <sil> K
-1.153118	R <sil> P
-1.405843	S <sil> A
-1.564088	S <sil> B
-0.8944423	S <sil> I
-1.008321	S <sil> P
-1.564088	S <sil> S
-1.564088	S <sil> SH
-1.564088	S <sil> V
-1.033145	S0 <sil> A
-1.588912	S0 <sil> B
-1.588912	S0 <sil> F
-0.9192659	S0 <sil> I
-1.588912	S0 <sil> N
-1.588912	S0 <sil> O0
-1.033145	S0 <sil> P
-1.588912	S0 <sil> SH
-1.588912	S0 <sil> V
-0.7839054	T <sil> A
-1.90767	T <sil> B
-1.90767	T <sil> E0
-1.90767	T <sil> F
-1.351904	T <sil> I
-1.749426	T <sil> J0
-1.506686	T <sil> K
-1.506686	T <sil> N
-1.506686	T <sil> N0
-0.9049249	T <sil> P
-1.351904	T <sil> S
-1.506686	T <sil> SH
-1.749426	T <sil> T
-1.749426	T <sil> U
-1.90767	T <sil> V
-1.90767	T <sil> V0
-1.339195	T0 <sil> A
-1.740179	T0 <sil> B
-0.905791	T0 <sil> I
-1.339195	T0 <sil> K
-1.581935	T0 <sil> N
-1.581935	T0 <sil> N0
-1.184412	T0 <sil> P
-0.9803971	T0 <sil> S
-1.581935	T0 <sil> SH
-1.740179	T0 <sil> U
-0.9868517	TS <sil> J0
-0.9868517	TS <sil> TSH0
-0.4768424	TSH0 <sil> P
-1.354189	U <sil> A
-1.86559	U <sil> B
-1.468068	U <sil> D
-2.023835	U <sil> E0
-1.622851	U <sil> F
-1.264053	U <sil> G
-1.02109	U <sil> I
-2.023835	U <sil> J0
-1.125798	U <sil> K
-2.023835	U <sil> L
-2.023835	U <sil> M
-1.468068	U <sil> N
-2.023835	U <sil> N0
-1.622851	U <sil> P
-2.023835	U <sil> P0
-1.86559	U <sil> R
-2.023835	U <sil> S
-2.023835	U <sil> SH
-1.86559	U <sil> T
-2.023835	U <sil> U
-1.354189	U <sil> V
-1.86559	U <sil> V0
-1.468068	U <sil> Z
-1.136775	U0 <sil> A
-1.537759	U0 <sil> D
-1.537759	U0 <sil> I
-0.8681133	U0 <sil> K
-1.379514	U0 <sil> N
-1.379514	U0 <sil> O0
-1.537759	U0 <sil> P
-1.379514	U0 <sil> SH
-1.255058	Y <sil> A
-1.523719	Y <sil> B
-1.924704	Y <sil> D
-1.523719	Y <sil> F
-1.924704	Y <sil> G
-1.164922	Y <sil> I
-1.924704	Y <sil> J0
-1.368937	Y <sil> K
-1.255058	Y <sil> N
-1.255058	Y <sil> P
-1.766459	Y <sil> R
-0.9219582	Y <sil> S
-1.523719	Y <sil> U
-1.523719	Y <sil> V
-1.924704	Y <sil> Z0
-1.272304	Y0 <sil> I
-1.430549	Y0 <sil> J0
-1.272304	Y0 <sil> K
-1.430549	Y0 <sil> N
-1.430549	Y0 <sil> P
-1.430549	Y0 <sil> R
-1.430549	Y0 <sil> V0
-1.373197	<s> A B
-1.130234	<s> A D
-1.974735	<s> A D0
-1.974735	<s> A F
-1.974735	<s> A J0
-1.974735	<s> A K
-2.13298	<s> A L
-2.13298	<s> A M
-0.9146733	<s> A N
-1.130234	<s> A N0
-1.463334	<s> A P
-1.974735	<s> A Pl
-1.234942	<s> A S
-1.974735	<s> A S0
-2.13298	<s> A SH
-1.298591	<s> A T
-1.463334	<s> A T0
-2.13298	<s> A TS
-2.13298	<s> A TSH0
-2.13298	<s> A Tl
-1.731995	<s> A U0
-1.298591	<s> A V
-1.205955	<sil> A B
-1.807716	<sil> A B0
-1.652934	<sil> A D
-1.448918	<sil> A D0
-2.2087	<sil> A G
-2.2087	<sil> A G0
-2.050456	<sil> A J0
-1.374312	<sil> A K
-2.2087	<sil> A M
-0.9629595	<sil> A N
-1.310663	<sil> A N0
-2.2087	<sil> A O0
-1.448918	<sil> A P
-2.2087	<sil> A R
-1.121652	<sil> A S
-0.827096	<sil> A T
-1.652934	<sil> A T0
-1.448918	<sil> A V
-2.2087	<sil> A Z
-2.050456	<sil> A ZH
-2.126031	B A </s>
-1.456385	B A <sil>
-2.126031	B A D
-1.967786	B A F
-1.456385	B A G
-2.126031	B A G0
-2.126031	B A J0
-1.227993	B A K
-1.570264	B A K0
-1.725047	B A L
-0.725405	B A L0
-1.967786	B A M
-1.725047	B A M0
-2.126031	B A N
-1.725047	B A P
-1.038982	B A R
-1.967786	B A R0
-2.126031	B A R0l
-1.725047	B A S
-2.126031	B A TSH0
-1.172491	B A V
-1.725047	B A ZH
-1.520964	D A </s>
-1.378882	D A <sil>
-1.322162	D A B
-2.409658	D A B0
-2.567903	D A D
-1.898257	D A D0
-2.409658	D A E0
-2.166919	D A F
-2.409658	D A G
-2.012136	D A I
-1.131565	D A J0
-1.410286	D A K
-1.898257	D A KH
-1.520964	D A L
-1.186299	D A L0
-1.053343	D A M
-1.808121	D A M0
-1.898257	D A N
-1.808121	D A N0
-1.808121	D A Nl
-2.567903	D A P
-1.206192	D A R
-2.166919	D A R0
-1.444138	D A S
-1.520964	D A S0
-2.166919	D A SH
-1.565158	D A T
-2.166919	D A T0
-1.808121	D A TSH0
-2.166919	D A U0
-1.025615	D A V
-2.567903	D A V0
-2.567903	D A Z
-2.409658	D A ZH
-0.6316249	D0 A <sil>
-0.9356992	Dl A KH
-0.8743644	E0 A B0
-1.032609	E0 A N0
-1.50973	F A D
-1.50973	F A K
-1.108746	F A M0
-1.351486	F A N
-1.50973	F A R
-1.50973	F A R0
-1.108746	F A S
-0.8400846	F A T
-1.50973	F A V
-2.089507	G A </s>
-1.656103	G A <sil>
-2.490491	G A B0
-1.820845	G A D
-2.490491	G A D0
-2.089507	G A G
-1.934724	G A J0
-1.934724	G A KH
-1.037341	G A L
-1.487746	G A L0
-1.592454	G A M
-1.656103	G A M0
-1.730709	G A N
-1.934724	G A N0
-1.820845	G A P
-1.218946	G A R
-1.24475	G A R0
-1.089865	G A S
-1.366726	G A S0
-1.403442	G A T
-1.934724	G A T0
-2.490491	G A TS
-2.332246	G A U
-0.7070999	G A V
-2.332246	G A V0
-2.490491	G A Y
-2.089507	G A Z0
-2.089507	G A ZH
-0.5097305	Gl A V
-0.917202	I A B
-2.162943	I A B0
-0.9446365	I A D
-1.607176	I A D0
-1.403161	I A G
-1.493297	I A K
-1.607176	I A L0
-1.761959	I A M0
-1.209403	I A N
-2.004698	I A N0
-1.493297	I A P
-1.761959	I A P0
-1.005325	I A S
-0.9446365	I A T
-2.162943	I A T0
-2.162943	I A TS
-2.004698	I A TSH0
-2.162943	I A ZH
-0.8777072	I0 A S
-0.8777072	I0 A T
-0.8777072	I0 A TS
-1.256888	J0 A </s>
-0.8529689	J0 A <sil>
-1.443163	J0 A B
-1.890142	J0 A D
-2.445909	J0 A D0
-1.686127	J0 A F
-1.174364	J0 A I
-2.044924	J0 A J0
-1.174364	J0 A K
-2.445909	J0 A KH
-1.890142	J0 A L
-2.287664	J0 A L0
-1.776263	J0 A M
-1.890142	J0 A M0
-1.611521	J0 A N
-1.547872	J0 A N0
-1.890142	J0 A O0
-1.35886	J0 A P
-2.445909	J0 A Pl
-2.044924	J0 A R
-2.445909	J0 A R0
-1.200168	J0 A S
-2.287664	J0 A S0
-2.044924	J0 A SH
-1.686127	J0 A T
-2.445909	J0 A T0
-2.287664	J0 A TS
-1.776263	J0 A U
-1.443163	J0 A V
-2.287664	J0 A V0
-2.445909	J0 A Z
-1.890142	J0 A ZH
-1.633292	K A </s>
-1.633292	K A <sil>
-2.005201	K A B
-2.382495	K A B0
-2.217752	K A D
-2.651156	K A D0
-3.052141	K A E0
-1.537581	K A F
-2.893896	K A F0
-1.172357	K A G
-2.154104	K A I
-1.154218	K A J0
-1.392827	K A K
-1.670537	K A K0
-2.217752	K A KH
-1.690429	K A L
-1.317657	K A L0
-3.052141	K A L0l
-1.224796	K A M
-1.537581	K A M0
-2.651156	K A Ml
-1.335266	K A N
-1.261108	K A N0
-3.052141	K A O0
-1.582805	K A P
-2.382495	K A P0
-1.44741	K A R
-1.965092	K A R0
-3.052141	K A R0l
-1.833834	K A S
-2.217752	K A S0
-2.098601	K A SH
-1.136805	K A T
-2.049395	K A T0
-2.049395	K A TSH0
-2.496374	K A U
-1.326372	K A V
-2.651156	K A V0
-0.996957	K A Z
-2.098601	K A ZH
-2.124784	KH A </s>
-1.448641	KH A <sil>
-1.882045	KH A B
-2.124784	KH A D
-0.7407408	KH A D0
-2.124784	KH A K
-2.124784	KH A KH
-0.9213177	KH A L
-1.613383	KH A M
-1.727262	KH A N0
-2.124784	KH A P
-0.9014248	KH A R
-2.124784	KH A S
-1.32949	KH A T
-0.8641802	KH A T0
-1.727262	KH A TSH0
-2.283029	KH A V
-1.727262	KH A Z0
-0.4767229	Kl A T
-0.8777072	Kl A Z
-1.50474	L A </s>
-1.342769	L A <sil>
-1.799824	L A B
-2.923589	L A B0
-1.438649	L A D
-1.799824	L A D0
-2.923589	L A E0
-1.876649	L A F
-1.652044	L A G
-2.367822	L A I
-2.923589	L A I0
-1.264275	L A J0
-1.487251	L A K
-2.765344	L A K0
-2.0892	L A KH
-2.025551	L A L
-2.163806	L A L0
-1.604625	L A M
-1.970049	L A M0
-1.765971	L A N
-1.522963	L A N0
-2.765344	L A Nl
-1.604625	L A P
-2.367822	L A R
-1.318858	L A S
-0.911725	L A S0
-2.0892	L A SH
-2.367822	L A SH0
-2.367822	L A Sl
-1.225066	L A T
-1.604625	L A T0
-2.367822	L A TSH0
-2.163806	L A U
-2.923589	L A U0
-1.19782	L A V
-1.264275	L A V0
-2.923589	L A Y
-1.438649	L A Z
-1.734568	L A Z0
-1.50474	L A ZH
-1.050456	L0 A </s>
-1.050456	L0 A <sil>
-1.2087	L0 A I
-1.2087	L0 A P
-1.2087	L0 A S0
-1.730975	M A </s>
-1.667326	M A <sil>
-1.805581	M A D
-2.164379	M A D0
-1.895718	M A F
-1.2245	M A G
-2.565364	M A G0
-2.407119	M A I
-1.805581	M A I0
-0.886003	M A J0
-2.009597	M A K
-2.565364	M A K0
-1.895718	M A KH
-1.036718	M A L
-1.667326	M A L0
-1.895718	M A M
-2.009597	M A M0
-1.611824	M A N
-1.730975	M A N0
-2.565364	M A Nl
-2.407119	M A P
-1.269462	M A R
-2.407119	M A R0
-1.407746	M A S
-1.895718	M A S0
-2.565364	M A S0l
-1.611824	M A SH
-2.009597	M A SH0
-1.050804	M A T
-1.562618	M A T0
-2.407119	M A TS
-1.611824	M A TSH0
-2.565364	M A U0
-1.805581	M A V
-2.565364	M A Z
-2.565364	M A Z0
-0.9538441	M0 A </s>
-0.9538441	M0 A <sil>
-1.196584	M0 A I
-0.9538441	M0 A K
-1.236729	Ml A J0
-1.078484	Ml A KH
-1.078484	Ml A L
-1.078484	Ml A N0
-1.236729	Ml A P
-1.527215	N A </s>
-1.490836	N A <sil>
-1.626231	N A B
-2.19753	N A B0
-1.514747	N A D
-1.906546	N A D0
-2.048627	N A E0
-1.676718	N A F
-1.426114	N A G
-2.008518	N A I
-3.095567	N A I0
-0.9580084	N A J0
-1.152678	N A K
-2.937322	N A K0
-1.824022	N A KH
-3.095567	N A L
-1.877261	N A L0
-1.275246	N A M
-1.713963	N A M0
-1.849826	N A N
-1.713963	N A N0
-1.247809	N A P
-2.425921	N A P0
-1.754704	N A R
-2.5398	N A R0
-1.344162	N A S
-1.289643	N A S0
-1.776603	N A SH
-2.937322	N A SH0
-1.553279	N A T
-2.142028	N A T0
-2.694583	N A TS
-1.527215	N A TSH0
-2.142028	N A U
-2.142028	N A U0
-1.228312	N A V
-1.457271	N A V0
-3.095567	N A V0l
-3.095567	N A Vl
-1.659229	N A Z
-2.142028	N A Z0
-2.335785	N A ZH
-1.104813	N0 A </s>
-1.263058	N0 A <sil>
-1.104813	N0 A P
-2.136413	Nl A </s>
-1.735429	Nl A <sil>
-1.978168	Nl A D
-2.136413	Nl A D0
-2.136413	Nl A E0
-2.136413	Nl A G
-1.978168	Nl A I
-0.5434729	Nl A J0
-2.136413	Nl A K
-1.089473	Nl A M
-2.136413	Nl A M0
-2.136413	Nl A N
-1.735429	Nl A N0
-1.580646	Nl A P
-2.136413	Nl A S
-1.978168	Nl A S0
-2.136413	Nl A T
-0.7955494	Nl A V
-1.735429	Nl A Z
-1.289338	O0 A D
-1.447583	O0 A Dl
-1.447583	O0 A K
-1.289338	O0 A N
-1.289338	O0 A P0
-0.7779367	O0 A S
-2.044662	P A B
-2.108311	P A B0
-0.8519095	P A D
-1.623736	P A D0
-2.9427	P A DZ0
-2.9427	P A DZH
-2.273054	P A E0
-2.182918	P A F
-1.696959	P A G
-2.182918	P A G0
-2.784455	P A I
-1.753678	P A J0
-1.122379	P A K
-2.784455	P A K0
-1.646798	P A KH
-1.044776	P A L
-1.580988	P A L0
-1.939954	P A M
-1.753678	P A M0
-1.939954	P A N
-1.671155	P A N0
-1.523851	P A P
-2.386933	P A P0
-1.542074	P A R
-2.541715	P A R0
-0.9789609	P A S
-1.646798	P A S0
-1.671155	P A SH
-1.208216	P A T
-2.108311	P A T0
-2.9427	P A T0l
-1.939954	P A TS
-1.442697	P A TSH0
-2.9427	P A Tl
-2.386933	P A U
-2.784455	P A U0
-1.98916	P A V
-1.89576	P A V0
-1.98916	P A Z
-2.784455	P A Z0
-1.753678	P A ZH
-1.178737	Pl A L0
-0.1759916	Pl A R
-1.979983	R A </s>
-1.637621	R A <sil>
-1.571811	R A B
-2.933522	R A B0
-1.404877	R A D
-1.930777	R A D0
-1.886583	R A F
-2.775277	R A F0
-1.979983	R A G
-1.661977	R A I
-1.26407	R A J0
-1.328791	R A K
-2.775277	R A K0
-1.637621	R A KH
-2.532538	R A L
-2.775277	R A L0
-1.480372	R A M
-2.377755	R A M0
-1.480372	R A N
-1.464186	R A N0
-1.775905	R A P
-2.933522	R A P0
-2.933522	R A R
-1.113201	R A S
-1.317312	R A S0
-2.263876	R A S0l
-1.464186	R A SH
-1.979983	R A SH0
-1.514673	R A Sl
-1.637621	R A T
-1.571811	R A T0
-2.263876	R A TS
-2.263876	R A TSH0
-1.173897	R A V
-1.551918	R A V0
-1.035599	R A Z
-1.886583	R A Z0
-1.571811	R A ZH
-0.7194624	R0 A </s>
-1.809281	S A </s>
-1.411508	S A <sil>
-1.241283	S A B
-1.809281	S A B0
-1.964063	S A D0
-1.093503	S A F
-2.365048	S A G
-1.809281	S A J0
-2.206803	S A K
-1.695402	S A KH
-1.530659	S A L
-2.206803	S A L0
-0.9118973	S A M
-2.365048	S A M0
-1.530659	S A N
-2.206803	S A N0
-2.206803	S A Nl
-1.530659	S A P
-1.46701	S A R
-1.024184	S A S
-1.605265	S A S0
-1.46701	S A T
-2.365048	S A TSH0
-2.206803	S A V
-1.176026	S A V0
-2.365048	S A Z
-1.249972	S0 A </s>
-0.8163791	S0 A <sil>
-1.583071	S0 A B
-2.094472	S0 A D
-1.418329	S0 A F
-1.69695	S0 A G
-2.094472	S0 A I
-1.0951	S0 A K
-2.094472	S0 A L
-2.252717	S0 A M
-1.165668	S0 A N
-2.252717	S0 A O0
-1.35468	S0 A P
-2.094472	S0 A P0
-1.851733	S0 A R
-1.418329	S0 A S
-1.583071	S0 A T
-2.252717	S0 A TSH0
-2.094472	S0 A U0
-1.299178	S0 A V
-1.418329	S0 A Z
-2.252717	S0 A ZH
-1.852153	SH A <sil>
-1.693908	SH A B
-1.693908	SH A D
-1.451169	SH A D0
-1.852153	SH A F
-0.8986136	SH A G
-1.182507	SH A J0
-1.017765	SH A L
-1.852153	SH A L0
-1.852153	SH A N0
-1.852153	SH A P
-1.451169	SH A R
-1.852153	SH A S
-1.693908	SH A T
-1.092371	SH A T0
-0.6346692	SH0 A <sil>
-1.020492	Sl A B
-1.020492	Sl A M
-1.178737	Sl A R
-1.689972	T A </s>
-1.525179	T A <sil>
-1.492181	T A B
-2.560533	T A B0
-1.772496	T A D
-2.201735	T A D0
-2.803272	T A D0l
-1.599805	T A F
-1.579913	T A G
-2.961517	T A Gl
-1.874468	T A I
-2.063479	T A I0
-0.9977781	T A J0
-1.210111	T A K
-1.620653	T A K0
-2.127129	T A KH
-1.620653	T A L
-2.007977	T A L0
-2.961517	T A L0l
-1.008078	T A M
-1.958771	T A M0
-1.380697	T A N
-1.620653	T A N0
-2.291871	T A O0
-1.874468	T A P
-1.162975	T A R
-1.874468	T A R0
-1.560891	T A S
-2.560533	T A S0
-2.291871	T A SH
-2.40575	T A SH0
-1.525179	T A T
-2.560533	T A T0
-2.961517	T A TS
-1.874468	T A TSH0
-2.961517	T A U0
-0.9104757	T A V
-2.40575	T A V0
-1.958771	T A Z
-2.40575	T A ZH
-1.272304	T0 A </s>
-1.272304	T0 A B
-1.430549	T0 A D
-1.430549	T0 A N
-1.430549	T0 A N0
-1.272304	T0 A T
-0.956816	TS A </s>
-0.956816	TS A <sil>
-2.094472	TS A B
-2.094472	TS A D
-1.851733	TS A D0
-2.094472	TS A F
-2.094472	TS A G
-1.492935	TS A I
-2.252717	TS A I0
-2.252717	TS A J0
-1.418329	TS A K
-1.851733	TS A M
-2.094472	TS A M0
-1.69695	TS A N
-1.583071	TS A P
-2.094472	TS A R
-1.418329	TS A S
-1.851733	TS A S0
-1.583071	TS A T
-0.9811723	TS A T0
-2.252717	TS A TSH0
-2.252717	TS A U
-1.249972	TS A V
-2.094472	TS A Z
-2.252717	TS A Z0
-1.394337	Tl A B
-1.394337	Tl A E0
-0.8385702	Tl A K
-1.236092	Tl A V
-1.394337	Tl A ZH
-1.078783	U A B
-1.479767	U A L0
-0.6453789	U A T
-1.321522	U A TS
-1.146553	U0 A B
-1.146553	U0 A T
-1.450216	V A </s>
-1.37964	V A <sil>
-1.888216	V A B
-2.935156	V A B0
-1.498818	V A D
-1.848107	V A D0
-1.663611	V A F
-2.534172	V A G
-1.777538	V A I
-1.746135	V A I0
-0.9613561	V A J0
-1.71685	V A K
-1.151765	V A L
-1.482006	V A L0
-1.516307	V A M
-2.379389	V A M0
-1.811391	V A N
-1.93241	V A N0
-2.935156	V A Nl
-2.776911	V A O0
-1.498818	V A P
-2.935156	V A P0
-1.22736	V A R
-1.151765	V A R0
-1.286224	V A S
-1.888216	V A S0
-1.777538	V A SH
-1.848107	V A T
-1.573444	V A T0
-2.100768	V A TS
-1.616192	V A TSH0
-2.776911	V A U
-1.330425	V A V
-2.935156	V A V0
-1.516307	V A Z
-2.100768	V A Z0
-1.777538	V A ZH
-0.9192659	Y A B
-1.430667	Y A K
-0.9192659	Y A N
-1.588912	Y A N0
-0.8291295	Y A S
-1.430667	Y A T
-1.588912	Y A T0
-2.107296	Z A </s>
-1.071942	Z A B
-1.554741	Z A D
-2.350036	Z A D0
-2.350036	Z A E0
-1.384515	Z A G
-2.508281	Z A I
-1.748498	Z A J0
-1.146569	Z A K
-2.107296	Z A K0
-2.107296	Z A KH
-1.350663	Z A L
-1.610243	Z A M
-1.262539	Z A M0
-1.748498	Z A N
-1.384515	Z A N0
-1.554741	Z A P
-2.508281	Z A P0
-1.610243	Z A R
-2.350036	Z A R0
-1.038945	Z A S
-1.610243	Z A SH
-1.748498	Z A T
-1.505535	Z A T0
-1.748498	Z A TSH0
-2.508281	Z A U0
-1.167417	Z A V
-1.461341	Z A V0
-2.107296	Z A ZH
-1.354828	ZH A <sil>
-1.196584	ZH A L
-0.7990617	ZH A N
-0.9538441	ZH A S
-1.447583	Zl A B
-1.289338	Zl A K
-1.447583	Zl A M0
-1.447583	Zl A N0
-1.289338	Zl A T
-1.447583	Zl A U0
-0.5097305	<s> A0 GH
-1.24027	B A0 J0
-1.796037	B A0 K
-1.796037	B A0 K0
-1.796037	B A0 KH
-1.796037	B A0 KH0
-1.126391	B A0 L
-1.24027	B A0 L0
-1.796037	B A0 M0
-1.637792	B A0 N0
-0.9616488	B A0 R
-1.24027	B A0 SH
-1.637792	B A0 T
-1.796037	B A0 V
-1.796037	B A0 V0
-1.487148	B0 A0 </s>
-1.089626	B0 A0 <sil>
-1.089626	B0 A0 F
-1.645393	B0 A0 I
-1.244409	B0 A0 K
-1.645393	B0 A0 N
-1.645393	B0 A0 O0
-1.487148	B0 A0 P
-1.645393	B0 A0 R
-1.487148	B0 A0 S
-1.645393	B0 A0 T
-1.487148	B0 A0 Z
-1.739695	D A0 </s>
-1.94371	D A0 <sil>
-1.829831	D A0 D
-2.499477	D A0 D0
-2.499477	D A0 E0
-2.341232	D A0 F
-1.739695	D A0 G
-1.665088	D A0 I
-2.499477	D A0 I0
-1.227932	D A0 J0
-2.341232	D A0 K
-1.180513	D A0 L
-1.412428	D A0 L0
-1.253736	D A0 M
-2.499477	D A0 M0
-1.601439	D A0 N
-1.180513	D A0 N0
-1.829831	D A0 O0
-1.412428	D A0 P
-1.545937	D A0 R
-2.098492	D A0 R0
-1.452537	D A0 S
-2.341232	D A0 S0
-1.375712	D A0 T
-1.28117	D A0 T0
-1.94371	D A0 TSH0
-1.739695	D A0 U
-1.94371	D A0 U0
-1.94371	D A0 V
-1.94371	D A0 V0
-2.098492	D A0 Z
-1.030141	D A0 ZH
-0.9819924	D0 A0 D0
-1.537759	D0 A0 J0
-0.8681133	D0 A0 M0
-1.379514	D0 A0 P
-0.6397218	D0 A0 SH0
-1.379514	D0 A0 T
-0.3514856	D0l A0 D0
-0.9356992	Dl A0 T0
-0.9356992	Dl A0 ZH
-1.032609	F A0 B
-1.032609	F A0 N
-1.765003	G A0 <sil>
-1.765003	G A0 D
-0.9306146	G A0 J0
-1.364019	G A0 KH
-0.7622573	G A0 L
-1.765003	G A0 M
-1.095357	G A0 N
-1.765003	G A0 Nl
-1.606758	G A0 R
-1.209236	G A0 S0l
-1.305728	I A0 D
-1.463973	I A0 L0
-0.5659356	I A0 N
-0.7041907	I A0 N0
-1.463973	I A0 T
-1.891816	J0 A0 </s>
-1.777937	J0 A0 <sil>
-1.549545	J0 A0 B
-1.289965	J0 A0 D
-1.400643	J0 A0 F
-1.613194	J0 A0 I
-1.229276	J0 A0 J0
-1.613194	J0 A0 K
-2.447582	J0 A0 K0
-2.046598	J0 A0 KH
-1.360534	J0 A0 L
-2.289338	J0 A0 L0
-2.447582	J0 A0 M
-1.494043	J0 A0 N
-1.176038	J0 A0 N0
-2.289338	J0 A0 Nl
-2.046598	J0 A0 O0
-1.360534	J0 A0 P
-1.549545	J0 A0 R
-1.323817	J0 A0 S
-1.777937	J0 A0 SH0
-1.258561	J0 A0 T
-1.400643	J0 A0 T0
-2.046598	J0 A0 U
-2.289338	J0 A0 U0
-1.289965	J0 A0 V
-1.891816	J0 A0 V0
-1.494043	J0 A0 Z
-1.777937	J0 A0 ZH
-0.5097305	J0l A0 Z
-2.364323	K A0 </s>
-2.522568	K A0 <sil>
-2.364323	K A0 D
-2.121583	K A0 F
-1.086229	K A0 G
-2.364323	K A0 I
-1.022565	K A0 J0
-0.4355926	K A0 K
-1.762785	K A0 KH
-2.364323	K A0 Kl
-1.398803	K A0 L
-2.121583	K A0 L0
-2.522568	K A0 M
-1.276827	K A0 M0
-2.364323	K A0 Ml
-2.121583	K A0 N
-2.121583	K A0 N0
-2.121583	K A0 P
-1.966801	K A0 R
-2.364323	K A0 R0
-2.121583	K A0 S
-2.522568	K A0 SH
-2.121583	K A0 T
-1.569028	K A0 T0
-2.522568	K A0 TS
-2.522568	K A0 U
-1.762785	K A0 Z
-1.398803	K A0 ZH
-1.311363	KH A0 J0
-0.9103785	KH A0 N0
-1.311363	KH A0 R
-1.311363	KH A0 T
-1.311363	KH A0 U
-1.311363	KH A0 V
-0.9356992	Kl A0 G
-0.2660533	Kl A0 K
-1.672593	L A0 </s>
-1.672593	L A0 <sil>
-1.507851	L A0 B
-1.582457	L A0 D
-2.183995	L A0 D0
-1.507851	L A0 F
-2.342239	L A0 G
-2.183995	L A0 G0
-1.123933	L A0 J0
-1.672593	L A0 K
-2.183995	L A0 L
-1.786473	L A0 M
-2.342239	L A0 M0
-1.25519	L A0 N
-1.582457	L A0 N0
-2.342239	L A0 O0
-1.2953	L A0 P
-1.941255	L A0 R
-1.339494	L A0 S
-1.672593	L A0 S0
-1.786473	L A0 SH0
-2.183995	L A0 Sl
-1.123933	L A0 T
-1.582457	L A0 T0
-1.786473	L A0 TSH0
-2.342239	L A0 U
-2.342239	L A0 U0
-1.153218	L A0 V
-2.342239	L A0 V0
-2.183995	L A0 Z
-2.183995	L A0 Z0
-0.8990953	L0 A0 D
-1.901841	L0 A0 D0
-1.743596	L0 A0 F
-1.901841	L0 A0 G
-0.814792	L0 A0 J0
-1.142059	L0 A0 L
-1.346074	L0 A0 L0
-1.346074	L0 A0 N
-1.901841	L0 A0 P
-1.901841	L0 A0 S
-1.232195	L0 A0 T
-1.500857	L0 A0 T0
-1.901841	L0 A0 TS
-1.901841	L0 A0 V
-1.901841	L0 A0 Z
-2.231266	M A0 </s>
-1.675499	M A0 <sil>
-1.56162	M A0 G
-2.231266	M A0 G0
-1.01296	M A0 J0
-2.231266	M A0 K
-2.231266	M A0 KH
-2.231266	M A0 KH0
-1.144217	M A0 L
-0.9123023	M A0 L0
-1.396878	M A0 N
-1.471484	M A0 N0
-2.073021	M A0 P
-1.042245	M A0 R
-1.56162	M A0 S
-2.073021	M A0 S0
-1.830282	M A0 SH
-1.675499	M A0 T
-0.9855253	M A0 T0
-2.231266	M A0 TS
-1.675499	M A0 TSH0
-2.231266	M A0 V0
-0.7108061	M0 A0 KH
-1.11179	M0 A0 N
-1.11179	M0 A0 N0
-0.9535456	M0 A0 SH0
-0.7315792	Ml A0 L
-0.5733344	Ml A0 R
-1.857118	N A0 </s>
-1.970997	N A0 <sil>
-1.628726	N A0 B
-1.970997	N A0 B0
-1.1859	N A0 D
-2.526764	N A0 D0
-2.526764	N A0 F
-2.368519	N A0 G
-2.526764	N A0 I
-0.9844754	N A0 J0
-1.439715	N A0 K
-2.526764	N A0 KH
-1.1859	N A0 L
-1.628726	N A0 L0
-1.369146	N A0 M
-1.970997	N A0 M0
-1.970997	N A0 N
-1.573224	N A0 N0
-1.337743	N A0 P
-1.107915	N A0 S
-1.573224	N A0 SH
-1.308457	N A0 T
-1.692375	N A0 T0
-1.369146	N A0 TS
-1.255219	N A0 TSH0
-2.368519	N A0 U
-1.857118	N A0 V
-2.526764	N A0 V0
-1.857118	N A0 Z
-2.125779	N A0 ZH
-1.368937	N0 A0 </s>
-1.523719	N0 A0 <sil>
-1.924704	N0 A0 B
-0.9711643	N0 A0 F
-1.523719	N0 A0 I
-1.255058	N0 A0 J0
-1.164922	N0 A0 L
-1.766459	N0 A0 L0
-1.924704	N0 A0 N
-1.368937	N0 A0 N0
-1.766459	N0 A0 O0
-1.924704	N0 A0 S
-1.766459	N0 A0 T
-1.090315	N0 A0 T0
-1.924704	N0 A0 V0
-1.090315	P A0 D
-1.766459	P A0 J0
-1.766459	P A0 KH
-0.9219582	P A0 L
-0.8009387	P A0 L0
-1.164922	P A0 M0
-1.924704	P A0 N
-1.164922	P A0 R
-1.924704	P A0 R0
-1.255058	P A0 SH
-1.766459	P A0 T0
-1.924704	P A0 V0
-1.523719	P A0 ZH
-1.289338	P0 A0 SH0
-0.2585613	P0 A0 T0
-1.447583	P0 A0 TS
-1.289338	P0 A0 Tl
-2.549805	R A0 </s>
-1.994038	R A0 <sil>
-1.392187	R A0 D
-2.148821	R A0 D0
-2.148821	R A0 F
-2.148821	R A0 F0
-1.208942	R A0 J0
-2.549805	R A0 J0l
-2.148821	R A0 K
-2.148821	R A0 K0
-1.790023	R A0 KH
-1.596266	R A0 L
-1.790023	R A0 L0
-1.880159	R A0 M
-1.360784	R A0 N
-1.790023	R A0 N0
-2.549805	R A0 N0l
-1.715417	R A0 Nl
-0.8704445	R A0 S
-2.39156	R A0 S0
-1.502865	R A0 SH
-1.208942	R A0 T
-1.462756	R A0 T0
-1.880159	R A0 TS
-1.54706	R A0 TSH0
-1.096655	R A0 V
-1.54706	R A0 V0
-1.02116	R A0 Z
-1.880159	R A0 Z0
-2.549805	R A0 ZH
-2.549805	R A0 Zl
-0.8151934	R0 A0 D
-1.817939	R0 A0 J0
-1.416955	R0 A0 L
-1.659694	R0 A0 M
-0.9835507	R0 A0 M0
-1.817939	R0 A0 S0
-0.8643995	R0 A0 T
-1.659694	R0 A0 T0
-1.416955	R0 A0 TSH0
-1.416955	R0 A0 Z
-1.838789	S A0 <sil>
-1.680544	S A0 D0
-1.680544	S A0 J0
-1.283022	S A0 KH
-1.838789	S A0 L
-0.3387868	S A0 M
-1.079007	S A0 M0
-1.437805	S A0 T0
-1.838789	S A0 V0
-1.588912	S0 A0 D
-1.588912	S0 A0 F
-0.7545233	S0 A0 K
-0.6908743	S0 A0 K0
-1.430667	S0 A0 SH0
-1.588912	S0 A0 T
-1.623674	SH A0 </s>
-1.465429	SH A0 F
-1.623674	SH A0 G
-1.22269	SH A0 J0
-1.623674	SH A0 P
-0.6209282	SH A0 R
-1.22269	SH A0 R0
-1.623674	SH A0 T0
-1.623674	SH A0 ZH
-0.5599487	SH0 A0 J0
-1.236092	SH0 A0 L
-1.236092	SH0 A0 L0
-1.394337	SH0 A0 S
-1.394337	SH0 A0 S0
-1.236092	SH0 A0 T0
-2.488975	T A0 B
-1.819329	T A0 F
-1.933208	T A0 F0
-1.270669	T A0 G
-2.488975	T A0 Gl
-1.270669	T A0 J0
-0.8400431	T A0 K
-2.488975	T A0 KH
-2.087991	T A0 Kl
-0.7459484	T A0 L
-1.127264	T A0 L0
-1.052637	T A0 M
-2.33073	T A0 M0
-2.33073	T A0 N
-1.535436	T A0 N0
-1.331358	T A0 R
-2.488975	T A0 S
-2.488975	T A0 SH
-1.729193	T A0 T
-1.933208	T A0 T0
-2.488975	T A0 TS
-1.729193	T A0 V
-1.299954	T A0 V0
-2.33073	T A0 ZH
-1.263058	T0 A0 B
-0.8620738	T0 A0 G0
-1.263058	T0 A0 SH0
-1.104813	T0 A0 T
-0.9326549	TS A0 </s>
-1.333639	TS A0 <sil>
-1.333639	TS A0 K
-1.333639	TS A0 N
-1.333639	TS A0 R
-1.333639	TS A0 T0
-2.13298	TSH0 A0 </s>
-1.974735	TSH0 A0 F
-0.6480401	TSH0 A0 J0
-2.13298	TSH0 A0 KH
-0.7513754	TSH0 A0 L
-1.463334	TSH0 A0 L0
-2.13298	TSH0 A0 M
-2.13298	TSH0 A0 M0
-1.577213	TSH0 A0 N0
-0.9439585	TSH0 A0 S
-1.974735	TSH0 A0 S0
-1.577213	TSH0 A0 SH
-1.577213	TSH0 A0 SH0
-1.974735	TSH0 A0 Sl
-1.974735	TSH0 A0 T
-1.974735	TSH0 A0 T0
-1.577213	TSH0 A0 Z
-0.3219404	U A0 R
-2.418216	V A0 <sil>
-2.418216	V A0 B
-2.418216	V A0 D
-2.259971	V A0 F
-0.9818772	V A0 J0
-0.8498632	V A0 L
-1.122314	V A0 L0
-1.260598	V A0 M
-2.418216	V A0 M0
-1.520178	V A0 N
-1.583827	V A0 N0
-1.260598	V A0 R
-1.172475	V A0 R0
-1.229194	V A0 S
-1.29445	V A0 SH
-1.371276	V A0 T
-1.331167	V A0 T0
-1.583827	V A0 TS
-2.259971	V A0 TSH0
-2.418216	V A0 V
-2.418216	V A0 Z
-1.74857	V A0 ZH
-1.263058	V0 A0 KH
-1.263058	V0 A0 Nl
-0.4286698	V0 A0 Z
-2.292681	Z A0 D
-2.292681	Z A0 D0
-1.339141	Z A0 F
-2.292681	Z A0 G
-2.134436	Z A0 J0
-2.134436	Z A0 KH
-0.3947573	Z A0 L
-1.339141	Z A0 L0
-2.292681	Z A0 Ll
-1.891696	Z A0 M
-2.134436	Z A0 M0
-1.736914	Z A0 N
-1.623035	Z A0 N0
-1.135063	Z A0 P
-2.134436	Z A0 R
-2.134436	Z A0 S
-1.736914	Z A0 T
-1.103659	Z A0 T0
-1.736914	Z A0 TS
-1.394337	Z0 A0 B
-1.394337	Z0 A0 F
-0.8385702	Z0 A0 I
-0.9933527	Z0 A0 L
-1.394337	Z0 A0 S
-1.394337	Z0 A0 SH0
-1.354189	ZH A0 F
-0.834814	ZH A0 J0
-0.4430152	ZH A0 L
-1.070296	ZH A0 L0
-1.86559	ZH A0 M0
-1.468068	ZH A0 R
-2.023835	ZH A0 R0
-1.86559	ZH A0 S
-2.023835	ZH A0 SH0
-1.354189	ZH A0 T0
-1.86559	ZH A0 ZH
-0.7315792	Zl A0 D0
-1.146553	D Al B
-0.3867703	D Al N
-0.5097305	G Al N0
-1.354828	J0 Al D0
-1.354828	J0 Al P
-1.354828	J0 Al P0
-1.196584	J0 Al R
-0.7990617	J0 Al T
-1.178737	K Al D
-1.020492	K Al N0
-1.178737	K Al R
-0.3343422	L Al N
-0.8868973	L Al T
-0.7315792	M Al R0
-1.537759	N Al B
-1.136775	N Al D
-1.379514	N Al P
-1.537759	N Al P0
-1.136775	N Al S
-1.379514	N Al S0
-1.379514	N Al T
-1.537759	N Al TSH0
-0.7774544	P Al D0
-0.6346692	R Al N0
-0.9356992	S Al B
-0.7774544	S Al P
-0.2549936	S0 Al T
-0.9868517	T Al T
-0.9356992	TS Al S
-0.9356992	TS Al T
-1.289338	V Al B
-1.447583	V Al G
-1.447583	V Al N0
-0.6878003	V Al P
-1.447583	V Al R
-1.447583	V Al S
-1.289338	V Al T
-1.287882	<s> B R
-0.8868973	<s> B U0
-0.3898443	<s> B Y0
-0.8944423	<sil> B A
-1.564088	<sil> B L
-1.564088	<sil> B R
-0.7296998	<sil> B U0
-0.8043059	<sil> B Y
-0.8944423	<sil> B Y0
-1.091914	A B A
-1.284497	A B A0
-2.473518	A B D
-2.072534	A B E0
-1.470773	A B J0
-1.63913	A B L
-1.227777	A B L0
-2.315274	A B M
-2.072534	A B N0
-0.7941577	A B O0
-1.03718	A B R
-1.63913	A B R0
-1.519979	A B U
-1.519979	A B U0
-1.004182	A B Y
-0.7566431	A B Y0
-1.006416	A0 B A
-1.120295	A0 B L
-1.517817	A0 B R
-1.275078	A0 B R0
-1.275078	A0 B U0
-0.6291223	A0 B Y
-1.120295	A0 B Y0
-0.5560236	Al B R
-1.11179	Al B Y
-1.333639	D B A
-0.9326549	D B O0
-0.2866996	D B Y0
-0.7777529	D0 B A
-0.7777529	D0 B Y
-0.7777529	D0 B Y0
-0.5842196	E0 B A
-1.537759	E0 B N
-1.537759	E0 B O0
-1.379514	E0 B R0
-1.379514	E0 B U
-1.537759	E0 B Y
-0.6397218	E0 B Y0
-1.333639	G B L0
-0.5738569	G B U0
-0.4992508	G B Y
-1.333639	G B Y0
-1.394337	GH B L0
-1.394337	GH B O0
-1.236092	GH B U0
-0.9933527	GH B Y
-0.4962996	GH B Y0
-0.8170257	I B A
-1.131798	I B A0
-2.020492	I B L
-1.175992	I B L0
-1.418955	I B O0
-1.175992	I B R
-2.020492	I B R0
-0.8170257	I B U
-1.418955	I B U0
-1.175992	I B Y
-0.7255869	I B Y0
-1.104813	I0 B A
-1.263058	I0 B L0
-1.104813	I0 B Y
-0.5934123	I0 B Y0
-0.3336392	Il B A
-1.074002	J0 B A0
-0.518235	J0 B Y0
-0.8286069	L B R
-0.4310849	L B Y
-0.6346692	L0 B O0
-0.9682041	M B A
-1.523971	M B A0
-0.9682041	M B L0
-1.122987	M B O0
-1.523971	M B R
-1.523971	M B U
-1.365726	M B Y
-0.8543251	M B Y0
-1.311363	N B A0
-1.311363	N B O0
-1.311363	N B U
-0.2644232	N B Y0
-1.566123	O0 B A
-1.566123	O0 B L0
-1.06907	O0 B N
-1.297462	O0 B O0
-1.297462	O0 B R
-1.967108	O0 B U0
-0.3508976	O0 B Y
-0.8800588	O0 B Y0
-0.1759169	R B U0
-0.3336392	R0 B Y0
-1.283022	U B A
-0.8360436	U B A0
-1.283022	U B L0
-1.838789	U B N0
-0.4979257	U B O0
-1.838789	U B U
-1.437805	U B U0
-1.283022	U B V0
-1.283022	U B Y0
-0.4640742	U0 B A
-1.551123	U0 B L0
-1.551123	U0 B O0
-0.7167348	U0 B Y
-1.551123	U0 B Y0
-1.032609	V B L
-1.032609	V B R0
-1.032609	V B U
-1.032609	V B Y0
-0.3336392	V0 B U0
-0.9953563	Y B A
-0.7913409	Y B A0
-1.551123	Y B D
-1.150139	Y B N
-1.551123	Y B Y
-0.5975836	Y B Y0
-1.074002	Y0 B A
-1.074002	Y0 B R
-1.074002	Y0 B U0
-1.074002	Y0 B Y0
-0.9538441	Z B A
-1.354828	Z B A0
-1.354828	Z B O0
-0.6851826	Z B R
-1.196584	Z B U
-1.196584	Z B U0
-0.9356992	Z0 B A0
-0.9356992	Z0 B Y
-0.6346692	ZH B O0
-0.2336848	<s> B0 I
-1.129637	<sil> B0 E0
-0.1641166	<sil> B0 I
-0.6073853	A B0 E0
-0.2363575	A B0 I
-1.364019	A B0 I0
-1.765003	A B0 J0
-0.1759169	A0 B0 I
-0.7774544	D B0 E0
-0.3799323	D B0 I
-0.6346692	D0 B0 E0
-0.6346692	D0 B0 I
-0.2485151	E0 B0 I
-0.3336392	G B0 I
-0.4770963	I B0 A0
-0.4544336	I B0 E0
-2.081827	I B0 E0l
-0.8360863	I B0 I
-1.923582	I B0 I0
-1.412181	I B0 O0
-2.081827	I B0 U0
-0.4767229	J0 B0 E0
-0.7194624	J0 B0 I
-0.1758124	M B0 I
-0.03981787	O0 B0 I
-0.5097305	R B0 I
-0.7237116	U B0 E0
-0.4291561	U B0 I
-0.5148591	U B0 I0
-0.193013	U0 B0 I
-0.9868517	V B0 E0
-0.2270695	V B0 I
-0.9356992	Y B0 E0
-0.9356992	Y B0 I
-0.9356992	Y B0 J0
-0.5733344	Y0 B0 I
-0.7315792	Y0 B0 J0
-0.9538441	Z B0 E0
-0.5950462	Z B0 I
-0.4567911	Z B0 I0
-0.2336848	Z0 B0 I
-0.3336392	ZH B0 I
-0.7167348	<s> D A
-0.4640742	<s> D A0
-1.392878	<s> D L0
-1.551123	<s> D O0
-1.392878	<s> D R
-0.6089188	<sil> D A
-0.5688096	<sil> D A0
-1.655859	<sil> D R
-1.655859	<sil> D R0
-1.655859	<sil> D U0
-1.254874	<sil> D V
-1.655859	<sil> D V0
-1.655859	<sil> D Y
-0.7615672	A D A
-1.060266	A D A0
-2.430667	A D B
-2.033145	A D B0
-2.588912	A D E0
-1.586166	A D G
-1.919266	A D J0
-2.588912	A D L
-1.541972	A D L0
-2.588912	A D M
-2.033145	A D M0
-0.8811158	A D N
-1.020559	A D N0
-1.060266	A D O0
-1.269948	A D R
-2.588912	A D R0
-1.919266	A D U
-1.2272	A D U0
-1.541972	A D V
-1.39989	A D V0
-2.588912	A D Y
-1.690874	A D Y0
-2.588912	A D Z
-2.588912	A D ZH
-0.3218214	A0 D A
-1.931269	A0 D A0
-1.533747	A0 D B
-2.089514	A0 D G
-2.089514	A0 D L0
-1.68853	A0 D N
-1.931269	A0 D N0
-1.931269	A0 D O0
-1.255126	A0 D U
-1.191477	A0 D U0
-0.8712077	A0 D Y
-0.1090448	Al D N
-0.6346692	B D V0
-0.3336392	B0 D A
-0.8117444	E0 D A
-0.9051445	E0 D L0
-1.302917	E0 D N
-0.5871391	E0 D N0
-0.9051445	E0 D U
-1.700439	E0 D Y
-1.700439	E0 D Z
-1.545028	G D A
-0.09351082	G D A0
-1.431149	G D Al
-2.100795	G D O0
-1.545028	G D R
-2.100795	G D V0
-0.5907857	GH D A
-1.146553	GH D U
-0.7889739	I D A
-0.8804127	I D A0
-2.083879	I D B
-2.242124	I D G
-1.686357	I D L
-1.195185	I D L0
-2.242124	I D M0
-2.083879	I D N0
-1.084507	I D O0
-1.344087	I D R
-1.407736	I D U
-0.8804127	I D U0
-1.686357	I D V
-1.195185	I D V0
-2.242124	I D Y0
-2.083879	I D Z
-1.84114	I D ZH
-1.033145	I0 D A
-0.3706053	I0 D N
-1.588912	I0 D N0
-1.588912	I0 D R
-1.033145	I0 D Y
-0.7609034	J0 D A
-1.272304	J0 D A0
-0.7609034	J0 D O0
-1.029565	J0 D R
-1.430549	J0 D U0
-0.9933527	L D A
-0.4962996	L D A0
-1.236092	L D R
-0.7246912	L D V0
-0.5097305	L0 D Y0
-1.305728	M D A
-1.463973	M D L0
-1.305728	M D N0
-0.6295846	M D O0
-1.305728	M D V
-0.9082061	M D V0
-1.263058	N D A
-1.104813	N D A0
-1.263058	N D O0
-0.7072913	N D R
-1.263058	N D Y
-0.4419805	O0 D A
-1.454566	O0 D A0
-1.852088	O0 D B
-2.010333	O0 D G
-2.010333	O0 D L0
-0.9232839	O0 D N
-1.112295	O0 D N0
-2.010333	O0 D R
-1.454566	O0 D U
-2.010333	O0 D V
-1.340687	O0 D Y
-2.010333	O0 D Z
-1.454566	O0 D ZH
-0.4097761	R D A
-0.9606466	U D A
-0.2539531	U D A0
-1.4577	U D G
-1.858684	U D L0
-1.098902	U D O0
-1.700439	U D V
-0.5111441	U0 D A
-1.59864	U0 D Al
-0.9224967	U0 D N
-1.59864	U0 D R
-0.8033456	U0 D U
-1.201118	U0 D ZH
-0.7014351	V D A
-1.788484	V D A0
-1.118838	V D O0
-0.4476205	V D R
-1.3875	V D U
-1.788484	V D V
-1.016176	Y D A
-0.4675153	Y D A0
-1.016176	Y D B
-1.685822	Y D N0
-1.284837	Y D O0
-1.527577	Y D R
-1.685822	Y D V0
-0.4421446	Y0 D A
-0.9535456	Y0 D U0
-0.576968	Z D A
-0.9978946	Z D A0
-1.737687	Z D G
-1.737687	Z D O0
-1.737687	Z D R
-0.8931865	Z D U
-1.226286	Z D U0
-1.494948	Z D V
-1.340165	Z D V0
-1.737687	Z D Y
-0.9157571	Z0 D A
-1.074002	Z0 D O0
-0.8588477	ZH D A
-0.437921	ZH D A0
-0.8033456	ZH D U
-0.7541395	ZH D Y
-0.3336392	ZH0 D A
-0.5733344	<s> D0 E0
-0.7315792	<s> D0 I
-0.3172059	<sil> D0 I
-1.154357	A D0 A0
-0.6188082	A D0 E0
-0.7781196	A D0 I
-0.4237668	A D0 I0
-1.443733	A D0 O0
-2.278122	A D0 Z
-2.278122	A D0 ZH
-0.9192659	A0 D0 A
-0.9192659	A0 D0 B
-0.431294	A0 D0 I
-1.588912	A0 D0 U
-1.187927	A0 D0 Z
-0.7774544	Al D0 E0
-0.7774544	Al D0 I
-0.9356992	Al D0 I0
-1.062989	E0 D0 E0
-0.3063553	E0 D0 I
-0.04986761	G D0 E0
-1.666078	G D0 I
-0.4764244	GH D0 I
-1.493297	I D0 A0
-2.004698	I D0 B
-0.4738956	I D0 E0
-2.162943	I D0 G
-0.6074271	I D0 I
-0.6936072	I D0 I0
-1.160197	I D0 O0
-1.59864	I0 D0 E0
-0.0678377	I0 D0 I
-1.287882	J0 D0 A0
-0.4534934	J0 D0 E0
-1.287882	J0 D0 I
-0.6182359	J0 D0 O0
-0.7315792	M D0 E0
-0.5733344	M D0 I
-0.2336848	M0 D0 I
-0.6525156	N D0 E0
-0.6525156	N D0 I
-0.9535456	N0 D0 E0
-0.5560236	N0 D0 I
-0.9535456	N0 D0 I0
-1.564088	O0 D0 B
-1.163104	O0 D0 E0
-0.1634623	O0 D0 I
-1.564088	O0 D0 J0
-0.404356	R D0 I
-1.074002	R D0 I0
-1.074002	R D0 Il
-0.3336392	R0 D0 E0
-1.211408	U D0 A0
-0.4547751	U D0 E0
-0.8526105	U D0 I
-0.9427469	U D0 I0
-0.05112082	U0 D0 I
-0.7108061	V D0 E0
-0.4421446	V D0 I
-0.8286069	Y D0 E0
-0.9868517	Y D0 I0
-0.9868517	Y D0 O0
-0.8107604	Y0 D0 G
-0.6525156	Y0 D0 I
-0.4764244	Z D0 E0
-0.1309932	Z0 D0 E0
-0.9407517	Z0 D0 I
-1.838789	Z0 D0 ZH
-0.3336392	Z0l D0 E0
-0.7246912	ZH D0 E0
-0.6345548	ZH D0 I
-0.4962996	ZH D0 O0
-0.8777072	A D0l E0
-0.7194624	A D0l I
-0.5097305	O0 D0l E0
-0.3336392	Y0 D0l I
-0.3336392	Z0 D0l E0
-0.3336392	A DZ0 E0
-0.6346692	O0 DZH0 D
-0.4097761	A Dl A0
-0.9356992	I Dl A
-0.9356992	I Dl O0
-0.3514856	O0 Dl A
-1.311363	<s> E0 Ml
-0.3086172	<s> E0 T
-0.2082223	<sil> E0 T
-1.078783	<sil> E0 T0
-1.233685	A E0 Ml
-1.634669	A E0 R
-0.1653334	A E0 T
-1.233685	A E0 T0
-0.1758124	A0 E0 T
-0.2336848	B E0 T
-1.613896	B0 E0 </s>
-1.856636	B0 E0 <sil>
-2.01488	B0 E0 A
-1.345235	B0 E0 D
-1.856636	B0 E0 D0
-1.345235	B0 E0 G
-1.856636	B0 E0 I
-1.856636	B0 E0 J0
-2.01488	B0 E0 K
-1.061341	B0 E0 L
-1.459114	B0 E0 N
-1.856636	B0 E0 P
-1.345235	B0 E0 R
-1.459114	B0 E0 R0
-2.01488	B0 E0 S
-1.345235	B0 E0 SH
-1.856636	B0 E0 T
-2.01488	B0 E0 U
-2.01488	B0 E0 V
-1.180492	B0 E0 Z
-1.613896	B0 E0 ZH
-2.437443	D0 E0 </s>
-2.437443	D0 E0 A
-2.437443	D0 E0 B
-1.677661	D0 E0 F
-2.279198	D0 E0 G
-1.165898	D0 E0 J0
-2.437443	D0 E0 K
-0.5896847	D0 E0 L
-1.279825	D0 E0 L0
-2.437443	D0 E0 M
-1.767797	D0 E0 N
-0.9087974	D0 E0 N0
-2.036458	D0 E0 P
-2.279198	D0 E0 R
-2.437443	D0 E0 R0
-2.437443	D0 E0 S
-1.001105	D0 E0 S0
-2.437443	D0 E0 Sl
-1.539405	D0 E0 T
-1.434697	D0 E0 T0
-2.437443	D0 E0 TSH0
-1.539405	D0 E0 V
-1.539405	D0 E0 ZH
-0.8777072	D0l E0 L
-0.3219404	D0l E0 N0
-0.3336392	DZ0 E0 M
-0.8357449	F0 E0 N0l
-0.4769469	F0 E0 R
-1.236729	F0 E0 T
-0.6346692	G E0 G
-0.8286069	G0 E0 J0
-0.9868517	G0 E0 R
-0.1582509	I E0 T
-0.3514856	I0 E0 T
-1.610381	J0 E0 D
-1.406366	J0 E0 D0
-2.166148	J0 E0 F
-0.7472991	J0 E0 J0
-1.163403	J0 E0 KH
-2.007903	J0 E0 L
-1.496502	J0 E0 R
-0.7129977	J0 E0 S
-0.7655222	J0 E0 S0
-1.610381	J0 E0 Z
-1.765164	J0 E0 Z0
-1.268111	J0 E0 ZH
-0.1411146	K E0 T
-1.463973	K0 E0 </s>
-1.305728	K0 E0 J0
-0.7943271	K0 E0 M
-1.305728	K0 E0 O0
-1.463973	K0 E0 T
-1.062989	K0 E0 V0
-0.4764244	L E0 T
-2.263058	L0 E0 A
-0.9221946	L0 E0 D
-2.263058	L0 E0 D0
-2.104813	L0 E0 F
-1.593412	L0 E0 J0
-2.263058	L0 E0 K
-2.104813	L0 E0 KH
-2.104813	L0 E0 M
-2.104813	L0 E0 M0
-2.104813	L0 E0 N
-0.7344127	L0 E0 N0
-1.216118	L0 E0 S
-1.593412	L0 E0 S0
-0.7630558	L0 E0 T
-2.104813	L0 E0 T0
-1.593412	L0 E0 TS
-1.862074	L0 E0 TSH0
-2.263058	L0 E0 Tl
-1.593412	L0 E0 V
-1.593412	L0 E0 Z
-2.263058	L0 E0 Z0
-0.7315792	L0l E0 R0
-0.7194624	M E0 T
-2.273159	M0 E0 </s>
-2.273159	M0 E0 B0
-1.270413	M0 E0 D
-2.273159	M0 E0 D0
-1.027418	M0 E0 J0
-1.115541	M0 E0 L
-1.513376	M0 E0 L0
-1.270413	M0 E0 N
-1.603513	M0 E0 N0
-1.513376	M0 E0 Nl
-1.149393	M0 E0 R
-1.872174	M0 E0 R0
-1.319619	M0 E0 S
-1.115541	M0 E0 S0
-1.872174	M0 E0 SH
-1.513376	M0 E0 SH0
-1.149393	M0 E0 T
-1.270413	M0 E0 T0
-1.872174	M0 E0 TS
-1.603513	M0 E0 ZH
-0.5097305	M0l E0 S0
-0.7774544	N E0 <sil>
-0.9356992	N E0 T
-1.296595	N0 E0 </s>
-1.694431	N0 E0 <sil>
-1.330448	N0 E0 B
-2.454213	N0 E0 B0
-2.454213	N0 E0 D
-2.454213	N0 E0 D0
-2.295968	N0 E0 F
-2.454213	N0 E0 G
-0.9542108	N0 E0 J0
-1.407274	N0 E0 K
-2.454213	N0 E0 KH
-1.898446	N0 E0 L
-2.053229	N0 E0 L0
-1.500674	N0 E0 M
-1.898446	N0 E0 N
-2.053229	N0 E0 N0
-2.454213	N0 E0 Nl
-1.694431	N0 E0 P
-1.619825	N0 E0 R
-0.9119247	N0 E0 S
-1.619825	N0 E0 SH
-0.9119247	N0 E0 T
-2.053229	N0 E0 T0
-1.182668	N0 E0 TS
-1.451468	N0 E0 TSH0
-2.454213	N0 E0 U
-1.898446	N0 E0 V
-2.454213	N0 E0 ZH
-0.6346692	N0l E0 B
-0.1204624	O0 E0 T
-2.070036	P0 E0 F
-1.06729	P0 E0 L
-2.070036	P0 E0 N0
-0.9829868	P0 E0 R
-0.2222774	P0 E0 R0
-2.070036	P0 E0 T0
-1.669051	P0 E0 TSH0
-1.580447	R0 E0 B
-2.091848	R0 E0 B0
-1.580447	R0 E0 D
-2.250093	R0 E0 D0
-2.250093	R0 E0 F
-1.352056	R0 E0 J0
-2.250093	R0 E0 K
-1.247348	R0 E0 L
-1.580447	R0 E0 L0
-2.250093	R0 E0 Ll
-0.8684888	R0 E0 M0
-2.250093	R0 E0 N0
-1.490311	R0 E0 P
-1.694326	R0 E0 S
-1.163044	R0 E0 T
-0.9785482	R0 E0 T0
-1.580447	R0 E0 TS
-1.203153	R0 E0 TSH0
-1.694326	R0 E0 V
-1.580447	R0 E0 V0
-2.250093	R0 E0 Z
-1.296554	R0 E0 ZH
-2.041682	S0 E0 A
-2.041682	S0 E0 B
-1.440144	S0 E0 D
-2.199927	S0 E0 D0
-2.199927	S0 E0 G
-1.440144	S0 E0 J0
-1.64416	S0 E0 K
-1.197181	S0 E0 KH
-1.246387	S0 E0 L
-1.64416	S0 E0 L0
-0.9816201	S0 E0 M
-1.152987	S0 E0 M0
-2.199927	S0 E0 Ml
-2.199927	S0 E0 N
-1.530281	S0 E0 N0
-1.798942	S0 E0 N0l
-1.798942	S0 E0 P
-1.112878	S0 E0 R
-1.64416	S0 E0 T
-1.64416	S0 E0 T0
-2.041682	S0 E0 U
-1.530281	S0 E0 V0
-1.798942	S0 E0 Z
-1.634669	SH E0 I
-0.9650233	SH E0 J0
-0.8002808	SH E0 N0
-1.078902	SH E0 Nl
-1.634669	SH E0 R
-1.078902	SH E0 S
-0.9650233	SH E0 S0
-1.634669	SH E0 T
-1.108746	SH0 E0 L0
-0.7499482	SH0 E0 N0
-1.50973	SH0 E0 P
-0.7499482	SH0 E0 S
-0.6730176	T E0 T
-0.6730176	T E0 T0
-2.190972	T0 E0 <sil>
-1.789987	T0 E0 DZ
-1.521326	T0 E0 J0
-1.789987	T0 E0 K
-1.789987	T0 E0 KH
-0.7721227	T0 E0 L
-1.188226	T0 E0 L0
-1.144032	T0 E0 M
-1.431189	T0 E0 N
-1.033354	T0 E0 N0
-2.190972	T0 E0 P
-1.635205	T0 E0 P0
-2.190972	T0 E0 R0
-1.635205	T0 E0 S
-1.521326	T0 E0 T
-1.521326	T0 E0 T0
-1.292934	T0 E0 TS
-2.032727	T0 E0 TSH0
-1.635205	T0 E0 ZH
-1.614727	TS E0 B0
-1.772972	TS E0 G
-1.614727	TS E0 K
-0.9385836	TS E0 L
-1.103326	TS E0 L0
-1.103326	TS E0 N
-0.8194324	TS E0 P0
-0.8194324	TS E0 R
-1.321821	TSH0 E0 J0
-1.722805	TSH0 E0 K
-0.3819418	TSH0 E0 M
-1.167038	TSH0 E0 N0
-1.321821	TSH0 E0 R
-1.722805	TSH0 E0 R0
-1.053159	TSH0 E0 S0
-0.5097305	U E0 T
-0.1292909	V E0 T
-1.216787	V E0 T0
-2.342712	V0 E0 </s>
-1.94519	V0 E0 <sil>
-2.099972	V0 E0 D
-1.831311	V0 E0 D0
-1.94519	V0 E0 J0
-1.064618	V0 E0 K
-2.099972	V0 E0 K0
-2.342712	V0 E0 L
-1.741174	V0 E0 N0
-2.099972	V0 E0 Nl
-0.9080165	V0 E0 R
-0.9863966	V0 E0 R0
-1.229412	V0 E0 S
-1.602919	V0 E0 S0
-1.94519	V0 E0 SH0
-2.500957	V0 E0 Sl
-0.9201364	V0 E0 T
-0.8520244	V0 E0 T0
-1.181993	V0 E0 TSH0
-2.099972	V0 E0 Z0
-1.94519	V0 E0 ZH
-0.6346692	V0l E0 R
-0.6346692	V0l E0 TSH0
-0.2080614	Y E0 T
-0.5097305	Z E0 T
-0.3578233	Z0 E0 M
-1.153118	Z0 E0 R
-0.9103785	Z0 E0 T
-0.5097305	Z0l E0 L0
-1.232717	ZH E0 L0
-1.630239	ZH E0 N
-0.195544	ZH E0 N0
-1.788484	ZH E0 R
-1.028702	ZH E0 S
-0.3336392	B0 E0l T
-0.3514856	L0 E0l T
-0.1013108	S0 E0l T
-0.9964318	<s> F K
-1.110311	<s> F P
-0.9062954	<s> F S
-0.4770564	<s> F S0
-1.507833	<s> F T
-1.666078	<s> F TS
-1.666078	<s> F TSH0
-1.120295	<sil> F K
-1.676062	<sil> F KH
-1.517817	<sil> F P
-1.517817	<sil> F P0
-1.120295	<sil> F S
-0.4870406	<sil> F S0
-1.676062	<sil> F SH
-1.275078	<sil> F T
-1.517817	<sil> F TS
-1.231118	A F </s>
-0.8993175	A F <sil>
-1.483778	A F A
-2.318166	A F A0
-2.318166	A F E0
-1.315421	A F K
-2.159922	A F O0
-1.231118	A F P
-1.420129	A F R
-1.194402	A F S
-0.6103706	A F S0
-1.558384	A F SH
-1.194402	A F T
-1.648521	A F V
-2.318166	A F Y
-2.318166	A F Y0
-1.986852	A0 F <sil>
-1.431085	A0 F K
-1.585867	A0 F P
-1.986852	A0 F P0
-1.986852	A0 F R0
-0.8998028	A0 F S
-0.9841061	A0 F S0
-0.4868494	A0 F SH
-0.8998028	A0 F T
-1.394337	E0 F K
-1.394337	E0 F S
-0.3072881	E0 F SH
-1.135975	I F <sil>
-2.089514	I F A
-1.533747	I F A0
-1.68853	I F K
-2.089514	I F KH
-1.931269	I F L
-2.089514	I F M0
-1.931269	I F O0
-1.002465	I F P
-1.931269	I F P0
-1.68853	I F R
-1.135975	I F S
-0.6888882	I F S0
-1.329732	I F SH
-1.931269	I F T
-1.68853	I F TSH0
-2.089514	I F U
-2.089514	I F U0
-1.931269	I F V
-1.931269	I F Y
-1.463973	I0 F K
-1.463973	I0 F S0
-0.2456665	I0 F SH
-1.074002	J0 F A
-0.6730176	J0 F S
-1.074002	J0 F S0
-1.078484	K F P
-1.236729	K F S
-0.8357449	K F S0
-1.236729	K F T
-1.032609	KH F P0
-0.8743644	KH F S0
-1.50973	L F K
-1.351486	L F P
-1.108746	L F S
-0.6753421	L F S0
-0.8400846	L F T
-1.351486	L F T0
-1.050456	M F A
-0.5390546	M F S0
-0.3336392	M0 F U0
-1.050456	N F S
-0.4489182	N F S0
-0.8173292	O0 F </s>
-0.8173292	O0 F <sil>
-1.385327	O0 F A
-1.271448	O0 F K
-1.941094	O0 F K0
-1.782849	O0 F P
-1.271448	O0 F S
-1.043057	O0 F S0
-1.385327	O0 F SH0
-1.941094	O0 F T
-1.941094	O0 F V
-1.385327	O0 F Y
-0.8107604	R F Y
-0.3336392	R0 F S
-1.074002	S F A
-0.518235	S F S0
-0.5560236	S0 F K
-1.11179	S0 F P
-1.11179	S0 F S0
-0.3336392	SH F S0
-1.236729	T F <sil>
-1.236729	T F P
-0.8357449	T F S0
-1.050456	T0 F K
-1.2087	T0 F P
-0.8077161	T0 F S
-1.050456	T0 F S0
-1.333639	U F A
-1.333639	U F KH
-0.7778724	U F S
-1.175394	U F S0
-1.175394	U F SH
-0.5104334	U0 F S
-1.305728	U0 F S0
-0.5659356	U0 F SH
-1.078902	Y F </s>
-1.233685	Y F <sil>
-1.634669	Y F K
-1.634669	Y F M
-0.9650233	Y F P
-1.634669	Y F P0
-0.8002808	Y F S0
-1.233685	Y F T
-1.634669	Y F TS
-1.146553	Y0 F R
-0.4769067	Y0 F SH
-1.146553	Y0 F T0
-0.3336392	<sil> F0 I
-0.8743644	A F0 E0
-1.032609	A F0 I
-0.7108061	A0 F0 I
-1.11179	A0 F0 Il
-1.11179	A0 F0 T0
-0.3336392	E0 F0 I
-0.8107604	I F0 E0
-0.8107604	I F0 I
-0.3336392	L F0 E0
-0.3336392	M F0 I
-0.7033708	O0 F0 <sil>
-1.537759	O0 F0 I
-1.537759	O0 F0 TSH0
-1.537759	O0 F0 V
-0.3305949	P F0 E0
-0.4097761	S F0 I
-0.3336392	T F0 I
-0.5097305	T0 F0 I
-0.6525156	U F0 I
-0.3336392	U0 F0 I
-0.3336392	Y F0 I0
-0.3336392	I0 Fl S0
-0.8543251	<s> G A
-1.365726	<s> G D0
-0.9682041	<s> G L
-1.365726	<s> G O0
-0.5704314	<s> G U0
-0.6588533	<sil> G A
-1.612393	<sil> G D
-0.8526105	<sil> G D0
-1.211408	<sil> G L
-1.211408	<sil> G L0
-1.612393	<sil> G N0
-1.612393	<sil> G R
-1.612393	<sil> G R0
-1.454148	<sil> G U0
-0.789166	A G A
-1.096609	A G A0
-0.499469	A G D
-1.922447	A G D0
-1.320596	A G L
-1.354448	A G L0
-1.808568	A G N
-1.025063	A G O0
-1.025063	A G R
-1.718431	A G R0
-2.319968	A G U
-1.643825	A G U0
-0.7896577	A0 G A
-0.7244015	A0 G B
-1.243777	A0 G D
-1.243777	A0 G D0
-1.913423	A0 G L
-1.913423	A0 G R0
-1.755178	A0 G U
-1.755178	A0 G U0
-1.913423	A0 G Z
-1.913423	A0 G Z0
-0.6676818	A0 G ZH
-0.6525156	Al G N0
-0.3336392	B G A
-0.3336392	B0 G O0
-0.3238175	D G A
-1.046598	D G A0
-1.046598	D G O0
-0.8286069	D0 G O0
-0.3336392	DZ G A
-0.4992508	E0 G A
-1.333639	E0 G E0
-0.9326549	E0 G O0
-1.175394	E0 G R
-0.7774544	GH G A
-0.9356992	GH G L
-0.5823342	I G A
-1.107501	I G A0
-1.107501	I G D
-1.830282	I G D0
-1.396878	I G L
-2.231266	I G L0
-0.7167063	I G O0
-1.01296	I G R
-2.231266	I G R0
-2.231266	I G U
-1.228521	I G U0
-2.073021	I G V
-0.3629633	I0 G A
-1.032609	I0 G D0
-0.7041907	J0 G A
-1.305728	J0 G L
-0.6295846	J0 G O0
-1.463973	J0 G R
-1.463973	J0 G R0
-1.463973	J0 G V
-0.3207092	L G A
-1.50973	L G N0
-1.108746	L G O0
-1.351486	L G U0
-1.50973	L G Z
-0.3336392	L0 G A0
-0.641717	M G A
-1.153118	M G D0
-1.311363	M G L
-1.153118	M G N
-1.311363	M G O0
-1.311363	M G U
-0.7455682	N G A
-1.146553	N G L
-0.9883077	N G L0
-0.3219404	N0 G A
-0.8777072	N0 G Y0
-0.3718506	O0 G A
-1.825001	O0 G Al
-1.825001	O0 G B
-1.666756	O0 G L
-1.825001	O0 G O0
-1.666756	O0 G R
-0.6673832	O0 G U
-1.825001	O0 G U0
-0.2485151	R G A
-0.9883077	R G O0
-1.345235	U G A
-1.180492	U G A0
-1.613896	U G D0
-1.012135	U G L
-1.613896	U G L0
-0.3555668	U G O0
-2.01488	U G R
-1.856636	U G R0
-1.613896	U G U
-1.116843	U G U0
-0.3221495	U0 G A
-1.479767	U0 G D
-0.6453789	U0 G L
-1.479767	U0 G Z
-1.244409	V G A
-0.3494917	V G L
-1.645393	V G L0
-0.7473556	V G O0
-1.645393	V G R0
-1.645393	V G U
-0.735225	Y G A
-0.9392403	Y G L0
-1.336762	Y G O0
-0.9392403	Y G R
-1.094023	Y G U
-0.2660533	Y0 G A
-0.5538713	Z G A
-1.442566	Z G L
-0.4770459	Z G L0
-1.442566	Z G O0
-1.442566	Z G R
-1.600811	Z G U
-0.6525156	Z0 G A
-0.4764244	<sil> G0 I
-0.755596	A G0 I
-0.2644232	A G0 I0
-0.07125628	A0 G0 I
-0.5097305	D G0 I
-0.3336392	D0 G0 I
-0.7315792	I G0 I
-0.1758124	I0 G0 I
-0.3514856	N G0 I
-0.1758124	N0 G0 I
-0.02992337	O0 G0 I
-0.7774544	R G0 E0
-0.5347148	R G0 I
-0.1438069	U G0 I0
-0.3336392	U0 G0 I
-0.3336392	V G0 E0
-0.3336392	Y0 G0 I
-0.5097305	Z G0 I
-0.3336392	ZH G0 I0
-0.5733344	A GH B
-0.5733344	A0 GH B
-0.8777072	I GH D
-0.8777072	I GH Z
-0.4133254	I0 GH B
-1.153118	I0 GH D
-1.311363	I0 GH D0
-1.311363	I0 GH G
-1.311363	I0 GH Z
-0.755596	Y GH B
-0.641717	Y GH D
-1.153118	Y GH Z
-0.8107604	Y0 GH G
-0.6525156	Y0 GH Z
-0.5097305	A Gl O0
-0.5097305	A0 Gl A
-1.561044	<s> I A
-1.803783	<s> I D
-1.202246	<s> I J0
-1.406261	<s> I K
-1.803783	<s> I L0
-1.561044	<s> I M0
-1.962028	<s> I N
-1.803783	<s> I N0
-1.406261	<s> I P
-1.406261	<s> I S
-1.561044	<s> I SH
-1.202246	<s> I T
-1.962028	<s> I TSH0
-1.962028	<s> I U0
-1.406261	<s> I V
-1.12764	<s> I Z
