
\data\
ngram 1=86
ngram 2=1567
ngram 3=5320

\1-grams:
-1.702108	</s>
-99	<s>	-0.4143836
-1.77819	<sil>	0.1590305
-1.495107	A	0.01805991
-1.560447	A0	0.02422839
-2.015679	Al	-0.3126814
-1.730962	B	-0.5871994
-1.850395	B0	-0.6574996
-3.1804	Bl	-0.3240385
-1.746141	D	-0.478453
-1.795147	D0	-0.5227513
-2.486278	D0l	-0.2963955
-3.1804	DZ	-0.3280101
-3.1804	DZH0	-0.3282924
-2.342934	Dl	-0.2994182
-1.540754	E0	0.007126272
-3.264886	E0l	-0.3039309
-1.77819	F	-0.2850912
-2.111769	F0	-0.4104611
-3.1804	Fl	-0.3263124
-1.730962	G	-0.5688025
-2.190131	G0	-0.5691513
-2.285815	GH	-0.4651656
-3.264886	Gl	-0.293184
-1.602733	I	0.1135913
-1.76187	I0	0.1471997
-3.264886	I0l	-0.3199973
-2.111769	Il	-0.1321124
-1.625527	J0	0.07663178
-2.580767	J0l	-0.3531151
-1.68837	K	-0.3718923
-1.76187	K0	-0.8330929
-3.1804	K0l	-0.325177
-1.795147	KH	-0.1393818
-2.580767	KH0	-0.300704
-3.1804	KHl	-0.3220389
-2.342934	Kl	-0.321763
-1.716295	L	-0.03471839
-1.625527	L0	-0.2593707
-2.580767	L0l	-0.2942774
-3.264886	Ll	-0.3109871
-1.662132	M	0.004764736
-1.730962	M0	-0.5782185
-3.264886	M0l	-0.3121603
-2.408719	Ml	-0.2645219
-1.602733	N	-0.2086126
-1.662132	N0	-0.2581935
-2.342934	N0l	-0.6097841
-2.235343	Nl	-0.5461642
-3.1804	O	-0.3291382
-1.512794	O0	-0.006994426
-2.701701	O0l	-0.2861229
-1.649584	P	-0.4281416
-1.891563	P0	-0.7077783
-3.264886	Pl	-0.3147884
-1.675053	R	-0.06587797
-1.68837	R0	-0.3784636
-3.1804	R0l	-0.325177
-1.68837	S	-0.4128424
-1.795147	S0	-0.136923
-2.486278	S0l	-0.2782367
-1.746141	SH	-0.3269868
-1.891563	SH0	-0.4638716
-3.1804	SHl	-0.3260289
-2.190131	Sl	-0.2077387
-1.637389	T	-0.3508838
-1.831187	T0	-0.2506294
-2.486278	T0l	-0.3059098
-1.913709	TS	-0.2264448
-1.716295	TSH0	-0.3786312
-3.1804	TSH0l	-0.3285746
-2.235343	Tl	-0.3495589
-1.591769	U	-0.02872235
-1.625527	U0	-0.0187816
-3.1804	U0l	-0.325745
-1.637389	V	-0.4791979
-1.716295	V0	-0.8899682
-2.408719	V0l	-0.2942774
-2.701701	Vl	-0.3105482
-1.795147	Y	0.08540761
-1.961709	Y0	0.1145276
-1.77819	Z	-0.3867783
-1.870491	Z0	-0.3830958
-3.264886	Z0l	-0.3162416
-1.77819	ZH	-0.4503224
-2.285815	Zl	-0.4604459

\2-grams:
-1.129119	<s> A	-0.08046918
-2.905907	<s> A0	-0.2303155
-1.937214	<s> B	-0.2430109
-2.905907	<s> B0	0.007671237
-1.564841	<s> D	-0.1475856
-2.507028	<s> D0	0.05766995
-2.171963	<s> E0	-0.2435154
-1.494009	<s> F	-0.2994681
-1.785672	<s> G	-0.02394444
-1.232102	<s> I	-0.0260786
-2.720049	<s> I0	-0.1197879
-1.259785	<s> J0	-0.8468509
-1.367355	<s> K	-0.7559932
-3.187089	<s> K0
-2.364738	<s> KH	-0.07425353
-3.187089	<s> Kl
-1.937214	<s> L	-0.4550475
-2.364738	<s> L0	0.01536226
-1.433125	<s> M	-0.2969866
-2.720049	<s> M0	-0.1570291
-1.158287	<s> N	-0.7881338
-1.25036	<s> N0	-0.8609596
-1.299676	<s> O0	-0.871689
-1.129119	<s> P	-0.5271987
-2.364738	<s> P0	0.1882678
-1.894091	<s> R	-0.3359292
-3.187089	<s> R0
-1.321085	<s> S	-0.1874097
-2.905907	<s> S0
-1.41915	<s> SH	-0.750424
-2.905907	<s> SH0
-3.187089	<s> Sl
-1.232102	<s> T	-0.5779179
-2.038917	<s> T0	-0.2384206
-2.905907	<s> TS	-0.2037912
-2.171963	<s> TSH0	-0.5466168
-1.937214	<s> U	-0.09874711
-1.232102	<s> V	0.05388168
-1.726002	<s> V0	0.02554655
-3.187089	<s> Vl
-2.905907	<s> Y
-1.985095	<s> Z	-0.2336988
-2.364738	<s> Z0	-0.1980113
-2.507028	<s> ZH	-0.07656112
-1.126644	<sil> A	-0.1143933
-2.458866	<sil> A0
-1.636516	<sil> B	-0.1082098
-2.177684	<sil> B0	0.007671237
-1.991826	<sil> D	-0.04880234
-2.177684	<sil> E0
-1.778805	<sil> F
-1.778805	<sil> G	-0.05255732
-2.458866	<sil> G0
-1.09067	<sil> I	-0.08670504
-1.636516	<sil> J0	-0.2470165
-1.529518	<sil> K	-0.1317885
-2.177684	<sil> K0	0.1022407
-2.458866	<sil> KH
-2.458866	<sil> L
-1.991826	<sil> L0	-0.1840103
-2.177684	<sil> M	-0.1532447
-2.458866	<sil> M0
-1.372142	<sil> N	-0.2511677
-1.778805	<sil> N0	-0.5340354
-1.991826	<sil> O0
-1.165869	<sil> P	-0.3401164
-2.177684	<sil> P0
-1.636516	<sil> R	-0.3567734
-2.458866	<sil> R0
-1.372142	<sil> S	-0.1906833
-1.778805	<sil> S0	-0.04276398
-1.44374	<sil> SH	-0.09312986
-2.458866	<sil> SH0
-1.778805	<sil> T	-0.06100646
-2.177684	<sil> T0
-1.991826	<sil> TSH0	-0.09251533
-2.177684	<sil> U
-2.177684	<sil> U0
-1.372142	<sil> V	-0.1163277
-2.177684	<sil> V0	-0.09498218
-2.458866	<sil> Y
-2.177684	<sil> Z
-2.177684	<sil> Z0	-0.05144464
-2.458866	<sil> ZH
-2.458866	<sil> Zl
-1.56738	A </s>
-1.661244	A <sil>	-0.05032866
-1.5271	A B	0.01113957
-2.001176	A B0	-0.03506461
-3.149348	A Bl
-1.472922	A D	-0.1886442
-1.56738	A D0	-0.4038759
-3.149348	A D0l
-2.682308	A Dl	-0.09421318
-2.001176	A E0	-0.577973
-1.717072	A F	-0.1089287
-2.868166	A F0
-3.149348	A Fl
-1.611781	A G	-0.2212024
-2.868166	A G0	-0.2198595
-2.868166	A GH	-0.119817
-2.868166	A Gl	-0.05462655
-1.635808	A I	0.0004811883
-2.326998	A I0	-0.1441443
-3.149348	A Il
-1.688262	A J0	-0.3137701
-3.149348	A J0l
-1.490241	A K	-0.4314597
-1.899473	A K0	-0.3486174
-3.149348	A K0l
-1.688262	A KH	-0.2605606
-3.149348	A Kl
-1.611781	A L	-0.2595926
-1.717072	A L0	-0.2285683
-2.868166	A L0l	-0.02955464
-1.589013	A M	-0.1658646
-1.611781	A M0	-0.5036374
-2.868166	A Ml	-0.0264819
-1.490241	A N	-0.5526167
-1.440228	A N0	-0.6757382
-2.220001	A Nl	-0.1326202
-2.220001	A O0	-0.2404601
-1.546773	A P	-0.2560045
-1.856351	A P0	0.02749774
-2.326998	A Pl	-0.5678137
-1.546773	A R	-0.3537134
-1.947354	A R0	-0.2735444
-3.149348	A R0l	0.103408
-1.42476	A S	-0.3412275
-1.717072	A S0	-0.343652
-2.682308	A S0l	-0.06442779
-1.747931	A SH	-0.282989
-2.134222	A SH0	0.1814003
-2.682308	A Sl	-0.1752001
-1.490241	A T	-0.2455191
-1.635808	A T0	-0.2455927
-1.899473	A TS	-0.06557025
-1.688262	A TSH0	-0.1104923
-2.682308	A Tl	0.07179695
-1.781152	A U	-0.06987806
-1.947354	A U0	-0.305656
-1.5271	A V	-0.5187519
-1.947354	A V0	-0.1861805
-3.149348	A V0l
-3.149348	A Vl
-2.682308	A Y	-0.1469723
-1.747931	A Z	-0.3326685
-1.899473	A Z0	-0.05317041
-1.661244	A ZH	-0.2420622
-3.149348	A Zl
-1.600954	A0 </s>
-2.253115	A0 <sil>	-0.0702622
-1.683301	A0 B	-0.03623757
-2.651994	A0 B0	-0.338791
-1.600954	A0 D	-0.2420831
-1.846452	A0 D0	-0.220857
-2.651994	A0 Dl
-2.651994	A0 E0	-0.1851732
-1.500901	A0 F	-0.2734267
-2.933177	A0 F0	-0.1281144
-1.731183	A0 G	-0.1492783
-2.933177	A0 G0	0.1631692
-2.253115	A0 GH	-0.03203116
-2.933177	A0 Gl
-1.785004	A0 I	-0.07509436
-1.351208	A0 J0	-0.7952634
-2.933177	A0 J0l	-0.03312548
-1.600954	A0 K	0.002737612
-2.466136	A0 K0	-0.6121984
-1.683301	A0 KH	-0.1119795
-2.466136	A0 KH0	-0.3673533
-2.651994	A0 Kl	-0.1051085
-1.330602	A0 L	-0.3652621
-1.395609	A0 L0	-0.4793044
-2.651994	A0 L0l
-2.933177	A0 Ll	-0.09641273
-1.640179	A0 M	-0.05508265
-1.640179	A0 M0	-0.581522
-2.933177	A0 Ml	-0.1489407
-1.47209	A0 N	-0.2764249
-1.53176	A0 N0	-0.7067063
-2.651994	A0 N0l
-2.253115	A0 Nl	0.2238724
-2.003829	A0 O0	-0.3333452
-1.56498	A0 P	-0.3374322
-1.500901	A0 R	-0.2042061
-1.918051	A0 R0	-0.5496368
-1.419637	A0 S	-0.1871216
-1.918051	A0 S0	-0.1339697
-1.683301	A0 SH	-0.1596124
-2.110826	A0 SH0	-0.7199537
-2.651994	A0 Sl
-1.419637	A0 T	-0.1182326
-1.419637	A0 T0	-0.2437364
-2.933177	A0 T0l
-2.003829	A0 TS	-0.2822246
-2.003829	A0 TSH0	-0.5366535
-2.933177	A0 Tl
-2.003829	A0 U	-0.03174642
-2.003829	A0 U0	-0.2680494
-1.683301	A0 V	-0.2619073
-1.846452	A0 V0	-0.498148
-2.651994	A0 Y
-1.600954	A0 Z	-0.2067451
-2.651994	A0 Z0	-0.1042359
-2.933177	A0 Z0l
-1.683301	A0 ZH	-0.3715682
-2.651994	A0 Zl	0.07601899
-1.491691	Al B	-0.09088124
-1.95873	Al B0
-1.278669	Al D	-0.3521197
-1.677548	Al D0	-0.01923702
-1.95873	Al D0l
-1.95873	Al Dl
-1.95873	Al F0
-1.677548	Al G
-1.491691	Al K
-1.95873	Al KH
-1.677548	Al N	-0.7640989
-1.029383	Al N0	-0.3308485
-1.13638	Al P	-0.2871474
-1.95873	Al R
-0.8720066	Al S	-0.1027758
-1.95873	Al S0	-0.1993476
-1.029383	Al T	-0.1365325
-1.95873	Al TSH0
-0.9658104	B A	-0.3189451
-1.224903	B A0	-0.1352352
-2.145715	B D	-0.1158698
-2.426897	B D0
-2.426897	B E0	-0.3555442
-2.426897	B J0	-0.5893248
-2.145715	B L	-0.3243659
-1.411771	B L0	-0.02580166
-2.426897	B M	-0.2002888
-1.959857	B N	-0.4790889
-2.426897	B N0	-0.1848334
-1.058701	B O0	-0.3130944
-1.094675	B R	-0.6380395
-1.497549	B R0	-0.08277202
-1.340173	B U	-0.2541632
-0.9946214	B U0	-0.445287
-2.426897	B V0	-0.1472611
-0.9658104	B Y	-0.2873563
-0.8449287	B Y0	-1.019458
-2.426897	B ZH
-1.859599	B0 A0	-0.1113952
-0.711427	B0 E0	-0.1050185
-0.3714945	B0 I	-0.409565
-0.9302514	B0 I0	-0.2264311
-1.392559	B0 J0	-0.3944973
-1.859599	B0 O0	-0.3734634
-1.859599	B0 U0
-0.2685344	Bl A0
-0.9462457	D A	-0.24422
-1.074305	D A0	-0.1566696
-1.826519	D Al	-0.174912
-1.68423	D B	-0.5324945
-2.506581	D B0
-2.506581	D E0
-1.826519	D G	-0.2877223
-2.506581	D J0	-0.1966576
-2.225398	D L	-0.2361881
-1.256706	D L0	-0.5039321
-2.506581	D M0
-1.491455	D N	-0.5437975
-1.577233	D N0	-0.3744775
-1.105164	D O0	-0.4043421
-1.105164	D R	-0.619978
-1.213583	D U	-0.09648924
-1.256706	D U0	-0.5686952
-1.304587	D V	-0.4749551
-1.256706	D V0	0.192624
-1.491455	D Y	-0.1566626
-2.039541	D Y0	-0.06763928
-1.826519	D Z	-0.3451297
-2.506581	D Z0
-1.826519	D ZH	-0.3322865
-1.819861	D0 A
-1.634003	D0 A0	-0.1738489
-1.420982	D0 B	-0.04270758
-1.819861	D0 B0	0.007671237
-0.6129388	D0 E0	-0.3571345
-1.278693	D0 G
-0.6129388	D0 I	-0.1641021
-1.420982	D0 I0	-0.5145734
-2.101043	D0 Il
-1.819861	D0 J0
-1.171696	D0 O0	-0.2496502
-2.101043	D0 Z
-1.819861	D0 ZH	-0.1000465
-0.5004645	D0l E0	-0.2246627
-0.6863223	D0l I	-0.2683532
-0.2685344	DZ G
-0.2685344	DZH0 D
-0.9154379	Dl A	-0.131614
-0.7024165	Dl A0	-0.1142978
-0.9154379	Dl R	-0.10023
-1.101296	Dl U0
-1.382478	Dl V
-1.836116	E0 </s>
-2.085403	E0 <sil>	-0.1784641
-2.085403	E0 A	-0.09694348
-1.750338	E0 B	-0.1672397
-1.617292	E0 D	-0.3171777
-1.836116	E0 D0	-0.1017262
-2.765464	E0 DZ
-1.943114	E0 F	-0.2656167
-2.765464	E0 F0
-1.943114	E0 G	0.002257422
-2.765464	E0 GH
-2.298424	E0 I
-1.472467	E0 J0	-0.1895356
-1.617292	E0 K	-0.1759367
-2.765464	E0 K0	0.1022407
-1.943114	E0 KH	-0.2054311
-1.433242	E0 L	-0.4995561
-1.56347	E0 L0	-0.5346947
-1.67874	E0 M	-0.01401126
-2.298424	E0 M0	-0.2661183
-2.765464	E0 M0l
-2.765464	E0 Ml
-1.515589	E0 N	-0.130873
-1.397268	E0 N0	-0.7437913
-2.298424	E0 N0l	0.1160576
-1.750338	E0 Nl	-0.1119197
-2.085403	E0 O0	-0.4036492
-1.67874	E0 P	-0.1196641
-2.298424	E0 P0	-0.03194429
-1.333189	E0 R	-0.2558184
-1.836116	E0 R0	-0.1909087
-1.433242	E0 S	-0.5937899
-1.67874	E0 S0	-0.3430769
-1.943114	E0 SH	-0.1442993
-2.085403	E0 SH0	-0.4693129
-2.484282	E0 Sl
-0.9839859	E0 T	-0.456606
-1.397268	E0 T0	-0.3047047
-1.943114	E0 TS	-0.2131454
-1.836116	E0 TSH0	-0.4074497
-2.765464	E0 Tl
-2.085403	E0 U
-2.765464	E0 U0
-1.750338	E0 V	-0.08774266
-1.943114	E0 V0	0.3849117
-1.836116	E0 Z	-0.1679226
-1.943114	E0 Z0	-0.09496971
-1.750338	E0 ZH	-0.5107526
-0.2883823	E0l T	-0.7169753
-1.971756	F </s>
-1.971756	F <sil>	-0.08093404
-1.352072	F A	-0.1638623
-2.438796	F A0
-2.438796	F E0
-2.157614	F J0	-0.1759157
-1.145799	F K	-0.5688643
-2.157614	F K0	0.05680841
-1.971756	F KH	-0.11823
-2.438796	F L
-2.438796	F M
-2.438796	F M0	-0.08381951
-1.971756	F N	-0.2148198
-1.758735	F O0	-0.3367024
-1.03738	F P	-0.4808575
-1.971756	F P0	-0.1870689
-1.509449	F R	-0.1655121
-2.438796	F R0	-0.08023465
-0.9506916	F S	-0.2873785
-0.8784612	F S0	-0.8171888
-1.188921	F SH	-0.8797039
-2.438796	F SH0	-0.001605421
-1.188921	F T	-0.4235856
-1.971756	F T0	-0.1354077
-2.438796	F TS
-1.971756	F TSH0
-2.157614	F V	-0.1006319
-1.758735	F Y	-0.07960181
-1.971756	F Y0
-1.080248	F0 E0	-0.08031686
-0.399116	F0 I	-0.0599664
-1.547288	F0 Il
-1.547288	F0 J0
-1.547288	F0 M0
-1.547288	F0 O0
-1.547288	F0 R0
-1.547288	F0 TSH0	-0.2082576
-1.547288	F0 V0l
-0.2685344	Fl P
-0.758647	G A	-0.3093772
-1.950714	G A0	-0.2826595
-2.417753	G Al	-0.1901349
-2.136571	G B	-0.1905874
-2.417753	G B0
-1.488406	G D	-0.7332024
-1.049557	G D0	-0.9292317
-1.016337	G L	-0.5248942
-1.167879	G L0	-0.5325389
-1.950714	G N	-0.1572295
-1.595403	G N0	0.0603627
-0.956667	G O0	-0.410367
-1.488406	G R	-0.3482856
-1.950714	G R0	-0.08999196
-1.124756	G U	-0.3827118
-1.269582	G U0	-0.2128309
-2.417753	G V
-1.595403	G Z	0.02353545
-2.417753	G ZH	-0.5536823
-0.2232032	G0 I	-0.2151693
-0.8428872	G0 I0	-0.1350745
-0.6402168	GH B	-0.07081789
-1.288382	GH D	-0.1207768
-0.7472138	GH G	-0.03399803
-0.7472138	GH Z	-0.119321
-1.569564	GH Z0
-1.569564	GH ZH
-0.4644735	Gl A
-0.7456557	Gl O0	-0.2220042
-1.758726	I </s>
-1.849729	I <sil>	-0.02460217
-1.719501	I A	-0.2405918
-2.371662	I A0	-0.119706
-1.758726	I B	-0.2086351
-1.849729	I B0	-0.318415
-1.619448	I D	-0.08060032
-1.801848	I D0	-0.234991
-2.371662	I Dl
-2.371662	I E0	-0.5985823
-1.849729	I F	0.1607367
-2.584683	I F0	-0.06327321
-1.538183	I G	-0.26862
-2.770541	I GH	-0.05496694
-1.514156	I J0	-0.4537365
-1.590637	I K	-0.2638727
-1.849729	I K0	0.1606321
-1.849729	I KH	-0.187902
-2.770541	I KH0
-3.051723	I Kl
-1.650307	I L	-0.2075751
-1.491388	I L0	-0.2190193
-2.770541	I L0l
-3.051723	I Ll	-0.09641273
-1.619448	I M	-0.2069196
-1.619448	I M0	-0.3935683
-3.051723	I Ml	-0.1799874
-1.491388	I N	-0.2898354
-1.514156	I N0	-0.3445076
-3.051723	I N0l
-1.849729	I Nl	-0.4896609
-1.758726	I O0	-0.4343319
-1.563619	I P	-0.4233566
-1.849729	I P0	-0.1523612
-1.590637	I R	-0.2740921
-1.758726	I R0	-0.6800696
-1.449148	I S	-0.2942909
-1.683527	I S0	-0.1811315
-3.051723	I S0l
-1.619448	I SH	-0.1264136
-1.964999	I SH0	-0.3619699
-3.051723	I SHl
-2.371662	I Sl
-1.514156	I T	-0.1081336
-1.719501	I T0	-0.3132945
-2.371662	I T0l	-0.05759104
-1.849729	I TS	-0.3875634
-1.719501	I TSH0	-0.2436171
-3.051723	I TSH0l	0.103408
-2.584683	I Tl	0.03215265
-1.964999	I U	-0.1157268
-2.229373	I U0	-0.2005731
-1.392617	I V	-0.4670165
-1.758726	I V0	-0.1673066
-3.051723	I V0l	-0.02955464
-2.770541	I Y	-0.2134196
-1.538183	I Z	-0.2257567
-2.036597	I Z0	-0.2388505
-1.903551	I ZH	-0.1312418
-2.371662	I Zl	-0.2704433
-1.535919	I0 </s>
-2.341461	I0 <sil>
-2.155603	I0 A	-0.08668707
-1.800292	I0 B	-0.1571675
-2.622643	I0 B0
-1.942582	I0 D	-0.4403585
-2.341461	I0 D0	-0.5898224
-2.341461	I0 Dl
-2.622643	I0 E0	-0.1851732
-1.800292	I0 F	-0.224224
-1.942582	I0 G	-0.140953
-2.341461	I0 G0	0.1631692
-1.942582	I0 GH	-0.1073855
-1.693295	I0 J0	-0.5374774
-1.607517	I0 K	-0.04557702
-2.622643	I0 K0
-1.329645	I0 KH	-0.1806248
-2.622643	I0 Kl
-1.372768	I0 L	-0.2212678
-1.474471	I0 L0	-0.8309811
-1.535919	I0 M	-0.04184115
-1.693295	I0 M0	-0.3249023
-1.221226	I0 N	-0.2746038
-1.535919	I0 N0	-0.5416809
-2.341461	I0 N0l	0.2864286
-2.155603	I0 Nl	0.1684097
-2.622643	I0 O0
-1.693295	I0 P	-0.159823
-2.622643	I0 P0
-1.942582	I0 R	-0.2817717
-2.341461	I0 R0	-0.0377534
-1.474471	I0 S	-0.1779975
-2.155603	I0 S0	-0.08995054
-1.942582	I0 SH	-0.4000856
-2.622643	I0 SH0
-2.622643	I0 Sl
-1.420649	I0 T	-0.2072831
-1.290421	I0 T0	-0.3172704
-1.693295	I0 TS	-0.2366772
-1.474471	I0 TSH0	-0.4931963
-2.155603	I0 U
-2.341461	I0 U0	-0.2033828
-1.693295	I0 V	-0.1830948
-2.622643	I0 V0
-1.800292	I0 Z	-0.1510618
-2.155603	I0 Z0	-0.1385117
-1.942582	I0 ZH	-0.07960784
-0.5695644	I0l KH
-0.5695644	I0l S
-1.517498	Il </s>
-1.984538	Il B	-0.1830191
-1.984538	Il D0
-1.984538	Il G
-1.984538	Il J0
-1.304476	Il K	-0.09925944
-1.984538	Il L
-1.05519	Il L0	-0.3971269
-1.984538	Il M
-1.703356	Il M0	-0.1115968
-1.304476	Il N	-0.1553391
-1.703356	Il N0
-1.304476	Il P	-0.1334124
-1.304476	Il S	-0.05611265
-1.984538	Il SH
-1.703356	Il T
-1.984538	Il T0	-0.1118304
-1.984538	Il T0l
-1.984538	Il U
-1.984538	Il U0
-1.703356	Il V
-1.304476	Il Z	-0.2028075
-1.703356	Il Z0
-1.703356	Il Zl	0.07601899
-1.81354	J0 </s>
-1.81354	J0 <sil>	-0.004318181
-1.620765	J0 A	-0.09152815
-1.053922	J0 A0	-0.1232497
-2.354708	J0 Al	-0.03619459
-1.81354	J0 B	-0.2202009
-2.354708	J0 B0	0.1601661
-1.81354	J0 D	-0.09394267
-1.955829	J0 D0	-0.1670266
-1.098323	J0 E0	-0.4942195
-2.16885	J0 F
-1.81354	J0 G	-0.1438729
-0.9113021	J0 I	-0.2465325
-1.955829	J0 Il	-0.05548496
-1.81354	J0 K	-0.1610177
-2.63589	J0 K0	0.1022407
-2.354708	J0 KH
-1.955829	J0 L	-0.1666793
-1.81354	J0 L0	-0.2429474
-2.16885	J0 M	-0.1467754
-2.16885	J0 M0	-0.3701456
-1.81354	J0 N	-0.3962035
-1.706543	J0 N0	-0.2990562
-1.706543	J0 O0	-0.1535743
-2.63589	J0 O0l
-1.81354	J0 P	-0.251721
-2.16885	J0 P0	-0.156883
-1.81354	J0 R	-0.3105592
-1.706543	J0 S	-0.2510577
-1.955829	J0 S0	-0.2462306
-1.81354	J0 SH	-0.178316
-2.63589	J0 SH0
-1.81354	J0 T	-0.2051932
-1.955829	J0 T0	-0.3243183
-2.354708	J0 TS	-0.1080943
-2.16885	J0 TSH0	-0.3006809
-1.303668	J0 U	-0.1165065
-1.81354	J0 U0	-0.03051654
-2.63589	J0 U0l	0.103408
-2.16885	J0 V	-0.05329114
-2.16885	J0 V0	0.1183931
-1.955829	J0 Z	-0.08844694
-2.63589	J0 ZH	-0.1142105
-0.8324503	J0l A0
-1.113632	J0l E0
-0.4335712	J0l I	-0.06824814
-1.659949	K </s>
-1.995013	K <sil>	-0.05996906
-0.9355501	K A	-0.3555973
-1.052827	K A0	-0.3725036
-1.995013	K Al	-0.04218356
-2.393893	K E0	-0.2306055
-1.745727	K F	-0.01296835
-2.393893	K J0	-0.08356325
-1.659949	K L	-0.256158
-1.526903	K L0	-0.1436831
-2.208035	K M	-0.08472921
-1.4252	K N	-0.2395492
-1.473081	K N0	-0.3139604
-1.213988	K O0	-0.3772615
-1.995013	K P	-0.1472598
-2.675075	K P0
-1.242799	K R	-0.5023177
-1.4252	K R0	-0.3713108
-1.745727	K S	-0.100027
-1.588351	K S0	-0.1811187
-2.393893	K SH	-0.4172489
-2.675075	K SH0
-1.306879	K T	-0.554934
-2.393893	K T0	-0.5165383
-2.208035	K TSH0	0.0207326
-1.161535	K U	-0.06317845
-1.382077	K U0	-0.2613698
-1.526903	K V	-0.3447685
-1.852724	K V0	-0.07909185
-1.995013	K Y	-0.04220892
-2.675075	K Y0	-0.1198558
-1.069433	K0 E0	-0.1403666
-0.269536	K0 I	-0.4763322
-0.8050598	K0 I0	-0.3403873
-1.069433	K0 Il
-0.2685344	K0l I
-1.37068	KH </s>
-2.104624	KH <sil>	-0.06420587
-0.8038375	KH A	-0.3815126
-2.104624	KH F	-0.08333407
-1.918766	KH J0	-0.1298338
-1.37068	KH K	-0.1574766
-2.104624	KH K0	-0.1650403
-1.918766	KH L	-0.163397
-1.705744	KH L0	-0.04424633
-1.563455	KH M	-0.3565591
-2.104624	KH M0	0.003966317
-1.299082	KH N	-0.1313603
-1.563455	KH N0	-0.1468335
-1.299082	KH O0	-0.2609097
-1.37068	KH P	-0.2727506
-2.104624	KH P0	-0.03194429
-1.705744	KH R	-0.2310131
-2.385806	KH R0
-1.563455	KH S
-1.918766	KH S0	-0.1746948
-2.385806	KH S0l
-2.104624	KH SH
-1.918766	KH T	-0.07864225
-2.385806	KH TS	-0.2166753
-1.918766	KH TSH0	-0.1724038
-2.104624	KH U
-1.705744	KH U0	-0.2578115
-1.456458	KH V	-0.1157422
-2.385806	KH V0
-1.705744	KH Y
-2.104624	KH Y0
-0.5796458	KH0 I	-0.1715134
-1.046686	KH0 I0
-0.7655035	KH0 Il
-0.2685344	KHl A
-0.5884731	Kl A	-0.2370604
-0.8014945	Kl A0	-0.3861845
-0.9873523	Kl R
-1.268534	Kl T
-1.509529	L </s>
-2.19066	L <sil>	-0.0450864
-1.035453	L A	-0.1251317
-1.256284	L A0	-0.08269808
-1.642575	L Al	-0.2840565
-2.19066	L B	-0.08438869
-2.657701	L B0
-1.83535	L D	-0.2801095
-2.376518	L E0	-0.1851732
-1.728353	L F	-0.08861287
-2.657701	L F0
-1.728353	L G	-0.1964709
-1.728353	L J0	-0.5612297
-1.570977	L K	-0.1513072
-2.19066	L K0	-0.2442216
-2.657701	L KH
-2.657701	L Kl
-1.83535	L M	-0.1716498
-2.376518	L M0
-1.509529	L N	-0.6404407
-1.728353	L N0	-0.3452002
-1.144161	L O0	-0.3612969
-1.509529	L P	-0.3241284
-2.657701	L P0
-2.657701	L R	-0.10023
-2.657701	L R0
-1.570977	L S	-0.1464931
-1.642575	L S0	-0.9875314
-2.657701	L S0l
-1.728353	L SH	-0.6063052
-2.657701	L SH0
-1.642575	L T	-0.2196487
-2.19066	L TSH0	-0.03722134
-1.407826	L U	-0.2660853
-1.407826	L U0	-0.2230991
-1.509529	L V	-0.02980682
-2.657701	L V0
-2.657701	L V0l	-0.1216925
-1.325478	L Y	-0.1751388
-1.728353	L Y0	-0.330516
-2.657701	L Z	-0.1900051
-2.376518	L Z0	-0.05144464
-2.19066	L ZH	-0.254248
-2.011009	L0 </s>
-2.011009	L0 <sil>
-2.196867	L0 A	-0.08845509
-1.391325	L0 A0	-0.1432544
-2.196867	L0 B
-2.47805	L0 D	-0.2287639
-1.016963	L0 E0	-0.3781546
-2.47805	L0 E0l
-0.7101105	L0 I	-0.2006411
-1.045774	L0 I0	-0.2273088
-1.462924	L0 Il	-0.1553856
-2.196867	L0 J0	-0.08377784
-2.011009	L0 K	-0.9824225
-2.47805	L0 K0
-2.196867	L0 M
-2.47805	L0 M0	-0.08381951
-1.548702	L0 N	-0.6283394
-2.196867	L0 N0	-0.2686136
-1.329877	L0 O0	-0.3109552
-2.196867	L0 P	-0.06449649
-1.655699	L0 S	-0.2283266
-2.011009	L0 S0
-2.011009	L0 SH	-0.4283977
-2.196867	L0 T	-0.06100646
-2.196867	L0 TS
-2.47805	L0 TSH0	-0.47967
-1.185052	L0 U	-0.3396541
-1.391325	L0 U0	-0.1472289
-2.196867	L0 V0	-0.08769643
-2.47805	L0 Z
-2.196867	L0 Z0	-0.4210999
-1.113632	L0l E0
-0.6465926	L0l I
-0.6465926	L0l I0	-0.08614996
-0.5695644	Ll O0	-0.2271146
-0.5695644	Ll U	-0.2268752
-1.531982	M </s>
-1.750807	M <sil>	-0.07016604
-1.003729	M A	-0.19161
-1.166614	M A0	-0.2489889
-2.398972	M Al
-1.857804	M B	0.009463102
-2.213114	M B0	-0.1626998
-1.857804	M D	-0.06895815
-2.398972	M D0	-0.01923702
-2.398972	M E0	-0.2306055
-2.000093	M F	-0.2504649
-1.750807	M G	-0.08133844
-2.000093	M J0	-0.3002048
-1.665028	M K	-0.244149
-2.680154	M K0
-2.000093	M KH
-2.398972	M L	-0.07519632
-1.857804	M L0	-0.03635716
-1.387157	M N	-0.6729077
-1.387157	M N0	-0.7937741
-1.142587	M O0	-0.3494803
-1.59343	M P	-0.2074831
-2.398972	M P0	-0.156883
-1.857804	M R	-0.06150683
-2.680154	M R0	-0.1968791
-1.59343	M S	-0.09124312
-2.000093	M S0	-0.2066184
-2.213114	M SH	-0.03082993
-1.750807	M T	-0.2069195
-2.000093	M T0	-0.04610675
-2.680154	M TS
-2.000093	M TSH0	-0.1157122
-1.531982	M U	-0.1189303
-1.665028	M U0	-0.05037177
-2.213114	M V	-0.01110261
-2.000093	M V0	0.1738558
-1.387157	M Y	-0.07689928
-1.387157	M Y0	-0.1354024
-2.000093	M Z	-0.6159739
-2.680154	M Z0
-2.213114	M ZH	-0.1644746
-2.074714	M0 </s>
-1.607674	M0 A	-0.1072202
-1.793532	M0 A0	-0.2084286
-2.074714	M0 Al
-2.074714	M0 D0	-0.1113749
-0.6136279	M0 E0	-0.1969487
-0.5371472	M0 I	-0.2590918
-0.9265423	M0 I0	-0.1085737
-2.074714	M0 I0l
-1.394653	M0 Il	-0.04497941
-2.074714	M0 J0	-0.2714557
-1.793532	M0 L0	-0.1888341
-2.074714	M0 T
-2.074714	M0 TSH0	-0.1332078
-0.5695644	M0l E0
-0.5695644	M0l I
-0.755737	Ml A	-0.1497648
-0.9415948	Ml A0	-0.1973527
-0.9415948	Ml O0
-1.222777	Ml U0
-1.222777	Ml Y0
-1.63362	N </s>
-2.367563	N <sil>	-0.08212724
-0.8672675	N A	-0.2321936
-1.088411	N A0	-0.1879063
-1.63362	N Al	-0.1010357
-1.968684	N B	-0.2263037
-1.968684	N D	-0.1298035
-2.367563	N D0	-0.04819658
-2.367563	N E0
-1.968684	N F	-0.1197581
-2.367563	N G
-2.367563	N J0	-0.1680032
-1.826395	N K	-0.4243175
-2.367563	N K0	-0.1650403
-2.648746	N KH	-0.06638782
-2.367563	N L0
-2.648746	N M	-0.2002888
-1.026498	N O0	-0.2037345
-1.968684	N P	-0.1645876
-2.648746	N P0	0.01348795
-2.181706	N R	-0.1351983
-2.648746	N R0	-0.219036
-1.562022	N S	-0.1995346
-2.367563	N S0	-0.1270408
-2.648746	N SH0
-1.826395	N T	-0.1712708
-1.968684	N TS	-0.2404502
-2.648746	N TSH0
-1.135206	N U	-0.3162313
-1.135206	N U0	-0.3415704
-1.826395	N V	-0.05033163
-1.968684	N V0	0.1053267
-1.026498	N Y	-0.3930613
-1.562022	N Y0	-0.2040698
-2.648746	N Z	-0.1990017
-2.648746	N Z0	-0.05144464
-2.181706	N ZH	-0.2894134
-2.382478	N0 </s>
-2.101296	N0 A
-1.702416	N0 A0	-0.1314678
-2.382478	N0 D
-2.382478	N0 D0	-0.1113749
-0.8449105	N0 E0	-0.290057
-2.382478	N0 G	-0.1949899
-2.382478	N0 G0	-0.007201821
-0.6429533	N0 I	-0.2982803
-0.9810612	N0 I0	-0.09302208
-1.08948	N0 Il	-0.1656421
-1.702416	N0 J0	-0.3234041
-2.101296	N0 K	-0.1705958
-2.382478	N0 K0	-0.4203129
-2.382478	N0 KH	-0.1585257
-2.382478	N0 L0
-2.382478	N0 M
-1.560127	N0 O0	-0.04976385
-2.382478	N0 P
-2.382478	N0 R	-0.1776795
-2.382478	N0 R0
-2.382478	N0 S
-2.382478	N0 S0
-2.382478	N0 SH	-0.2043299
-2.101296	N0 SH0	-0.6821651
-2.101296	N0 T	-0.1944218
-1.915438	N0 T0	-0.2832572
-1.915438	N0 TSH0	-0.1876366
-1.367352	N0 U	-0.2536587
-2.382478	N0 U0
-2.101296	N0 V
-0.1564987	N0l I	-0.1484966
-1.171624	N0l I0
-0.5040298	Nl A	-0.2507209
-1.590754	Nl A0
-1.590754	Nl O0	-0.2449196
-1.123714	Nl U	-0.1216323
-0.5040298	Nl Y	-0.7090496
-0.2685344	O KH
-1.612025	O0 </s>
-2.62384	O0 <sil>	-0.09367673
-1.889897	O0 A	-0.119271
-1.75685	O0 B	-0.3438279
-1.975675	O0 B0	-0.736731
-1.612025	O0 D	-0.2795548
-1.975675	O0 D0	-0.1533802
-2.905022	O0 D0l	-0.06787319
-2.905022	O0 DZH0
-2.905022	O0 Dl
-2.62384	O0 E0	-0.5985823
-1.536826	O0 F	-0.02557579
-2.224961	O0 F0	-0.06631193
-1.818298	O0 G	-0.3919882
-2.62384	O0 G0	-0.2502399
-1.889897	O0 I	-0.1069873
-2.905022	O0 I0
-1.503606	O0 J0	-0.2419902
-2.437982	O0 J0l
-1.391483	O0 K	0.001580164
-2.224961	O0 K0	-0.4203129
-2.082672	O0 KH	-0.1389108
-1.472747	O0 L	-0.3916965
-1.612025	O0 L0	-0.5980316
-1.472747	O0 M	-0.1330582
-1.889897	O0 M0	-0.3430406
-2.905022	O0 M0l
-2.62384	O0 Ml
-1.180434	O0 N	0.06090885
-1.703029	O0 N0	-0.5955647
-1.75685	O0 N0l	-0.2361249
-1.655147	O0 Nl	-0.2316018
-1.503606	O0 P	-0.2618953
-2.905022	O0 P0
-1.391483	O0 R	-0.4989925
-2.224961	O0 R0	-0.3544706
-1.472747	O0 S	-0.2654808
-1.889897	O0 S0	-0.2213793
-2.62384	O0 S0l
-1.889897	O0 SH	-0.2598056
-2.437982	O0 SH0	0.0196764
-2.62384	O0 Sl	-0.1629154
-1.323054	O0 T	-0.1190501
-2.082672	O0 T0	-0.4521001
-2.224961	O0 TS	-0.6412034
-1.443936	O0 TSH0	-0.6590408
-2.437982	O0 Tl
-1.975675	O0 U	-0.03545867
-1.612025	O0 V	-0.4557565
-1.975675	O0 V0	-0.195976
-2.905022	O0 Vl
-1.818298	O0 Z	-0.1750228
-2.224961	O0 Z0	-0.03082319
-1.612025	O0 ZH	-0.9676718
-2.62384	O0 Zl	0.1681569
-1.113632	O0l G
-0.8324503	O0l N	-0.07543965
-1.113632	O0l N0l	0.1160576
-1.113632	O0l Nl
-1.113632	O0l P
-1.113632	O0l TSH0
-2.25217	P <sil>	-0.2139094
-0.7938278	P A	-0.2590111
-1.283477	P A0	-0.2026248
-1.711002	P Al	-0.06958442
-1.853291	P K	-0.4258961
-1.853291	P K0	-0.1563081
-2.25217	P KH
-1.331358	P L	-0.4178938
-1.604005	P L0	-0.1842075
-2.533352	P M	-0.1874019
-2.25217	P N
-2.533352	P N0
-0.995785	P O0	-0.3260545
-0.9111045	P R	-1.004137
-0.9307775	P R0	-0.8734126
-2.066312	P S	-0.270211
-2.533352	P SH	-0.1588976
-1.853291	P SH0	-0.2864831
-2.25217	P T
-2.25217	P T0	-0.2408802
-2.533352	P TS
-1.853291	P TSH0	-0.04944937
-1.331358	P U	-0.5394408
-2.066312	P U0	-0.08189628
-2.25217	P V
-1.853291	P Y	-0.1040995
-2.25217	P Y0	-0.1393486
-1.357797	P0 A0	-0.416456
-0.6766649	P0 E0	-0.5875379
-0.3637504	P0 I	-0.4474148
-0.8954893	P0 I0	-0.1755017
-1.824837	P0 O0
-0.5695644	Pl A	-0.6916382
-0.5695644	Pl Y
-2.09816	R </s>
-2.284018	R <sil>
-0.888774	R A	-0.259622
-0.9241316	R A0	-0.313989
-2.284018	R Al
-2.5652	R B	-0.4449366
-2.284018	R D
-2.5652	R F0
-1.885138	R G	-0.2078998
-2.5652	R G0
-2.5652	R J0
-1.635852	R K	-0.1809902
-1.885138	R K0	-0.2442216
-2.09816	R KH	-0.06590828
-2.5652	R KH0
-2.5652	R L	-0.3783539
-2.5652	R L0	-0.08709472
-1.885138	R M	-0.1787973
-2.5652	R M0
-1.635852	R N	-0.406922
-1.885138	R N0	-0.1750551
-1.232977	R O0	-0.2551784
-2.5652	R P
-2.5652	R P0	-0.2280872
-1.885138	R S	-0.1259771
-1.885138	R S0	-0.3630814
-2.09816	R SH	-0.1678303
-2.5652	R SH0	-0.07246147
-1.635852	R T	-0.05311656
-2.09816	R T0	-0.4450153
-2.5652	R TS	-0.05501113
-2.09816	R TSH0	-0.09072652
-1.05166	R U	-0.308497
-1.104113	R U0	-0.2788896
-2.09816	R V	-0.1068202
-2.5652	R V0
-1.478476	R Y	-0.2557248
-1.635852	R Y0	-0.2544285
-2.5652	R Z	-0.2105546
-2.5652	R Z0	-0.1204973
-2.284018	R ZH	-0.4507332
-2.187613	R0 </s>
-1.90643	R0 A	-0.1286871
-1.039441	R0 A0	-0.1364275
-0.8553902	R0 E0	-0.2485957
-2.187613	R0 F	-0.1811486
-0.528506	R0 I	-0.1086656
-1.100889	R0 I0	-0.1411022
-1.720573	R0 J0	-0.1417204
-2.187613	R0 L0	-0.1391622
-2.187613	R0 M
-2.187613	R0 N	-0.1693876
-2.187613	R0 O
-1.507551	R0 O0	-0.2545961
-2.187613	R0 P	-0.1785702
-1.90643	R0 S	-0.2425926
-2.187613	R0 T
-2.187613	R0 U
-1.90643	R0 U0
-1.90643	R0 V
-2.187613	R0 V0
-2.187613	R0 Z	-0.1445729
-2.187613	R0 ZH
-0.2685344	R0l I	-0.2170264
-1.904066	S </s>
-1.797069	S <sil>	-0.07171145
-1.104169	S A	-0.2658657
-1.394194	S A0	-0.4492421
-2.259376	S Al	-0.1076655
-2.046355	S F	-0.1625153
-2.445234	S F0	-0.05711278
-2.445234	S J0	-0.1045197
-1.06731	S K	-0.6458614
-1.35822	S K0	-0.2252312
-2.259376	S KH	-0.02674352
-1.212877	S L	-0.6005575
-1.476541	S L0	-0.7891952
-1.578244	S M	-0.4832554
-1.639692	S M0	-0.2100557
-1.476541	S N	-0.3474163
-2.726416	S N0
-1.433419	S O0	-0.2643328
-1.294141	S P	-0.4750743
-1.711291	S P0	0.03654504
-1.797069	S R	-0.3112895
-2.046355	S R0	-0.221921
-2.259376	S SH	-0.06242509
-1.123842	S T	-0.6407614
-2.445234	S TSH0	-0.001425587
-1.904066	S U	-0.06050407
-1.904066	S U0	-0.1668112
-1.294141	S V	-0.6102236
-1.394194	S V0	-0.3334919
-1.797069	S Y	-0.09986719
-1.639692	S Y0	-0.2264297
-1.915438	S0 </s>
-1.702416	S0 <sil>	-0.03091843
-1.45313	S0 A	-0.03598076
-1.915438	S0 A0	-0.4311434
-2.382478	S0 Al	-0.09799708
-1.014282	S0 E0	-0.1417399
-2.382478	S0 E0l	-0.3900909
-1.915438	S0 F	-0.1919325
-0.779903	S0 I	-0.2880351
-1.295754	S0 I0	-0.2757384
-2.101296	S0 J0
-1.915438	S0 K	-0.07577132
-2.382478	S0 K0
-2.101296	S0 L0	-0.09609686
-1.915438	S0 M	-0.3361701
-2.382478	S0 M0	-0.1780044
-2.101296	S0 N
-1.45313	S0 N0	-0.1072144
-2.101296	S0 O0	-0.1481962
-1.915438	S0 P	-0.3571912
-2.382478	S0 P0	0.01348795
-2.101296	S0 R	-0.08053304
-2.382478	S0 R0
-1.915438	S0 SH	-0.5090743
-1.915438	S0 T	-0.1551886
-0.9810612	S0 T0	-0.331114
-2.382478	S0 T0l
-1.915438	S0 TSH0	-0.001425587
-2.382478	S0 Tl
-1.915438	S0 U	-0.2092109
-2.101296	S0 U0	-0.09591213
-1.702416	S0 V	-0.04723099
-1.222777	S0l A
-0.9415948	S0l I
-0.9415948	S0l I0	-0.09207439
-1.222777	S0l Il
-0.755737	S0l T0	-0.1146337
-2.408413	SH </s>
-1.260242	SH A	-0.2000065
-1.32169	SH A0	-0.1160665
-1.260242	SH E0	-0.1323903
-2.408413	SH F
-2.408413	SH I
-2.127231	SH I0
-2.127231	SH J0
-1.32169	SH K	-0.4217309
-1.941374	SH K0	-0.2074606
-1.728352	SH L	-0.3216154
-1.393288	SH L0	-0.5472488
-2.127231	SH M
-1.728352	SH N	-0.4585338
-1.586063	SH N0	-0.06702292
-1.479066	SH O0	-0.4480836
-1.586063	SH P	-0.002693996
-1.941374	SH S
-0.8264453	SH T	-1.091041
-1.728352	SH U	-0.1885508
-2.408413	SH U0
-2.127231	SH V
-2.408413	SH V0
-0.8058388	SH Y	-0.1406149
-1.586063	SH Y0	-0.1363198
-1.911987	SH0 </s>
-1.911987	SH0 A
-1.231926	SH0 A0	-0.06195887
-0.9826395	SH0 E0	-0.162368
-0.5105705	SH0 I	-0.362968
-1.444947	SH0 I0	-0.1294632
-0.9826395	SH0 O0	-0.1175272
-1.911987	SH0 R0
-1.231926	SH0 U	-0.171289
-1.444947	SH0 U0	-0.1812545
-0.2685344	SHl T
-0.8933419	Sl A
-1.035631	Sl K	-0.3548864
-1.715693	Sl K0	-0.03136936
-1.248653	Sl L
-1.43451	Sl L0	-0.1888341
-1.43451	Sl M
-1.715693	Sl M0
-1.715693	Sl N
-1.715693	Sl O0
-1.43451	Sl P	-0.2342303
-1.248653	Sl T	-0.02631348
-1.715693	Sl U
-1.715693	Sl V
-1.715693	Sl Y
-1.43943	T </s>
-1.717302	T <sil>	-0.08015583
-1.073321	T A	-0.2594919
-1.11018	T A0	-0.3632033
-2.732427	T Al
-2.265388	T E0	-0.239602
-2.052366	T F	-0.003011554
-1.80308	T J0	-0.5031032
-1.530434	T K	-0.1745207
-1.717302	T K0	-0.1523962
-2.265388	T KH	-0.11823
-2.451245	T L	-0.05897373
-1.645703	T L0	-0.2189281
-2.265388	T M
-2.052366	T M0	0.1562095
-1.482553	T N	-0.3092197
-1.717302	T N0	-0.5491348
-1.056002	T O0	-0.2863868
-2.732427	T O0l	-0.3231338
-1.645703	T P	-0.5614907
-2.451245	T P0	0.1012738
-1.300152	T R	-0.5700326
-1.364231	T R0	-0.5085958
-1.645703	T S	-0.07336257
-2.265388	T S0	-0.1534121
-1.80308	T SH	-0.5180708
-2.265388	T TSH0	-0.1175705
-1.43943	T U	-0.02065241
-1.530434	T U0	-0.1233485
-1.530434	T V	-0.4039984
-1.717302	T V0	-0.2331076
-1.482553	T Y	-0.1469192
-1.331011	T Y0	-0.1076552
-1.337846	T0 </s>
-1.805957	T0 <sil>	-0.08649406
-1.470893	T0 A	-0.0654139
-1.663668	T0 A0	-0.1074805
-1.193021	T0 E0	-0.2055076
-1.805957	T0 F	-0.01291787
-2.486018	T0 F0	-0.01168054
-0.9256835	T0 I	-0.1811175
-1.084602	T0 I0	-0.1903714
-1.470893	T0 J0	-0.2572018
-1.556671	T0 K	-0.07617791
-2.486018	T0 L
-2.204836	T0 L0	-0.006795928
-1.663668	T0 M	-0.1598898
-2.204836	T0 M0	-0.1570291
-1.556671	T0 N	-0.381221
-1.470893	T0 N0	-0.5552663
-1.236143	T0 O0	-0.169422
-1.663668	T0 P	-0.1068988
-2.486018	T0 R
-2.486018	T0 R0
-1.556671	T0 S	-0.1877189
-1.663668	T0 S0	-0.2321889
-1.805957	T0 SH	-0.2962221
-2.204836	T0 Sl
-1.663668	T0 U
-2.486018	T0 U0	-0.1112449
-1.663668	T0 V	-0.2029066
-1.805957	T0 V0	-0.137984
-2.486018	T0 V0l
-0.5796458	T0l I	-0.134427
-0.5796458	T0l I0
-1.652753	TS </s>
-2.119793	TS <sil>
-0.8699178	TS A	-0.1530359
-1.439731	TS A0	-0.04974094
-1.652753	TS Al	-0.03834514
-1.190445	TS E0	-0.06682494
-2.119793	TS F
-2.119793	TS K	-0.1132305
-1.838611	TS K0	-0.06661523
-2.119793	TS L0
-1.838611	TS M0	-0.1115968
-1.838611	TS N	-0.07724974
-1.652753	TS O0	-0.164438
-2.119793	TS P
-2.119793	TS S	-0.1289857
-1.104667	TS T	-0.2991139
-1.838611	TS U	-0.2417364
-1.439731	TS U0	-0.1152186
-2.119793	TS V
-1.439731	TS V0	-0.1222026
-0.9716207	TS Y	-0.1313772
-1.838611	TS Y0
-1.880676	TSH0 </s>
-2.066534	TSH0 <sil>	-0.2020444
-2.347716	TSH0 A
-0.9462991	TSH0 A0	-0.384677
-0.9795197	TSH0 E0	-0.3877035
-2.347716	TSH0 F
-0.6886091	TSH0 I	-0.4586929
-1.260992	TSH0 I0	-0.3242949
-2.066534	TSH0 K	-0.5926095
-1.880676	TSH0 K0	-0.5800136
-1.418368	TSH0 N	-0.8015887
-1.667654	TSH0 N0	-0.3879073
-1.33259	TSH0 O0	-0.0881535
-2.347716	TSH0 P
-1.880676	TSH0 R0	-0.3475156
-2.347716	TSH0 S
-2.347716	TSH0 SH	-0.5053599
-1.525365	TSH0 T	-0.2739449
-2.066534	TSH0 T0	-0.391117
-1.525365	TSH0 U
-1.260992	TSH0 U0	-0.230763
-2.347716	TSH0 V
-2.347716	TSH0 V0
-0.2685344	TSH0l I0	-0.2179321
-0.4838576	Tl A	-0.1631476
-1.217801	Tl A0
-1.217801	Tl O0
-1.498983	Tl R
-1.498983	Tl R0
-1.217801	Tl U	-0.2150986
-1.217801	Tl U0
-1.399872	U </s>
-1.653117	U <sil>	-0.07264763
-1.714565	U A	-0.1010112
-2.801289	U A0	-0.218821
-1.653117	U B	-0.1836089
-1.551414	U B0	-0.2626036
-1.399872	U D	-0.3858501
-1.871941	U D0	-0.229026
-2.334249	U E0	-0.09303536
-1.978938	U F	-0.08434978
-2.520107	U F0	-0.05711278
-1.551414	U G	-0.2040051
-2.520107	U G0	-0.6879842
-2.801289	U GH
-1.786163	U I	-0.08595598
-1.369013	U J0	-0.5837585
-1.599295	U K	-0.3565664
-2.520107	U K0	-0.3396103
-1.871941	U KH	-0.2280064
-1.871941	U L	-0.07405098
-1.871941	U L0	-0.2862599
-1.786163	U M	-0.1488882
-1.714565	U M0	-0.3447542
-1.599295	U N	-0.2214017
-1.551414	U N0	-0.6035637
-2.801289	U O0
-1.399872	U P	0.03259483
-1.871941	U P0	-0.2017141
-1.714565	U R	-0.1270272
-2.334249	U R0	-0.09262085
-1.263722	U S	-0.303945
-1.786163	U S0	-0.2038102
-1.871941	U SH	-0.06663714
-1.978938	U SH0	-0.5950967
-1.469067	U T	-0.1451958
-1.599295	U T0	-0.1419908
-2.801289	U TS
-1.469067	U TSH0	-0.3381154
-2.801289	U Tl
-1.469067	U V	-0.08226846
-1.714565	U V0	0.3571336
-2.801289	U V0l
-1.653117	U Z	-0.04734369
-2.520107	U Z0
-2.801289	U Z0l	-0.09641273
-1.551414	U ZH	-0.1332584
-1.468667	U0 </s>
-1.687492	U0 <sil>	-0.0273774
-1.687492	U0 A	-0.03445663
-1.794489	U0 B	-0.2226734
-2.335657	U0 B0	-0.2596098
-1.530115	U0 D	-0.2849433
-2.149799	U0 D0	-0.8557771
-2.616839	U0 E0
-1.936778	U0 F	-0.1942473
-2.616839	U0 F0	-0.01168054
-2.149799	U0 G	-0.2640668
-1.936778	U0 I	-0.1029479
-1.414845	U0 J0	-0.6199929
-1.323842	U0 K	-0.1560425
-1.530115	U0 KH	-0.1368748
-2.335657	U0 KH0	-0.007934406
-2.149799	U0 L	-0.1040955
-1.414845	U0 L0	-0.4127327
-1.601714	U0 M	-0.6370544
-2.335657	U0 M0	-0.1292517
-1.687492	U0 N	-0.2627594
-2.335657	U0 N0	-0.1660586
-2.335657	U0 O0	-0.1246951
-1.530115	U0 P	-0.09535472
-2.616839	U0 Pl
-1.794489	U0 R	-0.1088846
-1.687492	U0 R0	-0.3899359
-1.366964	U0 S	-0.1069268
-1.936778	U0 S0	-0.2172308
-1.184564	U0 SH	-0.08648616
-2.335657	U0 SH0	-0.07246147
-2.149799	U0 Sl	-0.3406419
-1.414845	U0 T	-0.06366956
-1.936778	U0 T0	-0.1272163
-2.149799	U0 TS	-0.2242312
-1.687492	U0 TSH0	-0.2783092
-2.616839	U0 Tl	-0.1054175
-1.936778	U0 V
-1.936778	U0 V0	-0.02773491
-2.616839	U0 Z
-2.335657	U0 Z0
-1.184564	U0 ZH	-0.6812982
-0.2685344	U0l L0	-0.1385781
-1.030102	V A	-0.2823136
-1.191263	V A0	-0.3231197
-1.565626	V Al	-0.045801
-1.972288	V B	-0.08692921
-2.18531	V B0	-0.04675755
-1.450356	V D	-0.1973977
-1.972288	V D0	-0.3786559
-1.723002	V E0	-0.6545753
-1.402475	V G	-0.09039649
-1.637224	V J0	-0.2469119
-2.18531	V L	-0.1549981
-1.723002	V L0	-0.5291077
-1.637224	V M	-0.2479336
-1.829999	V M0	-0.1833398
-1.504178	V N	-0.1780708
-1.450356	V N0	-0.3144059
-1.13881	V O0	-0.1139448
-2.65235	V O0l
-1.250933	V R	-0.312198
-1.829999	V R0	-0.5268644
-1.972288	V U	-0.09874711
-1.637224	V U0	-0.1451739
-1.070382	V Y	-0.2893561
-1.191263	V Y0	-0.09845488
-1.402475	V Z	-0.1846941
-1.972288	V Z0	-0.2989195
-2.18531	V ZH	-0.02690449
-1.868166	V0 A0	-0.2311024
-2.149348	V0 B
-0.5467733	V0 E0	-0.3803909
-0.5271003	V0 I	-0.4846636
-0.7479315	V0 I0	-0.3890409
-2.149348	V0 Il
-2.149348	V0 J0	-0.1759157
-1.001176	V0 O0	-0.4010302
-0.6465926	V0l E0	-0.2054054
-0.6465926	V0l I	-0.09405637
-1.113632	V0l I0
-0.2786157	Vl A
-1.479557	Y </s>
-1.714307	Y <sil>	-0.1316549
-1.58126	Y A	-0.1285938
-1.642708	Y B	-0.09294209
-2.262392	Y B0	0.2444429
-1.642708	Y D	-0.2677335
-2.262392	Y D0	-0.01923702
-2.729432	Y E0	-0.2306055
-1.527439	Y F	-0.1558861
-1.642708	Y G	-0.09668824
-2.049371	Y GH	-0.02534677
-1.714307	Y I	-0.1757605
-2.729432	Y I0
-1.436435	Y J0	-0.2787531
-2.44825	Y J0l
-1.527439	Y K	-0.2131255
-2.049371	Y K0	-0.1650403
-1.642708	Y KH	-0.04516028
-2.729432	Y Kl	-0.06594973
-1.907082	Y L	-0.4752736
-1.479557	Y L0	-0.3909953
-1.39721	Y M	0.01954329
-1.642708	Y M0	-0.3537507
-2.729432	Y Ml
-1.58126	Y N	-0.3390506
-1.714307	Y N0	-0.6020254
-2.44825	Y Nl	0.1684097
-1.714307	Y O0	-0.2124715
-1.39721	Y P	-0.2332753
-1.907082	Y R	-0.3052666
-2.44825	Y R0
-1.361236	Y S	-0.1790757
-2.049371	Y S0	-0.2641724
-1.642708	Y SH	-0.1101279
-2.262392	Y SH0	-0.05323492
-2.729432	Y Sl
-1.527439	Y T	-0.04744141
-2.049371	Y T0	-0.2942231
-2.729432	Y T0l
-2.729432	Y TS
-1.800085	Y TSH0	-0.2817961
-2.262392	Y U
-1.436435	Y V	-0.5337869
-1.800085	Y V0	-0.1467986
-1.642708	Y Z	-0.2701551
-2.049371	Y Z0	-0.1011013
-2.262392	Y ZH	-0.05799063
-2.729432	Y Zl
-1.595403	Y0 </s>
-2.136571	Y0 <sil>	-0.09807058
-2.417753	Y0 A
-1.595403	Y0 B	-0.03244747
-2.417753	Y0 B0	0.007671237
-2.136571	Y0 D	-0.1238066
-2.417753	Y0 D0
-2.417753	Y0 D0l	-0.1326167
-1.737692	Y0 F	-0.1787362
-1.950714	Y0 G	-0.3199286
-2.417753	Y0 G0
-1.737692	Y0 GH	-0.05931899
-1.950714	Y0 I
-2.417753	Y0 I0l
-1.595403	Y0 J0	-0.7074658
-1.950714	Y0 K	-0.0219864
-1.33103	Y0 KH	-0.2654551
-2.417753	Y0 KHl
-1.488406	Y0 L	-0.3362339
-1.595403	Y0 L0	-0.6743889
-2.417753	Y0 L0l
-1.33103	Y0 M	-0.00516
-1.595403	Y0 M0	-0.2992538
-1.595403	Y0 N	-0.117072
-1.737692	Y0 N0	-0.262301
-2.417753	Y0 Nl	-0.06950966
-1.33103	Y0 P	-0.1971218
-2.417753	Y0 P0
-1.737692	Y0 R	-0.2890051
-2.417753	Y0 R0	-0.2299184
-1.33103	Y0 S	-0.1523815
-2.417753	Y0 S0	-0.3242863
-1.950714	Y0 SH	-0.3882097
-2.136571	Y0 SH0	-0.07246147
-1.488406	Y0 T	-0.105116
-1.737692	Y0 T0	-0.1018289
-2.136571	Y0 TS
-2.136571	Y0 TSH0	-0.1237111
-2.136571	Y0 Tl
-2.417753	Y0 U0
-2.417753	Y0 V	-0.1377654
-2.136571	Y0 V0	-0.1331287
-2.136571	Y0 Z
-2.417753	Y0 Z0	-0.2508026
-1.950714	Y0 ZH	0.01273981
-2.417753	Y0 Zl
-0.7357843	Z A	-0.1186485
-1.302627	Z A0	-0.4086581
-1.302627	Z B	-0.0425265
-1.637691	Z B0	0.1373879
-1.231029	Z D	-0.07584369
-2.317752	Z D0
-2.317752	Z E0	-0.09303536
-1.388405	Z G	-0.3945965
-2.317752	Z G0
-2.03657	Z L	-0.5372182
-2.03657	Z L0	-0.1385781
-1.637691	Z M	-0.2981663
-1.850713	Z M0	-0.2081295
-0.9855301	Z N	-0.8497906
-2.03657	Z O0	-0.08296499
-2.03657	Z R0
-1.495402	Z U	-0.05669823
-2.317752	Z U0	-0.08392645
-1.495402	Z V	-0.1346142
-1.16958	Z V0	-0.2082549
-1.388405	Z Y	-0.3944163
-2.317752	Z ZH	-0.07656112
-1.557369	Z0 A0	-0.1104878
-1.557369	Z0 B	-0.0521288
-1.743227	Z0 B0	0.007671237
-1.743227	Z0 D	-0.06502493
-0.7314118	Z0 D0	-0.5408269
-1.743227	Z0 D0l	-0.06787319
-2.024409	Z0 Dl
-1.557369	Z0 E0	-0.1679403
-2.024409	Z0 G
-0.7314118	Z0 I	-0.2510122
-1.344348	Z0 I0	-0.09852305
-2.024409	Z0 Il	-0.2193513
-2.024409	Z0 J0
-1.095062	Z0 N0	0.06576805
-2.024409	Z0 N0l
-1.743227	Z0 O0	-0.2230311
-2.024409	Z0 ZH
-0.5695644	Z0l D0
-0.5695644	Z0l E0	-0.2207157
-1.375603	ZH A	-0.08410534
-1.049781	ZH A0	-0.3629978
-2.197953	ZH B
-2.197953	ZH B0
-1.268606	ZH D	-0.3050061
-1.517892	ZH D0	-0.2979898
-1.268606	ZH E0	-0.7975507
-2.197953	ZH G
-2.197953	ZH L0	-0.1385781
-2.197953	ZH M
-1.111229	ZH N	-0.8050492
-1.730913	ZH N0	-0.1441542
-1.517892	ZH O0	-0.170454
-1.916771	ZH U	-0.155407
-2.197953	ZH U0	-0.09591213
-0.6376185	ZH Y	-0.1846358
-0.9959595	ZH Y0	-0.3735941
-2.197953	ZH Z	-0.1445729
-0.2934293	Zl A	-0.05440325
-0.9415948	Zl A0
-1.222777	Zl U

\3-grams:
-1.734271	A <sil> F
-1.119318	A <sil> I
-1.501241	A <sil> M
-1.501241	A <sil> N
-1.734271	A <sil> N0
-1.119318	A <sil> P
-1.734271	A <sil> R
-1.734271	A <sil> S
-1.734271	A <sil> U
-1.007892	A <sil> V
-1.734271	A <sil> Z0
-0.6831188	A0 <sil> P
-0.5194607	E0 <sil> P
-0.9841487	E0 <sil> SH
-1.081059	F <sil> F
-1.081059	F <sil> I
-0.8480288	F <sil> P
-1.315341	I <sil> A
-1.315341	I <sil> B
-0.9650538	I <sil> G
-1.165076	I <sil> I
-1.315341	I <sil> K
-1.546999	I <sil> N0
-1.546999	I <sil> P
-1.780029	I <sil> SH
-1.780029	I <sil> V
-1.780029	I <sil> Z
-1.078478	J0 <sil> I
-1.311508	J0 <sil> V
-0.7800288	K <sil> V
-0.6831188	KH <sil> I
-0.7800288	L <sil> A
-1.16024	M <sil> A
-0.6955519	M <sil> I
-1.16024	M <sil> P
-0.6831188	N <sil> N
-0.6831188	O0 <sil> S0
-0.3820888	P <sil> V
-1.035301	S <sil> P
-1.035301	S <sil> S
-1.035301	S <sil> SH
-0.85921	S0 <sil> A
-0.8894215	T <sil> A
-1.122451	T <sil> I
-0.8894215	T <sil> S
-0.85921	T0 <sil> A
-0.85921	T0 <sil> S
-0.3820888	TSH0 <sil> P
-1.25715	U <sil> D
-1.25715	U <sil> G
-1.25715	U <sil> K
-1.25715	U <sil> R
-0.9841487	U0 <sil> A
-0.9841487	U0 <sil> I
-1.02412	Y <sil> A
-1.02412	Y <sil> B
-1.25715	Y <sil> G
-1.25715	Y <sil> R
-1.02412	Y <sil> S
-0.6831188	Y0 <sil> V0
-1.265446	<s> A B
-1.265446	<s> A D
-1.880399	<s> A F
-1.880399	<s> A J0
-1.880399	<s> A M
-1.065424	<s> A N
-1.415711	<s> A N0
-1.880399	<s> A P
-1.647369	<s> A Pl
-1.647369	<s> A S
-1.880399	<s> A S0
-1.880399	<s> A SH
-1.265446	<s> A T
-1.880399	<s> A Tl
-1.647369	<s> A U0
-1.415711	<s> A V
-1.478999	<sil> A G
-1.478999	<sil> A K
-1.478999	<sil> A N
-1.478999	<sil> A N0
-1.014311	<sil> A S
-0.8640456	<sil> A T
-1.478999	<sil> A T0
-1.229534	B A G
-1.379799	B A K
-1.229534	B A K0
-0.5753728	B A L0
-1.379799	B A M0
-1.379799	B A P
-1.229534	B A R
-1.379799	B A S
-1.611457	B A V
-1.172125	D A </s>
-1.338663	D A B
-1.762499	D A D0
-1.994157	D A E0
-1.762499	D A I
-1.052043	D A J0
-1.500808	D A K
-1.500808	D A L0
-0.8808628	D A M
-1.994157	D A M0
-2.227187	D A N0
-1.762499	D A R
-2.227187	D A R0
-1.338663	D A S
-1.612234	D A S0
-1.994157	D A SH
-1.500808	D A T
-2.227187	D A T0
-1.994157	D A U0
-0.987194	D A V
-2.227187	D A Z
-0.55818	Dl A KH
-0.9261568	E0 A B0
-0.9261568	E0 A N0
-1.359812	F A K
-1.359812	F A M0
-1.359812	F A R0
-0.8951243	F A S
-0.8951243	F A T
-1.359812	F A V
-2.268579	G A </s>
-2.268579	G A D
-2.03555	G A G
-2.03555	G A KH
-1.129894	G A L
-1.453604	G A L0
-1.5422	G A M
-1.803891	G A M0
-1.653626	G A N
-2.03555	G A P
-1.213518	G A R
-1.653626	G A R0
-0.9994655	G A S
-1.317178	G A S0
-1.5422	G A T
-2.268579	G A T0
-2.268579	G A U
-0.6261932	G A V
-2.268579	G A Y
-2.03555	G A Z0
-1.803891	G A ZH
-0.7818717	I A B
-1.021959	I A D
-1.603904	I A D0
-1.836934	I A G
-1.603904	I A N
-1.836934	I A N0
-1.836934	I A P0
-1.021959	I A S
-0.8855316	I A T
-0.6831188	I0 A T
-1.209569	J0 A </s>
-1.371713	J0 A <sil>
-1.633404	J0 A B
-1.633404	J0 A D
-1.865062	J0 A F
-1.283117	J0 A I
-1.865062	J0 A J0
-1.091775	J0 A K
-1.865062	J0 A L
-1.865062	J0 A M
-2.098092	J0 A N
-1.633404	J0 A N0
-1.633404	J0 A P
-2.098092	J0 A Pl
-1.283117	J0 A S
-1.633404	J0 A T
-1.483139	J0 A U
-1.283117	J0 A V
-2.098092	J0 A V0
-1.483139	J0 A ZH
-1.471627	K A </s>
-2.178755	K A B
-2.178755	K A D
-2.793709	K A D0
-1.655023	K A F
-1.128104	K A G
-1.978734	K A I
-1.201851	K A J0
-1.343082	K A K
-1.655023	K A K0
-2.067329	K A KH
-1.905185	K A L
-1.274599	K A L0
-1.163414	K A M
-1.694825	K A M0
-2.329021	K A Ml
-1.362034	K A N
-1.447384	K A N0
-2.793709	K A O0
-1.524595	K A P
-2.793709	K A P0
-1.424424	K A R
-2.560678	K A R0
-2.793709	K A R0l
-1.787391	K A S
-1.978734	K A SH
-1.116945	K A T
-2.178755	K A T0
-2.329021	K A TSH0
-2.793709	K A U
-1.424424	K A V
-0.9173331	K A Z
-2.560678	K A ZH
-1.772308	KH A </s>
-2.005338	KH A D
-0.8301939	KH A D0
-0.9502762	KH A L
-2.005338	KH A M
-1.54065	KH A N0
-2.005338	KH A P
-0.9502762	KH A R
-1.390385	KH A T
-0.7653453	KH A T0
-1.54065	KH A TSH0
-1.54065	KH A Z0
-0.5469988	Kl A T
-0.7800288	Kl A Z
-1.330687	L A </s>
-2.18808	L A <sil>
-1.764244	L A B
-2.652768	L A B0
-1.383654	L A D
-2.037814	L A D0
-2.652768	L A F
-2.037814	L A G
-2.419738	L A I
-1.283483	L A J0
-1.701366	L A K
-2.419738	L A K0
-2.037814	L A KH
-1.837793	L A L
-2.037814	L A L0
-1.701366	L A M
-1.837793	L A M0
-2.18808	L A N
-1.383654	L A N0
-2.652768	L A Nl
-1.926388	L A P
-2.419738	L A R
-1.202141	L A S
-1.06091	L A S0
-2.037814	L A SH
-2.652768	L A SH0
-2.18808	L A Sl
-1.283483	L A T
-1.514082	L A T0
-2.419738	L A U
-1.088564	L A V
-1.166551	L A V0
-2.652768	L A Y
-1.514082	L A Z
-1.764244	L A Z0
-1.477623	L A ZH
-0.6831188	L0 A P
-2.041153	M A </s>
-2.274183	M A <sil>
-1.547804	M A D
-1.809495	M A F
-1.099039	M A G
-2.274183	M A I
-1.459208	M A I0
-0.8623261	M A J0
-2.274183	M A K0
-1.099039	M A L
-2.041153	M A M
-1.809495	M A M0
-1.459208	M A N0
-2.274183	M A Nl
-2.274183	M A P
-2.274183	M A R
-1.547804	M A S
-2.274183	M A S0l
-1.459208	M A SH
-1.034191	M A T
-1.547804	M A T0
-1.809495	M A TSH0
-2.274183	M A U0
-1.65923	M A V
-2.274183	M A Z
-0.8894215	M0 A </s>
-0.8894215	M0 A I
-0.7800288	Ml A KH
-0.7800288	Ml A N0
-1.388587	N A </s>
-2.112834	N A <sil>
-1.542809	N A B
-2.374525	N A B0
-1.664069	N A D
-1.832896	N A D0
-1.95069	N A E0
-1.570099	N A F
-1.27501	N A G
-1.784152	N A I
-1.082203	N A J0
-1.130595	N A K
-2.606184	N A K0
-1.887811	N A KH
-1.887811	N A L0
-1.247355	N A M
-1.95069	N A M0
-2.024238	N A N
-1.74033	N A N0
-1.517132	N A P
-1.887811	N A R
-2.839213	N A R0
-1.320104	N A S
-1.336239	N A S0
-1.664069	N A SH
-2.839213	N A SH0
-1.448121	N A T
-2.374525	N A T0
-2.839213	N A TS
-1.448121	N A TSH0
-2.839213	N A U
-2.22426	N A U0
-1.234162	N A V
-1.448121	N A V0
-1.469929	N A Z
-2.374525	N A Z0
-2.374525	N A ZH
-1.836934	Nl A E0
-1.836934	Nl A I
-0.5969408	Nl A J0
-1.836934	Nl A K
-0.8855316	Nl A M
-1.836934	Nl A M0
-1.603904	Nl A N0
-1.836934	Nl A S0
-1.110554	Nl A V
-1.836934	Nl A Z
-1.227187	O0 A D
-1.227187	O0 A Dl
-1.227187	O0 A K
-1.227187	O0 A N
-1.227187	O0 A P0
-1.227187	O0 A S
-2.437979	P A B
-2.437979	P A B0
-0.9049341	P A D
-1.495864	P A D0
-2.437979	P A E0
-2.20632	P A F
-1.719606	P A G
-2.20632	P A G0
-2.437979	P A I
-1.782485	P A J0
-1.040714	P A K
-1.856033	P A KH
-1.005404	P A L
-1.664691	P A L0
-2.056055	P A M
-1.532323	P A M0
-2.056055	P A N
-1.572125	P A N0
-1.856033	P A P
-2.671008	P A P0
-2.056055	P A R
-0.9423812	P A S
-1.944629	P A S0
-1.462231	P A SH
-1.239334	P A T
-2.056055	P A T0
-2.20632	P A TS
-1.239334	P A TSH0
-2.671008	P A U
-2.671008	P A V
-2.056055	P A V0
-2.671008	P A Z
-1.944629	P A ZH
-0.09562509	Pl A R
-1.78983	R A </s>
-1.653403	R A B
-1.282724	R A D
-1.716282	R A D0
-1.989852	R A F
-1.716282	R A I
-1.101831	R A J0
-1.173131	R A K
-2.604805	R A K0
-1.653403	R A KH
-2.371775	R A L
-1.78983	R A M
-2.604805	R A M0
-1.364812	R A N
-1.653403	R A N0
-2.140117	R A P
-1.213713	R A S
-1.364812	R A S0
-2.371775	R A S0l
-1.549743	R A SH
-2.604805	R A SH0
-1.364812	R A Sl
-1.598488	R A T
-1.878426	R A T0
-2.140117	R A TS
-2.371775	R A TSH0
-1.258481	R A V
-1.78983	R A V0
-1.040602	R A Z
-1.989852	R A Z0
-1.78983	R A ZH
-0.55818	R0 A </s>
-1.645754	S A </s>
-1.877413	S A <sil>
-1.104125	S A B
-0.9717571	S A F
-2.110443	S A G
-1.877413	S A KH
-1.645754	S A L
-2.110443	S A L0
-0.8704497	S A M
-1.645754	S A N
-1.877413	S A Nl
-1.495489	S A P
-1.495489	S A R
-1.104125	S A S
-1.877413	S A S0
-1.645754	S A T
-1.877413	S A V
-1.221919	S A V0
-1.218002	S0 A </s>
-1.129407	S0 A <sil>
-1.711352	S0 A B
-1.944382	S0 A D
-1.479694	S0 A F
-1.479694	S0 A G
-1.944382	S0 A I
-1.218002	S0 A K
-1.944382	S0 A L
-1.329428	S0 A N
-1.479694	S0 A P
-1.711352	S0 A R
-1.711352	S0 A S
-1.944382	S0 A U0
-1.711352	S0 A V
-1.944382	S0 A Z
-1.944382	S0 A ZH
-0.8463168	SH A G
-0.646295	SH A L
-1.46127	SH A N0
-1.46127	SH A T0
-1.525494	T A </s>
-2.734271	T A <sil>
-1.494278	T A B
-2.734271	T A B0
-1.782869	T A D
-2.269583	T A D0
-1.845748	T A F
-1.679209	T A G
-2.734271	T A Gl
-1.845748	T A I
-1.919296	T A I0
-0.9337241	T A J0
-1.199604	T A K
-1.494278	T A K0
-2.734271	T A KH
-1.595586	T A L
-2.734271	T A L0
-2.734271	T A L0l
-0.9420892	T A M
-2.269583	T A M0
-1.635388	T A N
-1.635388	T A N0
-2.269583	T A O0
-1.782869	T A P
-1.184585	T A R
-2.119318	T A R0
-1.494278	T A S
-2.501241	T A S0
-2.269583	T A SH
-2.269583	T A SH0
-1.525494	T A T
-1.919296	T A TSH0
-0.9420892	T A V
-2.734271	T A V0
-2.119318	T A Z
-2.501241	T A ZH
-0.9941568	T0 A </s>
-1.227187	T0 A D
-1.227187	T0 A N
-0.7456035	TS A </s>
-1.611457	TS A B
-1.844487	TS A D
-1.379799	TS A I
-1.844487	TS A I0
-1.611457	TS A K
-1.611457	TS A M
-1.844487	TS A M0
-1.379799	TS A P
-1.611457	TS A S
-1.229534	TS A T0
-1.229534	TS A V
-0.6577634	Tl A K
-1.122451	Tl A V
-1.122451	Tl A ZH
-1.25715	U A B
-1.25715	U A L0
-0.792462	U A T
-0.9841487	U0 A B
-1.355197	V A </s>
-2.036649	V A <sil>
-1.7002	V A B
-1.925223	V A D
-1.836627	V A D0
-1.442824	V A F
-2.418572	V A G
-1.645284	V A I
-1.59654	V A I0
-1.101916	V A J0
-1.925223	V A K
-1.04655	V A L
-1.7002	V A L0
-1.476458	V A M
-2.651602	V A M0
-2.036649	V A N
-1.925223	V A N0
-1.476458	V A P
-1.200975	V A R
-1.087399	V A R0
-1.476458	V A S
-2.186914	V A S0
-1.763078	V A SH
-1.925223	V A T
-1.59654	V A T0
-2.186914	V A TS
-1.442824	V A TSH0
-1.260509	V A V
-1.59654	V A Z
-2.418572	V A Z0
-1.7002	V A ZH
-1.190452	Y A B
-1.423481	Y A K
-1.423481	Y A N
-0.6971022	Y A S
-1.423481	Y A T
-2.17448	Z A </s>
-0.9993364	Z A B
-1.94145	Z A D
-1.709792	Z A G
-2.17448	Z A I
-2.17448	Z A J0
-1.075597	Z A K
-1.94145	Z A L
-1.709792	Z A M
-1.359505	Z A M0
-1.448101	Z A N
-1.223078	Z A N0
-1.94145	Z A P
-1.94145	Z A R
-0.9993364	Z A S
-1.359505	Z A SH
-1.94145	Z A T
-1.709792	Z A T0
-1.94145	Z A TSH0
-1.448101	Z A V
-1.559527	Z A V0
-2.17448	Z A ZH
-0.6931269	ZH A N
-1.227187	Zl A M0
-1.227187	Zl A T
-1.227187	Zl A U0
-0.3820888	<s> A0 GH
-1.57242	B A0 K0
-1.57242	B A0 KH0
-1.107732	B A0 L
-1.339391	B A0 L0
-1.57242	B A0 M0
-0.9574673	B A0 R
-1.107732	B A0 SH
-1.57242	B A0 T
-1.170248	B0 A0 </s>
-1.170248	B0 A0 F
-1.403278	B0 A0 I
-1.170248	B0 A0 K
-1.403278	B0 A0 N
-1.170248	B0 A0 P
-1.536523	D A0 </s>
-1.647949	D A0 D
-2.262902	D A0 F
-2.262902	D A0 G
-1.647949	D A0 I
-1.536523	D A0 J0
-2.262902	D A0 K
-1.3115	D A0 L
-1.447927	D A0 L0
-1.124217	D A0 M
-1.374379	D A0 N
-1.124217	D A0 N0
-2.029872	D A0 O0
-1.447927	D A0 P
-2.029872	D A0 R
-2.262902	D A0 R0
-1.647949	D A0 S
-1.3115	D A0 T
-1.20784	D A0 T0
-2.262902	D A0 TSH0
-2.262902	D A0 U
-2.029872	D A0 U0
-0.9408213	D A0 ZH
-0.6955519	D0 A0 M0
-0.92721	D0 A0 P
-1.16024	D0 A0 T
-0.85921	Dl A0 T0
-0.85921	Dl A0 ZH
-0.5800489	G A0 J0
-0.5800489	G A0 L
-1.081059	I A0 D
-0.8480288	I A0 N
-1.081059	I A0 N0
-1.958619	J0 A0 B
-1.303125	J0 A0 D
-1.185331	J0 A0 F
-1.72696	J0 A0 I
-1.092765	J0 A0 J0
-1.958619	J0 A0 K
-1.958619	J0 A0 KH
-1.303125	J0 A0 L
-2.191648	J0 A0 M
-1.72696	J0 A0 N
-1.052963	J0 A0 N0
-1.303125	J0 A0 P
-1.958619	J0 A0 R
-1.576695	J0 A0 S
-1.72696	J0 A0 SH0
-1.303125	J0 A0 T
-1.465269	J0 A0 T0
-2.191648	J0 A0 U
-1.376673	J0 A0 V
-1.958619	J0 A0 Z
-1.72696	J0 A0 ZH
-1.20784	K A0 G
-2.262902	K A0 I
-0.9664978	K A0 J0
-0.4304185	K A0 K
-2.262902	K A0 KH
-2.262902	K A0 Kl
-1.374379	K A0 L
-2.262902	K A0 L0
-1.374379	K A0 M0
-2.262902	K A0 Ml
-1.798214	K A0 N
-2.262902	K A0 P
-2.029872	K A0 R
-2.262902	K A0 R0
-2.262902	K A0 SH
-2.262902	K A0 T
-1.374379	K A0 T0
-2.262902	K A0 U
-1.798214	K A0 Z
-1.647949	K A0 ZH
-0.9261568	Kl A0 G
-0.3112036	Kl A0 K
-1.63756	L A0 </s>
-1.869218	L A0 B
-1.487295	L A0 D
-2.102248	L A0 D0
-1.869218	L A0 F
-1.287273	L A0 J0
-1.487295	L A0 K
-2.102248	L A0 L
-1.63756	L A0 M
-1.487295	L A0 N
-1.487295	L A0 N0
-1.095931	L A0 P
-1.869218	L A0 R
-1.287273	L A0 S
-2.102248	L A0 Sl
-1.003365	L A0 T
-1.869218	L A0 T0
-1.63756	L A0 TSH0
-2.102248	L A0 U
-1.287273	L A0 V
-2.102248	L A0 V0
-0.724014	L0 A0 D
-1.612538	L0 A0 G
-0.9975845	L0 A0 J0
-1.612538	L0 A0 L0
-1.379508	L0 A0 T
-1.379508	L0 A0 T0
-1.612538	L0 A0 Z
-1.745656	M A0 G
-1.252307	M A0 J0
-1.978686	M A0 KH0
-1.090162	M A0 L
-0.923624	M A0 L0
-1.978686	M A0 N0
-1.978686	M A0 P
-1.027284	M A0 R
-1.513998	M A0 S
-1.745656	M A0 SH
-1.513998	M A0 T
-0.8798026	M A0 T0
-1.363733	M A0 TSH0
-0.6831188	M0 A0 KH
-0.6831188	M0 A0 N
-0.6831188	Ml A0 L
-0.6831188	Ml A0 R
-1.642197	N A0 </s>
-1.642197	N A0 B
-1.642197	N A0 B0
-1.250833	N A0 D
-2.25715	N A0 D0
-2.02412	N A0 G
-0.8254758	N A0 J0
-1.530771	N A0 K
-1.250833	N A0 L
-2.25715	N A0 L0
-1.442175	N A0 M
-1.792462	N A0 N0
-1.642197	N A0 P
-1.642197	N A0 S
-2.02412	N A0 SH
-1.118465	N A0 T
-1.642197	N A0 T0
-1.642197	N A0 TS
-1.158267	N A0 TSH0
-2.25715	N A0 V
-2.25715	N A0 V0
-1.642197	N A0 Z
-0.9712555	N0 A0 </s>
-1.586209	N0 A0 B
-0.8598296	N0 A0 F
-1.586209	N0 A0 J0
-1.353179	N0 A0 N0
-1.586209	N0 A0 O0
-1.586209	N0 A0 T0
-1.586209	N0 A0 V0
-1.496032	P A0 J0
-1.031344	P A0 L
-0.6075084	P A0 L0
-1.496032	P A0 SH
-1.496032	P A0 V0
-1.263002	P A0 ZH
-0.1997776	P0 A0 T0
-1.467481	R A0 D
-2.282456	R A0 D0
-2.049426	R A0 F0
-1.331054	R A0 J0
-2.282456	R A0 J0l
-2.049426	R A0 K
-1.817768	R A0 K0
-2.282456	R A0 KH
-2.049426	R A0 L
-2.282456	R A0 L0
-1.393932	R A0 N
-1.817768	R A0 N0
-2.049426	R A0 Nl
-0.7633461	R A0 S
-1.556077	R A0 SH
-1.073678	R A0 T
-1.817768	R A0 T0
-2.049426	R A0 TS
-1.276139	R A0 V
-1.331054	R A0 V0
-0.8705987	R A0 Z
-2.282456	R A0 Z0
-0.8085282	R0 A0 D
-1.423481	R0 A0 M
-0.9587934	R0 A0 T
-1.423481	R0 A0 T0
-1.423481	R0 A0 Z
-1.599573	S A0 KH
-0.3031682	S A0 M
-0.8731936	S A0 M0
-1.599573	S A0 T0
-1.311508	S0 A0 D
-0.8468196	S0 A0 K
-0.422984	S0 A0 K0
-1.078478	S0 A0 SH0
-1.285179	SH A0 </s>
-1.285179	SH A0 G
-1.052149	SH A0 J0
-1.285179	SH A0 P
-1.285179	SH A0 R0
-1.285179	SH A0 ZH
-0.7800288	SH0 A0 S
-1.958619	T A0 F
-0.9828708	T A0 G
-1.958619	T A0 J0
-0.7410221	T A0 K
-1.72696	T A0 Kl
-0.8453245	T A0 L
-1.376673	T A0 L0
-0.9516557	T A0 M
-2.191648	T A0 M0
-1.958619	T A0 N0
-1.376673	T A0 R
-1.958619	T A0 T
-1.958619	T A0 T0
-1.958619	T A0 V
-1.465269	T A0 V0
-1.958619	T A0 ZH
-1.035301	T0 A0 G0
-0.8022713	T0 A0 T
-0.85921	TS A0 N
-0.610236	TSH0 A0 J0
-1.932317	TSH0 A0 KH
-0.7235394	TSH0 A0 L
-1.932317	TSH0 A0 L0
-1.467629	TSH0 A0 N0
-0.8334339	TSH0 A0 S
-1.467629	TSH0 A0 SH
-1.932317	TSH0 A0 SH0
-1.932317	TSH0 A0 T
-1.699287	TSH0 A0 Z
-0.3820888	U A0 R
-2.141757	V A0 B
-2.141757	V A0 F
-1.086695	V A0 J0
-0.8453521	V A0 L
-1.190355	V A0 L0
-1.135439	V A0 M
-1.415377	V A0 N
-1.677069	V A0 N0
-1.253233	V A0 R
-1.908727	V A0 R0
-1.190355	V A0 S
-1.415377	V A0 SH
-1.526803	V A0 T
-1.190355	V A0 T0
-1.908727	V A0 TSH0
-1.415377	V A0 ZH
-0.3691956	V0 A0 Z
-2.093896	Z A0 D
-1.278921	Z A0 F
-0.4062521	Z A0 L
-1.142494	Z A0 L0
-2.093896	Z A0 Ll
-1.860866	Z A0 N
-1.629208	Z A0 N0
-1.278921	Z A0 P
-2.093896	Z A0 S
-1.629208	Z A0 T
-1.038834	Z A0 T0
-1.227187	Z0 A0 F
-0.7624987	Z0 A0 I
-1.227187	Z0 A0 S
-1.753157	ZH A0 F
-0.8017547	ZH A0 J0
-0.4567521	ZH A0 L
-1.138203	ZH A0 L0
-1.753157	ZH A0 M0
-1.753157	ZH A0 R
-1.753157	ZH A0 R0
-1.753157	ZH A0 SH0
-1.753157	ZH A0 T0
-0.4614688	D Al N
-0.3820888	G Al N0
-0.7800288	J0 Al T
-0.7511188	K Al N0
-0.3089221	L Al N
-0.8894215	N Al D
-0.8894215	N Al S0
-0.7800288	P Al D0
-0.55818	S Al P
-0.55818	S0 Al T
-0.6831188	TS Al S
-0.6577634	V Al P
-1.122451	V Al S
-1.122451	V Al T
-1.122451	<s> B U0
-0.3074765	<s> B Y0
-0.8480288	<sil> B U0
-0.6163707	<sil> B Y
-1.217756	A B A
-1.759385	A B A0
-1.759385	A B E0
-1.409099	A B J0
-1.60912	A B L
-1.272672	A B L0
-2.224074	A B M
-0.8329811	A B O0
-1.12519	A B R
-1.991044	A B R0
-1.759385	A B U
-2.224074	A B U0
-0.927669	A B Y
-0.6458229	A B Y0
-1.403278	A0 B A
-1.403278	A0 B R
-1.403278	A0 B R0
-1.170248	A0 B U0
-0.5147544	A0 B Y
-0.93859	A0 B Y0
-0.55818	Al B Y
-0.9941568	D B O0
-0.1721249	D B Y0
-0.6931269	D0 B Y
-0.9261568	D0 B Y0
-0.3800271	E0 B Y0
-1.122451	G B L0
-0.8894215	G B U0
-0.5074983	G B Y
-1.311508	GH B O0
-1.311508	GH B U0
-1.311508	GH B Y
-0.422984	GH B Y0
-0.6419868	I B A
-1.212012	I B A0
-1.705361	I B L0
-1.323438	I B O0
-1.323438	I B R
-0.9869893	I B U
-0.9869893	I B Y
-0.7296135	I B Y0
-0.394522	I0 B Y0
-0.3820888	Il B A
-0.3153407	J0 B Y0
-0.7800288	L B R
-0.7800288	L B Y
-0.8716432	M B A
-1.336331	M B A0
-1.103301	M B O0
-1.336331	M B Y
-0.721378	M B Y0
-0.3089221	N B Y0
-1.743817	O0 B L0
-0.9288416	O0 B N
-1.128863	O0 B O0
-1.128863	O0 B R
-0.4747027	O0 B Y
-0.8552929	O0 B Y0
-0.1691738	R B U0
-1.093492	U B A
-0.5518627	U B A0
-1.093492	U B L0
-1.55818	U B N0
-1.32515	U B O0
-1.55818	U B U
-1.55818	U B V0
-0.5074983	U0 B A
-0.6577634	U0 B Y
-0.6831188	V B R0
-0.8716432	Y B A
-1.103301	Y B A0
-1.336331	Y B D
-0.721378	Y B Y0
-0.7800288	Y0 B U0
-0.8894215	Z B R
-0.8894215	Z B U0
-0.7800288	Z0 B A0
-0.3820888	<s> B0 I
-0.3820888	<sil> B0 I
-0.6965545	A B0 E0
-0.3601057	A B0 I
-1.311508	A B0 J0
-0.1328308	A0 B0 I
-0.3820888	D0 B0 I
-0.4521366	I B0 A0
-0.4750975	I B0 E0
-1.006446	I B0 I
-1.356733	I B0 O0
-0.5469988	J0 B0 E0
-0.7800288	J0 B0 I
-0.2184307	M B0 I
-0.04837229	O0 B0 I
-0.7845977	U B0 E0
-0.390795	U B0 I
-0.5445108	U B0 I0
-0.1650756	U0 B0 I
-0.3153407	V B0 I
-0.7800288	Y B0 E0
-0.7800288	Y B0 I
-0.3820888	Y0 B0 I
-1.16024	Z B0 E0
-0.5452868	Z B0 I
-0.5452868	Z B0 I0
-0.3820888	Z0 B0 I
-0.7348908	<s> D A
-0.5727463	<s> D A0
-1.46127	<s> D L0
-1.46127	<s> D O0
-1.22824	<s> D R
-0.6831188	<sil> D A
-0.7981923	A D A
-1.061174	A D A0
-2.301167	A D E0
-1.486192	A D G
-2.301167	A D J0
-1.686214	A D L0
-0.8323809	A D N
-1.092389	A D N0
-1.126023	A D O0
-1.349765	A D R
-2.301167	A D U
-1.126023	A D U0
-1.349765	A D V
-1.486192	A D V0
-2.301167	A D Y0
-0.4906097	A0 D A
-1.836934	A0 D A0
-1.22198	A0 D B
-1.836934	A0 D G
-1.836934	A0 D L0
-1.836934	A0 D N
-1.836934	A0 D O0
-1.372246	A0 D U
-1.021959	A0 D U0
-0.8306162	A0 D Y
-0.2442568	Al D N
-0.55818	B D V0
-0.9846195	E0 D A
-1.599573	E0 D L0
-1.366543	E0 D N
-0.5006894	E0 D N0
-0.8731936	E0 D U
-1.366543	E0 D Z
-1.680538	G D A
-0.1048135	G D A0
-1.913568	G D Al
-1.298615	G D R
-0.6261801	GH D A
-0.85921	GH D U
-0.7473423	I D A
-0.8572367	I D A0
-1.95612	I D L
-1.141145	I D L0
-0.8572367	I D O0
-1.72309	I D R
-1.491432	I D U
-1.229741	I D U0
-1.72309	I D V
-1.491432	I D V0
-1.95612	I D Z
-1.95612	I D ZH
-0.2208694	I0 D N
-1.227187	I0 D Y
-0.8894215	J0 D A
-0.6577634	J0 D O0
-0.5008076	L D A0
-0.9941568	L D R
-0.7624987	L D V0
-0.3820888	L0 D Y0
-1.227187	M D L0
-0.7624987	M D O0
-1.227187	M D V
-1.227187	M D V0
-0.85921	N D O0
-0.6261801	N D R
-0.5021409	O0 D A
-1.306567	O0 D A0
-1.771255	O0 D B
-0.9562799	O0 D N
-1.044876	O0 D N0
-1.771255	O0 D U
-1.306567	O0 D Y
-1.538225	O0 D ZH
-1.160439	U D A
-0.2788029	U D A0
-1.160439	U D G
-1.392097	U D O0
-1.625127	U D V
-0.5904751	U0 D A
-1.245969	U0 D Al
-1.014311	U0 D N
-1.014311	U0 D U
-1.014311	U0 D ZH
-0.6768989	V D A
-1.403278	V D O0
-0.5883031	V D R
-1.170248	V D U
-1.093492	Y D A
-0.4194946	Y D A0
-0.9432268	Y D B
-1.32515	Y D R
-1.55818	Y D V0
-0.85921	Y0 D A
-0.6261801	Y0 D U0
-0.8278334	Z D A
-0.8278334	Z D A0
-1.442787	Z D R
-1.209757	Z D U
-0.9780986	Z D U0
-1.442787	Z D V0
-0.6261801	Z0 D A
-1.103301	ZH D A
-0.6099521	ZH D A0
-0.6099521	ZH D U
-1.103301	ZH D Y
-0.6831188	<s> D0 E0
-0.6831188	<s> D0 I
-1.273758	A D0 A0
-0.5882797	A D0 E0
-0.945075	A D0 I
-0.408279	A D0 I0
-1.535449	A D0 O0
-2.000137	A D0 ZH
-1.122451	A0 D0 B
-0.3074765	A0 D0 I
-0.55818	Al D0 E0
-0.3960723	E0 D0 I
-0.04048223	G D0 E0
-1.588392	I D0 A0
-1.821421	I D0 B
-0.2867545	I D0 E0
-1.095042	I D0 I
-0.9328978	I D0 I0
-1.356733	I D0 O0
-1.22824	I0 D0 E0
-0.0919852	I0 D0 I
-0.9841487	J0 D0 E0
-0.3691956	J0 D0 O0
-0.55818	M D0 E0
-0.3820888	M0 D0 I
-0.85921	N D0 E0
-0.394522	N D0 I
-0.3820888	N0 D0 E0
-1.285179	O0 D0 B
-1.052149	O0 D0 E0
-0.2788614	O0 D0 I
-0.9619722	U D0 A0
-0.3800271	U D0 E0
-1.195002	U D0 I0
-0.04837229	U0 D0 I
-0.1650756	V D0 I
-0.55818	Y D0 E0
-0.106017	Z0 D0 E0
-1.160439	Z0 D0 I
-0.4338608	ZH D0 I
-0.5452868	ZH D0 O0
-0.3820888	O0 D0l E0
-0.3820888	Y0 D0l I
-0.3820888	Z0 D0l E0
-0.4500888	A Dl A0
-0.3112036	<s> E0 T
-0.1341641	A E0 T
-1.403278	A E0 T0
-0.3820888	A0 E0 T
-0.2184307	B E0 T
-1.471278	B0 E0 </s>
-1.704308	B0 E0 A
-1.471278	B0 E0 G
-1.23962	B0 E0 L
-1.23962	B0 E0 N
-1.089355	B0 E0 R
-1.471278	B0 E0 SH
-1.471278	B0 E0 T
-1.089355	B0 E0 Z
-2.230278	D0 E0 </s>
-1.615325	D0 E0 F
-1.278876	D0 E0 J0
-0.5016507	D0 E0 L
-1.415303	D0 E0 L0
-2.230278	D0 E0 M
-1.76559	D0 E0 N
-1.091592	D0 E0 N0
-1.76559	D0 E0 P
-1.0215	D0 E0 S0
-1.615325	D0 E0 T
-1.415303	D0 E0 T0
-2.230278	D0 E0 V
-1.503899	D0 E0 ZH
-0.7800288	D0l E0 L
-0.5469988	D0l E0 N0
-0.6831188	F0 E0 R
-0.1111818	I E0 T
-0.3820888	I0 E0 T
-1.984149	J0 E0 D
-1.369196	J0 E0 D0
-0.8454633	J0 E0 J0
-1.169174	J0 E0 KH
-1.984149	J0 E0 L
-1.984149	J0 E0 R
-0.7150348	J0 E0 S
-0.775371	J0 E0 S0
-1.984149	J0 E0 Z
-1.751119	J0 E0 Z0
-1.032747	J0 E0 ZH
-0.3251501	K E0 T
-1.170248	K0 E0 J0
-1.170248	K0 E0 M
-0.93859	K0 E0 O0
-1.403278	K0 E0 T
-0.93859	K0 E0 V0
-0.3820888	L E0 T
-0.7415128	L0 E0 D
-1.95029	L0 E0 KH
-0.7415128	L0 E0 N0
-1.223911	L0 E0 S
-1.71726	L0 E0 S0
-0.7102977	L0 E0 T
-1.485602	L0 E0 TS
-1.95029	L0 E0 TSH0
-0.3251501	M E0 T
-2.020578	M0 E0 </s>
-1.787548	M0 E0 D
-1.014261	M0 E0 J0
-1.014261	M0 E0 L
-2.020578	M0 E0 L0
-1.132054	M0 E0 N
-1.787548	M0 E0 N0
-1.787548	M0 E0 Nl
-1.294199	M0 E0 R
-1.294199	M0 E0 S
-1.294199	M0 E0 S0
-2.020578	M0 E0 SH
-1.205603	M0 E0 SH0
-1.294199	M0 E0 T
-1.294199	M0 E0 T0
-1.55589	M0 E0 ZH
-1.303125	N0 E0 </s>
-1.576695	N0 E0 B
-1.958619	N0 E0 F
-1.016504	N0 E0 J0
-1.376673	N0 E0 K
-2.191648	N0 E0 KH
-1.958619	N0 E0 L0
-1.303125	N0 E0 M
-2.191648	N0 E0 N
-1.576695	N0 E0 P
-1.72696	N0 E0 R
-0.8695674	N0 E0 S
-1.72696	N0 E0 SH
-0.8453245	N0 E0 T
-1.303125	N0 E0 TS
-1.72696	N0 E0 TSH0
-1.958619	N0 E0 V
-0.1111818	O0 E0 T
-0.9192963	P0 E0 L
-1.269583	P0 E0 R
-0.2480547	P0 E0 R0
-1.501241	P0 E0 TSH0
-1.961872	R0 E0 B
-1.346919	R0 E0 D
-1.497184	R0 E0 J0
-1.497184	R0 E0 L
-1.728842	R0 E0 L0
-0.8629891	R0 E0 M0
-1.497184	R0 E0 P
-1.728842	R0 E0 S
-1.235493	R0 E0 T
-0.9068105	R0 E0 T0
-1.497184	R0 E0 TS
-1.346919	R0 E0 TSH0
-1.497184	R0 E0 V
-1.961872	R0 E0 V0
-1.346919	R0 E0 ZH
-1.761843	S0 E0 A
-1.994873	S0 E0 B
-1.994873	S0 E0 D
-1.268493	S0 E0 J0
-1.530185	S0 E0 K
-1.179898	S0 E0 KH
-1.179898	S0 E0 L
-0.9398108	S0 E0 M
-1.179898	S0 E0 M0
-1.994873	S0 E0 N0l
-1.761843	S0 E0 P
-1.268493	S0 E0 R
-1.530185	S0 E0 T
-1.761843	S0 E0 T0
-1.994873	S0 E0 U
-1.994873	S0 E0 Z
-1.442787	SH E0 J0
-1.209757	SH E0 N0
-0.9780986	SH E0 Nl
-1.209757	SH E0 S
-0.8278334	SH E0 S0
-1.442787	SH E0 T
-0.5587996	SH0 E0 N0
-1.052149	SH0 E0 S
-0.3153407	T E0 T
-1.829247	T0 E0 K
-0.6541027	T0 E0 L
-1.829247	T0 E0 L0
-1.102868	T0 E0 M
-1.364559	T0 E0 N
-1.364559	T0 E0 N0
-1.829247	T0 E0 T
-1.102868	T0 E0 T0
-1.596217	T0 E0 TS
-1.214294	T0 E0 ZH
-1.16024	TS E0 G
-1.16024	TS E0 L
-1.16024	TS E0 L0
-1.586209	TSH0 E0 J0
-1.586209	TSH0 E0 K
-0.377431	TSH0 E0 M
-1.353179	TSH0 E0 N0
-1.353179	TSH0 E0 R
-0.9712555	TSH0 E0 S0
-0.55818	U E0 T
-0.09611884	V E0 T
-1.580049	V0 E0 <sil>
-1.961972	V0 E0 D
-2.195002	V0 E0 D0
-0.9258882	V0 E0 K
-2.195002	V0 E0 K0
-1.961972	V0 E0 N0
-2.195002	V0 E0 Nl
-0.9550093	V0 E0 R
-1.096119	V0 E0 R0
-1.13994	V0 E0 S
-1.580049	V0 E0 S0
-2.195002	V0 E0 SH0
-1.096119	V0 E0 T
-0.8039097	V0 E0 T0
-1.468623	V0 E0 TSH0
-1.961972	V0 E0 ZH
-0.6831188	V0l E0 R
-0.6831188	V0l E0 TSH0
-0.3251501	Y E0 T
-0.55818	Z E0 T
-0.6931269	Z0 E0 M
-0.6931269	Z0 E0 T
-0.3820888	Z0l E0 L0
-0.9132636	ZH E0 L0
-0.1371243	ZH E0 N0
-0.09562509	S0 E0l T
-1.295187	<s> F K
-1.063529	<s> F P
-0.7132418	<s> F S
-0.4293335	<s> F S0
-1.821157	A F </s>
-1.439233	A F <sil>
-1.327807	A F A
-1.439233	A F K
-2.054187	A F O0
-1.165663	A F P
-1.439233	A F R
-1.165663	A F S
-0.4491349	A F S0
-1.821157	A F SH
-1.439233	A F T
-1.821157	A F V
-2.054187	A F Y
-1.510787	A0 F K
-1.743817	A0 F P0
-1.743817	A0 F R0
-1.128863	A0 F S
-0.9288416	A0 F S0
-0.4474121	A0 F SH
-1.017437	A0 F T
-0.3074765	E0 F SH
-1.7623	I F A
-1.297612	I F A0
-1.7623	I F K
-1.7623	I F M0
-1.7623	I F O0
-1.7623	I F P
-1.52927	I F P0
-1.7623	I F R
-1.297612	I F S
-0.6634167	I F S0
-1.52927	I F SH
-1.7623	I F T
-1.7623	I F Y
-0.3546796	I0 F SH
-0.9261568	K F P
-0.9261568	K F S
-0.9261568	K F S0
-0.5469988	KH F S0
-0.8480288	L F S
-0.6163707	L F S0
-0.8022713	M F A
-0.420348	M F S0
-0.8022713	N F S
-0.5706132	N F S0
-0.7468392	O0 F </s>
-1.288469	O0 F <sil>
-1.288469	O0 F A
-1.138203	O0 F K
-1.753157	O0 F K0
-1.753157	O0 F P
-1.288469	O0 F S
-1.288469	O0 F S0
-1.288469	O0 F SH0
-1.753157	O0 F T
-1.753157	O0 F V
-1.753157	O0 F Y
-0.3820888	R0 F S
-0.394522	S F S0
-0.394522	S0 F K
-0.85921	T F S0
-0.9841487	T0 F K
-0.9841487	T0 F S
-0.5706132	U F S
-0.468623	U0 F S
-0.9619722	U0 F S0
-0.9619722	U0 F SH
-1.103301	Y F </s>
-1.336331	Y F P
-1.336331	Y F P0
-0.5213563	Y F S0
-1.336331	Y F T
-1.081059	Y0 F R
-0.6163707	Y0 F SH
-1.081059	Y0 F T0
-0.55818	A0 F0 Il
-0.6831188	I F0 E0
-0.7800288	O0 F0 TSH0
-0.3251501	S F0 I
-0.3820888	T0 F0 I
-0.3251501	U F0 I
-0.3820888	U0 F0 I
-0.792462	<s> G A
-1.02412	<s> G D0
-1.02412	<s> G L
-1.02412	<s> G U0
-0.92721	<sil> G A
-0.92721	<sil> G D
-0.92721	<sil> G D0
-1.16024	<sil> G U0
-0.8990877	A G A
-1.519032	A G A0
-0.4976574	A G D
-1.630458	A G D0
-1.19035	A G L
-1.239094	A G L0
-2.245412	A G N
-0.9762977	A G O0
-1.070268	A G R
-2.012382	A G R0
-2.012382	A G U
-1.630458	A G U0
-1.089355	A0 G A
-0.7529061	A0 G B
-1.089355	A0 G D
-1.704308	A0 G D0
-1.704308	A0 G L
-1.704308	A0 G U
-1.704308	A0 G U0
-1.704308	A0 G Z
-0.6054248	A0 G ZH
-0.2757848	D G A
-0.9941568	D G O0
-0.7511188	E0 G A
-0.9841487	E0 G O0
-0.6261801	GH G A
-0.5532892	I G A
-1.711352	I G A0
-0.9380642	I G D
-1.479694	I G D0
-0.7692375	I G O0
-1.129407	I G R
-1.944382	I G U
-1.218002	I G U0
-1.944382	I G V
-0.394522	I0 G A
-0.6955519	J0 G A
-0.5452868	J0 G O0
-0.3270269	L G A
-1.382089	L G N0
-1.382089	L G O0
-1.382089	L G U0
-0.468623	M G A
-1.195002	M G D0
-1.195002	M G L
-1.195002	M G U
-0.3251501	N0 G A
-0.3725449	O0 G A
-1.612538	O0 G Al
-1.612538	O0 G B
-1.612538	O0 G O0
-0.6062203	O0 G U
-0.3112036	R G A
-1.315341	U G A
-1.315341	U G A0
-1.546999	U G D0
-1.546999	U G L0
-0.3294023	U G O0
-1.546999	U G U
-1.05365	U G U0
-0.3800271	U0 G A
-0.7303141	U0 G L
-1.170248	V G A
-0.93859	V G L
-0.5147544	V G O0
-1.403278	V G R0
-1.403278	V G U
-0.6702256	Y G A
-1.052149	Y G L0
-0.8204907	Y G U
-0.2184307	Y0 G A
-0.4935651	Z G A
-1.382089	Z G L
-0.4306868	Z G L0
-0.3153407	A G0 I0
-0.3820888	A0 G0 I
-0.3820888	I0 G0 I
-0.2184307	N0 G0 I
-0.1111818	O0 G0 I
-0.08389928	U G0 I0
-0.3820888	A GH B
-0.5469988	A0 GH B
-0.55818	I GH Z
-0.3686264	I0 GH B
-1.02412	I0 GH D
-1.25715	I0 GH G
-0.9261568	Y GH B
-0.6931269	Y GH D
-0.5469988	Y0 GH Z
-0.55818	A Gl O0
-1.546999	<s> I A
-1.546999	<s> I D
-1.315341	<s> I J0
-1.315341	<s> I K
-1.546999	<s> I L0
-1.780029	<s> I M0
-1.546999	<s> I N0
-1.780029	<s> I P
-1.546999	<s> I S
-1.780029	<s> I SH
-1.165076	<s> I T
-1.780029	<s> I V
-1.546999	<s> I Z
-1.780029	<s> I Z0
-1.57242	<sil> I L0
-1.339391	<sil> I N
-0.8460413	<sil> I P
-1.339391	<sil> I S
-1.57242	<sil> I SH
-1.57242	<sil> I T
-1.339391	<sil> I V
-1.57242	<sil> I Z
-1.984149	A I A
-1.984149	A I B
-1.369196	A I D
-1.984149	A I F
-1.751119	A I G
-1.984149	A I J0
-1.519461	A I K
-1.519461	A I L0
-1.984149	A I M
-1.169174	A I M0
-1.519461	A I N
-1.519461	A I N0
-1.751119	A I P
-1.984149	A I R
-0.9778314	A I S
-1.751119	A I S0
-1.984149	A I SH
-1.751119	A I V
-1.751119	A I Z
-1.984149	A I Z0
-1.984149	A I Zl
-1.170248	A0 I M0
-0.93859	A0 I N
-1.403278	A0 I N0
-1.403278	A0 I S
-1.782527	B0 I D0
-1.782527	B0 I N
-2.015557	B0 I N0
-1.289178	B0 I Nl
-0.7464433	B0 I R
-1.064155	B0 I R0
-0.6934761	B0 I S
-1.400604	B0 I T
-1.782527	B0 I V
-1.200582	B0 I Z
-1.400604	B0 I ZH
-1.865062	D0 I </s>
-2.098092	D0 I D
-1.633404	D0 I F
-1.633404	D0 I J0
-1.04303	D0 I L
-1.865062	D0 I L0
-1.371713	D0 I M
-2.098092	D0 I M0
-1.865062	D0 I N
-1.865062	D0 I N0
-1.209569	D0 I R
-1.209569	D0 I R0
-1.865062	D0 I S
-2.098092	D0 I S0
-0.8289782	D0 I T
-1.209569	D0 I T0
-1.865062	D0 I TS
-2.098092	D0 I V
-0.3251501	D0l I L
-1.25715	F0 I J0
-1.25715	F0 I L0
-1.25715	F0 I R
-1.25715	F0 I R0
-0.6334332	G0 I </s>
-1.359812	G0 I <sil>
-1.359812	G0 I S0
-0.8951243	G0 I V
-1.527702	J0 I </s>
-1.712633	J0 I <sil>
-1.498581	J0 I A
-1.761378	J0 I B
-1.592551	J0 I D
-1.95272	J0 I D0
-2.767695	J0 I E0
-1.712633	J0 I F
-2.534665	J0 I G
-1.203492	J0 I J0
-1.39841	J0 I K
-2.303007	J0 I KH
-2.303007	J0 I L
-2.041316	J0 I L0
-0.9927427	J0 I M
-2.041316	J0 I M0
-1.668812	J0 I N
-2.303007	J0 I N0
-2.152742	J0 I O0
-1.355838	J0 I P
-2.767695	J0 I P0
-2.303007	J0 I R
-1.421371	J0 I S
-1.592551	J0 I S0
-1.95272	J0 I SH
-1.298909	J0 I SH0
-1.218009	J0 I T
-2.152742	J0 I T0
-1.95272	J0 I TS
-2.303007	J0 I TSH0
-1.95272	J0 I U
-2.767695	J0 I U0
-0.9275809	J0 I V
-1.879171	J0 I V0
-2.534665	J0 I V0l
-1.816293	J0 I Z
-1.668812	J0 I ZH
-0.7800288	J0l I D
-1.141443	K0 I </s>
-1.107809	K0 I <sil>
-1.701634	K0 I A0
-2.316587	K0 I B
-1.701634	K0 I D
-2.316587	K0 I GH
-0.6509828	K0 I J0
-2.316587	K0 I K0
-1.177902	K0 I KH
-2.083557	K0 I L0
-1.31027	K0 I M
-1.701634	K0 I M0
-1.851899	K0 I N
-1.047473	K0 I P
-1.851899	K0 I R
-1.365185	K0 I S
-1.217704	K0 I V
-0.9841487	KH0 I B0
-0.9841487	KH0 I N
-0.7511188	KH0 I V
-1.919346	L0 I </s>
-1.83075	L0 I <sil>
-2.412695	L0 I A
-1.694323	L0 I B
-1.639407	L0 I D
-1.590663	L0 I D0
-2.412695	L0 I E0
-1.757201	L0 I F
-2.181037	L0 I G
-1.111058	L0 I J0
-1.436947	L0 I K
-2.645725	L0 I K0
-1.83075	L0 I KH
-2.645725	L0 I L
-1.919346	L0 I M
-1.757201	L0 I M0
-2.645725	L0 I Ml
-1.34932	L0 I N
-1.323644	L0 I N0
-1.919346	L0 I Nl
-2.645725	L0 I O0
-1.233868	L0 I P
-2.181037	L0 I P0
-1.590663	L0 I S
-1.176939	L0 I S0
-2.412695	L0 I SH
-2.645725	L0 I SH0
-1.376611	L0 I T
-1.436947	L0 I T0
-1.176939	L0 I TS
-1.694323	L0 I TSH0
-1.919346	L0 I U
-1.376611	L0 I V
-2.412695	L0 I V0
-2.181037	L0 I Z
-2.645725	L0 I Z0
-1.376611	L0 I ZH
-0.9658667	M0 I </s>
-1.562749	M0 I <sil>
-1.762771	M0 I A
-2.377724	M0 I D
-2.377724	M0 I F0
-1.762771	M0 I G
-2.144694	M0 I J0
-1.322662	M0 I K
-1.762771	M0 I KH
-2.144694	M0 I L
-1.651345	M0 I L0
-2.377724	M0 I M
-1.10861	M0 I N
-0.8586141	M0 I N0
-1.426322	M0 I Nl
-2.377724	M0 I P0
-1.137731	M0 I R
-1.762771	M0 I R0
-1.426322	M0 I S
-2.377724	M0 I SH0
-1.4892	M0 I T
-2.144694	M0 I TSH0
-1.562749	M0 I U
-2.377724	M0 I V
-2.377724	M0 I V0
-1.913036	M0 I ZH
-2.158952	N0 I </s>
-1.533913	N0 I A
-1.156049	N0 I B
-2.773906	N0 I B0
-1.565128	N0 I D
-2.309218	N0 I D0
-2.047527	N0 I F
-1.885382	N0 I G
-0.7768198	N0 I J0
-1.195655	N0 I K
-1.822504	N0 I K0
-1.822504	N0 I KH
-1.718844	N0 I L
-1.822504	N0 I L0
-1.156049	N0 I M
-2.773906	N0 I M0
-1.504792	N0 I N
-1.885382	N0 I N0
-2.540876	N0 I O0
-1.382813	N0 I P
-2.158952	N0 I R
-2.773906	N0 I R0
-1.404621	N0 I S
-1.958931	N0 I S0
-2.047527	N0 I SH
-2.773906	N0 I SH0
-1.504792	N0 I T
-2.309218	N0 I T0
-1.63522	N0 I TS
-1.598762	N0 I TSH0
-1.598762	N0 I U
-1.382813	N0 I V
-1.767588	N0 I V0
-1.533913	N0 I Z
-2.773906	N0 I ZH
-1.190452	N0l I J0
-0.8085282	N0l I K
-1.423481	N0l I M
-1.190452	N0l I P
-1.190452	N0l I Z
-1.310427	O0 I M0
-1.310427	O0 I N
-1.310427	O0 I N0
-1.310427	O0 I O0
-1.543457	O0 I P
-1.310427	O0 I S
-1.543457	O0 I V0
-1.078769	O0 I Z
-1.821421	P0 I K0
-1.821421	P0 I N
-1.095042	P0 I R
-0.4521366	P0 I R0
-1.206468	P0 I S
-1.206468	P0 I T
-1.006446	P0 I T0
-1.588392	P0 I TSH0
-2.02799	R0 I A
-2.259649	R0 I A0
-2.02799	R0 I B
-1.766299	R0 I B0
-1.541276	R0 I D
-1.541276	R0 I D0
-1.353993	R0 I G
-1.196274	R0 I J0
-1.223565	R0 I K
-2.492678	R0 I K0
-2.492678	R0 I KH
-1.677703	R0 I L
-1.283901	R0 I L0
-2.259649	R0 I M
-1.877725	R0 I M0
-1.604155	R0 I N
-1.677703	R0 I N0
-2.02799	R0 I Nl
-1.766299	R0 I P
-1.437617	R0 I S
-1.677703	R0 I S0
-1.766299	R0 I SH
-2.259649	R0 I SH0
-1.353993	R0 I T
-2.02799	R0 I T0
-1.252686	R0 I TS
-1.877725	R0 I TSH0
-2.492678	R0 I U0
-1.486361	R0 I V
-1.486361	R0 I V0
-1.317534	R0 I Z
-2.492678	R0 I Z0
-2.02799	R0 I ZH
-0.3820888	R0l I S
-2.236395	S0 I </s>
-0.7676088	S0 I B0
-2.236395	S0 I D
-1.061251	S0 I D0
-1.510016	S0 I F
-1.230077	S0 I G
-1.347871	S0 I J0
-2.003365	S0 I L
-1.621442	S0 I L0
-2.236395	S0 I M
-1.284993	S0 I M0
-1.771707	S0 I N
-2.003365	S0 I P
-2.003365	S0 I R
-1.771707	S0 I R0
-2.236395	S0 I S
-2.236395	S0 I T
-2.003365	S0 I T0
-1.42142	S0 I TS
-1.771707	S0 I TSH0
-0.9143137	S0 I V
-2.035301	SH0 I </s>
-2.035301	SH0 I <sil>
-0.6660165	SH0 I J0
-1.146778	SH0 I K
-1.420348	SH0 I K0
-1.146778	SH0 I KH
-1.570613	SH0 I L
-1.420348	SH0 I M
-2.035301	SH0 I M0
-0.936418	SH0 I N
-1.420348	SH0 I S
-1.802271	SH0 I T
-1.308922	SH0 I V
-1.398909	T0 I </s>
-2.453971	T0 I <sil>
-2.453971	T0 I A
-2.453971	T0 I B
-1.315285	T0 I B0
-1.565447	T0 I F
-2.220941	T0 I G
-1.213978	T0 I J0
-2.220941	T0 I K
-2.220941	T0 I KH
-1.565447	T0 I L
-0.6703181	T0 I L0
-1.839018	T0 I M
-2.453971	T0 I M0
-1.278827	T0 I N
-1.727592	T0 I N0
-2.220941	T0 I O0
-2.220941	T0 I P
-1.157566	T0 I P0
-1.13189	T0 I R
-1.398909	T0 I R0
-1.989283	T0 I S
-2.220941	T0 I S0
-1.989283	T0 I SH
-2.453971	T0 I T
-2.220941	T0 I U
-2.220941	T0 I V
-2.453971	T0 I Z
-2.453971	T0 I ZH
-2.453971	T0 I Zl
-0.55818	T0l I B0
-1.964676	TSH0 I </s>
-2.196334	TSH0 I B
-1.33048	TSH0 I G
-1.290678	TSH0 I J0
-1.107283	TSH0 I K
-2.429363	TSH0 I Kl
-1.08304	TSH0 I L
-2.196334	TSH0 I L0
-2.429363	TSH0 I Ll
-1.060079	TSH0 I M
-2.196334	TSH0 I M0
-1.423046	TSH0 I N
-1.060079	TSH0 I N0
-1.54084	TSH0 I Nl
-2.429363	TSH0 I P0
-1.33048	TSH0 I R
-1.33048	TSH0 I R0
-0.9976893	TSH0 I S
-2.196334	TSH0 I SH0
-1.423046	TSH0 I T
-2.429363	TSH0 I T0
-1.374302	TSH0 I V
-1.285179	U I G
-0.8204907	U I P
-1.285179	U I S
-0.6261801	U0 I L0
-2.070745	V0 I </s>
-2.303775	V0 I <sil>
-2.303775	V0 I D0
-1.415252	V0 I J0
-1.128631	V0 I L
-1.415252	V0 I L0
-1.839087	V0 I N
-2.070745	V0 I N0
-1.128631	V0 I Nl
-1.034661	V0 I R
-1.248713	V0 I R0
-0.9344904	V0 I S0
-1.204892	V0 I SH0
-2.070745	V0 I T
-1.839087	V0 I T0
-1.839087	V0 I TS
-1.094998	V0 I TSH0
-2.303775	V0 I TSH0l
-1.204892	V0 I Z0
-1.688822	V0 I ZH
-0.6831188	V0l I D0
-1.16024	Y I D
-1.16024	Y I G
-1.16024	Y I L0
-0.6955519	Y I Z
-0.9587934	Z0 I L
-1.190452	Z0 I L0
-0.6085064	Z0 I M
-1.190452	Z0 I N0
-1.423481	Z0 I V
-0.55818	<s> I0 KH
-1.295187	A I0 D0
-1.528217	A I0 GH
-1.063529	A I0 KH
-1.063529	A I0 M
-1.295187	A I0 M0
-1.063529	A I0 T
-0.7671356	B0 I0 L
-1.382089	B0 I0 L0
-0.7671356	B0 I0 T
-0.9174007	B0 I0 T0
-1.007892	D0 I0 L
-1.269583	D0 I0 L0
-0.3649865	D0 I0 N
-0.8457476	D0 I0 T0
-1.501241	D0 I0 TS
-1.227187	G0 I0 M
-0.6122336	G0 I0 P
-1.481497	K0 I0 </s>
-1.714527	K0 I0 A
-1.481497	K0 I0 GH
-0.6156439	K0 I0 J0
-0.8995522	K0 I0 KH
-1.481497	K0 I0 M
-1.249839	K0 I0 M0
-0.988148	K0 I0 N
-1.880399	L0 I0 B
-1.880399	L0 I0 F
-1.880399	L0 I0 L
-1.15402	L0 I0 N
-1.880399	L0 I0 N0
-1.647369	L0 I0 Nl
-1.880399	L0 I0 S
-1.880399	L0 I0 S0
-0.6404065	L0 I0 SH
-1.15402	L0 I0 TS
-1.880399	L0 I0 TSH0
-1.065424	L0 I0 V
-1.647369	L0 I0 Z
-0.6831188	L0l I0 TSH0
-1.285179	M0 I0 L
-1.285179	M0 I0 L0
-1.285179	M0 I0 M
-1.285179	M0 I0 N
-1.052149	M0 I0 R
-1.052149	M0 I0 S
-1.8303	N0 I0 G
-1.111928	N0 I0 GH
-1.248355	N0 I0 KH
-1.057013	N0 I0 L
-2.06333	N0 I0 L0
-1.008268	N0 I0 M
-1.8303	N0 I0 M0
-1.598642	N0 I0 N
-1.336951	N0 I0 N0
-1.8303	N0 I0 P
-1.336951	N0 I0 S
-2.06333	N0 I0 SH
-1.8303	N0 I0 T
-1.8303	N0 I0 T0
-2.06333	N0 I0 TSH0
-1.598642	N0 I0 V
-1.448377	N0 I0 Z
-1.8303	N0 I0 ZH
-1.078478	P0 I0 N
-1.078478	P0 I0 S
-0.8468196	P0 I0 T0
-0.8468196	P0 I0 TSH0
-1.660942	R0 I0 </s>
-1.893972	R0 I0 E0
-1.893972	R0 I0 J0
-1.660942	R0 I0 K
-1.893972	R0 I0 KH
-1.005448	R0 I0 L
-1.660942	R0 I0 L0
-1.893972	R0 I0 M0
-1.167593	R0 I0 N
-1.893972	R0 I0 S
-1.660942	R0 I0 T
-1.005448	R0 I0 T0
-0.7552867	R0 I0 TSH0
-1.704308	S0 I0 F
-1.089355	S0 I0 KH
-0.4955303	S0 I0 L
-0.9779289	S0 I0 L0
-1.704308	S0 I0 N
-1.471278	S0 I0 T0
-1.471278	S0 I0 TS
-0.6831188	S0l I0 V
-0.5194607	SH0 I0 N
-1.565761	T0 I0 F
-2.030449	T0 I0 K
-1.141925	T0 I0 KH
-1.215474	T0 I0 L
-2.030449	T0 I0 L0
-1.565761	T0 I0 M0
-1.565761	T0 I0 N
-0.8917633	T0 I0 N0
-0.9315655	T0 I0 R
-1.797419	T0 I0 R0
-2.030449	T0 I0 S0
-1.565761	T0 I0 T
-1.141925	T0 I0 T0
-1.797419	T0 I0 TS
-1.797419	T0 I0 TSH0
-1.797419	T0 I0 V
-1.55818	TSH0 I0 </s>
-0.8318009	TSH0 I0 L
-1.55818	TSH0 I0 N
-1.093492	TSH0 I0 S
-0.743205	TSH0 I0 T0
-0.743205	TSH0 I0 TSH0
-0.3820888	TSH0l I0 TSH0
-1.900603	V0 I0 </s>
-0.8455408	V0 I0 D
-0.5313179	V0 I0 D0
-1.012079	V0 I0 L
-1.174224	V0 I0 N
-1.900603	V0 I0 S
-1.900603	V0 I0 T
-1.435915	V0 I0 T0
-1.900603	V0 I0 Z0
-1.667573	V0 I0 ZH
-1.081059	Z0 I0 L0
-1.081059	Z0 I0 N
-0.8480288	Z0 I0 T
-1.311508	J0 Il K
-1.311508	J0 Il L0
-0.8468196	J0 Il N
-1.311508	J0 Il P
-1.311508	J0 Il SH
-0.6122336	L0 Il N
-0.9941568	L0 Il S
-1.227187	L0 Il Z
-1.16024	M0 Il B
-1.16024	M0 Il K
-1.16024	M0 Il L0
-1.16024	M0 Il P
-1.403278	N0 Il G
-1.170248	N0 Il T0
-0.5883031	N0 Il Z
-0.3820888	Z0 Il </s>
-0.1889534	<s> J0 A0
-0.864633	<s> J0 E0
-0.9381816	<s> J0 I
-0.3153407	<sil> J0 A0
-1.653433	A J0 </s>
-1.927003	A J0 <sil>
-0.8995703	A J0 A
-1.073171	A J0 A0
-2.308927	A J0 B0
-1.927003	A J0 D0
-1.219876	A J0 E0
-2.541957	A J0 F
-2.077269	A J0 G
-0.6386058	A J0 I
-2.308927	A J0 Il
-1.590555	A J0 K
-2.541957	A J0 KH
-2.541957	A J0 L0
-2.308927	A J0 M
-2.077269	A J0 M0
-2.541957	A J0 N
-2.541957	A J0 N0
-1.245552	A J0 O0
-1.927003	A J0 P
-1.815577	A J0 R
-1.927003	A J0 S
-2.308927	A J0 T
-1.653433	A J0 T0
-1.073171	A J0 U
-2.541957	A J0 U0
-2.541957	A J0 V
-2.541957	A J0 V0
-2.541957	A J0 Z
-0.7795901	A0 J0 A
-2.015346	A0 J0 E0
-0.5006219	A0 J0 I
-2.015346	A0 J0 L
-1.521997	A0 J0 L0
-1.193314	A0 J0 N
-0.5296379	A0 J0 U
-0.1111818	B J0 I
-0.2184307	B0 J0 O0
-0.3820888	D J0 E0
-1.174224	E0 J0 </s>
-1.900603	E0 J0 <sil>
-1.435915	E0 J0 A
-1.900603	E0 J0 D
-0.7619172	E0 J0 I
-1.900603	E0 J0 K
-1.667573	E0 J0 N
-1.900603	E0 J0 N0
-1.900603	E0 J0 P0
-1.174224	E0 J0 S
-1.28565	E0 J0 S0
-1.900603	E0 J0 SH
-1.900603	E0 J0 T
-1.085628	E0 J0 U
-0.3820888	F J0 I
-2.546442	I J0 </s>
-2.081753	I J0 <sil>
-1.177157	I J0 A
-1.250037	I J0 A0
-2.081753	I J0 Al
-1.337664	I J0 E0
-2.546442	I J0 G
-0.4383638	I J0 I
-1.931488	I J0 Il
-2.546442	I J0 K0
-2.081753	I J0 M
-2.313412	I J0 N0
-0.9545837	I J0 O0
-2.313412	I J0 P
-1.731467	I J0 R
-1.731467	I J0 S
-2.313412	I J0 S0
-2.081753	I J0 TS
-1.540124	I J0 TSH0
-1.277328	I J0 U
-1.931488	I J0 V
-2.546442	I J0 V0
-0.1275535	I0 J0 I
-0.85921	K J0 A0
-0.85921	K J0 E0
-0.85921	K J0 I
-0.6831188	KH J0 A0
-0.6831188	KH J0 I
-1.126782	L J0 E0
-0.1510346	L J0 I
-0.55818	L0 J0 I
-0.5194607	M J0 A0
-0.5194607	M J0 I
-0.3251501	M0 J0 U0
-0.9261568	N J0 A0
-0.4614688	N J0 I
-0.3112036	N0 J0 I
-0.9261568	N0 J0 U
-1.172125	O0 J0 </s>
-1.762499	O0 J0 <sil>
-1.994157	O0 J0 A
-1.172125	O0 J0 A0
-2.227187	O0 J0 B0
-1.762499	O0 J0 D
-1.412212	O0 J0 E0
-0.6629836	O0 J0 I
-1.338663	O0 J0 K
-1.994157	O0 J0 L0
-1.412212	O0 J0 N
-1.994157	O0 J0 P
-1.994157	O0 J0 R
-1.412212	O0 J0 S
-2.227187	O0 J0 T
-2.227187	O0 J0 TSH0
-0.987194	O0 J0 U
-1.612234	O0 J0 ZH
-1.081059	R0 J0 A0
-1.081059	R0 J0 E0
-0.8480288	R0 J0 O0
-0.8480288	R0 J0 U
-0.55818	S J0 E0
-0.1399402	T J0 I
-0.9174007	T0 J0 A
-0.6557096	T0 J0 A0
-0.6557096	T0 J0 I
-1.382089	T0 J0 U
-1.805335	U J0 A0
-1.340647	U J0 E0
-0.9903597	U J0 I
-0.1874781	U J0 U
-1.805335	U J0 U0l
-0.769653	U0 J0 I
-0.1996276	U0 J0 U
-0.6931269	V J0 E0
-0.4614688	V J0 I
-0.3820888	V0 J0 I
-1.744859	Y J0 </s>
-2.359812	Y J0 <sil>
-1.471289	Y J0 A
-1.40841	Y J0 A0
-2.126782	Y J0 D
-2.126782	Y J0 E0
-1.895124	Y J0 G
-0.3036944	Y J0 I
-1.471289	Y J0 Il
-1.895124	Y J0 K
-2.126782	Y J0 M0
-1.744859	Y J0 N
-2.359812	Y J0 P
-2.126782	Y J0 R
-1.471289	Y J0 S
-2.359812	Y J0 S0
-1.895124	Y J0 SH
-2.126782	Y J0 T
-2.126782	Y J0 TSH0
-2.126782	Y J0 U
-2.359812	Y J0 Z
-0.08200591	Y0 J0 I
-0.3820888	A0 J0l I
-0.258168	<s> K A
-0.5105751	<s> K A0
-0.6163707	<sil> K A
-0.8480288	<sil> K T
-1.729428	A K </s>
-0.5657346	A K A
-0.8507554	A K A0
-2.455807	A K L
-2.455807	A K L0
-1.991119	A K N0
-0.6233233	A K O0
-1.186693	A K R
-2.222777	A K R0
-2.222777	A K S0
-2.455807	A K T
-1.44949	A K T0
-1.400745	A K U
-1.44949	A K U0
-2.222777	A K V
-1.916215	A0 K </s>
-0.8029207	A0 K A
-1.684557	A0 K A0
-2.149245	A0 K E0
-2.149245	A0 K F
-1.534291	A0 K J0
-1.916215	A0 K L
-1.916215	A0 K M
-1.684557	A0 K N
-1.916215	A0 K N0
-2.149245	A0 K O0
-1.684557	A0 K P
-1.534291	A0 K R
-1.33427	A0 K S
-1.142927	A0 K SH
-1.197843	A0 K T
-1.916215	A0 K T0
-1.916215	A0 K TSH0
-1.422866	A0 K U
-1.684557	A0 K V
-1.33427	A0 K Y
-1.916215	A0 K Y0
-0.3973685	E0 K A
-1.172673	E0 K A0
-1.637361	E0 K M
-1.637361	E0 K N
-1.637361	E0 K R
-1.404331	E0 K T
-1.404331	E0 K U
-0.1971328	F K A
-1.310427	F K R
-1.078769	F K U0
-1.543457	F K V
-1.29401	I K </s>
-2.245412	I K <sil>
-0.3690363	I K A
-0.8543192	I K A0
-1.780724	I K L
-2.012382	I K O0
-2.245412	I K P
-1.519032	I K R
-1.780724	I K R0
-1.430437	I K T
-1.630458	I K U
-2.012382	I K U0
-2.245412	I K V
-1.780724	I K Y
-0.8480288	I0 K A
-0.8480288	I0 K A0
-0.85921	Il K N0
-0.85921	Il K R
-0.4549526	J0 K A
-1.46127	J0 K A0
-1.46127	J0 K L0
-0.996582	J0 K O0
-1.46127	J0 K U
-1.46127	J0 K U0
-0.4702038	KH K A
-1.052149	KH K O0
-0.4913846	L K A
-0.9780986	L K A0
-1.442787	L K S
-1.442787	L K U
-0.06953436	L0 K A
-1.611457	L0 K A0
-1.379799	L0 K Al
-0.5275968	M K A
-0.6640238	M K A0
-1.478999	M K L0
-1.478999	M K O0
-1.478999	M K S0
-0.3969607	N K A
-1.170248	N K A0
-0.5883031	N K U
-0.394522	N0 K A
-0.9109821	O0 K A
-1.637361	O0 K A0
-1.404331	O0 K L
-0.9109821	O0 K N
-1.404331	O0 K T
-1.404331	O0 K U
-1.637361	O0 K V
-0.2203263	P K A
-1.035301	P K U
-0.5307708	R K A
-1.25715	R K Al
-1.25715	R K N
-1.25715	R K S
-0.272603	S K A
-1.084104	S K A0
-1.597718	S K L
-2.324097	S K L0
-1.002016	S K O0
-1.509122	S K R
-2.324097	S K R0
-1.859409	S K U
-1.372695	S K U0
-1.225214	S K V
-2.324097	S K V0
-0.7800288	S0 K A
-0.7800288	S0 K A0
-0.2662137	SH K A
-1.612538	SH K A0
-1.612538	SH K O0
-1.379508	SH K R0
-0.8861585	SH K U
-0.420348	Sl K A
-0.5706132	Sl K A0
-0.4281069	T K A
-1.491482	T K A0
-1.724511	T K L
-1.724511	T K N
-0.9095365	T K R
-1.724511	T K R0
-1.724511	T K T
-1.724511	T K U
-1.259823	T K U0
-0.85921	T0 K A0
-0.85921	T0 K T
-0.55818	TS K O0
-0.1111818	TSH0 K A
-0.3867142	U K A
-0.8681438	U K A0
-1.683119	U K N0
-0.9567396	U K O0
-1.450089	U K R
-1.683119	U K R0
-1.496032	U0 K </s>
-0.769653	U0 K A
-1.496032	U0 K T
-0.6075084	U0 K U
-0.7284818	Y K A
-0.5371394	Y K A0
-1.310427	Y K N
-1.543457	Y K O0
-1.310427	Y K T
-0.9841487	Y0 K R
-0.3820888	<sil> K0 I
-0.810898	A K0 E0
-0.7559826	A K0 I
-0.2431902	A K0 I0
-0.05204269	A0 K0 I
-0.3820888	E0 K0 I
-0.3251501	F K0 I
-1.496032	I K0 E0
-0.1497082	I K0 I
-1.496032	I K0 I0
-1.496032	I K0 Il
-0.3820888	J0 K0 I
-0.1650756	KH K0 I
-0.1328308	L K0 I
-0.1650756	N K0 I
-0.08389928	N0 K0 I
-0.08389928	O0 K0 I
-0.1691738	P K0 I
-0.1328308	R K0 I
-1.599573	S K0 E0
-0.09659817	S K0 I
-1.366543	S K0 I0
-0.1467776	SH K0 I
-0.2442568	Sl K0 I
-0.1710495	T K0 I
-0.55818	TS K0 I0
-0.05631667	TSH0 K0 I
-0.345265	U K0 E0
-0.6955519	U K0 I0
-0.1650756	Y K0 I
-0.7800288	<s> KH A
-0.7800288	<s> KH O0
-0.8700194	A KH </s>
-0.8700194	A KH A
-0.9328978	A KH M
-1.356733	A KH N
-0.7663596	A KH O0
-1.356733	A KH R
-1.821421	A KH S
-1.821421	A KH V
-1.336331	A0 KH </s>
-1.336331	A0 KH <sil>
-0.6099521	A0 KH A
-1.336331	A0 KH K
-1.336331	A0 KH L
-0.4084104	E0 KH A
-1.126782	E0 KH P
-1.359812	E0 KH TSH0
-0.55818	F KH O0
-1.078955	I KH </s>
-0.5965569	I KH A
-1.805335	I KH F
-1.078955	I KH K
-1.805335	I KH M
-1.805335	I KH N0
-1.340647	I KH P
-1.805335	I KH P0
-1.340647	I KH S0
-1.805335	I KH T
-1.805335	I KH TSH0
-1.450089	I0 KH </s>
-0.7945951	I0 KH A
-1.450089	I0 KH F
-1.683119	I0 KH J0
-1.683119	I0 KH K
-1.683119	I0 KH L0
-0.6280569	I0 KH P
-1.450089	I0 KH S
-1.683119	I0 KH Y
-0.55818	N KH A
-0.3820888	N0 KH A
-1.081059	O0 KH A
-0.6163707	O0 KH K0
-1.081059	O0 KH U0
-0.9841487	R KH N
-0.9841487	R KH N0
-0.6831188	S KH A
-0.55818	T KH O0
-0.3691956	U KH A
-0.9841487	U KH O0
-0.7303141	U0 KH </s>
-0.7303141	U0 KH A
-1.195002	U0 KH N0
-1.672123	Y KH <sil>
-1.207435	Y KH A
-1.439093	Y KH K
-1.207435	Y KH M0
-1.05717	Y KH P
-1.439093	Y KH S0
-1.672123	Y KH TS
-1.672123	Y KH TSH0
-1.672123	Y KH V
-1.439093	Y KH Y
-0.4338608	Y0 KH A
-0.6955519	Y0 KH N
-0.1650756	A0 KH0 I
-0.55818	U0 KH0 I
-0.85921	A0 Kl A
-0.394522	A0 Kl A0
-0.55818	Y Kl A0
-0.1710495	<s> L O0
-1.693992	A L </s>
-0.4325702	A L A
-1.493971	A L A0
-1.844257	A L D
-2.308945	A L G
-2.308945	A L J0
-2.308945	A L K
-2.075916	A L N
-1.693992	A L N0
-0.7592593	A L O0
-1.844257	A L P
-2.308945	A L S
-1.693992	A L S0
-2.075916	A L SH
-1.582566	A L TSH0
-1.844257	A L U
-1.582566	A L U0
-2.308945	A L V
-2.308945	A L V0l
-1.288448	A0 L </s>
-2.34351	A0 L <sil>
-0.4741486	A0 L A
-2.34351	A0 L B
-1.728557	A0 L D
-2.11048	A0 L F
-1.878822	A0 L G
-1.454986	A0 L J0
-1.617131	A0 L K
-2.11048	A0 L K0
-1.878822	A0 L M
-1.878822	A0 L N0
-1.878822	A0 L O0
-1.454986	A0 L P
-2.11048	A0 L R
-1.047105	A0 L S0
-1.617131	A0 L SH
-2.11048	A0 L TSH0
-1.528535	A0 L U
-1.288448	A0 L Y
-2.34351	A0 L ZH
-0.2442568	B L A
-0.3251501	D L A
-1.85235	E0 L </s>
-0.2528963	E0 L A
-2.08538	E0 L K
-1.85235	E0 L M
-1.030318	E0 L N
-1.470427	E0 L P
-2.08538	E0 L SH
-2.08538	E0 L TSH0
-2.08538	E0 L U
-1.359001	E0 L Y
-0.3152802	G L A
-0.6310439	G L A0
-1.404331	G L U
-1.448377	I L </s>
-0.6722375	I L A
-0.7412489	I L A0
-1.598642	I L J0
-2.06333	I L K
-2.06333	I L N
-2.06333	I L N0
-1.598642	I L O0
-2.06333	I L P
-1.336951	I L S
-0.9246445	I L S0
-2.06333	I L T
-2.06333	I L U
-1.8303	I L Y
-1.311204	I0 L </s>
-1.926157	I0 L <sil>
-0.686164	I0 L A
-1.926157	I0 L Al
-1.693127	I0 L J0
-1.926157	I0 L O0
-1.461469	I0 L P
-0.6297523	I0 L S0
-1.693127	I0 L T
-1.926157	I0 L U
-1.926157	I0 L V
-1.926157	I0 L Z0
-0.85921	J0 L A0
-0.6261801	J0 L S
-0.4518761	K L A
-0.93859	K L A0
-1.170248	K L O0
-1.403278	K L U0
-1.403278	K L Y
-0.6831188	KH L A
-0.6831188	KH L A0
-0.6261801	M L A
-0.6376845	O0 L A
-1.043224	O0 L G
-1.816512	O0 L K
-2.049542	O0 L K0
-1.323163	O0 L N
-1.816512	O0 L P
-0.9944798	O0 L S
-1.584854	O0 L T
-1.234567	O0 L Y
-1.816512	O0 L Z
-0.9506584	O0 L ZH
-1.285179	P L A
-0.2301169	P L A0
-1.285179	P L Y
-0.2184307	R L A0
-1.055858	S L A
-1.129407	S L A0
-0.6752677	S L O0
-0.6479771	S L U
-0.8893198	S L U0
-1.944382	S L Y
-0.9929796	S L Y0
-0.3546796	SH L A0
-0.8480288	SH L O0
-0.6831188	T L A
-1.311508	U L G
-1.311508	U L P
-1.078478	U L V
-1.078478	U L Y
-1.22824	U0 L A
-1.46127	U0 L F
-0.8463168	U0 L K
-1.46127	U0 L N
-1.46127	U0 L P
-1.46127	U0 L S
-1.46127	U0 L S0
-1.22824	U0 L V
-0.6831188	V L A
-0.6831188	V L O0
-1.704308	Y L A
-0.1851983	Y L A0
-1.704308	Y L Al
-1.704308	Y L O0
-1.471278	Y L U0
-1.704308	Y L Y0
-2.118485	Y0 L </s>
-0.2937681	Y0 L A
-2.118485	Y0 L B
-1.885455	Y0 L D
-2.118485	Y0 L F
-2.118485	Y0 L K
-1.30351	Y0 L N0
-2.118485	Y0 L O0
-1.503532	Y0 L P
-1.30351	Y0 L S
-1.653797	Y0 L SH
-2.118485	Y0 L T
-2.118485	Y0 L V
-1.653797	Y0 L Y
-0.1328308	Z L A
-0.7800288	<s> L0 I
-0.3251501	<sil> L0 I
-2.093896	A L0 A0
-0.9187519	A L0 E0
-0.5156454	A L0 I
-1.278921	A L0 I0
-2.093896	A L0 Il
-0.8539032	A L0 K
-2.093896	A L0 N
-2.093896	A L0 O0
-0.9187519	A L0 SH
-2.093896	A L0 T
-1.860866	A L0 U
-2.093896	A L0 U0
-0.2431341	A0 L0 I
-1.346919	A0 L0 Il
-1.961872	A0 L0 N
-1.235493	A0 L0 N0
-1.728842	A0 L0 SH
-1.961872	A0 L0 T
-1.235493	A0 L0 TSH0
-1.961872	A0 L0 U
-0.9587934	B L0 E0
-1.190452	B L0 I
-0.8085282	B L0 I0
-1.423481	B L0 O0
-1.423481	B L0 U
-0.8085282	B L0 U0
-0.1569177	D L0 I
-1.245969	D L0 I0
-1.478999	D L0 Il
-0.1163596	E0 L0 I
-0.4110646	G L0 A0
-0.4110646	G L0 I
-1.586209	G L0 I0
-1.97188	I L0 A
-1.589957	I L0 A0
-1.740222	I L0 E0
-0.4861722	I L0 I
-1.198593	I L0 I0
-2.20491	I L0 J0
-1.97188	I L0 K
-0.813818	I L0 N
-1.106027	I L0 O0
-2.20491	I L0 P
-1.589957	I L0 S
-1.740222	I L0 U
-1.740222	I L0 U0
-1.478531	I L0 Z0
-0.07017756	I0 L0 I
-1.46127	I0 L0 N
-0.1691738	Il L0 I
-0.7303141	J0 L0 I
-0.468623	J0 L0 S
-1.195002	J0 L0 U
-0.468623	K L0 I
-1.195002	K L0 O0
-1.195002	K L0 U
-1.195002	K L0 U0
-0.7800288	KH L0 I
-0.7800288	KH L0 U
-1.25715	M L0 A0
-0.792462	M L0 E0
-0.792462	M L0 I
-1.25715	M L0 O0
-1.25715	M L0 U
-0.3820888	M0 L0 E0
-0.8508583	O0 L0 I
-0.3353933	O0 L0 K
-1.989544	O0 L0 M0
-1.374591	O0 L0 N
-0.8508583	O0 L0 SH
-1.524856	O0 L0 U
-0.8480288	P L0 E0
-0.4661056	P L0 I
-1.081059	P L0 O0
-0.6831188	R L0 I
-0.6831188	R L0 I0
-0.55818	R0 L0 D
-0.5556923	S L0 E0
-0.3624977	S L0 I
-0.7275567	S L0 I0
-0.4500888	S0 L0 I
-0.1296568	SH L0 I0
-0.3820888	Sl L0 E0
-0.3074765	T L0 I
-1.122451	T L0 I0
-0.6831188	T0 L0 I
-0.2339278	U L0 I
-0.1846683	U0 L0 I
-1.359812	U0 L0 S
-0.3820888	U0l L0 I
-0.5727463	V L0 A0
-0.4549526	V L0 E0
-0.7348908	V L0 I
-0.1721249	Y L0 I
-0.09646265	Y0 L0 I
-1.442787	Y0 L0 Il
-0.3820888	Z L0 I
-0.3820888	ZH L0 I
-0.55818	A L0l I0
-0.3820888	A0 Ll O0
-0.3820888	I Ll U
-0.9712555	<s> M A
-0.9712555	<s> M A0
-0.7712337	<s> M N0
-1.353179	<s> M O0
-1.353179	<s> M U
-0.6976851	<s> M Y0
-0.6831188	<sil> M A
-0.6831188	<sil> M A0
-1.098347	A M </s>
-1.829718	A M <sil>
-1.075386	A M A
-1.204678	A M A0
-1.829718	A M B
-1.829718	A M D
-2.444671	A M D0
-1.979983	A M F
-2.444671	A M G
-1.979983	A M L0
-1.345788	A M N
-1.389609	A M N0
-1.148266	A M O0
-1.269527	A M P
-2.444671	A M R0
-1.389609	A M S
-1.629696	A M S0
-2.444671	A M SH
-1.829718	A M T
-1.829718	A M TSH0
-1.345788	A M U
-1.175557	A M U0
-1.629696	A M V
-2.444671	A M V0
-1.493269	A M Y
-2.211641	A M Y0
-2.211641	A M Z
-1.073349	A0 M </s>
-0.955555	A0 M A
-1.961872	A0 M G
-1.728842	A0 M J0
-1.961872	A0 M K
-1.497184	A0 M N
-1.235493	A0 M N0
-1.728842	A0 M O0
-1.073349	A0 M P
-1.961872	A0 M S
-1.728842	A0 M S0
-1.497184	A0 M V
-1.961872	A0 M V0
-1.497184	A0 M Y
-1.728842	A0 M Y0
-0.3820888	B M O0
-1.156302	E0 M </s>
-0.9562799	E0 M A
-1.771255	E0 M D
-1.538225	E0 M G
-1.538225	E0 M J0
-1.538225	E0 M K
-1.771255	E0 M L0
-1.538225	E0 M N0
-1.771255	E0 M O0
-1.771255	E0 M P
-1.771255	E0 M P0
-1.771255	E0 M S
-1.771255	E0 M U
-1.771255	E0 M Z
-1.5588	I M </s>
-2.052149	I M <sil>
-0.9158939	I M A
-0.9630977	I M A0
-1.5588	I M B
-2.285179	I M E0
-1.820491	I M G
-2.052149	I M K
-2.052149	I M L
-1.5588	I M L0
-1.470204	I M N
-1.470204	I M N0
-1.278861	I M O0
-2.285179	I M P
-2.052149	I M R
-1.820491	I M S0
-2.052149	I M U
-0.6548842	I M U0
-2.285179	I M V
-1.670226	I M Y
-2.285179	I M Y0
-1.014311	I0 M </s>
-1.245969	I0 M A
-1.245969	I0 M F
-1.478999	I0 M O0
-1.245969	I0 M P
-1.478999	I0 M S
-1.478999	I0 M Y
-0.5194607	J0 M A
-0.9841487	J0 M A0
-0.6261801	K M O0
-0.3800271	KH M </s>
-0.7303141	KH M A0
-1.081059	L M A
-0.8480288	L M A0
-0.6163707	L M N
-0.3820888	N M O0
-1.179307	O0 M </s>
-1.116428	O0 M A
-2.067831	O0 M A0
-1.452877	O0 M B
-2.067831	O0 M B0
-2.067831	O0 M D
-1.061513	O0 M K
-0.8278377	O0 M N
-1.061513	O0 M N0
-1.834801	O0 M O0
-1.834801	O0 M P
-2.067831	O0 M S
-1.603142	O0 M T
-1.116428	O0 M U
-1.834801	O0 M Y
-1.834801	O0 M Y0
-2.067831	O0 M Z
-0.3820888	P M A
-0.394522	R M A
-0.4726814	S M A
-0.8640456	S M A0
-0.5904751	S M O0
-1.478999	S M Y0
-0.2757848	S0 M A0
-1.227187	S0 M N0
-0.5706132	T0 M A
-0.8022713	T0 M O0
-0.92721	U M A
-0.92721	U M A0
-0.6955519	U M Y0
-0.1117825	U0 M A
-1.543457	U0 M N
-0.3089221	V M A
-1.244257	Y M </s>
-1.244257	Y M A
-1.85921	Y M A0
-1.62618	Y M D
-1.244257	Y M K
-1.62618	Y M L
-1.85921	Y M L0
-1.394522	Y M N
-1.244257	Y M O0
-1.62618	Y M P
-1.85921	Y M P0
-1.85921	Y M TSH0
-1.394522	Y M U
-1.85921	Y M Y
-1.081059	Y0 M O0
-0.468623	Z M A
-1.195002	Z M D
-0.7303141	Z M O0
-0.3251501	<s> M0 E0
-1.994873	A M0 A0
-0.6984681	A M0 E0
-0.2199202	A M0 I
-1.268493	A M0 I0
-1.379919	A M0 Il
-0.1265057	A0 M0 I
-1.55818	A0 M0 I0
-1.093492	A0 M0 Il
-0.4935651	E0 M0 A
-0.5671138	E0 M0 I
-1.382089	E0 M0 TSH0
-0.3820888	F M0 I
-1.866389	I M0 D0
-0.5699841	I M0 E0
-0.288138	I M0 I
-1.866389	I M0 Il
-1.633359	I M0 J0
-1.311508	I0 M0 E0
-0.1363636	I0 M0 I
-0.3820888	Il M0 E0
-0.1691738	J0 M0 E0
-0.5469988	KH M0 I
-0.3820888	L0 M0 I
-1.195002	O0 M0 E0
-0.1399402	O0 M0 I
-0.3074765	S M0 E0
-0.6577634	S M0 I
-0.3820888	S0 M0 I0
-0.7800288	T M0 E0
-0.7800288	T M0 I
-0.3251501	T0 M0 E0
-0.3820888	TS M0 E0
-0.792462	U M0 E0
-0.2020881	U M0 I
-0.3251501	U0 M0 I
-0.2203263	V M0 E0
-1.035301	V M0 I
-1.014311	Y M0 E0
-0.1569177	Y M0 I
-0.9841487	Y0 M0 A
-0.2577696	Y0 M0 I
-0.85921	Z M0 A0
-0.394522	Z M0 E0
-0.7800288	A Ml A
-0.7800288	A Ml A0
-0.3820888	A0 Ml A
-0.3820888	I Ml A0
-0.3022246	<s> N A
-1.851911	<s> N A0
-0.5555063	<s> N O0
-0.9633871	<s> N U0
-0.3074765	<sil> N A
-1.122451	<sil> N O0
-0.4139531	A N A
-0.6679893	A N A0
-0.9621862	A N O0
-1.032278	A N TS
-1.556011	A N U
-1.937934	A N U0
-1.444585	A N Y
-0.4360498	A0 N A
-1.572305	A0 N K
-1.340647	A0 N O0
-1.805335	A0 N P0
-0.8539326	A0 N S
-1.572305	A0 N U
-1.078955	A0 N Y
-0.07474138	Al N A0
-0.1467776	B N A
-0.4458412	D N A
-0.8855316	D N A0
-0.6982481	D N O0
-1.836934	D N U0
-0.8306162	D N Y
-1.063529	E0 N A
-0.7132418	E0 N T
-1.063529	E0 N TS
-1.295187	E0 N U
-1.063529	E0 N Y
-0.3251501	F N A
-0.4500888	G N U0
-0.4617589	I N A
-0.9762977	I N A0
-2.245412	I N Al
-2.245412	I N F
-2.245412	I N G
-2.012382	I N K
-1.005419	I N O0
-2.012382	I N T
-1.630458	I N U
-0.8335544	I N U0
-1.430437	I N Y
-1.630458	I N Y0
-2.245412	I N ZH
-1.461469	I0 N </s>
-0.6570429	I0 N A
-1.926157	I0 N D
-1.311204	I0 N K
-1.461469	I0 N K0
-1.199778	I0 N S
-1.693127	I0 N TS
-0.8710949	I0 N U
-1.693127	I0 N V
-1.926157	I0 N V0
-1.037633	I0 N Y
-0.6577634	Il N A
-1.122451	Il N O0
-0.8894215	Il N S
-1.122451	Il N Y0
-0.288224	J0 N A
-1.063529	J0 N A0
-0.9132636	J0 N Y
-0.4062081	K N A
-1.46127	K N A0
-0.996582	K N O0
-1.22824	K N U
-0.996582	K N U0
-0.6421968	KH N A
-1.02412	KH N O0
-1.25715	KH N U
-0.792462	KH N U0
-0.1163596	L N A
-1.295187	L N O0
-1.528217	L N Y
-0.1619112	L0 N A
-0.8861585	L0 N Y
-0.3817782	M N A
-0.4015953	M N O0
-1.813452	M N U0
-1.348764	M N Y
-2.100882	O0 N </s>
-2.100882	O0 N <sil>
-0.7036172	O0 N A
-1.869224	O0 N A0
-1.869224	O0 N Al
-1.869224	O0 N B
-2.333912	O0 N D
-1.718959	O0 N D0
-1.718959	O0 N F
-2.100882	O0 N G
-1.607533	O0 N J0
-1.445388	O0 N K
-2.100882	O0 N KH
-2.333912	O0 N L0
-1.869224	O0 N O0
-1.27885	O0 N P
-2.333912	O0 N R
-2.333912	O0 N R0
-1.235029	O0 N S
-1.869224	O0 N S0
-1.607533	O0 N T
-1.607533	O0 N TS
-2.333912	O0 N TSH0
-1.445388	O0 N U
-2.100882	O0 N U0
-2.100882	O0 N V
-1.125134	O0 N Y
-1.718959	O0 N Z
-2.100882	O0 N Z0
-1.035301	O0l N M
-1.035301	O0l N S
-0.4507382	R N A
-0.7420002	R N A0
-1.564032	R N S
-1.564032	R N U
-0.8456601	R N U0
-1.182109	R N Y
-0.3820888	R0 N A
-0.2621683	S N A
-1.078889	S N A0
-1.693843	S N O0
-1.693843	S N U
-1.693843	S N U0
-0.9674634	S N Y
-0.1721249	SH N A
-1.227187	SH N Y
-0.2890661	T N A
-1.55818	T N A0
-1.55818	T N O0
-1.55818	T N U
-0.8318009	T N Y
-0.3064784	T0 N A
-0.7303141	T0 N O0
-0.55818	TS N A
-0.1497082	TSH0 N A
-0.769653	TSH0 N Y
-0.6702256	U N A
-0.5587996	U N A0
-1.052149	U N O0
-1.285179	U N U0
-0.3074765	U0 N A
-1.122451	U0 N U
-0.6549331	V N A
-0.9285036	V N O0
-0.9285036	V N U
-0.8170776	V N U0
-1.543457	V N Y
-1.543457	V N Y0
-0.3579841	Y N A
-0.8893331	Y N A0
-1.471278	Y N B
-1.23962	Y N Y0
-0.5452868	Y0 N A
-1.16024	Y0 N K
-1.16024	Y0 N Y
-0.5442829	Z N A
-0.2957111	Z N A0
-1.913568	Z N U
-0.9621657	Z N Y
-0.1462288	ZH N A
-1.844487	ZH N U
-0.7894249	ZH N Y
-0.810898	<s> N0 E0
-0.1199137	<s> N0 I
-0.1111818	<sil> N0 I
-2.230278	A N0 A0
-2.230278	A N0 D0
-0.6956109	A N0 E0
-0.4380958	A N0 I
-0.5115396	A N0 I0
-2.230278	A N0 J0
-2.230278	A N0 T0
-2.230278	A N0 TSH0
-0.1211645	A0 N0 I
-1.654209	A0 N0 I0
-1.072264	A0 N0 Il
-1.654209	A0 N0 SH
-0.8022713	Al N0 E0
-0.3089221	Al N0 I0
-0.3820888	B N0 I0
-1.172673	D N0 A
-0.8223863	D N0 A0
-0.3152802	D N0 I
-1.404331	D N0 I0
-1.637361	D N0 Il
-1.745656	E0 N0 G
-1.513998	E0 N0 G0
-0.1539687	E0 N0 I
-1.978686	E0 N0 J0
-0.9723685	E0 N0 SH0
-0.85921	G N0 E0
-0.85921	G N0 I
-0.7763261	I N0 A0
-2.167418	I N0 D
-1.068535	I N0 E0
-0.4691606	I N0 I
-1.441039	I N0 I0
-2.167418	I N0 J0
-1.552465	I N0 K
-1.216017	I N0 K0
-2.167418	I N0 KH
-2.167418	I N0 R
-1.352444	I N0 T0
-1.934389	I N0 V
-0.1267473	I0 N0 I
-1.263002	I0 N0 Il
-0.8480288	J0 N0 E0
-0.2660838	J0 N0 I
-1.311508	K N0 E0
-0.3051903	K N0 I
-0.6965545	K N0 I0
-0.5194607	KH N0 I
-0.7511188	KH N0 U
-0.9174007	L N0 E0
-0.2434033	L N0 I
-1.149059	L N0 I0
-0.3112036	L0 N0 I
-0.9261568	L0 N0 U
-0.1967711	M N0 E0
-0.5798512	M N0 I
-1.637361	O0 N0 E0
-0.08767513	O0 N0 I
-0.3153407	R N0 I
-0.6122336	S0 N0 E0
-0.9941568	S0 N0 I
-0.6122336	S0 N0 I0
-0.6261801	SH N0 I
-0.85921	SH N0 U
-0.1068736	T N0 I
-0.1051781	T0 N0 I
-0.1650756	TSH0 N0 I
-0.3047505	U N0 I
-0.4712887	U N0 I0
-0.3251501	U0 N0 I
-1.379508	V N0 E0
-0.2214452	V N0 I
-1.14785	V N0 I0
-1.612538	V N0 O0
-1.379508	V N0 U
-0.6481707	Y N0 E0
-0.2084803	Y N0 I
-1.599573	Y N0 I0
-0.3546796	Y0 N0 I
-1.081059	Y0 N0 TSH0
-1.081059	Y0 N0 U
-1.25715	Z0 N0 </s>
-1.25715	Z0 N0 E0
-0.6421968	Z0 N0 I
-1.25715	Z0 N0 I0
-0.4614688	ZH N0 E0
-0.6931269	ZH N0 I
-0.2184307	E0 N0l I
-0.3820888	I0 N0l I
-0.08389928	O0 N0l I
-0.2184307	O0l N0l I
-1.081059	A Nl A
-0.1925351	A Nl Y
-0.6261801	A0 Nl A
-0.85921	A0 Nl Y
-0.1886847	E0 Nl A
-1.195002	E0 Nl Y
-0.2856544	I Nl A
-0.973654	I Nl O0
-0.5798512	I Nl Y
-0.5469988	I0 Nl A
-0.7800288	I0 Nl Y
-0.5448374	O0 Nl A
-0.3047505	O0 Nl Y
-0.5469988	Y Nl A
-0.7800288	Y Nl Y
-0.3820888	Y0 Nl Y
-1.481497	<s> O0 K
-0.07214087	<s> O0 N
-0.4661056	A O0 N
-0.8480288	A O0 TSH0
-0.3089221	A0 O0 N
-1.035301	A0 O0 TSH0
-1.780029	B O0 G
-1.315341	B O0 J0
-1.780029	B O0 KH
-0.3889363	B O0 L0
-1.780029	B O0 R
-1.546999	B O0 S
-1.780029	B O0 T
-1.780029	B O0 T0
-1.315341	B O0 TSH0
-1.546999	B O0 ZH
-0.2184307	B0 O0 N
-1.173676	D O0 B
-1.788629	D O0 F
-1.173676	D O0 J0
-0.3975365	D O0 L
-1.06225	D O0 M
-1.555599	D O0 M0
-1.788629	D O0 S
-1.382089	D0 O0 Nl
-1.382089	D0 O0 R
-0.5671138	D0 O0 T
-1.382089	D0 O0 TS
-0.9174007	D0 O0 ZH
-0.1997776	E0 O0 N
-0.2442568	F O0 N
-1.782527	G O0 </s>
-1.289178	G O0 D
-0.9604954	G O0 J0
-1.00924	G O0 L
-1.00924	G O0 M
-1.127034	G O0 N0
-0.6934761	G O0 R
-1.782527	G O0 S0
-1.400604	G O0 V
-0.3820888	Gl O0 L0
-0.2340089	I O0 N
-1.442787	I O0 P
-1.209757	I O0 TSH0
-1.633359	J0 O0 </s>
-1.866389	J0 O0 B0
-1.4017	J0 O0 F
-1.633359	J0 O0 L0
-0.9778649	J0 O0 M
-1.140009	J0 O0 N
-1.633359	J0 O0 N0
-1.140009	J0 O0 P
-1.251435	J0 O0 S
-1.4017	J0 O0 TS
-1.633359	J0 O0 V
-1.866389	J0 O0 V0
-1.633359	J0 O0 Z
-2.118485	K O0 <sil>
-1.653797	K O0 F
-0.5134335	K O0 J0
-1.392106	K O0 L
-1.653797	K O0 L0
-0.9097075	K O0 M
-1.392106	K O0 N
-2.118485	K O0 N0
-2.118485	K O0 P
-1.503532	K O0 R
-2.118485	K O0 S
-2.118485	K O0 SH
-1.063423	K O0 V
-1.392106	K O0 ZH
-1.190452	KH O0 D
-0.5349578	KH O0 D0
-1.423481	KH O0 TSH0
-0.9587934	KH O0 ZH
-1.787548	L O0 D
-1.294199	L O0 F
-1.294199	L O0 M
-0.9655161	L O0 N
-1.294199	L O0 P
-1.787548	L O0 S
-0.9655161	L O0 S0
-2.020578	L O0 Sl
-1.405625	L O0 TSH0
-0.7241735	L O0 V
-2.020578	L O0 V0
-1.294199	L O0 ZH
-2.020578	L O0 Zl
-1.014311	L0 O0 KH
-0.7526196	L0 O0 N
-1.014311	L0 O0 Nl
-1.478999	L0 O0 P
-1.478999	L0 O0 S
-0.7526196	L0 O0 T
-0.3820888	Ll O0 S0
-1.95612	M O0 B
-1.95612	M O0 D
-1.95612	M O0 F
-1.72309	M O0 G
-1.141145	M O0 J0
-1.341167	M O0 K
-1.72309	M O0 L
-1.72309	M O0 N
-1.95612	M O0 R
-1.95612	M O0 R0
-1.341167	M O0 T
-0.3510683	M O0 ZH
-2.195002	N O0 </s>
-2.195002	N O0 <sil>
-2.195002	N O0 B
-1.730314	N O0 D
-1.580049	N O0 F
-0.872921	N O0 G
-1.961972	N O0 G0
-1.961972	N O0 I
-0.872921	N O0 J0
-1.961972	N O0 K
-1.468623	N O0 M
-1.961972	N O0 M0
-2.195002	N O0 N
-2.195002	N O0 P
-1.2436	N O0 S
-1.468623	N O0 S0
-1.730314	N O0 SH
-1.730314	N O0 T
-1.2436	N O0 TSH0
-1.019858	N O0 V
-2.195002	N O0 ZH
-0.85921	N0 O0 M
-0.4614688	Nl O0 T
-0.9261568	Nl O0 U
-1.415711	P O0 D
-1.880399	P O0 J0
-0.9918756	P O0 L
-1.647369	P O0 L0
-0.9289973	P O0 M
-1.880399	P O0 M0
-1.880399	P O0 N0
-1.065424	P O0 R
-1.415711	P O0 R0
-0.6716216	P O0 T
-1.146571	R O0 D
-2.201633	R O0 F
-1.736945	R O0 G0
-1.968603	R O0 J0
-1.968603	R O0 K
-1.586679	R O0 K0
-1.195315	R O0 M
-2.201633	R O0 M0
-1.195315	R O0 N
-1.968603	R O0 R
-0.8105403	R O0 S
-1.968603	R O0 S0
-1.250231	R O0 SH
-2.201633	R O0 Sl
-1.475254	R O0 T
-1.586679	R O0 T0
-1.062947	R O0 TSH0
-1.475254	R O0 V
-1.968603	R O0 Z0
-1.149059	R0 O0 B
-1.382089	R0 O0 D0l
-1.149059	R0 O0 N
-0.4935651	R0 O0 V
-1.683119	S O0 B
-0.7317168	S O0 B0
-0.9567396	S O0 F
-1.683119	S O0 L0
-1.218431	S O0 N
-0.7945951	S O0 P
-1.683119	S O0 T
-0.6577634	S0 O0 L
-1.122451	S0 O0 M
-1.122451	S0 O0 T
-0.711049	SH O0 J0
-0.3595799	SH O0 L
-1.599573	SH O0 P
-1.599573	SH O0 U
-1.693843	SH0 O0 A
-1.460813	SH0 O0 B
-1.693843	SH0 O0 D
-1.460813	SH0 O0 D0
-1.693843	SH0 O0 K0
-0.9674634	SH0 O0 N
-1.693843	SH0 O0 N0
-1.229155	SH0 O0 Nl
-0.9674634	SH0 O0 R
-1.693843	SH0 O0 S
-1.693843	SH0 O0 T
-1.693843	SH0 O0 V
-2.358574	T O0 </s>
-2.126916	T O0 A
-1.200511	T O0 B
-1.865225	T O0 D
