
\data\
ngram 1=99
ngram 2=2151
ngram 3=8417

\1-grams:
-1.814971	</s>
-99	<s>	-0.6638958
-1.789369	<sil>	-0.14812
-1.569693	A	-0.1005393
-1.577255	A0	-0.1358557
-2.864905	A0l	-0.2742255
-2.033005	Al	-0.2939272
-1.801982	B	-0.5643975
-1.814971	B0	-0.5984508
-2.737601	B0l	-0.3545379
-2.737601	Bl	-0.2344908
-1.789369	D	-0.5982661
-1.777112	D0	-0.6232405
-2.49154	D0l	-0.3797999
-2.737601	DZ	-0.2253893
-3.102763	DZ0	-0.2789973
-2.559157	DZH	-0.205451
-2.559157	DZH0	-0.2246959
-2.335435	Dl	-0.3587734
-1.569693	E0	-0.119554
-2.737601	E0l	-0.5133646
-1.777112	F	-0.3357405
-1.842178	F0	-0.09679991
-2.946838	F0l	-0.2744218
-2.864905	Fl	-0.2455127
-1.777112	G	-0.5922322
-1.871204	G0	-0.8007603
-2.864905	G0l	-0.2483936
-2.381504	GH	-0.4155872
-2.864905	Gl	-0.2345205
-1.670489	I	0.008654594
-1.801982	I0	0.1714996
-2.559157	I0l	-0.2665881
-2.078918	Il	-0.1287666
-1.661136	J0	0.1113062
-2.737601	J0l	-0.3153059
-1.742291	K	-0.4664127
-1.789369	K0	-0.9100843
-2.946838	K0l	-0.2693599
-1.789369	KH	-0.3676304
-1.91874	KH0	-0.6698902
-3.102763	KH0l	-0.2839488
-2.864905	KHl	-0.2581996
-2.381504	Kl	-0.312301
-1.75359	L	-0.07149154
-1.680047	L0	0.01098359
-2.49154	L0l	-0.4122433
-2.737601	Ll	-0.2295512
-1.680047	M	-0.1412374
-1.689821	M0	-0.2608012
-2.737601	M0l	-0.3150938
-2.49154	Ml	-0.3423591
-1.69982	N	-0.1303464
-1.69982	N0	0.06752074
-2.381504	N0l	-0.5969182
-2.335435	Nl	-0.5479525
-1.58495	O0	0.03940958
-2.639278	O0l	-0.2795562
-1.731277	P	-0.441515
-1.801982	P0	-0.3869697
-2.737601	P0l	-0.5121284
-2.559157	Pl	-0.4035134
-1.680047	R	-0.06720603
-1.731277	R0	0.01113147
-2.946838	R0l	-0.2744218
-2.946838	Rl	-0.2549222
-1.765192	S	-0.5150105
-1.789369	S0	-0.1845295
-2.433046	S0l	-0.3963706
-1.777112	SH	-0.2147639
-1.886478	SH0	-0.1938027
-3.102763	SH0l	-0.2814801
-2.864905	SHl	-0.2467124
-2.255787	Sl	-0.1905555
-1.731277	T	-0.4891609
-1.789369	T0	-0.2922465
-2.293787	T0l	-0.4941151
-1.828362	TS	-0.2190984
-1.801982	TSH0	-0.2788885
-3.102763	TSH0l	-0.2814801
-3.102763	TSl	-0.2839488
-2.293787	Tl	-0.3585922
-1.577255	U	-0.1972116
-1.60889	U0	-0.09003246
-2.946838	U0l	-0.2742121
-2.737601	Ul	-0.2503203
-1.69982	V	-0.7216913
-1.731277	V0	-0.8355653
-2.433046	V0l	-0.3911754
-2.559157	Vl	-0.3375752
-1.801982	Y	0.1103562
-2.033005	Y0	0.0520367
-1.789369	Z	-0.5242274
-1.828362	Z0	-0.4629172
-2.639278	Z0l	-0.2282301
-1.814971	ZH	-0.4386545
-2.737601	ZH0	-0.2322771
-2.864905	ZHl	-0.2513535
-2.381504	Zl	-0.4903609

\2-grams:
-1.026971	<s> A	-0.201086
-2.858252	<s> A0	-0.1626737
-1.887394	<s> B	-0.2518411
-2.666038	<s> B0	-0.2030729
-1.638444	<s> D	-0.242144
-2.533257	<s> D0	-0.04936773
-1.914052	<s> E0	-0.3044061
-1.558768	<s> F	-0.2462011
-3.424054	<s> F0
-1.66862	<s> G	-0.1625399
-1.199872	<s> I	-0.1059816
-2.666038	<s> I0	-0.1720591
-1.244571	<s> J0	-0.8744092
-1.335931	<s> K	-0.6157849
-3.424054	<s> K0
-2.431708	<s> KH	-0.07528243
-3.424054	<s> KH0
-3.424054	<s> Kl
-2.005524	<s> L	-0.5510432
-1.972846	<s> L0	-0.1838475
-1.4812	<s> M	-0.3749084
-2.280339	<s> M0	-0.2218299
-1.131257	<s> N	-0.8525627
-1.406774	<s> N0	-0.9282446
-1.350706	<s> O0	-0.794049
-1.154537	<s> P	-0.6571566
-1.942455	<s> P0	-0.212879
-1.942455	<s> R	-0.3462674
-2.533257	<s> R0	-0.1836941
-1.294404	<s> S	-0.2121695
-2.431708	<s> S0	-0.06177808
-1.512764	<s> SH	-0.8720518
-3.158196	<s> SH0
-1.294404	<s> T	-0.6379611
-1.914052	<s> T0	-0.4294877
-2.666038	<s> TS	-0.3394532
-2.220722	<s> TSH0	-0.6640927
-1.736097	<s> U	-0.09165844
-3.158196	<s> U0
-1.301056	<s> V	0.02459091
-1.774224	<s> V0	-0.2095877
-2.220722	<s> Y	-0.04628143
-1.816023	<s> Z	-0.4783296
-2.220722	<s> Z0	-0.213503
-2.16831	<s> ZH	-0.1594058
-1.34508	<sil> A	-0.2539163
-2.502283	<sil> A0
-3.068085	<sil> Al
-1.506309	<sil> B	-0.1796315
-1.812341	<sil> B0	-0.2751344
-1.586486	<sil> D	-0.2153029
-1.993493	<sil> D0	-0.184483
-3.068085	<sil> DZH
-1.506309	<sil> E0	-0.4781582
-1.558084	<sil> F	-0.1968278
-2.802227	<sil> F0	-0.1365758
-1.723365	<sil> G	-0.03696176
-2.310069	<sil> G0	0.1794064
-1.380129	<sil> I	-0.09631675
-2.310069	<sil> I0	-0.07909727
-3.068085	<sil> I0l
-2.502283	<sil> Il	-0.1283729
-1.616877	<sil> J0	-0.5934314
-1.362251	<sil> K	-0.5861492
-2.802227	<sil> K0	-0.01980096
-1.993493	<sil> KH	-0.2334698
-3.068085	<sil> Kl
-1.993493	<sil> L	-0.1370918
-1.864753	<sil> L0	-0.2133343
-1.586486	<sil> M	-0.2950848
-1.92437	<sil> M0	-0.02216223
-1.438652	<sil> N	-0.7367748
-1.531425	<sil> N0	-0.8445702
-1.506309	<sil> O0	-0.6262783
-1.328563	<sil> P	-0.5444048
-1.765579	<sil> P0	-0.2703426
-1.723365	<sil> R	-0.4909262
-2.502283	<sil> R0	-0.1705835
-1.398774	<sil> S	-0.1781676
-1.812341	<sil> S0	-0.3016964
-1.506309	<sil> SH	-0.5301653
-2.502283	<sil> SH0	-0.04968345
-1.482566	<sil> T	-0.3935522
-1.765579	<sil> T0	-0.4946314
-3.068085	<sil> TS
-1.765579	<sil> TSH0	-0.1132872
-1.586486	<sil> U	-0.05683962
-2.310069	<sil> U0	-0.2315168
-1.460054	<sil> V	-0.1037166
-1.558084	<sil> V0	0.007743776
-3.068085	<sil> Vl
-1.92437	<sil> Y	-0.02617614
-3.068085	<sil> Y0
-1.586486	<sil> Z	-0.7055642
-2.502283	<sil> Z0	-0.1202883
-1.92437	<sil> ZH	-0.04772091
-2.802227	<sil> Zl
-1.549092	A </s>
-1.534755	A <sil>	0.02051836
-1.579267	A B	-0.205136
-1.883493	A B0	-0.3817914
-3.334701	A B0l
-3.068844	A Bl
-1.563917	A D	-0.1960865
-1.563917	A D0	-0.5240179
-2.443904	A D0l	0.05964954
-3.334701	A DZ0	0.01407722
-3.068844	A DZH
-3.334701	A DZH0
-2.443904	A Dl	-0.1225849
-1.853102	A E0	-0.7385281
-1.705269	A F	-0.2616965
-2.342356	A F0	0.08907577
-3.334701	A F0l
-2.768899	A Fl
-1.628867	A G	-0.433057
-2.078958	A G0	-0.02978313
-3.334701	A G0l
-2.576685	A GH	-0.0159727
-3.334701	A Gl	-0.2321628
-1.749183	A I	-0.1191521
-2.13137	A I0	-0.2190496
-3.334701	A I0l
-3.068844	A Il
-1.611697	A J0	-0.3400416
-1.549092	A K	-0.3469754
-1.916172	A K0	-0.3056095
-3.334701	A K0l
-1.749183	A KH	-0.2037573
-3.068844	A KH0	-0.04165132
-2.768899	A Kl
-1.646745	A L	-0.32035
-1.66539	A L0	-0.4884417
-2.443904	A L0l	-0.04091614
-1.646745	A M	-0.1795787
-1.684872	A M0	-0.6885642
-3.068844	A Ml	-0.04613733
-1.563917	A N	-0.5056852
-1.507429	A N0	-0.7874097
-2.13137	A Nl	-0.3911315
-1.916172	A O0	-0.2968156
-1.481721	A P	-0.545107
-1.8247	A P0	-0.2706144
-3.068844	A P0l	0.2447256
-2.342356	A Pl	-0.4721163
-1.579267	A R	-0.3896511
-1.883493	A R0	-0.5065495
-3.068844	A R0l	-0.2708982
-1.481721	A S	-0.3584605
-1.726671	A S0	-0.3316964
-2.576685	A S0l	-0.03770629
-1.772925	A SH	-0.4368226
-2.078958	A SH0	-0.05586034
-2.576685	A Sl	-0.2345814
-1.494385	A T	-0.2864407
-1.646745	A T0	-0.2608507
-3.334701	A T0l	0.01332664
-1.726671	A TS	-0.0080055
-1.726671	A TSH0	-0.2187099
-2.443904	A Tl	0.1077846
-1.8247	A U	-0.1356455
-1.951511	A U0	-0.3392949
-1.611697	A V	-0.4690659
-1.772925	A V0	-0.4042267
-3.068844	A V0l
-3.068844	A Vl	0.02297293
-2.260109	A Y	-0.364875
-1.726671	A Z	-0.2352365
-1.951511	A Z0	0.02016342
-3.334701	A Z0l
-1.628867	A ZH	-0.4480243
-3.334701	A ZH0
-3.334701	A ZHl
-3.334701	A Zl
-1.672459	A0 </s>
-1.70285	A0 <sil>	-0.05312733
-1.735528	A0 B	-0.04385874
-2.396042	A0 B0	-0.2953648
-3.154058	A0 B0l
-1.617398	A0 D	-0.4278165
-1.617398	A0 D0	-0.340694
-2.588256	A0 Dl
-2.396042	A0 E0	-0.4553013
-1.546028	A0 F	-0.3580214
-2.263261	A0 F0	-0.03982854
-3.154058	A0 Fl
-1.70285	A0 G	-0.2949728
-2.263261	A0 G0	-0.4686644
-2.588256	A0 GH	-0.08295006
-2.8882	A0 Gl	-0.1191809
-1.898314	A0 I	-0.07414185
-2.263261	A0 I0	-0.07211354
-1.414536	A0 J0	-0.6190487
-3.154058	A0 J0l	-0.08347414
-1.568539	A0 K	-0.05887902
-2.161712	A0 K0	-0.1073439
-1.617398	A0 KH	-0.2083522
-3.154058	A0 KH0	-0.04165132
-2.8882	A0 Kl	-0.1408536
-1.448224	A0 L	-0.3881074
-1.448224	A0 L0	-0.6362547
-2.588256	A0 L0l	0.00353308
-2.8882	A0 Ll	-0.222865
-1.617398	A0 M	-0.1602238
-1.672459	A0 M0	-0.4696102
-2.8882	A0 Ml	-0.02892625
-1.484747	A0 N	-0.3355716
-1.546028	A0 N0	-0.7408044
-2.8882	A0 N0l	0.1088773
-1.950727	A0 Nl	-0.01515463
-2.079466	A0 O0	-0.4959818
-1.546028	A0 P	-0.4428015
-2.8882	A0 P0
-3.154058	A0 Pl
-1.546028	A0 R	-0.2747819
-1.898314	A0 R0	-0.7708255
-1.466102	A0 S	-0.1453303
-1.770867	A0 S0	-0.1911688
-2.588256	A0 S0l	-0.2579415
-1.735528	A0 SH	-0.2632852
-1.851552	A0 SH0	-0.5414211
-3.154058	A0 SHl
-2.263261	A0 Sl	-0.003253609
-1.431054	A0 T	-0.2340217
-1.448224	A0 T0	-0.2888291
-2.396042	A0 T0l	-0.1023142
-1.644057	A0 TS	-0.5135602
-1.950727	A0 TSH0	-0.5672537
-2.8882	A0 Tl	-0.2128654
-1.950727	A0 U	-0.1197593
-2.161712	A0 U0	-0.5248902
-1.70285	A0 V	-0.1979089
-1.851552	A0 V0	-0.4378542
-3.154058	A0 Vl
-1.644057	A0 Z	-0.3666874
-1.950727	A0 Z0	-0.0914197
-3.154058	A0 Z0l
-1.644057	A0 ZH	-0.6522501
-2.161712	A0 Zl	-0.04618047
-0.7885702	A0l D
-0.7885702	A0l Nl
-0.7885702	A0l SH
-1.323425	Al B	-0.1273632
-2.31577	Al B0
-1.172056	Al D	-0.5666736
-1.424973	Al D0	0.002336591
-2.31577	Al D0l
-2.31577	Al F
-2.31577	Al F0
-1.557754	Al G	-0.1276868
-2.31577	Al G0
-2.049912	Al K
-2.31577	Al KH
-2.31577	Al L
-2.049912	Al M
-1.557754	Al N	-0.6851885
-1.241179	Al N0	-0.4671341
-1.241179	Al P	-0.2640679
-2.049912	Al P0	-0.1476794
-2.049912	Al Pl	-0.004292905
-1.424973	Al R	-0.08131664
-2.049912	Al R0	-0.2141486
-1.060027	Al S	-0.2573825
-2.31577	Al S0	-0.209089
-2.31577	Al SH0
-2.31577	Al Sl
-0.8972406	Al T	-0.1447238
-2.31577	Al T0
-1.557754	Al TS
-1.749968	Al TSH0
-2.31577	Al Tl
-2.31577	Al Z
-2.31577	Al ZH
-1.067736	B A	-0.1894754
-1.327006	B A0	-0.1490075
-2.363654	B D	-0.0894824
-2.06371	B D0
-2.629512	B E0	-0.3583913
-2.363654	B G	-0.2156208
-2.629512	B G0
-2.629512	B J0	-0.3737093
-1.426181	B L	-0.5270306
-1.284793	B L0	-0.3093181
-2.629512	B L0l
-2.363654	B M	-0.08431882
-2.629512	B M0
-1.871496	B N	-0.304589
-2.363654	B N0	-0.09066248
-1.043993	B O0	-0.4166026
-1.147913	B R	-0.7794565
-1.426181	B R0	-0.2388126
-1.147913	B U	-0.2884512
-1.043993	B U0	-0.4819919
-2.629512	B V
-2.363654	B V0	-0.2648323
-1.00008	B Y	-0.1252818
-0.9415559	B Y0	-0.9609797
-2.363654	B Z
-2.363654	B Z0	-0.1502181
-2.363654	B ZH
-2.174772	B0 A
-1.60897	B0 A0	-0.1004242
-1.908914	B0 D	-0.2276739
-2.174772	B0 D0
-0.6931728	B0 E0	-0.05252489
-2.174772	B0 E0l	0.2447256
-1.908914	B0 G	-0.2347977
-0.4517672	B0 I	-0.3256625
-1.031057	B0 I0	-0.3259982
-1.182426	B0 J0	-0.2609068
-2.174772	B0 O0	-0.5422848
-1.908914	B0 U
-2.174772	B0 U0	-0.2599029
-2.174772	B0 Z
-2.174772	B0 Z0
-0.3477067	B0l I
-0.913509	B0l Il
-1.010419	Bl A
-0.7445611	Bl A0
-1.010419	Bl U
-1.010419	Bl Y
-0.970988	D A	-0.1458771
-1.164646	D A0	-0.1908941
-1.734077	D Al	-0.2553642
-1.835625	D B	-0.3071008
-1.968406	D B0	-0.03974298
-2.726422	D E0
-1.582708	D G	-0.2486732
-2.16062	D G0	0.1992911
-2.726422	D J0	-0.05333378
-2.16062	D L	-0.2542337
-1.343231	D L0	-0.7715436
-2.726422	D M	-0.2325016
-2.460564	D M0	0.105184
-1.470679	D N	-0.7677
-1.343231	D N0	-0.4559834
-1.189762	D O0	-0.3448728
-1.189762	D R	-0.6873599
-1.523091	D R0	-0.08149382
-1.307893	D U	-0.1001275
-1.275214	D U0	-0.5082662
-2.460564	D Ul	-0.2321628
-1.307893	D V	-0.5520427
-1.216421	D V0	-0.3651682
-1.275214	D Y	-0.2341925
-1.734077	D Y0	-0.09932652
-1.835625	D Z	-0.268718
-1.968406	D Z0
-1.835625	D ZH	-0.3878511
-1.547756	D0 A	-0.1051521
-1.18281	D0 A0	-0.2803525
-1.446208	D0 B	-0.1548466
-1.680537	D0 B0	0.0758979
-0.7327198	D0 E0	-0.363864
-1.446208	D0 G	-0.01246309
-2.172696	D0 G0	0.08630913
-0.6677697	D0 I	-0.2659911
-1.18281	D0 I0	-0.3638438
-1.680537	D0 Il
-1.547756	D0 J0	-0.2482733
-2.438554	D0 M
-2.172696	D0 M0	-0.2117646
-1.235222	D0 O0	-0.4566663
-1.872752	D0 U
-1.547756	D0 Z	-0.05774672
-1.872752	D0 Z0
-1.872752	D0 ZH	-0.1116977
-0.7870395	D0l A0	-0.256871
-0.5948254	D0l E0	-0.3893674
-0.7870395	D0l I	-0.1886281
-1.352842	D0l U
-1.265691	DZ B
-1.265691	DZ B0
-1.265691	DZ D
-1.265691	DZ D0
-0.9998336	DZ G	-0.2156208
-1.265691	DZ G0
-1.265691	DZ Z
-1.265691	DZ ZH
-0.3114489	DZ0 E0	-0.2639772
-1.214539	DZH A
-1.214539	DZH A0
-0.9486811	DZH E0
-0.9486811	DZH O0
-0.9486811	DZH U
-1.265691	DZH0 B
-1.265691	DZH0 B0
-1.265691	DZH0 D
-1.265691	DZH0 D0
-1.265691	DZH0 G
-0.9998336	DZH0 Z	-0.201171
-1.265691	DZH0 Z0
-1.265691	DZH0 ZH
-0.8321863	Dl A
-0.6994052	Dl A0	-0.09060556
-1.590203	Dl L0
-1.0244	Dl O0	-0.168751
-1.0244	Dl R	-0.132313
-1.324345	Dl U0	-0.2673226
-1.590203	Dl V
-1.604952	E0 </s>
-1.569613	E0 <sil>	-0.08138836
-2.097345	E0 A	-0.04072838
-2.988142	E0 A0
-1.784811	E0 B	-0.1755103
-1.913551	E0 B0	-0.1748248
-1.643423	E0 D	-0.3979533
-1.784811	E0 D0	-0.1135061
-2.722285	E0 DZ
-2.988142	E0 DZH0
-2.988142	E0 Dl
-1.784811	E0 F	-0.1734287
-2.722285	E0 F0	-0.1365758
-1.784811	E0 G	-0.1377709
-2.097345	E0 I
-2.988142	E0 I0
-1.426366	E0 J0	-0.1952921
-1.643423	E0 K	-0.2589507
-2.722285	E0 K0	-0.2285391
-1.732399	E0 KH	-0.2350047
-1.604952	E0 L	-0.4951216
-1.536934	E0 L0	-0.6204624
-2.988142	E0 L0l
-2.988142	E0 Ll	-0.1905553
-1.536934	E0 M	-0.04715014
-1.913551	E0 M0	-0.3514642
-2.42234	E0 M0l	0.02950783
-1.844428	E0 Ml	-0.226377
-1.451483	E0 N	-0.2830115
-1.426366	E0 N0	-0.669605
-2.230126	E0 N0l	-0.4140014
-1.844428	E0 Nl	-0.1498969
-2.230126	E0 O0	-0.4004935
-1.844428	E0 P	-0.2177843
-2.230126	E0 P0	0.03225304
-2.988142	E0 P0l
-2.988142	E0 Pl
-1.402624	E0 R	-0.2771574
-1.569613	E0 R0	-0.2003755
-2.988142	E0 R0l
-2.988142	E0 Rl
-1.604952	E0 S	-0.719093
-1.685636	E0 S0	-0.4169849
-2.230126	E0 S0l	-0.01490346
-1.844428	E0 SH	-0.4428449
-2.097345	E0 SH0	-0.215296
-2.230126	E0 Sl	-0.06380755
-1.122857	E0 T	-0.6981336
-1.402624	E0 T0	-0.3400344
-2.722285	E0 T0l	0.01332664
-1.844428	E0 TS	-0.1235816
-1.844428	E0 TSH0	-0.415107
-2.42234	E0 Tl	0.006798223
-2.230126	E0 U
-1.685636	E0 V	-0.1726556
-2.230126	E0 V0	-0.2934752
-1.995797	E0 Z	-0.3060287
-1.844428	E0 Z0	-0.1644657
-1.784811	E0 ZH	-0.4337407
-2.988142	E0 ZH0
-0.1554927	E0l T	-0.6300802
-1.725643	F </s>
-1.643397	F <sil>	-0.2460228
-1.334798	F A	-0.1506418
-1.827192	F A0	-0.0547506
-2.152187	F E0
-2.452131	F J0	-0.2222024
-1.181329	F K	-0.4306857
-2.152187	F K0	-0.131629
-1.574274	F KH	-0.2334699
-2.717989	F KH0
-2.152187	F L	-0.2074356
-2.452131	F L0
-1.959973	F M	-0.09592862
-2.452131	F M0	-0.03524031
-2.152187	F N	-0.2125572
-2.452131	F N0	-0.1945011
-1.299459	F O0	-0.4141958
-1.181329	F P	-0.437516
-1.643397	F P0	-0.414317
-1.574274	F R	-0.30863
-2.452131	F R0	-0.06689938
-1.068159	F S	-0.2949744
-1.030033	F S0	-0.9690616
-1.373269	F SH	-0.7827647
-2.717989	F SH0	-0.1051551
-1.23639	F T	-0.4993621
-1.514657	F T0	-0.2501148
-1.643397	F TS	-0.2220537
-1.574274	F TSH0	-0.1269749
-2.152187	F U	-0.1726071
-2.152187	F U0	-0.1749775
-1.643397	F V	-0.1186058
-2.452131	F V0
-1.827192	F Y	-0.04103297
-2.152187	F Y0
-1.943218	F0 <sil>
-1.943218	F0 A
-2.209076	F0 A0
-1.005744	F0 E0	-0.2960914
-0.5592464	F0 I	-0.1148096
-1.318279	F0 I0	-0.06738266
-2.209076	F0 Il
-1.943218	F0 J0
-2.209076	F0 K
-2.209076	F0 K0
-2.209076	F0 L
-2.209076	F0 L0
-2.209076	F0 M
-1.943218	F0 M0
-2.209076	F0 N
-2.209076	F0 N0
-1.45106	F0 O0	-0.1729123
-2.209076	F0 P
-2.209076	F0 P0
-2.209076	F0 R
-2.209076	F0 R0
-2.209076	F0 S
-1.943218	F0 S0
-2.209076	F0 SH
-1.943218	F0 T	-0.2460562
-1.943218	F0 T0	-0.2162916
-2.209076	F0 TSH0	-0.2602501
-1.943218	F0 U
-1.643274	F0 U0
-2.209076	F0 V
-2.209076	F0 V0
-2.209076	F0 V0l
-0.6124789	F0l I
-0.6124789	F0l I0
-0.7445611	Fl P	-0.2241823
-1.010419	Fl R
-1.010419	Fl S0
-1.010419	Fl SH
-0.881557	G A	-0.2668234
-1.546487	G A0	-0.2435009
-2.355221	G Al	-0.1381289
-1.863063	G B	-0.3221168
-2.355221	G B0	-0.08743212
-1.477364	G D	-0.8288164
-1.169871	G D0	-0.8146522
-2.055277	G E0	-0.1095161
-1.084419	G L	-0.758028
-1.202549	G L0	-0.6643807
-2.621079	G M
-2.621079	G M0
-1.863063	G N	-0.1480772
-1.546487	G N0	-0.05587453
-1.03556	G O0	-0.3999932
-1.059303	G R	-0.5864415
-1.365335	G R0	-0.3121715
-1.237888	G U	-0.2854904
-1.318573	G U0	-0.4007999
-2.355221	G V	-0.1336746
-2.621079	G V0
-2.355221	G Y0	-0.2560426
-1.546487	G Z	-0.09267384
-1.863063	G Z0	0.02453712
-2.621079	G ZH	-0.4304399
-0.9423525	G0 E0	-0.09478695
-0.2467418	G0 I	-0.1358544
-0.8601063	G0 I0	-0.2273249
-1.934698	G0 J0
-1.934698	G0 U
-1.66884	G0 U0	-0.2611484
-0.7885702	G0l E0
-0.5227123	G0l I
-0.6840151	GH B	-0.1535806
-1.492749	GH B0
-0.8678097	GH D	-0.06704488
-1.192805	GH D0	-0.07860733
-1.192805	GH G	-0.1264805
-1.758607	GH G0
-1.000591	GH Z	-0.1768106
-1.758607	GH Z0
-1.492749	GH ZH
-1.010419	Gl A	-0.2660269
-1.010419	Gl L
-1.010419	Gl O0	-0.2680753
-1.010419	Gl U
-1.010419	Gl U0
-1.698086	I </s>
-1.590551	I <sil>	0.0231483
-1.778263	I A	-0.319275
-2.18527	I A0	-0.3162113
-3.259862	I A0l
-1.749861	I B	-0.1367445
-1.915142	I B0	-0.4613906
-1.674343	I D	-0.2008645
-1.674343	I D0	-0.5308762
-3.259862	I D0l
-2.994004	I DZ
-3.259862	I DZH
-3.259862	I DZH0
-2.369065	I Dl	-0.01610252
-2.18527	I E0	-0.4863887
-1.698086	I F	-0.02802956
-2.501846	I F0	0.04003726
-1.554028	I G	-0.2967878
-2.369065	I G0	0.2723682
-3.259862	I G0l
-2.501846	I GH	-0.04720616
-2.994004	I Gl
-1.554028	I J0	-0.4435997
-3.259862	I J0l
-1.554028	I K	-0.2931833
-1.957356	I K0	-0.1621719
-1.915142	I KH	-0.1100565
-3.259862	I KH0	-0.1517824
-3.259862	I KHl
-3.259862	I Kl
-1.651831	I L	-0.2822091
-1.504428	I L0	-0.3045129
-2.69406	I L0l	-0.08982054
-3.259862	I Ll	-0.2321628
-1.590551	I M	-0.3143261
-1.651831	I M0	-0.3674659
-3.259862	I M0l
-2.994004	I Ml	-0.1120807
-1.489078	I N	-0.2808513
-1.610032	I N0	-0.3589989
-2.369065	I N0l	-0.368244
-1.957356	I Nl	-0.6055568
-1.778263	I O0	-0.4527146
-1.554028	I P	-0.4901456
-1.808654	I P0	-0.5228868
-2.994004	I Pl	-0.004292905
-1.554028	I R	-0.2219115
-1.723202	I R0	-0.761981
-2.994004	I Rl
-1.489078	I S	-0.1459965
-1.674343	I S0	-0.2505619
-2.501846	I S0l	-0.07104784
-1.749861	I SH	-0.0866023
-1.841332	I SH0	-0.3303421
-3.259862	I SH0l
-2.994004	I SHl	-0.05304936
-2.369065	I Sl	-0.0785587
-1.571905	I T	0.09738064
-1.674343	I T0	-0.2739419
-2.116147	I T0l	0.1625906
-1.674343	I TS	-0.355865
-1.749861	I TSH0	-0.1948883
-2.994004	I Tl
-1.841332	I U	-0.05244899
-2.116147	I U0	-0.2754553
-1.571905	I V	-0.4911014
-1.808654	I V0	-0.2430243
-3.259862	I V0l	-0.231002
-3.259862	I Vl
-2.267516	I Y	-0.083515
-1.590551	I Z	-0.1239392
-1.876671	I Z0	-0.1129035
-3.259862	I Z0l
-1.808654	I ZH	-0.4067659
-2.994004	I ZH0
-2.05653	I Zl	-0.3472105
-1.578317	I0 </s>
-1.677491	I0 <sil>	-0.01964717
-2.122807	I0 A	-0.1345999
-2.880823	I0 A0
-1.806231	I0 B	-0.09181598
-2.614965	I0 B0
-2.880823	I0 Bl
-1.625079	I0 D	-0.2695792
-1.806231	I0 D0	-0.7072181
-2.880823	I0 D0l
-2.880823	I0 DZH0
-2.614965	I0 Dl
-2.614965	I0 E0	-0.2334526
-1.625079	I0 F	-0.3562056
-2.880823	I0 F0
-2.614965	I0 Fl	-0.2321628
-1.888477	I0 G	-0.233591
-2.614965	I0 G0	-0.1262417
-1.990026	I0 GH	-0.0570187
-1.737108	I0 J0	-0.4247318
-1.737108	I0 K	-0.2259665
-2.614965	I0 K0	-0.2285391
-1.578317	I0 KH	-0.2056667
-2.315021	I0 KH0	-0.1572921
-2.880823	I0 Kl
-1.462293	I0 L	-0.3061733
-1.399224	I0 L0	-0.6103827
-2.614965	I0 L0l
-2.614965	I0 Ll
-1.344163	I0 M	-0.1915162
-1.677491	I0 M0	-0.4029839
-2.880823	I0 M0l
-2.880823	I0 Ml
-1.399224	I0 N	-0.3466766
-1.497632	I0 N0	-0.5690923
-2.880823	I0 N0l
-2.315021	I0 Nl	-0.03894895
-2.315021	I0 O0	-0.1574554
-1.625079	I0 P	-0.1256903
-2.614965	I0 P0
-2.880823	I0 P0l
-1.806231	I0 R	-0.306628
-2.315021	I0 R0	-0.1836941
-1.536103	I0 S	-0.3383101
-1.888477	I0 S0	-0.07036823
-1.737108	I0 SH	-0.2553733
-1.888477	I0 SH0	-0.1132391
-1.497632	I0 T	-0.1049086
-1.462293	I0 T0	-0.3427731
-2.614965	I0 T0l
-1.578317	I0 TS	-0.4233721
-1.578317	I0 TSH0	-0.6398628
-2.880823	I0 TSl
-2.880823	I0 Tl
-2.315021	I0 U
-1.990026	I0 U0	-0.07343245
-1.578317	I0 V	-0.3043156
-2.315021	I0 V0	-0.1554109
-2.880823	I0 Y
-1.578317	I0 Z	-0.1576783
-1.990026	I0 Z0	-0.05018283
-1.888477	I0 ZH	-0.3122063
-2.880823	I0 ZHl
-2.880823	I0 Zl
-1.311449	I0l DZ
-1.311449	I0l GH
-0.7456467	I0l KH
-1.311449	I0l L0
-1.311449	I0l M
-1.311449	I0l M0
-1.045591	I0l S
-1.289883	Il </s>
-1.036966	Il <sil>	-0.03296025
-1.614878	Il A
-2.180681	Il D
-1.614878	Il D0
-2.180681	Il E0
-2.180681	Il F
-2.180681	Il G
-2.180681	Il J0
-1.614878	Il K	-0.07233547
-1.289883	Il L0	-0.3623884
-2.180681	Il M
-2.180681	Il M0
-1.188335	Il N	-0.08260873
-1.614878	Il N0
-1.914823	Il P
-1.106089	Il S	-0.1164846
-1.914823	Il S0
-2.180681	Il SH
-2.180681	Il Sl
-1.914823	Il T
-2.180681	Il T0	-0.1241789
-2.180681	Il T0l
-2.180681	Il TS
-2.180681	Il U
-2.180681	Il U0
-1.422664	Il V	-0.08942292
-1.614878	Il Z	-0.06032581
-1.914823	Il Z0	-0.08352577
-1.914823	Il Zl	-0.03662543
-1.948282	J0 </s>
-1.764487	J0 <sil>	-0.05105296
-1.494359	J0 A	-0.08038241
-1.039133	J0 A0	-0.193366
-1.764487	J0 Al	-0.02579805
-2.081063	J0 B	-0.04020542
-2.839079	J0 B0	0.0758979
-1.695364	J0 D	-0.1258239
-2.081063	J0 D0	-0.3195373
-2.839079	J0 DZH
-1.083645	J0 E0	-0.5646645
-1.846733	J0 F	-0.09454909
-2.839079	J0 F0
-1.846733	J0 G	-0.1029452
-2.839079	J0 G0
-0.9277884	J0 I	-0.3244797
-2.839079	J0 I0
-2.273277	J0 I0l
-2.081063	J0 Il	-0.1079559
-1.948282	J0 K	-0.1781663
-2.273277	J0 K0	-0.09898221
-1.948282	J0 KH	-0.05470376
-2.839079	J0 KH0
-1.846733	J0 L	-0.1132263
-1.948282	J0 L0	-0.2956124
-1.948282	J0 M	-0.1587337
-2.081063	J0 M0	-0.2223271
-1.764487	J0 N	-0.3964513
-1.764487	J0 N0	-0.5331523
-1.583335	J0 O0	-0.1299438
-2.839079	J0 O0l
-1.846733	J0 P	-0.2720561
-2.273277	J0 P0	-0.02626321
-1.846733	J0 R	-0.3717019
-2.573221	J0 R0	-0.06689938
-1.764487	J0 S	-0.2345448
-2.081063	J0 S0	-0.4935007
-2.839079	J0 S0l
-1.846733	J0 SH	-0.3910922
-2.573221	J0 SH0	-0.04968345
-1.846733	J0 T	-0.2694437
-1.764487	J0 T0	-0.4768616
-2.081063	J0 TS	-0.1677707
-2.081063	J0 TSH0	-0.3133212
-1.329077	J0 U	-0.0816834
-1.583335	J0 U0	-0.1258167
-2.839079	J0 U0l	-0.1552574
-2.839079	J0 Ul
-2.081063	J0 V	-0.1016663
-2.081063	J0 V0	-0.3636666
-2.273277	J0 Y
-2.081063	J0 Z	-0.2541432
-2.839079	J0 Z0
-2.573221	J0 ZH	-0.1095175
-0.7445611	J0l A0	-0.1538258
-0.4446167	J0l I	-0.107412
-1.660786	K </s>
-1.608373	K <sil>	0.0201368
-0.9988314	K A	-0.4361458
-1.124595	K A0	-0.2993687
-1.871771	K Al	-0.03842012
-1.97332	K E0	-0.5344825
-1.720402	K F	-0.01810005
-2.598259	K F0
-1.97332	K J0	-0.3094269
-2.298315	K KH
-2.864117	K KH0
-1.561611	K L	-0.5067465
-1.480926	K L0	-0.159848
-1.97332	K M	-0.1065996
-2.864117	K M0	-0.1482223
-1.480926	K N	-0.5094832
-1.382518	K N0	-0.5586922
-1.214288	K O0	-0.4057835
-1.720402	K P	-0.3983019
-2.598259	K P0
-1.278598	K R	-0.7718345
-1.412909	K R0	-0.5998216
-1.519397	K S	-0.1018373
-1.608373	K S0	-0.2918184
-2.298315	K SH	-0.2413543
-2.864117	K SH0	-0.2374274
-1.480926	K T	-0.5639436
-1.97332	K T0	-0.5522425
-2.598259	K TS
-2.298315	K TSH0	-0.03619464
-1.176161	K U	-0.1824459
-1.445587	K U0	-0.2241864
-1.519397	K V	-0.6100678
-1.660786	K V0	-0.1549284
-1.97332	K Y	-0.06494728
-2.598259	K Y0	-0.1483411
-1.138647	K0 E0	-0.1945618
-0.3453831	K0 I	-0.5047737
-0.545474	K0 I0	-0.3274712
-1.240196	K0 Il
-2.130993	K0 J0
-2.130993	K0 U
-1.865135	K0 U0
-0.6124789	K0l E0
-0.6124789	K0l I
-1.471729	KH </s>
-1.531346	KH <sil>	-0.07619764
-0.9196267	KH A	-0.3821407
-1.330341	KH A0	-0.1254084
-2.675061	KH Al
-1.784264	KH F	-0.07603087
-2.675061	KH F0
-1.784264	KH J0	-0.1785074
-1.471729	KH K	-0.2485138
-2.409203	KH K0	-0.3746671
-1.784264	KH L	-0.3425955
-1.784264	KH L0	-0.05159026
-1.419317	KH M	-0.2817951
-2.109259	KH M0	-0.09083053
-1.419317	KH N	-0.2726302
-1.531346	KH N0	-0.4702437
-1.193462	KH O0	-0.3342325
-1.471729	KH P	-0.3489121
-2.409203	KH P0	0.0172125
-1.419317	KH R	-0.3180377
-1.917045	KH R0	-0.2628753
-1.471729	KH S	-0.09566117
-2.109259	KH S0	-0.3641027
-2.675061	KH S0l
-1.682715	KH SH	-0.1247352
-2.675061	KH SH0
-1.471729	KH T	-0.08900339
-2.409203	KH T0	-0.2371608
-2.409203	KH TS
-2.409203	KH TSH0	-0.4088201
-1.330341	KH U	-0.2074396
-1.784264	KH U0	-0.1585189
-1.531346	KH V	-0.2061139
-1.531346	KH Y	-0.07402743
-1.564105	KH0 E0
-0.3787546	KH0 I	-0.1798918
-0.5274566	KH0 I0	-0.1896228
-1.564105	KH0 Il
-1.829963	KH0 J0
-1.564105	KH0 U0	-0.2756965
-0.3114489	KH0l I0
-0.7885702	KHl A
-0.7885702	KHl L0
-0.7885702	KHl U0
-0.632614	Kl A	-0.1260649
-0.824828	Kl A0	-0.3295278
-1.39063	Kl N0
-1.124772	Kl R
-1.39063	Kl T
-1.39063	Kl U0
-1.490476	L </s>
-1.691481	L <sil>	-0.1090895
-1.147239	L A	-0.3224338
-1.249677	L A0	-0.09836084
-1.691481	L Al	-0.3226527
-1.944398	L B	-0.2452733
-2.835195	L B0
-1.760604	L D	-0.475022
-2.569338	L D0
-2.269393	L E0	-0.1297685
-1.579452	L F	-0.1219325
-2.835195	L F0
-1.84285	L G	-0.2905803
-2.835195	L G0
-2.835195	L G0l
-1.691481	L J0	-0.7073669
-1.631864	L K	-0.2981601
-1.944398	L K0	0.06522363
-2.569338	L KH
-2.835195	L KH0
-2.835195	L Kl
-1.84285	L M	-0.2347471
-2.077179	L M0	-0.09083053
-1.579452	L N	-0.6884832
-1.84285	L N0	-0.4388232
-1.095673	L O0	-0.1736563
-1.631864	L P	-0.307448
-2.569338	L P0
-2.077179	L R	-0.1453679
-2.569338	L R0
-1.579452	L S	-0.23539
-1.631864	L S0	-1.068777
-1.84285	L SH	-0.4327363
-2.835195	L SH0
-2.835195	L Sl
-1.631864	L T	-0.2002005
-2.835195	L T0
-2.569338	L TS
-1.944398	L TSH0	-0.07179421
-1.353596	L U	-0.2883604
-1.383987	L U0	-0.2828459
-1.631864	L V	-0.05506791
-2.835195	L V0
-2.835195	L V0l	-0.03885654
-2.835195	L Vl
-1.383987	L Y	-0.1975953
-1.532689	L Y0	-0.2935025
-1.760604	L Z	-0.2174476
-2.569338	L Z0	-0.03723617
-1.944398	L ZH	-0.2875162
-2.16062	L0 </s>
-1.582708	L0 <sil>	-0.04966097
-1.734077	L0 A	-0.1433685
-1.470679	L0 A0	-0.1961963
-2.16062	L0 B	-0.1226625
-2.726422	L0 B0
-2.460564	L0 D	-0.1557098
-2.726422	L0 D0
-2.726422	L0 Dl
-1.020588	L0 E0	-0.3192371
-2.726422	L0 E0l	0.2540234
-2.726422	L0 F
-2.726422	L0 F0
-2.726422	L0 G	-0.2642598
-2.726422	L0 G0
-0.8611365	L0 I	-0.1844066
-1.038466	L0 I0	-0.1377969
-2.460564	L0 I0l	-0.1907933
-1.470679	L0 Il	-0.2199519
-1.835625	L0 J0	-0.1777026
-2.16062	L0 K	-0.9322913
-2.16062	L0 K0	0.09699374
-2.460564	L0 KH
-2.726422	L0 KH0
-1.968406	L0 M
-2.726422	L0 M0	-0.1482223
-1.582708	L0 N	-0.8692976
-1.968406	L0 N0	-0.507184
-1.307893	L0 O0	-0.3073348
-2.16062	L0 P	-0.06410764
-2.726422	L0 P0
-2.726422	L0 R
-2.726422	L0 R0
-1.734077	L0 S	-0.3678385
-2.16062	L0 S0
-1.968406	L0 SH	-0.5325919
-2.726422	L0 SH0
-2.726422	L0 Sl
-2.16062	L0 T	-0.04349956
-2.16062	L0 T0	-0.3412303
-1.968406	L0 TS	-0.339335
-2.726422	L0 TSH0	-0.7512428
-1.140903	L0 U	-0.493017
-1.307893	L0 U0	-0.1908386
-2.16062	L0 V	-0.06214477
-2.726422	L0 V0
-2.460564	L0 Z	-0.08411787
-2.460564	L0 Z0	-0.4731005
-2.726422	L0 ZH
-1.48754	L0l <sil>
-1.221682	L0l E0	-0.1048432
-0.4951945	L0l I
-0.729524	L0l I0	-0.07909727
-1.48754	L0l U
-1.48754	L0l U0
-0.7445611	Ll A
-1.010419	Ll A0
-1.010419	Ll O0	-0.1578325
-1.010419	Ll U	-0.27216
-1.564037	M </s>
-1.564037	M <sil>	-0.131687
-1.013563	M A	-0.1799904
-1.258513	M A0	-0.3007683
-1.975746	M Al	-0.08683006
-1.874198	M B	0.09070435
-2.300741	M B0	-0.07813424
-1.791952	M D	-0.1678682
-2.300741	M D0	-0.05497029
-1.874198	M E0	-0.06129783
-1.791952	M F	-0.0297155
-2.866543	M F0	-0.1365758
-1.874198	M G	-0.06469876
-2.866543	M G0
-1.874198	M J0	-0.3496357
-1.722829	M K	-0.3842619
-2.866543	M K0	-0.01598823
-2.108527	M KH	-0.06697161
-2.866543	M KH0
-2.108527	M L	-0.1474303
-2.108527	M L0	-0.3485254
-1.415335	M N	-0.6633774
-1.356542	M N0	-0.9752138
-1.143539	M O0	-0.4225153
-1.663212	M P	-0.2107753
-2.600686	M P0	-0.006378517
-1.722829	M R	-0.2023274
-2.866543	M R0	-0.2141486
-1.791952	M S	-0.07302792
-1.975746	M S0	-0.1086714
-1.874198	M SH	-0.104366
-2.600686	M SH0
-1.975746	M T	-0.2161487
-1.975746	M T0	-0.1165253
-2.600686	M TS	-0.3036295
-1.975746	M TSH0	-0.2123126
-1.564037	M U	-0.1679607
-1.329884	M U0	0.0177291
-2.866543	M U0l
-2.866543	M Ul
-1.791952	M V	-0.03514259
-1.874198	M V0	-0.2693471
-1.448014	M Y	-0.07806759
-1.258513	M Y0	-0.1625263
-1.975746	M Z	-0.3686962
-2.300741	M Z0	-0.03723617
-2.108527	M ZH	-0.2689504
-2.418659	M0 </s>
-2.418659	M0 <sil>
-1.660643	M0 A	-0.1773497
-1.344067	M0 A0	-0.2305411
-2.418659	M0 B0
-2.418659	M0 D
-2.418659	M0 D0	-0.2873454
-0.7307025	M0 E0	-0.3552229
-2.418659	M0 F	-0.273708
-2.418659	M0 G
-0.5913865	M0 I	-0.2553164
-0.8568828	M0 I0	-0.2479925
-1.660643	M0 Il	-0.04751529
-2.152801	M0 J0	-0.1287187
-2.418659	M0 K
-2.418659	M0 K0
-2.418659	M0 KH
-2.152801	M0 L0	-0.2332489
-2.418659	M0 N
-2.418659	M0 N0
-1.527862	M0 O0	-0.1000575
-2.418659	M0 P
-2.418659	M0 P0
-2.418659	M0 R
-2.418659	M0 S
-2.418659	M0 SH
-2.418659	M0 T
-2.418659	M0 T0
-2.418659	M0 TSH0	-0.1962693
-2.418659	M0 U	-0.2583252
-2.418659	M0 U0
-2.418659	M0 V
-2.418659	M0 V0
-2.418659	M0 Z
-2.418659	M0 ZH
-0.7445611	M0l E0	-0.1547456
-0.4446167	M0l I	-0.1023865
-0.5232232	Ml A	-0.1452236
-0.9497668	Ml A0	-0.2424189
-1.249711	Ml O0	-0.2660096
-1.249711	Ml U
-1.515569	Ml U0
-1.515569	Ml Y
-1.515569	Ml Y0
-1.761902	N </s>
-1.761902	N <sil>	-0.02648036
-0.9252033	N A	-0.4280531
-1.113489	N A0	-0.185344
-1.354895	N Al	0.05964352
-2.270692	N B	-0.2981493
-2.836494	N B0
-1.761902	N D	-0.03817371
-2.570636	N D0	-0.1126192
-2.836494	N DZH
-2.270692	N E0	-0.1016049
-1.945696	N F	-0.1446035
-2.836494	N F0
-2.078477	N G	-0.0544402
-2.570636	N G0	0.09560701
-2.078477	N J0	-0.224697
-1.945696	N K	-0.258765
-2.078477	N K0	-0.4326591
-2.836494	N K0l
-2.836494	N KH	-0.03503872
-2.570636	N KH0
-2.836494	N L
-2.270692	N L0
-2.270692	N M	-0.2482062
-2.836494	N M0
-1.13066	N O0	-0.1949608
-2.570636	N O0l	-0.231002
-1.692779	N P	-0.5535235
-2.270692	N P0	-0.02626321
-2.270692	N R	-0.1435174
-1.945696	N R0	-0.1504321
-1.692779	N S	-0.2564456
-2.270692	N S0	-0.17748
-2.270692	N SH	-0.05833112
-1.633162	N T	-0.1967901
-2.836494	N T0
-1.761902	N TS	-0.207311
-2.836494	N TSH0	-0.03619464
-1.207061	N U	-0.3780325
-1.228463	N U0	-0.501411
-2.570636	N Ul
-1.945696	N V	-0.214928
-2.078477	N V0	-0.06967947
-1.167182	N Y	-0.5193634
-1.299834	N Y0	-0.2070104
-2.570636	N Z	-0.2107261
-2.570636	N Z0	-0.08887349
-2.078477	N ZH	-0.4450417
-1.893877	N0 </s>
-2.086091	N0 <sil>
-1.659547	N0 A	-0.06549337
-1.396149	N0 A0	-0.1448411
-2.651893	N0 A0l
-2.651893	N0 Al
-2.386035	N0 B
-2.386035	N0 B0
-2.651893	N0 D
-1.761096	N0 D0	-0.03905645
-0.8662833	N0 E0	-0.2931299
-2.651893	N0 E0l
-2.386035	N0 F
-2.651893	N0 F0
-2.386035	N0 G	-0.3539341
-2.651893	N0 G0	-0.1262417
-0.762996	N0 I	-0.3902189
-1.141892	N0 I0	-0.1122636
-2.386035	N0 I0l
-1.268702	N0 Il	-0.1262439
-1.761096	N0 J0	-0.356665
-1.893877	N0 K	-0.6987138
-2.386035	N0 K0	-0.3265733
-2.651893	N0 KH	-0.2117999
-2.651893	N0 KH0
-2.651893	N0 L
-2.651893	N0 L0
-2.386035	N0 M
-2.651893	N0 M0
-1.396149	N0 O0	-0.193069
-2.386035	N0 P
-2.651893	N0 P0
-2.651893	N0 R	-0.2366147
-2.386035	N0 R0
-2.651893	N0 S
-2.386035	N0 S0	-0.1670402
-2.386035	N0 SH	-0.3374556
-2.386035	N0 SH0	-0.8223743
-2.386035	N0 T
-1.761096	N0 T0	-0.544596
-2.651893	N0 TS
-1.659547	N0 TSH0	-0.5386769
-1.349387	N0 U	-0.3339942
-2.086091	N0 U0	-0.2576568
-2.386035	N0 V
-2.651893	N0 V0
-2.651893	N0 Z
-2.651893	N0 Z0
-2.651893	N0 ZH
-0.7456467	N0l E0	-0.1095161
-0.2368571	N0l I	-0.2339115
-0.5028632	Nl A	-0.2583806
-1.492749	Nl Al
-1.758607	Nl O0	-0.1377651
-1.758607	Nl O0l
-1.758607	Nl R
-1.000591	Nl U	-0.4236084
-1.758607	Nl V
-0.6148922	Nl Y	-0.9126149
-1.737818	O0 </s>
-1.737818	O0 <sil>	-0.05758336
-2.128663	O0 A	-0.1581983
-3.121009	O0 A0
-1.702479	O0 B	-0.3111222
-2.128663	O0 B0	-0.8314619
-3.121009	O0 B0l
-1.611007	O0 D	-0.2034748
-1.977294	O0 D0	-0.4444553
-2.855151	O0 D0l	-0.03641868
-2.855151	O0 DZH0	-0.09248489
-2.855151	O0 Dl	-0.2076414
-2.555207	O0 E0	-0.5475932
-1.63941	O0 F	-0.1720239
-2.362993	O0 F0	-0.1242192
-1.776289	O0 G	-0.3180656
-2.555207	O0 G0	-0.807483
-3.121009	O0 GH
-1.977294	O0 I	-0.1174749
-2.855151	O0 I0
-1.53549	O0 J0	-0.2763731
-2.555207	O0 J0l	-0.07757331
-1.415175	O0 K	-0.09341103
-2.046417	O0 K0	-0.8305991
-1.818502	O0 KH	-0.1735451
-3.121009	O0 KH0
-1.53549	O0 L	-0.3911088
-1.702479	O0 L0	-0.522454
-1.471179	O0 M	-0.2325437
-1.917677	O0 M0	-0.4744234
-3.121009	O0 M0l	-0.1905553
-2.855151	O0 Ml
-1.232112	O0 N	-0.1691147
-1.818502	O0 N0	-0.714699
-1.865265	O0 N0l	-0.4093833
-1.559233	O0 Nl	-0.4578232
-1.512978	O0 P	-0.3455209
-2.362993	O0 P0	-0.2023545
-1.381487	O0 R	-0.4687766
-2.046417	O0 R0	-0.3618758
-1.415175	O0 S	-0.2135488
-1.865265	O0 S0	-0.2015963
-2.555207	O0 S0l	-0.07877845
-1.702479	O0 SH	-0.1567136
-2.128663	O0 SH0	-0.3673293
-2.855151	O0 Sl	-0.1363946
-1.381487	O0 T	-0.1304118
-1.737818	O0 T0	-0.3290804
-2.555207	O0 T0l	0.02262452
-1.917677	O0 TS	-0.4785205
-1.53549	O0 TSH0	-0.5923244
-3.121009	O0 TSH0l
-2.230211	O0 Tl	0.1165957
-1.818502	O0 U	-0.04063889
-2.855151	O0 U0
-1.584349	O0 V	-0.415923
-1.776289	O0 V0	-0.1659577
-3.121009	O0 Vl
-2.362993	O0 Y
-1.6698	O0 Z	-0.4449425
-1.977294	O0 Z0	0.04943901
-2.855151	O0 Z0l
-1.611007	O0 ZH	-0.8132969
-3.121009	O0 ZH0
-3.121009	O0 ZHl
-2.555207	O0 Zl	0.1206459
-1.265691	O0l G
-0.6998892	O0l N	-0.07035805
-0.9998336	O0l N0l	-0.1921527
-1.265691	O0l Nl
-1.265691	O0l P
-1.265691	O0l TSH0
-2.742813	P </s>
-1.668221	P <sil>	-0.05622914
-0.9428667	P A	-0.3970593
-1.232811	P A0	-0.2955069
-2.742813	P A0l
-1.984796	P Al	-0.07868724
-2.742813	P F
-2.177011	P F0	-0.2354668
-2.742813	P J0
-1.984796	P K	-0.586104
-1.668221	P K0	-0.466959
-2.177011	P KH	-0.1280005
-1.291605	P L	-0.6428852
-1.398093	P L0	-0.451826
-2.742813	P M	-0.2325016
-2.742813	P M0
-1.984796	P N	-0.08528211
-2.742813	P N0
-1.073501	P O0	-0.3936621
-1.003291	P R	-1.228598
-0.957203	P R0	-1.315677
-2.476955	P S	-0.358104
-2.177011	P S0
-1.852015	P SH	-0.05850182
-1.984796	P SH0	-0.5125103
-2.177011	P T	-0.08274331
-2.476955	P T0	-0.1241789
-2.177011	P TS	-0.1207326
-2.177011	P TSH0	-0.08328731
-1.359622	P U	-0.6308505
-1.440306	P U0	-0.1177489
-1.984796	P V
-2.742813	P V0
-1.398093	P Y	-0.2160218
-1.750467	P Y0	-0.1548224
-1.736873	P0 <sil>
-1.099343	P0 A0	-0.4830675
-0.7926736	P0 E0	-0.6737632
-2.302675	P0 F
-0.5170653	P0 I	-0.4989128
-1.046931	P0 I0	-0.3040015
-1.736873	P0 J0	-0.1221767
-2.036817	P0 K
-2.302675	P0 K0
-2.302675	P0 KH
-2.302675	P0 L0
-2.302675	P0 M
-2.302675	P0 M0
-2.302675	P0 N
-2.302675	P0 N0
-1.736873	P0 O0	-0.09827528
-2.302675	P0 R
-2.302675	P0 R0
-2.036817	P0 S
-2.036817	P0 S0
-2.036817	P0 T
-2.302675	P0 T0
-2.302675	P0 U	-0.2648906
-2.302675	P0 U0
-2.302675	P0 V
-0.1554927	P0l I
-0.3315839	Pl A	-0.5591854
-1.0896	Pl S
-1.0896	Pl Y
-1.750075	R </s>
-1.680952	R <sil>	-0.01862675
-0.9474147	R A	-0.3288903
-1.053882	R A0	-0.2947986
-2.258864	R Al	-0.09103626
-2.824667	R B	-0.4435772
-2.558809	R B0	0.02554986
-2.258864	R D	-0.1702822
-1.933869	R D0	-0.2102662
-2.824667	R DZ
-2.824667	R DZH
-2.824667	R Dl
-2.558809	R E0
-1.933869	R F	-0.06770732
-2.258864	R F0
-1.832321	R G	-0.4623512
-1.933869	R G0	0.2202702
-2.558809	R J0	-0.2222024
-1.680952	R K	-0.2674246
-1.933869	R K0	-0.4000122
-2.06665	R KH	-0.1649674
-2.258864	R KH0	0.05144596
-2.824667	R L	-0.4641738
-2.258864	R L0	-0.001947045
-1.933869	R M	-0.2639202
-2.06665	R M0	-0.2638631
-1.680952	R N	-0.6495236
-2.06665	R N0	-0.1679505
-1.195234	R O0	-0.1892218
-1.933869	R P	-0.05342466
-2.558809	R P0	-0.2470527
-1.680952	R S	-0.1475672
-1.933869	R S0	-0.4234055
-1.832321	R SH	-0.2202241
-2.258864	R SH0	-0.07393691
-1.750075	R T	-0.1753893
-1.832321	R T0	-0.4479669
-2.06665	R TS	-0.3002685
-2.258864	R TSH0	-0.04015616
-1.155355	R U	-0.2199926
-1.195234	R U0	-0.3417702
-1.832321	R V	-0.4170342
-2.558809	R V0
-1.406137	R Y	-0.273458
-1.479947	R Y0	-0.2341403
-2.258864	R Z	-0.1700955
-2.824667	R Z0	-0.143687
-2.258864	R ZH	-0.1744615
-2.49897	R0 </s>
-1.740953	R0 <sil>
-1.740953	R0 A	-0.0828831
-1.08044	R0 A0	-0.2570655
-2.49897	R0 B	-0.2240132
-2.49897	R0 B0
-2.49897	R0 D
-2.49897	R0 D0	-0.1879109
-0.9371936	R0 E0	-0.3252664
-2.49897	R0 F	-0.2379734
-2.49897	R0 F0
-2.49897	R0 G
-2.49897	R0 G0
-0.6990237	R0 I	-0.222928
-0.9371936	R0 I0	-0.1457897
-1.740953	R0 Il	-0.1304462
-1.506624	R0 J0	-0.1541803
-2.49897	R0 K	-0.2308904
-2.49897	R0 K0
-2.49897	R0 KH
-2.49897	R0 KH0
-2.49897	R0 L
-2.49897	R0 L0	-0.1622895
-2.49897	R0 M
-2.49897	R0 M0
-2.233112	R0 N	-0.2125572
-2.49897	R0 N0
-1.243226	R0 O0	-0.2052546
-2.49897	R0 P	-0.2259941
-2.49897	R0 P0
-2.233112	R0 S	-0.1589653
-2.49897	R0 S0
-2.49897	R0 SH
-2.49897	R0 T
-2.49897	R0 T0
-2.49897	R0 TS
-2.49897	R0 TSH0
-2.233112	R0 U
-1.740953	R0 U0
-2.233112	R0 V
-2.49897	R0 V0
-2.49897	R0 Z	-0.201171
-2.49897	R0 Z0
-2.49897	R0 ZH	-0.1859564
-0.6124789	R0l I	-0.2497432
-0.6124789	R0l I0
-0.7885702	Rl A
-0.7885702	Rl A0
-0.7885702	Rl O0
-1.914599	S </s>
-1.488415	S <sil>	-0.07028134
-1.257116	S A	-0.2397253
-1.425346	S A0	-0.4331565
-2.016148	S Al	-0.06958973
-2.641087	S E0
-1.914599	S F	-0.1100715
-2.016148	S F0	-0.07918404
-2.341143	S J0	-0.1028199
-1.167423	S K	-0.812294
-1.396944	S K0	-0.4739908
-2.148929	S KH	-0.06038857
-2.641087	S KH0	-0.01084127
-1.298915	S L	-0.7454552
-1.562226	S L0	-0.7290636
-1.562226	S M	-0.5619299
-1.562226	S M0	-0.550436
-1.396944	S N	-0.6086185
-2.641087	S N0	-0.2774951
-1.370285	S O0	-0.2974096
-1.298915	S P	-0.369416
-1.488415	S P0	-0.3091187
-1.914599	S R	-0.262208
-1.76323	S R0	-0.2620699
-2.341143	S SH	-0.09000058
-2.641087	S SH0
-1.121335	S T	-0.8132543
-2.906945	S T0l
-2.148929	S TS	-0.05732257
-2.906945	S TSH0	-0.103172
-1.604439	S U	-0.1092911
-1.604439	S U0	-0.1722859
-1.370285	S V	-0.7445309
-1.396944	S V0	-0.2823365
-1.604439	S Y	-0.09008272
-1.651201	S Y0	-0.2504979
-1.647483	S0 </s>
-1.565237	S0 <sil>	-0.1015032
-1.295109	S0 A	-0.2327991
-1.749031	S0 A0	-0.174698
-2.074026	S0 Al	-0.3009379
-1.078053	S0 E0	-0.230427
-2.639828	S0 E0l	-0.04700655
-1.749031	S0 F	-0.140094
-2.639828	S0 F0
-0.9003065	S0 I	-0.3822529
-1.18862	S0 I0	-0.2630002
-2.639828	S0 Il
-2.074026	S0 J0	-0.1690921
-1.881812	S0 K	-0.05406938
-2.639828	S0 K0
-2.639828	S0 KH
-2.639828	S0 KH0
-2.373971	S0 L	-0.2446786
-2.373971	S0 L0	-0.1193503
-2.074026	S0 M	-0.270952
-2.074026	S0 M0	-0.1543728
-2.074026	S0 N	-0.2314101
-1.384085	S0 N0	-0.4874161
-2.074026	S0 O0	-0.1130141
-1.881812	S0 P	-0.340415
-2.074026	S0 P0	-0.02626321
-2.074026	S0 R	-0.1673726
-2.373971	S0 R0	-0.2391036
-1.749031	S0 SH	-0.4876612
-2.373971	S0 SH0	-0.04968345
-1.647483	S0 T	-0.06460363
-0.9899989	S0 T0	-0.3644269
-2.639828	S0 T0l
-2.373971	S0 TS
-1.881812	S0 TSH0	0.02606533
-2.639828	S0 Tl	-0.1061838
-1.647483	S0 U	-0.2169776
-1.881812	S0 U0	-0.05983356
-1.647483	S0 V	-0.1132494
-2.373971	S0 V0
-1.566721	S0l A
-1.566721	S0l E0
-0.4921296	S0l I	-0.05387209
-1.000919	S0l I0	-0.1439251
-1.566721	S0l Il
-1.300864	S0l N0
-1.000919	S0l T0	-0.09571201
-2.082107	SH </s>
-1.757111	SH <sil>
-1.1967	SH A	-0.1403648
-1.137907	SH A0	-0.1895086
-2.647909	SH Al
-1.444577	SH E0	-0.2650529
-2.382051	SH F	-0.2342328
-2.647909	SH F0
-2.647909	SH I
-2.382051	SH I0
-2.082107	SH J0
-1.303189	SH K	-0.6159591
-1.889892	SH K0	-0.271631
-2.382051	SH KH	-0.2210978
-2.647909	SH KH0
-1.573317	SH L	-0.5287998
-1.345402	SH L0	-0.3603412
-1.889892	SH M	-0.07117651
-2.647909	SH M0
-1.889892	SH N	-0.6141312
-1.757111	SH N0	-0.2850914
-1.345402	SH O0	-0.3943045
-1.757111	SH P	-0.10944
-2.647909	SH P0
-2.647909	SH R
-2.082107	SH R0	-0.1104645
-2.382051	SH S	-0.08611427
-2.647909	SH S0	-0.1412057
-0.9785974	SH T	-1.193642
-2.382051	SH T0	-0.1126075
-2.382051	SH TS
-2.647909	SH TSH0
-1.504194	SH U	-0.1702479
-1.889892	SH U0	-0.2001317
-1.757111	SH V	-0.05232948
-2.382051	SH V0
-0.9249041	SH Y	-0.3066359
-1.504194	SH Y0	-0.248293
-2.265692	SH0 </s>
-2.265692	SH0 <sil>
-1.999834	SH0 A	-0.1038372
-1.1911	SH0 A0	-0.245937
-1.06236	SH0 E0	-0.196753
-2.265692	SH0 F
-0.6362587	SH0 I	-0.4006752
-1.374894	SH0 I0	-0.2549036
-2.265692	SH0 J0
-2.265692	SH0 K
-2.265692	SH0 K0
-2.265692	SH0 KH
-2.265692	SH0 L0
-1.999834	SH0 M
-2.265692	SH0 M0
-1.699889	SH0 N	-0.1331894
-1.999834	SH0 N0	-0.1945011
-1.06236	SH0 O0	-0.08431616
-2.265692	SH0 P
-2.265692	SH0 P0
-2.265692	SH0 R
-2.265692	SH0 R0
-1.999834	SH0 S0
-2.265692	SH0 T
-2.265692	SH0 T0
-2.265692	SH0 TSH0
-1.374894	SH0 U	-0.1627852
-1.507675	SH0 U0	-0.106455
-2.265692	SH0 V
-2.265692	SH0 V0
-0.3114489	SH0l I
-0.913509	SHl K
-0.6476511	SHl T	-0.2367584
-0.913509	SHl U
-1.891232	Sl </s>
-0.8166407	Sl A	-0.1039262
-1.891232	Sl A0
-1.891232	Sl E0
-1.000435	Sl K	-0.3459327
-1.891232	Sl K0	0.09699374
-1.891232	Sl KH
-1.891232	Sl L
-1.625375	Sl L0	-0.2239511
-1.625375	Sl M	-0.07242697
-1.891232	Sl M0	-0.03524031
-1.891232	Sl N
-1.891232	Sl O0
-1.32543	Sl P	-0.0892372
-1.891232	Sl R0
-1.32543	Sl T	-0.09050942
-1.891232	Sl U
-1.625375	Sl V	-0.1432867
-1.32543	Sl Y
-1.439444	T </s>
-1.537853	T <sil>	-0.07990205
-1.165609	T A	-0.3609082
-1.165609	T A0	-0.4439374
-2.030246	T Al	0.01078814
-2.163027	T E0	-0.1517269
-1.928698	T F	-0.06407051
-2.921043	T F0	-0.1365758
-1.6653	T J0	-0.597537
-1.576324	T K	-0.3418134
-1.717712	T K0	-0.2327433
-2.163027	T KH	-0.1572986
-2.655185	T KH0
-1.928698	T L	-0.275725
-1.928698	T L0	-0.3632019
-1.928698	T M	-0.1009029
-2.030246	T M0	0.1104726
-1.537853	T N	-0.5503929
-1.537853	T N0	-0.4551378
-1.165609	T O0	-0.3546166
-2.921043	T O0l	-0.3020185
-1.618537	T P	-0.3065142
-1.928698	T P0	-0.3977608
-1.335524	T R	-0.7040433
-1.313013	T R0	-0.7865155
-1.6653	T S	-0.1539487
-2.163027	T S0	-0.1876748
-1.928698	T SH	-0.5253589
-2.355241	T SH0	-0.2000695
-2.655185	T TS
-2.163027	T TSH0	-0.3837749
-1.313013	T U	-0.0294123
-1.576324	T U0	-0.0897623
-1.502514	T V	-0.4455028
-1.502514	T V0	-0.4155035
-2.921043	T V0l
-1.384384	T Y	-0.1773091
-1.313013	T Y0	-0.03435874
-1.406883	T0 </s>
-1.565674	T0 <sil>	-0.1067708
-1.565674	T0 A	-0.06677475
-1.818592	T0 A0	-0.1413831
-1.059559	T0 E0	-0.2762713
-1.634797	T0 F	-0.0858295
-2.443531	T0 F0	-0.02359381
-0.9539547	T0 I	-0.3227617
-1.199388	T0 I0	-0.1284422
-2.443531	T0 Il
-1.453645	T0 J0	-0.3780022
-1.565674	T0 K	-0.1142473
-2.443531	T0 K0	-0.131211
-2.443531	T0 KH	-0.2210978
-2.709389	T0 KH0
-2.709389	T0 L
-1.717043	T0 L0	-0.1968106
-1.506057	T0 M	-0.2297757
-1.818592	T0 M0	0.05701423
-1.565674	T0 N	-0.4071184
-1.453645	T0 N0	-0.5752562
-1.326198	T0 O0	-0.2431432
-1.634797	T0 P	-0.2724141
-2.443531	T0 P0
-2.443531	T0 R	-0.06468973
-2.709389	T0 R0
-1.565674	T0 S	-0.09358002
-1.634797	T0 S0	-0.3373655
-1.634797	T0 SH	-0.2198509
-2.709389	T0 SH0
-2.709389	T0 Sl
-2.709389	T0 TS
-2.143587	T0 TSH0	-0.08328731
-1.565674	T0 U	-0.0224365
-2.443531	T0 U0	-0.1671851
-1.565674	T0 V	-0.04082653
-1.951373	T0 V0	-0.1611532
-2.709389	T0 V0l
-1.515569	T0l A0
-1.249711	T0l E0
-0.3122374	T0l I	-0.1702032
-0.9497668	T0l I0	-0.06380038
-1.515569	T0l O0
-1.743764	TS </s>
-1.743764	TS <sil>	-0.08375075
-1.11859	TS A	-0.1232979
-1.358066	TS A0	-0.111917
-1.743764	TS Al	-0.05933672
-0.9400046	TS E0	-0.3631471
-2.235923	TS F
-2.501781	TS F0
-2.501781	TS J0
-1.509435	TS K	-0.2535435
-1.610983	TS K0	0.006599426
-2.501781	TS KH0
-2.501781	TS L
-2.235923	TS L0
-2.235923	TS M
-1.743764	TS M0	-0.09435428
-2.501781	TS N
-2.501781	TS N0
-1.610983	TS O0	-0.2154252
-2.235923	TS P	-0.1130121
-2.501781	TS P0
-2.501781	TS R
-2.501781	TS R0
-2.501781	TS S	-0.1517296
-2.501781	TS S0
-2.501781	TS SH
-2.501781	TS SH0
-1.427189	TS T	-0.5245147
-2.235923	TS T0
-1.610983	TS U	-0.3227065
-1.610983	TS U0	-0.127855
-2.235923	TS V
-1.083251	TS V0	-0.4886053
-0.9162618	TS Y	-0.1477305
-1.427189	TS Y0	-0.1108137
-1.813504	TSH0 </s>
-1.680723	TSH0 <sil>	-0.1582366
-1.813504	TSH0 A
-1.009744	TSH0 A0	-0.2828815
-1.120312	TSH0 E0	-0.3761655
-2.305662	TSH0 F
-2.57152	TSH0 F0
-0.7715743	TSH0 I	-0.4496836
-1.427806	TSH0 I0	-0.2810811
-2.005718	TSH0 J0	-0.1928813
-1.680723	TSH0 K	-0.5814858
-1.579175	TSH0 K0	-0.2944306
-2.57152	TSH0 KH
-2.57152	TSH0 L
-1.813504	TSH0 L0	-0.1869252
-2.57152	TSH0 M
-2.57152	TSH0 M0
-1.315777	TSH0 N	-0.8062598
-1.680723	TSH0 N0	-0.6623245
-1.226801	TSH0 O0	-0.1912883
-2.305662	TSH0 P	-0.2241823
-2.57152	TSH0 P0
-2.57152	TSH0 R
-2.005718	TSH0 R0	-0.1705835
-2.57152	TSH0 S
-2.57152	TSH0 S0
-2.57152	TSH0 SH	-0.6896381
-1.496928	TSH0 T	-0.4861107
-1.813504	TSH0 T0	-0.4157112
-2.57152	TSH0 TS
-1.315777	TSH0 U	-0.1087461
-1.496928	TSH0 U0	-0.2622178
-2.005718	TSH0 V
-2.57152	TSH0 V0	-0.1515982
-0.3114489	TSH0l I
-0.3114489	TSl Y
-0.4883286	Tl A	-0.1007012
-1.425802	Tl A0
-0.9336439	Tl O0	-0.2106836
-1.69166	Tl P
-1.69166	Tl R
-1.425802	Tl U	-0.1677016
-1.425802	Tl U0
-1.69166	Tl V0
-1.69166	Tl Y
-1.69166	Tl Y0	-0.2732657
-1.442199	U </s>
-1.540228	U <sil>	0.1027719
-1.70551	U A	-0.1532126
-2.292213	U A0	-0.2738014
-1.70551	U B	-0.2848555
-1.70551	U B0	-0.3656136
-1.442199	U D	-0.5871999
-1.540228	U D0	-0.138794
-3.05023	U Dl
-2.484427	U E0	-0.1297685
-1.794486	U F	-0.025729
-2.292213	U F0	0.04948331
-1.488453	U G	-0.194293
-2.484427	U G0	-0.3309824
-3.05023	U GH
-1.568631	U I	-0.1161421
-2.484427	U I0	-0.0730435
-1.4004	U J0	-0.8214591
-1.488453	U K	-0.4197395
-2.784372	U K0	-0.2346186
-1.794486	U KH	-0.2507822
-2.784372	U KH0
-3.05023	U KHl
-1.70551	U L	-0.2326724
-1.747723	U L0	-0.1925768
-1.540228	U M	-0.3606836
-1.51357	U M0	-0.5419294
-1.488453	U N	-0.5995312
-1.6317	U N0	-0.6356693
-3.05023	U N0l
-2.292213	U O0	-0.06449363
-1.568631	U P	-0.1918088
-1.975638	U P0	-0.1814018
-1.599021	U R	-0.1869577
-2.057884	U R0	-0.08002216
-1.380918	U S	-0.2587011
-1.70551	U S0	-0.2537496
-1.568631	U SH	-0.08752447
-1.794486	U SH0	-0.6469753
-1.540228	U T	-0.03855741
-1.70551	U T0	-0.1170749
-2.057884	U TS	-0.245561
-1.6317	U TSH0	-0.3794485
-2.784372	U Tl	-0.1670749
-1.568631	U V	-0.138345
-1.667039	U V0	-0.128135
-3.05023	U V0l
-2.484427	U Y
-1.794486	U Z	-0.1662732
-2.159432	U Z0	-0.1516343
-3.05023	U Z0l	-0.2061675
-1.667039	U ZH	-0.1090222
-1.525438	U0 </s>
-1.451628	U0 <sil>	-0.08723538
-1.795566	U0 A	-0.04809631
-2.870157	U0 A0
-1.525438	U0 B	-0.2548214
-2.112141	U0 B0	-0.2599113
-2.870157	U0 B0l
-2.870157	U0 Bl
-1.486967	U0 D	-0.3551606
-1.97936	U0 D0	-0.8546755
-2.870157	U0 DZH0
-2.870157	U0 E0
-1.795566	U0 F	-0.336621
-2.870157	U0 F0	-0.1365758
-2.870157	U0 F0l
-2.112141	U0 G	-0.4548585
-2.6043	U0 G0	0.08630913
-1.726443	U0 I	-0.08050755
-1.451628	U0 J0	-0.6193231
-1.451628	U0 K	-0.2064557
-2.112141	U0 K0	-0.320831
-1.525438	U0 KH	-0.2568801
-2.304355	U0 KH0	-0.1246453
-2.870157	U0 Kl
-2.304355	U0 L	-0.2836683
-1.418949	U0 L0	-0.6344554
-1.666826	U0 M	-0.5863494
-1.877812	U0 M0	-0.2981631
-1.567651	U0 N	-0.3004
-2.6043	U0 N0	-0.2774951
-2.6043	U0 O0	-0.150952
-1.451628	U0 P	-0.1091805
-2.6043	U0 P0
-2.870157	U0 P0l
-2.870157	U0 Pl
-1.451628	U0 R	-0.1167394
-1.795566	U0 R0	-0.5484583
-1.418949	U0 S	-0.2640811
-1.726443	U0 S0	-0.4900795
-1.333498	U0 SH	-0.1735686
-1.795566	U0 SH0	-0.5814515
-2.870157	U0 SHl
-2.6043	U0 Sl	-0.1780656
-1.388559	U0 T	-0.1792526
-1.877812	U0 T0	-0.1242454
-2.6043	U0 T0l	0.02262452
-2.112141	U0 TS	-0.4612603
-1.614414	U0 TSH0	-0.3532154
-2.870157	U0 Tl	-0.6197646
-1.795566	U0 V	-0.07242699
-1.97936	U0 V0	-0.1735418
-1.726443	U0 Z	-0.1869626
-2.304355	U0 Z0
-1.308381	U0 ZH	-0.6380246
-0.6124789	U0l L0	-0.2124476
-0.6124789	U0l SH
-1.010419	Ul F
-1.010419	Ul K
-1.010419	Ul P
-1.010419	Ul S
-1.010419	Ul T
-1.051508	V A	-0.3872327
-1.196021	V A0	-0.373455
-1.520612	V Al	-0.01319018
-1.872986	V B	-0.05420467
-1.974535	V B0	-0.2953648
-1.303556	V D	-0.3513471
-1.662	V D0	-0.1379643
-1.609588	V E0	-0.6417339
-1.383733	V G	-0.3147196
-2.599474	V G0	-0.224116
-1.79074	V J0	-0.2317575
-1.662	V L	-0.1722526
-1.482141	V L0	-0.7255498
-1.562826	V M	-0.2400518
-1.872986	V M0	-0.2223271
-1.383733	V N	-0.5324636
-1.355331	V N0	-0.5750759
-1.177376	V O0	-0.245575
-2.865332	V O0l
-1.355331	V R	-0.5823298
-1.662	V R0	-0.5630999
-1.721617	V U	-0.1574652
-1.721617	V U0	-0.1785491
-1.215502	V Y	-0.2867573
-1.235899	V Y0	-0.1405567
-1.328672	V Z	-0.2219068
-1.79074	V Z0	-0.4263408
-1.974535	V ZH	-0.04938345
-1.213057	V0 A0	-0.2712054
-2.090914	V0 B	-0.2356445
-2.356772	V0 B0
-2.356772	V0 D0
-0.6013377	V0 E0	-0.4718986
-0.6013377	V0 I	-0.4985808
-0.7069423	V0 I0	-0.519233
-2.356772	V0 Il
-1.598756	V0 J0	-0.2165682
-1.15344	V0 O0	-0.4569938
-2.356772	V0 U0	-0.2611484
-2.356772	V0 Z
-2.356772	V0 Z0
-2.356772	V0 ZH
-0.9998336	V0l E0	-0.1575373
-0.3748941	V0l I	-0.139873
-1.265691	V0l I0
-1.265691	V0l O0
-0.9486811	Vl A
-1.214539	Vl A0
-0.4565227	Vl O0	-0.08475541
-1.214539	Vl Y
-1.421193	Y </s>
-1.506644	Y <sil>	-0.1153664
-1.574662	Y A	-0.2127506
-2.392051	Y A0
-1.655346	Y B	-0.2437148
-2.392051	Y B0	0.07208307
-2.957853	Y Bl
-1.655346	Y D	-0.245653
-1.814138	Y D0	-0.03524362
-2.392051	Y E0	-0.3926912
-1.655346	Y F	-0.1210121
-2.691995	Y F0	-0.2553907
-1.539323	Y G	-0.08700255
-2.691995	Y G0
-1.883261	Y GH	-0.0292303
-1.754521	Y I	-0.1390262
-2.957853	Y I0
-2.957853	Y Il
-1.539323	Y J0	-0.3156985
-2.957853	Y J0l
-1.539323	Y K	-0.1931364
-2.392051	Y K0	0.07710905
-1.613133	Y KH	0.06745973
-2.691995	Y KH0	-0.1238232
-2.957853	Y KH0l
-2.957853	Y KHl
-1.702109	Y L	-0.4934101
-1.506644	Y L0	-0.3860139
-1.539323	Y M	0.09600163
-1.574662	Y M0	-0.5648708
-2.392051	Y Ml
-1.506644	Y N	-0.4118749
-1.613133	Y N0	-0.5009913
-2.691995	Y Nl	-0.09010145
-1.754521	Y O0	-0.3718584
-1.476254	Y P	-0.3347505
-2.067055	Y P0	0.05358802
-1.754521	Y R	-0.3565732
-2.067055	Y R0	-0.1515249
-1.349822	Y S	-0.369951
-1.814138	Y S0	-0.2534097
-2.691995	Y S0l
-1.814138	Y SH	-0.03304175
-2.199836	Y SH0	-0.05161545
-2.392051	Y Sl	-0.1533823
-1.655346	Y T	-0.1397269
-2.199836	Y T0	-0.4174047
-2.691995	Y T0l
-2.199836	Y TS	-0.1460347
-1.965507	Y TSH0	-0.1941097
-1.965507	Y U	-0.1537937
-2.957853	Y U0
-1.447851	Y V	-0.4755041
-1.702109	Y V0	-0.1761859
-1.539323	Y Z	-0.0942432
-1.965507	Y Z0	-0.01496162
-2.067055	Y ZH	-0.01757817
-2.691995	Y Zl	-0.03662543
-1.516039	Y0 </s>
-1.456422	Y0 <sil>	-0.03548557
-1.901738	Y0 A
-1.667408	Y0 B	-0.02110206
-2.093952	Y0 B0	-0.04089889
-1.901738	Y0 D	-0.2114992
-1.768956	Y0 D0	-0.08721296
-2.659754	Y0 D0l	-0.1993527
-1.768956	Y0 F	-0.2372873
-2.659754	Y0 F0
-1.901738	Y0 G	-0.1582291
-2.659754	Y0 G0	0.08630913
-2.393896	Y0 GH	-0.07101141
-1.667408	Y0 I	-0.02761108
-2.659754	Y0 I0l
-1.667408	Y0 J0	-0.7405655
-1.667408	Y0 K	-0.07243096
-2.393896	Y0 K0	0.09699374
-1.456422	Y0 KH	-0.1851168
-2.659754	Y0 KH0
-2.659754	Y0 Kl
-1.516039	Y0 L	-0.31973
-1.456422	Y0 L0	-0.6371585
-2.393896	Y0 L0l	-0.1094489
-1.315034	Y0 M	-0.01377386
-1.585162	Y0 M0	-0.453065
-1.585162	Y0 N	-0.181591
-1.585162	Y0 N0	-0.318647
-2.659754	Y0 N0l	-0.1907933
-2.393896	Y0 Nl	-0.04305176
-1.40401	Y0 P	-0.08660498
-1.901738	Y0 P0	-0.2389379
-1.585162	Y0 R	-0.2664993
-2.093952	Y0 R0	-0.3752134
-1.516039	Y0 S	-0.281242
-2.093952	Y0 S0	-0.6350577
-1.667408	Y0 SH	-0.4704552
-2.093952	Y0 SH0	-0.3752163
-1.516039	Y0 T	-0.1911721
-1.768956	Y0 T0	-0.1682456
-2.393896	Y0 TS	-0.2424008
-2.093952	Y0 TSH0	-0.1978723
-2.659754	Y0 Tl
-2.659754	Y0 U
-2.659754	Y0 U0
-2.093952	Y0 V	-0.1131027
-2.393896	Y0 V0	-0.05850089
-2.659754	Y0 V0l
-1.901738	Y0 Z	-0.07277927
-2.393896	Y0 Z0	-0.6633299
-1.768956	Y0 ZH	-0.1955115
-2.659754	Y0 Zl
-0.7964779	Z A	-0.2740212
-1.227111	Z A0	-0.3716287
-2.610302	Z Al
-1.354558	Z B	-0.1120375
-1.719505	Z B0	-0.007557422
-1.227111	Z D	-0.1304777
-2.344444	Z D0	-0.09481364
-2.610302	Z E0	-0.2427504
-1.40697	Z G	-0.2565751
-2.344444	Z G0	0.08630913
-2.0445	Z J0	-0.1092204
-1.466587	Z L	-0.2462977
-1.53571	Z L0	-0.5005389
-1.852286	Z M	-0.2359777
-1.852286	Z M0	-0.1374401
-1.048526	Z N	-0.9353049
-1.852286	Z O0	-0.1351407
-1.53571	Z R	-0.1170072
-1.719505	Z R0	-0.1224896
-1.53571	Z U	-0.1769777
-2.0445	Z U0	-0.1122074
-1.307796	Z V	-0.2816343
-1.227111	Z V0	-0.159988
-1.466587	Z Y	-0.1330588
-1.852286	Z Y0	-0.0898453
-2.0445	Z ZH	-0.2535034
-2.336755	Z0 A
-1.578739	Z0 A0	-0.1117512
-1.770953	Z0 B	-0.04761223
-2.070897	Z0 B0	-0.07813424
-1.445957	Z0 D	-0.03304515
-0.800095	Z0 D0	-0.6202399
-2.070897	Z0 D0l	-0.1494007
-2.336755	Z0 Dl
-1.19304	Z0 E0	-0.3513449
-1.578739	Z0 G	-0.02956174
-2.336755	Z0 G0
-0.5972328	Z0 I	-0.410128
-1.344409	Z0 I0	-0.1407916
-2.336755	Z0 Il	-0.2539069
-1.770953	Z0 J0
-2.336755	Z0 M
-2.336755	Z0 M0
-1.133423	Z0 N0	-0.1589059
-2.336755	Z0 N0l
-2.070897	Z0 O0
-2.336755	Z0 U
-2.070897	Z0 U0	-0.2611484
-2.070897	Z0 ZH
-1.0896	Z0l A0
-0.8237423	Z0l D0	-0.1879109
-0.8237423	Z0l E0	-0.1509953
-1.0896	Z0l I
-1.320023	ZH A	-0.1884902
-1.012529	ZH A0	-0.4948468
-2.19788	ZH B	-0.07556985
-2.19788	ZH B0	-0.08743212
-1.080546	ZH D	-0.6462685
-1.389145	ZH D0	-0.2669278
-1.207994	ZH E0	-0.6896933
-1.897935	ZH G
-2.19788	ZH G0	-0.2122829
-2.19788	ZH J0	-0.1092204
-2.19788	ZH L0	-0.3280884
-2.19788	ZH M	-0.2559683
-2.463737	ZH M0
-1.320023	ZH N	-0.6976072
-1.705721	ZH N0	-0.3261847
-1.705721	ZH O0	-0.3597904
-2.463737	ZH R
-2.463737	ZH R0
-1.57294	ZH U	-0.06577112
-2.19788	ZH U0	-0.09506749
-2.463737	ZH V0
-0.7242152	ZH Y	-0.1878163
-1.012529	ZH Y0	-0.3688882
-2.19788	ZH Z	-0.1080737
-2.19788	ZH Z0
-1.214539	ZH0 B
-0.9486811	ZH0 D	-0.2276739
-1.214539	ZH0 D0
-1.214539	ZH0 G
-1.214539	ZH0 G0
-1.214539	ZH0 Z
-1.214539	ZH0 Z0
-0.7885702	ZHl O0
-0.5227123	ZHl Y
-0.3718542	Zl A	-0.05524041
-0.7575527	Zl A0	-0.08010973
-1.515569	Zl B
-1.515569	Zl U
-1.515569	Zl U0
-1.515569	Zl V0

\3-grams:
-1.225096	A <sil> A
-2.580781	A <sil> B
-2.415364	A <sil> B0
-1.687066	A <sil> D
-2.026238	A <sil> E0
-1.82435	A <sil> F
-2.415364	A <sil> G
-0.9709948	A <sil> I
-2.580781	A <sil> I0
-1.82435	A <sil> J0
-1.29076	A <sil> K
-2.178603	A <sil> K0
-2.580781	A <sil> KH
-2.026238	A <sil> L0
-1.582913	A <sil> M
-1.267751	A <sil> N
-1.39735	A <sil> N0
-1.82435	A <sil> O0
-1.150611	A <sil> P
-2.026238	A <sil> P0
-1.582913	A <sil> R
-1.29076	A <sil> S
-1.687066	A <sil> S0
-1.315056	A <sil> SH
-1.582913	A <sil> T
-2.026238	A <sil> T0
-2.415364	A <sil> TSH0
-1.82435	A <sil> U
-1.2459	A <sil> V
-2.580781	A <sil> V0
-2.415364	A <sil> Y
-1.582913	A <sil> Z
-2.415364	A <sil> Z0
-2.026238	A <sil> ZH
-1.347785	A0 <sil> A
-1.749963	A0 <sil> D
-1.749963	A0 <sil> D0
-1.082848	A0 <sil> I
-1.749963	A0 <sil> N
-1.584545	A0 <sil> N0
-1.19542	A0 <sil> P
-1.584545	A0 <sil> S
-1.584545	A0 <sil> S0
-1.082848	A0 <sil> SH
-1.749963	A0 <sil> T
-1.584545	A0 <sil> T0
-1.584545	A0 <sil> V
-1.322667	E0 <sil> A
-1.488085	E0 <sil> E0
-1.085907	E0 <sil> P
-0.9335418	E0 <sil> SH
-1.322667	E0 <sil> T
-1.241996	F <sil> A
-1.796539	F <sil> F
-0.7986709	F <sil> I
-0.9660634	F <sil> K
-1.796539	F <sil> N
-0.7986709	F <sil> P
-1.796539	F <sil> R
-1.129425	F <sil> S
-1.796539	F <sil> T
-1.01049	I <sil> A
-1.886117	I <sil> B
-1.442792	I <sil> D
-2.44066	I <sil> D0
-2.44066	I <sil> E0
-1.491754	I <sil> F
-1.398796	I <sil> G
-0.8786734	I <sil> I
-2.038482	I <sil> J0
-1.257229	I <sil> K
-2.44066	I <sil> KH
-2.275242	I <sil> L0
-1.546945	I <sil> M
-1.684229	I <sil> N
-1.546945	I <sil> N0
-1.886117	I <sil> O0
-1.046138	I <sil> P
-2.275242	I <sil> P0
-2.275242	I <sil> R
-1.546945	I <sil> S
-2.44066	I <sil> S0
-1.684229	I <sil> SH
-1.886117	I <sil> T
-2.275242	I <sil> T0
-2.038482	I <sil> TSH0
-1.491754	I <sil> U
-1.684229	I <sil> V
-2.44066	I <sil> V0
-1.610185	I <sil> Z
-2.44066	I <sil> Zl
-1.291633	I0 <sil> A
-1.457051	I0 <sil> E0
-1.457051	I0 <sil> G
-1.457051	I0 <sil> I
-1.457051	I0 <sil> N
-1.291633	I0 <sil> P
-1.291633	I0 <sil> S
-0.9394503	Il <sil> A
-1.188334	J0 <sil> A
-1.542587	J0 <sil> B0
-1.944765	J0 <sil> D
-1.779347	J0 <sil> G
-1.114289	J0 <sil> I
-1.542587	J0 <sil> J0
-1.277651	J0 <sil> K
-1.542587	J0 <sil> L0
-1.944765	J0 <sil> M
-1.779347	J0 <sil> O0
-1.277651	J0 <sil> P
-1.188334	J0 <sil> S
-1.779347	J0 <sil> S0
-1.779347	J0 <sil> SH
-1.779347	J0 <sil> T
-1.277651	J0 <sil> V
-1.944765	J0 <sil> V0
-1.211506	K <sil> A
-1.600632	K <sil> B0
-1.76605	K <sil> F
-0.9355741	K <sil> I
-1.76605	K <sil> K
-1.76605	K <sil> L0
-1.600632	K <sil> N
-1.76605	K <sil> N0
-1.600632	K <sil> P
-1.76605	K <sil> S
-1.363872	K <sil> SH
-1.76605	K <sil> T
-1.76605	K <sil> U
-1.600632	K <sil> V
-1.600632	K <sil> Z
-1.60547	KH <sil> A
-1.440053	KH <sil> B
-1.60547	KH <sil> B0
-1.440053	KH <sil> F
-0.9383562	KH <sil> I
-1.60547	KH <sil> K
-1.050927	KH <sil> P
-1.60547	KH <sil> U0
-1.02133	L <sil> A
-1.688445	L <sil> I
-1.688445	L <sil> J0
-1.286267	L <sil> K
-1.133902	L <sil> N
-1.688445	L <sil> N0
-1.133902	L <sil> P
-1.688445	L <sil> S
-0.9320136	L <sil> SH
-1.688445	L <sil> V
-1.688445	L <sil> V0
-1.280959	L0 <sil> A
-1.115542	L0 <sil> I
-1.280959	L0 <sil> K
-1.280959	L0 <sil> N0
-1.280959	L0 <sil> S
-1.12971	M <sil> A
-1.405642	M <sil> G
-0.9183208	M <sil> I
-1.405642	M <sil> J0
-1.203754	M <sil> K
-1.960185	M <sil> KH
-1.960185	M <sil> L
-1.405642	M <sil> N
-1.558007	M <sil> O0
-1.06647	M <sil> P
-1.405642	M <sil> S
-1.960185	M <sil> SH
-1.960185	M <sil> T
-1.960185	M <sil> Y
-1.960185	M <sil> Z
-1.557166	N <sil> A
-1.154988	N <sil> I
-1.391748	N <sil> K
-1.154988	N <sil> N
-1.557166	N <sil> N0
-1.391748	N <sil> P
-1.391748	N <sil> SH
-1.457051	O0 <sil> A
-1.054873	O0 <sil> I
-1.457051	O0 <sil> K
-1.457051	O0 <sil> KH
-1.457051	O0 <sil> N
-1.457051	O0 <sil> S0
-1.291633	O0 <sil> SH
-1.457051	O0 <sil> T
-1.025687	P <sil> I
-1.025687	P <sil> V
-1.30444	R <sil> A
-1.30444	R <sil> K
-1.139023	R <sil> P
-1.391748	S <sil> A
-1.557166	S <sil> B
-0.8900515	S <sil> I
-1.002623	S <sil> P
-1.557166	S <sil> S
-1.557166	S <sil> SH
-1.557166	S <sil> V
-1.027446	S0 <sil> A
-1.581989	S0 <sil> B
-1.581989	S0 <sil> F
-0.9148751	S0 <sil> I
-1.581989	S0 <sil> N
-1.581989	S0 <sil> O0
-1.027446	S0 <sil> P
-1.581989	S0 <sil> SH
-1.581989	S0 <sil> V
-0.7823572	T <sil> A
-1.900748	T <sil> B
-1.900748	T <sil> E0
-1.900748	T <sil> F
-1.346205	T <sil> I
-1.73533	T <sil> J0
-1.49857	T <sil> K
-1.49857	T <sil> N
-1.49857	T <sil> N0
-0.9028803	T <sil> P
-1.346205	T <sil> S
-1.49857	T <sil> SH
-1.73533	T <sil> T
-1.73533	T <sil> U
-1.900748	T <sil> V
-1.900748	T <sil> V0
-1.331079	T0 <sil> A
-1.733257	T0 <sil> B
-0.9027815	T0 <sil> I
-1.331079	T0 <sil> K
-1.567839	T0 <sil> N
-1.567839	T0 <sil> N0
-1.178714	T0 <sil> P
-0.9768259	T0 <sil> S
-1.567839	T0 <sil> SH
-1.733257	T0 <sil> U
-0.9799294	TS <sil> J0
-0.9799294	TS <sil> TSH0
-0.4711438	TSH0 <sil> P
-1.349799	U <sil> A
-1.851495	U <sil> B
-1.46237	U <sil> D
-2.016913	U <sil> E0
-1.614735	U <sil> F
-1.260482	U <sil> G
-1.019045	U <sil> I
-2.016913	U <sil> J0
-1.123197	U <sil> K
-2.016913	U <sil> L
-2.016913	U <sil> M
-1.46237	U <sil> N
-2.016913	U <sil> N0
-1.614735	U <sil> P
-2.016913	U <sil> P0
-1.851495	U <sil> R
-2.016913	U <sil> S
-2.016913	U <sil> SH
-1.851495	U <sil> T
-2.016913	U <sil> U
-1.349799	U <sil> V
-1.851495	U <sil> V0
-1.46237	U <sil> Z
-1.128659	U0 <sil> A
-1.530837	U0 <sil> D
-1.530837	U0 <sil> I
-0.8637226	U0 <sil> K
-1.365419	U0 <sil> N
-1.365419	U0 <sil> O0
-1.530837	U0 <sil> P
-1.365419	U0 <sil> SH
-1.250667	Y <sil> A
-1.515604	Y <sil> B
-1.917781	Y <sil> D
-1.515604	Y <sil> F
-1.917781	Y <sil> G
-1.16135	Y <sil> I
-1.917781	Y <sil> J0
-1.363238	Y <sil> K
-1.250667	Y <sil> N
-1.250667	Y <sil> P
-1.752364	Y <sil> R
-0.9199136	Y <sil> S
-1.515604	Y <sil> U
-1.515604	Y <sil> V
-1.917781	Y <sil> Z0
-1.258209	Y0 <sil> I
-1.423627	Y0 <sil> J0
-1.258209	Y0 <sil> K
-1.423627	Y0 <sil> N
-1.423627	Y0 <sil> P
-1.423627	Y0 <sil> R
-1.423627	Y0 <sil> V0
-1.359161	<s> A B
-1.117724	<s> A D
-1.950174	<s> A D0
-2.115592	<s> A F
-2.115592	<s> A J0
-1.950174	<s> A K
-2.115592	<s> A L
-2.115592	<s> A M
-0.9029621	<s> A N
-1.117724	<s> A N0
-1.448478	<s> A P
-1.950174	<s> A Pl
-1.221877	<s> A S
-1.950174	<s> A S0
-2.115592	<s> A SH
-1.285116	<s> A T
-1.448478	<s> A T0
-2.115592	<s> A TS
-2.115592	<s> A TSH0
-2.115592	<s> A Tl
-1.713414	<s> A U0
-1.285116	<s> A V
-1.20391	<sil> A B
-1.7996	<sil> A B0
-1.647235	<sil> A D
-1.445347	<sil> A D0
-2.201778	<sil> A G
-2.201778	<sil> A G0
-2.03636	<sil> A J0
-1.371303	<sil> A K
-2.201778	<sil> A M
-0.9617898	<sil> A N
-1.308063	<sil> A N0
-2.201778	<sil> A O0
-1.445347	<sil> A P
-2.201778	<sil> A R
-1.119967	<sil> A S
-0.8262403	<sil> A T
-1.647235	<sil> A T0
-1.445347	<sil> A V
-2.201778	<sil> A Z
-2.03636	<sil> A ZH
-2.04272	B A </s>
-1.375606	B A <sil>
-2.04272	B A D
-2.04272	B A F
-1.488177	B A G
-2.04272	B A G0
-2.04272	B A J0
-1.286289	B A K
-1.488177	B A K0
-1.640542	B A L
-0.8027319	B A L0
-1.877302	B A M
-1.877302	B A M0
-2.04272	B A P
-1.093814	B A R
-1.877302	B A R0
-2.04272	B A R0l
-1.640542	B A S
-1.149005	B A V
-1.640542	B A ZH
-1.473781	D A </s>
-1.332214	D A <sil>
-1.303015	D A B
-2.350228	D A B0
-2.515645	D A D
-1.848531	D A D0
-2.515645	D A E0
-2.113467	D A F
-2.515645	D A G
-2.515645	D A I
-1.202615	D A J0
-1.473781	D A K
-1.848531	D A KH
-1.473781	D A L
-1.15996	D A L0
-1.068691	D A M
-1.759214	D A M0
-1.848531	D A N
-1.759214	D A N0
-1.759214	D A Nl
-2.515645	D A P
-1.202615	D A R
-2.350228	D A R0
-1.433834	D A S
-1.473781	D A S0
-2.113467	D A SH
-1.68517	D A T
-2.350228	D A T0
-1.759214	D A TSH0
-2.113467	D A U0
-1.068691	D A V
-2.515645	D A V0
-2.515645	D A Z
-2.350228	D A ZH
-0.6235089	D0 A <sil>
-0.9287769	E0 A N0
-1.423627	F A D
-1.423627	F A K
-1.258209	F A M0
-1.258209	F A N
-1.423627	F A R
-1.423627	F A R0
-0.8690838	F A T
-1.423627	F A V
-2.017961	G A </s>
-1.589663	G A <sil>
-2.420139	G A B0
-1.753024	G A D
-2.420139	G A D0
-2.017961	G A G
-2.017961	G A J0
-1.865595	G A KH
-1.007426	G A L
-1.753024	G A L0
-1.663707	G A M
-1.589663	G A M0
-1.663707	G A N
-1.865595	G A N0
-1.865595	G A P
-1.236707	G A R
-1.207509	G A R0
-1.338327	G A S
-1.663707	G A S0
-1.422271	G A T
-1.865595	G A T0
-2.420139	G A TS
-2.420139	G A U
-0.6590163	G A V
-2.254721	G A V0
-2.420139	G A Y
-2.017961	G A Z0
-2.017961	G A ZH
-0.3267168	Gl A V
-0.946059	I A B
-2.129491	I A B0
-0.946059	I A D
-1.574947	I A D0
-1.574947	I A G
-1.574947	I A K
-1.574947	I A L0
-1.727313	I A M0
-1.235775	I A N
-1.964073	I A N0
-1.462376	I A P
-1.727313	I A P0
-0.9773629	I A S
-0.946059	I A T
-2.129491	I A T0
-2.129491	I A TS
-1.964073	I A TSH0
-2.129491	I A ZH
-0.8038381	I0 A S
-0.8038381	I0 A T
-1.251957	J0 A </s>
-0.8057641	J0 A <sil>
-1.573609	J0 A B
-1.849542	J0 A D
-2.404085	J0 A D0
-1.73697	J0 A F
-1.164096	J0 A I
-2.001907	J0 A J0
-1.251957	J0 A K
-2.404085	J0 A KH
-2.001907	J0 A L
-2.404085	J0 A L0
-1.73697	J0 A M
-1.849542	J0 A M0
-1.573609	J0 A N
-1.647654	J0 A N0
-1.849542	J0 A O0
-1.406217	J0 A P
-2.404085	J0 A Pl
-2.001907	J0 A R
-1.191455	J0 A S
-2.238667	J0 A S0
-2.001907	J0 A SH
-1.849542	J0 A T
-2.404085	J0 A T0
-2.238667	J0 A TS
-1.73697	J0 A U
-1.36222	J0 A V
-2.238667	J0 A V0
-2.404085	J0 A Z
-2.238667	J0 A ZH
-1.617229	K A </s>
-1.580054	K A <sil>
-2.04386	K A B
-2.325652	K A B0
-2.325652	K A D
-2.590589	K A D0
-2.992767	K A E0
-1.514075	K A F
-2.827349	K A F0
-1.179056	K A G
-2.236336	K A I
-1.172038	K A J0
-1.4436	K A K
-1.752778	K A K0
-2.325652	K A KH
-1.657886	K A L
-1.300753	K A L0
-1.22373	K A M
-1.562596	K A M0
-2.827349	K A Ml
-1.31022	K A N
-1.22373	K A N0
-2.992767	K A O0
-1.679736	K A P
-2.438224	K A P0
-1.499035	K A R
-1.950902	K A R0
-2.992767	K A R0l
-1.910955	K A S
-2.162291	K A S0
-2.162291	K A SH
-1.165131	K A T
-1.994899	K A T0
-1.994899	K A TSH0
-2.438224	K A U
-1.291489	K A V
-2.590589	K A V0
-0.974175	K A Z
-2.099051	K A ZH
-2.075113	KH A </s>
-1.410055	KH A <sil>
-1.838353	KH A B
-2.075113	KH A D
-0.7181974	KH A D0
-2.075113	KH A K
-2.075113	KH A KH
-1.057099	KH A L
-1.685988	KH A M
-1.685988	KH A N0
-2.075113	KH A P
-0.9275006	KH A R
-2.075113	KH A S
-1.346815	KH A T
-0.8278185	KH A T0
-1.685988	KH A TSH0
-2.240531	KH A V
-1.838353	KH A Z0
-0.5592391	Kl A T
-1.470307	L A </s>
-1.30858	L A <sil>
-1.934113	L A B
-2.883019	L A B0
-1.470307	L A D
-1.801208	L A D0
-2.883019	L A E0
-1.841155	L A F
-1.617294	L A G
-2.328476	L A I
-2.883019	L A I0
-1.273233	L A J0
-1.452849	L A K
-1.989304	L A KH
-2.215905	L A L
-2.717602	L A L0
-1.569989	L A M
-1.934113	L A M0
-1.730892	L A N
-1.488497	L A N0
-2.883019	L A Nl
-1.569989	L A P
-2.480841	L A R
-1.347062	L A S
-0.9209217	L A S0
-2.126588	L A SH
-2.328476	L A SH0
-2.328476	L A Sl
-1.240547	L A T
-1.569989	L A T0
-2.328476	L A TSH0
-2.126588	L A U
-2.883019	L A U0
-1.230176	L A V
-1.273233	L A V0
-2.883019	L A Y
-1.419906	L A Z
-1.699588	L A Z0
-1.488497	L A ZH
-1.03636	L0 A </s>
-1.03636	L0 A <sil>
-1.201778	L0 A I
-1.201778	L0 A P
-1.201778	L0 A S0
-1.68517	M A </s>
-1.62193	M A <sil>
-2.350228	M A D
-2.113467	M A D0
-1.848531	M A F
-1.202615	M A G
-2.515645	M A G0
-1.759214	M A I0
-0.8628023	M A J0
-1.961102	M A K
-2.515645	M A K0
-1.961102	M A KH
-1.036953	M A L
-1.62193	M A L0
-1.961102	M A M
-1.961102	M A M0
-1.566739	M A N
-1.759214	M A N0
-2.515645	M A Nl
-2.350228	M A P
-1.275657	M A R
-2.350228	M A R0
-1.433834	M A S
-1.848531	M A S0
-2.515645	M A S0l
-1.62193	M A SH
-1.961102	M A SH0
-1.085475	M A T
-1.62193	M A T0
-2.350228	M A TS
-1.566739	M A TSH0
-2.515645	M A U0
-2.350228	M A V
-2.515645	M A Z0
-0.924539	M0 A </s>
-0.924539	M0 A <sil>
-1.326717	M0 A I
-0.924539	M0 A K
-1.229807	Ml A J0
-1.064389	Ml A KH
-1.064389	Ml A L
-1.064389	Ml A N0
-1.229807	Ml A P
-1.471195	N A </s>
-1.447313	N A <sil>
-1.670096	N A B
-2.289202	N A B0
-1.496467	N A D
-1.893506	N A D0
-2.003769	N A E0
-1.651111	N A F
-1.447313	N A G
-2.003769	N A I
-3.045634	N A I0
-0.9731413	N A J0
-1.1725	N A K
-3.045634	N A K0
-1.833004	N A KH
-1.893506	N A L0
-1.268825	N A M
-1.710752	N A M0
-1.805645	N A N
-1.689949	N A N0
-1.217998	N A P
-2.378519	N A P0
-1.805645	N A R
-2.491091	N A R0
-1.335285	N A S
-1.3264	N A S0
-1.755612	N A SH
-2.880216	N A SH0
-1.566941	N A T
-2.096727	N A T0
-2.643456	N A TS
-1.537366	N A TSH0
-2.096727	N A U
-2.096727	N A U0
-1.268825	N A V
-1.45909	N A V0
-3.045634	N A Vl
-1.689949	N A Z
-2.096727	N A Z0
-2.289202	N A ZH
-1.090718	N0 A </s>
-1.256136	N0 A <sil>
-1.090718	N0 A P
-2.082592	Nl A </s>
-1.680414	Nl A <sil>
-1.917174	Nl A D
-2.082592	Nl A D0
-2.082592	Nl A E0
-2.082592	Nl A G
-1.917174	Nl A I
-0.5334246	Nl A J0
-2.082592	Nl A K
-1.252116	Nl A M
-2.082592	Nl A M0
-2.082592	Nl A N
-2.082592	Nl A N0
-1.528049	Nl A P
-2.082592	Nl A S
-2.082592	Nl A S0
-2.082592	Nl A T
-0.7477107	Nl A V
-1.680414	Nl A Z
-1.423627	O0 A D
-1.423627	O0 A Dl
-1.423627	O0 A K
-1.258209	O0 A N
-1.258209	O0 A P0
-0.7565126	O0 A S
-1.989304	P A B
-2.052544	P A B0
-0.8688648	P A D
-1.934113	P A D0
-2.883019	P A DZ0
-2.883019	P A DZH
-2.215905	P A E0
-2.215905	P A F
-1.699588	P A G
-2.126588	P A G0
-1.699588	P A J0
-1.181742	P A K
-2.717602	P A K0
-1.643031	P A KH
-1.06229	P A L
-1.548138	P A L0
-2.052544	P A M
-1.885152	P A M0
-1.934113	P A N
-1.617294	P A N0
-1.488497	P A P
-2.328476	P A P0
-1.488497	P A R
-2.480841	P A R0
-0.9631298	P A S
-1.617294	P A S0
-1.670389	P A SH
-1.191006	P A T
-2.215905	P A T0
-2.883019	P A T0l
-1.885152	P A TS
-1.419906	P A TSH0
-2.883019	P A Tl
-2.328476	P A U
-2.717602	P A U0
-1.989304	P A V
-1.885152	P A V0
-1.934113	P A Z
-2.717602	P A Z0
-1.730892	P A ZH
-1.171815	Pl A L0
-0.173947	Pl A R
-1.931693	R A </s>
-1.590579	R A <sil>
-1.524915	R A B
-2.8806	R A B0
-1.450429	R A D
-1.986884	R A D0
-1.882732	R A F
-2.715182	R A F0
-1.931693	R A G
-1.697168	R A I
-1.282279	R A J0
-1.417487	R A K
-2.715182	R A K0
-1.640612	R A KH
-2.478422	R A L
-2.715182	R A L0
-1.486077	R A M
-2.326057	R A M0
-1.450429	R A N
-1.417487	R A N0
-1.762209	R A P
-2.8806	R A P0
-2.8806	R A R
-1.119478	R A S
-1.318613	R A S0
-2.478422	R A S0l
-1.486077	R A SH
-1.931693	R A SH0
-1.56757	R A Sl
-1.697168	R A T
-1.545719	R A T0
-2.213485	R A TS
-2.326057	R A TSH0
-1.179322	R A V
-1.505062	R A V0
-1.032879	R A Z
-1.838735	R A Z0
-1.590579	R A ZH
-0.7053671	R0 A </s>
-1.742985	S A </s>
-1.348622	S A <sil>
-1.179137	S A B
-1.742985	S A B0
-2.132111	S A D0
-1.031804	S A F
-2.297529	S A G
-1.742985	S A J0
-2.132111	S A K
-1.630414	S A KH
-1.467053	S A L
-1.031804	S A M
-1.467053	S A N
-2.132111	S A N0
-1.630414	S A P
-1.403813	S A R
-1.031804	S A S
-1.895351	S A S0
-1.403813	S A T
-2.297529	S A TSH0
-2.297529	S A V
-1.255664	S A V0
-2.297529	S A Z
-1.258624	S0 A </s>
-0.77736	S0 A <sil>
-1.540416	S0 A B
-2.042113	S0 A D
-1.652987	S0 A F
-1.652987	S0 A G
-2.042113	S0 A I
-1.089139	S0 A K
-2.042113	S0 A L
-1.209663	S0 A N
-2.20753	S0 A O0
-1.451099	S0 A P
-2.042113	S0 A P0
-1.805353	S0 A R
-1.377055	S0 A S
-1.540416	S0 A T
-2.042113	S0 A U0
-1.313815	S0 A V
-1.540416	S0 A Z
-2.20753	S0 A ZH
-1.818079	SH A <sil>
-1.652661	SH A B
-1.652661	SH A D
-1.652661	SH A D0
-1.818079	SH A F
-0.8691721	SH A G
-1.150964	SH A J0
-1.150964	SH A L
-1.818079	SH A L0
-1.818079	SH A N0
-1.818079	SH A P
-1.415901	SH A R
-1.818079	SH A S
-1.652661	SH A T
-1.150964	SH A T0
-0.6277469	SH0 A <sil>
-0.9394503	Sl A B
-1.104868	Sl A M
-1.104868	Sl A R
-1.655385	T A </s>
-1.490939	T A <sil>
-1.474156	T A B
-2.518931	T A B0
-1.802718	T A D
-2.253995	T A D0
-2.755692	T A D0l
-1.565424	T A F
-1.565424	T A G
-2.921109	T A Gl
-1.839298	T A I
-2.027394	T A I0
-1.054191	T A J0
-1.229096	T A K
-1.655385	T A K0
-2.253995	T A KH
-1.631088	T A L
-2.027394	T A L0
-2.921109	T A L0l
-0.9902771	T A M
-1.923241	T A M0
-1.346671	T A N
-1.586228	T A N0
-2.253995	T A O0
-2.090634	T A P
-1.152073	T A R
-1.879245	T A R0
-1.565424	T A S
-2.518931	T A S0
-2.253995	T A SH
-2.755692	T A SH0
-1.526587	T A T
-2.518931	T A T0
-2.921109	T A TS
-1.879245	T A TSH0
-2.921109	T A U0
-0.8981256	T A V
-2.366566	T A V0
-1.923241	T A Z
-2.921109	T A ZH
-1.24048	T0 A </s>
-1.24048	T0 A B
-1.405898	T0 A D
-1.405898	T0 A N
-1.405898	T0 A N0
-1.24048	T0 A T
-0.964082	TS A </s>
-0.9397856	TS A <sil>
-2.229807	TS A B
-2.064389	TS A D
-1.827629	TS A D0
-2.064389	TS A F
-2.064389	TS A G
-1.473376	TS A I
-2.229807	TS A I0
-2.229807	TS A J0
-1.399331	TS A K
-1.827629	TS A M
-2.064389	TS A M0
-1.827629	TS A N
-1.562693	TS A P
-2.064389	TS A R
-1.473376	TS A S
-1.827629	TS A S0
-1.562693	TS A T
-0.9898186	TS A T0
-2.229807	TS A TSH0
-2.229807	TS A U
-1.2809	TS A V
-2.064389	TS A Z
-2.229807	TS A Z0
-1.36811	Tl A B
-1.36811	Tl A E0
-0.9659317	Tl A K
-1.202692	Tl A V
-1.36811	Tl A ZH
-1.038482	U A B
-0.6842291	U A T
-1.275242	U A TS
-1.104868	U0 A B
-1.104868	U0 A T
-1.497452	V A </s>
-1.342807	V A <sil>
-1.85011	V A B
-2.891974	V A B0
-1.497452	V A D
-1.85011	V A D0
-1.739846	V A F
-2.726557	V A G
-1.773583	V A I
-1.773583	V A I0
-0.9665788	V A J0
-1.708543	V A K
-1.190697	V A L
-1.44502	V A L0
-1.601953	V A M
-2.337431	V A M0
-1.773583	V A N
-1.894106	V A N0
-2.891974	V A Nl
-2.726557	V A O0
-1.516436	V A P
-2.891974	V A P0
-1.209427	V A R
-1.130852	V A R0
-1.271017	V A S
-1.85011	V A S0
-1.810163	V A SH
-1.810163	V A T
-1.601953	V A T0
-2.22486	V A TS
-1.601953	V A TSH0
-2.726557	V A U
-1.317535	V A V
-1.479262	V A Z
-2.22486	V A Z0
-1.810163	V A ZH
-0.8900515	Y A B
-1.391748	Y A K
-0.8900515	Y A N
-1.557166	Y A N0
-0.8900515	Y A S
-1.557166	Y A T
-1.557166	Y A T0
-2.062842	Z A </s>
-1.089482	Z A B
-1.571304	Z A D
-2.299602	Z A D0
-2.299602	Z A E0
-1.467152	Z A G
-2.465019	Z A I
-1.708588	Z A J0
-1.151989	Z A K
-2.062842	Z A K0
-2.062842	Z A KH
-1.346629	Z A L
-1.634544	Z A M
-1.281588	Z A M0
-1.634544	Z A N
-1.346629	Z A N0
-1.516113	Z A P
-1.571304	Z A R
-2.299602	Z A R0
-1.089482	Z A S
-1.571304	Z A SH
-1.797905	Z A T
-1.516113	Z A T0
-1.797905	Z A TSH0
-2.465019	Z A U0
-1.151989	Z A V
-1.467152	Z A V0
-2.062842	Z A ZH
-1.280959	ZH A <sil>
-1.280959	ZH A L
-0.7264163	ZH A N
-0.8787814	ZH A S
-1.44066	Zl A B
-1.275242	Zl A K
-1.44066	Zl A M0
-1.44066	Zl A N0
-1.275242	Zl A T
-1.44066	Zl A U0
-0.5028081	<s> A0 GH
-1.211506	B A0 J0
-1.76605	B A0 K
-1.76605	B A0 K0
-1.76605	B A0 KH
-1.76605	B A0 KH0
-1.098935	B A0 L
-1.211506	B A0 L0
-1.76605	B A0 M0
-1.600632	B A0 N0
-1.009618	B A0 R
-1.211506	B A0 SH
-1.600632	B A0 T
-1.76605	B A0 V0
-1.451334	B0 A0 </s>
-1.062208	B0 A0 <sil>
-1.214574	B0 A0 F
-1.616751	B0 A0 I
-1.451334	B0 A0 K
-1.616751	B0 A0 N
-1.616751	B0 A0 O0
-1.451334	B0 A0 P
-1.616751	B0 A0 R
-1.451334	B0 A0 S
-1.616751	B0 A0 T
-1.451334	B0 A0 Z
-1.687557	D A0 </s>
-1.889445	D A0 <sil>
-1.889445	D A0 D
-2.443988	D A0 D0
-2.443988	D A0 E0
-2.443988	D A0 F
-1.776874	D A0 G
-1.613513	D A0 I
-2.443988	D A0 I0
-1.204	D A0 J0
-2.27857	D A0 K
-1.153967	D A0 L
-1.44612	D A0 L0
-1.231358	D A0 M
-1.776874	D A0 N
-1.178263	D A0 N0
-1.776874	D A0 O0
-1.495082	D A0 P
-1.495082	D A0 R
-2.04181	D A0 R0
-1.550273	D A0 S
-2.27857	D A0 S0
-1.325597	D A0 T
-1.260557	D A0 T0
-1.889445	D A0 TSH0
-1.687557	D A0 U
-2.04181	D A0 U0
-1.889445	D A0 V
-1.889445	D A0 V0
-2.27857	D A0 Z
-1.06845	D A0 ZH
-0.9482651	D0 A0 D0
-1.502808	D0 A0 J0
-1.10063	D0 A0 M0
-1.33739	D0 A0 P
-0.6090926	D0 A0 SH0
-1.33739	D0 A0 T
-0.3373903	D0l A0 D0
-0.9287769	Dl A0 T0
-0.9287769	Dl A0 ZH
-0.8707849	F A0 B
-1.749963	G A0 <sil>
-1.749963	G A0 D
-0.9935316	G A0 J0
-1.347785	G A0 KH
-0.7520948	G A0 L
-1.749963	G A0 M
-1.082848	G A0 N
-1.749963	G A0 Nl
-1.584545	G A0 R
-1.19542	G A0 S0l
-1.291633	I A0 D
-1.457051	I A0 L0
-0.5633351	I A0 N
-0.7006195	I A0 N0
-1.457051	I A0 T
-1.872544	J0 A0 </s>
-1.759973	J0 A0 <sil>
-1.533372	J0 A0 B
-1.308696	J0 A0 D
-1.429219	J0 A0 F
-1.596612	J0 A0 I
-1.214458	J0 A0 J0
-1.596612	J0 A0 K
-2.427087	J0 A0 K0
-2.024909	J0 A0 KH
-1.385223	J0 A0 L
-2.26167	J0 A0 L0
-2.427087	J0 A0 M
-1.596612	J0 A0 N
-1.214458	J0 A0 N0
-2.26167	J0 A0 Nl
-2.024909	J0 A0 O0
-1.345276	J0 A0 P
-1.533372	J0 A0 R
-1.308696	J0 A0 S
-1.759973	J0 A0 SH0
-1.243656	J0 A0 T
-1.429219	J0 A0 T0
-2.024909	J0 A0 U
-2.26167	J0 A0 U0
-1.27496	J0 A0 V
-1.872544	J0 A0 V0
-1.478181	J0 A0 Z
-1.759973	J0 A0 ZH
-0.5028081	J0l A0 Z
-2.293238	K A0 </s>
-2.458656	K A0 <sil>
-2.293238	K A0 D
-2.056478	K A0 F
-1.145626	K A0 G
-2.293238	K A0 I
-1.045944	K A0 J0
-0.4227562	K A0 K
-1.702225	K A0 KH
-2.458656	K A0 Kl
-1.340265	K A0 L
-2.056478	K A0 L0
-2.458656	K A0 M
-1.416792	K A0 M0
-2.293238	K A0 Ml
-2.293238	K A0 N
-2.056478	K A0 N0
-2.458656	K A0 P
-1.904113	K A0 R
-2.293238	K A0 R0
-2.293238	K A0 S
-2.458656	K A0 SH
-2.056478	K A0 T
-1.50975	K A0 T0
-2.458656	K A0 TS
-2.293238	K A0 Z
-1.340265	K A0 ZH
-1.30444	KH A0 J0
-0.9022626	KH A0 N0
-1.30444	KH A0 R
-1.30444	KH A0 T
-1.30444	KH A0 U
-1.30444	KH A0 V
-0.8038381	Kl A0 G
-0.4016602	Kl A0 K
-1.637326	L A0 </s>
-1.637326	L A0 <sil>
-1.473965	L A0 B
-1.749897	L A0 D
-1.548009	L A0 F
-2.30444	L A0 G
-2.139023	L A0 G0
-1.091811	L A0 J0
-1.637326	L A0 K
-2.139023	L A0 L
-1.902263	L A0 M
-2.30444	L A0 M0
-1.222629	L A0 N
-1.749897	L A0 N0
-1.222629	L A0 P
-2.139023	L A0 R
-1.306573	L A0 S
-1.637326	L A0 S0
-1.749897	L A0 SH0
-2.139023	L A0 Sl
-1.186049	L A0 T
-1.548009	L A0 T0
-1.749897	L A0 TSH0
-2.30444	L A0 U
-2.30444	L A0 U0
-1.186049	L A0 V
-2.30444	L A0 V0
-2.139023	L A0 Z
-2.139023	L A0 Z0
-0.9028552	L0 A0 D
-1.851762	L0 A0 D0
-1.851762	L0 A0 F
-1.851762	L0 A0 G
-0.8098971	L0 A0 J0
-1.09533	L0 A0 L
-1.449584	L0 A0 L0
-1.297219	L0 A0 N
-1.851762	L0 A0 P
-1.851762	L0 A0 S
-1.297219	L0 A0 T
-1.449584	L0 A0 T0
-1.851762	L0 A0 TS
-1.851762	L0 A0 Z
-2.174906	M A0 </s>
-1.620363	M A0 <sil>
-1.620363	M A0 G
-2.174906	M A0 G0
-0.962276	M A0 J0
-2.174906	M A0 K
-1.177038	M A0 L
-0.8848847	M A0 L0
-1.34443	M A0 N
-1.418475	M A0 N0
-2.009488	M A0 P
-1.022778	M A0 R
-2.174906	M A0 S
-2.009488	M A0 S0
-2.174906	M A0 SH
-1.772728	M A0 T
-0.962276	M A0 T0
-2.174906	M A0 TS
-1.507792	M A0 TSH0
-2.174906	M A0 V0
-0.7026902	M0 A0 KH
-1.104868	M0 A0 N
-1.104868	M0 A0 N0
-0.9394503	M0 A0 SH0
-0.7246569	Ml A0 L
-0.5592391	Ml A0 R
-1.832789	N A0 </s>
-1.94536	N A0 <sil>
-1.832789	N A0 B
-1.94536	N A0 B0
-1.186873	N A0 D
-2.499903	N A0 D0
-2.499903	N A0 F
-2.334485	N A0 G
-2.499903	N A0 I
-0.9916352	N A0 J0
-1.502035	N A0 K
-2.499903	N A0 KH
-1.165022	N A0 L
-1.606188	N A0 L0
-1.381512	N A0 M
-1.94536	N A0 M0
-1.94536	N A0 N
-1.550997	N A0 N0
-1.316472	N A0 P
-1.087191	N A0 S
-1.606188	N A0 SH
-1.347775	N A0 T
-1.743472	N A0 T0
-1.347775	N A0 TS
-1.259915	N A0 TSH0
-2.334485	N A0 U
-1.832789	N A0 V
-2.499903	N A0 V0
-1.832789	N A0 Z
-2.097725	N A0 ZH
-1.357635	N0 A0 </s>
-1.51	N0 A0 <sil>
-1.912178	N0 A0 B
-0.9632711	N0 A0 F
-1.51	N0 A0 I
-1.245063	N0 A0 J0
-1.155746	N0 A0 L
-1.74676	N0 A0 L0
-1.912178	N0 A0 N
-1.357635	N0 A0 N0
-1.74676	N0 A0 O0
-1.912178	N0 A0 S
-1.74676	N0 A0 T
-1.081702	N0 A0 T0
-1.912178	N0 A0 V0
-1.040309	P A0 D
-1.705367	P A0 J0
-1.705367	P A0 KH
-0.9218784	P A0 L
-0.7523939	P A0 L0
-1.114354	P A0 M0
-1.870785	P A0 N
-1.203671	P A0 R
-1.870785	P A0 R0
-1.468607	P A0 SH
-1.705367	P A0 T0
-1.870785	P A0 ZH
-1.275242	P0 A0 SH0
-0.2572287	P0 A0 T0
-1.44066	P0 A0 TS
-1.275242	P0 A0 Tl
-2.495509	R A0 </s>
-1.940966	R A0 <sil>
-1.453644	R A0 D
-2.093331	R A0 D0
-2.093331	R A0 F
-2.093331	R A0 F0
-1.182479	R A0 J0
-2.495509	R A0 J0l
-2.330091	R A0 K
-2.330091	R A0 K0
-1.739078	R A0 KH
-1.601793	R A0 L
-1.739078	R A0 L0
-1.828395	R A0 M
-1.343381	R A0 N
-1.739078	R A0 N0
-2.495509	R A0 N0l
-1.665033	R A0 Nl
-0.9731756	R A0 S
-2.330091	R A0 S0
-1.497641	R A0 SH
-1.160628	R A0 T
-1.413698	R A0 T0
-1.828395	R A0 TS
-1.497641	R A0 TSH0
-1.048555	R A0 V
-1.665033	R A0 V0
-1.048555	R A0 Z
-2.093331	R A0 Z0
-2.495509	R A0 ZH
-2.495509	R A0 Zl
-0.791247	R0 A0 D
-1.789115	R0 A0 J0
-1.386937	R0 A0 L
-1.789115	R0 A0 M
-0.9586394	R0 A0 M0
-1.789115	R0 A0 S0
-0.8402084	R0 A0 T
-1.623697	R0 A0 T0
-1.623697	R0 A0 TSH0
-1.386937	R0 A0 Z
-1.773875	S A0 <sil>
-1.608457	S A0 D0
-1.608457	S A0 J0
-1.219332	S A0 KH
-0.326921	S A0 M
-1.219332	S A0 M0
-1.371697	S A0 T0
-1.472845	S0 A0 D
-1.472845	S0 A0 F
-0.6423694	S0 A0 K
-1.070667	S0 A0 K0
-1.472845	S0 A0 T
-1.60547	SH A0 </s>
-1.440053	SH A0 F
-1.60547	SH A0 G
-1.440053	SH A0 J0
-1.60547	SH A0 P
-0.6076025	SH A0 R
-1.203293	SH A0 R0
-1.60547	SH A0 T0
-1.60547	SH A0 ZH
-0.5376341	SH0 A0 J0
-1.36811	SH0 A0 L
-1.202692	SH0 A0 L0
-1.36811	SH0 A0 S
-1.36811	SH0 A0 S0
-1.202692	SH0 A0 T0
-2.448933	T A0 B
-1.89439	T A0 F
-1.89439	T A0 F0
-1.265501	T A0 G
-2.448933	T A0 Gl
-1.236303	T A0 J0
-0.886946	T A0 K
-2.448933	T A0 KH
-2.046755	T A0 Kl
-0.7385842	T A0 L
-1.114052	T A0 L0
-1.018762	T A0 M
-2.448933	T A0 M0
-2.448933	T A0 N
-1.500026	T A0 N0
-1.296805	T A0 R
-2.448933	T A0 SH
-1.692502	T A0 T
-2.046755	T A0 T0
-2.448933	T A0 TS
-1.781818	T A0 V
-1.330542	T A0 V0
-2.448933	T A0 ZH
-1.256136	T0 A0 B
-0.8539579	T0 A0 G0
-1.256136	T0 A0 SH0
-1.090718	T0 A0 T
-0.924539	TS A0 </s>
-1.326717	TS A0 <sil>
-1.326717	TS A0 K
-1.326717	TS A0 N
-1.326717	TS A0 R
-1.326717	TS A0 T0
-1.873106	TSH0 A0 F
-0.725494	TSH0 A0 J0
-2.038524	TSH0 A0 KH
-0.7727992	TSH0 A0 L
-1.37141	TSH0 A0 L0
-2.038524	TSH0 A0 M
-2.038524	TSH0 A0 M0
-1.873106	TSH0 A0 N0
-0.9201331	TSH0 A0 S
-2.038524	TSH0 A0 S0
-2.038524	TSH0 A0 SH
-1.483981	TSH0 A0 SH0
-1.873106	TSH0 A0 Sl
-1.873106	TSH0 A0 T
-1.873106	TSH0 A0 T0
-1.483981	TSH0 A0 Z
-0.3162418	U A0 R
-2.356101	V A0 <sil>
-2.356101	V A0 B
-2.356101	V A0 D
-2.190683	V A0 F
-1.043071	V A0 J0
-0.8478327	V A0 L
-1.116112	V A0 L0
-1.203973	V A0 M
-2.356101	V A0 M0
-1.688986	V A0 N
-1.525625	V A0 N0
-1.525625	V A0 R
-1.116112	V A0 R0
-1.203973	V A0 S
-1.23771	V A0 SH
-1.358233	V A0 T
-1.407194	V A0 T0
-1.525625	V A0 TS
-2.356101	V A0 TSH0
-2.356101	V A0 V
-2.356101	V A0 Z
-1.688986	V A0 ZH
-1.256136	V0 A0 KH
-0.3624203	V0 A0 Z
-2.258683	Z A0 D
-2.258683	Z A0 D0
-1.309777	Z A0 F
-2.258683	Z A0 G
-2.093265	Z A0 J0
-2.093265	Z A0 KH
-0.39807	Z A0 L
-1.309777	Z A0 L0
-2.258683	Z A0 Ll
-1.856505	Z A0 M
-2.093265	Z A0 M0
-1.591569	Z A0 N
-1.70414	Z A0 N0
-1.140292	Z A0 P
-2.093265	Z A0 R
-2.093265	Z A0 S
-1.856505	Z A0 T
-1.140292	Z A0 T0
-1.70414	Z A0 TS
-1.30444	Z0 A0 F
-1.139023	Z0 A0 I
-0.9022626	Z0 A0 L
-1.30444	Z0 A0 SH0
-1.298092	ZH A0 F
-1.071491	ZH A0 J0
-0.4032193	ZH A0 L
-1.0163	ZH A0 L0
-1.799788	ZH A0 M0
-1.410663	ZH A0 R
-1.799788	ZH A0 S
-1.965206	ZH A0 SH0
-1.298092	ZH A0 T0
-1.799788	ZH A0 ZH
-0.7246569	Zl A0 D0
-1.13963	D Al B
-0.3831991	D Al N
-0.5028081	G Al N0
-1.280959	J0 Al D0
-1.280959	J0 Al P
-1.280959	J0 Al P0
-1.115542	J0 Al R
-1.115542	J0 Al T
-1.171815	K Al D
-1.006397	K Al N0
-1.171815	K Al R
-0.3320529	L Al N
-0.8787814	L Al T
-0.7246569	M Al R0
-1.472845	N Al B
-1.472845	N Al D
-1.307427	N Al P
-1.472845	N Al P0
-1.307427	N Al S
-1.307427	N Al S0
-1.307427	N Al T
-1.472845	N Al TSH0
-0.7053671	P Al D0
-0.6277469	R Al N0
-0.7246569	S Al B
-0.249295	S0 Al T
-0.9799294	T Al T
-0.8038381	TS Al S
-0.8038381	TS Al T
-1.275242	V Al B
-1.44066	V Al G
-1.44066	V Al N0
-0.6842291	V Al P
-1.44066	V Al R
-1.44066	V Al S
-1.275242	V Al T
-1.280959	<s> B R
-0.8787814	<s> B U0
-0.3872438	<s> B Y0
-0.9026406	<sil> B A
-1.569755	<sil> B L
-1.569755	<sil> B R
-0.7392794	<sil> B U0
-0.7392794	<sil> B Y
-0.9026406	<sil> B Y0
-1.140499	A B A
-1.278393	A B A0
-2.430521	A B D
-2.028343	A B E0
-1.432653	A B J0
-1.600045	A B L
-1.190532	A B L0
-2.265103	A B M
-2.028343	A B N0
-0.7880481	A B O0
-1.035998	A B R
-1.763406	A B R0
-1.536805	A B U
-1.481614	A B U0
-1.035998	A B Y
-0.7479737	A B Y0
-0.9496372	A0 B A
-1.062208	A0 B L
-1.451334	A0 B R
-1.451334	A0 B R0
-1.214574	A0 B U0
-0.7230359	A0 B Y
-1.214574	A0 B Y0
-0.5125365	Al B R
-1.280959	D B A
-1.115542	D B O0
-0.2830915	D B Y0
-0.769637	D0 B A
-0.769637	D0 B Y
-0.769637	D0 B Y0
-0.5681421	E0 B A
-1.517049	E0 B N
-1.517049	E0 B O0
-1.351631	E0 B R0
-1.517049	E0 B U
-1.517049	E0 B Y
-0.623333	E0 B Y0
-0.4733757	G B U0
-0.5626925	G B Y
-1.229807	G B Y0
-1.347906	GH B O0
-1.182488	GH B U0
-0.9457282	GH B Y
-0.4541906	GH B Y0
-0.946059	I B A
-1.087626	I B A0
-1.964073	I B L
-1.131623	I B L0
-1.373059	I B O0
-1.131623	I B R
-1.964073	I B R0
-0.7946095	I B U
-1.373059	I B U0
-1.180584	I B Y
-0.7539528	I B Y0
-1.090718	I0 B A
-1.256136	I0 B L0
-1.090718	I0 B Y
-0.5890215	I0 B Y0
-0.9287769	J0 B A0
-0.9287769	J0 B Y0
-0.8145116	L B R
-0.4253863	L B Y
-0.5028081	L0 B O0
-0.9183018	M B A
-1.472845	M B A0
-0.9183018	M B L0
-1.472845	M B O0
-1.472845	M B R
-1.472845	M B U
-1.307427	M B Y
-0.9183018	M B Y0
-1.256136	N B A0
-1.256136	N B O0
-1.256136	N B U
-0.3072293	N B Y0
-1.51	O0 B A
-1.51	O0 B L0
-1.245063	O0 B N
-1.51	O0 B O0
-1.245063	O0 B R
-1.912178	O0 B U0
-0.3256336	O0 B Y
-0.9143097	O0 B Y0
-0.1723457	R B U0
-0.3267168	R0 B Y0
-1.623697	U B A
-0.8402084	U B A0
-1.386937	U B L0
-1.789115	U B N0
-0.4542339	U B O0
-1.386937	U B U0
-1.234572	U B V0
-1.234572	U B Y0
-0.490217	U0 B A
-1.488085	U0 B L0
-0.6576093	U0 B Y
-0.9799294	V B L
-0.9799294	V B U
-0.9799294	V B Y0
-0.3267168	V0 B U0
-1.128659	Y B A
-0.7744057	Y B A0
-1.530837	Y B D
-1.128659	Y B N
-1.530837	Y B Y
-0.5819303	Y B Y0
-1.025687	Y0 B A
-1.025687	Y0 B R
-1.025687	Y0 B U0
-0.8787814	Z B A
-0.7264163	Z B R
-1.115542	Z B U
-1.115542	Z B U0
-0.9287769	Z0 B A0
-0.9287769	Z0 B Y
-0.6277469	ZH B O0
-0.225569	<s> B0 I
-1.115542	<sil> B0 E0
-0.1625684	<sil> B0 I
-0.6428457	A B0 E0
-0.216389	A B0 I
-1.559239	A B0 I0
-1.724657	A B0 J0
-0.1723457	A0 B0 I
-0.7633591	D B0 E0
-0.3742338	D B0 I
-0.6277469	D0 B0 E0
-0.6277469	D0 B0 I
-0.2459147	E0 B0 I
-0.3267168	G B0 I
-0.4765538	I B0 A0
-0.4644488	I B0 E0
-2.050993	I B0 E0l
-0.8383628	I B0 I
-1.885575	I B0 I0
-1.383878	I B0 O0
-2.050993	I B0 U0
-0.6277469	J0 B0 E0
-0.6277469	J0 B0 I
-0.3373903	M B0 I
-0.04350588	O0 B0 I
-0.5028081	R B0 I
-0.8479747	U B0 E0
-0.3860052	U B0 I
-0.5290603	U B0 I0
-0.1907237	U0 B0 I
-0.1723457	V B0 I
-0.8038381	Y B0 I
-0.8038381	Y B0 J0
-0.6277469	Y0 B0 I
-0.6277469	Y0 B0 J0
-1.090718	Z B0 E0
-0.7015927	Z B0 I
-0.4256603	Z B0 I0
-0.3373903	Z0 B0 I
-0.3267168	ZH B0 I
-0.7606174	<s> D A
-0.475184	<s> D A0
-1.351631	<s> D L0
-1.517049	<s> D O0
-1.351631	<s> D R
-0.6070716	<sil> D A
-0.567125	<sil> D A0
-1.648936	<sil> D R
-1.648936	<sil> D R0
-1.648936	<sil> D U0
-1.246758	<sil> D V
-1.648936	<sil> D V0
-1.648936	<sil> D Y
-0.7590778	A D A
-1.115402	A D A0
-2.362696	A D B
-1.973571	A D B0
-2.528114	A D E0
-1.579208	A D G
-1.973571	A D J0
-1.530246	A D L0
-2.528114	A D M
-1.973571	A D M0
-0.8856416	A D N
-0.9789469	A D N0
-1.097944	A D O0
-1.238093	A D R
-2.528114	A D R0
-1.861	A D U
-1.238093	A D U0
-1.771683	A D V
-1.344682	A D V0
-2.528114	A D Y
-1.697639	A D Y0
-2.528114	A D ZH
-0.3147792	A0 D A
-2.04272	A0 D A0
-1.488177	A0 D B
-2.04272	A0 D L0
-1.640542	A0 D N
-1.877302	A0 D N0
-1.877302	A0 D O0
-1.375606	A0 D U
-1.212245	A0 D U0
-0.8592887	A0 D Y
-0.1319713	Al D N
-0.6277469	B D V0
-0.3267168	B0 D A
-0.7986709	E0 D A
-0.8476324	E0 D L0
-1.241996	E0 D N
-0.6131073	E0 D N0
-0.9660634	E0 D U
-1.631121	E0 D Y
-1.644698	G D A
-0.10537	G D A0
-1.379762	G D Al
-2.046876	G D O0
-1.379762	G D R
-2.046876	G D V0
-0.7026902	GH D A
-1.104868	GH D U
-0.8546933	I D A
-0.8754973	I D A0
-2.210378	I D B
-2.210378	I D G
-1.655835	I D L
-1.168514	I D L0
-2.210378	I D M0
-2.04496	I D N0
-1.058251	I D O0
-1.316663	I D R
-1.453947	I D U
-0.8754973	I D U0
-1.655835	I D V
-1.168514	I D V0
-2.210378	I D Y0
-2.04496	I D Z
-1.8082	I D ZH
-0.9762937	I0 D A
-0.4124458	I0 D N
-1.530837	I0 D N0
-1.530837	I0 D R
-1.128659	I0 D Y
-0.851355	J0 D A
-1.24048	J0 D A0
-0.7387838	J0 D O0
-1.00372	J0 D R
-1.405898	J0 D U0
-0.9022626	L D A
-0.4107249	L D A0
-0.6373262	L D V0
-0.5028081	L0 D Y0
-1.405898	M D A
-1.405898	M D N0
-0.5754226	M D O0
-1.24048	M D V
-0.851355	M D V0
-1.229807	N D A
-1.064389	N D A0
-1.229807	N D O0
-0.8276289	N D R
-1.229807	N D Y
-0.4608087	O0 D A
-1.537323	O0 D A0
-1.774083	O0 D B
-1.939501	O0 D G
-1.939501	O0 D L0
-0.9905942	O0 D N
-1.045785	O0 D N0
-1.939501	O0 D R
-1.537323	O0 D U
-1.939501	O0 D V
-1.384958	O0 D Y
-1.939501	O0 D Z
-1.537323	O0 D ZH
-0.4016602	R D A
-0.9510862	U D A
-0.2323947	U D A0
-1.025131	U D O0
-1.616144	U D V
-0.5725292	U0 D A
-1.559239	U0 D Al
-0.8941814	U0 D N
-1.559239	U0 D R
-0.7757504	U0 D U
-1.170114	U0 D ZH
-0.7162161	V D A
-1.758081	V D A0
-1.090966	V D O0
-0.4231996	V D R
-1.355903	V D U
-0.9818218	Y D A
-0.4655046	Y D A0
-1.094393	Y D B
-1.648936	Y D N0
-1.246758	Y D O0
-1.483518	Y D R
-0.3999653	Y0 D A
-1.06708	Y0 D U0
-0.5515059	Z D A
-1.197422	Z D A0
-1.699118	Z D G
-1.864536	Z D O0
-1.699118	Z D R
-0.866668	Z D U
-1.197422	Z D U0
-1.462358	Z D V
-1.309993	Z D V0
-1.699118	Z D Y
-0.8602691	Z0 D A
-1.025687	Z0 D O0
-0.9112147	ZH D A
-0.4286601	ZH D A0
-0.7927837	ZH D U
-0.7438223	ZH D Y
-0.3267168	ZH0 D A
-0.5592391	<s> D0 E0
-0.7246569	<s> D0 I
-0.3128151	<sil> D0 I
-1.10042	A D0 A0
-0.6090249	A D0 E0
-0.788641	A D0 I
-0.4576892	A D0 I0
-1.388336	A D0 O0
-2.218812	A D0 Z
-2.218812	A D0 ZH
-0.8900515	A0 D0 A
-0.8900515	A0 D0 B
-0.4753546	A0 D0 I
-1.557166	A0 D0 U
-1.154988	A0 D0 Z
-0.7633591	Al D0 E0
-0.7633591	Al D0 I
-0.9287769	Al D0 I0
-0.924539	E0 D0 E0
-0.3778104	E0 D0 I
-0.05330794	G D0 E0
-1.627747	G D0 I
-0.4623291	GH D0 I
-1.465783	I D0 A0
-1.967479	I D0 B
-0.5119395	I D0 E0
-2.132897	I D0 G
-0.5969394	I D0 I
-0.669784	I D0 I0
-1.135029	I D0 O0
-1.584545	I0 D0 E0
-0.06741589	I0 D0 I
-1.229807	J0 D0 A0
-0.4733757	J0 D0 E0
-0.5626925	J0 D0 O0
-0.6277469	M D0 E0
-0.6277469	M D0 I
-0.225569	M0 D0 I
-0.7053671	N D0 E0
-0.468607	N D0 I
-0.9394503	N0 D0 E0
-0.550325	N0 D0 I
-0.9394503	N0 D0 I0
-1.544201	O0 D0 B
-1.378783	O0 D0 E0
-0.1496782	O0 D0 I
-1.544201	O0 D0 J0
-0.3999653	R D0 I
-1.06708	R D0 I0
-1.06708	R D0 Il
-0.3267168	R0 D0 E0
-1.569755	U D0 A0
-0.4513639	U D0 E0
-0.8133238	U D0 I
-0.9026406	U D0 I0
-0.05046911	U0 D0 I
-0.7026902	V D0 E0
-0.4377538	V D0 I
-0.8145116	Y D0 E0
-0.9799294	Y D0 I0
-0.9799294	Y D0 O0
-0.8038381	Y0 D0 G
-0.6384203	Y0 D0 I
-0.4623291	Z D0 E0
-0.1335672	Z0 D0 E0
-0.9660634	Z0 D0 I
-1.796539	Z0 D0 ZH
-0.3267168	Z0l D0 E0
-0.6596026	ZH D0 E0
-0.7721738	ZH D0 I
-0.4962414	ZH D0 O0
-0.8707849	A D0l E0
-0.7053671	A D0l I
-0.5028081	O0 D0l E0
-0.3267168	Y0 D0l I
-0.3267168	Z0 D0l E0
-0.3267168	A DZ0 E0
-0.6277469	O0 DZH0 D
-0.4016602	A Dl A0
-0.8707849	I Dl A
-0.8707849	I Dl O0
-0.3267168	O0 Dl A
-1.256136	<s> E0 Ml
-0.3072293	<s> E0 T
-0.20712	<sil> E0 T
-1.070667	<sil> E0 T0
-1.214574	A E0 Ml
-1.616751	A E0 R
-0.1536386	A E0 T
-1.214574	A E0 T0
-0.1701138	A0 E0 T
-0.225569	B E0 T
-1.531994	B0 E0 </s>
-1.768754	B0 E0 <sil>
-1.379629	B0 E0 D
-1.768754	B0 E0 D0
-1.531994	B0 E0 G
-1.768754	B0 E0 I
-1.768754	B0 E0 J0
-1.934172	B0 E0 K
-1.103696	B0 E0 L
-1.379629	B0 E0 N
-1.768754	B0 E0 P
-1.934172	B0 E0 R
-1.379629	B0 E0 R0
-1.934172	B0 E0 S
-1.267058	B0 E0 SH
-1.934172	B0 E0 T
-1.934172	B0 E0 U
-1.934172	B0 E0 V
-1.379629	B0 E0 Z
-1.531994	B0 E0 ZH
-2.394903	D0 E0 </s>
-2.394903	D0 E0 A
-2.394903	D0 E0 B
-1.84036	D0 E0 F
-2.229485	D0 E0 G
-1.182273	D0 E0 J0
-2.394903	D0 E0 K
-0.6104589	D0 E0 L
-1.276512	D0 E0 L0
-2.394903	D0 E0 M
-1.727788	D0 E0 N
-0.8725694	D0 E0 N0
-2.229485	D0 E0 P
-2.394903	D0 E0 R
-2.394903	D0 E0 S
-0.9647323	D0 E0 S0
-2.394903	D0 E0 Sl
-1.638472	D0 E0 T
-1.397035	D0 E0 T0
-2.394903	D0 E0 TSH0
-1.501187	D0 E0 V
-1.501187	D0 E0 ZH
-0.8707849	D0l E0 L
-0.3162418	D0l E0 N0
-0.3267168	DZ0 E0 M
-0.7996002	F0 E0 N0l
-0.445347	F0 E0 R
-0.6277469	G E0 G
-0.8145116	G0 E0 J0
-0.9799294	G0 E0 R
-0.1559616	I E0 T
-0.3373903	I0 E0 T
-1.535602	J0 E0 D
-2.090145	J0 E0 D0
-2.090145	J0 E0 F
-0.7146071	J0 E0 J0
-1.259669	J0 E0 KH
-1.924727	J0 E0 L
-1.535602	J0 E0 R
-0.7146071	J0 E0 S
-0.7552639	J0 E0 S0
-1.535602	J0 E0 Z
-1.687967	J0 E0 Z0
-1.333714	J0 E0 ZH
-0.1367238	K E0 T
-1.326717	K0 E0 </s>
-0.7721738	K0 E0 M
-0.924539	K0 E0 O0
-1.326717	K0 E0 T
-1.161299	K0 E0 V0
-0.5028081	L E0 T
-0.9815983	L0 E0 D
-2.221586	L0 E0 D0
-2.056169	L0 E0 F
-1.554472	L0 E0 J0
-2.221586	L0 E0 K
-2.056169	L0 E0 KH
-2.056169	L0 E0 M
-2.056169	L0 E0 M0
-2.056169	L0 E0 N
-0.7133186	L0 E0 N0
-1.179722	L0 E0 S
-1.667043	L0 E0 S0
-0.7584737	L0 E0 T
-2.056169	L0 E0 T0
-1.667043	L0 E0 TS
-1.819409	L0 E0 TSH0
-1.554472	L0 E0 V
-1.554472	L0 E0 Z
-0.6277469	L0l E0 R0
-0.7053671	M E0 T
-2.237875	M0 E0 </s>
-2.237875	M0 E0 B0
-1.240007	M0 E0 D
-1.054443	M0 E0 J0
-1.119483	M0 E0 L
-1.481443	M0 E0 L0
-1.288968	M0 E0 N
-1.57076	M0 E0 N0
-1.481443	M0 E0 Nl
-1.119483	M0 E0 R
-1.835697	M0 E0 R0
-1.344159	M0 E0 S
-1.156063	M0 E0 S0
-1.835697	M0 E0 SH
-1.835697	M0 E0 SH0
-1.119483	M0 E0 T
-1.240007	M0 E0 T0
-1.835697	M0 E0 TS
-1.57076	M0 E0 ZH
-0.5028081	M0l E0 S0
-0.6384203	N E0 <sil>
-1.273233	N0 E0 </s>
-1.668929	N0 E0 <sil>
-1.30697	N0 E0 B
-2.425361	N0 E0 B0
-2.425361	N0 E0 D
-2.425361	N0 E0 D0
-2.425361	N0 E0 G
-0.9622477	N0 E0 J0
-1.383496	N0 E0 K
-2.425361	N0 E0 KH
-1.870818	N0 E0 L
-1.594885	N0 E0 M
-1.870818	N0 E0 N
-2.023183	N0 E0 N0
-2.425361	N0 E0 Nl
-1.758246	N0 E0 P
-1.594885	N0 E0 R
-0.9316289	N0 E0 S
-1.594885	N0 E0 SH
-0.8894032	N0 E0 T
-2.023183	N0 E0 T0
-1.135339	N0 E0 TS
-1.427493	N0 E0 TSH0
-2.425361	N0 E0 U
-1.870818	N0 E0 V
-2.425361	N0 E0 ZH
-0.6277469	N0l E0 B
-0.1319713	O0 E0 T
-2.04272	P0 E0 F
-1.093814	P0 E0 L
-2.04272	P0 E0 N0
-1.000856	P0 E0 R
-0.2150843	P0 E0 R0
-2.04272	P0 E0 T0
-1.877302	P0 E0 TSH0
-1.528834	R0 E0 B
-2.030531	R0 E0 B0
-1.793771	R0 E0 D
-2.195949	R0 E0 F
-1.439517	R0 E0 J0
-2.195949	R0 E0 K
-1.247042	R0 E0 L
-1.641405	R0 E0 L0
-2.195949	R0 E0 Ll
-0.8402636	R0 E0 M0
-2.195949	R0 E0 N0
-1.439517	R0 E0 P
-1.641405	R0 E0 S
-1.247042	R0 E0 T
-0.9833187	R0 E0 T0
-1.641405	R0 E0 TS
-1.198081	R0 E0 TSH0
-1.641405	R0 E0 V
-1.528834	R0 E0 V0
-2.195949	R0 E0 Z
-1.365473	R0 E0 ZH
-1.987374	S0 E0 A
-1.987374	S0 E0 B
-1.485677	S0 E0 D
-2.152792	S0 E0 D0
-2.152792	S0 E0 G
-1.598249	S0 E0 J0
-1.598249	S0 E0 K
-1.259076	S0 E0 KH
-1.259076	S0 E0 L
-1.598249	S0 E0 L0
-0.9401618	S0 E0 M
-1.110927	S0 E0 M0
-2.152792	S0 E0 Ml
-2.152792	S0 E0 N
-1.485677	S0 E0 N0
-1.750614	S0 E0 N0l
-1.987374	S0 E0 P
-1.070981	S0 E0 R
-1.750614	S0 E0 T0
-1.987374	S0 E0 U
-1.485677	S0 E0 V0
-1.750614	S0 E0 Z
-0.8770865	SH E0 J0
-0.7877697	SH E0 N0
-1.378783	SH E0 Nl
-1.142023	SH E0 S
-0.8770865	SH E0 S0
-1.544201	SH E0 T
-1.070667	SH0 E0 L0
-0.9183018	SH0 E0 N0
-1.472845	SH0 E0 P
-0.7164137	SH0 E0 S
-0.6235089	T E0 T
-0.8602691	T E0 T0
-2.149539	T0 E0 <sil>
-1.747361	T0 E0 DZ
-1.482424	T0 E0 J0
-1.984121	T0 E0 K
-1.747361	T0 E0 KH
-0.7368263	T0 E0 L
-1.151671	T0 E0 L0
-1.107674	T0 E0 M
-1.747361	T0 E0 N
-0.9974108	T0 E0 N0
-2.149539	T0 E0 P
-1.747361	T0 E0 P0
-2.149539	T0 E0 R0
-1.594995	T0 E0 S
-1.482424	T0 E0 T
-1.482424	T0 E0 T0
-1.255823	T0 E0 TS
-1.984121	T0 E0 TSH0
-2.149539	T0 E0 ZH
-1.600632	TS E0 B0
-1.76605	TS E0 G
-1.600632	TS E0 K
-0.9355741	TS E0 L
-1.098935	TS E0 L0
-1.098935	TS E0 N
-0.8171431	TS E0 P0
-0.8171431	TS E0 R
-1.256977	TSH0 E0 J0
-1.659155	TSH0 E0 K
-0.4465254	TSH0 E0 M
-1.256977	TSH0 E0 N0
-1.256977	TSH0 E0 R
-1.659155	TSH0 E0 R0
-0.9920411	TSH0 E0 S0
-0.5028081	U E0 T
-0.1352763	V E0 T
-1.182488	V E0 T0
-2.294838	V0 E0 </s>
-1.905713	V0 E0 <sil>
-2.058078	V0 E0 D
-1.793141	V0 E0 D0
-1.905713	V0 E0 J0
-1.104571	V0 E0 K
-2.058078	V0 E0 K0
-2.294838	V0 E0 L
-1.793141	V0 E0 N0
-2.058078	V0 E0 Nl
-0.9110887	V0 E0 R
-0.9665241	V0 E0 R0
-1.418391	V0 E0 S
-1.56654	V0 E0 S0
-1.905713	V0 E0 SH0
-2.460256	V0 E0 Sl
-0.9242983	V0 E0 T
-0.8177834	V0 E0 T0
-1.194531	V0 E0 TSH0
-2.294838	V0 E0 Z0
-1.905713	V0 E0 ZH
-0.5028081	V0l E0 TSH0
-0.2036706	Y E0 T
-0.3267168	Z E0 T
-0.3872438	Z0 E0 M
-1.115542	Z0 E0 R
-0.8787814	Z0 E0 T
-0.5028081	Z0l E0 L0
-1.219332	ZH E0 L0
-1.608457	ZH E0 N
-0.199436	ZH E0 N0
-1.773875	ZH E0 R
-1.017444	ZH E0 S
-0.3267168	B0 E0l T
-0.3373903	L0 E0l T
-0.1367238	S0 E0l T
-1.191711	<s> F K
-1.191711	<s> F P
-1.191711	<s> F S
-0.410457	<s> F S0
-1.428471	<s> F T
-1.593889	<s> F TS
-1.593889	<s> F TSH0
-1.114596	<sil> F K
-1.66914	<sil> F KH
-1.503722	<sil> F P
-1.503722	<sil> F P0
-1.114596	<sil> F S
-0.485708	<sil> F S0
-1.66914	<sil> F SH
-1.266962	<sil> F T
-1.503722	<sil> F TS
-1.231796	A F </s>
-0.860948	A F <sil>
-1.517229	A F A
-2.27366	A F A0
-2.27366	A F E0
-1.379945	A F K
-2.108242	A F O0
-1.324754	A F P
-1.443185	A F R
-1.155269	A F S
-0.6311877	A F S0
-1.606546	A F SH
-1.155269	A F T
-1.606546	A F V
-2.27366	A F Y
-2.27366	A F Y0
-1.949966	A0 F <sil>
-1.547788	A0 F K
-1.547788	A0 F P
-1.949966	A0 F P0
-1.949966	A0 F R0
-0.9520983	A0 F S
-1.00106	A0 F S0
-0.4868533	A0 F SH
-0.868155	A0 F T
-1.280959	E0 F K
-1.280959	E0 F S
-0.4504839	E0 F SH
-1.081102	I F <sil>
-2.030008	I F A0
-1.62783	I F K
-2.030008	I F KH
-1.86459	I F L
-2.030008	I F M0
-1.86459	I F O0
-0.9481971	I F P
-2.030008	I F P0
-1.62783	I F R
-1.081102	I F S
-0.7642834	I F S0
-1.362894	I F SH
-2.030008	I F T
-1.62783	I F TSH0
-2.030008	I F U
-2.030008	I F U0
-1.86459	I F V
-1.86459	I F Y
-1.36811	I0 F K
-1.36811	I0 F S0
-0.2497185	I0 F SH
-0.5777515	J0 F S
-1.104868	K F P
-0.9394503	K F S0
-0.9799294	KH F P0
-0.8145116	KH F S0
-1.488085	L F K
-1.322667	L F P
-1.322667	L F S
-0.6576093	L F S0
-0.8209706	L F T
-1.322667	L F T0
-0.8145116	M F S0
-0.3267168	M0 F U0
-1.006397	N F S
-0.5047006	N F S0
-0.8303664	O0 F </s>
-0.7937866	O0 F <sil>
-1.357635	O0 F A
-1.51	O0 F K
-1.912178	O0 F K0
-1.74676	O0 F P
-1.245063	O0 F S
-1.018462	O0 F S0
-1.357635	O0 F SH0
-1.912178	O0 F T
-1.912178	O0 F V
-1.51	O0 F Y
-0.8038381	R F Y
-0.3267168	R0 F S
-1.025687	S F A
-0.6235089	S F S0
-0.550325	S0 F K
-1.104868	S0 F P
-1.104868	S0 F S0
-0.3267168	SH F S0
-1.171815	T F <sil>
-0.769637	T F S0
-0.9742125	T0 F K
-1.13963	T0 F P
-0.7374523	T0 F S
-1.13963	T0 F S0
-1.280959	U F A
-1.280959	U F KH
-1.115542	U F S
-1.115542	U F S0
-1.115542	U F SH
-0.4385082	U0 F S
-0.6309836	U0 F SH
-1.039346	Y F </s>
-1.191711	Y F <sil>
-1.593889	Y F K
-1.593889	Y F M
-1.191711	Y F P
-1.593889	Y F P0
-0.8374575	Y F S0
-1.191711	Y F T
-1.593889	Y F TS
-1.06708	Y0 F R
-0.5125365	Y0 F SH
-1.06708	Y0 F T0
-0.3267168	<sil> F0 I
-0.8602691	A F0 E0
-1.025687	A F0 I
-0.7026902	A0 F0 I
-1.104868	A0 F0 Il
-1.104868	A0 F0 T0
-0.3267168	E0 F0 I
-0.8038381	I F0 E0
-0.8038381	I F0 I
-0.3267168	M F0 I
-0.6865731	O0 F0 <sil>
-1.517049	O0 F0 TSH0
-1.517049	O0 F0 V
-0.322479	P F0 E0
-0.4016602	S F0 I
-0.3267168	T F0 I
-0.5028081	T0 F0 I
-0.7246569	U F0 I
-0.3267168	U0 F0 I
-0.3267168	Y F0 I0
-0.3267168	I0 Fl S0
-0.9335418	<s> G A
-1.488085	<s> G D0
-0.9335418	<s> G L
-1.322667	<s> G O0
-0.5391784	<s> G U0
-0.667845	<sil> G A
-1.451334	<sil> G D
-0.8603203	<sil> G D0
-1.214574	<sil> G L
-1.214574	<sil> G L0
-1.616751	<sil> G N0
-1.616751	<sil> G R
-1.616751	<sil> G R0
-1.451334	<sil> G U0
-0.80613	A G A
-1.05155	A G A0
-0.5071979	A G D
-1.872544	A G D0
-1.27496	A G L
-1.308696	A G L0
-1.872544	A G N
-1.032565	A G O0
-1.032565	A G R
-2.024909	A G R0
-2.26167	A G U
-1.670656	A G U0
-0.7634196	A0 G A
-0.8033663	A0 G B
-1.290688	A0 G D
-1.178117	A0 G D0
-1.845231	A0 G L
-1.845231	A0 G R0
-1.845231	A0 G U
-1.679813	A0 G U0
-1.845231	A0 G Z0
-0.6617993	A0 G ZH
-0.5592391	Al G N0
-0.3267168	B G A
-0.3267168	B0 G O0
-0.3989997	D G A
-0.9457282	D G A0
-1.182488	D G O0
-0.9287769	D0 G O0
-0.3267168	DZ G A
-0.6138451	E0 G A
-1.280959	E0 G E0
-0.8787814	E0 G O0
-1.115542	E0 G R
-0.5028081	GH G L
-0.5611561	I G A
-1.111193	I G A0
-1.15114	I G D
-1.790826	I G D0
-1.362529	I G L
-2.193004	I G L0
-0.6847363	I G O0
-1.074613	I G R
-2.193004	I G R0
-1.362529	I G U0
-2.027586	I G V
-0.3585726	I0 G A
-1.025687	I0 G D0
-0.8690838	J0 G A
-1.258209	J0 G L
-0.5931514	J0 G O0
-1.423627	J0 G R
-1.423627	J0 G R0
-1.423627	J0 G V
-0.3359572	L G A
-1.488085	L G N0
-1.085907	L G O0
-1.322667	L G U0
-1.488085	L G Z
-0.3267168	L0 G A0
-0.7015927	M G A
-1.090718	M G D0
-1.256136	M G L
-1.090718	M G N
-1.256136	M G O0
-0.7374523	N G A
-1.13963	N G L
-0.9742125	N G L0
-0.3162418	N0 G A
-0.8707849	N0 G Y0
-0.4150817	O0 G A
-1.749963	O0 G Al
-1.749963	O0 G B
-1.584545	O0 G L
-1.584545	O0 G R
-0.6315717	O0 G U
-1.749963	O0 G U0
-0.1952114	R G A
-1.025687	R G O0
-1.410663	U G A
-1.134731	U G A0
-1.563028	U G D0
-1.0163	U G L
-1.563028	U G L0
-0.3668854	U G O0
-1.965206	U G R
-1.799788	U G R0
-1.563028	U G U
-1.208775	U G U0
-0.3817624	U0 G A
-1.423627	U0 G D
-0.5931514	U0 G L
-1.423627	U0 G Z
-1.404337	V G A
-0.30403	V G L
-1.569755	V G L0
-0.9026406	V G O0
-1.569755	V G R0
-0.6842291	Y G A
-1.038482	Y G L0
-1.275242	Y G O0
-0.8861172	Y G R
-1.275242	Y G U
-0.4016602	Y0 G A
-0.6082593	Z G A
-1.391748	Z G L
-0.4753546	Z G L0
-1.391748	Z G O0
-1.391748	Z G R
-1.557166	Z G U
-0.7246569	Z0 G A
-0.4623291	<sil> G0 I
-0.7498974	A G0 I
-0.262576	A G0 I0
-0.06921165	A0 G0 I
-0.5028081	D G0 I
-0.3267168	D0 G0 I
-0.7246569	I G0 I
-0.1701138	I0 G0 I
-0.3373903	N G0 I
-0.1701138	N0 G0 I
-0.03036029	O0 G0 I
-0.7633591	R G0 E0
-0.5265989	R G0 I
-0.2234982	U G0 I0
-0.3267168	U0 G0 I
-0.3267168	V G0 E0
-0.3267168	Y0 G0 I
-0.3267168	Z G0 I
-0.3267168	ZH G0 I0
-0.6277469	A GH B
-0.4623291	A0 GH B
-0.8038381	I GH D
-0.8038381	I GH Z
-0.4256603	I0 GH B
-1.090718	I0 GH D
-1.256136	I0 GH D0
-1.256136	I0 GH Z
-0.7015927	Y GH B
-0.7015927	Y GH D
-1.090718	Y GH Z
-0.6277469	Y0 GH Z
-0.3267168	A Gl O0
-0.5028081	A0 Gl A
-1.542587	<s> I A
-1.779347	<s> I D
-1.188334	<s> I J0
-1.390222	<s> I K
-1.779347	<s> I L0
-1.542587	<s> I M0
-1.944765	<s> I N
-1.779347	<s> I N0
-1.390222	<s> I P
-1.542587	<s> I S
-1.542587	<s> I SH
-1.188334	<s> I T
-1.944765	<s> I TSH0
-1.944765	<s> I U0
-1.542587	<s> I V
-1.114289	<s> I Z
-1.944765	<s> I Z0
-1.944765	<s> I ZH
-1.944765	<s> I Zl
-1.23391	<sil> I A
-1.761178	<sil> I B
-2.315722	<sil> I B0
-1.648607	<sil> I D
-2.315722	<sil> I D0
-1.761178	<sil> I F
-1.913544	<sil> I G
-1.913544	<sil> I J0
-1.485246	<sil> I K
-1.648607	<sil> I L0
-2.150304	<sil> I M
-1.913544	<sil> I M0
-1.19733	<sil> I N
-1.485246	<sil> I N0
-1.761178	<sil> I O0
-1.0257	<sil> I P
-2.315722	<sil> I P0
-2.150304	<sil> I R
-1.049997	<sil> I S
-1.648607	<sil> I S0
-2.150304	<sil> I SH
-1.55929	<sil> I T
-2.315722	<sil> I T0
-2.150304	<sil> I U
-1.273857	<sil> I V
-2.150304	<sil> I V0
-1.422006	<sil> I Z
-2.150304	<sil> I ZH
-1.909487	A I A
-2.074905	A I B0
-1.407791	A I D
-2.074905	A I D0
-1.520362	A I F
-1.520362	A I G
-2.074905	A I J0
-1.672727	A I K
-1.407791	A I L0
-2.074905	A I M
-1.125998	A I M0
-1.407791	A I N
-1.909487	A I N0
-1.318474	A I P
-2.074905	A I P0
-0.9565139	A I S
-2.074905	A I SH
-2.074905	A I U
-1.672727	A I V
-2.074905	A I V0
-1.407791	A I Z
-1.520362	A I Z0
-1.909487	A I Zl
-1.544201	A0 I K
-1.378783	A0 I M0
-1.142023	A0 I N
-1.378783	A0 I N0
-1.378783	A0 I P
-1.142023	A0 I S
-2.271199	B0 I </s>
-2.271199	B0 I D
-1.716656	B0 I D0
-1.514768	B0 I G
-2.105782	B0 I J0
-1.514768	B0 I L0
-1.604085	B0 I N
-1.604085	B0 I N0
-1.604085	B0 I Nl
-0.8766769	B0 I R
-1.377484	B0 I R0
-0.7629316	B0 I S
-2.105782	B0 I S0
-1.869022	B0 I SH
-2.105782	B0 I Sl
-1.440724	B0 I T
-2.105782	B0 I TS
-1.716656	B0 I V
-1.087768	B0 I Z
-2.271199	B0 I Z0
-1.322293	B0 I ZH
-2.271199	B0 I Zl
-1.685896	D0 I </s>
-2.27691	D0 I <sil>
-2.442327	D0 I A
-2.27691	D0 I D
-1.775213	D0 I F
-1.323936	D0 I J0
-1.775213	D0 I K
-2.27691	D0 I K0
-0.9953735	D0 I L
-1.611852	D0 I L0
-1.323936	D0 I M
-2.442327	D0 I M0
-1.229697	D0 I N
-1.444459	D0 I N0
-2.040149	D0 I Nl
-1.176602	D0 I R
-1.323936	D0 I R0
-1.887784	D0 I S
-1.400463	D0 I S0
-1.887784	D0 I SH
-0.9953735	D0 I T
-1.2902	D0 I T0
-2.040149	D0 I TS
-2.442327	D0 I TSH0
-2.040149	D0 I U
-1.887784	D0 I V
-1.611852	D0 I V0
-2.27691	D0 I Z
-0.6384203	D0l I L
-0.8038381	D0l I L0
-1.60547	F0 I D0
-1.440053	F0 I G
-1.60547	F0 I J0
-1.60547	F0 I L
-0.8490393	F0 I L0
-1.440053	F0 I M0
-1.60547	F0 I R
-1.60547	F0 I R0
-1.440053	F0 I T0
-1.60547	F0 I TS
-1.60547	F0 I V
-1.60547	F0 I Z0
-1.114289	G0 I </s>
-0.9029005	G0 I <sil>
-1.390222	G0 I A
-1.944765	G0 I B
-1.944765	G0 I F
-1.542587	G0 I G
-1.390222	G0 I J0
-1.779347	G0 I L
-1.944765	G0 I L0
-1.779347	G0 I M
-1.779347	G0 I N
-1.944765	G0 I P
-1.390222	G0 I R
-1.944765	G0 I R0
-1.779347	G0 I S
-1.944765	G0 I S0
-1.779347	G0 I T
-0.9958585	G0 I V
-1.944765	G0 I Z
-1.607973	J0 I </s>
-1.339524	J0 I <sil>
-1.607973	J0 I A
