
\data\
ngram 1=6452
ngram 2=15156
ngram 3=367

\1-grams:
-1.136322	</s>
-99	<s>	-0.2147196
-1.020328	<sil>	-0.1128273
-2.873236	а	-0.006946638
-4.125529	абажура	-0.04345385
-4.125529	аббатство	-0.04129468
-4.125529	абрикосы	7.005036e-05
-4.125529	аванс	7.005036e-05
-4.125529	аверьянов	-0.04324867
-4.125529	авось	-0.04342066
-4.125529	автограф	-0.04345385
-4.125529	автор	7.005036e-05
-4.125529	агитпоезда	-0.04345385
-4.125529	агонии	-0.01053813
-3.941573	ад	0.03664448
-4.125529	ада	7.005036e-05
-4.125529	адрес	-0.04345385
-4.125529	адреса	7.005036e-05
-4.125529	адресной	-0.04343669
-4.125529	аж	-0.03561289
-4.125529	аиу	7.005036e-05
-4.125529	айртон	-0.04345385
-4.125529	айртона	7.005036e-05
-4.125529	айяй	7.005036e-05
-4.125529	акаций	7.005036e-05
-4.125529	акведуки	7.005036e-05
-4.125529	актов	-0.03561289
-4.125529	акциям	7.005036e-05
-4.125529	александровне	-0.01053813
-4.125529	алексей	-0.04343669
-4.125529	алигьери	-0.01053813
-4.125529	аллею	7.005036e-05
-4.125529	алмазные	-0.04345385
-4.125529	алфавита	7.005036e-05
-4.125529	альберт	-0.04333467
-4.125529	американец	-0.04345385
-4.125529	американской	-0.04343669
-4.125529	америке	7.005036e-05
-4.125529	ампутирована	-0.04345385
-4.125529	амфитеатр	7.005036e-05
-4.125529	амфитеатра	7.005036e-05
-4.125529	амфора	7.005036e-05
-4.125529	ангел	7.005036e-05
-4.125529	ангелом	-0.04195657
-4.125529	английских	-0.04345385
-4.125529	англичане	7.005036e-05
-4.125529	андреа	-0.01053813
-4.125529	анды	7.005036e-05
-4.125529	анеля	-0.01053813
-4.125529	анну	-0.03499969
-4.125529	апельсинового	7.005036e-05
-3.66298	аппарат	-0.02152415
-4.125529	аппараты	-0.04345385
-4.125529	аптекаря	-0.04319133
-4.125529	арийцев	7.005036e-05
-4.125529	армия	-0.04345385
-4.125529	артиллерии	-0.01053813
-4.125529	артиллерия	7.005036e-05
-4.125529	архитектору	-0.01053813
-4.125529	архитектуре	-0.04322
-4.125529	арчибальд	7.005036e-05
-4.125529	ассоциации	-0.04215782
-4.125529	астролог	-0.04345385
-4.125529	астрономов	7.005036e-05
-4.125529	асфальт	-0.01053813
-4.125529	атаку	-0.01053813
-4.125529	атанора	-0.04149623
-4.125529	атанору	7.005036e-05
-4.125529	атлантическом	-0.04345385
-3.941573	атлантов	-0.1780658
-4.125529	африки	7.005036e-05
-3.941573	ах	-0.04305557
-4.125529	ашхе	7.005036e-05
-3.941573	аэлита	-0.04273994
-4.125529	аэлиту	-0.01053813
-4.125529	аэлиты	-0.04290449
-4.125529	б	-0.04057757
-4.125529	бабушка	-0.04345385
-4.125529	багровые	-0.04345385
-4.125529	баз	7.005036e-05
-4.125529	бакенбарды	-0.04270359
-4.125529	баки	7.005036e-05
-4.125529	бала	-0.04345385
-4.125529	балалайке	7.005036e-05
-3.941573	балки	-0.01048454
-4.125529	балу	-0.04345385
-4.125529	бальзамо	-0.04270359
-4.125529	баранками	-0.01053813
-4.125529	барельеф	-0.04195657
-4.125529	барином	-0.04345385
-4.125529	баронетами	7.005036e-05
-4.125529	баррикаду	-0.03499969
-4.125529	баррикады	7.005036e-05
-4.125529	барского	-0.04343669
-4.125529	бархатные	-0.03499969
-4.125529	барыни	7.005036e-05
-4.125529	барышни	-0.04210033
-3.941573	барышня	0.03664448
-4.125529	бах	7.005036e-05
-4.125529	башнями	7.005036e-05
-4.125529	бдительность	7.005036e-05
-4.125529	бег	-0.04256003
-4.125529	бегал	-0.041784
-4.125529	бегать	-0.04215782
-4.125529	бегая	-0.03499969
-4.125529	беглецы	7.005036e-05
-4.125529	бегущие	-0.04345385
-4.125529	бегущих	-0.04215782
-4.125529	бедная	7.005036e-05
-4.125529	бедуины	-0.04345385
-4.125529	бежала	-0.04195657
-3.941573	бежали	-0.04157415
-3.66298	бежать	-0.03725062
-4.125529	беженцев	7.005036e-05
-3.056958	без	-0.05523755
-4.125529	безвестных	-0.04345385
-4.125529	безвоздушном	-0.04342066
-4.125529	безграничную	7.005036e-05
-4.125529	бездна	-0.04345385
-4.125529	бездны	-0.04112184
-4.125529	беззаботного	7.005036e-05
-4.125529	безнадёжное	-0.04345385
-4.125529	безоружных	-0.04342066
-4.125529	безумие	-0.04345385
-4.125529	безумное	-0.04345385
-4.125529	безумном	-0.04343669
-4.125529	бейкер-стрит	7.005036e-05
-4.125529	бейракрс	-0.01053813
-4.125529	бекингэма	-0.01053813
-4.125529	белого	-0.04333467
-3.941573	белой	-0.04338814
-4.125529	белом	-0.04345385
-4.125529	белые	-0.04345385
-4.125529	белый	-0.04345385
-3.820163	белых	-0.04337163
-4.125529	бельбо	7.005036e-05
-4.125529	берег	-0.04342132
-3.941573	берега	-0.009972267
-4.125529	берегов	-0.04345385
-4.125529	берегу	-0.01037448
-4.125529	берлин	-0.01053813
-4.125529	беру	-0.03799902
-4.125529	берут	7.005036e-05
-4.125529	берёзы	-0.01053813
-4.125529	берёт	7.005036e-05
-4.125529	беседа	-0.04256003
-4.125529	беседки	7.005036e-05
-4.125529	беседуя	7.005036e-05
-4.125529	бесконечная	7.005036e-05
-3.820163	бесконечно	-0.04318358
-4.125529	бесконечную	-0.043392
-4.125529	бесконечные	-0.04345385
-4.125529	бесплодной	-0.04343669
-4.125529	беспокойтесь	-0.04343669
-4.125529	беспокоящим	-0.04322
-4.125529	беспомощно	-0.04345385
-4.125529	беспросветная	7.005036e-05
-4.125529	беспутный	-0.04343669
-4.125529	бесспорно	7.005036e-05
-4.125529	бестактным	7.005036e-05
-4.125529	бесценных	-0.04345385
-3.941573	бесшумно	-0.04342132
-4.125529	бетховен	7.005036e-05
-4.125529	бетховену	7.005036e-05
-4.125529	бешеные	-0.04343669
-4.125529	бешеным	-0.04345385
-4.125529	бешеных	-0.04345385
-4.125529	библиотеки	7.005036e-05
-3.941573	била	-0.2031406
-4.125529	билетёр	-0.01053813
-4.125529	били	-0.04264617
-4.125529	билль	7.005036e-05
-4.125529	бильярд	-0.01053813
-4.125529	бильярда	7.005036e-05
-3.941573	бинэ	0.03664448
-4.125529	битки	-0.04345385
-4.125529	биться	-0.03561289
-4.125529	бичами	-0.01053813
-4.125529	благовидные	-0.04324867
-4.125529	благоговеешь	7.005036e-05
-4.125529	благодарна	7.005036e-05
-4.125529	благодать	-0.04345385
-3.941573	благополучно	-0.04342132
-4.125529	благоприятный	-0.04345385
-4.125529	благородными	-0.04345385
-4.125529	благословляет	7.005036e-05
-4.125529	блаженства	7.005036e-05
-4.125529	бледнел	7.005036e-05
-4.125529	бледно	-0.04345385
-4.125529	бледно-зелёные	-0.04345385
-4.125529	бледный	-0.04333467
-3.941573	блеск	-0.04027706
-4.125529	блеска	-0.04273229
-4.125529	блеснуло	-0.04345385
-4.125529	блестели	-0.04293318
-4.125529	ближайшей	-0.04345385
-4.125529	ближайший	-0.04345385
-3.941573	ближе	-0.04302689
-4.125529	близ	-0.04330601
-3.941573	близко	-0.1674577
-4.125529	блин	-0.03472807
-4.125529	блудницей	-0.03561289
-4.125529	блуждая	-0.04307662
-4.125529	блузе	-0.0428471
-4.125529	блюд	7.005036e-05
-3.941573	блюда	-0.0425229
-4.125529	блюдца	7.005036e-05
-4.125529	блюхер	-0.04345385
-3.820163	бовари	-0.04306433
-3.820163	бог	-0.04247764
-4.125529	богатым	-0.04345385
-4.125529	богатыри	-0.01053813
-3.941573	богиня	-0.04338814
-4.125529	богом	-0.04343669
-4.125529	богу	-0.03499969
-4.125529	бодро	-0.043392
-3.941573	боже	-0.2108624
-4.125529	божественность	-0.01053813
-4.125529	божественный	7.005036e-05
-4.125529	божественными	-0.03499969
-4.125529	божия	-0.01053813
-4.125529	божьим	-0.01053813
-4.125529	бойко	-0.04345385
-4.125529	боков	-0.04161136
-3.38172	более	-0.04067801
-4.125529	болезней	-0.03561289
-4.125529	боли	7.005036e-05
-4.125529	болота	7.005036e-05
-4.125529	болотные	-0.04345385
-3.820163	больных	0.0007493794
-3.090923	больше	0.00994768
-4.125529	большеглазых	-0.04345385
-4.125529	большее	-0.04210033
-4.125529	большею	-0.04342066
-3.941573	большие	-0.04326895
-4.125529	больших	-0.04345385
-3.941573	большого	-0.04342132
-3.38172	большой	-0.03386202
-4.125529	большою	-0.04345385
-3.941573	большую	-0.04342132
-4.125529	бормочет	-0.04313397
-4.125529	бородавки	-0.01053813
-4.125529	бородою	-0.01053813
-4.125529	бороды	7.005036e-05
-4.125529	борху	-0.01053813
-3.941573	борьбы	-0.04342132
-4.125529	бостоном	-0.01053813
-4.125529	бостончик	-0.04301925
-4.125529	босую	7.005036e-05
-4.125529	боялась	-0.04345385
-4.125529	брала	-0.04161136
-3.820163	брат	-0.1145739
-3.820163	брата	-0.2407405
-4.125529	братскому	-0.04343669
-4.125529	брату	-0.01053813
-4.125529	брать	7.005036e-05
-3.941573	братья	-0.03496653
-4.125529	бредить	-0.04345385
-4.125529	бредут	-0.04345385
-4.125529	бренди	7.005036e-05
-3.941573	бричка	-0.01050305
-4.125529	бричке	-0.04328498
-4.125529	бровей	-0.04343669
-4.125529	брови	7.005036e-05
-4.125529	бровями	-0.03499969
-4.125529	бродяги	7.005036e-05
-3.941573	бронзовым	-0.04338814
-4.125529	бронхитик	7.005036e-05
-4.125529	бросаешь	-0.04345385
-4.125529	бросил	-0.04296187
-3.941573	бросилась	-0.04047908
-4.125529	бросить	-0.04161136
-4.125529	броутон	7.005036e-05
-4.125529	брусничного	-0.043392
-4.125529	брустверам	-0.01053813
-4.125529	брызгами	7.005036e-05
-4.125529	брюхом	7.005036e-05
-4.125529	брючек	7.005036e-05
-4.125529	бубен	-0.01053813
-4.125529	бубенцов	-0.03499969
-4.125529	бубнили	7.005036e-05
-3.941573	будем	-0.04275712
-2.996089	будет	-0.01210213
-4.125529	будете	-0.04250259
-3.941573	будешь	-0.03537084
-4.125529	будочников	-0.04290449
-3.66298	будто	-0.06875884
-3.941573	буду	-0.04321923
-3.66298	будут	-0.010162
-4.125529	будущее	-0.04210033
-4.125529	будь	-0.04132348
-4.125529	будьте	-0.04342066
-4.125529	букв	-0.01053813
-4.125529	буква	-0.04345385
-4.125529	буклями	-0.042761
-4.125529	булавкою	-0.04017003
-4.125529	булыжник	-0.01053813
-4.125529	бульваре	-0.01053813
-3.941573	бумага	0.001094226
-3.941573	бумаги	-0.1674577
-3.941573	бумагу	-0.04317029
-4.125529	бумажке	-0.04342066
-4.125529	бумажки	-0.041784
-4.125529	бури	-0.01053813
-4.125529	бурому	-0.04345385
-4.125529	бурь	-0.03561289
-4.125529	буря	7.005036e-05
-4.125529	бутылке	7.005036e-05
-4.125529	буфер	-0.01053813
-4.125529	бухты	-0.04345385
-2.777583	бы	-0.04207626
-4.125529	бывает	-0.03561289
-3.941573	бывал	-0.04289608
-4.125529	бывало	-0.01053813
-3.820163	бывают	-0.04242832
-4.125529	быков	7.005036e-05
-2.608956	был	0.06815442
-2.795102	была	0.03324435
-2.873236	были	-0.03617211
-4.125529	былинках	7.005036e-05
-2.4967	было	0.005661294
-3.820163	быстро	-0.03462781
-4.125529	бытие	7.005036e-05
-3.212424	быть	-0.0003799312
-4.125529	бычачий	-0.04345385
-4.125529	бьющий	-0.03561289
-3.941573	бьётся	0.000849586
-4.125529	бювар	7.005036e-05
-4.125529	бюши	-0.04345385
-1.745548	в	-0.07124739
-3.941573	важнее	-0.04313011
-4.125529	важнейшие	-0.04345385
-3.941573	важно	-0.1780658
-4.125529	важное	-0.01053813
-4.125529	валентин	-0.04345385
-4.125529	валится	-0.03799902
-4.125529	вальтер	-0.04345385
-4.125529	валялась	-0.04345385
-4.125529	валялись	7.005036e-05
-3.090923	вам	-0.05842517
-4.125529	вами	-0.04345385
-4.125529	ванной	-0.04345385
-4.125529	ваня	-0.03499969
-4.125529	варварское	-0.04345385
-4.125529	варо	-0.04345385
-4.125529	варёное	-0.04345385
-4.125529	варёную	-0.04345385
-3.168039	вас	0.03833115
-4.125529	ватанабэ	7.005036e-05
-4.125529	ваш	-0.043392
-3.941573	ваша	-0.04333843
-3.941573	ваше	-0.2109815
-3.941573	вашего	-0.04338814
-4.125529	вашей	-0.04345385
-3.941573	ваши	-0.04321613
-3.820163	вашу	-0.04337163
-4.125529	ввели	-0.0431053
-3.941573	вверх	-0.04085402
-4.125529	вверху	-0.04215782
-4.125529	ввёл	-0.03561289
-3.941573	вглубь	-0.04335947
-3.941573	вглядывался	-0.2031406
-3.941573	вдали	-0.01050305
-3.941573	вдова	-0.04127355
-4.125529	вдоль	-0.04342066
-4.125529	вдохнови	-0.04345385
-4.125529	вдребезги	-0.04345385
-3.317672	вдруг	-0.01643414
-4.125529	вдыхание	-0.03499969
-4.125529	вегетативную	-0.04345385
-4.125529	веду	-0.04290449
-3.317672	ведь	0.005408507
-4.125529	ведёрке	-0.04345385
-4.125529	ведёшь	-0.04324867
-4.125529	вежливо	7.005036e-05
-3.941573	вежливым	-0.01050305
-3.820163	везде	-0.009025179
-3.820163	век	0.03682692
-4.125529	веке	7.005036e-05
-4.125529	веки	-0.01053813
-3.941573	веку	-0.01043633
-4.125529	вел	-0.01053813
-3.941573	вела	-0.03502036
-4.125529	велел	-0.04343669
-4.125529	великая	-0.04324867
-4.125529	велико	7.005036e-05
-3.941573	великого	-0.04340416
-4.125529	величественная	-0.04345385
-4.125529	величественный	-0.01053813
-4.125529	величины	-0.04345385
-4.125529	вельможами	-0.04345385
-4.125529	вендер	-0.01053813
-4.125529	венец	-0.04345385
-4.125529	венчаться	-0.03561289
-4.125529	вера	7.005036e-05
-3.941573	верил	0.000872016
-4.125529	верит	-0.04247387
-3.820163	верить	-0.0005128756
-4.125529	вернее	-0.04342066
-3.456875	верно	-0.05877724
-4.125529	верного	-0.03499969
-4.125529	верное	-0.04345385
-4.125529	вернувшихся	-0.03799902
-3.941573	вернулась	-0.04338814
-3.941573	вернулся	-0.2031406
-3.941573	вернуть	-0.04235056
-3.941573	вернуться	-0.008390747
-3.941573	вероятно	0.002461743
-4.125529	вертикальные	-0.04345385
-4.125529	вертлявым	-0.04296187
-4.125529	верующим	-0.04345385
-4.125529	верхнего	-0.04345385
-4.125529	верхний	-0.04241643
-4.125529	верхнюю	-0.01053813
-4.125529	вершины	7.005036e-05
-4.125529	верёвками	-0.03499969
-3.941573	верёвочки	-0.1674577
-4.125529	вес	-0.01053813
-4.125529	веселье	7.005036e-05
-4.125529	весеннем	-0.01053813
-4.125529	весло	-0.04343669
-4.125529	весна	7.005036e-05
-4.125529	весной	-0.01053813
-4.125529	весом	-0.01053813
-4.125529	вест	7.005036e-05
-3.941573	вести	-0.01031262
-4.125529	вестибюль	7.005036e-05
-4.125529	вестового	-0.03499969
-3.317672	весь	-0.04182832
-3.261868	весьма	-0.009928495
-3.941573	весёлая	-0.01043633
-4.125529	весёлой	-0.04345385
-4.125529	весёлыми	-0.04345385
-4.125529	ветвях	-0.03499969
-3.547814	ветер	-0.01011446
-4.125529	ветра	-0.03499969
-4.125529	ветреная	-0.01053813
-3.941573	ветром	0.0003962293
-4.125529	ветхие	-0.04345385
-3.66298	вечер	-0.009959009
-4.125529	вечера	7.005036e-05
-4.125529	вечерам	-0.01053813
-3.941573	вечеринке	-0.01050305
-4.125529	вечеринку	-0.01053813
-3.820163	вечером	-0.2301323
-4.125529	вечеру	-0.0429982
-4.125529	вечной	-0.04345385
-4.125529	вечною	-0.04345385
-4.125529	вечные	7.005036e-05
-4.125529	вечный	-0.04345385
-4.125529	вещей	-0.0397656
-4.125529	вещество	7.005036e-05
-3.941573	вещи	0.0001249723
-3.66298	вещь	-0.00984006
-4.125529	веяло	-0.04215782
-4.125529	взад	-0.03499969
-4.125529	взвился	-0.04345385
-4.125529	взвод	-0.01053813
-3.547814	взгляд	-0.0293188
-4.125529	взгляды	-0.04345385
-4.125529	взглянув	-0.03799902
-3.941573	взглянул	-0.03794871
-3.941573	взглянуть	-0.02940335
-4.125529	вздор	-0.04235897
-4.125529	вздохи	7.005036e-05
-3.66298	вздохнул	-0.1580659
-4.125529	вздымали	-0.04296187
-4.125529	вздымающийся	-0.04313397
-4.125529	взлохмаченная	-0.04343669
-4.125529	взоры	-0.04345385
-4.125529	взошёл	-0.03799902
-3.941573	взрослых	0.03664448
-3.941573	взявши	-0.03223564
-3.941573	взял	-0.04342132
-3.941573	взяла	-0.04006647
-3.941573	взялся	-0.0421494
-4.125529	взять	-0.04017003
-4.125529	вид	-0.04132348
-3.456875	видел	-0.08029628
-3.941573	видела	0.0001060031
-4.125529	видели	-0.04132348
-4.125529	виден	-0.04345385
-3.66298	видеть	-0.08620348
-4.125529	видим	-0.04345385
-3.820163	видимо	-0.03315844
-3.941573	видите	0.0008402802
-4.125529	видишь	-0.04184153
-3.941573	видна	-0.04234667
-3.66298	видно	-0.0008541048
-3.941573	видны	-0.04340416
-4.125529	видные	-0.04195657
-4.125529	видом	7.005036e-05
-4.125529	виду	-0.01053813
-4.125529	видывал	-0.04345385
-4.125529	видывано	-0.04316265
-3.941573	вижу	-0.04114222
-4.125529	визгом	-0.04345385
-4.125529	визит	-0.043392
-4.125529	визитам	-0.01053813
-4.125529	визитов	-0.04112184
-3.941573	визиты	0.0002377518
-4.125529	виктора	-0.04345385
-4.125529	вилась	-0.04345385
-4.125529	вились	-0.04345385
-4.125529	вильфор	-0.01053813
-4.125529	виляют	-0.04327734
-4.125529	винты	-0.01053813
-4.125529	висбаден-хютте	-0.01053813
-4.125529	висевшей	-0.04017003
-4.125529	висела	-0.041784
-3.941573	висели	-0.04194815
-3.941573	виски	0.0001249723
-4.125529	вист	-0.04336334
-4.125529	виста	-0.01053813
-4.125529	висящих	-0.04345385
-4.125529	вице-губернатору	-0.04322
-4.125529	вицегубернатором	-0.03499969
-4.125529	вишь	-0.04296187
-4.125529	включённого	-0.03799902
-4.125529	вкратце	-0.04345385
-4.125529	вкус	-0.04149623
-4.125529	вкусах	-0.0397656
-4.125529	вкусом	-0.04345385
-4.125529	владыке	-0.04333467
-4.125529	влажным	-0.04345385
-4.125529	властвующие	-0.0397656
-4.125529	власти	-0.04319133
-4.125529	властителями	-0.04112184
-4.125529	влево	7.005036e-05
-4.125529	влез	-0.03799902
-4.125529	влезет	-0.01053813
-4.125529	влетают	-0.04345385
-4.125529	влетели	-0.04343669
-4.125529	влетит	-0.03561289
-3.456875	вместе	-0.3433042
-3.941573	вместо	-0.04301538
-3.941573	внезапно	-0.0355623
-4.125529	внесено	-0.04343669
-4.125529	внесены	-0.04290449
-4.125529	внесли	-0.04343669
-4.125529	внесён	-0.04241643
-3.941573	вниз	0.0001060031
-3.820163	внизу	-0.02876863
-3.820163	внимание	0.001638658
-4.125529	внимания	7.005036e-05
-3.820163	внимательно	-0.009250656
-4.125529	внимательность	-0.04149623
-3.38172	вновь	-0.04290235
-4.125529	внутренности	-0.04250259
-4.125529	внутренность	-0.04195657
-3.941573	внутри	-0.04289608
-3.941573	внутрь	-0.04338814
-2.942712	во	-0.1296906
-3.941573	вовсе	-0.03952585
-3.941573	вода	-0.03926552
-4.125529	воде	-0.01053813
-4.125529	водила	-0.041784
-4.125529	водится	-0.04336334
-3.820163	воду	-0.06758589
-3.820163	воды	-0.09544784
-4.125529	водя	-0.041784
-4.125529	воевали	-0.04017003
-4.125529	воем	7.005036e-05
-4.125529	военкома	-0.04345385
-4.125529	военной	-0.04345385
-4.125529	вождь	-0.04345385
-4.125529	вождями	-0.04342066
-4.125529	возбуждённые	7.005036e-05
-4.125529	возведено	-0.03561289
-4.125529	возводят	-0.03561289
-4.125529	возвращались	-0.04333467
-4.125529	возвращался	-0.03799902
-4.125529	возвращаться	7.005036e-05
-4.125529	возвышении	-0.04343669
-3.66298	воздух	-0.009313367
-3.941573	воздуха	-0.1674577
-4.125529	воздухе	-0.04342066
-4.125529	воздухом	-0.04345385
-4.125529	воздуху	7.005036e-05
-4.125529	воздушно	-0.03499969
-3.941573	воздушные	-0.04340416
-4.125529	возились	-0.04319133
-4.125529	возиться	-0.04333467
-3.820163	возле	-0.04260517
-4.125529	возможном	-0.04345385
-4.125529	возможности	-0.01053813
-4.125529	возможность	-0.01053813
-4.125529	возносившихся	-0.04149623
-4.125529	возьмите	-0.0431053
-4.125529	возьму	-0.04345385
-4.125529	возьмёт	-0.04316265
-4.125529	войдёт	-0.04250259
-4.125529	войлоком	-0.01053813
-3.820163	войн	-0.04122474
-4.125529	войне	-0.01053813
-3.941573	войти	-0.033381
-3.38172	вокруг	0.004910722
-4.125529	волги	-0.01053813
-4.125529	воле	7.005036e-05
-4.125529	волнистых	-0.04342066
-3.941573	волны	-0.04340416
-4.125529	володя	7.005036e-05
-3.820163	волос	0.03803525
-3.941573	волосами	-0.001375448
-4.125529	волоска	-0.03499969
-4.125529	волосы	-0.04180889
-3.941573	вон	-0.03548761
-4.125529	воображению	-0.04345385
-4.125529	вообразить	-0.0397656
-3.456875	вообще	-0.003421143
-4.125529	вообще-то	-0.04345385
-4.125529	вооружённым	-0.04345385
-4.125529	вооружённых	-0.03499969
-4.125529	вопрос	-0.04345385
-4.125529	вопроса	-0.01053813
-4.125529	вопросов	-0.0431053
-4.125529	вопросы	-0.01053813
-3.941573	ворона	0.03664448
-4.125529	ворот	-0.04290449
-3.820163	ворота	-0.1470117
-4.125529	воротах	-0.04322
-4.125529	воротник	-0.04129468
-4.125529	воротником	7.005036e-05
-4.125529	ворчливо	7.005036e-05
-4.125529	восемнадцатого	7.005036e-05
-4.125529	восемнадцать	-0.01053813
-3.127772	восемь	-0.04005147
-3.820163	восемьдесят	-0.009870317
-4.125529	воскликнул	-0.04345385
-4.125529	воскликнула	-0.04336334
-4.125529	восклицания	-0.04345385
-4.125529	восковую	-0.03499969
-4.125529	воскресений	7.005036e-05
-4.125529	воскресенье	-0.04343669
-4.125529	воскресной	-0.04345385
-4.125529	воспоминания	7.005036e-05
-4.125529	воспроизведены	-0.04345385
-4.125529	восседал	-0.04345385
-4.125529	восстание	7.005036e-05
-4.125529	востока	-0.03799902
-4.125529	востоку	-0.04215782
-4.125529	восточном	-0.04345385
-4.125529	восточному	-0.04345385
-4.125529	восточный	-0.04345385
-4.125529	восхитили	-0.03499969
-4.125529	восхищаешься	7.005036e-05
-3.941573	восьми	-0.03972822
-3.212424	вот	-0.03156901
-3.820163	вот-вот	-0.0433556
-4.125529	вошедши	-0.03561289
-3.941573	вошли	-0.2031406
-3.820163	вошёл	-0.2658152
-4.125529	вояки	-0.04343669
-4.125529	впадающих	-0.01053813
-4.125529	впадинах	-0.01053813
-3.941573	впервые	-0.03549604
-3.820163	вперёд	0.001988519
-4.125529	вплоть	-0.04296187
-4.125529	вполне	-0.04343669
-3.941573	впоследствии	-0.04281
-3.941573	вправду	-0.04270735
-3.941573	вправо	0.0001060031
-3.261868	впрочем	0.006698433
-4.125529	впрямь	-0.03951612
-4.125529	врага	-0.01053813
-4.125529	врагу	7.005036e-05
-4.125529	вразбитную	-0.0431053
-3.941573	врач	0.0001249723
-4.125529	врачебной	-0.04345385
-4.125529	времена	-0.043392
-3.66298	времени	-0.03244064
-4.125529	временное	-0.04343669
-3.212424	время	-0.05137814
-4.125529	времён	-0.04345385
-3.941573	вроде	-0.04310143
-4.125529	врознь	-0.01053813
-4.125529	вряд	-0.0427897
-2.671475	все	-0.08215271
-3.212424	всегда	-0.03430114
-3.127772	всего	-0.0003557242
-3.941573	всей	-0.04342132
-4.125529	вселенной	-0.01053813
-3.456875	всем	0.0006543323
-4.125529	всеми	-0.04345385
-4.125529	всему	-0.0431053
-4.125529	всеобщее	-0.04345385
-4.125529	всерьёз	-0.01053813
-3.212424	всех	-0.02266316
-4.125529	всецело	7.005036e-05
-4.125529	вскинул	-0.03799902
-4.125529	вскользь	-0.04132348
-4.125529	вскоре	-0.04316265
-4.125529	вскрикивая	7.005036e-05
-3.66298	вслед	-0.2025513
-4.125529	вслух	-0.04112184
-4.125529	всплеснул	-0.04342066
-3.941573	вспоминал	-0.04143022
-3.941573	вспомнил	-0.04337163
-4.125529	вспомнила	-0.04235897
-4.125529	вспомнить	-0.04112184
-4.125529	вспыхнул	-0.04345385
-4.125529	вставали	-0.04256003
-4.125529	вставляй	7.005036e-05
-4.125529	встал	-0.04345385
-4.125529	встала	-0.03561289
-3.941573	встретил	-0.04328498
-4.125529	встретились	-0.04345385
-4.125529	встретился	-0.04336334
-4.125529	встретится	-0.04017003
-4.125529	встречен	-0.04345385
-4.125529	встречи	-0.04233024
-3.941573	встречный	-0.04342132
-4.125529	встряхивал	-0.04343669
-4.125529	встряхнул	-0.04343669
-4.125529	вступили	-0.03561289
-4.125529	вступился	-0.01053813
-4.125529	вступить	-0.03561289
-4.125529	всунули	-0.04345385
-3.820163	всю	-0.0432696
-3.941573	всюду	0.0002060607
-3.66298	вся	-0.03321316
-3.456875	всякий	-0.1431003
-4.125529	всяким	-0.04345385
-3.820163	всякого	-0.04335446
-4.125529	всякое	-0.04343669
-4.125529	всякой	-0.04324867
-3.941573	всяком	-0.04342132
-2.996089	всё	-0.01117595
-3.547814	всё-таки	-0.1024235
-4.125529	всём	-0.04342132
-4.125529	вторая	-0.04345385
-4.125529	второго	7.005036e-05
-4.125529	второе	7.005036e-05
-3.820163	второй	0.0004512034
-4.125529	второму	-0.04345385
-4.125529	втянули	-0.04161136
-4.125529	втянуть	-0.03561289
-4.125529	входа	-0.002037968
-4.125529	входил	-0.043392
-3.941573	входит	-0.2031406
-4.125529	входящего	-0.04307662
-4.125529	вцепился	-0.03561289
-4.125529	вчера	7.005036e-05
-4.125529	вчерашнего	-0.04345385
-4.125529	въедет	-0.03561289
-4.125529	въезд	-0.04161136
-4.125529	въезжаешь	-0.04129468
-4.125529	въехал	-0.03799902
-4.125529	въехала	-0.04336334
-3.056958	вы	-0.04706979
-4.125529	выбегали	-0.04345385
-4.125529	выбежал	-0.04343669
-4.125529	выбравшись	-0.04195657
-4.125529	выбритые	-0.04345385
-4.125529	выброшена	-0.03799902
-4.125529	вывешивали	-0.04345385
-4.125529	выводиться	-0.04345385
-4.125529	выглядывала	-0.03799902
-4.125529	выглядывали	-0.04345385
-4.125529	выглядывающими	-0.04129468
-4.125529	выгода	-0.04343669
-4.125529	выдали	7.005036e-05
-4.125529	выдать	-0.04345385
-4.125529	выдвинуты	-0.03561289
-4.125529	выдержал	0.009461768
-4.125529	выдыхание	-0.01053813
-4.125529	выехал	-0.04343669
-4.125529	выздоровления	-0.04343669
-4.125529	вызывает	-0.04324867
-4.125529	выиграем	-0.01053813
-3.941573	выйти	-0.03793247
-4.125529	выкинул	-0.04330601
-4.125529	выкладками	-0.01053813
-4.125529	выключил	-0.04343669
-4.125529	выкрашен	-0.04345385
-4.125529	выкрашенные	-0.04345385
-4.125529	выкушал	-0.04342066
-4.125529	вылез	-0.04195657
-4.125529	вылезавшие	-0.01053813
-4.125529	вылезшие	-0.04195657
-4.125529	выложили	-0.04342066
-4.125529	вымерять	-0.04345385
-4.125529	вымышленным	-0.04343669
-4.125529	вынул	-0.04195657
-4.125529	выпей	-0.04345385
-4.125529	выпив	-0.04342066
-4.125529	выпили	-0.04316265
-4.125529	выписаны	-0.04336334
-4.125529	выписывает	-0.03561289
-3.941573	выпить	0.03664448
-4.125529	выползли	-0.03799902
-4.125529	выпросил	-0.04184153
-4.125529	выпрямливался	-0.04345385
-4.125529	выпятил	-0.04345385
-4.125529	выражая	-0.04345385
-4.125529	выражение	7.005036e-05
-3.941573	выражения	-0.009910356
-4.125529	вырази	-0.04345385
-4.125529	выразил	-0.03799902
-4.125529	выразительную	7.005036e-05
-3.941573	выразить	-0.04303953
-4.125529	вырвавшись	7.005036e-05
-4.125529	вырвать	-0.04345385
-4.125529	вырваться	-0.04195657
-4.125529	вырезанная	-0.04343669
-4.125529	вырисовывалась	-0.04342066
-4.125529	вырождение	-0.04345385
-4.125529	выросшим	-0.03799902
-4.125529	вырывались	-0.04343669
-4.125529	высказываний	-0.04345385
-4.125529	выслала	-0.0431053
-4.125529	высмаркивался	-0.04336334
-4.125529	высматривает	-0.04330601
-4.125529	высокие	-0.03499969
-4.125529	высокий	7.005036e-05
-4.125529	высоких	-0.04345385
-4.125529	высоко	-0.04345385
-4.125529	высокогорных	-0.04343669
-4.125529	высокой	7.005036e-05
-4.125529	высокую	-0.04342066
-4.125529	высоте	-0.04343669
-4.125529	высоту	-0.01053813
-4.125529	высоты	7.005036e-05
-4.125529	высохшие	-0.04345385
-4.125529	выстрела	-0.04336334
-4.125529	выступить	-0.03561289
-4.125529	высыпали	-0.04195657
-4.125529	вытащил	-0.04345385
-4.125529	вытащить	-0.04342066
-4.125529	вытер	-0.0431053
-4.125529	вытребовать	-0.04184153
-4.125529	вытягиваться	-0.04299056
-4.125529	вытягивая	-0.04336334
-4.125529	вытянулось	-0.01053813
-4.125529	выхода	-0.008887533
-4.125529	выходе	-0.04195657
-4.125529	выходил	7.005036e-05
-4.125529	выходила	-0.04327734
-4.125529	выходить	-0.03561289
-4.125529	выходя	-0.04017003
-4.125529	выходящее	-0.04195657
-4.125529	выходящих	7.005036e-05
-3.941573	выше	-0.04157026
-3.66298	вышел	-0.09852068
-4.125529	вышивает	-0.042761
-4.125529	вышивал	-0.04330601
-3.941573	вышины	0.0004913434
-3.941573	вышла	0.0001743734
-4.125529	выщекатурен	-0.03499969
-4.125529	выщипнул	-0.04345385
-4.125529	вьющимися	-0.04345385
-4.125529	вязли	-0.041784
-4.125529	вёзших	-0.04256003
-3.941573	вёрст	-0.04177558
-4.125529	габсбурги	7.005036e-05
-4.125529	гадали	-0.04235897
-4.125529	газет	-0.01053813
-3.941573	газеты	0.03664448
-4.125529	галантерейщица	-0.04017003
-4.125529	галерее	-0.04345385
-4.125529	галлюцинациями	-0.04343669
-4.125529	галя	-0.01053813
-4.125529	гардероба	-0.04343669
-4.125529	гарцевавших	-0.041784
-4.125529	гаскони	7.005036e-05
-3.941573	гасси	0.000618197
-3.941573	гвардии	0.008782521
-4.125529	гвоздиками	-0.04345385
-4.125529	гвоздями	7.005036e-05
-3.056958	где	-0.01523886
-3.820163	где-нибудь	-0.1398101
-3.66298	где-то	-0.04037559
-4.125529	гелашвили	-0.01053813
-4.125529	гениальный	7.005036e-05
-4.125529	геннельхольм	-0.01053813
-3.941573	генрих	0.0001426898
-4.125529	генриэттой	-0.01053813
-4.125529	генэго	7.005036e-05
-4.125529	геометрически	-0.04345385
-4.125529	геометрическими	-0.04345385
-4.125529	геометрических	-0.04345385
-4.125529	геометрического	-0.04343669
-4.125529	гермафродита	7.005036e-05
-4.125529	геройские	-0.04345385
-4.125529	героях	-0.04345385
-4.125529	герцог	-0.04343669
-4.125529	герцога	-0.04345385
-4.125529	герцогиня	-0.01053813
-4.125529	гессенский	7.005036e-05
-4.125529	гибкие	-0.04343669
-4.125529	гибких	-0.04345385
-3.941573	гигантских	-0.04342132
-3.941573	гигантской	-0.04340416
-4.125529	гидрата	-0.04345385
-4.125529	гийому	-0.04345385
-4.125529	гинденбург	-0.04343669
-4.125529	главе	-0.04336334
-4.125529	главным	-0.04343669
-4.125529	главными	-0.04345385
-4.125529	гладкие	-0.0397656
-4.125529	гладких	-0.04343669
-4.125529	гладко	-0.04345385
-3.66298	глаз	-0.03461244
-3.212424	глаза	-0.03777144
-3.820163	глазами	-0.06758589
-3.941573	глазах	-0.008980613
-3.941573	глазков	0.03664448
-4.125529	глазных	-0.04345385
-4.125529	глазом	-0.0423877
-4.125529	гленарван	-0.04345385
-4.125529	глинистая	-0.04343669
-4.125529	глины	7.005036e-05
-4.125529	глоткой	-0.04345385
-3.941573	глотку	-0.1674577
-4.125529	глубже	-0.04345385
-4.125529	глубине	-0.0415787
-3.941573	глубины	-0.01046795
-4.125529	глубокие	-0.04343669
-3.820163	глубоко	-0.04332693
-3.66298	глубь	0.0008958913
-3.941573	глуп	0.0001060031
-4.125529	глухо	-0.04345385
-4.125529	глюк	7.005036e-05
-3.820163	глядел	-0.2682014
-3.941573	глядели	-0.03796608
-4.125529	глядеть	-0.03561289
-4.125529	гляди	7.005036e-05
-4.125529	глядит	-0.03799902
-4.125529	глядь	-0.04112184
-4.125529	глядя	-0.03561289
-4.125529	глядят	-0.04345385
-4.125529	глянул	-0.03799902
-4.125529	гневно	7.005036e-05
-4.125529	гневному	-0.03499969
-4.125529	гниющей	-0.04343669
-4.125529	говит	7.005036e-05
-3.941573	говор	0.0001060031
-4.125529	говори	-0.04258875
-3.317672	говорил	-0.03823405
-3.941573	говорила	-0.0414878
-3.820163	говорили	-0.009503521
-3.456875	говорит	0.00383836
-3.261868	говорить	-0.0678729
-4.125529	говоришь	7.005036e-05
-3.941573	говорю	-0.01037448
-3.941573	говоря	-0.04263776
-3.820163	говорят	-0.04217426
-4.125529	год	-0.04345385
-4.125529	года	-0.01053813
-4.125529	годы	-0.01053813
-4.125529	голенищ	-0.04345385
-4.125529	голова	-0.0397656
-3.941573	голове	0.004185211
-3.66298	головой	-0.03905193
-4.125529	головою	-0.01053813
-3.66298	голову	0.03690599
-3.820163	головы	0.009498518
-4.125529	голоден	-0.01053813
-3.317672	голос	-0.08136196
-4.125529	голосами	-0.01053813
-4.125529	голубую	-0.04345385
-4.125529	голубые	-0.04342132
-4.125529	голубым	-0.04345385
-4.125529	голубя	-0.01053813
-4.125529	гонит	7.005036e-05
-4.125529	гонт-хауса	-0.04343669
-3.66298	гор	-0.1236092
-4.125529	гора	7.005036e-05
-3.941573	гораздо	-0.04249419
-4.125529	горела	-0.04343669
-4.125529	горелому	7.005036e-05
-4.125529	горечь	-0.04345385
-4.125529	горизонта	-0.01053813
-4.125529	горизонте	-0.04304793
-4.125529	горная	-0.04319133
-4.125529	горничная	7.005036e-05
-4.125529	горном	-0.04345385
-3.941573	горную	-0.210719
-3.317672	город	-0.06732245
-3.38172	города	-0.03579244
-4.125529	городам	-0.04342066
-4.125529	городах	-0.0431053
-3.941573	городе	-0.00600902
-4.125529	городок	7.005036e-05
-4.125529	городским	-0.04343669
-4.125529	городских	-0.04345385
-4.125529	городской	-0.04345385
-4.125529	городскому	-0.04345385
-4.125529	горой	-0.01053813
-3.941573	горошком	0.0001060031
-4.125529	горький	-0.04333467
-3.941573	горят	-0.04302689
-4.125529	горячая	-0.04327734
-4.125529	горячего	-0.04345385
-4.125529	горячек	-0.04345385
-4.125529	горячий	7.005036e-05
-4.125529	господа	-0.04345385
-4.125529	господами	-0.04345385
-3.168039	господин	-0.03814523
-3.941573	господина	-0.04340416
-4.125529	госпожи	-0.04342066
-4.125529	госте	-0.0397656
-4.125529	гостей	7.005036e-05
-4.125529	гостиница	-0.0427897
-4.125529	гостинице	-0.01053813
-3.547814	гостиницы	-0.1019222
-4.125529	гостиную	-0.04345385
-3.820163	гость	-0.001339603
-4.125529	гостю	-0.04345385
-4.125529	государей	7.005036e-05
-4.125529	государю	-0.04345385
-3.941573	готов	-0.04247
-4.125529	готовить	-0.043392
-4.125529	готовые	-0.04345385
-4.125529	готовый	-0.04149623
-4.125529	гравюрах	7.005036e-05
-4.125529	гравюру	7.005036e-05
-4.125529	градусов	-0.01053813
-4.125529	граждан	7.005036e-05
-4.125529	граждане	-0.04345385
-4.125529	гранаты	-0.01053813
-3.941573	граф	-0.04111341
-4.125529	графиня	-0.043392
-4.125529	гребень	-0.04345385
-4.125529	гремящую	-0.04319133
-4.125529	грессигмана	7.005036e-05
-4.125529	грехом	-0.04345385
-4.125529	греца	7.005036e-05
-4.125529	григорьевичу	-0.03499969
-4.125529	грозовой	-0.043392
-4.125529	грозой	-0.01053813
-4.125529	грома	7.005036e-05
-3.66298	громко	-0.08366831
-4.125529	громыхавшими	-0.04345385
-4.125529	гроссмейстера	-0.04345385
-4.125529	грохотом	-0.03499969
-4.125529	грубее	-0.04345385
-4.125529	груди	7.005036e-05
-3.66298	грудь	-0.08636536
-4.125529	грудями	-0.01043633
-4.125529	группе	-0.04345385
-4.125529	группы	-0.01053813
-4.125529	грустно	-0.01053813
-4.125529	груффельштрассе	-0.01053813
-4.125529	гряда	-0.04345385
-4.125529	гряды	-0.04345385
-4.125529	грязноватых	-0.04256003
-4.125529	грязной	-0.04345385
-4.125529	грязны	-0.03499969
-4.125529	грязные	7.005036e-05
-3.941573	грязь	0.03664448
-4.125529	грязью	-0.01053813
-4.125529	грёб	-0.0431053
-4.125529	губ	-0.04307662
-3.941573	губами	-0.001375448
-4.125529	губах	-0.01053813
-3.941573	губернатор	-0.04295347
-4.125529	губернатора	-0.04322
-4.125529	губернатором	-0.04322
-3.941573	губернаторский	-0.04312558
-4.125529	губернаторской	-0.04343669
-4.125529	губернатору	-0.04345385
-4.125529	губернаторше	-0.01053813
-4.125529	губернии	-0.04345385
-4.125529	губернию	-0.04345385
-4.125529	губернским	-0.04345385
-4.125529	губернских	-0.04345385
-4.125529	губернского	-0.04330601
-3.941573	губу	0.0001060031
-4.125529	гудящие	-0.04343669
-4.125529	гуляющую	-0.04327734
-3.261868	гусев	-0.1233959
-4.125529	гусеву	-0.04345385
-4.125529	густо	-0.04296187
-3.941573	густыми	-0.04340416
-4.125529	гуще	-0.04345385
-3.941573	гынь	-0.1147149
-3.941573	гэ	-0.1041054
-4.125529	гюго	7.005036e-05
-4.125529	д'артуа	-0.0431053
-3.66298	да	0.01006466
-4.125529	давали	-0.04316265
-4.125529	давешнюю	-0.04345385
-3.941573	давит	-0.04340416
-3.66298	давно	-0.03905193
-4.125529	дадим	-0.04324867
-2.895183	даже	-0.08201846
-4.125529	дай	-0.04322
-4.125529	дайте	-0.04247387
-4.125529	дак	7.005036e-05
-3.820163	дал	-0.04182468
-3.547814	далеко	0.04131763
-4.125529	дало	-0.042761
-3.820163	дальше	0.002311844
-3.941573	далёкий	-0.04334231
-3.820163	дам	-0.03382852
-3.941573	дама	-0.1780658
-4.125529	дамам	-0.0423877
-4.125529	дамочка	7.005036e-05
-4.125529	дамских	-0.04345385
-3.547814	дамы	0.03922714
-4.125529	данте	-0.04345385
-4.125529	дар	-0.04345385
-4.125529	дарохранительницы	-0.04345385
-3.941573	даст	-0.04306822
-4.125529	дать	-0.04345385
-3.941573	дают	-0.04125744
-3.941573	даёт	-0.04310143
-3.056958	два	-0.07357305
-4.125529	двадцатипфенниговые	7.005036e-05
-4.125529	двадцатого	7.005036e-05
-3.547814	двадцать	-0.08376899
-4.125529	дважды	-0.01053813
-3.820163	две	-0.04281064
-4.125529	двенадцати	-0.04304793
-4.125529	двенадцатый	-0.04342066
-3.66298	двенадцать	-0.1187183
-4.125529	дверей	-0.04345385
-3.941573	двери	-0.06758589
-4.125529	дверца	-0.03561289
-3.941573	дверцу	0.0002694428
-3.38172	дверь	0.0101141
-3.941573	дверью	-0.0355623
-4.125529	двести	-0.04345385
-4.125529	двигались	-0.04345385
-3.941573	двигатель	-0.01050305
-4.125529	движение	-0.03799902
-3.941573	движением	-0.04313011
-3.941573	движения	0.009461768
-4.125529	движениям	-0.04345385
-4.125529	движениями	-0.04345385
-4.125529	движущего	-0.04345385
-4.125529	двинуться	-0.04149623
-4.125529	двое	-0.04233024
-4.125529	двойку	-0.01053813
-4.125529	двойная	7.005036e-05
-4.125529	двор	0.0003962293
-4.125529	дворе	-0.04330601
-4.125529	дворца	-0.04345385
-4.125529	дворцовый	-0.04345385
-3.547814	двух	-0.01034342
-3.66298	де	-0.1028512
-4.125529	девицей	-0.04210033
-4.125529	девичьего	-0.04345385
-4.125529	девка	7.005036e-05
-3.820163	девочка	-0.01040122
-4.125529	девочки	7.005036e-05
-4.125529	девушка	7.005036e-05
-4.125529	девушки	7.005036e-05
-4.125529	девчата	7.005036e-05
-4.125529	девчонка	-0.01053813
-4.125529	девы	-0.04343669
-3.66298	действительно	0.001371246
-4.125529	действительности	-0.01053813
-3.941573	действовать	-0.004615314
-4.125529	действует	-0.01053813
-4.125529	действующих	-0.04343669
-4.125529	дека	7.005036e-05
-4.125529	дел	-0.03561289
-3.456875	дела	-0.002652533
-3.941573	делает	-0.04154537
-3.941573	делается	-0.01048454
-3.941573	делал	-0.006014079
-3.261868	делать	-0.08133012
-4.125529	делают	-0.04299056
-3.941573	делая	-0.2109815
-3.820163	деле	-0.002910532
-4.125529	делит	-0.04161136
-3.261868	дело	-0.08603211
-4.125529	деловой	-0.04343669
-3.941573	делом	0.0001743734
-4.125529	делу	-0.01053813
-4.125529	дельному	-0.01053813
-4.125529	демикотонном	-0.04343669
-4.125529	демократической	-0.04345385
-4.125529	демонстраций	-0.0428471
-4.125529	демонстрирует	-0.04345385
-3.941573	денег	-0.1780658
-3.168039	день	0.011033
-4.125529	деньгами	7.005036e-05
-4.125529	деньгах	-0.009476725
-3.66298	деньги	-0.1308832
-4.125529	депо	7.005036e-05
-4.125529	дергача	-0.01053813
-4.125529	дерев	7.005036e-05
-3.941573	дерева	-0.04013725
-4.125529	деревенские	-0.04345385
-4.125529	деревенька	-0.04322
-4.125529	деревне	-0.043392
-4.125529	деревни	7.005036e-05
-4.125529	деревню	-0.01050305
-3.820163	деревьев	0.03693037
-4.125529	деревья	-0.04112184
-4.125529	деревьям	7.005036e-05
-4.125529	деревянной	-0.04345385
-4.125529	державшая	-0.04345385
-3.820163	держал	0.0001976304
-4.125529	держала	-0.04345385
-4.125529	десерт	7.005036e-05
-4.125529	дескать	-0.04319133
-4.125529	десяти	-0.04342066
-4.125529	десятипфенниговые	-0.04345385
-4.125529	десятков	-0.04304793
-3.547814	десять	0.0006995164
-4.125529	детали	-0.01053813
-4.125529	детей	-0.04336334
-3.66298	дети	0.006255575
-4.125529	детишек	-0.03499969
-4.125529	детства	7.005036e-05
-4.125529	деятельность	-0.04343669
-4.125529	джейн	-0.04345385
-4.125529	джемса	-0.04342066
-4.125529	джорджа	-0.01053813
-4.125529	джузеппе	-0.04345385
-4.125529	диагонали	-0.01053813
-4.125529	диван	-0.04345385
-4.125529	диване	7.005036e-05
-4.125529	дикарки	-0.04345385
-4.125529	дикарь	7.005036e-05
-4.125529	дикарями	7.005036e-05
-4.125529	дикая	-0.04345385
-4.125529	дикого	-0.04345385
-4.125529	дистанционного	-0.04345385
-4.125529	длинна	-0.03561289
-4.125529	длинная	-0.04319133
-4.125529	длинном	-0.04345385
-3.941573	длинные	-0.04338814
-4.125529	длинный	-0.03499969
-4.125529	длинным	-0.04345385
-4.125529	длинными	-0.04345385
-2.777583	для	-0.07147036
-4.125529	дна	-0.04304793
-4.125529	дне	-0.043392
-3.820163	дней	0.0366836
-4.125529	днепр	-0.04345385
-3.820163	дни	0.0004639253
-3.820163	дня	0.01507079
-4.125529	дням	-0.04345385
-4.125529	днём	-0.01053813
-2.918297	до	-0.1322104
-4.125529	добавляет	-0.0431053
-4.125529	добавьте	-0.03561289
-4.125529	доббин	-0.04241643
-4.125529	добраться	-0.01053813
-4.125529	добро	-0.04327734
-4.125529	добровольцем	7.005036e-05
-4.125529	доброе	-0.04343669
-4.125529	доброхотов	-0.03561289
-4.125529	добряк	-0.03499969
-4.125529	доверяю	-0.04343669
-4.125529	доволен	7.005036e-05
-3.547814	довольно	-0.0430279
-4.125529	договорил	-0.04345385
-3.820163	доедет	-0.08563681
-4.125529	дождём	7.005036e-05
-4.125529	доказал	-0.04132348
-4.125529	доказательств	-0.03561289
-4.125529	доказательства	-0.04324867
-4.125529	доктор	-0.04343669
-4.125529	доктора	7.005036e-05
-4.125529	докучными	-0.04345385
-3.941573	долг	-0.01048454
-4.125529	долга	-0.01053813
-3.547814	долго	-0.04308837
-4.125529	долетал	-0.01053813
-3.547814	должен	-0.04112456
-3.941573	должна	-0.03641207
-3.941573	должно	-0.04183311
-4.125529	должности	7.005036e-05
-3.820163	должны	-0.1471023
-4.125529	долило	-0.04345385
-4.125529	долотами	-0.041784
-4.125529	долю	-0.04345385
-3.456875	дом	-0.009078134
-3.212424	дома	-0.1049849
-4.125529	домах	-0.01053813
-4.125529	домашнюю	-0.04345385
-4.125529	домашняя	7.005036e-05
-3.66298	доме	0.03687151
-4.125529	домик	7.005036e-05
-4.125529	домов	7.005036e-05
-3.820163	домой	0.01213383
-4.125529	домом	-0.04342066
-4.125529	дональд	-0.04345385
-4.125529	донесёт	7.005036e-05
-4.125529	доносились	-0.043392
-4.125529	донёсся	-0.04343669
-4.125529	дорога	-0.04333467
-3.66298	дороге	-0.001930594
-3.66298	дороги	-0.160111
-3.941573	дорогой	0.03664448
-4.125529	дорогу	-0.03799902
-4.125529	доскам	7.005036e-05
-4.125529	досками	7.005036e-05
-4.125529	досмерти	-0.01053813
-4.125529	доставила	-0.04161136
-4.125529	достали	-0.04161136
-3.941573	достаточно	-0.04237929
-4.125529	достичь	-0.04316265
-4.125529	достоин	-0.04304793
-4.125529	достоинство	-0.04345385
-4.125529	достоинством	7.005036e-05
-4.125529	достойны	-0.04330601
-4.125529	доступ	-0.04343669
-4.125529	досуге	-0.04343669
-4.125529	дохода	-0.03499969
-4.125529	доходившем	-0.04296187
-4.125529	дочери	-0.04345385
-4.125529	дочурка	7.005036e-05
-3.820163	дочь	-0.01046795
-4.125529	дремлет	-0.04345385
-4.125529	дришка	7.005036e-05
-3.941573	дрожали	-0.004615314
-4.125529	дрожь	-0.04345385
-3.66298	друг	-0.07189258
-3.66298	друга	-0.09177022
-3.820163	другая	-0.0432479
-4.125529	другие	-0.04345385
-3.941573	другим	-0.04340416
-4.125529	другими	-0.04345385
-4.125529	других	-0.04333467
-3.820163	другого	-0.1475612
-3.941573	другое	-0.0102817
-3.261868	другой	-0.06229441
-3.820163	другом	-0.0683506
-3.941573	другому	-0.01044944
-3.456875	другую	-0.01014387
-4.125529	дружбы	-0.04301925
-4.125529	дружине	-0.0428471
-4.125529	друзья	-0.01053813
-4.125529	дрёму	7.005036e-05
-4.125529	думаете	-0.01053813
-3.820163	думаешь	-0.006058238
-3.820163	думал	-0.004972849
-3.941573	думала	-0.01050305
-4.125529	думали	-0.04132348
-3.66298	думать	0.03803992
-3.38172	думаю	-0.06930816
-4.125529	думают	-0.04235897
-4.125529	думая	-0.04235897
-4.125529	дурной	-0.04345385
-3.941573	духа	0.03664448
-4.125529	духом	-0.04316265
-3.820163	душ	-0.2736562
-3.820163	душа	-0.0103703
-3.941573	душе	-0.009042662
-3.66298	души	-0.1236092
-4.125529	душно	-0.04345385
-4.125529	душу	-0.04345385
-4.125529	дыма	-0.03499969
-4.125529	дымящейся	-0.04343669
-4.125529	дыхания	-0.04345385
-4.125529	дышалось	-0.04342066
-4.125529	дышат	-0.04322
-4.125529	дыши	-0.03697363
-4.125529	дьявол	-0.04345385
-4.125529	дьякон	-0.03499969
-4.125529	дьяконица	7.005036e-05
-4.125529	дюма	-0.01053813
-4.125529	дюфи	-0.04164014
-4.125529	дюфэ	-0.01053813
-4.125529	дядей	7.005036e-05
-3.941573	дядю	-0.001375448
-3.547814	дядя	-0.02264271
-4.125529	дёргалась	-0.04215782
-4.125529	дёргался	7.005036e-05
-4.125529	дёрнул	-0.03799902
-4.125529	евгения	-0.04343669
-4.125529	еврейского	-0.04345385
-3.941573	европе	-0.009352751
-2.365717	его	0.04282515
-4.125529	едва	-0.04241643
-4.125529	единственное	-0.043392
-4.125529	единственные	-0.04343669
-4.125529	единственный	-0.04195657
-4.125529	еду	-0.0431053
-4.125529	еды	-0.04112184
-4.125529	едят	-0.04345385
-4.125529	ездить	-0.04293318
-4.125529	ездят	-0.04345385
-3.056958	ей	0.003858428
-2.685136	ему	-0.02232603
-3.056958	если	-0.08751906
-4.125529	естественно	-0.04264617
-4.125529	естественными	-0.04345385
-2.873236	есть	-0.03798497
-4.125529	ехал	-0.043392
-4.125529	ехать	7.005036e-05
-2.645378	ещё	-0.05915998
-4.125529	ею	-0.04345385
-2.479076	её	0.05650021
-3.547814	ж	0.01856145
-4.125529	жадно	-0.04343669
-4.125529	жажда	7.005036e-05
-4.125529	жаждал	7.005036e-05
-4.125529	жажду	-0.04345385
-4.125529	жал	-0.04258875
-4.125529	жалко	-0.04316265
-4.125529	жалованье	-0.04342066
-3.941573	жаль	-0.04129079
-4.125529	жандарма	-0.04345385
-3.941573	жареная	-0.04342132
-4.125529	жаркие	-0.04345385
-4.125529	жаркий	7.005036e-05
-4.125529	жарко	-0.01053813
-4.125529	жаркого	-0.04345385
-4.125529	жгуты	-0.04345385
-3.456875	ждал	0.004468527
-4.125529	ждановскую	-0.04345385
-3.66298	ждать	0.0005366392
-4.125529	жду	-0.04345385
-4.125529	ждущие	-0.04184153
-3.820163	ждёт	-0.04154602
-2.524553	же	0.03723339
-4.125529	жевал	-0.04345385
-3.941573	желал	-0.04177558
-4.125529	желание	-0.04184153
-4.125529	желании	-0.04345385
-4.125529	желаю	-0.0420102
-4.125529	желая	-0.04345385
-4.125529	железнодорожная	-0.04342066
-4.125529	железнодорожную	-0.04342066
-4.125529	железное	-0.01053813
-4.125529	железной	-0.04345385
-4.125529	железный	-0.04327734
-4.125529	железных	-0.04345385
-4.125529	железо	-0.01053813
-4.125529	желтоватые	-0.04345385
-3.820163	жена	-0.01041363
-4.125529	женатым	-0.04345385
-3.941573	женился	-0.02940335
-4.125529	женитьбы	-0.01053813
-4.125529	женой	-0.01053813
-4.125529	женский	-0.04327734
-4.125529	женских	7.005036e-05
-3.941573	женщин	0.0003645271
-3.66298	женщина	0.03681775
-4.125529	женщину	7.005036e-05
-3.941573	женщины	0.03664448
-3.820163	жены	-0.03467736
-4.125529	женяра	-0.04345385
-4.125529	жеребца	7.005036e-05
-4.125529	жертвенник	7.005036e-05
-4.125529	жертву	-0.04345385
-4.125529	жестокий	-0.04345385
-4.125529	жесты	7.005036e-05
-4.125529	жестяном	-0.04345385
-4.125529	жиакомо	7.005036e-05
-4.125529	жиан	-0.04345385
-4.125529	жив	-0.04112184
-4.125529	живое	7.005036e-05
-4.125529	живоносного	-0.04343669
-4.125529	живописный	-0.04327734
-4.125529	животворному	7.005036e-05
-4.125529	животные	-0.04343669
-3.820163	живу	-0.03919916
-4.125529	живут	7.005036e-05
-4.125529	живым	-0.03499969
-3.66298	живёт	0.006214887
-4.125529	жизненной	-0.04345385
-3.456875	жизни	-0.2465743
-3.261868	жизнь	0.003835756
-4.125529	жил	-0.04345385
-3.820163	жила	0.03862337
-3.941573	жили	-0.2031406
-3.941573	жилища	0.0001060031
-4.125529	жилой	-0.04343669
-4.125529	жимолости	7.005036e-05
-4.125529	жителей	-0.01053813
-4.125529	жительства	-0.01053813
-3.547814	жить	-0.06582958
-4.125529	жмурясь	-0.04215782
-4.125529	жмёт	-0.043392
-4.125529	жоффруа	-0.043392
-4.125529	жрать	-0.04210033
-4.125529	жрицы	-0.01053813
-4.125529	журавли	-0.01053813
-4.125529	журавлём	7.005036e-05
-4.125529	жутко	-0.04345385
-4.125529	жюри	7.005036e-05
-4.125529	жёлтая	-0.04345385
-4.125529	жёлтой	-0.04342066
-4.125529	жёлтою	-0.04345385
-4.125529	жёлтыми	-0.04345385
-4.125529	жёстких	-0.04342066
-4.125529	жёсткого	-0.04345385
-2.575354	за	-0.05848207
-3.941573	забавно	-0.01050305
-4.125529	забормотал	-0.04112184
-4.125529	заботились	-0.04132348
-4.125529	заботясь	-0.04235897
-4.125529	забранные	-0.04345385
-4.125529	заброшена	-0.01053813
-4.125529	заброшенном	-0.043392
-4.125529	забывая	-0.04132348
-3.547814	забыл	0.04365876
-4.125529	забыла	-0.04132348
-4.125529	забылись	7.005036e-05
-4.125529	забыт	-0.01053813
-4.125529	заваленном	-0.04343669
-4.125529	завела	-0.04345385
-4.125529	завести	-0.04342066
-4.125529	завидев	-0.04343669
-4.125529	завизжали	-0.04345385
-4.125529	зависть	-0.043392
-4.125529	заводе	-0.01053813
-3.820163	завтра	-0.009689406
-4.125529	завтрака	7.005036e-05
-4.125529	завтракал	-0.01053813
-4.125529	завтракать	7.005036e-05
-4.125529	завывает	-0.01053813
-4.125529	завывал	-0.01053813
-4.125529	завывающими	-0.04345385
-4.125529	завыли	7.005036e-05
-4.125529	завёрнутая	-0.03561289
-3.941573	загадочной	-0.2109815
-4.125529	загаженном	-0.04345385
-4.125529	загнал	-0.042761
-4.125529	загнувшись	7.005036e-05
-4.125529	заговорил	-0.04235897
-4.125529	загонял	-0.03561289
-4.125529	загорается	-0.04345385
-4.125529	заграждений	7.005036e-05
-4.125529	загримированный	-0.0428471
-4.125529	задавался	-0.04342066
-4.125529	задеть	-0.01053813
-4.125529	задние	-0.04270359
-4.125529	задувал	-0.04345385
-4.125529	зажги	-0.04333467
-4.125529	зажмурить	-0.04322
-3.941573	зажёг	-0.04321161
-4.125529	зазвякало	-0.04345385
-4.125529	зайдя	-0.04343669
-4.125529	займитесь	-0.04336334
-4.125529	займусь	-0.04345385
-4.125529	заказам	-0.04342066
-4.125529	заканчивалась	-0.01053813
-4.125529	заката	-0.03499969
-4.125529	закиданного	-0.04345385
-4.125529	закидывать	-0.04345385
-4.125529	закипевшую	-0.04342066
-4.125529	закипело	-0.03499969
-4.125529	заколоченные	-0.04345385
-4.125529	законного	-0.04345385
-4.125529	закончив	-0.04324867
-4.125529	закончится	-0.01053813
-4.125529	законы	-0.01053813
-4.125529	закопай	-0.0431053
-4.125529	закопчённый	-0.04345385
-4.125529	закричал	-0.04112184
-4.125529	закричали	7.005036e-05
-4.125529	закруглённые	-0.03499969
-4.125529	закрывающее	-0.04333467
-4.125529	закрытые	-0.04345385
-4.125529	закрытыми	-0.04342066
-4.125529	закурил	7.005036e-05
-4.125529	закутываться	-0.04290449
-4.125529	зал	-0.04336334
-4.125529	залами	7.005036e-05
-4.125529	зале	7.005036e-05
-4.125529	залито	-0.01046725
-4.125529	заложенной	-0.03561289
-4.125529	заложив	-0.04316265
-4.125529	залоснённые	-0.04343669
-3.820163	залу	0.03675798
-4.125529	залы	-0.04333467
-4.125529	замаслившимся	-0.04129468
-4.125529	замедленная	-0.04345385
-4.125529	заметали	-0.04343669
-3.820163	заметил	-0.1146208
-3.941573	заметила	0.001157738
-4.125529	заметили	-0.04342066
-4.125529	заметить	7.005036e-05
-4.125529	заметно	-0.04345385
-4.125529	заметною	-0.04345385
-4.125529	заметённую	-0.04345385
-4.125529	замечаемая	-0.04345385
-4.125529	замечает	-0.01053813
-4.125529	замечания	-0.04340416
-3.820163	замуж	0.0366836
-4.125529	замучили	-0.04296187
-4.125529	замыкают	-0.04319133
-4.125529	замышляет	-0.01053813
-4.125529	занавес	7.005036e-05
-4.125529	занесло	-0.01053813
-4.125529	занимали	-0.04345385
-4.125529	занимались	-0.04343669
-4.125529	занимают	-0.04345385
-4.125529	заняли	-0.04343669
-4.125529	заняло	-0.04017003
-4.125529	занятие	7.005036e-05
-4.125529	занятию	-0.04345385
-4.125529	запад	7.005036e-05
-4.125529	западни	7.005036e-05
-4.125529	западу	-0.03499969
-3.456875	запах	-0.006126355
-4.125529	запаха	-0.04342066
-4.125529	запахам	7.005036e-05
-4.125529	запели	-0.04345385
-4.125529	записку	-0.04330601
-4.125529	заплакав	7.005036e-05
-4.125529	заполнили	-0.04342066
-4.125529	запомнил	-0.01053813
-4.125529	запретную	-0.04345385
-4.125529	запрещено	-0.04210033
-4.125529	запрыгало	-0.01053813
-4.125529	запутались	-0.04345385
-4.125529	зарабатывать	-0.043392
-4.125529	зарабатываю	-0.01053813
-4.125529	заражённые	-0.0431053
-4.125529	заранее	-0.04322
-4.125529	зарезал	-0.04345385
-4.125529	заросли	7.005036e-05
-4.125529	заросль	-0.01053813
-3.941573	засвидетельствовать	-0.04331364
-4.125529	заселённых	-0.04345385
-4.125529	заскрёб	-0.04345385
-4.125529	заслуживши	-0.04345385
-3.941573	заснул	0.0004913434
-4.125529	заснуть	7.005036e-05
-4.125529	засохнуть	-0.04343669
-4.125529	засохшей	-0.04345385
-3.941573	заставил	-0.04342132
-4.125529	заставила	-0.04342066
-4.125529	заставить	-0.04290449
-4.125529	заставленною	-0.04345385
-4.125529	заставляет	-0.04316265
-4.125529	заставы	-0.03799902
-4.125529	заступиться	-0.04233024
-4.125529	застывшие	-0.04345385
-4.125529	застёгнутая	-0.04345385
-4.125529	засунул	-0.04233024
-4.125529	затейливые	-0.04345385
-3.820163	затем	-0.03946332
-4.125529	затерялось	-0.03561289
-4.125529	затея	-0.0397656
-4.125529	зато	-0.03561289
-4.125529	затрепетали	-0.041784
-4.125529	затрещит	-0.04270359
-4.125529	затыкая	-0.04343669
-4.125529	затылке	-0.01053813
-4.125529	заученным	-0.04343669
-4.125529	захватив	-0.04304793
-4.125529	захватил	-0.04345385
-4.125529	захотела	7.005036e-05
-4.125529	захохотала	-0.0423877
-3.820163	зачем	-0.03943061
-4.125529	зачёсанные	-0.04345385
-3.941573	зашагал	0.0004913434
-4.125529	зашумел	-0.04316265
-3.941573	заявил	-0.04108915
-4.125529	звезде	-0.04324867
-4.125529	звездою	-0.04215782
-4.125529	звезды-земли	-0.04345385
-4.125529	звенели	-0.04333467
-3.941573	зверь	0.0003645271
-4.125529	звон	-0.04345385
-4.125529	звонка	-0.03499969
-3.66298	звук	-0.07552518
-4.125529	звука	-0.01053813
-3.941573	звуке	0.0001060031
-3.941573	звуки	0.006140351
-4.125529	звучал	-0.04129468
-3.941573	звучит	0.006140351
-3.941573	звёзд	0.03664448
-4.125529	звёздной	-0.04345385
-4.125529	звёздном	-0.04342066
-4.125529	звёздную	-0.04345385
-4.125529	звёзды	7.005036e-05
-4.125529	здания	7.005036e-05
-2.918297	здесь	-0.03797028
-4.125529	зевает	-0.04293318
-4.125529	зевать	-0.03499969
-4.125529	зевая	-0.04215782
-4.125529	зевоты	-0.03799902
-4.125529	зеленоватая	7.005036e-05
-4.125529	зеленью	7.005036e-05
-4.125529	зелёного	-0.04345385
-4.125529	зелёное	-0.01053813
-3.941573	зелёные	-0.04342132
-3.941573	зелёный	-0.04340416
-4.125529	земзе	-0.01053813
-3.941573	земле	0.0003823936
-4.125529	земледелии	7.005036e-05
-4.125529	землемер	-0.01053813
-4.125529	землемеры	-0.04345385
-4.125529	землетрясение	-0.04345385
-3.127772	земли	-0.2118855
-4.125529	землистая	-0.04343669
-3.820163	землю	-0.0947686
-3.820163	земля	-0.01040122
-4.125529	земляную	-0.04342066
-4.125529	земная	-0.04343669
-4.125529	земное	-0.04345385
-4.125529	земнухова	7.005036e-05
-4.125529	земную	-0.04345385
-4.125529	зениту	7.005036e-05
-4.125529	зеркалами	-0.01053813
-4.125529	зеркало	7.005036e-05
-4.125529	зеркалом	-0.04345385
-4.125529	зеркальному	-0.04343669
-4.125529	зерно	-0.01053813
-4.125529	зигзагами	-0.04345385
-4.125529	зизи	-0.04345385
-4.125529	зимой	-0.03561289
-4.125529	зимы	-0.04345385
-4.125529	злая	-0.01053813
-4.125529	зло	-0.04210033
-4.125529	злоумышленников	-0.043392
-4.125529	злу	7.005036e-05
-4.125529	знаем	-0.04235897
-3.547814	знает	-0.09741039
-3.941573	знаете	-0.2088512
-4.125529	знаешь	-0.04129468
-4.125529	знакомого	-0.03799902
-4.125529	знакомы	-0.043392
-4.125529	знакомые	-0.04333467
-4.125529	знакомый	-0.043392
-4.125529	знакомьтесь	7.005036e-05
-3.66298	знал	-0.02669087
-4.125529	знали	-0.008173227
-4.125529	знаменитая	-0.04345385
-4.125529	знаменитыми	-0.04195657
-4.125529	знание	-0.01053813
-4.125529	знатной	-0.04345385
-3.547814	знать	0.002212159
-3.820163	значит	0.0003286824
-4.125529	значительного	-0.04345385
-4.125529	значительных	-0.04345385
-3.456875	знаю	-0.07381645
-3.941573	знают	-0.01025076
-4.125529	зное	-0.04345385
-4.125529	зовут	-0.01053813
-3.941573	зовёт	-0.04146356
-4.125529	золота	-0.03499969
-4.125529	золотистой	-0.04345385
-4.125529	золотистым	-0.04345385
-4.125529	золотит	-0.04345385
-4.125529	золото	-0.01053813
-4.125529	золотого	-0.04345385
-3.941573	золотой	-0.04338814
-3.820163	золотом	-0.04329826
-4.125529	золотую	-0.04345385
-4.125529	золотых	-0.04345385
-4.125529	зонтики	-0.04017003
-4.125529	зрачках	-0.04345385
-4.125529	зрелища	7.005036e-05
-4.125529	зубами	-0.04184153
-4.125529	зубах	-0.04161136
-4.125529	зубчатым	-0.04345385
-3.820163	зубы	0.03689588
-4.125529	зыбкие	-0.04345385
-3.820163	зыбь	0.0002470426
-4.125529	зыбью	7.005036e-05
-3.941573	зюйд	-0.04340416
-4.125529	зятю	-0.04345385
-4.125529	зёрна	-0.04345385
-1.713283	и	0.05099712
-3.547814	ибо	-0.04290474
-3.941573	иванович	0.0002060607
-3.820163	игра	-0.01046795
-4.125529	играет	-0.03561289
-4.125529	играл	-0.01053813
-4.125529	играющие	-0.03799902
-4.125529	игрой	-0.043392
-4.125529	игру	-0.04164014
-3.941573	игры	-0.01050305
-4.125529	идейной	-0.04345385
-4.125529	идите	-0.01053813
-3.456875	идти	-0.001008637
-4.125529	иду	-0.03561289
-3.66298	идёт	-0.04093972
-2.453914	из	-0.07157947
-3.168039	из-за	-0.06337117
-3.66298	из-под	-0.04131492
-4.125529	избегал	-0.04324867
-4.125529	избегали	-0.043392
-4.125529	избрать	-0.04316265
-3.941573	известно	0.003491592
-3.941573	известного	-0.1147149
-3.941573	известную	-0.04330214
-4.125529	извилистой	-0.04343669
-4.125529	извнутри	-0.04345385
-4.125529	изволили	-0.04342066
-4.125529	извращений	7.005036e-05
-4.125529	издал	-0.04345385
-3.941573	издалека	0.0001060031
-3.820163	издали	-0.009932235
-4.125529	издательств	-0.01053813
-4.125529	излучины	7.005036e-05
-4.125529	изменьщица	-0.01053813
-4.125529	измеряется	-0.04342066
-4.125529	изнеможении	7.005036e-05
-4.125529	изнывали	-0.04215782
-4.125529	изо	-0.04322
-4.125529	изображавший	-0.03561289
-4.125529	изображена	-0.0427897
-4.125529	изображение	-0.04342066
-4.125529	изредка	-0.04343669
-4.125529	изъеденное	-0.04345385
-4.125529	изыскание	-0.04345385
-4.125529	изящными	-0.04345385
-2.744532	или	-0.04461518
-4.125529	иль-де-франс	7.005036e-05
-3.056958	им	-0.03758377
-4.125529	имевший	-0.04322
-4.125529	имеем	-0.04345385
-4.125529	имеет	-0.04342066
-3.547814	имел	-0.0968295
-3.941573	имела	-0.04307275
-3.941573	имели	-0.04166049
-4.125529	имело	-0.04333467
-3.941573	именем	0.0002694428
-4.125529	имения	-0.04290449
-3.317672	именно	-0.03133404
-3.941573	иметь	-0.1780658
-4.125529	имею	-0.03561289
-4.125529	имеющего	-0.04343669
-4.125529	имеющие	-0.04333467
-3.820163	ими	-0.1460392
-3.547814	имя	-0.01254284
-4.125529	иначе	-0.01053813
-4.125529	индейку	-0.03499969
-4.125529	инженер	7.005036e-05
-4.125529	инженера	-0.04345385
-3.38172	иногда	-0.07698536
-4.125529	иного	-0.04343669
-3.941573	иной	-0.04303953
-4.125529	иностранных	-0.04345385
-4.125529	инспектору	-0.04345385
-4.125529	инстинктивно	-0.0397656
-4.125529	инструментов	7.005036e-05
-4.125529	интерес	-0.04301925
-4.125529	интересно	-0.01053813
-3.941573	интересует	-0.1780658
-4.125529	интересуют	-0.01053813
-3.941573	интересующийся	-0.04333081
-4.125529	интриганом	7.005036e-05
-4.125529	информации	7.005036e-05
-3.66298	иные	-0.04177545
-4.125529	иных	-0.04290449
-4.125529	иоанна	-0.03499969
-4.125529	иоганн	-0.04345385
-4.125529	иоганны	-0.01053813
-4.125529	ионвиле	-0.04343669
-3.941573	ионвиля	-0.04013725
-3.941573	ипполит	-0.2072933
-4.125529	иска	-0.04316265
-4.125529	искал	-0.04342066
-4.125529	искателем	-0.04343669
-4.125529	исключением	-0.04345385
-4.125529	исключительно	-0.04345385
-4.125529	искоркой	-0.01053813
-4.125529	искра	7.005036e-05
-4.125529	искренним	-0.01053813
-4.125529	искрой	-0.04327734
-3.820163	искусно	-0.04197302
-4.125529	искусств	-0.04345385
-4.125529	испански	-0.04345385
-4.125529	испещрённые	-0.04345385
-4.125529	испивать	-0.0431053
-4.125529	исполинского	-0.04345385
-4.125529	исполнить	-0.04301925
-4.125529	использовали	-0.042761
-4.125529	использования	-0.03561289
-4.125529	использует	-0.04204283
-4.125529	используется	-0.03561289
-4.125529	испугался	-0.04129468
-4.125529	испугать	-0.04316265
-4.125529	испытал	-0.04324867
-4.125529	испытаю	7.005036e-05
-4.125529	иссечённым	-0.04345385
-4.125529	истина	-0.04345385
-4.125529	истлевшего	-0.04345385
-3.941573	истории	-0.01040541
-4.125529	исторических	-0.04345385
-4.125529	история	-0.043392
-4.125529	источники	7.005036e-05
-4.125529	истошные	-0.04343669
-4.125529	истребить	-0.01053813
-4.125529	истрёпанном	-0.04345385
-4.125529	истёртым	-0.04345385
-4.125529	истёртых	-0.04345385
-4.125529	исцеляли	-0.04342066
-4.125529	исчез	-0.01053813
-4.125529	исчезает	-0.03561289
-4.125529	исчезли	-0.04256003
-4.125529	итак	7.005036e-05
-4.125529	италии	-0.041784
-2.671475	их	0.06078651
-3.820163	ихи	0.0001419708
-3.941573	ищет	-0.01050305
-4.125529	июльского	-0.04345385
-4.125529	иё	-0.04345385
-4.125529	йода	7.005036e-05
-3.941573	йозеф	-0.04338814
-2.339895	к	-0.1245674
-4.125529	кабака	-0.04342066
-4.125529	кабана	7.005036e-05
-4.125529	кабанья	-0.04327734
-4.125529	каббале	-0.04345385
-4.125529	кабинета	-0.04345385
-4.125529	кабинете	0.0008402802
-4.125529	кабриолет	-0.04345385
-4.125529	кабы	-0.04330601
-4.125529	кавалеристов	7.005036e-05
-3.941573	каждого	0.03664448
-4.125529	каждому	-0.01053813
-3.547814	каждый	-0.1007643
-3.941573	кажется	-0.06758589
-4.125529	казакова	-0.043392
-4.125529	казалась	-0.04345385
-3.941573	казались	-0.04342132
-3.261868	казалось	-0.01148631
-4.125529	казань	-0.03926552
-4.125529	казобон	7.005036e-05
-4.125529	казёнными	-0.04345385
-4.125529	кай-куму	-0.043392
-2.2981	как	-0.01643123
-3.317672	как-то	-0.04049012
-3.941573	какая	-0.04299856
-3.66298	какие	-0.0419607
-3.66298	какие-то	-0.04321988
-3.941573	каким	-0.0410719
-4.125529	каким-то	-0.04345385
-4.125529	какими	-0.04273229
-4.125529	какими-то	-0.04343669
-3.941573	каких	-0.04301538
-4.125529	каких-либо	-0.04345385
-4.125529	каких-нибудь	-0.04345385
-4.125529	какого	-0.04293318
-4.125529	какого-нибудь	-0.04345385
-3.547814	какое	-0.1453718
-3.820163	какой	-0.1415902
-3.820163	какой-нибудь	0.00016094
-3.456875	какой-то	-0.04293796
-4.125529	каком	-0.04345385
-4.125529	каком-нибудь	-0.04342066
-3.820163	какую	-0.04212131
-4.125529	какую-нибудь	-0.04345385
-4.125529	какую-то	-0.04345385
-4.125529	каменным	-0.04345385
-4.125529	каменными	-0.04342066
-4.125529	каменных	-0.04342132
-4.125529	камере	7.005036e-05
-4.125529	камина	-0.04342066
-4.125529	камню	7.005036e-05
-4.125529	камю	7.005036e-05
-4.125529	канал	-0.01053813
-3.941573	каналы	0.0001743734
-4.125529	канивэ	-0.01053813
-4.125529	канифасовых	-0.04345385
-4.125529	каноэ	7.005036e-05
-4.125529	капала	-0.03799902
-4.125529	капли	-0.04345385
-4.125529	капустой	-0.04345385
-4.125529	капусты	7.005036e-05
-4.125529	капюшона	-0.01053813
-4.125529	капюшоном	-0.04345385
-4.125529	карательных	-0.04345385
-4.125529	карельской	-0.04345385
-4.125529	каретного	-0.04342066
-4.125529	карлейл	-0.03499969
-4.125529	карман	-0.04342066
-4.125529	кармана	-0.04345385
-4.125529	кармане	-0.01053813
-4.125529	карманов	7.005036e-05
-4.125529	карт	-0.01053813
-4.125529	картинах	-0.04343669
-4.125529	картине	-0.04345385
-4.125529	картины	-0.04299056
-4.125529	картофель	-0.04017003
-4.125529	картошка	-0.04345385
-4.125529	картошку	7.005036e-05
-4.125529	карту	-0.03799902
-3.941573	картуз	-0.03490347
-4.125529	карты	-0.01053813
-4.125529	карьеру	-0.03799902
-4.125529	касается	-0.04345385
-4.125529	кастеляншей	-0.04184153
-4.125529	кастро	7.005036e-05
-4.125529	катались	-0.03561289
-4.125529	катаров	-0.04149623
-4.125529	категории	-0.04342132
-4.125529	катей	7.005036e-05
-4.125529	кати	7.005036e-05
-4.125529	катить	-0.04343669
-4.125529	католического	-0.04342066
-4.125529	катюшиной	-0.043392
-4.125529	катя	-0.01053813
-4.125529	кафе	-0.04296187
-4.125529	кафедральный	-0.04345385
-4.125529	кафель	7.005036e-05
-4.125529	качнулась	-0.04250259
-4.125529	квадратные	7.005036e-05
-4.125529	квадратный	-0.04345385
-4.125529	квадратов	7.005036e-05
-4.125529	кварталы	7.005036e-05
-3.941573	квартире	-0.04099815
-3.941573	квартиру	0.009461768
-4.125529	кварту	-0.04345385
-3.941573	кверху	-0.1674577
-3.820163	кем	-0.0328989
-4.125529	керосинщик	-0.04250259
-4.125529	кессиди	7.005036e-05
-4.125529	кивнул	-0.04299056
-4.125529	киврин	-0.04343669
-4.125529	кидались	-0.03561289
-4.125529	киевом	7.005036e-05
-3.941573	кий	0.006140351
-3.941573	километров	0.03664448
-4.125529	кильб	7.005036e-05
-4.125529	кимоно	-0.0431053
-4.125529	кинги	-0.04343669
-4.125529	кинжал	7.005036e-05
-4.125529	киноаппаратик	7.005036e-05
-4.125529	кинул	-0.04336334
-4.125529	кинулась	-0.04149623
-4.125529	кинуло	-0.01053813
-4.125529	кинулся	-0.04149623
-4.125529	кипсека	-0.01053813
-4.125529	кипы	-0.04345385
-4.125529	кирпич	-0.03499969
-4.125529	кирпичиках	-0.01053813
-4.125529	кирпично-красный	-0.04345385
-4.125529	кирпичной	-0.04345385
-4.125529	кирпичный	-0.04342066
-4.125529	кирпичных	7.005036e-05
-4.125529	кислородные	-0.04345385
-4.125529	китайцы	-0.03561289
-4.125529	клавдии	-0.04345385
-4.125529	кладу	-0.03799902
-4.125529	кладёт	-0.03799902
-4.125529	клары	-0.01053813
-4.125529	класса	-0.01053813
-4.125529	классы	-0.01053813
-3.941573	клевать	0.0005547665
-4.125529	клеёнкам	-0.04345385
-4.125529	клоуна	7.005036e-05
-4.125529	клубки	-0.01053813
-4.125529	клубов	-0.04345385
-4.125529	клубы	-0.04343669
-4.125529	ключница	-0.04345385
-4.125529	клёпкой	7.005036e-05
-4.125529	книгами	7.005036e-05
-4.125529	книгах	-0.01053813
-3.941573	книге	0.0001426898
-3.941573	книги	-0.01048454
-4.125529	книжечками	-0.01053813
-4.125529	книжку	-0.04017003
-4.125529	книжные	-0.04345385
-4.125529	кнопку	-0.04345385
-4.125529	княжеской	-0.04345385
-4.125529	князя	7.005036e-05
-3.456875	ко	-0.3787862
-4.125529	кобуру	7.005036e-05
-4.125529	кобыла	7.005036e-05
-4.125529	ковбой	-0.04345385
-3.025458	когда	-0.05181252
-3.941573	когда-нибудь	-0.04331364
-3.66298	когда-то	-0.1180867
-3.941573	кого	-0.04206316
-4.125529	кое	-0.04301925
-4.125529	кое-где	-0.04345385
-4.125529	кое-какие	-0.04345385
-3.941573	кожа	-0.03796608
-4.125529	кожаная	-0.04345385
-4.125529	кожаного	7.005036e-05
-3.820163	кожи	0.03734437
-4.125529	козлы	-0.03499969
-4.125529	козырёк	7.005036e-05
-4.125529	козьим	-0.04345385
-4.125529	кокетство	-0.04324867
-4.125529	кокотка	-0.01053813
-4.125529	кокотки	7.005036e-05
-4.125529	колебания	7.005036e-05
-4.125529	колебаниям	7.005036e-05
-3.941573	колени	-0.04287192
-4.125529	коленях	-0.01053813
-3.941573	колесо	-0.01012701
-4.125529	колец	-0.04345385
-4.125529	коллежский	-0.04345385
-4.125529	коллектива	7.005036e-05
-4.125529	колодезь	-0.04345385
-4.125529	колодки	-0.03499969
-4.125529	колодцах	-0.04210033
-4.125529	колокольне	7.005036e-05
-4.125529	колонизации	-0.04345385
-4.125529	колоний	-0.03561289
-4.125529	колонн	-0.04345385
-4.125529	колонну	-0.01053813
-4.125529	колпачком	7.005036e-05
-4.125529	колышется	-0.04204283
-4.125529	колючую	-0.04342066
-4.125529	коляска	-0.04017003
-4.125529	коляша	-0.04333467
-4.125529	ком	-0.043392
-4.125529	командой	-0.04343669
-4.125529	кометы	-0.04345385
-4.125529	комнате	7.005036e-05
-3.66298	комнату	0.004358843
-3.941573	комнаты	-0.01012701
-4.125529	комодом	-0.01053813
-4.125529	комплимент	-0.04324867
-4.125529	комсомолок	7.005036e-05
-4.125529	комсомольцев	7.005036e-05
-3.820163	кому	-0.04172569
-4.125529	конвертов	7.005036e-05
-4.125529	кондитера	7.005036e-05
-4.125529	кондратович	-0.04343669
-3.941573	конец	-0.04340416
-3.38172	конечно	0.009299979
-4.125529	константин	7.005036e-05
-4.125529	конституционно	-0.04345385
-4.125529	контура	-0.04343669
-3.941573	конурке	-0.04096932
-4.125529	конусе	-0.01053813
-4.125529	конца	-0.01046795
-3.941573	конце	-0.04297052
-4.125529	концерту	-0.04345385
-4.125529	концлагерь	7.005036e-05
-4.125529	концов	7.005036e-05
-4.125529	концом	-0.04345385
-4.125529	концу	-0.04343669
-4.125529	концы	-0.04345385
-4.125529	кончается	-0.04345385
-4.125529	кончились	-0.04345385
-3.941573	кончился	-0.01050305
-4.125529	кончится	-0.01053813
-4.125529	коньяку	-0.04345385
-4.125529	конюшню	-0.04345385
-4.125529	копчёная	-0.04343669
-4.125529	корабли	7.005036e-05
-4.125529	корабль	-0.04343669
-4.125529	корабля	-0.04345385
-4.125529	кордильер	-0.04322
-4.125529	корзинку	-0.04017003
-4.125529	коридора	-0.04112184
-4.125529	коридоров	-0.01053813
-4.125529	коридоры	7.005036e-05
-4.125529	коричневой	-0.04343669
-4.125529	коричневую	-0.04345385
-4.125529	коричневых	-0.04345385
-4.125529	коробке	7.005036e-05
-4.125529	королевы	-0.01053813
-4.125529	король	-0.04333467
-4.125529	королём	-0.03561289
-4.125529	корону	7.005036e-05
-4.125529	коротких	-0.01053813
-4.125529	короткую	7.005036e-05
-4.125529	корреспондент	7.005036e-05
-4.125529	корсо	7.005036e-05
-4.125529	корточках	-0.04343669
-4.125529	кору	7.005036e-05
-4.125529	корчагин	-0.04342066
-4.125529	косвенных	-0.04345385
-4.125529	косились	-0.03499969
-4.125529	космос	-0.01053813
-4.125529	коснулись	7.005036e-05
-3.941573	костей	-0.001375448
-4.125529	костлявое	7.005036e-05
-4.125529	кострище	-0.04304793
-4.125529	костёр	-0.04195657
-3.941573	косынку	-0.04312558
-4.125529	косынок	-0.01053813
-3.941573	которая	-0.03490018
-3.38172	которого	-0.0417087
-3.66298	которое	-0.03828412
-3.66298	которой	-0.03885163
-4.125529	котором	-0.04343669
-4.125529	которому	-0.04345385
-3.547814	которую	-0.03307174
-3.261868	которые	-0.04019878
-3.212424	который	-0.03460233
-4.125529	которым	-0.04241643
-3.941573	которыми	-0.04342132
-3.820163	которых	-0.03737988
-4.125529	кофею	-0.03499969
-4.125529	кочевников	7.005036e-05
-4.125529	кошской	-0.04345385
-3.941573	край	-0.04307275
-4.125529	крайней	-0.04345385
-4.125529	крапивы	7.005036e-05
-3.941573	красавец	-0.04298669
-4.125529	красивая	-0.04345385
-4.125529	красивой	-0.04345385
-4.125529	красивые	-0.04342066
-4.125529	красивым	-0.04343669
-4.125529	красильщикова	7.005036e-05
-4.125529	краска	-0.03799902
-4.125529	красками	-0.04336334
-3.941573	краской	-0.01050305
-4.125529	краскою	-0.04342066
-4.125529	краснея	-0.04307662
-4.125529	краснобайство	-0.04017003
-4.125529	красноватой	-0.04345385
-4.125529	красноватый	-0.04343669
-4.125529	красного	-0.04343669
-4.125529	красной	-0.04343669
-4.125529	красным	-0.04129468
-4.125529	красоты	7.005036e-05
-4.125529	краю	-0.01053813
-4.125529	края	-0.0397656
-4.125529	кредитку	7.005036e-05
-4.125529	кредиторов	-0.01053813
-4.125529	крепкие	-0.04250259
-4.125529	крепкий	-0.04345385
-3.941573	крепко	-0.01048454
-3.941573	крепости	-0.01043633
-4.125529	крестом	-0.01053813
-4.125529	крестьян	-0.03263853
-4.125529	крестьяне	7.005036e-05
-4.125529	крестьянская	-0.04345385
-3.941573	крики	-0.04340416
-4.125529	крикнул	-0.04258875
-4.125529	крикнуть	-0.04324867
-4.125529	кристобаль	-0.04345385
-4.125529	кричало	7.005036e-05
-4.125529	кричать	7.005036e-05
-3.941573	кричит	0.03664448
-4.125529	кровавыми	-0.04345385
-3.820163	кровати	-0.06758589
-4.125529	кровать	-0.04345385
-3.941573	крови	0.0003962293
-3.317672	кровь	-0.1070298
-4.125529	кролю	-0.01053813
-3.547814	кроме	-0.04273528
-4.125529	кроткий	-0.04345385
-4.125529	кругам	-0.03561289
-4.125529	круги	7.005036e-05
-4.125529	круглая	-0.04345385
-4.125529	круглое	-0.04345385
-3.820163	круглой	-0.04338878
-4.125529	круглые	-0.01053813
-4.125529	кругов	7.005036e-05
-3.820163	кругом	-0.04200177
-4.125529	кругу	7.005036e-05
-4.125529	крупнейших	-0.04345385
-4.125529	крупными	-0.04343669
-4.125529	крутой	-0.04327734
-4.125529	крылышками	-0.04270359
-4.125529	крыльев	7.005036e-05
-3.941573	крылья	0.0003962293
-4.125529	крынок	-0.04343669
-4.125529	крыши	-0.04345385
-4.125529	кстати	-0.03561289
-2.968581	кто	-0.0350499
-3.941573	кто-то	0.0001249723
-4.125529	куб	-0.04345385
-4.125529	куба	7.005036e-05
-4.125529	кувшинки	7.005036e-05
-4.125529	кувшинов	-0.04345385
-3.456875	куда	-0.03971152
-4.125529	куда-нибудь	-0.03561289
-4.125529	куда-то	-0.03561289
-4.125529	кузницы	7.005036e-05
-4.125529	кузова	-0.01053813
-4.125529	кукурузные	-0.04345385
-4.125529	купе	7.005036e-05
-4.125529	купеческими	-0.04336334
-4.125529	купила	-0.04290449
-4.125529	купленный	-0.03799902
-4.125529	купола	-0.01053813
-4.125529	куполу	7.005036e-05
-4.125529	купца	-0.04345385
-4.125529	купцы	-0.041784
-4.125529	купюру	-0.042761
-4.125529	курил	-0.04345385
-4.125529	куриной	-0.04345385
-4.125529	курица	-0.01053813
-4.125529	курфюрста	7.005036e-05
-4.125529	куры-то	-0.03499969
-4.125529	курьеров	-0.01053813
-4.125529	курьерских	-0.04256003
-4.125529	куски	-0.0431053
-4.125529	кусочки	7.005036e-05
-4.125529	кустарно	-0.04184153
-4.125529	кустов	7.005036e-05
-4.125529	кухарку	-0.04345385
-3.941573	кухню	-0.1780658
-4.125529	кухонной	-0.04345385
-4.125529	куча	-0.04345385
-3.941573	кучами	-0.04292931
-3.820163	куче	-0.04337163
-3.941573	кучер	-0.2109815
-4.125529	кучки	7.005036e-05
-4.125529	кущ	-0.04304793
-4.125529	кущи	-0.04342066
-4.125529	кьеркегора	7.005036e-05
-4.125529	кюре	-0.04345385
-4.125529	л'аббеи	7.005036e-05
-4.125529	ла	-0.04345385
-4.125529	лавочек	-0.04270359
-4.125529	лавочки	-0.04017003
-4.125529	лавочнику	-0.04345385
-4.125529	лагере	-0.043392
-4.125529	ладана	7.005036e-05
-4.125529	ладно	-0.04343669
-3.941573	лакей	-0.2109815
-4.125529	лакейским	-0.04345385
-3.941573	лакомые	-0.04340416
-4.125529	лаконически	-0.01053813
-4.125529	ламп	-0.03499969
-4.125529	лампочка	7.005036e-05
-4.125529	ландграф	-0.04345385
-4.125529	ландшафт	-0.01053813
-4.125529	лапами	7.005036e-05
-4.125529	лапки	-0.04343669
-4.125529	лапчатой	-0.04345385
-4.125529	ларей	-0.03499969
-4.125529	ларчик	-0.04345385
-4.125529	ласковая	-0.03499969
-4.125529	левой	-0.04342066
-4.125529	левым	-0.04345385
-3.820163	легко	-0.1041244
-4.125529	легла	-0.03561289
-4.125529	легонько	-0.043392
-3.820163	легче	-0.113273
-4.125529	лед	-0.01053813
-3.941573	леди	-0.04342132
-4.125529	ледяную	-0.04343669
-4.125529	ледяным	-0.04345385
-4.125529	ледяными	-0.04345385
-4.125529	лежавший	-0.03799902
-4.125529	лежал	-0.04112184
-4.125529	лежали	-0.03799902
-4.125529	лежащей	-0.03561289
-4.125529	лежит	-0.04345385
-4.125529	лейтенант	-0.04342066
-4.125529	ленивые	7.005036e-05
-4.125529	леон	-0.04342066
-4.125529	леоноре	-0.04164014
-4.125529	лепетал	-0.04342066
-4.125529	лепёшки	7.005036e-05
-4.125529	лере	-0.04241643
-4.125529	лесенку	-0.04345385
-4.125529	лесных	-0.04345385
-3.941573	лесов	-0.1674577
-4.125529	лестница	-0.04343669
-3.941573	лестнице	-0.1674577
-4.125529	лестницы	-0.04345385
-4.125529	лестное	-0.04343669
-2.996089	лет	-0.05571885
-4.125529	лета	-0.04307662
-3.941573	летел	-0.0300245
-4.125529	летела	7.005036e-05
-4.125529	лететь	-0.04195657
-4.125529	летит	-0.04343669
-4.125529	лето	7.005036e-05
-4.125529	летом	-0.03499969
-4.125529	летящие	-0.04345385
-4.125529	летящих	-0.04343669
-4.125529	лжёт	-0.01053813
-2.795102	ли	-0.05606463
-4.125529	ливен	7.005036e-05
-4.125529	ливень	-0.04017003
-4.125529	ливреях	7.005036e-05
-4.125529	лидеров	7.005036e-05
-4.125529	лижет	-0.04204283
-4.125529	лик	-0.04345385
-4.125529	лиловую	-0.01053813
-4.125529	линдауэр-хютте	7.005036e-05
-4.125529	линии	-0.01053813
-3.941573	линий	-0.1674577
-4.125529	линию	-0.04204283
-4.125529	листе	7.005036e-05
-4.125529	листы	-0.04204283
-4.125529	лития	-0.03499969
-4.125529	литургией	-0.04250259
-4.125529	лихих	-0.04345385
-4.125529	лихорадки	-0.01053813
-4.125529	лихорадок	-0.04345385
-3.941573	лиц	0.001284786
-3.456875	лица	0.03916933
-3.941573	лице	-0.04329761
-3.261868	лицо	-0.05288468
-3.820163	лицом	0.00132085
-4.125529	лицу	-0.01053813
-4.125529	личный	-0.04345385
-4.125529	лишком	-0.0431053
-3.127772	лишь	-0.03951706
-4.125529	лишён	-0.04345385
-3.66298	лоб	-0.07559356
-4.125529	лобзиками	-0.041784
-4.125529	ловким	7.005036e-05
-4.125529	ловко	-0.04345385
-4.125529	лодка	7.005036e-05
-3.941573	лодки	0.03664448
-4.125529	лодку	-0.04164014
-4.125529	лодок	-0.03499969
-4.125529	ложась	-0.04342066
-4.125529	ложечкой	-0.04017003
-4.125529	ложиться	-0.04342066
-4.125529	ложь	-0.04017003
-4.125529	локонами	-0.04345385
-4.125529	ломались	-0.04322
-4.125529	ломбард	-0.04184153
-4.125529	лопаты	7.005036e-05
-4.125529	лоскутке	-0.04345385
-4.125529	лоснится	-0.04215782
-4.125529	лоснящейся	-0.04345385
-3.261868	лось	0.03417008
-4.125529	лося	7.005036e-05
-4.125529	лохмотья	-0.04345385
-3.941573	лошадей	0.0007133633
-4.125529	лошади	-0.01053813
-3.820163	лошадь	0.0009130612
-4.125529	лошадьми	7.005036e-05
-4.125529	лувру	-0.01053813
-4.125529	лугах	-0.04343669
-4.125529	луковой	-0.04345385
-4.125529	лупить	-0.04345385
-3.941573	луч	-0.04340416
-4.125529	лучами	-0.01053813
-3.941573	лучи	-0.01050305
-4.125529	лучик	-0.04215782
-3.212424	лучше	-0.05384899
-4.125529	лысые	-0.04342066
-4.125529	льды	-0.01053813
-3.66298	любви	-0.03905193
-4.125529	любезного	-0.04330601
-4.125529	любезной	-0.04017003
-4.125529	любезность	-0.04336334
-4.125529	любезны	7.005036e-05
-4.125529	любила	-0.04264617
-4.125529	любимую	7.005036e-05
-3.941573	любит	-0.01037448
-4.125529	любите	7.005036e-05
-4.125529	любителями	-0.04345385
-4.125529	любить	-0.04336334
-3.941573	любишь	-0.009631641
-3.66298	люблю	-0.1705972
-4.125529	любовника	7.005036e-05
-4.125529	любовной	-0.04343669
-3.261868	любовь	-0.1046695
-4.125529	любовью	-0.03499969
-4.125529	любого	-0.04345385
-4.125529	любознательность	-0.04301925
-4.125529	любопытно	-0.04233024
-4.125529	любопытный	-0.04343669
-4.125529	любопытство	-0.01053813
-4.125529	любу	-0.04345385
-4.125529	любую	-0.04336334
-3.941573	любят	-0.03764214
-3.456875	людей	-0.06724019
-3.941573	люди	-0.006522734
-4.125529	людьми	-0.01053813
-3.941573	людям	0.0001060031
-4.125529	люк	7.005036e-05
-4.125529	люка	-0.01053813
-3.941573	люстра	-0.210633
-4.125529	лёг	-0.03799902
-4.125529	лёгкая	-0.04129468
-3.66298	лёгким	-0.08618496
-4.125529	лёгкими	-0.04345385
-4.125529	лёгкую	-0.04342066
-4.125529	лёжа	-0.04017003
-4.125529	лётчик	-0.04343669
-4.125529	магацитла	7.005036e-05
-4.125529	магацитлов	7.005036e-05
-4.125529	магнитных	-0.04345385
-4.125529	мадленер-хаус	7.005036e-05
-4.125529	мается	-0.04322
-4.125529	мак-наббс	7.005036e-05
-4.125529	макнуть	-0.03561289
-4.125529	малейший	-0.04345385
-4.125529	малейших	-0.04345385
-4.125529	маленькии	-0.04345385
-3.820163	маленький	-0.0433556
-4.125529	маленькими	7.005036e-05
-4.125529	маленькой	-0.04345385
-4.125529	маленькому	-0.04345385
-3.456875	мало	0.03900448
-3.820163	малый	-0.009963192
-3.820163	мальчик	-0.05884917
-4.125529	мальчика	-0.01053813
-4.125529	мальчику	-0.03499969
-4.125529	малютка	-0.01053813
-4.125529	манер	-0.04345385
-4.125529	манием	-0.04316265
-3.941573	манилов	-0.03399649
-4.125529	маниловым	-0.03499969
-4.125529	манишка	-0.04345385
-4.125529	манишку	-0.04345385
-4.125529	маорийцами	-0.01053813
-4.125529	маорийцев	-0.01053813
-4.125529	мараскином	7.005036e-05
-4.125529	маргарин	-0.04345385
-4.125529	марианне	7.005036e-05
-3.941573	марии	-0.1780658
-4.125529	маркиз	-0.043392
-4.125529	марок	7.005036e-05
-3.941573	марс	-0.1036756
-3.66298	марса	-0.03905193
-4.125529	марсе	-0.04345385
-3.820163	марсиан	-0.06758589
-4.125529	марсиане	7.005036e-05
-3.66298	марсианин	-0.04333909
-3.941573	мартин	-0.04338878
-4.125529	мартинетти	7.005036e-05
-4.125529	масла	7.005036e-05
-4.125529	масляной	-0.04343669
-4.125529	масляными	-0.04345385
-4.125529	массивной	-0.04322
-4.125529	масти	-0.03561289
-3.941573	матери	-0.1674577
-4.125529	материк	7.005036e-05
-4.125529	материка	-0.01053813
-4.125529	матерински	-0.01053813
-4.125529	матерью	-0.04345385
-4.125529	матросов	-0.04017003
-3.547814	мать	-0.1310387
-4.125529	махающие	-0.043392
-4.125529	махновщина	-0.04333467
-4.125529	махнул	-0.043392
-4.125529	махнули	-0.03799902
-4.125529	мачтах	-0.03499969
-4.125529	маша	-0.04343669
-4.125529	машина	-0.04336334
-4.125529	машине	-0.04112184
-4.125529	машинного	-0.04345385
-4.125529	машиной	7.005036e-05
-4.125529	машину	-0.04184153
-4.125529	машины	-0.01053813
-4.125529	мгновение	-0.04345385
-4.125529	мгновений	-0.04345385
-4.125529	мгновенно	-0.04345385
-4.125529	мебели	-0.01053813
-4.125529	мебель	7.005036e-05
-4.125529	медведя	7.005036e-05
-3.941573	меди	-0.001375448
-3.820163	медленно	0.0007536672
-4.125529	медленные	-0.04345385
-4.125529	медливший	-0.03499969
-4.125529	медные	-0.043392
-4.125529	медузой	-0.04270359
-4.125529	медузы	7.005036e-05
-4.125529	меж	-0.04345385
-3.547814	между	-0.04305658
-4.125529	междузвёздном	-0.04342066
-4.125529	межи	-0.0397656
-4.125529	мезер	-0.04345385
-4.125529	мелочь	7.005036e-05
-4.125529	мелькавших	-0.01053813
-4.125529	мелькали	-0.03499969
-4.125529	мельхиора	7.005036e-05
-4.125529	менее	-0.043387
-4.125529	менестрелями	-0.01053813
-4.125529	меньше	-0.04343669
-2.713819	меня	-0.01332001
-4.125529	меняющейся	-0.04129468
-4.125529	меняющиеся	7.005036e-05
-4.125529	мере	0.004185211
-4.125529	мерси	-0.01053813
-4.125529	мертвецу	7.005036e-05
-4.125529	меру	-0.04342066
-4.125529	меры	-0.04342066
-4.125529	мест	-0.04290449
-3.941573	места	-0.04125744
-4.125529	местами	-0.04017003
-4.125529	местах	-0.01053813
-3.820163	месте	-0.06758589
-4.125529	местечко	-0.04345385
-4.125529	мести	7.005036e-05
-3.941573	местность	0.0001060031
-4.125529	местный	-0.04345385
-3.820163	место	0.000908047
-4.125529	месяц	-0.04256003
-4.125529	месяц-то	-0.03499969
-3.941573	месяцев	-0.01048454
-4.125529	металлическая	7.005036e-05
-4.125529	метнулась	-0.04345385
-4.125529	метро	-0.04343669
-3.941573	метров	0.0001060031
-4.125529	механизм	-0.04343669
-4.125529	механизма	7.005036e-05
-4.125529	механики	7.005036e-05
-4.125529	механический	-0.04345385
-4.125529	мечтает	7.005036e-05
-4.125529	мешку	-0.04017003
-4.125529	мешок	7.005036e-05
-4.125529	мешочками	-0.04017003
-4.125529	милой	-0.04343669
-4.125529	милорда	-0.03499969
-4.125529	милый	7.005036e-05
-4.125529	миль	7.005036e-05
-3.66298	мимо	0.03738355
-4.125529	минули	-0.04345385
-3.547814	минут	-0.02235296
-3.547814	минуту	-0.09961902
-3.547814	минуты	0.004656248
-3.941573	мир	0.03664448
-3.820163	мира	-0.1147149
-4.125529	мире	7.005036e-05
-3.941573	мириады	0.0001060031
-4.125529	мирный	-0.04345385
-4.125529	миров	-0.01053813
-4.125529	мировой	-0.04345385
-4.125529	миром	7.005036e-05
-4.125529	мишень	-0.03561289
-4.125529	мишка	-0.04333467
-4.125529	младенцами	-0.01053813
-4.125529	младенческие	-0.04345385
-2.632895	мне	-0.04587216
-4.125529	мнемозина	7.005036e-05
-4.125529	мнение	-0.01053813
-3.941573	многие	-0.04333081
-3.261868	много	-0.03549599
-3.941573	многое	-0.04192394
-4.125529	многоугольную	-0.04345385
-4.125529	многоэтажных	-0.04345385
-3.547814	множество	-0.04328939
-4.125529	множеством	-0.04345385
-3.941573	мной	-8.785725e-05
-3.38172	мог	-0.02768224
-4.125529	могилой	-0.01053813
-4.125529	могилёв	7.005036e-05
-3.820163	могла	-0.04299044
-3.66298	могли	-0.04201433
-3.941573	могу	-0.00943581
-3.820163	могут	0.0008043945
-4.125529	моде	-0.01053813
-4.125529	модестгассе	0.002630379
-4.125529	моду	-0.043392
-4.125529	моего	-0.04345385
-4.125529	можем	-0.01053813
-3.168039	может	-0.05730334
-3.820163	можете	0.00016094
-3.820163	можешь	-0.04188674
-3.056958	можно	-0.02285724
-4.125529	мозг	7.005036e-05
-4.125529	мозги	-0.04017003
-3.547814	мои	-0.04318281
-3.941573	моих	-0.04337098
-3.456875	мой	-0.04858166
-3.941573	мол	-0.04340416
-4.125529	молитва	-0.03561289
-4.125529	молитвенника	7.005036e-05
-4.125529	молнии	7.005036e-05
-4.125529	молод	-0.01053813
-3.820163	молодого	-0.04335446
-3.547814	молодой	-0.1332722
-4.125529	молодости	0.002111502
-3.941573	молодость	0.001888771
-4.125529	молодую	-0.04345385
-4.125529	молодчикам	-0.04129468
-4.125529	молодые	-0.04336334
-4.125529	молодых	-0.04345385
-4.125529	молодёжь	7.005036e-05
-3.941573	молока	-0.002037968
-4.125529	молоком	-0.01053813
-4.125529	молот	-0.04290449
-4.125529	молотками	-0.041784
-4.125529	молчал	-0.03499969
-4.125529	молчаливого	-0.04343669
-4.125529	молчаливый	-0.03499969
-4.125529	молчании	-0.04293318
-4.125529	мольбой	-0.04345385
-4.125529	молэ	7.005036e-05
-3.820163	момент	0.000559058
-4.125529	монастырской	-0.04345385
-4.125529	монастырях	-0.04345385
-4.125529	монетную	-0.04342066
-4.125529	монсегюра	-0.01053813
-3.941573	море	0.0001060031
-3.941573	мороженое	0.003737729
-4.125529	морском	-0.04345385
-4.125529	морщинами	-0.04343669
-3.941573	морщинистые	0.0001060031
-4.125529	морю	7.005036e-05
-4.125529	моря	-0.01053813
-3.941573	москву	0.01034616
-4.125529	москвы	-0.03561289
-4.125529	мостовой	7.005036e-05
-4.125529	мотоциклистов	7.005036e-05
-4.125529	мотыльки	-0.01053813
-4.125529	моцарт	7.005036e-05
-4.125529	моче	7.005036e-05
-4.125529	мошенник	-0.01053813
-3.941573	мощь	-0.04342132
-3.66298	мою	-0.04320838
-3.547814	моя	-0.007434212
-3.820163	моё	-0.04337163
-4.125529	мрачной	-0.04345385
-4.125529	мрачные	7.005036e-05
-4.125529	мрачными	-0.04345385
-3.941573	мстислав	-0.2109815
-4.125529	муаром	-0.01053813
-4.125529	мудрый	-0.04343669
-4.125529	мудрых	-0.04345385
-3.66298	муж	0.002448566
-4.125529	мужа	7.005036e-05
-4.125529	мужеством	-0.04343669
-3.941573	мужик	-0.009910356
-4.125529	мужика	-0.04345385
-4.125529	мужикам	-0.04345385
-4.125529	мужу	-0.03799902
-4.125529	мужчин	-0.01053813
-4.125529	мужчина	-0.04324867
-4.125529	мужчину	-0.04343669
-3.941573	мужчины	0.0006499179
-4.125529	муз	7.005036e-05
-4.125529	музыки	-0.04343669
-4.125529	мускул	-0.01053813
-4.125529	мутных	-0.04345385
-4.125529	мух	-0.01053813
-3.941573	мухи	0.006140351
-3.941573	мучительно	-0.009755537
-4.125529	мучительных	-0.04343669
-2.996089	мы	0.04553489
-4.125529	мылом	-0.04290449
-4.125529	мыльца	-0.04345385
-3.941573	мыслей	0.0001060031
-4.125529	мысленно	-0.04164014
-3.941573	мысли	0.03664448
-3.941573	мысль	-0.006522734
-4.125529	мыслями	-0.01053813
-4.125529	мыслях	-0.042761
-4.125529	мыслящую	-0.04345385
-4.125529	мышц	7.005036e-05
-4.125529	мышь	-0.04345385
-4.125529	мэрию	7.005036e-05
-4.125529	мягко	-0.04345385
-3.941573	мягкой	-0.03496653
-4.125529	мясной	-0.04345385
-4.125529	мять	-0.03561289
-4.125529	мёрз	-0.03561289
-4.125529	мёрзлую	-0.04343669
-1.901162	на	-0.07694201
-4.125529	набережной	7.005036e-05
-4.125529	набережную	-0.01053813
-4.125529	набивают	-0.04319133
-4.125529	набили	-0.04343669
-4.125529	наблюдать	-0.04233024
-4.125529	наблюдения	-0.03499969
-4.125529	набок	-0.04324867
-4.125529	навалился	-0.03799902
-4.125529	навеки	7.005036e-05
-4.125529	наверно	-0.04296187
-3.66298	наверное	-0.03836682
-4.125529	наверняка	-0.04304793
-3.941573	наверху	0.0001060031
-4.125529	навозной	-0.04342066
-4.125529	навроде	-0.04129468
-4.125529	навсегда	-0.01053813
-3.941573	навстречу	-0.01012701
-4.125529	навьюченными	-0.04345385
-4.125529	нагнувши	-0.04017003
-4.125529	нагнулся	7.005036e-05
-4.125529	нагреты	-0.04345385
-3.168039	над	-0.04255163
-3.941573	надежды	-0.02940335
-4.125529	надел	-0.01053813
-4.125529	надеюсь	-0.03561289
-4.125529	надеялся	-0.01053813
-4.125529	надеяться	7.005036e-05
-3.127772	надо	-0.03517136
-4.125529	надобностям	-0.01053813
-4.125529	надоедать	-0.01053813
-4.125529	надоедают	-0.04129468
-4.125529	надоело	7.005036e-05
-4.125529	надолго	-0.04345385
-3.941573	надписями	-0.1674577
-4.125529	надёжно	-0.03499969
-4.125529	надёжный	-0.04345385
-4.125529	нажал	-0.03799902
-3.820163	назад	0.0002702996
-4.125529	названия	-0.04343669
-4.125529	назвать	-0.04343669
-4.125529	назначают	-0.04345385
-4.125529	назовёшь	-0.04336334
-3.941573	называют	-0.03557977
-4.125529	наивен	7.005036e-05
-4.125529	найду	-0.03499969
-4.125529	найти	-0.04345385
-4.125529	наказание	-0.01053813
-4.125529	накануне	-0.04161136
-4.125529	накинул	-0.04345385
-4.125529	наклонением	-0.04342066
-3.127772	наконец	-0.001844279
-4.125529	накрыв	-0.04204283
-4.125529	накупившими	-0.04256003
-4.125529	налево	-0.01053813
-4.125529	налетел	-0.04017003
-4.125529	налил	7.005036e-05
-3.212424	нам	-0.03008668
-4.125529	намекнул	-0.04327734
-3.941573	нами	-0.04342132
-4.125529	намёк	-0.01053813
-4.125529	наоборот	7.005036e-05
-4.125529	написал	-0.03799902
-4.125529	написать	-0.04343669
-4.125529	напишу	-0.04319133
-4.125529	наплевать	7.005036e-05
-4.125529	наповал	-0.04343669
-4.125529	направлении	-0.043387
-4.125529	направлению	-0.04146356
-3.941573	направо	0.0002694428
-4.125529	напрасно	-0.043392
-4.125529	например	7.005036e-05
-3.820163	напротив	-0.04293241
-4.125529	напряг	-0.04296187
-4.125529	напряжённо	-0.04343669
-4.125529	напряжённого	7.005036e-05
-3.941573	народа	-0.1674577
-4.125529	народов	-0.04343669
-3.941573	нарочно	0.0001060031
-4.125529	наружного	-0.04345385
-4.125529	наружности	-0.01053813
-4.125529	наружный	-0.04345385
-4.125529	нарядного	7.005036e-05
-3.212424	нас	-0.00278651
-4.125529	насекомых	-0.01053813
-4.125529	население	-0.04345385
-4.125529	населённый	-0.04342066
-4.125529	насколько	-0.04345385
-4.125529	наследника	-0.01053813
-4.125529	наследники	-0.04345385
-4.125529	наследства	-0.01053813
-4.125529	насобирать	-0.04345385
-4.125529	наспину	-0.01053813
-4.125529	наставлениями	-0.04129468
-3.820163	настолько	-0.0412581
-3.941573	настоящее	-0.04329761
-4.125529	настроение	-0.01053813
-4.125529	наступил	-0.03799902
-4.125529	наступление	-0.01053813
-4.125529	наступления	-0.04343669
-3.941573	насчёт	-0.04342132
-3.820163	насыпь	-0.03487028
-4.125529	насыщена	-0.04316265
-4.125529	насыщенные	-0.04345385
-4.125529	насьональ	7.005036e-05
-4.125529	натерпелся	-0.04345385
-4.125529	натолкнуться	-0.03799902
-4.125529	науками	-0.01053813
-4.125529	научились	-0.04345385
-4.125529	научись	-0.04345385
-4.125529	научно	-0.04345385
-4.125529	нахмурясь	-0.04327734
-4.125529	находившуюся	-0.04345385
-4.125529	находились	7.005036e-05
-4.125529	находится	-0.04296187
-4.125529	находятся	-0.04256003
-4.125529	наци	-0.01053813
-4.125529	национальной	-0.04343669
-4.125529	нацисты	-0.04345385
-4.125529	начав	-0.04319133
-3.820163	начал	-0.0406975
-3.941573	начала	-0.03496653
-4.125529	начали	-0.04343669
-3.820163	начало	-0.04337163
-4.125529	начался	-0.04316265
-3.941573	начальника	-0.04315878
-4.125529	начаты	-0.04290449
-3.941573	начать	-0.04342132
-4.125529	начинала	-0.04343669
-4.125529	начинать	-0.01053813
-4.125529	начинают	-0.04345385
-4.125529	начинаются	-0.04343669
-4.125529	начинающего	-0.04345385
-4.125529	начиная	-0.0431053
-3.66298	наш	-0.04328986
-3.66298	наша	-0.0400544
-4.125529	нашего	-0.04345385
-4.125529	нашей	-0.04345385
-4.125529	нашими	-0.04345385
-3.941573	нашли	-0.04269518
-3.941573	нашлось	-0.04252744
-4.125529	нашу	-0.04319133
-3.820163	нашёл	-0.04035975
-2.069009	не	-0.08640285
-3.820163	неба	0.03909908
-3.941573	небе	-0.01050305
-4.125529	небо	-0.01053813
-3.941573	небольшая	-0.04340416
-4.125529	небольшим	-0.04345385
-4.125529	небольшого	-0.04345385
-3.941573	небольшой	0.0001060031
-4.125529	небом	-0.04345385
-4.125529	небрежно	-0.04345385
-4.125529	небу	0.0001060031
-3.941573	небыло	0.001888771
-4.125529	неважно	-0.04235897
-4.125529	невдомёк	7.005036e-05
-4.125529	неве	7.005036e-05
-4.125529	невежество	-0.03499969
-4.125529	невещественных	-0.04343669
-4.125529	невинное	-0.04345385
-3.820163	невозможно	-0.008568004
-4.125529	невшательском	-0.04345385
-3.212424	него	0.02708881
-4.125529	негодяем	7.005036e-05
-4.125529	негодяйка	-0.01053813
-4.125529	негра	-0.03499969
-4.125529	негры	7.005036e-05
-4.125529	недавно	-0.04241643
-4.125529	недалеко	7.005036e-05
-4.125529	неделе	-0.04345385
-4.125529	неделей	-0.04345385
-4.125529	недолго	-0.043392
-4.125529	недоразумения	-0.01053813
-4.125529	нежели	-0.043392
-4.125529	нежилыми	7.005036e-05
-3.941573	нежно	0.0001249723
-4.125529	независимость	-0.01053813
-4.125529	незаметных	-0.04333467
-3.941573	незначащий	-0.04340416
-4.125529	неизбежно	-0.04345385
-3.941573	неизвестно	-0.033381
-4.125529	неизвестный	-0.04336334
-4.125529	неизменно	-0.04345385
-4.125529	неизречённые	-0.04345385
-4.125529	неизъяснённая	-0.04324867
-4.125529	неистово	7.005036e-05
-3.456875	ней	-0.02169646
-4.125529	некая	-0.04345385
-4.125529	некому	-0.01053813
-3.941573	некоторые	-0.04192394
-3.547814	нельзя	-0.0812944
-3.941573	нем	-0.1147334
-4.125529	немало	-0.01053813
-3.941573	немедленно	-0.04340416
-4.125529	немезидой	7.005036e-05
-4.125529	немецкие	-0.04342132
-4.125529	немецкого	-0.04343669
-4.125529	немецкое	-0.043392
-4.125529	немногим	-0.04322
-3.66298	немного	0.000600066
-4.125529	немолчным	-0.04345385
-3.941573	нему	0.04677106
-3.941573	немцев	-0.01050305
-4.125529	немыслимый	-0.04333467
-4.125529	ненавистных	-0.04343669
-4.125529	ненависть	-0.0428471
-4.125529	ненадёжно	-0.043392
-4.125529	необузданный	-0.01053813
-4.125529	необходимостью	7.005036e-05
-4.125529	необходимые	-0.042761
-4.125529	необыкновенного	-0.04345385
-3.941573	необыкновенную	-0.04342132
-4.125529	необычайно	-0.04342066
-4.125529	неожиданно	-0.04345385
-4.125529	неожиданный	-0.01053813
-4.125529	неосторожна	7.005036e-05
-4.125529	неотразимой	7.005036e-05
-4.125529	неплохая	7.005036e-05
-4.125529	неплохой	-0.04345385
-4.125529	неповторимый	7.005036e-05
-4.125529	неподалёку	-0.04215782
-4.125529	неподвижными	-0.04345385
-4.125529	непосредственно	-0.04233024
-4.125529	непостигаемые	-0.04343669
-4.125529	непостижимых	-0.042761
-4.125529	непредвиденного	-0.04164014
-4.125529	непредвиденное	7.005036e-05
-3.820163	непременно	-0.04329826
-4.125529	непременный	-0.04343669
-4.125529	непрерывная	7.005036e-05
-4.125529	непрерывной	-0.04345385
-4.125529	непрестанно	-0.04333467
-4.125529	неприятелей	-0.04345385
-4.125529	неприятелем	-0.01053813
-4.125529	неприятельскую	-0.04319133
-4.125529	неприятное	7.005036e-05
-4.125529	непроросшее	-0.04345385
-4.125529	нервничал	7.005036e-05
-4.125529	нервную	-0.04345385
-4.125529	нервы	-0.04333467
-4.125529	нерождённых	7.005036e-05
-4.125529	несказанно	-0.04345385
-4.125529	несколькими	-0.04345385
-4.125529	нескольких	-0.04345385
-2.873236	несколько	-0.04113874
-4.125529	нескончаемую	-0.04345385
-4.125529	несметной	-0.04345385
-4.125529	несметные	-0.04345385
-4.125529	несовершенства	-0.04345385
-3.941573	несомненно	-0.01050305
-4.125529	несётся	-0.04343669
-2.996089	нет	-0.1643417
-4.125529	нетерпения	7.005036e-05
-4.125529	неторопливо	-0.04345385
-3.941573	нетрудно	0.03664448
-4.125529	неужели	-0.04069294
-4.125529	неуклонно	-0.04345385
-4.125529	неуклюжим	-0.03799902
-4.125529	неумолимая	-0.04345385
-3.820163	нечего	0.03717182
-3.941573	нечто	0.0003328323
-4.125529	неширокие	-0.04343669
-4.125529	нею	-0.01037448
-4.125529	неясные	7.005036e-05
-3.317672	неё	-0.006429795
-2.777583	ни	-0.07460304
-4.125529	нигде	-0.042761
-4.125529	нижнего	-0.04345385
-4.125529	нижней	-0.04345385
-4.125529	нижнею	-0.04343669
-4.125529	нижние	-0.04345385
-4.125529	нижний	-0.0397656
-4.125529	нижнюю	-0.04343669
-4.125529	низенький	-0.04324867
-4.125529	низенького	-0.04330601
-4.125529	низкий	-0.043392
-4.125529	низким	-0.04345385
-3.941573	низко	-0.04342132
-4.125529	низкое	-0.043392
-3.547814	никак	-0.2968051
-4.125529	никаких	-0.04161136
-4.125529	никакого	-0.04345385
-4.125529	никакой	-0.04345385
-4.125529	никем	7.005036e-05
-3.261868	никогда	-0.4090614
-3.547814	никого	-0.03729698
-4.125529	николаю	-0.04345385
-3.941573	никому	-0.2072933
-3.941573	никто	-0.2072933
-3.456875	ним	-0.02545647
-3.66298	ними	-0.01037923
-4.125529	нимфа	-0.04017003
-4.125529	нисколько	-0.0397656
-4.125529	ниспосланный	-0.04258875
-3.941573	ниточка	-0.04342132
-3.38172	них	-0.04603125
-4.125529	ницце	-0.04345385
-2.968581	ничего	-0.2706434
-4.125529	ничем	-0.04343669
-3.547814	ничто	-0.1602101
-4.125529	нищий	7.005036e-05
-2.968581	но	-0.02162329
-4.125529	новенькими	-0.04345385
-4.125529	новеньком	7.005036e-05
-4.125529	нового	-0.04345385
-3.941573	новое	-0.04342132
-4.125529	новом	-0.04343669
-4.125529	новорождённого	-0.01053813
-4.125529	новороссийска	-0.03561289
-3.941573	новые	-0.03493269
-3.941573	новыми	-0.04342132
-4.125529	новых	-0.04345385
-3.941573	ног	-0.01050305
-4.125529	нога	7.005036e-05
-4.125529	ногам	-0.04343669
-4.125529	ноге	-0.03499969
-3.547814	ноги	-0.05087774
-4.125529	ногой	7.005036e-05
-4.125529	ногою	-0.04345385
-4.125529	ногти	-0.04345385
-3.547814	ногу	-0.02269783
-4.125529	ножками	7.005036e-05
-4.125529	ножки	-0.04270359
-4.125529	ноздри	7.005036e-05
-3.941573	номер	-0.2109815
-3.941573	норд	-0.04340416
-4.125529	нормандия	7.005036e-05
-4.125529	нормандцем	-0.03499969
-3.820163	нос	0.002311844
-3.820163	носил	-0.0432364
-4.125529	носили	-0.042761
-4.125529	носились	-0.04345385
-4.125529	носками	-0.04149623
-4.125529	носом	-0.01053813
-4.125529	носу	-0.0431053
-3.941573	носятся	-0.04340416
-4.125529	ночам	-0.03561289
-4.125529	ночевал	-0.01053813
-3.941573	ночи	0.0003328323
-3.456875	ночь	-0.05019435
-3.941573	ночью	0.0001249723
-4.125529	нравится	-0.01053813
-3.941573	ну	-0.006556403
-4.125529	нужна	-0.01053813
-3.456875	нужно	-0.007460661
-4.125529	нумер	-0.0431053
-4.125529	нынешнее	-0.04322
-3.66298	нынче	0.003884267
-4.125529	нюхать	7.005036e-05
-4.125529	нюхнувшего	-0.04345385
-3.941573	нём	-0.04231794
-2.586268	о	-0.1316513
-3.212424	об	-0.1527071
-4.125529	оба	-0.04342066
-4.125529	обвязывают	-0.04345385
-4.125529	обгоревшие	-0.04345385
-4.125529	обдают	-0.04256003
-4.125529	обделывать	-0.04333467
-4.125529	обдуманно	-0.03499969
-4.125529	обе	-0.04343669
-3.941573	обед	-0.04295347
-4.125529	обеда	-0.04319133
-4.125529	обедали	7.005036e-05
-4.125529	обедать	7.005036e-05
-4.125529	обезобразить	-0.04322
-4.125529	обеими	-0.04342066
-4.125529	обернулся	-0.04149623
-4.125529	обеспечить	-0.04343669
-4.125529	обильно	-0.04330601
-4.125529	обитые	-0.04345385
-3.820163	облака	0.0004512034
-4.125529	облаков	7.005036e-05
-4.125529	обливаясь	-0.04345385
-4.125529	обличье	7.005036e-05
-4.125529	обломки	-0.04313397
-4.125529	обломков	-0.04345385
-4.125529	облысели	7.005036e-05
-4.125529	обменялись	-0.04343669
-4.125529	обмотках	-0.01053813
-4.125529	обмывался	7.005036e-05
-4.125529	обмылся	-0.04343669
-3.941573	обнимает	0.0003645271
-4.125529	обнимешь	-0.04342066
-4.125529	обнять	-0.01053813
-4.125529	обо	-0.04322
-4.125529	обогатили	-0.042761
-4.125529	обоз	7.005036e-05
-4.125529	оборками	-0.04345385
-4.125529	оборотился	-0.04342066
-4.125529	обороты	-0.01053813
-3.941573	обрадовалась	0.001157738
-3.941573	образом	-0.04272842
-4.125529	обратился	-0.04149623
-4.125529	обращались	-0.04345385
-4.125529	обращаются	-0.01053813
-4.125529	обращая	-0.03799902
-4.125529	обрубок	7.005036e-05
-4.125529	обстоятельно	-0.03499969
-4.125529	обсыпавшиеся	7.005036e-05
-4.125529	обсыпают	-0.04343669
-4.125529	обувь	-0.04333467
-4.125529	обутою	-0.03561289
-4.125529	обходительными	-0.03499969
-4.125529	обширных	-0.04345385
-4.125529	общего	-0.043392
-4.125529	общему	-0.04345385
-3.820163	общества	0.0394897
-3.941573	обществе	-0.01012701
-4.125529	общественное	-0.04345385
-4.125529	общество	-0.03499969
-4.125529	общие	-0.04345385
-3.941573	общими	-0.04342132
-4.125529	общих	-0.04345385
-4.125529	общую	-0.04342066
-4.125529	объехал	-0.04330601
-4.125529	объявит	-0.04345385
-4.125529	объявление	7.005036e-05
-4.125529	объявлением	0.0001060031
-3.941573	объяснить	-0.2100303
-4.125529	объятия	7.005036e-05
-4.125529	обыкновению	-0.043392
-4.125529	обычаю	-0.03799902
-3.941573	обычно	-0.04342132
-3.941573	обычные	-0.03557977
-4.125529	овалы	-0.04343669
-4.125529	овечьей	-0.04345385
-4.125529	овладев	-0.04345385
-4.125529	овощи	-0.04345385
-4.125529	огибали	-0.04345385
-4.125529	оглянул	-0.04343669
-4.125529	огненные	-0.04345385
-4.125529	огненный	-0.04345385
-3.941573	огня	-0.04338814
-4.125529	огнём	-0.04345385
-4.125529	оголённую	-0.04345385
-4.125529	огоньки	-0.01053813
-4.125529	огромном	7.005036e-05
-3.941573	огромную	-0.04338814
-3.941573	огромные	0.0001060031
-4.125529	огромными	-0.04345385
-4.125529	огурец	-0.04345385
-4.125529	одарял	-0.04345385
-4.125529	одевают	-0.03561289
-4.125529	одеваясь	-0.03561289
-4.125529	одевшись	-0.03499969
-4.125529	одежд	-0.01053813
-4.125529	одежде	-0.04345385
-4.125529	одеждой	7.005036e-05
-4.125529	одежды	7.005036e-05
-4.125529	оделись	-0.04299056
-4.125529	одета	-0.04345385
-4.125529	одеты	-0.03499969
-4.125529	одеяло	-0.01053813
-4.125529	одеялу	7.005036e-05
-3.025458	один	0.01429398
-4.125529	одиннадцатый	-0.04270359
-4.125529	одинокого	7.005036e-05
-4.125529	одинокое	-0.04210033
-4.125529	одиночество	7.005036e-05
-4.125529	одичавшими	-0.04345385
-3.456875	одна	-0.05655556
-4.125529	однажды	-0.03700272
-3.38172	однако	-0.1057004
-3.941573	одни	-0.03485278
-4.125529	одним	-0.04195657
-3.941573	одних	-0.04342132
-3.547814	одно	-0.03220648
-3.38172	одного	-0.05095374
-3.66298	одной	-0.04059538
-4.125529	одном	-0.04343669
-4.125529	одному	-0.04345385
-4.125529	одною	-0.04345385
-3.456875	одну	0.01264618
-4.125529	ожидал	-0.04316265
-4.125529	ожидании	-0.01053813
-3.941573	ожидания	0.009461768
-4.125529	ожидающей	-0.04345385
-4.125529	ожила	7.005036e-05
-4.125529	озадаченного	-0.04345385
-4.125529	озарённым	-0.04345385
-4.125529	озера	7.005036e-05
-4.125529	озеро	-0.04342066
-4.125529	озирался	7.005036e-05
-4.125529	означает	-0.04342066
-4.125529	оказал	-0.04343669
-3.941573	оказалась	-0.0430969
-3.820163	оказалось	-0.01043092
-3.941573	оказался	-0.04337163
-4.125529	оказать	-0.04258875
-3.941573	океан	-0.007986691
-4.125529	океана	-0.04345385
-4.125529	океане	-0.01053813
-4.125529	океану	-0.01053813
-4.125529	океаны	-0.01053813
-4.125529	окиси	-0.04345385
-4.125529	окладов	-0.01053813
-3.66298	окна	-0.0347818
-4.125529	окнами	-0.01053813
-3.820163	окне	-0.0433556
-4.125529	окно	-0.01053813
-4.125529	окном	-0.01053813
-3.456875	около	-0.04262923
-3.941573	окон	0.03664448
-4.125529	окончании	-0.04343669
-4.125529	окончена	-0.01053813
-4.125529	окоченелый	-0.04345385
-3.941573	окраски	-0.1780658
-4.125529	округа	-0.04343669
-4.125529	округе	-0.04290449
-4.125529	округлую	-0.04129468
-4.125529	окружала	-0.04345385
-4.125529	окружённый	-0.04345385
-4.125529	окунул	-0.03561289
-3.941573	олег	-0.1674577
-4.125529	оловянную	-0.04345385
-4.125529	омрачает	-0.04345385
-4.125529	омэ	7.005036e-05
-2.265221	он	0.02392527
-2.645378	она	0.03661752
-2.760743	они	0.001938552
-4.125529	оно	-0.04345385
-4.125529	опала	7.005036e-05
-4.125529	опалённые	-0.04345385
-4.125529	оперлась	-0.04235897
-4.125529	оплот	7.005036e-05
-4.125529	оплывшей	-0.041784
-4.125529	ополченец	7.005036e-05
-4.125529	оправдана	-0.01053813
-4.125529	определил	7.005036e-05
-4.125529	определилась	-0.043392
-4.125529	определить	7.005036e-05
-4.125529	опрокинутая	-0.04345385
-4.125529	опрятном	-0.04345385
-4.125529	опускалась	-0.03799902
-4.125529	опускался	7.005036e-05
-4.125529	опустело	7.005036e-05
-4.125529	опустив	-0.043392
-4.125529	опустошённого	-0.043392
-4.125529	опушке	7.005036e-05
-4.125529	опущенный	-0.03561289
-4.125529	опыт	-0.01053813
-3.317672	опять	-0.04241774
-4.125529	ор	-0.04345385
-4.125529	оранжевые	7.005036e-05
-4.125529	орда	-0.04345385
-4.125529	ордена	-0.04345385
-4.125529	ореол	-0.03799902
-4.125529	орудие	-0.04307662
-3.820163	оружие	-0.1088457
-4.125529	осадил	-0.04342066
-4.125529	осборн	-0.04345385
-4.125529	осборна	7.005036e-05
-4.125529	осведомились	-0.01053813
-3.941573	осведомился	-0.04016157
-4.125529	осведомляться	-0.04235897
-4.125529	осветил	-0.04161136
-4.125529	освещаемое	-0.04343669
-4.125529	освещением	-0.04195657
-3.941573	освещён	0.0002694428
-4.125529	освещённая	-0.04345385
-4.125529	освещённые	-0.043392
-4.125529	освещённых	-0.04343669
-4.125529	освоить	-0.04345385
-4.125529	оседают	-0.03799902
-4.125529	осени	7.005036e-05
-4.125529	осенний	-0.04336334
-4.125529	осень	-0.01053813
-4.125529	осенью	-0.04290449
-4.125529	осколками	-0.04345385
-4.125529	осколки	-0.04345385
-4.125529	ослепительно	-0.04345385
-4.125529	ослепительный	-0.04343669
-4.125529	осматривал	-0.0431053
-4.125529	осмотреться	-0.04129468
-4.125529	основание	-0.04330601
-4.125529	основатель	-0.04345385
-4.125529	основательность	-0.04336334
-4.125529	особ	-0.04343669
-3.66298	особенно	-0.04134761
-3.941573	особенным	-0.01050305
-3.941573	особливо	-0.03557977
-4.125529	оспы	-0.03499969
-4.125529	ост	7.005036e-05
-3.547814	оставалось	0.001725912
-4.125529	оставался	-0.03561289
-4.125529	оставила	-0.04345385
-4.125529	оставим	-0.04316265
-4.125529	оставить	-0.04250259
-4.125529	оставляет	-0.04345385
-4.125529	оставляют	-0.03799902
-4.125529	оставшиеся	-0.04342066
-4.125529	оставь	-0.0347573
-4.125529	оставьте	-0.04264617
