
\data\
ngram 1=100
ngram 2=2163
ngram 3=8321

\1-grams:
-1.816975	</s>
-99	<s>	-0.7009926
-1.791397	<sil>	-0.2173013
-1.571875	A	-0.1444898
-1.571875	A0	-0.1410505
-2.862721	A0l	-0.2754308
-2.013518	Al	-0.3196346
-1.791397	B	-0.5933381
-1.830353	B0	-0.6276463
-2.736581	B0l	-0.4072565
-2.736581	Bl	-0.2265538
-1.791397	D	-0.6534386
-1.779151	D0	-0.6808205
-2.492003	D0l	-0.446561
-2.736581	DZ	-0.2214638
-3.101497	DZ0	-0.2797736
-2.559292	DZH	-0.1902297
-2.559292	DZH0	-0.2207748
-2.294964	Dl	-0.4395704
-1.564447	E0	-0.1052015
-2.736581	E0l	-0.5902794
-1.779151	F	-0.3937432
-1.844156	F0	-0.1219969
-3.058896	F0l	-0.2752155
-2.862721	Fl	-0.2375097
-1.779151	G	-0.6447536
-1.873151	G0	-0.8537135
-2.862721	G0l	-0.2344528
-2.336487	GH	-0.5030423
-2.862721	Gl	-0.217738
-1.672609	I	-0.04084671
-1.791397	I0	0.1340107
-2.559292	I0l	-0.3432673
-2.080578	Il	-0.167553
-1.663262	J0	0.04685003
-2.638952	J0l	-0.4421393
-1.744358	K	-0.5283803
-1.791397	K0	-0.9651246
-3.058896	K0l	-0.2701803
-1.779151	KH	-0.3753948
-1.920633	KH0	-0.7220578
-3.101497	KH0l	-0.2846994
-2.736581	KHl	-0.2322223
-2.382403	Kl	-0.4169917
-1.744358	L	-0.1107742
-1.682161	L0	-0.0317772
-2.492003	L0l	-0.4428456
-2.736581	Ll	-0.2218687
-1.682161	M	-0.1991335
-1.691929	M0	-0.2501955
-2.736581	M0l	-0.3425361
-2.559292	Ml	-0.3498442
-1.70192	N	-0.1643378
-1.70192	N0	0.02298367
-2.382403	N0l	-0.6094491
-2.382403	Nl	-0.5360436
-3.101497	O	-0.2844952
-1.587124	O0	-0.03868598
-2.638952	O0l	-0.3466337
-1.733354	P	-0.4938648
-1.803998	P0	-0.406615
-2.736581	P0l	-0.5888458
-2.559292	Pl	-0.443646
-1.682161	R	-0.1342817
-1.722621	R0	-0.001813948
-3.058896	R0l	-0.2752155
-3.058896	Rl	-0.2558137
-1.767241	S	-0.5738195
-1.791397	S0	-0.2266093
-2.433755	S0l	-0.4025626
-1.779151	SH	-0.2762823
-1.873151	SH0	-0.2068528
-3.101497	SH0l	-0.2824486
-2.862721	SHl	-0.2371708
-2.18995	Sl	-0.2559792
-1.744358	T	-0.5547864
-1.791397	T0	-0.3251397
-2.294964	T0l	-0.5537704
-1.830353	TS	-0.2544717
-1.816975	TSH0	-0.3251303
-3.058896	TSH0l	-0.2752155
-3.101497	TSl	-0.2846994
-2.294964	Tl	-0.3762364
-1.594954	U	-0.2591065
-1.61105	U0	-0.1421555
-3.058896	U0l	-0.2752155
-2.736581	Ul	-0.2516641
-1.70192	V	-0.7791996
-1.722621	V0	-0.8785355
-2.433755	V0l	-0.5173666
-2.492003	Vl	-0.427781
-1.791397	Y	0.01430476
-2.034741	Y0	-0.01151967
-1.791397	Z	-0.5991491
-1.830353	Z0	-0.496504
-2.638952	Z0l	-0.2141641
-1.816975	ZH	-0.4919462
-2.736581	ZH0	-0.2274592
-2.862721	ZHl	-0.237397
-2.433755	Zl	-0.5026564

\2-grams:
-1.045323	<s> A	-0.1935388
-2.791537	<s> A0	-0.1542737
-1.91478	<s> B	-0.2005055
-2.614792	<s> B0	-0.2085443
-1.61362	<s> D	-0.3054677
-2.614792	<s> D0	-0.03915843
-1.886735	<s> E0	-0.3042927
-1.559247	<s> F	-0.2374986
-3.401095	<s> F0
-1.643592	<s> G	-0.1991064
-1.264594	<s> I	-0.07974973
-3.162686	<s> I0
-1.215601	<s> J0	-0.8826393
-1.305345	<s> K	-0.6195557
-3.401095	<s> K0
-2.614792	<s> KH	-0.08390957
-3.401095	<s> KH0
-1.976968	<s> L	-0.5548976
-1.944762	<s> L0	-0.1592942
-1.467454	<s> M	-0.4307036
-2.31311	<s> M0	-0.1632988
-1.112928	<s> N	-0.8544644
-1.418596	<s> N0	-0.9007726
-1.312525	<s> O0	-0.8086866
-1.198566	<s> P	-0.6081128
-2.011755	<s> P0	-0.1199653
-1.886735	<s> R	-0.4152338
-2.489527	<s> R0	-0.1839415
-1.305345	<s> S	-0.1836104
-2.392422	<s> S0	-0.05201401
-1.534417	<s> SH	-0.7414712
-3.401095	<s> SH0
-3.401095	<s> Sl
-1.258159	<s> T	-0.6765503
-1.886735	<s> T0	-0.4608596
-2.614792	<s> TS	-0.3457331
-2.246071	<s> TSH0	-0.6235087
-1.748365	<s> U	-0.07945435
-3.162686	<s> U0
-1.284492	<s> V	0.2124957
-1.748365	<s> V0	-0.1557784
-3.401095	<s> Vl
-2.246071	<s> Y
-1.789776	<s> Z	-0.480967
-2.091001	<s> Z0	-0.3148466
-2.188009	<s> ZH	-0.2005347
-1.341813	<sil> A	-0.258655
-2.457562	<sil> A0
-3.06712	<sil> Al
-1.50158	<sil> B	-0.1695022
-1.802827	<sil> B0	-0.275424
-1.580805	<sil> D	-0.2070046
-1.979136	<sil> D0	-0.1843924
-3.06712	<sil> DZH
-1.50158	<sil> E0	-0.4793184
-1.55276	<sil> F	-0.1962714
-2.828711	<sil> F0	-0.1159494
-1.715598	<sil> G	-0.02639127
-2.280818	<sil> G0	0.1663491
-1.376588	<sil> I	-0.09315097
-2.280818	<sil> I0	-0.07365185
-3.06712	<sil> I0l
-2.457562	<sil> Il	-0.1327145
-1.610787	<sil> J0	-0.5985669
-1.358852	<sil> K	-0.5855576
-2.828711	<sil> K0	-0.0273028
-1.979136	<sil> KH	-0.2376512
-3.06712	<sil> Kl
-1.979136	<sil> L	-0.1352791
-1.854034	<sil> L0	-0.2161219
-1.580805	<sil> M	-0.2920569
-1.912096	<sil> M0	-0.02873504
-1.434603	<sil> N	-0.7427956
-1.526417	<sil> N0	-0.8507971
-1.50158	<sil> O0	-0.6293341
-1.325417	<sil> P	-0.5471305
-1.757027	<sil> P0	-0.2604658
-1.715598	<sil> R	-0.4918355
-2.457562	<sil> R0	-0.1736186
-1.395078	<sil> S	-0.1830767
-1.802827	<sil> S0	-0.3028364
-1.50158	<sil> SH	-0.5255783
-2.457562	<sil> SH0	-0.04080452
-1.478088	<sil> T	-0.3876104
-1.757027	<sil> T0	-0.4893389
-3.06712	<sil> TS
-1.757027	<sil> TSH0	-0.1069496
-1.580805	<sil> U	-0.04517165
-2.280818	<sil> U0	-0.2290833
-1.455801	<sil> V	-0.09323859
-1.55276	<sil> V0	0.01780879
-3.06712	<sil> Vl
-1.912096	<sil> Y	-0.02524539
-3.06712	<sil> Y0
-1.580805	<sil> Z	-0.7080593
-2.457562	<sil> Z0	-0.125645
-1.912096	<sil> ZH	-0.04550107
-2.828711	<sil> Zl
-1.538369	A </s>
-1.524124	A <sil>	0.04641849
-1.568341	A B	-0.1880842
-1.869511	A B0	-0.3596933
-3.325844	A B0l
-3.087435	A Bl
-1.568341	A D	-0.2465938
-1.584141	A D0	-0.5756421
-2.539541	A D0l	0.1058011
-3.325844	A DZ0	0.02977103
-3.087435	A DZH
-3.325844	A DZH0
-2.539541	A Dl	-0.04118594
-1.869511	A E0	-0.6864579
-1.673115	A F	-0.3220015
-2.317171	A F0	0.1000173
-3.325844	A F0l
-2.716285	A Fl
-1.635311	A G	-0.4173856
-2.061551	A G0	-0.01018673
-3.325844	A G0l
-2.539541	A GH	-0.03529924
-3.087435	A Gl	-0.1192021
-1.693326	A I	-0.1190901
-2.17082	A I0	-0.21595
-3.325844	A I0l
-3.087435	A Il
-1.600537	A J0	-0.3658792
-3.325844	A J0l
-1.553096	A K	-0.3797591
-1.936504	A K0	-0.3329648
-3.325844	A K0l
-1.736812	A KH	-0.1953818
-3.087435	A KH0	-0.01234581
-3.087435	A Kl
-1.617576	A L	-0.2807843
-1.653802	A L0	-0.4512734
-2.414277	A L0l	-0.04579502
-1.635311	A M	-0.1279852
-1.653802	A M0	-0.8063502
-3.325844	A Ml
-1.553096	A N	-0.4925673
-1.538369	A N0	-0.6686023
-2.01575	A Nl	-0.4650116
-1.936504	A O0	-0.2499437
-1.510332	A P	-0.4918439
-1.811484	A P0	-0.221957
-3.087435	A P0l	0.3361682
-2.317171	A Pl	-0.4521377
-1.568341	A R	-0.4186282
-1.901717	A R0	-0.4587155
-3.087435	A R0l	-0.2778536
-1.483996	A S	-0.3838434
-1.693326	A S0	-0.3455286
-2.539541	A S0l	-0.05405515
-1.760304	A SH	-0.3019645
-2.061551	A SH0	-0.08159494
-2.414277	A Sl	-0.1760094
-1.496964	A T	-0.2598411
-1.635311	A T0	-0.2757068
-3.325844	A T0l	0.06486484
-1.760304	A TS	-0.1223082
-1.736812	A TSH0	-0.3283568
-2.317171	A Tl	0.05990787
-1.901717	A U	-0.08099982
-1.936504	A U0	-0.3091674
-1.617576	A V	-0.4256558
-1.760304	A V0	-0.5234496
-3.087435	A V0l
-3.087435	A Vl	0.01929992
-2.17082	A Y	-0.3055877
-1.736812	A Z	-0.1579941
-1.974322	A Z0	0.03272396
-3.325844	A Z0l
-1.635311	A ZH	-0.4510911
-3.325844	A ZH0
-3.325844	A ZHl
-3.325844	A Zl
-1.639357	A0 </s>
-1.697384	A0 <sil>	-0.05136377
-1.697384	A0 B	-0.07196355
-2.367414	A0 B0	-0.2980484
-3.153717	A0 B0l
-1.639357	A0 D	-0.5287552
-1.613014	A0 D0	-0.3454867
-2.544158	A0 Dl
-2.367414	A0 E0	-0.4632181
-1.564685	A0 F	-0.3758023
-2.24215	A0 F0	-0.03137426
-3.153717	A0 Fl
-1.667402	A0 G	-0.3427185
-2.24215	A0 G0	-0.4845094
-2.367414	A0 GH	-0.06720448
-3.153717	A0 Gl
-1.843623	A0 I	-0.0825351
-2.24215	A0 I0	-0.06873492
-1.42841	A0 J0	-0.6360362
-3.153717	A0 J0l	0.03804889
-1.588177	A0 K	0.02000374
-2.145044	A0 K0	-0.1698536
-1.613014	A0 KH	-0.1895063
-2.544158	A0 KH0	-0.2469355
-2.915308	A0 Kl	-0.03663658
-1.463184	A0 L	-0.3858415
-1.463184	A0 L0	-0.6178756
-2.915308	A0 L0l
-2.915308	A0 Ll	-0.2300278
-1.588177	A0 M	-0.1243948
-1.697384	A0 M0	-0.5204884
-2.915308	A0 Ml	-0.04242247
-1.521199	A0 N	-0.321161
-1.542398	A0 N0	-0.601742
-2.367414	A0 N0l	0.05657241
-1.998693	A0 Nl	-0.1546476
-2.145044	A0 O0	-0.513063
-1.564685	A0 P	-0.4447044
-2.915308	A0 P0
-3.153717	A0 Pl
-1.521199	A0 R	-0.2544503
-1.889424	A0 R0	-0.7222917
-1.445449	A0 S	-0.1450742
-1.764377	A0 S0	-0.1909562
-2.544158	A0 S0l	-0.2319512
-1.72959	A0 SH	-0.2484927
-1.802195	A0 SH0	-0.5737383
-3.153717	A0 SHl
-2.24215	A0 Sl	-0.004293896
-1.445449	A0 T	-0.1775139
-1.445449	A0 T0	-0.307163
-2.367414	A0 T0l	-0.07281485
-1.639357	A0 TS	-0.5127158
-1.940631	A0 TSH0	-0.5818594
-2.915308	A0 Tl	-0.1478915
-1.998693	A0 U	-0.105579
-2.145044	A0 U0	-0.4488368
-1.667402	A0 V	-0.1967985
-1.802195	A0 V0	-0.4661484
-3.153717	A0 Vl
-2.915308	A0 Y
-1.639357	A0 Z	-0.3894429
-1.998693	A0 Z0	-0.02978632
-3.153717	A0 Z0l
-1.613014	A0 ZH	-0.5970314
-2.145044	A0 Zl	-0.06815545
-0.7876052	A0l D
-0.7876052	A0l Nl
-0.7876052	A0l SH
-1.297446	Al B	-0.1279664
-1.151095	Al D	-0.8233672
-1.394552	Al D0	0.003781646
-2.306119	Al D0l
-2.306119	Al Dl
-2.306119	Al F
-2.306119	Al F0
-1.394552	Al G	-0.1049123
-2.306119	Al G0
-1.696561	Al K	-0.1297478
-2.06771	Al KH
-2.306119	Al L
-2.06771	Al M
-1.519817	Al N	-0.6891073
-1.519817	Al N0	-0.396125
-1.297446	Al P	-0.3817602
-2.06771	Al P0	-0.1508225
-2.06771	Al Pl	0.03772452
-1.394552	Al R	-0.07263964
-2.06771	Al R0	-0.2239758
-1.151095	Al S	-0.187718
-2.306119	Al S0	-0.2153041
-2.306119	Al SH0
-2.306119	Al Sl
-0.849786	Al T	-0.1503062
-2.306119	Al T0
-1.519817	Al TS
-1.696561	Al TSH0
-2.306119	Al Tl
-2.306119	Al Z
-2.306119	Al ZH
-1.010919	B A	-0.182072
-1.409152	B A0	-0.1174552
-2.383829	B D	-0.1260725
-2.383829	B D0
-2.622238	B E0	-0.2413694
-2.383829	B G	-0.1958132
-2.622238	B G0
-2.622238	B J0	-0.3726137
-1.467214	B L	-0.511857
-1.232898	B L0	-0.2785171
-2.622238	B L0l
-2.383829	B M	-0.0768902
-2.622238	B M0
-1.710671	B N	-0.3434195
-2.383829	B N0	-0.08319938
-1.081535	B O0	-0.4487333
-1.135923	B R	-0.808024
-1.467214	B R0	-0.2232272
-1.135923	B U	-0.2839799
-1.033206	B U0	-0.4894484
-2.622238	B V
-2.383829	B V0	-0.2732146
-0.9897205	B Y	-0.1997307
-0.9501957	B Y0	-0.9123928
-2.383829	B Z
-2.383829	B Z0	-0.1285196
-2.01268	B ZH
-2.173807	B0 A
-1.564249	B0 A0	-0.142244
-1.935398	B0 D	-0.2112985
-2.173807	B0 D0
-0.6874918	B0 E0	-0.06773201
-2.173807	B0 E0l	0.3361682
-1.935398	B0 G	-0.2230415
-0.4484996	B0 I	-0.2971233
-1.018783	B0 I0	-0.3551153
-1.165134	B0 J0	-0.2609728
-2.173807	B0 O0	-0.5492859
-1.935398	B0 U
-2.173807	B0 U0	-0.2447425
-2.173807	B0 Z
-2.173807	B0 Z0
-0.3029858	B0l I
-0.9125439	B0l Il
-1.009454	Bl A
-0.771045	Bl A0
-1.009454	Bl U
-1.009454	Bl Y
-0.9578151	D A	-0.1768317
-1.149778	D A0	-0.1653181
-1.706645	D Al	-0.2877446
-1.803751	D B	-0.3304076
-1.929015	D B0	-0.0417572
-2.715317	D E0
-1.560294	D G	-0.3404848
-2.105759	D G0	0.1983681
-2.715317	D J0	-0.04939375
-2.105759	D L	-0.3132361
-1.291191	D L0	-0.7225205
-2.715317	D M	-0.2151633
-2.476909	D M0	0.04102744
-1.451025	D N	-0.8459414
-1.325978	D N0	-0.4056159
-1.229003	D O0	-0.3216825
-1.200958	D R	-0.6889166
-1.502232	D R0	-0.07948908
-1.325978	D U	-0.1109696
-1.325978	D U0	-0.5130633
-2.476909	D Ul	-0.2172869
-1.291191	D V	-0.55063
-1.174614	D V0	-0.3476791
-1.291191	D Y	-0.2239644
-1.706645	D Y0	-0.09981782
-1.803751	D Z	-0.2629693
-2.105759	D Z0
-1.803751	D ZH	-0.2603415
-1.644755	D0 A	-0.1219314
-1.166765	D0 A0	-0.3450267
-1.519491	D0 B	-0.1562104
-1.644755	D0 B0	0.09592256
-0.7405253	D0 E0	-0.3792773
-1.343074	D0 G	-0.04500368
-2.192649	D0 G0	0.09250298
-0.6583105	D0 I	-0.2649581
-1.166765	D0 I0	-0.3770205
-1.519491	D0 Il
-1.644755	D0 J0	-0.1465241
-2.431058	D0 M
-2.192649	D0 M0	-0.2035609
-1.217972	D0 O0	-0.4206718
-1.8215	D0 U
-1.519491	D0 Z	-0.06024175
-1.8215	D0 Z0
-1.8215	D0 ZH	-0.1001324
-0.7423185	D0l A0	-0.2640294
-0.5655743	D0l E0	-0.386313
-0.7423185	D0l I	-0.1713788
-1.351877	D0l U
-1.264726	DZ B
-1.264726	DZ B0
-1.264726	DZ D
-1.264726	DZ D0
-1.026317	DZ G	-0.1958132
-1.264726	DZ G0
-1.264726	DZ Z
-1.264726	DZ ZH
-0.3104839	DZ0 E0	-0.2489666
-1.213574	DZH A
-1.213574	DZH A0
-0.9751649	DZH E0
-0.9751649	DZH O0
-0.9751649	DZH U
-1.264726	DZH0 B
-1.264726	DZH0 B0
-1.264726	DZH0 D
-1.264726	DZH0 D0
-1.264726	DZH0 G
-1.026317	DZH0 Z	-0.187127
-1.264726	DZH0 Z0
-1.264726	DZH0 ZH
-0.6999468	Dl A	-0.04416289
-0.8252116	Dl A0	-0.07610239
-1.611514	Dl L0
-1.001956	Dl O0	-0.1730234
-1.001956	Dl R	-0.1266756
-1.001956	Dl U0	-0.1463652
-1.611514	Dl V
-1.633823	E0 </s>
-1.561218	E0 <sil>	-0.08205622
-2.073778	E0 A	-0.1101323
-2.985345	E0 A0
-1.772259	E0 B	-0.1711779
-1.897361	E0 B0	-0.1751116
-1.675252	E0 D	-0.3903919
-1.772259	E0 D0	-0.1434055
-2.746936	E0 DZ
-2.985345	E0 DZH0
-2.985345	E0 Dl
-1.772259	E0 F	-0.2925965
-2.985345	E0 F0
-1.830321	E0 G	-0.2021542
-2.985345	E0 GH
-2.073778	E0 I
-2.985345	E0 I0
-1.396313	E0 J0	-0.1961538
-1.633823	E0 K	-0.2855904
-2.746936	E0 K0	-0.2388286
-1.721053	E0 KH	-0.3032568
-1.561218	E0 L	-0.4879755
-1.529012	E0 L0	-0.5984945
-2.985345	E0 L0l
-2.985345	E0 Ll	-0.18139
-1.529012	E0 M	-0.03066704
-1.976672	E0 M0	-0.2493183
-2.199043	E0 M0l	0.03238939
-1.830321	E0 Ml	-0.226394
-1.419806	E0 N	-0.2644113
-1.419806	E0 N0	-0.6535519
-2.199043	E0 N0l	-0.4559834
-1.772259	E0 Nl	-0.2012018
-2.746936	E0 O0	-0.4701046
-1.830321	E0 P	-0.2713994
-2.375787	E0 P0	0.03734349
-2.985345	E0 P0l
-2.985345	E0 Pl
-1.419806	E0 R	-0.3082345
-1.561218	E0 R0	-0.1864071
-2.985345	E0 R0l
-2.985345	E0 Rl
-1.596005	E0 S	-0.7113684
-1.675252	E0 S0	-0.4226991
-2.199043	E0 S0l	0.01108684
-1.830321	E0 SH	-0.3583559
-2.199043	E0 SH0	-0.1369733
-2.199043	E0 Sl	-0.07752468
-1.130905	E0 T	-0.5566977
-1.352828	E0 T0	-0.327783
-2.746936	E0 T0l	0.06486484
-1.897361	E0 TS	-0.1149172
-1.830321	E0 TSH0	-0.4309653
-2.375787	E0 Tl	0.04794657
-2.073778	E0 U	-0.03181221
-2.985345	E0 U0
-1.772259	E0 V	-0.2034993
-2.199043	E0 V0	-0.1448571
-1.897361	E0 Z	-0.3084547
-1.772259	E0 Z0	-0.1535591
-1.772259	E0 ZH	-0.3899504
-2.985345	E0 ZH0
-0.1262416	E0l T	-0.7021988
-1.703212	F </s>
-1.6239	F <sil>	-0.2437876
-1.322545	F A	-0.2001884
-1.800317	F A0	-0.03279817
-2.102326	F E0
-2.473475	F J0	-0.2074911
-1.171181	F K	-0.4379192
-2.473475	F K0	-0.01697987
-1.55686	F KH	-0.2376512
-2.711884	F KH0
-2.102326	F L	-0.2054285
-2.473475	F L0
-1.925582	F M	-0.0965995
-2.473475	F M0	-0.025507
-1.925582	F N	-0.3460142
-2.473475	F N0	-0.1768566
-1.287758	F O0	-0.3655297
-1.171181	F P	-0.468391
-1.703212	F P0	-0.2967289
-1.703212	F R	-0.1794541
-2.473475	F R0	-0.05501247
-1.059155	F S	-0.3506113
-1.021352	F S0	-0.9571601
-1.447592	F SH	-0.7811983
-2.711884	F SH0	-0.09364496
-1.197525	F T	-0.4609582
-1.401791	F T0	-0.2776068
-1.6239	F TS	-0.2195763
-1.55686	F TSH0	-0.1438875
-2.102326	F U	-0.1760471
-2.102326	F U0	-0.1641228
-1.6239	F V	-0.137708
-2.473475	F V0
-1.703212	F Y	-0.03218255
-2.711884	F Y0
-1.958566	F0 <sil>
-1.958566	F0 A
-2.196975	F0 A0
-0.9838889	F0 E0	-0.2872215
-0.5442455	F0 I	-0.1198223
-1.285408	F0 I0	-0.06396252
-2.196975	F0 Il
-2.196975	F0 J0
-2.196975	F0 K
-2.196975	F0 K0
-2.196975	F0 L
-2.196975	F0 L0
-2.196975	F0 M
-2.196975	F0 M0
-2.196975	F0 N
-2.196975	F0 N0
-1.410672	F0 O0	-0.177206
-2.196975	F0 P
-2.196975	F0 P0
-2.196975	F0 R
-2.196975	F0 R0
-2.196975	F0 S
-1.958566	F0 S0
-2.196975	F0 SH
-1.958566	F0 T	-0.2319769
-1.958566	F0 T0	-0.2222868
-2.196975	F0 TSH0	-0.2496552
-1.958566	F0 U
-1.587417	F0 U0
-2.196975	F0 V
-2.196975	F0 V0
-2.196975	F0 V0l
-0.6115139	F0l I
-0.6115139	F0l I0
-0.771045	Fl P	-0.2104651
-1.009454	Fl R
-1.009454	Fl S0
-1.009454	Fl SH
-0.8496466	G A	-0.2805435
-1.519165	G A0	-0.2770129
-2.607149	G Al
-1.820847	G B	-0.27657
-2.36874	G B0	-0.07086456
-1.452125	G D	-0.8303902
-1.120834	G D0	-0.7418876
-1.997591	G E0	-0.1050707
-1.120834	G L	-0.764928
-1.255627	G L0	-0.698365
-2.607149	G M
-2.607149	G M0
-1.695582	G N	-0.1852071
-1.598476	G N0	-0.01693292
-1.066446	G O0	-0.4081872
-1.066446	G R	-0.6783481
-1.297056	G R0	-0.399316
-1.217809	G U	-0.1642988
-1.297056	G U0	-0.3270816
-2.36874	G V	-0.1202912
-2.607149	G V0
-2.36874	G Y0	-0.2628118
-1.598476	G Z	-0.1717099
-1.820847	G Z0	0.02769494
-2.607149	G ZH	-0.3441342
-0.9352797	G0 E0	-0.09361579
-0.2534198	G0 I	-0.1302188
-0.7889283	G0 I0	-0.1550676
-1.943952	G0 J0
-1.943952	G0 U
-1.705543	G0 U0	-0.2447425
-0.7876052	G0l E0
-0.5491962	G0l I
-0.793173	GH B	0.01025419
-1.563437	GH B0
-0.8902785	GH D	-0.1190073
-1.192287	GH D0	-0.08046158
-0.793173	GH G	-0.04187817
-1.801846	GH G0
-0.8902785	GH Z	-0.07881145
-1.801846	GH Z0
-1.563437	GH ZH
-0.8502262	Gl A
-1.088635	Gl L
-1.088635	Gl O0	-0.2531283
-1.088635	Gl U
-1.088635	Gl U0
-1.694334	I </s>
-1.587832	I <sil>	0.04145163
-1.803541	I A	-0.3315594
-2.251201	I A0	-0.3558661
-3.259874	I A0l
-1.719171	I B	-0.1288702
-1.870534	I B0	-0.4315863
-1.648555	I D	-0.1777117
-1.670842	I D0	-0.5644807
-3.259874	I D0l
-3.021465	I DZ
-3.259874	I DZH
-3.259874	I DZH0
-2.348307	I Dl	0.0428073
-2.17189	I E0	-0.4524873
-1.719171	I F	0.05087787
-3.021465	I F0	-0.06395243
-1.551606	I G	-0.3802881
-2.348307	I G0	0.267689
-3.259874	I G0l
-2.473572	I GH	-0.01123758
-3.021465	I Gl
-1.551606	I J0	-0.3859583
-3.259874	I J0l
-1.534567	I K	-0.255314
-1.908352	I K0	0.171578
-1.908352	I KH	-0.07797089
-3.021465	I KH0	-0.0896938
-3.259874	I KHl
-3.259874	I Kl
-1.648555	I L	-0.2217352
-1.502371	I L0	-0.2167345
-2.650316	I L0l	-0.08629225
-3.259874	I Ll	-0.2172869
-1.569341	I M	-0.2976184
-1.694334	I M0	-0.3010707
-3.259874	I M0l
-3.021465	I Ml	-0.08951968
-1.472399	I N	-0.3092331
-1.627357	I N0	-0.4024144
-2.348307	I N0l	-0.3590734
-1.908352	I Nl	-0.5841304
-1.835747	I O0	-0.4705975
-1.569341	I P	-0.4833674
-1.870534	I P0	-0.4814839
-3.021465	I Pl	0.03772452
-1.551606	I R	-0.1565364
-1.719171	I R0	-0.7638863
-3.021465	I Rl
-1.487127	I S	-0.1212061
-1.670842	I S0	-0.2603856
-2.473572	I S0l	-0.06346233
-1.694334	I SH	-0.08813849
-1.835747	I SH0	-0.3636329
-3.259874	I SH0l
-3.021465	I SHl	-0.05279417
-2.251201	I Sl	-0.04515561
-1.569341	I T	0.1523243
-1.670842	I T0	-0.2293475
-2.10485	I T0l	0.2116858
-1.670842	I TS	-0.3024661
-1.745514	I TSH0	-0.1889076
-3.259874	I TSH0l	-0.1401739
-2.650316	I Tl	0.003342703
-1.835747	I U	-0.07493642
-2.10485	I U0	-0.2490174
-1.518171	I V	-0.5010332
-1.773559	I V0	-0.218622
-3.259874	I V0l	-0.06942461
-3.259874	I Vl
-2.348307	I Y	-0.05900766
-1.607145	I Z	-0.1103011
-1.870534	I Z0	-0.02472538
-3.259874	I Z0l
-1.803541	I ZH	-0.3583349
-3.021465	I ZH0
-2.10485	I Zl	-0.3370007
-1.612039	I0 </s>
-1.663246	I0 <sil>	-0.01675163
-2.266773	I0 A	-0.1730907
-2.876332	I0 A0
-1.788347	I0 B	-0.08008216
-2.637923	I0 B0
-2.876332	I0 Bl
-1.612039	I0 D	-0.2942192
-1.788347	I0 D0	-0.701664
-2.876332	I0 D0l
-2.876332	I0 DZH0
-2.876332	I0 Dl
-2.637923	I0 E0	-0.2413694
-1.663246	I0 F	-0.3644665
-2.876332	I0 F0
-2.637923	I0 Fl	-0.2172869
-2.090029	I0 G	-0.2813694
-2.876332	I0 G0	-0.04517671
-1.964765	I0 GH	0.1452811
-1.788347	I0 J0	-0.4603809
-1.788347	I0 K	-0.2111964
-2.637923	I0 K0	-0.1419186
-1.52481	I0 KH	-0.1791052
-2.266773	I0 KH0	-0.1500255
-2.876332	I0 Kl
-1.452205	I0 L	-0.3753518
-1.390017	I0 L0	-0.5865248
-2.637923	I0 L0l
-2.637923	I0 Ll
-1.335629	I0 M	-0.1632243
-1.721308	I0 M0	-0.3750576
-2.876332	I0 M0l
-2.876332	I0 Ml
-1.361972	I0 N	-0.337376
-1.52481	I0 N0	-0.5986829
-2.876332	I0 N0l
-2.266773	I0 Nl	-0.1639815
-2.266773	I0 O0	-0.1616688
-1.612039	I0 P	-0.0969831
-2.637923	I0 P0
-2.876332	I0 P0l
-1.788347	I0 R	-0.3114682
-2.266773	I0 R0	-0.2631228
-1.486992	I0 S	-0.3579846
-1.867659	I0 S0	-0.1007041
-1.663246	I0 SH	-0.209401
-1.964765	I0 SH0	-0.05344718
-2.876332	I0 Sl
-1.486992	I0 T	-0.06862137
-1.452205	I0 T0	-0.3217186
-2.637923	I0 T0l
-1.52481	I0 TS	-0.3740132
-1.52481	I0 TSH0	-0.5352066
-2.876332	I0 TSl
-2.876332	I0 Tl
-2.090029	I0 U
-1.964765	I0 U0	-0.07761927
-1.566238	I0 V	-0.335148
-2.266773	I0 V0	-0.1588725
-2.876332	I0 Y
-1.52481	I0 Z	-0.1062715
-1.964765	I0 Z0	-0.02785578
-1.867659	I0 ZH	-0.2961363
-2.876332	I0 ZHl
-2.876332	I0 Zl
-1.310484	I0l DZ
-1.310484	I0l GH
-0.5241816	I0l KH
-1.310484	I0l L0
-1.310484	I0l M
-1.310484	I0l M0
-1.310484	I0l S
-1.27973	Il </s>
-1.036273	Il <sil>	-0.03390606
-1.581739	Il A
-2.191298	Il B	-0.2174455
-2.191298	Il D
-1.581739	Il D0
-2.191298	Il E0
-2.191298	Il F
-2.191298	Il G
-1.952889	Il J0
-1.581739	Il K	-0.09285333
-2.191298	Il L
-1.581739	Il L0	-0.0925788
-2.191298	Il M
-1.952889	Il M0	-0.1752737
-1.103313	Il N	-0.140409
-1.952889	Il N0
-1.404995	Il P	-0.2378789
-1.27973	Il S	-0.1468134
-1.952889	Il S0
-2.191298	Il SH
-2.191298	Il Sl
-1.952889	Il T
-2.191298	Il T0	-0.1154717
-2.191298	Il T0l
-2.191298	Il TS
-1.404995	Il V	-0.1175962
-1.27973	Il Z	-0.1755178
-1.952889	Il Z0
-1.952889	Il Zl	-0.0405912
-1.929116	J0 </s>
-1.752699	J0 <sil>	-0.04908025
-1.489162	J0 A	-0.1311385
-1.038964	J0 A0	-0.1862806
-1.752699	J0 Al	-0.07240679
-1.929116	J0 B	-0.144963
-2.602275	J0 B0	0.01623476
-1.752699	J0 D	-0.08904576
-2.054381	J0 D0	-0.1457956
-2.840684	J0 DZH
-1.083181	J0 E0	-0.5733206
-1.832011	J0 F	-0.09652138
-2.840684	J0 F0
-1.832011	J0 G	-0.1019228
-2.840684	J0 G0
-0.9282373	J0 I	-0.2969576
-2.840684	J0 I0
-2.231125	J0 I0l
-2.054381	J0 Il	-0.07320113
-1.929116	J0 K	-0.3538219
-2.231125	J0 K0	-0.1064841
-1.929116	J0 KH	-0.07320968
-2.840684	J0 KH0
-1.832011	J0 L	-0.1105881
-1.832011	J0 L0	-0.2628369
-1.929116	J0 M	-0.1805886
-2.054381	J0 M0	-0.1808214
-1.752699	J0 N	-0.3913409
-1.752699	J0 N0	-0.5933196
-1.576391	J0 O0	-0.1214024
-2.840684	J0 O0l
-1.832011	J0 P	-0.2035566
-2.231125	J0 P0	-0.3285517
-1.832011	J0 R	-0.4579405
-2.602275	J0 R0	-0.05501247
-1.752699	J0 S	-0.222427
-1.929116	J0 S0	-0.5108147
-2.840684	J0 S0l
-1.929116	J0 SH	-0.3261202
-2.602275	J0 SH0	-0.04080452
-1.832011	J0 T	-0.2508292
-1.752699	J0 T0	-0.4259866
-2.054381	J0 TS	-0.1696516
-2.054381	J0 TSH0	-0.4104437
-1.29998	J0 U	-0.1851267
-1.627598	J0 U0	-0.1200126
-2.840684	J0 U0l	-0.1401739
-2.840684	J0 Ul
-2.054381	J0 V	-0.1042833
-2.054381	J0 V0	-0.2977549
-2.231125	J0 Y
-2.054381	J0 Z	-0.2139401
-2.840684	J0 Z0
-2.602275	J0 ZH	-0.1124041
-0.9751649	J0l A0	-0.1460614
-1.213574	J0l E0
-0.3020068	J0l I	-0.1325882
-1.648848	K </s>
-1.597641	K <sil>	0.02512464
-1.007493	K A	-0.4306031
-1.153666	K A0	-0.3468911
-1.950367	K Al	-0.03578524
-2.075632	K E0	-0.4632181
-1.77395	K F	-0.01826239
-2.623525	K F0
-2.075632	K J0	-0.2845086
-2.252376	K KH
-2.861934	K KH0
-1.55184	K L	-0.4369825
-1.510412	K L0	-0.2276281
-2.075632	K M	-0.1125586
-2.861934	K M0	-0.1313722
-1.472594	K N	-0.4662563
-1.375619	K N0	-0.5473631
-1.229417	K O0	-0.4144374
-1.70691	K P	-0.378932
-2.623525	K P0
-1.229417	K R	-0.788309
-1.472594	K R0	-0.5464523
-1.55184	K S	-0.1089405
-1.510412	K S0	-0.3399246
-2.075632	K SH	-0.2577115
-2.861934	K SH0	-0.2216254
-1.375619	K T	-0.5262224
-1.950367	K T0	-0.7354149
-2.623525	K TS
-2.252376	K TSH0	-0.0662352
-1.153666	K U	-0.2085264
-1.375619	K U0	-0.1472797
-1.472594	K V	-0.5827892
-1.648848	K V0	0.07309377
-1.950367	K Y	-0.05962212
-2.623525	K Y0	-0.2567095
-1.048574	K0 E0	-0.1685691
-0.3490837	K0 I	-0.4596609
-0.5710192	K0 I0	-0.3599879
-1.127886	K0 Il
-2.136559	K0 J0
-2.136559	K0 U
-1.89815	K0 U0
-0.6115139	K0l E0
-0.6115139	K0l I
-1.453424	KH </s>
-1.511486	KH <sil>	-0.0738911
-0.9090073	KH A	-0.4120106
-1.314988	KH A0	-0.1197506
-2.66651	KH Al
-1.754943	KH F	-0.0515067
-2.66651	KH F0
-1.754943	KH J0	-0.1830346
-1.453424	KH K	-0.2789586
-2.056952	KH K0	-0.3849567
-1.657837	KH L	-0.3463719
-1.880207	KH L0	-0.1226739
-1.657837	KH M	-0.3029199
-2.428101	KH M0	-0.1441131
-1.356416	KH N	-0.3536397
-1.511486	KH N0	-0.4718112
-1.210177	KH O0	-0.3188332
-1.453424	KH P	-0.4295801
-2.428101	KH P0	-0.0619853
-1.453424	KH R	-0.316951
-1.880207	KH R0	-0.2631228
-1.453424	KH S	-0.07127599
-2.428101	KH S0	-0.3598126
-1.657837	KH SH	-0.1265819
-2.66651	KH SH0
-1.453424	KH T	-0.07374042
-2.428101	KH T0	-0.2213369
-2.428101	KH TS	-0.07017269
-2.056952	KH TSH0	-0.2759644
-1.314988	KH U	-0.2065729
-1.754943	KH U0	-0.1867637
-1.511486	KH V	-0.1606472
-2.66651	KH V0
-1.578526	KH Y	-0.09172559
-2.428101	KH Y0
-1.577225	KH0 E0
-0.3593008	KH0 I	-0.1936085
-0.5055404	KH0 I0	-0.1656574
-1.815634	KH0 Il
-1.815634	KH0 J0
-1.577225	KH0 U0	-0.2609806
-0.3104839	KH0l I0
-0.674135	KHl A
-0.9125439	KHl L0
-0.9125439	KHl U0
-0.780107	Kl A	-0.09748257
-0.6033629	Kl A0	-0.4198412
-1.389665	Kl N0
-0.780107	Kl R	-0.1134028
-1.389665	Kl U0
-1.492988	L </s>
-1.689486	L <sil>	-0.1046427
-1.119203	L A	-0.2665324
-1.233191	L A0	-0.07129353
-1.689486	L Al	-0.2921655
-1.932943	L B	-0.3158653
-2.84451	L B0
-1.689486	L D	-0.3129943
-2.606101	L D0
-2.234952	L E0	-0.1547823
-1.580217	L F	-0.1242271
-2.606101	L F0	-0.2144215
-1.756526	L G	-0.263774
-2.84451	L G0
-2.84451	L G0l
-1.689486	L J0	-0.6890792
-1.631424	L K	-0.2342809
-1.932943	L K0	0.03447253
-2.606101	L KH
-2.84451	L KH0
-2.84451	L Kl
-1.835837	L M	-0.261023
-2.058208	L M0	-0.09198962
-1.580217	L N	-0.6393005
-1.835837	L N0	-0.425933
-1.102807	L O0	-0.1748323
-1.631424	L P	-0.3317302
-2.606101	L P0
-2.058208	L R	-0.1981279
-2.606101	L R0
-1.580217	L S	-0.1538086
-1.631424	L S0	-1.055188
-2.84451	L S0l
-1.756526	L SH	-0.3948464
-2.606101	L SH0	-0.2162972
-2.84451	L Sl
-1.631424	L T	-0.1787407
-2.84451	L T0
-2.606101	L TS
-2.058208	L TSH0	-0.1479202
-1.358195	L U	-0.2880539
-1.358195	L U0	-0.2449242
-1.631424	L V	-0.1361423
-2.84451	L V0
-2.84451	L V0l	0.0005849302
-2.84451	L Vl
-1.388177	L Y	-0.2324581
-1.580217	L Y0	-0.3133005
-1.756526	L Z	-0.1851805
-2.606101	L Z0	-0.02265449
-1.932943	L ZH	-0.2668813
-2.110859	L0 </s>
-1.565393	L0 <sil>	-0.04471605
-1.711744	L0 A	-0.1252902
-1.410324	L0 A0	-0.1953166
-1.934115	L0 B	-0.07396226
-2.720417	L0 B0
-2.482008	L0 D	-0.1475227
-2.720417	L0 D0
-2.720417	L0 Dl
-1.029885	L0 E0	-0.2697877
-2.720417	L0 E0l	0.3234272
-2.720417	L0 F
-2.720417	L0 F0
-2.720417	L0 G	-0.2486629
-2.720417	L0 G0
-0.8659766	L0 I	-0.1608617
-1.048375	L0 I0	-0.1251087
-2.482008	L0 I0l	-0.1076617
-1.456124	L0 Il	-0.1431253
-1.80885	L0 J0	-0.166408
-2.110859	L0 K	-1.013559
-2.110859	L0 K0	0.06960721
-2.482008	L0 KH
-2.720417	L0 KH0
-1.934115	L0 M
-2.720417	L0 M0	-0.1313722
-1.565393	L0 N	-0.8194739
-1.934115	L0 N0	-0.4995176
-1.331077	L0 O0	-0.2956046
-2.482008	L0 P	-0.1045999
-2.720417	L0 P0
-2.720417	L0 R
-2.720417	L0 R0
-1.632433	L0 S	-0.3032722
-2.720417	L0 S0
-1.934115	L0 SH	-0.4530383
-2.720417	L0 SH0
-2.720417	L0 Sl
-2.110859	L0 T	-0.04106133
-2.110859	L0 T0	-0.3472255
-1.934115	L0 TS	-0.3415572
-2.720417	L0 TSH0	-0.7618114
-1.131385	L0 U	-0.5140414
-1.29629	L0 U0	-0.1676268
-2.110859	L0 V	-0.05695903
-2.482008	L0 V0	-0.130545
-2.482008	L0 Z	-0.06568143
-2.482008	L0 Z0	-0.5274174
-2.720417	L0 ZH
-1.486575	L0l <sil>
-1.248166	L0l E0	-0.07472569
-0.4779025	L0l I
-0.7002729	L0l I0	-0.07365185
-1.486575	L0l U
-1.486575	L0l U0
-0.771045	Ll A
-1.009454	Ll A0
-1.009454	Ll O0	-0.1500162
-1.009454	Ll U	-0.257206
-1.592734	M </s>
-1.546933	M <sil>	-0.127907
-0.9903486	M A	-0.176874
-1.291487	M A0	-0.278282
-2.070724	M Al	-0.1078055
-1.848354	M B	0.06556755
-2.618618	M B0	-0.2085443
-1.769042	M D	-0.1438794
-2.247468	M D0	-0.04675809
-1.945459	M E0
-1.945459	M F	-0.07337102
-2.857027	M F0	-0.1159494
-1.848354	M G	-0.08044712
-2.857027	M G0
-2.070724	M J0	-0.2302873
-1.769042	M K	-0.281237
-2.857027	M K0
-2.247468	M KH	-0.0916478
-2.857027	M KH0
-2.070724	M L	-0.1767062
-1.945459	M L0	-0.3270901
-1.400694	M N	-0.6866734
-1.342667	M N0	-0.9602073
-1.115323	M O0	-0.4403928
-1.643941	M P	-0.2369754
-2.247468	M P0	-0.1244317
-1.702003	M R	-0.2763641
-2.857027	M R0	-0.2239758
-1.769042	M S	-0.1134675
-1.848354	M S0	-0.02824661
-1.945459	M SH	-0.08433959
-2.618618	M SH0
-1.945459	M T	-0.1816872
-1.848354	M T0	-0.07550875
-2.618618	M TS	-0.3070936
-1.848354	M TSH0	-0.2164953
-1.546933	M U	-0.1136616
-1.342667	M U0	0.08835202
-2.857027	M U0l
-2.857027	M Ul
-1.769042	M V	-0.07531865
-1.769042	M V0	0.1041312
-1.400694	M Y	-0.08026144
-1.267995	M Y0	-0.1610593
-1.945459	M Z	-0.3363484
-2.618618	M Z0	-0.1285196
-2.070724	M ZH	-0.1935139
-2.414288	M0 </s>
-2.414288	M0 <sil>
-1.627985	M0 A	-0.1320152
-1.405615	M0 A0	-0.2462994
-2.414288	M0 Al
-2.414288	M0 B0
-2.414288	M0 D
-2.414288	M0 D0	-0.2919874
-0.7422456	M0 E0	-0.2988991
-2.414288	M0 F	-0.2585616
-2.414288	M0 G
-0.585408	M0 I	-0.2396514
-0.8999277	M0 I0	-0.2244119
-2.414288	M0 I0l
-1.50272	M0 Il	-0.08417725
-2.175879	M0 J0	-0.1330828
-2.414288	M0 K
-2.414288	M0 K0
-2.414288	M0 KH
-2.175879	M0 L0	-0.2194461
-2.414288	M0 N
-2.414288	M0 N0
-1.50272	M0 O0	-0.09342569
-2.414288	M0 P
-2.414288	M0 P0
-2.414288	M0 R
-2.414288	M0 S
-2.414288	M0 SH
-2.414288	M0 T
-2.414288	M0 T0
-2.414288	M0 TSH0	-0.184799
-2.414288	M0 U	-0.2416209
-2.414288	M0 U0
-2.414288	M0 V
-2.414288	M0 V0
-2.414288	M0 Z
-2.414288	M0 ZH
-0.771045	M0l E0	-0.1468696
-0.3998958	M0l I	-0.0719335
-0.5450448	Ml A	-0.1291518
-0.8470538	Ml A0	-0.1748801
-1.218203	Ml O0
-1.218203	Ml U
-1.456612	Ml U0
-1.456612	Ml Y
-1.83837	N </s>
-1.759058	N <sil>	-0.02619681
-0.934596	N A	-0.4008454
-1.121735	N A0	-0.2149397
-1.360727	N Al	0.0416351
-2.06074	N B	-0.3064865
-2.847042	N B0
-1.759058	N D	-0.03344525
-2.608634	N D0	-0.1188462
-2.847042	N DZH
-2.06074	N E0	-0.1017075
-1.83837	N F	-0.1406574
-2.847042	N F0
-2.06074	N G	-0.0787584
-2.608634	N G0	0.07976201
-2.06074	N J0	-0.1791347
-1.83837	N K	-0.3674279
-2.06074	N K0	-0.2388286
-2.847042	N K0l
-2.847042	N KH	-0.05438434
-2.608634	N KH0
-2.847042	N L
-2.237484	N L0
-2.237484	N M	-0.2504231
-2.847042	N M0
-1.138775	N O0	-0.1755366
-2.608634	N O0l	-0.2250673
-1.692018	N P	-0.6272346
-2.237484	N P0	-0.02752171
-2.608634	N R	-0.219268
-1.935475	N R0	-0.1439816
-1.633957	N S	-0.2739271
-2.237484	N S0	-0.1742275
-2.237484	N SH	-0.05118405
-2.847042	N SH0
-1.633957	N T	-0.1934708
-2.847042	N T0
-1.759058	N TS	-0.1256412
-2.847042	N TSH0	-0.03432997
-1.214525	N U	-0.3669062
-1.214525	N U0	-0.453341
-2.608634	N Ul
-1.83837	N V	-0.2188049
-1.935475	N V0	0.1166247
-1.15651	N Y	-0.473642
-1.281503	N Y0	-0.198837
-2.608634	N Z	-0.3238357
-2.608634	N Z0	-0.03886409
-2.06074	N ZH	-0.4487864
-2.04137	N0 </s>
-2.04137	N0 <sil>
-1.642255	N0 A	-0.06637678
-1.386635	N0 A0	-0.1583924
-2.650928	N0 A0l
-2.650928	N0 Al
-2.412519	N0 B
-2.412519	N0 B0
-2.650928	N0 D
-1.739361	N0 D0	-0.04188925
-0.8934255	N0 E0	-0.2191597
-2.650928	N0 E0l
-2.412519	N0 F
-2.650928	N0 F0
-2.412519	N0 G	-0.3473716
-2.650928	N0 G0	-0.1420867
-0.7494796	N0 I	-0.3659882
-1.110225	N0 I0	-0.05854547
-2.412519	N0 I0l
-1.194595	N0 Il	-0.1554694
-1.864626	N0 J0	-0.3561735
-2.04137	N0 K	-0.3537824
-2.412519	N0 K0	-0.1867051
-2.650928	N0 KH	-0.3425331
-2.650928	N0 KH0
-2.650928	N0 L
-2.650928	N0 L0
-2.412519	N0 M
-2.650928	N0 M0
-1.386635	N0 O0	-0.1952487
-2.650928	N0 P
-2.650928	N0 P0
-2.650928	N0 R	-0.219268
-2.650928	N0 R0
-2.650928	N0 S
-2.412519	N0 S0	-0.1663079
-2.412519	N0 SH	-0.3436573
-2.04137	N0 SH0	-0.8583807
-2.04137	N0 T	-0.1261117
-1.739361	N0 T0	-0.5026999
-2.650928	N0 TS
-1.642255	N0 TSH0	-0.5170643
-1.299406	N0 U	-0.2623071
-2.04137	N0 U0	-0.1769341
-2.412519	N0 V
-2.650928	N0 V0
-2.650928	N0 Z
-2.650928	N0 Z0
-2.650928	N0 ZH
-0.7423185	N0l E0	-0.1041377
-0.2638924	N0l I	-0.2612482
-1.351877	N0l I0
-0.5445561	Nl A	-0.2685058
-1.757642	Nl A0
-1.519233	Nl Al
-1.757642	Nl O0	-0.1747251
-1.757642	Nl O0l
-1.757642	Nl R
-0.9713396	Nl U	-0.4704719
-1.757642	Nl V
-0.6026179	Nl Y	-0.8782655
-0.3104839	O KH
-1.728679	O0 </s>
-1.728679	O0 <sil>	-0.05191283
-2.109346	O0 A	-0.148225
-3.118019	O0 A0
-1.693892	O0 B	-0.2553714
-2.206452	O0 B0	-0.7825755
-3.118019	O0 B0l
-1.603659	O0 D	-0.2673509
-1.962995	O0 D0	-0.4935861
-2.87961	O0 D0l	-0.01832624
-2.87961	O0 DZH0	-0.08726367
-2.508461	O0 Dl	-0.1780813
-2.508461	O0 E0	-0.594115
-1.631704	O0 F	-0.2021401
-2.206452	O0 F0	0.01493733
-1.766497	O0 G	-0.2274345
-2.508461	O0 G0	-0.8048446
-3.118019	O0 GH
-2.030035	O0 I	-0.1253216
-2.87961	O0 I0
-1.528987	O0 J0	-0.2201208
-2.331717	O0 J0l	-0.06293081
-1.427486	O0 K	-0.002164543
-2.030035	O0 K0	-0.8186123
-1.807925	O0 KH	-0.1459389
-3.118019	O0 KH0
-1.528987	O0 L	-0.3177735
-1.693892	O0 L0	-0.5172421
-1.46529	O0 M	-0.2307746
-1.904933	O0 M0	-0.4383423
-3.118019	O0 M0l	-0.18139
-1.227854	O0 N	-0.05551511
-1.853726	O0 N0	-0.6937572
-1.853726	O0 N0l	-0.4485776
-1.528987	O0 Nl	-0.5244216
-1.528987	O0 P	-0.3209739
-2.331717	O0 P0	-0.2705598
-1.360516	O0 R	-0.4542104
-2.030035	O0 R0	-0.2811655
-1.445977	O0 S	-0.2002904
-1.853726	O0 S0	-0.1719993
-2.508461	O0 S0l	-0.07549132
-1.693892	O0 SH	-0.1394909
-2.206452	O0 SH0	-0.3364553
-2.87961	O0 Sl	-0.1250959
-1.409751	O0 T	-0.1638694
-1.693892	O0 T0	-0.290384
-2.508461	O0 T0l	0.05212387
-1.962995	O0 TS	-0.4310705
-1.5067	O0 TSH0	-0.6077102
-3.118019	O0 TSH0l
-2.206452	O0 Tl	0.1082666
-1.807925	O0 U	-0.04291353
-2.87961	O0 U0
-1.577316	O0 V	-0.3837921
-1.766497	O0 V0	-0.1570094
-3.118019	O0 Vl
-2.331717	O0 Y
-1.577316	O0 Z	-0.3794215
-1.962995	O0 Z0	-0.01896665
-2.87961	O0 Z0l
-1.603659	O0 ZH	-0.8124886
-3.118019	O0 ZH0
-3.118019	O0 ZHl
-2.508461	O0 Zl	0.1346346
-1.088635	O0l G
-0.479077	O0l N	-0.03480779
-1.088635	O0l N0l	0.07963631
-1.088635	O0l P
-2.738619	P </s>
-1.650635	P <sil>	-0.05200984
-0.9511436	P A	-0.349826
-1.197916	P A0	-0.3007334
-2.738619	P A0l
-1.952316	P Al	-0.09812949
-2.738619	P F
-2.129061	P F0	-0.2374853
-2.738619	P J0
-2.129061	P K	-0.4956456
-1.650635	P K0	-0.407514
-2.50021	P KH	-0.09898821
-1.282286	P L	-0.6451937
-1.428525	P L0	-0.4310199
-2.738619	P M	-0.2151633
-2.738619	P M0
-1.952316	P N	-0.08977071
-2.50021	P N0
-1.1273	P O0	-0.3363017
-0.9969156	P R	-1.245144
-0.9511436	P R0	-1.293898
-2.129061	P S	-0.2959886
-2.129061	P S0
-1.827052	P SH	-0.05997111
-2.129061	P SH0	-0.3548692
-2.129061	P T	-0.08597033
-2.129061	P T0	-0.1988547
-2.129061	P TS	-0.1700711
-1.952316	P TSH0	-0.104059
-1.314492	P U	-0.6140125
-1.428525	P U0	-0.1299625
-1.952316	P V
-2.738619	P V0
-1.387097	P Y	-0.161539
-1.729946	P Y0	-0.1315233
-1.687698	P0 <sil>
-1.08417	P0 A0	-0.4404238
-0.7828957	P0 E0	-0.6732979
-2.297256	P0 F
-0.5097806	P0 I	-0.5060525
-1.032963	P0 I0	-0.2992998
-1.687698	P0 J0	-0.1145051
-2.058847	P0 K
-2.297256	P0 K0
-2.297256	P0 KH
-2.297256	P0 L0
-2.297256	P0 M
-2.297256	P0 M0
-2.297256	P0 N
-2.297256	P0 N0
-2.058847	P0 O0
-2.297256	P0 R
-2.297256	P0 R0
-2.058847	P0 S
-2.058847	P0 S0
-2.058847	P0 T
-2.297256	P0 T0
-2.297256	P0 U	-0.2498932
-2.297256	P0 U0
-2.297256	P0 V
-0.1262416	P0l I
-0.3023328	Pl A	-0.5574692
-1.088635	Pl S
-1.088635	Pl Y
-1.72765	R </s>
-1.66061	R <sil>	-0.01683683
-0.9489559	R A	-0.3252068
-1.028159	R A0	-0.3112791
-2.206076	R Al	-0.09821419
-2.815634	R B	-0.3574663
-2.577225	R B0	0.03500059
-2.206076	R D	-0.2343624
-1.904067	R D0	-0.1956171
-2.815634	R DZ
-2.815634	R DZH
-2.815634	R Dl
-2.577225	R E0
-1.904067	R F	-0.0624032
-2.577225	R F0
-1.806961	R G	-0.3801011
-2.029332	R G0	0.2636047
-2.815634	R J0
-1.66061	R K	-0.3117699
-1.806961	R K0	-0.504424
-2.206076	R KH	-0.1662691
-2.206076	R KH0	0.09351934
-2.815634	R L	-0.4704381
-2.206076	R L0	-0.001122072
-2.029332	R M	-0.2694079
-2.029332	R M0	-0.2690518
-1.602548	R N	-0.5991966
-1.904067	R N0	-0.1371215
-1.183117	R O0	-0.2147369
-1.904067	R P	-0.04610741
-2.577225	R P0	-0.2901424
-1.72765	R S	-0.1592681
-1.806961	R S0	-0.5347513
-2.029332	R SH	-0.1786038
-2.206076	R SH0	-0.07682769
-1.66061	R T	-0.1743584
-1.806961	R T0	-0.5219801
-2.029332	R TS	-0.2950934
-2.206076	R TSH0	-0.0834088
-1.183117	R U	-0.2706329
-1.162905	R U0	-0.3194364
-1.806961	R V	-0.3921366
-2.815634	R V0
-1.391507	R Y	-0.2795049
-1.50554	R Y0	-0.2252039
-2.206076	R Z	-0.159651
-2.815634	R Z0	-0.2402183
-2.206076	R ZH	-0.1998059
-2.498005	R0 </s>
-1.711702	R0 <sil>
-1.711702	R0 A	-0.08465032
-1.146483	R0 A0	-0.236085
-2.498005	R0 B	-0.2103455
-2.498005	R0 B0
-2.498005	R0 D
-2.498005	R0 D0	-0.1748925
-0.9324651	R0 E0	-0.2881728
-2.498005	R0 F	-0.2223508
-2.498005	R0 F0
-2.498005	R0 G
-2.498005	R0 G0
-0.6824927	R0 I	-0.201037
-0.9573014	R0 I0	-0.1597203
-1.711702	R0 Il	-0.1319733
-1.489332	R0 J0	-0.1496802
-2.498005	R0 K	-0.2170737
-2.498005	R0 K0
-2.498005	R0 KH
-2.498005	R0 KH0
-2.498005	R0 L
-2.498005	R0 L0	-0.1547076
-2.259596	R0 M
-2.498005	R0 M0
-2.259596	R0 N	-0.2210755
-2.498005	R0 N0
-2.498005	R0 O
-1.233712	R0 O0	-0.1964642
-2.498005	R0 P	-0.2104651
-2.498005	R0 P0
-2.259596	R0 S	-0.1610187
-2.498005	R0 S0
-2.498005	R0 SH
-2.498005	R0 T
-2.498005	R0 T0
-2.498005	R0 TS
-2.498005	R0 TSH0
-2.259596	R0 U
-1.711702	R0 U0
-2.259596	R0 V
-2.498005	R0 V0	-0.1358086
-2.498005	R0 Z	-0.187127
-2.498005	R0 Z0
-2.498005	R0 ZH
-0.6115139	R0l I	-0.2343123
-0.6115139	R0l I0
-0.7876052	Rl A
-0.7876052	Rl A0
-0.7876052	Rl O0
-1.820195	S </s>
-1.484052	S <sil>	-0.06750673
-1.217647	S A	-0.2108801
-1.421864	S A0	-0.3863221
-1.753155	S Al	-0.1020038
-2.66977	S E0
-1.899506	S F	-0.1374302
-2.121877	S F0	0.002614349
-2.121877	S J0	-0.1142064
-1.182872	S K	-0.8209217
-1.484052	S K0	-0.4832801
-2.298621	S KH	-0.08533603
-2.66977	S KH0	0.006408557
-1.275662	S L	-0.7571899
-1.518839	S L0	-0.7288845
-1.518839	S M	-0.5974463
-1.643887	S M0	-0.5058563
-1.421864	S N	-0.645523
-2.66977	S N0	-0.2791017
-1.393819	S O0	-0.2198614
-1.319147	S P	-0.3800038
-1.556657	S P0	-0.2722113
-1.820195	S R	-0.2987282
-1.695093	S R0	-0.2286015
-2.121877	S SH	-0.09305701
-2.66977	S SH0
-1.120704	S T	-0.8048859
-2.908179	S T0l
-2.121877	S TS	-0.05884195
-2.66977	S TSH0	-0.0662352
-1.643887	S U	-0.08000529
-1.598086	S U0	-0.1601486
-1.34264	S V	-0.7067837
-1.393819	S V0	-0.1672165
-1.556657	S Y	-0.09458017
-1.643887	S Y0	-0.3225787
-1.626094	S0 </s>
-1.546782	S0 <sil>	-0.0963919
-1.283245	S0 A	-0.2588848
-1.723199	S0 A0	-0.2102007
-2.025208	S0 Al	-0.4304259
-1.069227	S0 E0	-0.1858189
-2.634766	S0 E0l	-0.1025416
-1.723199	S0 F	-0.1390416
-2.634766	S0 F0
-0.8930632	S0 I	-0.3870388
-1.178433	S0 I0	-0.234162
-2.634766	S0 Il
-2.025208	S0 J0	-0.2467516
-1.848464	S0 K	-0.05395672
-2.634766	S0 K0
-2.634766	S0 KH
-2.634766	S0 KH0
-2.396357	S0 L	-0.2276798
-2.396357	S0 L0	-0.1245978
-1.848464	S0 M	-0.1407444
-2.025208	S0 M0	-0.1641784
-2.025208	S0 N	-0.2358988
-1.421681	S0 N0	-0.4972817
-2.025208	S0 O0	-0.08362447
-1.848464	S0 P	-0.3014895
-2.025208	S0 P0	-0.02752171
-1.848464	S0 R	-0.1311289
-2.396357	S0 R0	-0.2298491
-2.025208	S0 SH	-0.3148195
-2.396357	S0 SH0	-0.04080452
-1.723199	S0 T	-0.0836603
-1.002249	S0 T0	-0.4753259
-2.396357	S0 T0l
-2.396357	S0 TS
-1.848464	S0 TSH0
-2.634766	S0 Tl	-0.1025224
-1.546782	S0 U	-0.2739598
-1.848464	S0 U0	-0.08666578
-1.723199	S0 V	-0.04056428
-2.396357	S0 V0
-1.589237	S0l A
-1.589237	S0l E0
-0.4342135	S0l I	-0.04431294
-1.350829	S0l I0	-0.192125
-1.350829	S0l Il
-1.350829	S0l N0
-0.9796793	S0l T0	-0.08983493
-2.049231	SH </s>
-1.747222	SH <sil>
-1.172474	SH A	-0.1926585
-1.202456	SH A0	-0.1882412
-2.658789	SH Al
-1.348695	SH E0	-0.2604376
-2.42038	SH F	-0.2185579
-2.658789	SH F0
-2.658789	SH I
-2.42038	SH I0
-2.049231	SH J0	-0.1016259
-1.348695	SH K	-0.5308794
-1.872486	SH K0	-0.3627964
-2.42038	SH KH	-0.2048534
-2.658789	SH KH0
-1.570805	SH L	-0.4955142
-1.348695	SH L0	-0.3591279
-1.872486	SH M	-0.06662875
-2.658789	SH M0
-1.872486	SH N	-0.5874479
-1.747222	SH N0	-0.2362896
-1.348695	SH O0	-0.4042389
-1.650116	SH P	-0.06649886
-2.658789	SH P0
-2.658789	SH R
-2.049231	SH R0	-0.1021883
-2.049231	SH S	-0.0573376
-2.658789	SH S0	-0.1329084
-0.9682562	SH T	-1.132556
-2.42038	SH T0	-0.1036807
-2.42038	SH TS
-2.658789	SH TSH0
-1.503765	SH U	-0.1693384
-1.872486	SH U0	-0.3117972
-1.650116	SH V	-0.04258785
-2.42038	SH V0
-0.9170856	SH Y	-0.3104845
-1.445703	SH Y0	-0.2579497
-2.264726	SH0 </s>
-2.264726	SH0 <sil>
-2.026317	SH0 A	-0.09834769
-1.176742	SH0 A0	-0.2437391
-1.051641	SH0 E0	-0.2094023
-2.264726	SH0 F
-0.6322091	SH0 I	-0.3891283
-1.478424	SH0 I0	-0.1416595
-2.264726	SH0 J0
-2.264726	SH0 K
-2.264726	SH0 K0
-2.264726	SH0 KH
-2.264726	SH0 L0
-2.026317	SH0 M
-2.264726	SH0 M0
-1.655168	SH0 N	-0.1247451
-2.026317	SH0 N0	-0.1768566
-1.000434	SH0 O0	-0.1016377
-2.264726	SH0 P
-2.264726	SH0 P0
-2.264726	SH0 R
-2.026317	SH0 R0
-2.026317	SH0 S0
-2.264726	SH0 T
-2.264726	SH0 T0
-2.264726	SH0 TSH0
-1.256054	SH0 U	-0.09728147
-2.026317	SH0 U0	-0.1042288
-2.264726	SH0 V
-2.264726	SH0 V0
-0.3104839	SH0l I
-0.9125439	SHl K
-0.674135	SHl T	-0.2447178
-0.9125439	SHl U
-1.912544	Sl </s>
-0.7575198	Sl A	-0.09919567
-1.912544	Sl A0
-1.912544	Sl E0
-1.126242	Sl K	-0.3495279
-1.912544	Sl K0	-0.2388286
-1.912544	Sl KH
-1.302986	Sl L
-1.912544	Sl L0
-1.674135	Sl M	-0.1413172
-1.912544	Sl M0	-0.025507
-1.912544	Sl N
-1.674135	Sl O0
-1.302986	Sl P	-0.154288
-1.912544	Sl R0
-1.126242	Sl T	-0.05807848
-1.674135	Sl V	-0.1140073
-1.302986	Sl Y
-1.43055	T </s>
-1.527525	T <sil>	-0.07635507
-1.175162	T A	-0.3271157
-1.144118	T A0	-0.4130259
-2.005298	T Al	0.02009187
-2.005298	T E0	-0.195195
-1.908193	T F	-0.02385481
-2.916865	T F0	-0.1159494
-1.652573	T J0	-0.5987086
-1.565344	T K	-0.3790586
-1.652573	T K0	-0.1360998
-2.130563	T KH	-0.1610895
-2.678456	T KH0
-2.005298	T L	-0.2869825
-1.828881	T L0	-0.2941381
-2.005298	T M	-0.1737718
-2.307307	T M0	0.0002010614
-1.527525	T N	-0.5759262
-1.565344	T N0	-0.4515948
-1.175162	T O0	-0.3170583
-2.916865	T O0l	-0.5767521
-1.606772	T P	-0.3285756
-1.908193	T P0	-0.4668544
-1.305547	T R	-0.7268736
-1.284348	T R0	-0.7619113
-1.652573	T S	-0.1403808
-2.130563	T S0	-0.1845672
-2.005298	T SH	-0.5718485
-2.307307	T SH0	-0.190529
-2.678456	T TS
-2.005298	T TSH0	-0.2244819
-1.284348	T U	-0.0321888
-1.565344	T U0	-0.1011574
-1.492738	T V	-0.4140789
-1.565344	T V0	-0.3975214
-2.916865	T V0l
-1.376162	T Y	-0.230011
-1.327833	T Y0	-0.04579517
-1.391326	T0 </s>
-1.546395	T0 <sil>	-0.1068732
-1.546395	T0 A	-0.05778889
-1.789852	T0 A0	-0.1372789
-1.04869	T0 E0	-0.2371199
-1.546395	T0 F	-0.07097463
-2.46301	T0 F0	-0.01008429
-0.9439165	T0 I	-0.2457825
-1.215104	T0 I0	-0.1544654
-2.46301	T0 Il
-1.546395	T0 J0	-0.4096158
-1.613435	T0 K	-0.1424921
-2.46301	T0 K0	-0.1262074
-2.46301	T0 KH	-0.2048534
-2.701419	T0 KH0
-2.701419	T0 L
-1.692746	T0 L0	-0.1994361
-1.488333	T0 M	-0.2260907
-1.789852	T0 M0	0.04054868
-1.546395	T0 N	-0.431723
-1.437126	T0 N0	-0.5951215
-1.312079	T0 O0	-0.2887598
-1.613435	T0 P	-0.2269119
-2.46301	T0 P0
-2.46301	T0 R	-0.0597196
-2.701419	T0 R0
-1.613435	T0 S	-0.08198465
-1.613435	T0 S0	-0.3126071
-1.613435	T0 SH	-0.2577115
-2.701419	T0 SH0
-2.46301	T0 Sl
-2.701419	T0 TS
-2.091861	T0 TSH0	-0.07893384
-1.488333	T0 U	-0.0274657
-2.46301	T0 U0	-0.08920888
-1.546395	T0 V	-0.03168717
-2.46301	T0 V0	-0.06196253
-2.701419	T0 V0l
-1.540933	T0l A0
-1.302524	T0l E0
-0.2766403	T0l I	-0.1795617
-0.9313747	T0l I0	-0.06034849
-1.540933	T0l O0
-1.888446	TS </s>
-1.711702	TS <sil>	-0.07899805
-1.108665	TS A	-0.1862044
-1.342981	TS A0	-0.119005
-1.586437	TS Al	-0.008096971
-0.9324651	TS E0	-0.4216887
-2.259596	TS F
-2.498005	TS F0
-2.498005	TS J0
-1.489332	TS K	-0.3026299
-1.711702	TS K0	-0.3849567
-2.498005	TS KH0
-2.498005	TS L
-2.498005	TS L0
-2.259596	TS M
-2.259596	TS M0
-2.259596	TS N	-0.1344884
-2.498005	TS N0
-1.586437	TS O0	-0.240459
-2.259596	TS P
-2.498005	TS P0
-2.498005	TS R
-2.498005	TS R0
-2.498005	TS S	-0.0981837
-2.498005	TS S0
-2.498005	TS SH
-2.498005	TS SH0
-1.41002	TS T	-0.5278516
-2.259596	TS T0
-1.586437	TS U	-0.3247216
-1.586437	TS U0	-0.1817487
-2.259596	TS V
-1.041672	TS V0	-0.4848415
-0.9089726	TS Y	-0.1605458
-1.342981	TS Y0	-0.08551284
-1.774602	TSH0 </s>
-1.649337	TSH0 <sil>	-0.1598487
-1.774602	TSH0 A
-0.9495852	TSH0 A0	-0.2944934
-1.136777	TSH0 E0	-0.4170201
-2.322495	TSH0 F
-2.560904	TSH0 F0
-0.7881566	TSH0 I	-0.4797884
-1.552231	TSH0 I0	-0.2882375
-1.951346	TSH0 J0	-0.1896832
-1.552231	TSH0 K	-0.6199118
-1.552231	TSH0 K0	-0.3459449
-2.560904	TSH0 KH
-2.560904	TSH0 L
-1.774602	TSH0 L0	-0.1743298
-2.560904	TSH0 M
-2.560904	TSH0 M0
-1.296611	TSH0 N	-0.8430982
-1.774602	TSH0 N0	-0.5575743
-1.250811	TSH0 O0	-0.2127065
-2.322495	TSH0 P	-0.2104651
-2.560904	TSH0 P0
-2.560904	TSH0 R
-1.951346	TSH0 R0	-0.2985573
-2.560904	TSH0 S
-2.560904	TSH0 S0
-2.560904	TSH0 SH	-0.6958399
-1.47292	TSH0 T	-0.5462384
-1.951346	TSH0 T0	-0.3289348
-2.560904	TSH0 TS
-1.296611	TSH0 U	-0.1002209
-1.40588	TSH0 U0	-0.3193853
-1.951346	TSH0 V
-2.560904	TSH0 V0	-0.1358086
-0.6115139	TSH0l I
-0.6115139	TSH0l I0	-0.2488379
-0.3104839	TSl Y
-0.5123715	Tl A	-0.1152309
-1.115899	Tl A0
-0.9391549	Tl O0	-0.2761922
-1.725457	Tl P
-1.725457	Tl R
-1.725457	Tl R0
-1.487048	Tl U	-0.1415629
-1.487048	Tl U0
-1.725457	Tl V0
-1.725457	Tl Y
-1.725457	Tl Y0	-0.2580762
-1.457848	U </s>
-1.532521	U <sil>	0.1134551
-1.736787	U A	-0.1645472
-2.260578	U A0	-0.2762905
-1.736787	U B	-0.204249
-1.622754	U B0	-0.3068222
-1.481341	U D	-0.5296998
-1.590547	U D0	-0.1165585
-3.04688	U Dl
-2.437322	U E0	-0.1227633
-1.782588	U F	-0.05966426
-2.437322	U F0
-1.481341	U G	-0.2902592
-2.437322	U G0	-0.3674152
-3.04688	U GH
-1.622754	U I	-0.09986721
-2.437322	U I0	-0.06875846
-1.374838	U J0	-0.8252167
-1.506177	U K	-0.5337703
-2.808471	U K0	-0.2687368
-1.736787	U KH	-0.2533273
-2.808471	U KH0
-3.04688	U KHl
-1.657541	U L	-0.1761971
-1.695359	U L0	-0.1214949
-1.560565	U M	-0.3827798
-1.532521	U M0	-0.524666
-1.506177	U N	-0.5480422
-1.622754	U N0	-0.6355346
-3.04688	U N0l
-2.260578	U O0
-1.532521	U P	-0.1743147
-1.958896	U P0	-0.2171955
-1.560565	U R	-0.1404618
-1.958896	U R0	-0.06282186
-1.338613	U S	-0.3238824
-1.736787	U S0	-0.2411858
-1.560565	U SH	-0.06317261
-1.782588	U SH0	-0.6651665
-1.532521	U T	-0.01983932
-1.695359	U T0	-0.1378412
-2.038208	U TS	-0.247888
-1.590547	U TSH0	-0.4268705
-2.808471	U Tl	-0.1417564
-1.532521	U V	-0.1851684
-1.657541	U V0	-0.04020852
-3.04688	U V0l
-2.437322	U Y
-1.891856	U Z	-0.09302768
-2.135313	U Z0	-0.2146505
-3.04688	U Z0l	-0.1959086
-1.622754	U ZH	-0.05044302
-1.601286	U0 </s>
-1.441451	U0 <sil>	-0.08612147
-1.710554	U0 A	-0.03884256
-2.865578	U0 A0
-1.514057	U0 B	-0.1469496
-2.25602	U0 B0	-0.1880995
-2.865578	U0 B0l
-2.865578	U0 Bl
-1.476239	U0 D	-0.3806598
-1.954011	U0 D0	-0.8552878
-2.865578	U0 DZH0
-2.865578	U0 E0
-1.777594	U0 F	-0.3177268
-2.865578	U0 F0	-0.1159494
-2.865578	U0 F0l
-2.079276	U0 G	-0.4856507
-2.627169	U0 G0	0.09250298
-1.652493	U0 I	-0.08450159
-1.476239	U0 J0	-0.6219525
-1.476239	U0 K	-0.2333076
-2.079276	U0 K0	-0.3283328
-1.601286	U0 KH	-0.2608679
-2.25602	U0 KH0	-0.02508678
-2.865578	U0 Kl
-2.627169	U0 L	-0.2587903
-1.409245	U0 L0	-0.6535742
-1.652493	U0 M	-0.6155304
-1.777594	U0 M0	-0.358556
-1.555485	U0 N	-0.2644966
-2.627169	U0 N0	-0.2791017
-2.627169	U0 O0	-0.142403
-1.476239	U0 P	-0.2301787
-2.627169	U0 P0
-2.865578	U0 P0l
-2.865578	U0 Pl
-1.409245	U0 R	-0.08653978
-1.777594	U0 R0	-0.5474638
-1.351218	U0 S	-0.2665855
-1.652493	U0 S0	-0.5188879
-1.300039	U0 SH	-0.1805806
-1.777594	U0 SH0	-0.5847069
-2.865578	U0 SHl
-2.627169	U0 Sl	-0.3589071
-1.379263	U0 T	-0.1509201
-1.777594	U0 T0	-0.1472945
-2.627169	U0 T0l	0.05212387
-2.079276	U0 TS	-0.3793324
-1.601286	U0 TSH0	-0.372284
-2.865578	U0 Tl	-0.5923847
-1.777594	U0 V	-0.07474454
-2.079276	U0 V0	-0.3050006
-1.777594	U0 Z	-0.1901765
-2.079276	U0 Z0	0.04666636
-1.351218	U0 ZH	-0.667628
-0.6115139	U0l L0	-0.1984439
-0.6115139	U0l SH
-1.009454	Ul F
-1.009454	Ul K
-1.009454	Ul P
-1.009454	Ul S
-1.009454	Ul T
-1.034048	V A	-0.3411135
-1.177518	V A0	-0.4390197
-1.585267	V Al	-0.07508597
-1.937993	V B	-0.06227738
-1.840887	V B0	-0.1669496
-1.308857	V D	-0.3166505
-1.694536	V D0	-0.1036151
-1.636474	V E0	-0.6455935
-1.363245	V G	-0.3293484
-2.611151	V G0	-0.2084243
-1.761576	V J0	-0.1839689
-1.761576	V L	-0.1272817
-1.498038	V L0	-0.7056599
-1.498038	V M	-0.2509505
-1.761576	V M0	-0.3269494
-1.393227	V N	-0.5610237
-1.308857	V N0	-0.5875623
-1.159027	V O0	-0.2598189
-2.84956	V O0l
-1.393227	V R	-0.4479684
-1.761576	V R0	-0.569396
-1.694536	V U	-0.1699923
-1.636474	V U0	-0.1919286
-1.238241	V Y	-0.2974688
-1.217043	V Y0	-0.152352
-1.308857	V Z	-0.280629
-1.840887	V Z0	-0.3454369
-1.937993	V ZH	-0.05188617
-1.200783	V0 A0	-0.3137299
-2.117398	V0 B	-0.2197866
-2.355807	V0 B0
-2.355807	V0 D0
-0.5830595	V0 E0	-0.5216963
-0.5983043	V0 I	-0.502038
-0.7232895	V0 I0	-0.4940487
-2.355807	V0 Il
-1.569505	V0 J0	-0.2170125
-1.142721	V0 O0	-0.4622421
-2.355807	V0 U0	-0.2447425
-2.355807	V0 Z
-2.355807	V0 Z0
-2.355807	V0 ZH
-0.7423185	V0l E0	-0.2384408
-0.3432039	V0l I	-0.1060268
-1.351877	V0l I0
-1.351877	V0l O0
-0.6551683	Vl A
-1.264726	Vl A0
-0.4784241	Vl O0	-0.08069537
-1.264726	Vl Y
-1.410262	Y </s>
-1.494632	Y <sil>	-0.1132295
-1.599444	Y A	-0.2037068
-2.341407	Y A0
-1.640872	Y B	-0.2347643
-2.164663	Y B0	0.008804277
-2.950965	Y Bl
-1.640872	Y D	-0.1896433
-1.795941	Y D0	-0.01888387
-2.341407	Y E0	-0.3978204
-1.640872	Y F	-0.1926899
-2.712556	Y F0	-0.2388921
-1.494632	Y G	-0.06957625
-2.712556	Y G0
-1.942293	Y GH	-0.004638016
-1.73788	Y I	-0.1695149
-2.950965	Y Il
-1.526838	Y J0	-0.2805467
-2.712556	Y J0l
-1.561625	Y K	-0.151641
-1.942293	Y K0	-0.1734309
-1.599444	Y KH	0.06031013
-2.712556	Y KH0	-0.09945659
-2.950965	Y KH0l
-2.950965	Y KHl
-2.950965	Y Kl	-0.03163606
-1.640872	Y L	-0.4961907
-1.561625	Y L0	-0.3450677
-1.526838	Y M	0.03523844
-1.599444	Y M0	-0.581309
-2.341407	Y Ml
-1.526838	Y N	-0.3602972
-1.686673	Y N0	-0.4755551
-2.712556	Y Nl	-0.06707153
-1.73788	Y O0	-0.3763053
-1.410262	Y P	-0.3242176
-2.039398	Y P0	0.06706783
-1.73788	Y R	-0.3420438
-2.164663	Y R0	-0.1467973
-1.361933	Y S	-0.3012491
-1.862981	Y S0	-0.2782283
-2.712556	Y S0l
-1.73788	Y SH	-0.1135759
-2.164663	Y SH0	-0.1729096
-2.712556	Y Sl
-1.599444	Y T	-0.08505988
-2.164663	Y T0	-0.4146931
-2.712556	Y T0l
-2.164663	Y TS	-0.1477419
-1.942293	Y TSH0	-0.2130589
-2.164663	Y U	-0.1542099
-2.950965	Y U0
-1.436605	Y V	-0.5825883
-1.795941	Y V0	-0.08744225
-1.494632	Y Z	-0.08944906
-1.942293	Y Z0	-0.006124876
-2.164663	Y ZH	-0.04177264
-2.712556	Y Zl	-0.0405912
-1.499852	Y0 </s>
-1.44179	Y0 <sil>	-0.03093214
-1.868574	Y0 A
-1.646204	Y0 B	0.008974463
-2.045318	Y0 B0	-0.02971838
-1.868574	Y0 D	-0.2133065
-1.743309	Y0 D0	-0.07768627
-2.654876	Y0 D0l	-0.1752898
-1.646204	Y0 F	-0.1407189
-2.654876	Y0 F0
-1.868574	Y0 G	-0.2813694
-2.654876	Y0 G0	0.09250298
-1.868574	Y0 GH	-0.1210218
-1.646204	Y0 I
-1.743309	Y0 J0	-0.7678913
-1.646204	Y0 K	-0.02341817
-2.416467	Y0 K0	0.1016262
-1.390584	Y0 KH	-0.1948099
-2.654876	Y0 KH0
-2.654876	Y0 KHl
-2.654876	Y0 Kl
-1.499852	Y0 L	-0.3356693
-1.499852	Y0 L0	-0.6204051
-2.416467	Y0 L0l	-0.08630536
-1.44179	Y0 M	-0.05925155
-1.646204	Y0 M0	-0.358556
-1.566892	Y0 N	-0.1937882
-1.566892	Y0 N0	-0.2916505
-2.654876	Y0 N0l	-0.1752898
-2.416467	Y0 Nl	-0.03138843
-1.344783	Y0 P	-0.1014564
-1.868574	Y0 P0	-0.2377995
-1.646204	Y0 R	-0.2034402
-2.045318	Y0 R0	-0.3695715
-1.499852	Y0 S	-0.2665259
-2.045318	Y0 S0	-0.6412728
-1.646204	Y0 SH	-0.4538294
-2.416467	Y0 SH0	-0.1594106
-1.499852	Y0 T	-0.1670523
-1.743309	Y0 T0	-0.1391543
-2.416467	Y0 TS
-2.045318	Y0 TSH0	-0.3417415
-2.416467	Y0 Tl
-2.654876	Y0 U
-2.654876	Y0 U0
-2.045318	Y0 V	-0.105591
-2.416467	Y0 V0	-0.05669886
-2.654876	Y0 V0l
-1.868574	Y0 Z	-0.07312104
-2.416467	Y0 Z0	-0.6394908
-1.646204	Y0 ZH	-0.1493822
-0.8003234	Z A	-0.2522316
-1.226496	Z A0	-0.3604829
-2.615835	Z Al
-1.351543	Z B	-0.03179088
-1.607163	Z B0	-0.05185547
-1.226496	Z D	-0.1200016
-2.377426	Z D0	-0.1010464
-2.615835	Z E0	-0.1227633
-1.40275	Z G	-0.2535685
-2.006277	Z G0	0.1983681
-2.006277	Z J0	-0.1016259
-1.460811	Z L	-0.2420096
-1.527851	Z L0	-0.500988
-1.829533	Z M	-0.2759868
-1.829533	Z M0	-0.09248325
-1.026803	Z N	-0.939613
-1.829533	Z O0	-0.133706
-1.527851	Z R	-0.1139981
-1.704268	Z R0	-0.1214951
-1.527851	Z U	-0.1499216
-2.006277	Z U0	-0.1462708
-1.264314	Z V	-0.3202356
-1.264314	Z V0	-0.2319871
-1.460811	Z Y	-0.2826748
-1.829533	Z Y0	-0.09149034
-2.006277	Z ZH	-0.1310674
-2.319084	Z0 A
-1.532782	Z0 A0	-0.2030994
-1.709526	Z0 B	-0.04534066
-2.080675	Z0 B0	-0.2085443
-1.407517	Z0 D	-0.02197885
-0.862751	Z0 D0	-0.5883396
-2.080675	Z0 D0l	-0.1241914
-2.319084	Z0 Dl
-1.2311	Z0 E0	-0.3909254
-1.407517	Z0 G	-0.04980668
-2.319084	Z0 G0
-0.577381	Z0 I	-0.4015562
-1.310411	Z0 I0	-0.1118864
-2.319084	Z0 Il	-0.2385796
-1.709526	Z0 J0
-2.319084	Z0 M
-2.319084	Z0 M0
-1.105998	Z0 N0	-0.2075913
-2.319084	Z0 N0l
-2.319084	Z0 O0
-2.319084	Z0 U
-2.080675	Z0 U0	-0.2472528
-2.080675	Z0 ZH
-1.088635	Z0l A0
-0.8502262	Z0l D0	-0.1748925
-0.8502262	Z0l E0	-0.1431014
-1.088635	Z0l I
-1.307748	ZH A	-0.1511556
-1.006439	ZH A0	-0.4753372
-2.224363	ZH B
-2.462772	ZH B0
-1.073432	ZH D	-0.6337232
-1.374788	ZH D0	-0.2910852
-1.19848	ZH E0	-0.6593108
-2.224363	ZH G
-2.224363	ZH G0	-0.184949
-2.224363	ZH J0	-0.1016259
-2.224363	ZH L0	-0.1984439
-2.462772	ZH M
-2.462772	ZH M0
-1.307748	ZH N	-0.7003434
-1.551205	ZH N0	-0.3656594
-1.551205	ZH O0	-0.4266201
-2.462772	ZH R
-2.462772	ZH R0
-1.4541	ZH U	-0.07326503
-2.224363	ZH U0	-0.05041827
-2.462772	ZH V0
-0.7210692	ZH Y	-0.1951031
-1.006439	ZH Y0	-0.3386747
-2.224363	ZH Z	-0.1132809
-2.224363	ZH Z0
-1.213574	ZH0 B
-0.9751649	ZH0 D	-0.2112985
-1.213574	ZH0 D0
-1.213574	ZH0 G
-1.213574	ZH0 G0
-1.213574	ZH0 Z
-1.213574	ZH0 Z0
-0.7876052	ZHl O0
-0.5491962	ZHl Y
-0.398591	Zl A	-0.05459329
-0.7002729	Zl A0	-0.07610239
-1.486575	Zl B
-1.486575	Zl U
-1.486575	Zl U0
-1.486575	Zl V0

\3-grams:
-1.22455	A <sil> A
-2.597974	A <sil> B
-2.406979	A <sil> B0
-1.685486	A <sil> D
-2.022796	A <sil> E0
-1.822185	A <sil> F
-2.406979	A <sil> G
-0.9706906	A <sil> I
-2.597974	A <sil> I0
-1.822185	A <sil> J0
-1.290125	A <sil> K
-2.173723	A <sil> K0
-2.597974	A <sil> KH
-2.022796	A <sil> L0
-1.58167	A <sil> M
-1.267149	A <sil> N
-1.396538	A <sil> N0
-1.822185	A <sil> O0
-1.150151	A <sil> P
-2.022796	A <sil> P0
-1.58167	A <sil> R
-1.290125	A <sil> S
-1.685486	A <sil> S0
-1.314385	A <sil> SH
-1.58167	A <sil> T
-2.022796	A <sil> T0
-2.406979	A <sil> TSH0
-1.822185	A <sil> U
-1.245328	A <sil> V
-2.597974	A <sil> V0
-2.406979	A <sil> Y
-1.58167	A <sil> Z
-2.406979	A <sil> Z0
-2.022796	A <sil> ZH
-1.342904	A0 <sil> A
-1.767155	A0 <sil> D
-1.767155	A0 <sil> D0
-1.08019	A0 <sil> I
-1.767155	A0 <sil> N
-1.576161	A0 <sil> N0
-1.191978	A0 <sil> P
-1.576161	A0 <sil> S
-1.576161	A0 <sil> S0
-1.08019	A0 <sil> SH
-1.767155	A0 <sil> T
-1.576161	A0 <sil> T0
-1.576161	A0 <sil> V
-1.314283	E0 <sil> A
-1.505277	E0 <sil> E0
-1.081027	E0 <sil> P
-0.9300997	E0 <sil> SH
-1.314283	E0 <sil> T
-1.238554	F <sil> A
-1.813731	F <sil> F
-0.7974277	F <sil> I
-0.9642366	F <sil> K
-1.813731	F <sil> N
-0.7974277	F <sil> P
-1.813731	F <sil> R
-1.126766	F <sil> S
-1.813731	F <sil> T
-1.01003	I <sil> A
-1.882675	I <sil> B
-1.441549	I <sil> D
-2.457853	I <sil> D0
-2.457853	I <sil> E0
-1.490362	I <sil> F
-1.397672	I <sil> G
-0.8783339	I <sil> I
-2.033602	I <sil> J0
-1.256417	I <sil> K
-2.457853	I <sil> KH
-2.266858	I <sil> L0
-1.545365	I <sil> M
-1.682064	I <sil> N
-1.545365	I <sil> N0
-1.882675	I <sil> O0
-1.045638	I <sil> P
-2.266858	I <sil> P0
-2.266858	I <sil> R
-1.545365	I <sil> S
-2.457853	I <sil> S0
-1.682064	I <sil> SH
-1.882675	I <sil> T
-2.266858	I <sil> T0
-2.033602	I <sil> TSH0
-1.490362	I <sil> U
-1.682064	I <sil> V
-2.457853	I <sil> V0
-1.608358	I <sil> Z
-2.457853	I <sil> Zl
-1.283249	I0 <sil> A
-1.474243	I0 <sil> E0
-1.474243	I0 <sil> G
-1.474243	I0 <sil> I
-1.474243	I0 <sil> N
-1.283249	I0 <sil> P
-1.283249	I0 <sil> S
-0.9310661	Il <sil> A
-1.186168	J0 <sil> A
-1.537707	J0 <sil> B0
-1.961957	J0 <sil> D
-1.770963	J0 <sil> G
-1.112463	J0 <sil> I
-1.537707	J0 <sil> J0
-1.274992	J0 <sil> K
-1.537707	J0 <sil> L0
-1.961957	J0 <sil> M
-1.770963	J0 <sil> O0
-1.274992	J0 <sil> P
-1.186168	J0 <sil> S
-1.770963	J0 <sil> S0
-1.770963	J0 <sil> SH
-1.770963	J0 <sil> T
-1.274992	J0 <sil> V
-1.961957	J0 <sil> V0
-1.208064	K <sil> A
-1.592247	K <sil> B0
-1.783242	K <sil> F
-0.9337472	K <sil> I
-1.783242	K <sil> K
-1.783242	K <sil> L0
-1.592247	K <sil> N
-1.783242	K <sil> N0
-1.592247	K <sil> P
-1.783242	K <sil> S
-1.358991	K <sil> SH
-1.783242	K <sil> T
-1.783242	K <sil> U
-1.592247	K <sil> V
-1.592247	K <sil> Z
-1.622663	KH <sil> A
-1.431668	KH <sil> B
-1.622663	KH <sil> B0
-1.431668	KH <sil> F
-0.9356977	KH <sil> I
-1.622663	KH <sil> K
-1.047485	KH <sil> P
-1.622663	KH <sil> U0
-1.018672	L <sil> A
-1.705637	L <sil> I
-1.705637	L <sil> J0
-1.281386	L <sil> K
-1.13046	L <sil> N
-1.705637	L <sil> N0
-1.13046	L <sil> P
-1.705637	L <sil> S
-0.929848	L <sil> SH
-1.705637	L <sil> V
-1.705637	L <sil> V0
-1.298152	L0 <sil> A
-1.107157	L0 <sil> I
-1.298152	L0 <sil> K
-1.298152	L0 <sil> N0
-1.298152	L0 <sil> S
-1.127883	M <sil> A
-1.4022	M <sil> G
-0.9171971	M <sil> I
-1.4022	M <sil> J0
-1.201589	M <sil> K
-1.977378	M <sil> KH
-1.977378	M <sil> L
-1.4022	M <sil> N
-1.553127	M <sil> O0
-1.06489	M <sil> P
-1.4022	M <sil> S
-1.977378	M <sil> SH
-1.977378	M <sil> T
-1.977378	M <sil> Y
-1.977378	M <sil> Z
-1.574358	N <sil> A
-1.150107	N <sil> I
-1.383364	N <sil> K
-1.150107	N <sil> N
-1.574358	N <sil> N0
-1.383364	N <sil> P
-1.383364	N <sil> SH
-1.474243	O0 <sil> A
-1.049992	O0 <sil> I
-1.474243	O0 <sil> K
-1.474243	O0 <sil> KH
-1.474243	O0 <sil> N
-1.474243	O0 <sil> S0
-1.283249	O0 <sil> SH
-1.474243	O0 <sil> T
-1.042879	P <sil> I
-1.042879	P <sil> V
-1.321633	R <sil> A
-1.321633	R <sil> K
-1.130638	R <sil> P
-1.383364	S <sil> A
-1.574358	S <sil> B
-0.887393	S <sil> I
-0.9991807	S <sil> P
-1.574358	S <sil> S
-1.574358	S <sil> SH
-1.574358	S <sil> V
-1.024004	S0 <sil> A
-1.599182	S0 <sil> B
-1.599182	S0 <sil> F
-0.9122165	S0 <sil> I
-1.599182	S0 <sil> N
-1.599182	S0 <sil> O0
-1.024004	S0 <sil> P
-1.599182	S0 <sil> SH
-1.599182	S0 <sil> V
-0.7814147	T <sil> A
-1.91794	T <sil> B
-1.91794	T <sil> E0
-1.91794	T <sil> F
-1.342763	T <sil> I
-1.726946	T <sil> J0
-1.49369	T <sil> K
-1.49369	T <sil> N
-1.49369	T <sil> N0
-0.9016369	T <sil> P
-1.342763	T <sil> S
-1.49369	T <sil> SH
-1.726946	T <sil> T
-1.726946	T <sil> U
-1.91794	T <sil> V
-1.91794	T <sil> V0
-1.326199	T0 <sil> A
-1.750449	T0 <sil> B
-0.9009547	T0 <sil> I
-1.326199	T0 <sil> K
-1.559455	T0 <sil> N
-1.559455	T0 <sil> N0
-1.175272	T0 <sil> P
-0.9746603	T0 <sil> S
-1.559455	T0 <sil> SH
-1.750449	T0 <sil> U
-0.9971218	TS <sil> J0
-0.9971218	TS <sil> TSH0
-0.4677018	TSH0 <sil> P
-1.34714	U <sil> A
-1.843111	U <sil> B
-1.458928	U <sil> D
-2.034105	U <sil> E0
-1.609855	U <sil> F
-1.258316	U <sil> G
-1.017802	U <sil> I
-2.034105	U <sil> J0
-1.121618	U <sil> K
-2.034105	U <sil> L
-2.034105	U <sil> M
-1.458928	U <sil> N
-2.034105	U <sil> N0
-1.609855	U <sil> P
-2.034105	U <sil> P0
-1.843111	U <sil> R
-2.034105	U <sil> S
-2.034105	U <sil> SH
-1.843111	U <sil> T
-2.034105	U <sil> U
-1.34714	U <sil> V
-1.843111	U <sil> V0
-1.458928	U <sil> Z
-1.123778	U0 <sil> A
-1.548029	U0 <sil> D
-1.548029	U0 <sil> I
-0.8610641	U0 <sil> K
-1.357035	U0 <sil> N
-1.357035	U0 <sil> O0
-1.548029	U0 <sil> P
-1.357035	U0 <sil> SH
-1.248009	Y <sil> A
-1.510723	Y <sil> B
-1.934974	Y <sil> D
-1.510723	Y <sil> F
-1.934974	Y <sil> G
-1.159185	Y <sil> I
-1.934974	Y <sil> J0
-1.359796	Y <sil> K
-1.248009	Y <sil> N
-1.248009	Y <sil> P
-1.743979	Y <sil> R
-0.9186702	Y <sil> S
-1.510723	Y <sil> U
-1.510723	Y <sil> V
-1.934974	Y <sil> Z0
-1.249825	Y0 <sil> I
-1.440819	Y0 <sil> J0
-1.249825	Y0 <sil> K
-1.440819	Y0 <sil> N
-1.440819	Y0 <sil> P
-1.440819	Y0 <sil> R
-1.440819	Y0 <sil> V0
-1.405132	<s> A B
-1.124607	<s> A D
-1.901103	<s> A D0
-1.901103	<s> A F
-2.092097	<s> A J0
-2.092097	<s> A K
-2.092097	<s> A L
-2.092097	<s> A M
-0.890662	<s> A N
-1.124607	<s> A N0
-1.51692	<s> A P
-1.901103	<s> A Pl
-1.242603	<s> A S
-1.901103	<s> A S0
-2.092097	<s> A SH
-1.316308	<s> A T
-1.405132	<s> A T0
-2.092097	<s> A TS
-2.092097	<s> A Tl
-2.092097	<s> A U0
-1.242603	<s> A V
-1.202667	<sil> A B
-1.79472	<sil> A B0
-1.643793	<sil> A D
-1.443181	<sil> A D0
-2.218971	<sil> A G
-2.218971	<sil> A G0
-2.027976	<sil> A J0
-1.369476	<sil> A K
-2.218971	<sil> A M
-0.9610775	<sil> A N
-1.306483	<sil> A N0
-2.218971	<sil> A O0
-1.443181	<sil> A P
-2.218971	<sil> A R
-1.118942	<sil> A S
-0.8257188	<sil> A T
-1.643793	<sil> A T0
-1.443181	<sil> A V
-2.218971	<sil> A Z
-2.027976	<sil> A ZH
-2.059913	B A </s>
-1.372947	B A <sil>
-2.059913	B A D
-1.868918	B A F
-1.635662	B A G
-2.059913	B A G0
-2.059913	B A J0
-1.210418	B A K
-1.635662	B A L
-0.752064	B A L0
-1.868918	B A M
-1.635662	B A M0
-2.059913	B A N
-2.059913	B A P
-1.043609	B A R
-1.868918	B A R0
-2.059913	B A R0l
-1.868918	B A S
-2.059913	B A TSH0
-1.147425	B A V
-1.635662	B A ZH
-1.573699	D A </s>
-1.339754	D A <sil>
-1.310609	D A B
-2.350195	D A B0
-1.966012	D A D0
-2.350195	D A E0
-2.116939	D A F
-2.350195	D A G
-1.966012	D A I
-1.110806	D A J0
-1.404664	D A K
-1.854225	D A KH
-1.481009	D A L
-1.147938	D A L0
-1.076601	D A M
-2.116939	D A M0
-1.966012	D A N
-1.765401	D A N0
-1.765401	D A Nl
-2.54119	D A P
-1.210365	D A R
-2.350195	D A R0
-1.524886	D A S
-1.481009	D A S0
-2.350195	D A SH
-1.524886	D A T
-2.350195	D A T0
-1.854225	D A TSH0
-2.350195	D A U0
-1.029868	D A V
-2.54119	D A V0
-2.54119	D A Z
-2.350195	D A ZH
-0.572871	D0 A <sil>
-0.9459692	Dl A KH
-0.8061274	E0 A B0
-0.9971218	E0 A N0
-1.42309	F A D
-1.42309	F A K
-0.9988397	F A M0
-1.42309	F A N
-1.42309	F A R
-1.232096	F A S
-0.7361253	F A T
-2.023462	G A </s>
-1.598218	G A <sil>
-2.447713	G A B0
-1.872535	G A D
-2.447713	G A D0
-2.256719	G A G
-1.872535	G A J0
-2.023462	G A KH
-1.054461	G A L
-1.431409	G A L0
-1.535225	G A M
-1.598218	G A M0
-1.760748	G A N
-2.023462	G A N0
-1.760748	G A P
-1.277521	G A R
-1.18982	G A R0
-1.054461	G A S
-1.347684	G A S0
-1.431409	G A T
-2.023462	G A T0
-2.447713	G A TS
-2.256719	G A U
-0.7672797	G A V
-2.447713	G A V0
-2.447713	G A Y
-2.023462	G A Z0
-2.256719	G A ZH
-1.014733	I A B
-0.9445692	I A D
-1.690511	I A D0
-1.338972	I A G
-1.427796	I A K
-1.539584	I A L0
-1.690511	I A M0
-1.202274	I A N
-2.114761	I A N0
-1.427796	I A P
-2.114761	I A P0
-1.054581	I A S
-0.8841802	I A T
-2.114761	I A T0
-2.114761	I A TS
-1.923767	I A TSH0
-2.114761	I A ZH
-0.7418492	I0 A S
-0.7418492	I0 A TS
-1.265384	J0 A </s>
-0.8197508	J0 A <sil>
-1.419273	J0 A B
-1.860399	J0 A D
-2.435576	J0 A D0
-1.659787	J0 A F
-1.177683	J0 A I
-2.244582	J0 A J0
-1.265384	J0 A K
-1.860399	J0 A L
-2.244582	J0 A L0
-1.748611	J0 A M
-1.860399	J0 A M0
-1.586082	J0 A N
-1.523089	J0 A N0
-1.860399	J0 A O0
-1.375396	J0 A P
-2.435576	J0 A Pl
-2.011325	J0 A R
-2.435576	J0 A R0
-1.177683	J0 A S
-2.244582	J0 A S0
-2.011325	J0 A SH
-1.748611	J0 A T
-2.435576	J0 A T0
-2.244582	J0 A TS
-1.860399	J0 A U
-1.419273	J0 A V
-2.244582	J0 A V0
-1.860399	J0 A ZH
-1.626584	K A </s>
-1.569624	K A <sil>
-1.939827	K A B
-2.313042	K A B0
-2.313042	K A D
-2.575757	K A D0
-3.000007	K A E0
-1.606756	K A F
-2.809013	K A F0
-1.154995	K A G
-2.08752	K A I
-1.122031	K A J0
-1.39595	K A K
-1.626584	K A K0
-2.150513	K A KH
-1.669183	K A L
-1.350678	K A L0
-3.000007	K A L0l
-1.272225	K A M
-1.503712	K A M0
-3.000007	K A Ml
-1.319574	K A N
-1.254642	K A N0
-3.000007	K A O0
-1.626584	K A P
-2.42483	K A P0
-1.408046	K A R
-1.939827	K A R0
-3.000007	K A R0l
-1.939827	K A S
-2.224218	K A S0
-2.08752	K A SH
-1.183295	K A T
-2.032517	K A T0
-2.032517	K A TSH0
-2.575757	K A U
-1.372724	K A V
-2.575757	K A V0
-0.9961515	K A Z
-2.08752	K A ZH
-2.064072	KH A </s>
-1.405572	KH A <sil>
-1.830816	KH A B
-2.064072	KH A D
-0.7437454	KH A D0
-2.064072	KH A K
-2.255067	KH A KH
-0.8816435	KH A L
-1.679889	KH A M
-1.679889	KH A N0
-2.064072	KH A P
-0.9472182	KH A R
-2.064072	KH A S
-1.479278	KH A T
-0.8428526	KH A T0
-1.679889	KH A TSH0
-1.830816	KH A Z0
-0.6449392	Kl A T
-1.466802	L A </s>
-1.305224	L A <sil>
-1.76066	L A B
-2.897185	L A B0
-1.416454	L A D
-1.76066	L A D0
-2.897185	L A E0
-1.929695	L A F
-1.666604	L A G
-2.322008	L A I
-2.897185	L A I0
-1.258739	L A J0
-1.503934	L A K
-2.706191	L A K0
-1.984698	L A KH
-2.047691	L A L
-2.121396	L A L0
-1.69575	L A M
-1.984698	L A M0
-1.726993	L A N
-1.503934	L A N0
-2.897185	L A Nl
-1.589337	L A P
-2.322008	L A R
-1.330476	L A S
-0.9029374	L A S0
-2.121396	L A SH
-2.322008	L A SH0
-2.472934	L A Sl
-1.237238	L A T
-1.639292	L A T0
-2.472934	L A TSH0
-2.322008	L A U
-2.897185	L A U0
-1.20686	L A V
-1.293128	L A V0
-2.897185	L A Y
-1.484971	L A Z
-1.69575	L A Z0
-1.523762	L A ZH
-0.9310661	L0 A </s>
-0.9310661	L0 A <sil>
-1.12206	L0 A S0
-1.776293	M A </s>
-1.639594	M A <sil>
-1.776293	M A D
-2.361087	M A D0
-1.976904	M A F
-1.199436	M A G
-2.552082	M A G0
-2.361087	M A I
-1.776293	M A I0
-0.8716486	M A J0
-2.127831	M A K
-2.552082	M A K0
-1.865117	M A KH
-1.026237	M A L
-1.639594	M A L0
-1.976904	M A M
-1.976904	M A M0
-1.584591	M A N
-2.127831	M A N0
-2.361087	M A P
-1.244233	M A R
-2.361087	M A R0
-1.415556	M A S
-1.865117	M A S0
-2.552082	M A S0l
-1.584591	M A SH
-1.976904	M A SH0
-1.055786	M A T
-1.535778	M A T0
-2.361087	M A TS
-1.639594	M A TSH0
-2.552082	M A U0
-1.865117	M A V
-2.552082	M A Z0
-1.056005	M0 A </s>
-0.8227485	M0 A <sil>
-1.056005	M0 A K
-1.189007	Ml A J0
-0.9980129	Ml A KH
-0.9980129	Ml A L
-1.189007	Ml A P
-1.489429	N A </s>
-1.440313	N A <sil>
-1.608315	N A B
-2.280349	N A B0
-1.51624	N A D
-1.956109	N A D0
-2.039834	N A E0
-1.662886	N A F
-1.464177	N A G
-2.14365	N A I
-0.932609	N A J0
-1.153482	N A K
-2.865144	N A K0
-1.854703	N A KH
-3.056138	N A L
-1.854703	N A L0
-1.254298	N A M
-1.725313	N A M0
-1.854703	N A N
-1.703492	N A N0
-1.218029	N A P
-2.48096	N A P0
-1.725313	N A R
-2.631887	N A R0
-1.365813	N A S
-1.328356	N A S0
-1.854703	N A SH
-1.559842	N A T
-2.088648	N A T0
-2.631887	N A TS
-1.575406	N A TSH0
-2.206643	N A U
-2.088648	N A U0
-1.246798	N A V
-1.464177	N A V0
-3.056138	N A V0l
-3.056138	N A Vl
-1.662886	N A Z
-2.14365	N A Z0
-2.369173	N A ZH
-1.082334	N0 A </s>
-1.273328	N0 A <sil>
-1.082334	N0 A P
-2.114761	Nl A </s>
-1.690511	Nl A <sil>
-1.923767	Nl A D
-2.114761	Nl A D0
-2.114761	Nl A E0
-2.114761	Nl A G
-2.114761	Nl A I
-0.5228	Nl A J0
-1.054581	Nl A M
-2.114761	Nl A M0
-2.114761	Nl A N
-1.690511	Nl A N0
-1.690511	Nl A P
-2.114761	Nl A S
-1.923767	Nl A S0
-2.114761	Nl A T
-0.8069127	Nl A V
-2.114761	Nl A Z
-1.174104	O0 A D
-1.365098	O0 A K
-1.174104	O0 A N
-1.365098	O0 A P0
-0.789921	O0 A S
-1.985305	P A B
-2.210827	P A B0
-0.8279452	P A D
-1.589944	P A D0
-2.897792	P A DZ0
-2.897792	P A DZH
-2.210827	P A E0
-2.210827	P A F
-1.667211	P A G
-2.122003	P A G0
-2.706798	P A I
-1.797764	P A J0
-1.152427	P A K
-2.706798	P A K0
-1.639899	P A KH
-1.032703	P A L
-1.639899	P A L0
-1.930302	P A M
-1.930302	P A M0
-1.930302	P A N
-1.614204	P A N0
-1.485578	P A P
-2.322615	P A P0
-1.545146	P A R
-2.473541	P A R0
-0.995136	P A S
-1.589944	P A S0
-1.696357	P A SH
-1.179076	P A T
-2.322615	P A T0
-2.897792	P A T0l
-2.048298	P A TS
-1.589944	P A TSH0
-2.897792	P A Tl
-2.706798	P A U
-2.706798	P A U0
-1.985305	P A V
-1.881489	P A V0
-1.985305	P A Z
-2.706798	P A Z0
-1.797764	P A ZH
-1.189007	Pl A L0
-0.1727037	Pl A R
-2.120788	R A </s>
-1.588729	R A <sil>
-1.523154	R A B
-2.896577	R A B0
-1.431989	R A D
-2.047083	R A D0
-1.836397	R A F
-2.705583	R A F0
-1.929087	R A G
-1.638684	R A I
-1.29252	R A J0
-1.35668	R A K
-2.705583	R A K0
-1.665996	R A KH
-2.472327	R A L
-2.705583	R A L0
-1.484363	R A M
-2.3214	R A M0
-1.523154	R A N
-1.484363	R A N0
-1.726385	R A P
-2.896577	R A P0
-2.896577	R A R
-1.087238	R A S
-1.304616	R A S0
-2.209612	R A S0l
-1.484363	R A SH
-1.98409	R A SH0
-1.565753	R A Sl
-1.638684	R A T
-1.588729	R A T0
-2.896577	R A TS
-2.3214	R A TSH0
-1.134314	R A V
-1.543931	R A V0
-1.038078	R A Z
-1.929087	R A Z0
-1.543931	R A ZH
-0.6969829	R0 A </s>
-1.739543	S A </s>
-1.347231	S A <sil>
-1.538932	S A B
-1.739543	S A B0
-1.89047	S A D0
-1.214692	S A F
-1.89047	S A J0
-2.123726	S A K
-1.739543	S A KH
-1.465226	S A L
-2.123726	S A L0
-0.8668981	S A M
-2.314721	S A M0
-1.739543	S A N
-2.123726	S A N0
-2.314721	S A Nl
-1.538932	S A P
-1.402233	S A R
-0.9838962	S A S
-1.538932	S A S0
-1.402233	S A T
-2.314721	S A TSH0
-2.314721	S A V
-1.214692	S A V0
-2.314721	S A Z
-1.25148	S0 A </s>
-0.7711478	S0 A <sil>
-1.643793	S0 A B
-1.369476	S0 A F
-2.027976	S0 A G
-2.027976	S0 A I
-1.202667	S0 A K
-2.027976	S0 A L
-2.218971	S0 A M
-1.118942	S0 A N
-1.369476	S0 A P
-2.027976	S0 A P0
-1.79472	S0 A R
-1.369476	S0 A S
-1.532005	S0 A T
-2.218971	S0 A TSH0
-2.027976	S0 A U0
-1.306483	S0 A V
-1.369476	S0 A Z
-2.218971	S0 A ZH
-1.849059	SH A <sil>
-1.658065	SH A B
-1.658065	SH A D
-1.424809	SH A D0
-1.849059	SH A F
-0.8815688	SH A G
-1.162094	SH A J0
-0.9995645	SH A L
-1.849059	SH A L0
-1.849059	SH A P
-1.424809	SH A R
-1.849059	SH A S
-1.658065	SH A T
-1.07327	SH A T0
-0.6449392	SH0 A <sil>
-0.9980129	Sl A B
-0.9980129	Sl A M
-1.189007	Sl A R
-1.680355	T A </s>
-1.463113	T A <sil>
-1.480552	T A B
-2.486685	T A B0
-1.810907	T A D
-2.135147	T A D0
-2.719941	T A D0l
-1.627347	T A F
-1.517684	T A G
-2.910936	T A Gl
-1.850755	T A I
-2.061441	T A I0
-0.9627656	T A J0
-1.220611	T A K
-1.653043	T A K0
-2.061441	T A KH
-1.627347	T A L
-1.943445	T A L0
-2.910936	T A L0l
-1.052436	T A M
-1.894632	T A M0
-1.357425	T A N
-1.603087	T A N0
-2.486685	T A O0
-1.810907	T A P
-1.250989	T A R
-1.850755	T A R0
-1.580111	T A S
-2.910936	T A S0
-2.486685	T A SH
-2.335758	T A SH0
-1.517684	T A T
-2.486685	T A T0
-2.910936	T A TS
-1.850755	T A TSH0
-2.910936	T A U0
-0.9365658	T A V
-2.335758	T A V0
-1.998448	T A Z
-2.335758	T A ZH
-1.232096	T0 A </s>
-1.232096	T0 A B
-1.42309	T0 A N
-1.42309	T0 A N0
-1.232096	T0 A T
-0.9146266	TS A </s>
-0.8903667	TS A <sil>
-2.198215	TS A D
-1.773965	TS A D0
-2.198215	TS A F
-2.007221	TS A G
-1.773965	TS A I
-2.198215	TS A J0
-1.422426	TS A K
-2.007221	TS A M0
-1.623038	TS A N
-2.007221	TS A P
-2.198215	TS A R
-1.422426	TS A S
-1.773965	TS A S0
-1.51125	TS A T
-0.9403222	TS A T0
-2.198215	TS A TSH0
-1.181912	TS A V
-2.198215	TS A Z
-2.198215	TS A Z0
-1.385302	Tl A E0
-0.8101245	Tl A K
-1.194308	Tl A V
-1.385302	Tl A ZH
-1.365098	U A B
-0.5893095	U A T
-1.174104	U A TS
-1.156823	U0 A B
-1.156823	U0 A T
-1.483145	V A </s>
-1.32865	V A <sil>
-1.982872	V A B
-2.895359	V A B0
-1.447536	V A D
-1.835179	V A D0
-1.758834	V A F
-2.471108	V A G
-1.927869	V A I
-1.795331	V A I0
-0.963703	V A J0
-1.725167	V A K
-1.149994	V A L
-1.502108	V A L0
-1.502108	V A M
-2.320182	V A M0
-1.835179	V A N
-1.879056	V A N0
-2.895359	V A Nl
-2.704365	V A O0
-1.502108	V A P
-2.895359	V A P0
-1.205034	V A R
-1.149994	V A R0
-1.31584	V A S
-1.835179	V A S0
-1.795331	V A SH
-1.835179	V A T
-1.587511	V A T0
-2.11957	V A TS
-1.587511	V A TSH0
-2.704365	V A U
-1.369515	V A V
-2.895359	V A V0
-1.521936	V A Z
-2.045865	V A Z0
-1.758834	V A ZH
-0.8330353	Y A B
-1.52	Y A K
-0.8330353	Y A N
-1.09575	Y A S
-1.329006	Y A T
-1.52	Y A T0
-2.283249	Z A </s>
-1.062029	Z A B
-1.624748	Z A D
-2.283249	Z A D0
-2.283249	Z A E0
-1.337717	Z A G
-2.474243	Z A I
-1.787278	Z A J0
-1.121597	Z A K
-2.049992	Z A K0
-2.049992	Z A KH
-1.374214	Z A L
-1.698454	Z A M
-1.243662	Z A M0
-1.698454	Z A N
-1.506753	Z A N0
-1.561755	Z A P
-2.474243	Z A P0
-1.561755	Z A R
-2.474243	Z A R0
-1.080991	Z A S
-1.561755	Z A SH
-1.899065	Z A T
-1.506753	Z A T0
-1.787278	Z A TSH0
-2.474243	Z A U0
-1.121597	Z A V
-1.414062	Z A V0
-2.283249	Z A ZH
-1.321633	ZH A <sil>
-1.130638	ZH A L
-0.8973821	ZH A N
-0.8973821	ZH A S
-1.42309	Zl A B
-1.232096	Zl A K
-1.42309	Zl A N0
-1.232096	Zl A T
-1.42309	Zl A U0
-0.5200005	<s> A0 GH
-1.191978	B A0 J0
-1.767155	B A0 K
-1.767155	B A0 K0
-1.767155	B A0 KH
-1.767155	B A0 KH0
-1.191978	B A0 L
-1.191978	B A0 L0
-1.767155	B A0 M0
-1.576161	B A0 N0
-1.191978	B A0 R
-1.191978	B A0 SH
-1.576161	B A0 T
-1.767155	B A0 V
-1.767155	B A0 V0
-1.408187	B0 A0 </s>
-1.024004	B0 A0 <sil>
-1.024004	B0 A0 F
-1.599182	B0 A0 I
-1.174931	B0 A0 K
-1.599182	B0 A0 R
-1.408187	B0 A0 S
-1.599182	B0 A0 T
-1.408187	B0 A0 Z
-1.759035	D A0 </s>
-1.870822	D A0 <sil>
-1.870822	D A0 D
-2.446	D A0 E0
-2.446	D A0 F
-1.670211	D A0 G
-1.670211	D A0 I
-2.446	D A0 I0
-1.162411	D A0 J0
-2.446	D A0 K
-1.115175	D A0 L
-1.429696	D A0 L0
-1.385819	D A0 M
-2.446	D A0 M0
-1.670211	D A0 N
-1.138151	D A0 N0
-2.021749	D A0 O0
-1.429696	D A0 P
-1.533512	D A0 R
-2.446	D A0 R0
-1.478509	D A0 S
-2.255005	D A0 S0
-1.309474	D A0 T
-1.385819	D A0 T0
-1.870822	D A0 TSH0
-1.759035	D A0 U
-1.870822	D A0 U0
-1.870822	D A0 V
-1.870822	D A0 V0
-2.021749	D A0 Z
-1.115175	D A0 ZH
-0.9300997	D0 A0 D0
-1.505277	D0 A0 J0
-0.818312	D0 A0 M0
-1.314283	D0 A0 P
-0.5927896	D0 A0 SH0
-0.3290061	D0l A0 D0
-0.7418492	Dl A0 ZH
-0.9971218	F A0 N
-1.758883	G A0 <sil>
-1.758883	G A0 D
-0.9093879	G A0 J0
-1.334632	G A0 KH
-0.742579	G A0 L
-1.758883	G A0 M
-1.071917	G A0 N
-1.758883	G A0 Nl
-1.567888	G A0 R
-1.183705	G A0 S0l
-1.232096	I A0 D
-1.42309	I A0 L0
-0.5735958	I A0 N
-0.6473014	I A0 N0
-1.42309	I A0 T
-1.860399	J0 A0 </s>
-1.748611	J0 A0 <sil>
-1.523089	J0 A0 B
-1.265384	J0 A0 D
-1.375396	J0 A0 F
-1.659787	J0 A0 I
-1.419273	J0 A0 J0
-1.586082	J0 A0 K
-2.435576	J0 A0 K0
-2.011325	J0 A0 KH
-1.375396	J0 A0 L
-2.244582	J0 A0 L0
-2.435576	J0 A0 M
-1.523089	J0 A0 N
-1.151987	J0 A0 N0
-2.244582	J0 A0 Nl
-2.011325	J0 A0 O0
-1.335548	J0 A0 P
-1.523089	J0 A0 R
-1.29905	J0 A0 S
-1.748611	J0 A0 SH0
-1.29905	J0 A0 T
-1.468086	J0 A0 T0
-2.011325	J0 A0 U
-2.244582	J0 A0 U0
-1.265384	J0 A0 V
-1.860399	J0 A0 V0
-1.468086	J0 A0 Z
-1.748611	J0 A0 ZH
-0.5200005	J0l A0 Z
-2.291218	K A0 </s>
-2.482212	K A0 <sil>
-2.291218	K A0 D
-2.291218	K A0 F
-1.034389	K A0 G
-1.00148	K A0 J0
-0.4643312	K A0 K
-1.706423	K A0 KH
-2.482212	K A0 Kl
-1.345686	K A0 L
-2.482212	K A0 L0
-2.482212	K A0 M
-1.224319	K A0 M0
-2.291218	K A0 Ml
-2.057961	K A0 N
-2.057961	K A0 N0
-2.057961	K A0 P
-2.482212	K A0 R
-2.291218	K A0 R0
-2.057961	K A0 S
-2.482212	K A0 SH
-2.057961	K A0 T
-1.514722	K A0 T0
-2.482212	K A0 TS
-1.706423	K A0 Z
-1.422031	K A0 ZH
-1.321633	KH A0 J0
-0.8973821	KH A0 N0
-1.321633	KH A0 R
-1.321633	KH A0 T
-1.321633	KH A0 U
-1.321633	KH A0 V
-0.2010121	Kl A0 K
-1.730153	L A0 </s>
-1.618365	L A0 <sil>
-1.455836	L A0 B
-1.730153	L A0 D
-2.114336	L A0 D0
-1.455836	L A0 F
-2.30533	L A0 G
-2.114336	L A0 G0
-1.103895	L A0 J0
-1.88108	L A0 K
-2.30533	L A0 L
-1.88108	L A0 M
-1.205302	L A0 N
-1.730153	L A0 N0
-2.30533	L A0 O0
-1.24515	L A0 P
-1.88108	L A0 R
-1.392843	L A0 S
-1.618365	L A0 S0
-1.730153	L A0 SH0
-2.114336	L A0 Sl
-1.24515	L A0 T
-1.618365	L A0 T0
-1.730153	L A0 TSH0
-2.30533	L A0 U
-2.30533	L A0 U0
-1.135138	L A0 V
-2.30533	L A0 V0
-2.30533	L A0 Z
-2.114336	L A0 Z0
-0.8461195	L0 A0 D
-1.862423	L0 A0 D0
-1.671429	L0 A0 F
-1.862423	L0 A0 G
-0.8949328	L0 A0 J0
-1.086634	L0 A0 L
-1.438172	L0 A0 L0
-1.287246	L0 A0 N
-1.862423	L0 A0 P
-1.287246	L0 A0 T
-1.671429	L0 A0 T0
-1.862423	L0 A0 TS
-1.862423	L0 A0 V
-1.862423	L0 A0 Z
-1.61999	M A0 <sil>
-1.61999	M A0 G
-2.195168	M A0 G0
-1.024976	M A0 J0
-2.195168	M A0 K
-2.195168	M A0 KH
-2.195168	M A0 KH0
-1.134987	M A0 L
-0.887319	M A0 L0
-1.345673	M A0 N
-1.508202	M A0 N0
-2.195168	M A0 P
-1.024976	M A0 R
-1.508202	M A0 S
-2.195168	M A0 S0
-2.004173	M A0 SH
-2.004173	M A0 T
-0.9937323	M A0 T0
-2.195168	M A0 TS
-1.61999	M A0 TSH0
-0.6186285	M0 A0 KH
-1.042879	M0 A0 N0
-0.8518848	M0 A0 SH0
-0.4539448	Ml A0 R
-1.815307	N A0 </s>
-1.927094	N A0 <sil>
-1.652777	N A0 B
-1.927094	N A0 B0
-1.149626	N A0 D
-2.502272	N A0 F
-2.311277	N A0 G
-2.502272	N A0 I
-0.962374	N A0 J0
-1.442091	N A0 K
-2.502272	N A0 KH
-1.149626	N A0 L
-1.652777	N A0 L0
-1.365746	N A0 M
-1.927094	N A0 M0
-1.927094	N A0 N
-1.534781	N A0 N0
-1.300836	N A0 P
-1.071888	N A0 S
-1.534781	N A0 SH
-1.726483	N A0 T
-1.815307	N A0 T0
-1.365746	N A0 TS
-1.300836	N A0 TSH0
-2.311277	N A0 U
-1.815307	N A0 V
-2.502272	N A0 V0
-1.815307	N A0 Z
-2.311277	N A0 ZH
-1.342763	N0 A0 </s>
-1.49369	N0 A0 <sil>
-1.91794	N0 A0 B
-0.9504502	N0 A0 F
-1.49369	N0 A0 I
-1.230975	N0 A0 J0
-1.142151	N0 A0 L
-1.726946	N0 A0 L0
-1.342763	N0 A0 N0
-1.726946	N0 A0 O0
-1.91794	N0 A0 S
-1.726946	N0 A0 T
-1.142151	N0 A0 T0
-1.91794	N0 A0 V0
-1.068446	P A0 D
-1.91794	P A0 J0
-1.726946	P A0 KH
-0.9016369	P A0 L
-0.7814147	P A0 L0
-1.230975	P A0 M0
-1.91794	P A0 N
-1.142151	P A0 R
-1.91794	P A0 R0
-1.230975	P A0 SH
-1.726946	P A0 T0
-1.91794	P A0 V0
-1.726946	P A0 ZH
-1.194308	P0 A0 SH0
-0.2852733	P0 A0 T0
-1.385302	P0 A0 TS
-1.385302	P0 A0 Tl
-2.53143	R A0 </s>
-1.956252	R A0 <sil>
-1.361238	R A0 D
-2.107179	R A0 D0
-2.340436	R A0 F
-2.107179	R A0 F0
-1.223581	R A0 J0
-2.53143	R A0 J0l
-2.340436	R A0 K
-1.755641	R A0 KH
-1.56394	R A0 L
-1.755641	R A0 L0
-1.844465	R A0 M
-1.329995	R A0 N
-1.755641	R A0 N0
-2.53143	R A0 N0l
-1.681935	R A0 Nl
-0.871483	R A0 S
-2.340436	R A0 S0
-1.515126	R A0 SH
-1.200605	R A0 T
-1.471249	R A0 T0
-1.844465	R A0 TS
-1.515126	R A0 TSH0
-1.101047	R A0 V
-1.681935	R A0 V0
-1.035134	R A0 Z
-1.844465	R A0 Z0
-2.53143	R A0 ZH
-2.53143	R A0 Zl
-0.7747636	R0 A0 D
-1.791067	R0 A0 J0
-1.600073	R0 A0 L
-1.600073	R0 A0 M
-1.015278	R0 A0 M0
-1.791067	R0 A0 S0
-0.9415726	R0 A0 T
-1.600073	R0 A0 T0
-1.366817	R0 A0 TSH0
-1.366817	R0 A0 Z
-1.798754	S A0 <sil>
-1.60776	S A0 D0
-1.60776	S A0 J0
-1.60776	S A0 KH
-1.798754	S A0 L
-0.3509314	S A0 M
-1.022965	S A0 M0
-1.60776	S A0 T0
-1.798754	S A0 V0
-1.534241	S0 A0 F
-0.7584519	S0 A0 K
-0.7584519	S0 A0 K0
-1.343247	S0 A0 SH0
-1.534241	S0 A0 T
-1.599182	SH A0 </s>
-1.599182	SH A0 F
-1.174931	SH A0 J0
-1.599182	SH A0 P
-0.6316914	SH A0 R
-1.174931	SH A0 R0
-1.599182	SH A0 T0
-1.599182	SH A0 ZH
-0.5551124	SH0 A0 J0
-1.213613	SH0 A0 L
-1.213613	SH0 A0 L0
-1.404607	SH0 A0 S
-1.404607	SH0 A0 S0
-1.213613	SH0 A0 T0
-2.457853	T A0 B
-1.770887	T A0 F
-1.882675	T A0 F0
-1.441549	T A0 G
-2.457853	T A0 Gl
-1.256417	T A0 J0
-0.8537953	T A0 K
-2.457853	T A0 KH
-2.266858	T A0 Kl
-0.72119	T A0 L
-1.084429	T A0 L0
-1.105206	T A0 M
-2.457853	T A0 M0
-2.266858	T A0 N
-1.490362	T A0 N0
-1.321327	T A0 R
-2.457853	T A0 S
-2.457853	T A0 SH
-1.682064	T A0 T
-1.882675	T A0 T0
-1.882675	T A0 V
-1.28766	T A0 V0
-2.266858	T A0 ZH
-1.189007	T0 A0 B
-0.7647566	T0 A0 G0
-1.189007	T0 A0 SH0
-0.8973821	TS A0 </s>
-1.321633	TS A0 <sil>
-1.321633	TS A0 K
-1.321633	TS A0 N
-1.321633	TS A0 R
-1.321633	TS A0 T0
-2.084272	TSH0 A0 </s>
-2.084272	TSH0 A0 F
-0.6910202	TSH0 A0 J0
-2.084272	TSH0 A0 KH
-0.7108486	TSH0 A0 L
-1.509094	TSH0 A0 L0
-2.084272	TSH0 A0 M
-2.084272	TSH0 A0 M0
-1.660021	TSH0 A0 N0
-0.9477462	TSH0 A0 S
-1.893278	TSH0 A0 S0
-1.660021	TSH0 A0 SH
-1.509094	TSH0 A0 SH0
-1.893278	TSH0 A0 Sl
-2.084272	TSH0 A0 T
-1.893278	TSH0 A0 T0
-1.893278	TSH0 A0 Z
-0.3127998	U A0 R
-2.383323	V A0 <sil>
-2.383323	V A0 B
-2.383323	V A0 D
-0.9355006	V A0 J0
-0.8298131	V A0 L
-1.152742	V A0 L0
-1.246798	V A0 M
-2.383323	V A0 M0
-1.470836	V A0 N
-1.696358	V A0 N0
-1.246798	V A0 R
-1.213131	V A0 R0
-1.181888	V A0 S
-1.323143	V A0 SH
-1.415833	V A0 T
-1.36702	V A0 T0
-1.533829	V A0 TS
-2.383323	V A0 Z
-1.808146	V A0 ZH
-1.273328	V0 A0 KH
-1.273328	V0 A0 Nl
-0.3608406	V0 A0 Z
-2.236004	Z A0 D0
-1.386509	Z A0 F
-2.236004	Z A0 G
-2.236004	Z A0 J0
-2.045009	Z A0 KH
-0.3909914	Z A0 L
-1.460215	Z A0 L0
-2.236004	Z A0 Ll
-1.811753	Z A0 M
-2.045009	Z A0 M0
-1.549039	Z A0 N
-1.811753	Z A0 N0
-1.135975	Z A0 P
-2.045009	Z A0 R
-2.236004	Z A0 S
-1.811753	Z A0 T
-1.135975	Z A0 T0
-1.660826	Z A0 TS
-1.321633	Z0 A0 B
-0.7464554	Z0 A0 I
-0.8973821	Z0 A0 L
-1.321633	Z0 A0 S
-1.321633	Z0 A0 SH0
-1.324397	ZH A0 F
-0.8411701	ZH A0 J0
-0.4318435	ZH A0 L
-1.098875	ZH A0 L0
-1.820368	ZH A0 M0
-1.587111	ZH A0 R
-2.011362	ZH A0 R0
-1.820368	ZH A0 S
-2.011362	ZH A0 SH0
-1.436185	ZH A0 T0
-1.820368	ZH A0 ZH
-0.7418492	Zl A0 D0
-1.12206	D Al B
-0.3462714	D Al N
-1.321633	J0 Al D0
-1.321633	J0 Al P0
-1.130638	J0 Al R
-0.7464554	J0 Al T
-1.156823	K Al D
-1.156823	K Al N0
-1.156823	K Al R
-0.3058378	L Al N
-1.082334	L Al T
-0.6449392	M Al R0
-1.52	N Al B
-1.329006	N Al D
-1.329006	N Al P
-1.52	N Al P0
-1.09575	N Al S
-1.329006	N Al S0
-1.329006	N Al T
-1.52	N Al TSH0
-0.6300361	P Al D0
-0.6449392	R Al N0
-0.9459692	S Al B
-0.7549748	S Al P
-0.1666718	S0 Al T
-0.9971218	T Al T
-0.9459692	TS Al S
-0.9459692	TS Al T
-1.232096	V Al B
-1.42309	V Al G
-1.42309	V Al N0
-0.6473014	V Al P
-1.42309	V Al R
-1.232096	V Al T
-1.246999	<s> B R
-0.8227485	<s> B U0
-0.4712102	<s> B Y0
-0.8999821	<sil> B A
-1.586947	<sil> B L
-1.586947	<sil> B R
-0.7374526	<sil> B U0
-0.7374526	<sil> B Y
-0.8999821	<sil> B Y0
-1.175921	A B A
-1.232379	A B A0
-2.24282	A B E0
-1.417511	A B J0
-1.746849	A B L
-1.263622	A B L0
-2.24282	A B M
-2.009564	A B N0
-0.7953681	A B O0
-1.003431	A B R
-1.658025	A B R0
-1.466324	A B U
-1.521327	A B U0
-0.9859916	A B Y
-0.7635035	A B Y0
-1.090951	A0 B A
-1.090951	A0 B L
-1.475134	A0 B R
-1.475134	A0 B R0
-1.241878	A0 B U0
-0.6059479	A0 B Y
-1.090951	A0 B Y0
-0.5090944	Al B R
-1.321633	D B A
-1.130638	D B O0
-0.2614522	D B Y0
-0.6600212	D0 B A
-1.084272	D0 B Y
-0.6600212	D0 B Y0
-0.5067527	E0 B A
-1.474243	E0 B O0
-1.474243	E0 B R0
-1.283249	E0 B U
-1.474243	E0 B Y
-0.698454	E0 B Y0
-1.321633	G B L0
-0.6346677	G B U0
-0.4721382	G B Y
-1.321633	G B Y0
-1.218971	GH B L0
-1.218971	GH B O0
-1.218971	GH B U0
-0.7947198	GH B Y
-1.027976	GH B Y0
-0.9242293	I B A
-1.109361	I B A0
-1.93467	I B L
-1.158174	I B L0
-1.349876	I B O0
-1.213177	I B R
-2.125665	I B R0
-0.817816	I B U
-1.438699	I B U0
-1.213177	I B Y
-0.6778419	I B Y0
-1.056005	I0 B A
-1.246999	I0 B L0
-1.246999	I0 B Y
-0.560034	I0 B Y0
-0.3439092	Il B A
-1.084272	J0 B A0
-0.5090944	J0 B Y0
-0.7549748	L B R
-0.3707917	L B Y
-0.6449392	L0 B O0
-0.9408478	M B A
-0.9408478	M B L0
-1.174104	M B O0
-1.365098	M B U
-1.174104	M B Y
-1.365098	M B Y0
-1.246999	N B O0
-1.246999	N B U
-0.2795089	N B Y0
-1.469887	O0 B A
-1.703143	O0 B L0
-1.118348	O0 B N
-1.469887	O0 B O0
-1.469887	O0 B R
-1.894138	O0 B U0
-0.3406273	O0 B Y
-0.877834	O0 B Y0
-0.2206885	R B U0
-0.3439092	R0 B Y0
-1.630036	U B A
-0.8047268	U B A0
-1.245853	U B L0
-1.82103	U B N0
-0.4683844	U B O0
-1.82103	U B U
-1.630036	U B U0
-1.245853	U B V0
-1.39678	U B Y0
-0.4480006	U0 B A
-1.548029	U0 B L0
-1.548029	U0 B O0
-0.7722402	U0 B Y
-1.548029	U0 B Y0
-0.9459692	V B L
-0.9459692	V B U
-0.3439092	V0 B U0
-1.081027	Y B A
-0.7294882	Y B A0
-1.505277	Y B D
-1.081027	Y B N
-1.505277	Y B Y
-0.6557826	Y B Y0
-1.042879	Y0 B A
-1.042879	Y0 B R
-1.042879	Y0 B U0
-1.042879	Y0 B Y0
-1.107157	Z B A
-1.298152	Z B A0
-1.298152	Z B O0
-0.7229742	Z B R
-1.298152	Z B U
-1.107157	Z B U0
-0.9459692	Z0 B A0
-0.9459692	Z0 B Y
-0.2206885	<s> B0 I
-1.107157	<sil> B0 E0
-0.161626	<sil> B0 I
-0.6728947	A B0 E0
-0.2217539	A B0 I
-1.308825	A B0 I0
-1.733075	A B0 J0
-0.1701802	A0 B0 I
-0.7549748	D B0 E0
-0.3707917	D B0 I
-0.6449392	D0 B0 E0
-0.6449392	D0 B0 I
-0.244335	E0 B0 I
-0.3439092	G B0 I
-0.4979691	I B0 A0
-0.4474222	I B0 E0
-2.051479	I B0 E0l
-0.8500441	I B0 I
-1.860485	I B0 I0
-1.364514	I B0 O0
-2.051479	I B0 U0
-0.4637266	J0 B0 E0
-0.6969829	J0 B0 I
-0.2206885	M B0 I
-0.04877843	O0 B0 I
-0.5200005	R B0 I
-0.7381467	U B0 E0
-0.6056085	U B0 I
-0.3977885	U B0 I0
-0.2347773	U0 B0 I
-0.9971218	V B0 E0
-0.2213327	V B0 I
-0.8879772	Y B0 E0
-0.8879772	Y B0 J0
-0.5508549	Y0 B0 I
-0.7418492	Y0 B0 J0
-1.130638	Z B0 E0
-0.6346677	Z B0 I
-0.4091452	Z B0 I0
-0.2206885	Z0 B0 I
-0.6847463	<s> D A
-0.4342123	<s> D A0
-1.343247	<s> D L0
-1.534241	<s> D O0
-0.6059479	<sil> D A
-0.5660999	<sil> D A0
-1.666129	<sil> D R
-1.666129	<sil> D R0
-1.666129	<sil> D U0
-1.241878	<sil> D V
-1.666129	<sil> D V0
-1.666129	<sil> D Y
-0.7529229	A D A
-1.090174	A D A0
-2.554763	A D B
-1.979585	A D B0
-2.554763	A D E0
-1.705268	A D G
-1.979585	A D J0
-2.554763	A D L
-1.538459	A D L0
-2.554763	A D M
-2.130512	A D M0
-0.8743294	A D N
-1.014865	A D N0
-1.090174	A D O0
-1.29687	A D R
-2.554763	A D R0
-1.867797	A D U
-1.181339	A D U0
-1.538459	A D V
-1.38457	A D V0
-1.642275	A D Y0
-2.554763	A D Z
-2.554763	A D ZH
-0.2937336	A0 D A
-2.072263	A0 D A0
-1.497086	A0 D B
-1.648012	A0 D N
-2.072263	A0 D N0
-1.881269	A0 D O0
-1.385298	A0 D U
-1.159775	A0 D U0
-0.841682	A0 D Y
-0.0679683	Al D N
-0.5200005	B D V0
-0.3439092	B0 D A
-0.8938196	E0 D A
-0.8388169	E0 D L0
-1.23113	E0 D N
-0.6361151	E0 D N0
-0.8938196	E0 D U
-1.615313	E0 D Y
-1.615313	E0 D Z
-1.493008	G D A
-0.1093448	G D A0
-1.38122	G D Al
-2.068185	G D O0
-1.38122	G D R
-2.068185	G D V0
-0.546883	GH D A
-1.12206	GH D U
-0.8198892	I D A
-0.9295523	I D A0
-2.022146	I D B
-2.213141	I D G
-1.637963	I D L
-1.196837	I D L0
-2.213141	I D M0
-2.022146	I D N0
-1.076615	I D O0
-1.300653	I D R
-1.363646	I D U
-0.8604949	I D U0
-1.78889	I D V
-1.196837	I D V0
-2.213141	I D Y0
-2.022146	I D Z
-1.78889	I D ZH
-0.9991807	I0 D A
-0.3729228	I0 D N
-1.574358	I0 D N0
-1.574358	I0 D R
-1.150107	I0 D Y
-0.8227485	J0 D A
-1.246999	J0 D A0
-1.246999	J0 D O0
-0.8227485	J0 D R
-1.246999	J0 D U0
-0.9610512	L D A
-0.5358073	L D A0
-1.194308	L D R
-0.6983368	L D V0
-0.5200005	L0 D Y0
-1.232096	M D A
-1.42309	M D L0
-1.232096	M D N0
-0.6473014	M D O0
-0.847913	M D V0
-1.218971	N D A
-1.218971	N D A0
-1.218971	N D O0
-0.7947198	N D R
-1.218971	N D Y
-0.4558371	O0 D A
-1.542908	O0 D A0
-1.776164	O0 D B
-1.967159	O0 D L0
-0.8671299	O0 D N
-1.117664	O0 D N0
-1.967159	O0 D R
-1.391981	O0 D U
-1.967159	O0 D V
-1.280193	O0 D Y
-1.542908	O0 D ZH
-0.3175985	R D A
-0.9492594	U D A
-0.2452438	U D A0
-1.60776	U D G
-1.798754	U D L0
-1.111789	U D O0
-0.4749124	U0 D A
-1.676348	U0 D Al
-0.9005587	U0 D N
-1.676348	U0 D R
-0.7088574	U0 D U
-0.6902688	V D A
-1.175272	V D O0
-0.4426008	V D R
-1.559455	V D U
-1.750449	V D V
-0.9991807	Y D A
-0.6618705	Y D A0
-0.887393	Y D B
-1.150107	Y D O0
-1.383364	Y D R
-0.4350953	Y0 D A
-0.9310661	Y0 D U0
-0.5917994	Z D A
-0.9629006	Z D A0
-1.684394	Z D G
-1.684394	Z D O0
-1.684394	Z D R
-0.9078978	Z D U
-1.451137	Z D U0
-1.451137	Z D V
-1.300211	Z D V0
-1.684394	Z D Y
-0.8932775	Z0 D A
-1.084272	Z0 D O0
-0.9660602	ZH D A
-0.4110246	ZH D A0
-0.8293616	ZH D U
-0.7255456	ZH D Y
-0.3439092	ZH0 D A
-0.6449392	<s> D0 E0
-0.6449392	<s> D0 I
-0.3101566	<sil> D0 I
-1.110474	A D0 A0
-0.6311738	A D0 E0
-0.7991765	A D0 I
-0.4019867	A D0 I0
-1.560034	A D0 O0
-2.246999	A D0 Z
-2.246999	A D0 ZH
-0.887393	A0 D0 A
-0.9991807	A0 D0 B
-0.4378324	A0 D0 I
-1.574358	A0 D0 U
-1.150107	A0 D0 Z
-0.7549748	Al D0 E0
-0.7549748	Al D0 I
-0.9459692	Al D0 I0
-1.033602	E0 D0 E0
-0.3213269	E0 D0 I
-0.06303675	G D0 E0
-1.574358	G D0 I
-0.4539448	GH D0 I
-1.945307	I D0 A0
-1.945307	I D0 B
-0.4869713	I D0 E0
-0.5827906	I D0 I
-0.6717122	I D0 I0
-1.119997	I D0 O0
-1.567888	I0 D0 E0
-0.06855758	I0 D0 I
-1.246999	J0 D0 A0
-0.4712102	J0 D0 E0
-1.246999	J0 D0 I
-0.6718217	J0 D0 O0
-0.7418492	M D0 E0
-0.5508549	M D0 I
-0.2206885	M0 D0 I
-0.6969829	N D0 E0
-0.4637266	N D0 I
-0.9310661	N0 D0 E0
-0.546883	N0 D0 I
-0.9310661	N0 D0 I0
-1.283249	O0 D0 E0
-0.1215969	O0 D0 I
-0.3973068	R D0 I
-1.084272	R D0 I0
-1.084272	R D0 Il
-0.3439092	R0 D0 E0
-1.162697	U D0 A0
-0.4869187	U D0 E0
-0.8111582	U D0 I
-1.01177	U D0 I0
-0.05007178	U0 D0 I
-0.6600212	V D0 E0
-0.5090944	V D0 I
-0.9459692	Y D0 E0
-0.9459692	Y D0 I0
-0.9459692	Y D0 O0
-0.8210305	Y0 D0 G
-0.6300361	Y0 D0 I
-0.4539448	Z D0 E0
-0.1559589	Z0 D0 E0
-0.8707543	Z0 D0 I
-1.783242	Z0 D0 ZH
-0.3439092	Z0l D0 E0
-0.6781334	ZH D0 E0
-0.789921	ZH D0 I
-0.4526109	ZH D0 O0
-0.8210305	A D0l E0
-0.8210305	A D0l I
-0.5200005	O0 D0l E0
-0.3439092	Y0 D0l I
-0.3439092	Z0 D0l E0
-0.3439092	A DZ0 E0
-0.6449392	O0 DZH0 D
-0.6449392	A Dl A0
-0.9459692	I Dl A
-0.9459692	I Dl O0
-0.3290061	O0 Dl A
-1.273328	<s> E0 Ml
-0.3058378	<s> E0 T
-0.2064486	<sil> E0 T
-1.065786	<sil> E0 T0
-1.198412	A E0 Ml
-0.1580741	A E0 T
-1.198412	A E0 T0
-0.1666718	A0 E0 T
-0.3290061	B E0 T
-1.548047	B0 E0 </s>
-1.781304	B0 E0 <sil>
-1.972298	B0 E0 A
-1.285333	B0 E0 D
-1.972298	B0 E0 D0
-1.397121	B0 E0 G
-1.781304	B0 E0 I
-1.781304	B0 E0 J0
-1.972298	B0 E0 K
-1.122803	B0 E0 L
-1.548047	B0 E0 N
-1.972298	B0 E0 P
-1.397121	B0 E0 R
-1.397121	B0 E0 R0
-1.972298	B0 E0 S
-1.397121	B0 E0 SH
-1.972298	B0 E0 T
-1.972298	B0 E0 U
-1.972298	B0 E0 V
-1.196509	B0 E0 Z
-1.548047	B0 E0 ZH
-2.383323	D0 E0 A
-1.959073	D0 E0 F
-2.383323	D0 E0 G
-1.12543	D0 E0 J0
-2.383323	D0 E0 K
-0.596884	D0 E0 L
-1.323143	D0 E0 L0
-1.696358	D0 E0 N
-0.8870276	D0 E0 N0
-1.959073	D0 E0 P
-2.192329	D0 E0 R
-2.383323	D0 E0 R0
-2.383323	D0 E0 S
-0.9711091	D0 E0 S0
-2.383323	D0 E0 Sl
-1.607534	D0 E0 T
-1.533829	D0 E0 T0
-2.383323	D0 E0 TSH0
-1.533829	D0 E0 V
-1.470836	D0 E0 ZH
-0.8879772	D0l E0 L
-0.3127998	D0l E0 N0
-0.3439092	DZ0 E0 M
-0.8227485	F0 E0 N0l
-0.4712102	F0 E0 R
-1.246999	F0 E0 T
-0.6449392	G E0 G
-0.8061274	G0 E0 J0
-0.9971218	G0 E0 R
-0.1717843	I E0 T
-0.3290061	I0 E0 T
-1.543249	J0 E0 D
-1.342637	J0 E0 D0
-2.118426	J0 E0 F
-0.706212	J0 E0 J0
-1.102123	J0 E0 KH
-1.927432	J0 E0 L
-1.543249	J0 E0 R
-0.7251745	J0 E0 S
-0.7450029	J0 E0 S0
-1.927432	J0 E0 Z
-1.694175	J0 E0 Z0
-2.118426	J0 E0 ZH
-0.1666718	K E0 T
-1.404607	K0 E0 </s>
-1.213613	K0 E0 J0
-0.7176419	K0 E0 M
-0.9803563	K0 E0 O0
-1.404607	K0 E0 T
-0.4539448	L E0 T
-2.2304	L0 E0 A
-0.9225514	L0 E0 D
-2.2304	L0 E0 D0
-2.039406	L0 E0 F
-1.543435	L0 E0 J0
-2.2304	L0 E0 K
-2.039406	L0 E0 KH
-2.039406	L0 E0 M
-2.039406	L0 E0 M0
-2.039406	L0 E0 N
-0.7496684	L0 E0 N0
-1.317912	L0 E0 S
-1.543435	L0 E0 S0
-0.7825772	L0 E0 T
-2.039406	L0 E0 T0
-1.806149	L0 E0 TS
-1.806149	L0 E0 TSH0
-2.2304	L0 E0 Tl
-1.655222	L0 E0 V
-1.543435	L0 E0 Z
-2.2304	L0 E0 Z0
-0.7418492	L0l E0 R0
-2.207232	M0 E0 </s>
-2.207232	M0 E0 B0
-1.190928	M0 E0 D
-2.207232	M0 E0 D0
-1.190928	M0 E0 J0
-1.239742	M0 E0 L
-1.520267	M0 E0 L0
-1.239742	M0 E0 N
-1.632055	M0 E0 N0
-1.520267	M0 E0 Nl
-1.107203	M0 E0 R
-1.782981	M0 E0 R0
-1.431443	M0 E0 S
-1.03704	M0 E0 S0
-1.782981	M0 E0 SH
-2.016238	M0 E0 SH0
-1.107203	M0 E0 T
-1.239742	M0 E0 T0
-1.782981	M0 E0 TS
-1.632055	M0 E0 ZH
-0.5200005	M0l E0 S0
-0.7549748	N E0 <sil>
-0.9459692	N E0 T
-1.258293	N0 E0 </s>
-1.652696	N0 E0 <sil>
-1.29196	N0 E0 B
-2.428485	N0 E0 B0
-2.428485	N0 E0 D
-2.428485	N0 E0 D0
-2.237491	N0 E0 F
-2.428485	N0 E0 G
-0.9171641	N0 E0 J0
-1.460995	N0 E0 K
-2.428485	N0 E0 KH
-1.853308	N0 E0 L
-2.004235	N0 E0 L0
-1.578991	N0 E0 M
-1.853308	N0 E0 N
-2.237491	N0 E0 N0
-2.428485	N0 E0 Nl
-1.74152	N0 E0 P
-1.652696	N0 E0 R
-0.9981022	N0 E0 S
-1.578991	N0 E0 SH
-0.8749752	N0 E0 T
-2.004235	N0 E0 T0
-1.22705	N0 E0 TS
-1.460995	N0 E0 TSH0
-2.428485	N0 E0 U
-1.853308	N0 E0 V
-0.6449392	N0l E0 B
-0.1167816	O0 E0 T
-2.038514	P0 E0 F
-1.18902	P0 E0 L
-2.038514	P0 E0 N0
-1.022211	P0 E0 R
-0.2074214	P0 E0 R0
-2.038514	P0 E0 T0
-1.614264	P0 E0 TSH0
-1.61999	R0 E0 B
-2.004173	R0 E0 B0
-2.004173	R0 E0 D
-2.195168	R0 E0 D0
-2.195168	R0 E0 F
-1.419379	R0 E0 J0
-2.195168	R0 E0 K
-1.178864	R0 E0 L
-1.508202	R0 E0 L0
-2.195168	R0 E0 Ll
-0.9115789	R0 E0 M0
-2.195168	R0 E0 N0
-1.770917	R0 E0 P
-1.61999	R0 E0 S
-1.095139	R0 E0 T
-0.9937323	R0 E0 T0
-1.770917	R0 E0 TS
-1.134987	R0 E0 TSH0
-1.770917	R0 E0 V
-1.508202	R0 E0 V0
-2.195168	R0 E0 Z
-1.419379	R0 E0 ZH
-2.139789	S0 E0 A
-1.364	S0 E0 D
-2.139789	S0 E0 D0
-1.452824	S0 E0 J0
-1.715539	S0 E0 K
-1.290295	S0 E0 KH
-1.227302	S0 E0 L
-1.564612	S0 E0 L0
-1.003263	S0 E0 M
-1.123486	S0 E0 M0
-2.139789	S0 E0 Ml
-2.139789	S0 E0 N
-1.452824	S0 E0 N0
-1.715539	S0 E0 N0l
-1.948795	S0 E0 P
-1.079609	S0 E0 R
-1.564612	S0 E0 T
-1.564612	S0 E0 T0
-2.139789	S0 E0 U
-1.564612	S0 E0 V0
-1.948795	S0 E0 Z
-1.574358	SH E0 I
-1.150107	SH E0 J0
-0.7985691	SH E0 N0
-1.383364	SH E0 Nl
-1.574358	SH E0 R
-0.9991807	SH E0 S
-0.887393	SH E0 S0
-1.049992	SH0 E0 L0
-0.8990655	SH0 E0 N0
-1.474243	SH0 E0 P
-0.698454	SH0 E0 S
-0.6600212	T E0 T
-0.6600212	T E0 T0
-2.163453	T0 E0 <sil>
-1.739202	T0 E0 DZ
-1.476488	T0 E0 J0
-1.972459	T0 E0 K
-1.739202	T0 E0 KH
-0.7330698	T0 E0 L
-1.195963	T0 E0 L0
-1.250966	T0 E0 M
-1.476488	T0 E0 N
-1.103273	T0 E0 N0
-1.588276	T0 E0 P0
-2.163453	T0 E0 R0
-1.588276	T0 E0 S
-1.476488	T0 E0 T
-1.739202	T0 E0 T0
-1.250966	T0 E0 TS
-1.972459	T0 E0 TSH0
-1.588276	T0 E0 ZH
-1.550855	TS E0 B0
-1.741849	TS E0 K
-0.8923545	TS E0 L
-1.054884	TS E0 L0
-1.054884	TS E0 N
-0.7743589	TS E0 P0
-0.7743589	TS E0 R
-1.453945	TSH0 E0 J0
-1.644939	TSH0 E0 K
-0.3141146	TSH0 E0 M
-1.220688	TSH0 E0 N0
-1.644939	TSH0 E0 R0
-1.220688	TSH0 E0 S0
-0.5200005	U E0 T
-0.1345176	V E0 T
-1.174104	V E0 T0
-2.28002	V0 E0 </s>
-1.895837	V0 E0 <sil>
-1.784049	V0 E0 D0
-1.895837	V0 E0 J0
-1.187425	V0 E0 K
-2.046763	V0 E0 K0
-2.28002	V0 E0 L
-1.895837	V0 E0 N0
-2.28002	V0 E0 Nl
-0.8790528	V0 E0 R
-0.9451695	V0 E0 R0
-1.187425	V0 E0 S
-1.558526	V0 E0 S0
-1.895837	V0 E0 SH0
-0.9311163	V0 E0 T
-0.8216844	V0 E0 T0
-1.140189	V0 E0 TSH0
-2.046763	V0 E0 Z0
-2.28002	V0 E0 ZH
-0.6449392	V0l E0 R
-0.6449392	V0l E0 TSH0
-0.2010121	Y E0 T
-0.5200005	Z E0 T
-0.3306614	Z0 E0 M
-1.298152	Z0 E0 R
-0.873901	Z0 E0 T
-0.5200005	Z0l E0 L0
-1.183705	ZH E0 L0
-1.567888	ZH E0 N
-0.2189849	ZH E0 N0
-1.758883	ZH E0 R
-0.9830936	ZH E0 S
-0.3439092	B0 E0l T
-0.3290061	L0 E0l T
-0.09647455	S0 E0l T
-0.8999821	<s> F K
-1.162697	<s> F P
-1.01177	<s> F S
-0.5267667	<s> F S0
-1.395953	<s> F T
-1.586947	<s> F TS
-1.111154	<sil> F K
-1.686332	<sil> F KH
-1.495337	<sil> F P
-1.495337	<sil> F P0
-1.111154	<sil> F S
-0.4848966	<sil> F S0
-1.686332	<sil> F SH
-1.262081	<sil> F T
-1.495337	<sil> F TS
-1.155038	A F </s>
-0.8246835	A F <sil>
-1.830816	A F A
-2.255067	A F A0
-1.287577	A F K
-1.194886	A F P
-1.568102	A F R
-1.194886	A F S
-0.6166206	A F S0
-1.568102	A F SH
-1.238763	A F T
-1.679889	A F V
-1.940506	A0 F <sil>
-1.365329	A0 F K
-1.516256	A0 F P
-1.940506	A0 F P0
-1.940506	A0 F R0
-0.8803257	A0 F S
-0.9242027	A0 F S0
-0.5670831	A0 F SH
-0.8404777	A0 F T
-1.321633	E0 F K
-0.3053292	E0 F SH
-1.075389	I F <sil>
-2.042879	I F A
-1.618629	I F A0
-1.618629	I F K
-2.042879	I F KH
-1.851885	I F L
-2.042879	I F M0
-1.851885	I F O0
-0.9826986	I F P
-1.851885	I F P0
-2.042879	I F R
-1.193385	I F S
-0.7350307	I F S0
-1.355914	I F SH
-2.042879	I F T
-1.618629	I F TSH0
-2.042879	I F U
-2.042879	I F U0
-1.851885	I F V
-1.851885	I F Y
-1.440819	I0 F K
-0.2393839	I0 F SH
-1.084272	J0 F A
-0.6600212	J0 F S
-1.084272	J0 F S0
-1.218971	K F P
-1.218971	K F S
-0.7947198	K F S0
-1.218971	K F T
-0.8879772	KH F P0
-1.52	L F K
-1.329006	L F P
-1.09575	L F S
-0.6705058	L F S0
-0.8330353	L F T
-1.329006	L F T0
-1.12206	M F A
-0.6978098	M F S0
-0.3439092	M0 F U0
-1.156823	N F S
-0.4698574	N F S0
-0.8001831	O0 F </s>
-0.763686	O0 F <sil>
-1.325034	O0 F A
-1.325034	O0 F K
-1.900212	O0 F K0
-1.709217	O0 F P
-1.475961	O0 F S
-1.213247	O0 F S0
-1.325034	O0 F SH0
-1.900212	O0 F V
-1.325034	O0 F Y
-0.8210305	R F Y
-0.3439092	R0 F S
-0.4677018	S F S0
-0.5090944	S0 F K
-1.084272	S0 F S0
-0.3439092	SH F S0
-1.189007	T F <sil>
-1.189007	T F P
-0.9980129	T F S0
-1.156823	T0 F P
-0.7325718	T0 F S
-0.9658282	T0 F S0
-1.273328	U F A
-1.273328	U F KH
-0.8490774	U F S
-1.082334	U F S0
-1.273328	U F SH
-0.4903623	U0 F S
-1.266858	U0 F S0
-0.6083579	U0 F SH
-0.9991807	Y F </s>
-1.150107	Y F <sil>
-1.574358	Y F M
-0.887393	Y F P
-0.887393	Y F S0
-1.150107	Y F T
-1.574358	Y F TS
-0.6186285	Y0 F SH
-1.042879	Y0 F T0
-0.3439092	<sil> F0 I
-0.8518848	A F0 E0
-1.042879	A F0 I
-0.6978098	A0 F0 I
-1.12206	A0 F0 Il
-1.12206	A0 F0 T0
-0.6449392	I F0 E0
-0.3439092	L F0 E0
-0.3439092	M F0 I
-0.6985345	O0 F0 <sil>
-1.548029	O0 F0 I
-1.548029	O0 F0 TSH0
-1.548029	O0 F0 V
-0.3175985	P F0 E0
-0.5508549	S F0 I
-0.3439092	T F0 I
-0.5200005	T0 F0 I
-0.3439092	U0 F0 I
-0.3439092	Y F0 I0
-0.3439092	I0 Fl S0
-0.818312	<s> G A
-1.505277	<s> G D0
-0.9300997	<s> G L
-1.314283	<s> G O0
-0.5377869	<s> G U0
-0.6664535	<sil> G A
-1.442949	<sil> G D
-0.8581548	<sil> G D0
-1.209693	<sil> G L
-1.209693	<sil> G L0
-1.633944	<sil> G N0
-1.633944	<sil> G R
-1.633944	<sil> G R0
-1.442949	<sil> G U0
-0.8092667	A G A
-1.07429	A G A0
-0.5104821	A G D
-2.256719	A G D0
-1.347684	A G L
-1.347684	A G L0
-1.760748	A G N
-0.9998902	A G O0
-0.9998902	A G R
-1.671924	A G R0
-2.447713	A G U
-1.598218	A G U0
-0.7324283	A0 G A
-0.6987619	A0 G B
-1.181989	A0 G D
-1.181989	A0 G D0
-1.868954	A0 G R0
-1.868954	A0 G U
-1.67796	A0 G U0
-1.868954	A0 G Z0
-0.7689254	A0 G ZH
-0.6300361	Al G N0
-0.3439092	B G A
-0.3439092	B0 G O0
-0.3276056	D G A
-0.9196585	D G A0
-1.152915	D G O0
-0.7549748	D0 G O0
-0.3439092	DZ G A
-0.4431815	E0 G A
-1.218971	E0 G E0
-1.218971	E0 G O0
-1.027976	E0 G R
-0.7549748	GH G A
-0.9459692	GH G L
-0.606254	I G A
-1.061689	I G A0
-1.138035	I G D
-1.422426	I G L
-2.198215	I G L0
-0.6723707	I G O0
-0.99678	I G R
-2.198215	I G R0
-1.230725	I G U0
-2.007221	I G V
-0.2590041	I0 G A
-0.6473014	J0 G A
-1.42309	J0 G L
-0.7361253	J0 G O0
-1.42309	J0 G R
-1.42309	J0 G R0
-1.42309	J0 G V
-0.357824	L G A
-1.457853	L G N0
-1.033602	L G O0
-1.266858	L G U0
-0.3439092	L0 G A0
-0.7647566	M G A
-0.9980129	M G D0
-0.9980129	M G N
-1.189007	M G O0
-0.6978098	N G A
-1.12206	N G L
-0.9310661	N G L0
-0.3127998	N0 G A
-0.8879772	N0 G Y0
-0.3770261	O0 G A
-1.750449	O0 G B
-1.559455	O0 G L
-1.750449	O0 G O0
-1.559455	O0 G R
-0.7341458	O0 G U
-1.750449	O0 G U0
-0.244335	R G A
-0.9658282	R G O0
-1.274992	U G A
-1.186168	U G A0
-1.770963	U G D0
-0.9456537	U G L
-1.770963	U G L0
-0.3346743	U G O0
-1.961957	U G R
-1.770963	U G R0
-1.186168	U G U0
-0.3040509	U0 G A
-1.474243	U0 G D
-0.698454	U0 G L
-1.474243	U0 G Z
-1.174931	V G A
-0.2913332	V G L
-1.599182	V G L0
-1.024004	V G O0
-1.599182	V G R0
-0.9803563	Y G A
-0.8294296	Y G L0
-1.213613	Y G O0
-0.8294296	Y G R
-0.2590041	Y0 G A
-0.6847463	Z G A
-1.343247	Z G L
-0.4342123	Z G L0
-1.534241	Z G O0
-1.343247	Z G R
-1.534241	Z G U
-0.6300361	Z0 G A
-0.4539448	<sil> G0 I
-0.7464554	A G0 I
-0.2614522	A G0 I0
-0.0679683	A0 G0 I
-0.5200005	D G0 I
-0.3439092	D0 G0 I
-0.7418492	I G0 I
-0.2206885	I0 G0 I
-0.3290061	N G0 I
-0.1666718	N0 G0 I
-0.03118378	O0 G0 I
-0.6969829	R G0 E0
-0.6969829	R G0 I
-0.1933846	U G0 I0
-0.3439092	U0 G0 I
-0.3439092	V G0 E0
-0.3439092	Y0 G0 I
-0.5200005	Z G0 I
-0.3439092	ZH G0 I0
-0.6449392	A GH B
-0.5508549	A0 GH B
-0.8210305	I GH D
-0.6138298	I0 GH B
-1.189007	I0 GH D
-1.189007	I0 GH D0
-1.189007	I0 GH G
-1.189007	I0 GH Z
-1.082334	Y GH B
-0.586363	Y GH D
-1.082334	Y GH Z
-0.7418492	Y0 GH G
-0.5508549	Y0 GH Z
-0.5200005	A Gl O0
-1.684394	<s> I A
-1.684394	<s> I D
-1.188423	<s> I J0
-1.875388	<s> I K
-1.875388	<s> I L0
-1.684394	<s> I M0
-1.684394	<s> I N0
-1.684394	<s> I P
-1.451137	<s> I S
-1.684394	<s> I SH
-1.300211	<s> I T
-1.875388	<s> I U0
-1.300211	<s> I V
-1.099599	<s> I Z
-1.875388	<s> I ZH
-1.875388	<s> I Zl
-1.232885	<sil> I A
-1.757736	<sil> I B
-2.332914	<sil> I B0
-1.645949	<sil> I D
-2.332914	<sil> I D0
-1.757736	<sil> I F
-1.908663	<sil> I G
-1.908663	<sil> I J0
-1.483419	<sil> I K
-1.645949	<sil> I L0
-2.141919	<sil> I M
-1.908663	<sil> I M0
-1.196388	<sil> I N
-1.483419	<sil> I N0
-1.757736	<sil> I O0
-1.025065	<sil> I P
-2.332914	<sil> I P0
-2.141919	<sil> I R
-1.049325	<sil> I S
-1.645949	<sil> I S0
-2.141919	<sil> I SH
-1.557125	<sil> I T
-2.332914	<sil> I T0
-2.141919	<sil> I U
-1.272733	<sil> I V
-2.141919	<sil> I V0
-1.420426	<sil> I Z
-2.141919	<sil> I ZH
-2.088202	A I A
-2.088202	A I B
-2.088202	A I B0
-1.513025	A I D
-1.312413	A I F
-1.513025	A I G
-1.663952	A I K
-1.663952	A I L0
-1.120712	A I M0
-1.401237	A I N
-1.663952	A I N0
-1.312413	A I P
-2.088202	A I P0
-1.897208	A I R
-1.120712	A I S
-1.897208	A I S0
-2.088202	A I SH
-2.088202	A I U
-1.663952	A I V
-1.238708	A I Z
-1.513025	A I Z0
-1.897208	A I Zl
-1.548029	A0 I K
-1.548029	A0 I M0
-0.9728518	A0 I N
-1.548029	A0 I N0
-1.357035	A0 I P
-1.123778	A0 I S
-2.255067	B0 I </s>
-2.255067	B0 I D
-1.830816	B0 I D0
-1.479278	B0 I G
-1.830816	B0 I J0
-1.479278	B0 I L0
-1.568102	B0 I N
-1.568102	B0 I N0
-1.679889	B0 I Nl
-1.053632	B0 I R
-1.194886	B0 I R0
-0.7904781	B0 I S
-2.064072	B0 I S0
-1.830816	B0 I SH
-2.064072	B0 I Sl
-1.568102	B0 I T
-2.064072	B0 I TS
-1.568102	B0 I V
-1.084875	B0 I Z
-2.255067	B0 I Z0
-1.238763	B0 I ZH
-2.255067	B0 I Zl
-1.777518	D0 I </s>
-2.273489	D0 I <sil>
-2.273489	D0 I D
-1.889306	D0 I F
-1.327957	D0 I J0
-1.777518	D0 I K
-2.273489	D0 I K0
-0.9681874	D0 I L
-1.688694	D0 I L0
-1.327957	D0 I M
-2.273489	D0 I M0
-1.233902	D0 I N
-1.551996	D0 I N0
-2.273489	D0 I Nl
-1.156635	D0 I R
-1.364455	D0 I R0
-1.777518	D0 I S
-1.404303	D0 I S0
-1.889306	D0 I SH
-0.9109729	D0 I T
-1.294291	D0 I T0
-2.464483	D0 I TS
-2.464483	D0 I TSH0
-2.273489	D0 I U
-1.777518	D0 I V
-1.614988	D0 I V0
-2.273489	D0 I Z
-0.7418492	D0l I L
-0.7418492	D0l I L0
-1.586947	F0 I D0
-1.586947	F0 I G
-1.395953	F0 I J0
-0.8111582	F0 I L0
-1.395953	F0 I M0
-1.586947	F0 I R
-1.586947	F0 I R0
-1.395953	F0 I T0
-1.586947	F0 I TS
-1.586947	F0 I V
-1.096475	G0 I </s>
-0.8857886	G0 I <sil>
-1.370792	G0 I A
-1.945969	G0 I B
-1.945969	G0 I F
-1.521719	G0 I G
-1.521719	G0 I J0
-1.754975	G0 I L
-1.945969	G0 I L0
-1.754975	G0 I M
-1.754975	G0 I N
-1.945969	G0 I P
-1.370792	G0 I R
-1.945969	G0 I R0
-1.754975	G0 I S
-1.945969	G0 I S0
-1.754975	G0 I T
-1.033482	G0 I V
-1.945969	G0 I Z
-1.654493	J0 I </s>
-1.326706	J0 I <sil>
-1.654493	J0 I A
-1.870613	J0 I B
-2.816144	J0 I B0
-1.633716	J0 I D
-1.776558	J0 I D0
-3.007139	J0 I Dl
-3.007139	J0 I E0
-1.805704	J0 I F
-2.23135	J0 I G
-1.12286	J0 I J0
-1.526407	J0 I K
-1.990835	J0 I KH
-2.320174	J0 I L
-1.90711	J0 I L0
-1.037884	J0 I M
-2.431961	J0 I M0
-1.836947	J0 I N
-1.990835	J0 I N0
-2.582888	J0 I Nl
-2.431961	J0 I O0
-1.44043	J0 I P
-2.094651	J0 I P0
-1.946958	J0 I R
-1.391313	J0 I S
-1.44043	J0 I S0
-1.805704	J0 I SH
-1.368693	J0 I SH0
