
\data\
ngram 1=5908
ngram 2=13804
ngram 3=756

\1-grams:
-1.146042	</s>
-99	<s>	-0.2215917
-0.9797783	<sil>	-0.1084177
-3.131645	а	0.01487162
-4.079255	абажура	-0.0517847
-4.079255	аббатство	-0.04982813
-4.079255	абрикосы	-0.003757298
-4.079255	аванс	-0.003757298
-4.079255	аверьянов	-0.05156301
-4.079255	авось	-0.05176593
-4.079255	автограф	-0.0517847
-4.079255	автор	-0.003757298
-4.079255	агитпоезда	-0.0517847
-4.079255	агонии	-0.01962962
-3.798698	ад	0.04229737
-4.079255	ада	-0.003757298
-4.079255	адрес	-0.0517847
-4.079255	адреса	-0.003757298
-4.079255	адресной	-0.05176593
-4.079255	аж	-0.04349251
-4.079255	аиу	-0.003757298
-4.079255	айртон	-0.0517847
-4.079255	айртона	-0.003757298
-4.079255	айяй	-0.003757298
-4.079255	акаций	-0.003757298
-4.079255	акведуки	-0.003757298
-4.079255	актов	-0.04349251
-4.079255	акциям	-0.003757298
-4.079255	александровне	-0.01962962
-4.079255	алексей	-0.05176593
-4.079255	алигьери	-0.01962962
-4.079255	аллею	-0.003757298
-4.079255	алмазные	-0.0517847
-4.079255	алфавита	-0.003757298
-4.079255	альберт	-0.05165743
-4.079255	американец	-0.0517847
-3.897773	американской	-0.167122
-4.079255	америке	-0.003757298
-4.079255	ампутирована	-0.0517847
-4.079255	амфитеатр	-0.003757298
-4.079255	амфитеатра	-0.003757298
-4.079255	амфора	-0.003757298
-4.079255	ангел	-0.003757298
-4.079255	ангелом	-0.05020725
-4.079255	английских	-0.0517847
-4.079255	англичане	-0.003757298
-4.079255	андреа	-0.01962962
-4.079255	анды	-0.003757298
-4.079255	анеля	-0.01962962
-4.079255	апельсинового	-0.003757298
-3.635622	аппарат	-0.009093799
-3.897773	аппараты	-0.1671407
-4.079255	аптекаря	-0.05150004
-4.079255	арийцев	-0.003757298
-4.079255	армия	-0.0517847
-4.079255	артиллерии	-0.01962962
-4.079255	артиллерия	-0.003757298
-4.079255	архитектуре	-0.05153152
-3.897773	арчибальд	-0.00368017
-4.079255	ассоциации	-0.05042824
-4.079255	астролог	-0.0517847
-4.079255	астрономов	-0.003757298
-4.079255	асфальт	-0.01962962
-4.079255	атаку	-0.01962962
-4.079255	атанора	-0.04982813
-4.079255	атанору	-0.003757298
-4.079255	атлантическом	-0.0517847
-3.897773	атлантов	-0.1349857
-4.079255	африки	0.005556248
-3.897773	ах	-0.05147652
-4.079255	ашхе	-0.003757298
-3.897773	аэлита	-0.05100397
-4.079255	аэлиту	-0.01962962
-4.079255	аэлиты	-0.05137409
-4.079255	б	-0.04860696
-4.079255	бабушка	-0.0517847
-4.079255	багровые	-0.0517847
-4.079255	баз	-0.003757298
-4.079255	баки	-0.003695901
-4.079255	балалайке	-0.003757298
-3.897773	балки	-0.01957043
-4.079255	балу	-0.0517847
-4.079255	бальзамо	-0.05124809
-4.079255	баранками	-0.01962962
-4.079255	барельеф	-0.05020725
-4.079255	баронетами	-0.003757298
-4.079255	баррикаду	-0.04365284
-4.079255	баррикады	-0.003757298
-4.079255	барского	-0.0517847
-4.079255	барыни	-0.003757298
-4.079255	барышни	-0.05042824
-3.897773	барышня	0.03236206
-4.079255	бах	-0.003757298
-4.079255	башнями	-0.003757298
-4.079255	бдительность	-0.003757298
-4.079255	бег	-0.05093295
-4.079255	бегал	-0.05023882
-4.079255	бегать	-0.05042824
-4.079255	бегая	-0.04365284
-4.079255	беглецы	-0.003757298
-4.079255	бегущие	-0.0517847
-4.079255	бегущих	-0.05042824
-4.079255	бедная	-0.003757298
-4.079255	бедуины	-0.0517847
-4.079255	бежала	-0.05020725
-3.798698	бежали	-0.1232599
-3.635622	бежать	-0.01953752
-4.079255	беженцев	-0.003757298
-3.053846	без	-0.06107365
-4.079255	безвестных	-0.0517847
-4.079255	безвоздушном	-0.05175184
-4.079255	безграничную	-0.003757298
-4.079255	бездна	-0.0517847
-4.079255	бездны	-0.04963846
-4.079255	беззаботного	-0.003757298
-4.079255	безнадёжное	-0.0517847
-4.079255	безоружных	-0.05175184
-4.079255	безумие	-0.0517847
-4.079255	безумное	-0.0517847
-4.079255	безумном	-0.05176593
-4.079255	бейкер-стрит	-0.003757298
-4.079255	бейракрс	-0.01962962
-4.079255	бекингэма	-0.01962962
-4.079255	белого	-0.05168891
-3.897773	белой	-0.05171565
-4.079255	белые	-0.0517847
-4.079255	белый	-0.0517847
-3.798698	белых	-0.05169355
-4.079255	бельбо	-0.003757298
-4.079255	берег	-0.05174851
-3.897773	берега	-0.01904664
-4.079255	берегов	-0.0517847
-4.079255	берегу	-0.01948748
-4.079255	берлин	-0.01962962
-4.079255	беру	-0.04636933
-4.079255	берут	-0.003757298
-4.079255	берёзы	-0.01962962
-4.079255	берёт	-0.003757298
-4.079255	беседа	-0.05093295
-4.079255	беседки	-0.003757298
-4.079255	беседуя	-0.003757298
-4.079255	бесконечная	-0.003757298
-3.897773	бесконечно	-0.0516527
-4.079255	бесконечную	-0.05172038
-4.079255	бесконечные	-0.0517847
-4.079255	бесплодной	-0.05176593
-4.079255	беспокойтесь	-0.05176593
-4.079255	беспомощно	-0.0517847
-4.079255	беспросветная	-0.003757298
-4.079255	беспутный	-0.0517847
-4.079255	бесспорно	-0.003757298
-4.079255	бестактным	-0.003757298
-4.079255	бесценных	-0.0517847
-3.897773	бесшумно	-0.05174851
-4.079255	бетховен	-0.003757298
-4.079255	бетховену	-0.003757298
-4.079255	бешеные	-0.05176593
-4.079255	бешеным	-0.0517847
-4.079255	бешеных	-0.0517847
-4.079255	библиотеки	-0.003757298
-3.897773	била	-0.1588485
-4.079255	билетёр	-0.01962962
-4.079255	били	-0.05093295
-4.079255	билль	-0.003757298
-4.079255	бильярд	-0.01962962
-4.079255	бильярда	-0.003757298
-3.897773	бинэ	0.03236206
-4.079255	битки	-0.0517847
-4.079255	биться	-0.04349251
-4.079255	бичами	-0.01962962
-4.079255	благоговеешь	-0.003757298
-4.079255	благодарна	-0.003757298
-3.897773	благополучно	-0.05174851
-4.079255	благоприятный	-0.0517847
-4.079255	благородными	-0.0517847
-4.079255	благословляет	-0.003757298
-4.079255	блаженства	-0.003757298
-4.079255	бледнел	-0.003757298
-4.079255	бледно	-0.0517847
-4.079255	бледно-зелёные	-0.0517847
-4.079255	бледный	-0.05165743
-4.079255	блеск	-0.04998614
-4.079255	блеснуло	-0.0517847
-4.079255	блестели	-0.05121659
-4.079255	ближайшей	-0.0517847
-4.079255	ближайший	-0.0517847
-3.897773	ближе	-0.05128756
-3.897773	близко	-0.1191133
-4.079255	блин	-0.0434542
-4.079255	блудницей	-0.04349251
-4.079255	блуждая	-0.05134259
-4.079255	блузе	-0.05118508
-4.079255	блюд	-0.003757298
-4.079255	блюда	-0.05168891
-4.079255	блюдца	-0.003757298
-4.079255	блюхер	-0.0517847
-3.798698	бовари	-0.05145771
-3.897773	бог	-0.05089668
-3.897773	богиня	-0.05172973
-4.079255	богом	-0.05176593
-4.079255	бодро	-0.05172038
-3.897773	боже	-0.1670135
-4.079255	божественность	-0.01962962
-4.079255	божественный	-0.003757298
-4.079255	божественными	-0.04365284
-4.079255	божьим	-0.01962962
-4.079255	бойко	-0.0517847
-4.079255	боков	-0.04998614
-3.348009	более	-0.04893784
-4.079255	болезней	-0.04349251
-4.079255	боли	-0.003757298
-4.079255	болота	-0.003757298
-4.079255	болотные	-0.0517847
-3.798698	больных	-0.003358435
-3.176484	больше	-0.003299698
-4.079255	большеглазых	-0.0517847
-4.079255	большее	-0.05042824
-4.079255	большею	-0.05175184
-3.897773	большие	-0.05161984
-4.079255	больших	-0.0517847
-3.897773	большого	-0.05174851
-3.635622	большой	-0.05077102
-3.897773	большую	-0.05174851
-4.079255	бормочет	-0.05150004
-4.079255	бородою	-0.01962962
-4.079255	бороды	-0.003757298
-4.079255	борху	-0.01962962
-3.897773	борьбы	-0.05174851
-4.079255	бостоном	-0.01962962
-4.079255	босую	-0.003695901
-4.079255	боялась	-0.0517847
-4.079255	брала	-0.04998614
-3.897773	брат	-0.01941969
-3.798698	брата	-0.203713
-4.079255	братскому	-0.05176593
-4.079255	брату	-0.01962962
-4.079255	брать	-0.003757298
-3.798698	братья	-0.1170223
-4.079255	бредить	-0.0517847
-4.079255	бредут	-0.0517847
-4.079255	бренди	-0.003757298
-3.897773	бричка	-0.01959065
-4.079255	бричке	-0.05168891
-4.079255	бровей	-0.05176593
-4.079255	брови	-0.003757298
-4.079255	бродяги	-0.003757298
-3.897773	бронзовым	-0.05171565
-4.079255	бронхитик	-0.003757298
-4.079255	бросаешь	-0.0517847
-4.079255	бросил	-0.05124809
-3.897773	бросилась	-0.04871434
-4.079255	бросить	-0.04998614
-4.079255	броутон	-0.003757298
-4.079255	брустверам	-0.01962962
-4.079255	брызгами	-0.003757298
-4.079255	брюхом	-0.003757298
-4.079255	брючек	-0.003757298
-4.079255	бубенцов	-0.04365284
-3.897773	бубнили	-0.003695901
-3.897773	будем	-0.05108581
-2.958323	будет	-0.01083528
-4.079255	будете	-0.05077529
-3.897773	будешь	-0.04326172
-3.635622	будто	-0.04842185
-3.897773	буду	-0.05153338
-3.635622	будут	-0.01921976
-4.079255	будущее	-0.05042824
-4.079255	будь	-0.04967007
-4.079255	будьте	-0.05175184
-4.079255	букв	-0.01962962
-4.079255	буква	-0.0517847
-4.079255	булавкою	-0.04856204
-4.079255	булыжник	-0.01962962
-4.079255	бульваре	-0.01962962
-3.897773	бумага	-0.002765317
-3.897773	бумаги	-0.1191133
-3.897773	бумагу	-0.05147652
-4.079255	бумажке	-0.05175184
-4.079255	бумажки	-0.05023882
-4.079255	бури	-0.01962962
-4.079255	бурому	-0.0517847
-4.079255	бурь	-0.04349251
-4.079255	буря	-0.003757298
-4.079255	бутылке	-0.003757298
-4.079255	буфер	-0.01962962
-4.079255	бухты	-0.0517847
-2.774623	бы	-0.06250193
-4.079255	бывает	-0.04349251
-3.897773	бывал	-0.05124196
-4.079255	бывало	-0.01962962
-3.798698	бывают	-0.05073149
-4.079255	быков	-0.003757298
-2.705526	был	0.06212306
-2.756291	была	-0.002672479
-2.987889	были	-0.04683371
-4.079255	былинках	-0.003757298
-2.494638	было	0.01017018
-3.798698	быстро	-0.04325068
-4.079255	бытие	-0.003757298
-3.176484	быть	-0.00985783
-4.079255	бычачий	-0.0517847
-4.079255	бьющий	-0.04349251
-3.897773	бьётся	-0.002969775
-4.079255	бювар	-0.003757298
-4.079255	бюши	-0.0517847
-1.721382	в	-0.06903248
-3.897773	важнее	-0.05143233
-4.079255	важнейшие	-0.0517847
-3.897773	важно	-0.1349857
-4.079255	важное	-0.01962962
-4.079255	валентин	-0.0517847
-4.079255	валится	-0.04636933
-4.079255	вальтер	-0.0517847
-4.079255	валялась	-0.0517847
-4.079255	валялись	-0.003757298
-3.053846	вам	-0.04700865
-4.079255	вами	-0.0517847
-4.079255	ванной	-0.0517847
-4.079255	ваня	-0.04365284
-4.079255	варварское	-0.0517847
-4.079255	варо	-0.0517847
-4.079255	варёное	-0.0517847
-4.079255	варёную	-0.0517847
-3.131645	вас	0.03882185
-4.079255	ватанабэ	-0.003757298
-4.079255	ваш	-0.05172038
-3.897773	ваша	-0.05166069
-4.079255	ваше	-0.0517847
-3.897773	вашего	-0.05171565
-4.079255	вашей	-0.0517847
-3.897773	ваши	-0.05155827
-3.897773	вашу	-0.05172973
-4.079255	ввели	-0.05140558
-3.897773	вверх	-0.04934763
-4.079255	вверху	-0.05042824
-4.079255	ввёл	-0.04349251
-3.897773	вглубь	-0.05171565
-3.897773	вглядывался	-0.1588485
-4.079255	вдали	-0.0517847
-3.897773	вдова	-0.0496337
-4.079255	вдоль	-0.05175184
-4.079255	вдохнови	-0.0517847
-4.079255	вдребезги	-0.0517847
-3.283013	вдруг	-0.01386201
-4.079255	вдыхание	-0.04365284
-4.079255	вегетативную	-0.0517847
-4.079255	веду	-0.05124809
-3.283013	ведь	0.005217016
-4.079255	ведёрке	-0.0517847
-4.079255	ведёшь	-0.05156301
-4.079255	вежливо	-0.003757298
-4.079255	везде	-0.05045366
-3.798698	век	0.03252226
-4.079255	веке	-0.003757298
-4.079255	веки	-0.01962962
-4.079255	вел	-0.01962962
-3.897773	вела	-0.04290861
-4.079255	велел	-0.0517847
-4.079255	великая	-0.05156301
-4.079255	велико	-0.003757298
-3.897773	великого	-0.05172973
-4.079255	величественная	-0.0517847
-4.079255	величественный	-0.01962962
-4.079255	величины	-0.0517847
-4.079255	вельможами	-0.0517847
-4.079255	вендер	-0.01962962
-4.079255	венец	-0.0517847
-4.079255	венчаться	-0.04349251
-4.079255	вера	-0.003757298
-3.897773	верил	-0.003047016
-4.079255	верит	-0.05071221
-3.798698	верить	-0.009122439
-4.079255	вернее	-0.05175184
-3.424473	верно	-0.05406188
-4.079255	верного	-0.04365284
-4.079255	верное	-0.0517847
-4.079255	вернувшихся	-0.04636933
-3.897773	вернулась	-0.05171565
-3.897773	вернулся	-0.1588485
-3.897773	вернуть	-0.05057988
-3.897773	вернуться	-0.01748316
-3.897773	вероятно	-0.00135408
-4.079255	вертикальные	-0.0517847
-4.079255	вертлявым	-0.05127959
-4.079255	верующим	-0.0517847
-4.079255	верхнего	-0.0517847
-4.079255	верхний	-0.05096447
-4.079255	вершины	-0.003757298
-4.079255	верёвками	-0.04365284
-3.897773	верёвочки	-0.05453442
-4.079255	вес	-0.01962962
-4.079255	веселье	-0.003757298
-4.079255	весеннем	-0.01962962
-4.079255	весло	-0.0517847
-4.079255	весна	-0.003757298
-4.079255	весной	-0.01962962
-4.079255	весом	-0.01962962
-4.079255	вест	-0.003757298
-3.897773	вести	-0.01941969
-4.079255	вестибюль	-0.003757298
-4.079255	вестового	-0.04365284
-3.348009	весь	-0.05020148
-3.635622	весьма	-0.05158031
-3.897773	весёлая	-0.01952137
-4.079255	весёлой	-0.0517847
-4.079255	весёлыми	-0.0517847
-4.079255	ветвях	-0.04365284
-3.51734	ветер	-0.0192349
-4.079255	ветра	-0.04365284
-4.079255	ветреная	-0.01962962
-3.897773	ветром	-0.00339888
-4.079255	ветхие	-0.0517847
-3.635622	вечер	-0.01903497
-4.079255	вечера	-0.003757298
-4.079255	вечерам	-0.01962962
-3.798698	вечером	-0.1878407
-4.079255	вечеру	-0.05128756
-4.079255	вечной	-0.0517847
-4.079255	вечною	-0.0517847
-4.079255	вечные	-0.003757298
-4.079255	вечный	-0.0517847
-4.079255	вещей	-0.04802284
-4.079255	вещество	-0.003757298
-3.897773	вещи	-0.003695901
-3.635622	вещь	-0.01890073
-4.079255	веяло	-0.05042824
-4.079255	взвился	-0.0517847
-4.079255	взвод	-0.01962962
-3.51734	взгляд	-0.03713688
-4.079255	взгляды	-0.0517847
-4.079255	взглянув	-0.04636933
-3.897773	взглянул	-0.04631367
-3.897773	взглянуть	-0.0380971
-4.079255	вздор	-0.05077529
-4.079255	вздохи	-0.003757298
-3.635622	вздохнул	-0.1099793
-4.079255	вздымали	-0.05131109
-4.079255	вздымающийся	-0.05146855
-3.897773	взлохмаченная	-0.1671079
-4.079255	взоры	-0.0517847
-4.079255	взошёл	-0.04636933
-3.897773	взрослых	0.03236206
-3.897773	взял	-0.05174851
-3.897773	взяла	-0.04835949
-3.897773	взялся	-0.05054833
-4.079255	взять	-0.04856204
-4.079255	вид	-0.04967007
-3.424473	видел	-0.07700296
-3.897773	видела	-0.003716871
-4.079255	виден	-0.0517847
-3.635622	видеть	-0.07341084
-4.079255	видим	-0.0517847
-3.635622	видимо	-0.08366593
-3.897773	видите	-0.002976608
-4.079255	видишь	-0.05033354
-3.897773	видна	-0.05057516
-3.635622	видно	0.006522708
-3.897773	видны	-0.05172973
-4.079255	видные	-0.05020725
-4.079255	видом	-0.003757298
-4.079255	виду	-0.01962962
-4.079255	видывал	-0.0517847
-3.897773	вижу	-0.04947417
-4.079255	визгом	-0.0517847
-4.079255	визиты	-0.003757298
-4.079255	виктора	-0.0517847
-4.079255	вилась	-0.0517847
-4.079255	вились	-0.0517847
-4.079255	вильфор	-0.01962962
-4.079255	винты	-0.01962962
-4.079255	висбаден-хютте	-0.01962962
-4.079255	висевшей	-0.04856204
-4.079255	висела	-0.05023882
-3.897773	висели	-0.0502011
-3.897773	виски	-0.003716871
-4.079255	висящих	-0.0517847
-4.079255	вишь	-0.05124809
-4.079255	включённого	-0.04636933
-4.079255	вкратце	-0.0517847
-4.079255	вкус	-0.04982813
-4.079255	вкусах	-0.04802284
-4.079255	владыке	-0.05165743
-4.079255	влажным	-0.0517847
-4.079255	властвующие	-0.04802284
-4.079255	власти	-0.05156301
-4.079255	влево	-0.003757298
-4.079255	влез	-0.04636933
-4.079255	влезет	-0.01962962
-4.079255	влетит	-0.04349251
-3.424473	вместе	-0.3224608
-3.897773	вместо	-0.05140084
-3.897773	внезапно	-0.04343648
-4.079255	внесено	-0.05176593
-4.079255	внесены	-0.05137409
-4.079255	внесли	-0.05176593
-4.079255	внесён	-0.05096447
-3.897773	вниз	-0.003716871
-3.798698	внизу	-0.03759857
-3.897773	внимание	-0.002201371
-4.079255	внимания	-0.003757298
-3.897773	внимательно	-0.05070607
-3.348009	вновь	-0.05117928
-4.079255	внутренности	-0.05074375
-4.079255	внутренность	-0.05020725
-3.798698	внутри	-0.1246798
-3.897773	внутрь	-0.05171565
-2.987889	во	-0.1010656
-3.897773	вода	-0.04757209
-4.079255	воде	-0.01962962
-4.079255	водила	-0.05023882
-3.798698	воду	-0.04104424
-3.798698	воды	-0.06785005
-4.079255	водя	-0.05023882
-4.079255	воевали	-0.04856204
-4.079255	воем	-0.003757298
-4.079255	военкома	-0.0517847
-4.079255	военной	-0.0517847
-4.079255	вождь	-0.0517847
-4.079255	вождями	-0.05175184
-4.079255	возбуждённые	-0.003757298
-4.079255	возведено	-0.04349251
-4.079255	возводят	-0.04349251
-4.079255	возвращались	-0.05168891
-4.079255	возвращался	-0.04636933
-4.079255	возвращаться	-0.003757298
-4.079255	возвышении	-0.05176593
-3.635622	воздух	-0.01862913
-3.897773	воздуха	-0.1191133
-4.079255	воздухе	-0.05175184
-4.079255	воздуху	-0.003757298
-4.079255	воздушные	-0.0517847
-4.079255	возились	-0.05150004
-4.079255	возиться	-0.05168891
-3.798698	возле	-0.05098514
-4.079255	возможном	-0.0517847
-4.079255	возможности	-0.01962962
-4.079255	возможность	-0.01962962
-4.079255	возносившихся	-0.04982813
-4.079255	возьмите	-0.05146855
-4.079255	возьму	-0.0517847
-4.079255	возьмёт	-0.05146855
-4.079255	войдёт	-0.05074375
-4.079255	войлоком	-0.01962962
-3.798698	войн	-0.04962757
-4.079255	войне	-0.01962962
-3.897773	войти	-0.04146108
-3.424473	вокруг	-0.0291994
-4.079255	волги	-0.01962962
-4.079255	воле	-0.003757298
-4.079255	волнистых	-0.05176593
-3.897773	волны	-0.05172973
-4.079255	володя	-0.003757298
-3.897773	волос	-0.002553921
-3.897773	волосами	-0.01082671
-4.079255	волосы	-0.0517847
-3.897773	вон	-0.04335797
-4.079255	воображению	-0.0517847
-4.079255	вообразить	-0.04802284
-3.424473	вообще	-0.01265944
-4.079255	вообще-то	-0.0517847
-4.079255	вооружённым	-0.0517847
-4.079255	вооружённых	-0.04365284
-4.079255	вопрос	-0.0517847
-4.079255	вопроса	-0.01962962
-4.079255	вопросы	-0.01962962
-3.798698	ворона	0.03244586
-4.079255	ворот	-0.05137409
-3.798698	ворота	-0.1246483
-4.079255	воротах	-0.05153152
-4.079255	воротник	-0.04982813
-4.079255	воротником	-0.003757298
-4.079255	ворчливо	-0.003757298
-4.079255	восемнадцатого	-0.003757298
-4.079255	восемнадцать	-0.01962962
-3.091006	восемь	-0.03121385
-3.798698	восемьдесят	-0.01887039
-4.079255	воскликнул	-0.0517847
-4.079255	воскликнула	-0.05168891
-4.079255	восковую	-0.04365284
-4.079255	воскресений	-0.003757298
-4.079255	воскресенье	-0.05176593
-4.079255	воскресной	-0.0517847
-4.079255	воспоминания	-0.003757298
-4.079255	воспроизведены	-0.0517847
-4.079255	восседал	-0.0517847
-4.079255	восстание	-0.003757298
-4.079255	востока	-0.04636933
-4.079255	востоку	-0.05042824
-4.079255	восточном	-0.0517847
-4.079255	восточному	-0.0517847
-4.079255	восточный	-0.0517847
-4.079255	восхитили	-0.04365284
-4.079255	восхищаешься	-0.003757298
-3.897773	восьми	-0.04811186
-3.176484	вот	-0.03473845
-3.798698	вот-вот	-0.05169355
-3.897773	вошли	-0.1588485
-3.798698	вошёл	-0.2275759
-4.079255	вояки	-0.05176593
-4.079255	впадающих	-0.01962962
-4.079255	впадинах	-0.01962962
-3.897773	впервые	-0.04338185
-3.897773	вперёд	-0.003716871
-4.079255	вплоть	-0.05127959
-4.079255	вполне	-0.05176593
-3.897773	впоследствии	-0.05114744
-3.897773	вправду	-0.05096772
-3.897773	вправо	-0.003716871
-3.424473	впрочем	-0.002642732
-4.079255	впрямь	-0.04775028
-4.079255	врага	-0.01962962
-4.079255	врагу	-0.003757298
-3.897773	врач	-0.003695901
-4.079255	времена	-0.05165743
-3.897773	времени	-0.05169687
-4.079255	временное	-0.05176593
-3.283013	время	-0.01079809
-4.079255	времён	-0.0517847
-3.897773	вроде	-0.05143233
-2.756291	все	-0.144119
-3.22649	всегда	-0.04254596
-3.091006	всего	0.00100904
-4.079255	всей	-0.0517847
-4.079255	вселенной	-0.01962962
-3.635622	всем	-0.003615055
-4.079255	всему	-0.05140558
-4.079255	всерьёз	-0.01962962
-3.348009	всех	-0.03366386
-4.079255	всецело	-0.003757298
-4.079255	вскинул	-0.04636933
-4.079255	вскоре	-0.05150004
-4.079255	вскрикивая	-0.003757298
-3.635622	вслед	-0.1809579
-4.079255	вслух	-0.04963846
-4.079255	всплеснул	-0.05175184
-3.897773	вспоминал	-0.05001158
-3.897773	вспомнил	-0.05169355
-4.079255	вспомнила	-0.05077529
-4.079255	вспомнить	-0.04963846
-3.897773	вспыхнул	-0.1671407
-4.079255	вставляй	-0.003757298
-4.079255	встал	-0.0517847
-4.079255	встала	-0.04349251
-4.079255	встретил	-0.05176593
-4.079255	встретились	-0.0517847
-4.079255	встретился	-0.05168891
-4.079255	встретится	-0.04856204
-4.079255	встречен	-0.0517847
-4.079255	встречи	-0.05074375
-3.897773	встречный	-0.05174851
-4.079255	встряхивал	-0.05176593
-4.079255	встряхнул	-0.05176593
-4.079255	вступили	-0.04349251
-4.079255	вступился	-0.01962962
-4.079255	вступить	-0.04349251
-3.798698	всю	-0.05158504
-3.897773	всюду	-0.003609862
-3.635622	вся	-0.04108914
-3.51734	всякий	-0.09391231
-4.079255	всяким	-0.0517847
-3.798698	всякого	-0.05169355
-4.079255	всякое	-0.05176593
-4.079255	всякой	-0.05162596
-4.079255	всяком	-0.0517847
-2.958323	всё	0.0006946251
-3.51734	всё-таки	-0.09378492
-4.079255	всём	-0.05174851
-4.079255	вторая	-0.0517847
-3.897773	второго	-0.003695901
-4.079255	второе	-0.003757298
-3.798698	второй	-0.003372625
-4.079255	второму	-0.0517847
-4.079255	втянули	-0.04998614
-4.079255	втянуть	-0.04349251
-4.079255	входа	-0.01065379
-4.079255	входил	-0.05172038
-3.897773	входит	-0.1588485
-4.079255	входящего	-0.05137409
-4.079255	вцепился	-0.04349251
-4.079255	вчера	-0.003757298
-4.079255	вчерашнего	-0.0517847
-4.079255	въедет	-0.04349251
-4.079255	въезд	-0.04998614
-4.079255	въехал	-0.04636933
-4.079255	въехала	-0.05175184
-3.091006	вы	-0.05301311
-4.079255	выбегали	-0.0517847
-4.079255	выбежал	-0.05176593
-4.079255	выбравшись	-0.05020725
-4.079255	выброшена	-0.04636933
-4.079255	вывешивали	-0.0517847
-4.079255	выглядывала	-0.04636933
-4.079255	выглядывали	-0.0517847
-4.079255	выглядывающими	-0.04982813
-4.079255	выгода	-0.05176593
-4.079255	выдали	-0.003757298
-4.079255	выдать	-0.0517847
-4.079255	выдвинуты	-0.04349251
-4.079255	выдержал	0.005376756
-4.079255	выдыхание	-0.01962962
-4.079255	выехал	-0.05176593
-4.079255	выздоровления	-0.05176593
-4.079255	вызывает	-0.05156301
-4.079255	выиграем	-0.01962962
-3.897773	выйти	-0.0462994
-4.079255	выкинул	-0.05162596
-4.079255	выкладками	-0.01962962
-4.079255	выключил	-0.05176593
-4.079255	выкрашен	-0.0517847
-4.079255	выкрашенные	-0.0517847
-4.079255	выкушал	-0.05176593
-4.079255	вылез	-0.05020725
-4.079255	выложили	-0.05175184
-4.079255	вымерять	-0.0517847
-4.079255	вымышленным	-0.05176593
-4.079255	вынул	-0.05020725
-4.079255	выпей	-0.0517847
-4.079255	выпив	-0.05176593
-4.079255	выпили	-0.05146855
-4.079255	выписаны	-0.05168891
-4.079255	выписывает	-0.04349251
-3.897773	выпить	0.03236206
-4.079255	выползли	-0.04636933
-4.079255	выпросил	-0.05033354
-4.079255	выпрямливался	-0.0517847
-4.079255	выпятил	-0.0517847
-4.079255	выражая	-0.0517847
-4.079255	выражение	-0.003757298
-4.079255	выражения	-0.01962962
-4.079255	выразительную	-0.003757298
-3.897773	выразить	-0.05136795
-4.079255	вырвавшись	-0.003757298
-4.079255	вырвать	-0.0517847
-4.079255	вырваться	-0.05020725
-4.079255	вырезанная	-0.05176593
-4.079255	вырисовывалась	-0.05175184
-4.079255	вырождение	-0.0517847
-4.079255	выросшим	-0.04636933
-4.079255	высказываний	-0.0517847
-4.079255	выслала	-0.05153152
-4.079255	высмаркивался	-0.05175184
-4.079255	высматривает	-0.05168891
-4.079255	высокие	-0.04365284
-4.079255	высокий	-0.003757298
-4.079255	высоких	-0.0517847
-4.079255	высоко	-0.0517847
-4.079255	высокогорных	-0.05176593
-4.079255	высокой	-0.003757298
-4.079255	высокую	-0.05175184
-4.079255	высоте	-0.05176593
-4.079255	высоту	-0.01962962
-4.079255	высоты	0.005376756
-4.079255	высохшие	-0.0517847
-4.079255	выстрела	-0.05168891
-4.079255	выступить	-0.04349251
-4.079255	высыпали	-0.05020725
-4.079255	вытащил	-0.0517847
-4.079255	вытащить	-0.05176593
-4.079255	вытребовать	-0.05033354
-4.079255	вытягиваться	-0.05137409
-4.079255	вытягивая	-0.05168891
-4.079255	вытянулось	-0.01962962
-4.079255	выхода	-0.01789157
-4.079255	выходе	-0.05020725
-4.079255	выходил	-0.003757298
-4.079255	выходила	-0.05165743
-4.079255	выходить	-0.04349251
-4.079255	выходящее	-0.05020725
-4.079255	выходящих	-0.003757298
-4.079255	выше	-0.0517847
-3.635622	вышел	-0.07626359
-4.079255	вышивает	-0.05118508
-3.897773	вышины	-0.003328528
-3.897773	вышла	-0.003645018
-4.079255	выщекатурен	-0.04365284
-4.079255	вьющимися	-0.0517847
-4.079255	вязли	-0.05023882
-4.079255	вёзших	-0.05093295
-4.079255	вёрст	-0.05140558
-4.079255	габсбурги	-0.003757298
-4.079255	гадали	-0.05077529
-4.079255	газет	-0.01962962
-3.897773	газеты	0.03242877
-4.079255	галантерейщица	-0.04856204
-4.079255	галерее	-0.0517847
-4.079255	галлюцинациями	-0.05176593
-4.079255	галя	-0.01962962
-4.079255	гардероба	-0.05176593
-4.079255	гарцевавших	-0.05023882
-4.079255	гаскони	-0.003757298
-3.897773	гасси	-0.003258169
-3.897773	гвардии	0.005556248
-4.079255	гвоздиками	-0.0517847
-4.079255	гвоздями	-0.003757298
-3.091006	где	-0.02601926
-3.897773	где-нибудь	-0.04345562
-3.635622	где-то	-0.04889212
-4.079255	гелашвили	-0.01962962
-4.079255	гениальный	-0.003757298
-4.079255	геннельхольм	-0.01962962
-3.897773	генрих	-0.00368017
-4.079255	генриэттой	-0.01962962
-4.079255	генэго	-0.003757298
-4.079255	геометрически	-0.0517847
-4.079255	геометрическими	-0.0517847
-4.079255	геометрических	-0.0517847
-4.079255	геометрического	-0.05176593
-4.079255	гермафродита	-0.003757298
-4.079255	геройские	-0.0517847
-4.079255	героях	-0.0517847
-4.079255	герцог	-0.05176593
-4.079255	герцога	-0.0517847
-4.079255	герцогиня	-0.01962962
-4.079255	гессенский	-0.003757298
-4.079255	гибкие	-0.05176593
-4.079255	гибких	-0.0517847
-3.897773	гигантских	-0.05174851
-3.897773	гигантской	-0.05172973
-4.079255	гидрата	-0.0517847
-4.079255	гийому	-0.0517847
-4.079255	гинденбург	-0.05176593
-4.079255	главе	-0.05172038
-4.079255	главным	-0.0517847
-4.079255	главными	-0.0517847
-4.079255	гладкие	-0.04802284
-4.079255	гладких	-0.05176593
-3.635622	глаз	-0.005478159
-3.348009	глаза	-0.04775676
-3.798698	глазами	-0.04104424
-3.897773	глазах	-0.01799361
-3.897773	глазков	0.03236206
-4.079255	глазных	-0.0517847
-4.079255	гленарван	-0.0517847
-4.079255	глинистая	-0.05176593
-4.079255	глины	-0.003757298
-4.079255	глоткой	-0.0517847
-3.897773	глотку	-0.1191133
-4.079255	глубже	-0.0517847
-4.079255	глубине	-0.04994979
-3.897773	глубины	-0.01955168
-4.079255	глубокие	-0.05176593
-3.798698	глубоко	-0.05164799
-3.635622	глубь	-0.002852425
-3.897773	глуп	-0.003716871
-4.079255	глухо	-0.0517847
-4.079255	глюк	-0.003757298
-3.897773	глядел	-0.1617254
-3.897773	глядели	-0.04633267
-4.079255	глядеть	-0.04349251
-4.079255	гляди	-0.003757298
-4.079255	глядит	-0.04636933
-4.079255	глядя	-0.04349251
-4.079255	глянул	-0.04636933
-4.079255	гневно	0.005376756
-4.079255	гневному	-0.04365284
-4.079255	гниющей	-0.05176593
-4.079255	говит	-0.003757298
-3.897773	говор	-0.003716871
-4.079255	говори	-0.05099599
-3.424473	говорил	-0.05152635
-3.897773	говорила	-0.0496323
-3.897773	говорили	-0.01867328
-3.424473	говорит	-0.005858086
-3.283013	говорить	-0.07435371
-4.079255	говоришь	-0.003757298
-3.897773	говорю	-0.01945359
-3.897773	говоря	-0.0510529
-3.897773	говорят	-0.05064298
-4.079255	год	-0.0517847
-4.079255	годы	-0.01962962
-4.079255	голенищ	-0.0517847
-4.079255	голова	-0.04802284
-4.079255	голове	-0.003757298
-3.635622	головой	-0.02145318
-3.635622	голову	0.03260611
-3.897773	головы	-0.003716871
-4.079255	голоден	-0.01962962
-3.283013	голос	-0.078091
-4.079255	голосами	-0.01962962
-4.079255	голубую	-0.0517847
-4.079255	голубые	-0.05174851
-4.079255	голубым	-0.0517847
-4.079255	голубя	-0.01962962
-4.079255	гонит	-0.003757298
-4.079255	гонт-хауса	-0.05176593
-3.635622	гор	-0.09788842
-4.079255	гора	-0.003757298
-3.897773	гораздо	-0.05083222
-3.897773	горела	-0.167122
-4.079255	горелому	-0.003757298
-4.079255	горечь	-0.0517847
-4.079255	горизонта	-0.01962962
-4.079255	горизонте	-0.05134259
-4.079255	горная	-0.05150004
-4.079255	горничная	-0.003757298
-4.079255	горном	-0.0517847
-3.897773	горную	-0.1668561
-3.348009	город	-0.04535231
-3.51734	города	-0.07668415
-4.079255	городам	-0.05175184
-4.079255	городах	-0.05146855
-3.897773	городе	-0.01951629
-4.079255	городок	-0.003757298
-4.079255	горой	-0.01962962
-3.897773	горошком	0.005418025
-4.079255	горький	-0.05165743
-3.897773	горят	-0.05131906
-4.079255	горячая	-0.05159448
-4.079255	горячего	-0.0517847
-4.079255	горячек	-0.0517847
-4.079255	горячий	-0.003757298
-4.079255	господа	-0.0517847
-4.079255	господами	-0.0517847
-3.131645	господин	-0.04670891
-3.897773	господина	-0.05172973
-4.079255	госпожи	-0.05175184
-4.079255	гостей	-0.003757298
-4.079255	гостиница	-0.05105903
-4.079255	гостинице	-0.01962962
-3.51734	гостиницы	-0.09289859
-4.079255	гостиную	-0.0517847
-4.079255	гость	-0.0517847
-4.079255	гостю	-0.0517847
-4.079255	государей	-0.003757298
-4.079255	готов	-0.0517847
-4.079255	готовить	-0.05172038
-4.079255	готовые	-0.0517847
-4.079255	готовый	-0.04982813
-4.079255	гравюрах	-0.003757298
-4.079255	гравюру	-0.003757298
-4.079255	градусов	-0.01962962
-4.079255	граждан	-0.003757298
-4.079255	граждане	-0.0517847
-4.079255	гранаты	-0.01962962
-3.897773	граф	-0.04969554
-4.079255	графиня	-0.05172038
-4.079255	гребень	-0.0517847
-4.079255	гремящую	-0.05150004
-4.079255	грессигмана	-0.003757298
-4.079255	грехом	-0.0517847
-4.079255	греца	-0.003757298
-4.079255	григорьевичу	-0.04365284
-4.079255	грозовой	-0.05172038
-4.079255	грозой	-0.01962962
-4.079255	грома	-0.003757298
-3.798698	громко	-0.01721931
-4.079255	громыхавшими	-0.0517847
-4.079255	гроссмейстера	-0.0517847
-4.079255	грохотом	-0.04365284
-4.079255	грубее	-0.0517847
-4.079255	груди	-0.003757298
-3.635622	грудь	-0.06840363
-4.079255	грудями	-0.01948748
-4.079255	группе	-0.0517847
-4.079255	группы	-0.01962962
-4.079255	грустно	-0.01962962
-4.079255	груффельштрассе	-0.01962962
-4.079255	гряда	-0.0517847
-4.079255	гряды	-0.0517847
-4.079255	грязноватых	-0.05090142
-4.079255	грязной	-0.0517847
-4.079255	грязны	-0.04365284
-4.079255	грязные	-0.003757298
-3.897773	грязь	0.03236206
-4.079255	грязью	-0.01962962
-4.079255	грёб	-0.05153152
-4.079255	губ	-0.05143707
-3.897773	губами	-0.01082671
-4.079255	губах	-0.01962962
-4.079255	губернатор	-0.05143707
-4.079255	губернии	-0.0517847
-4.079255	губернским	-0.0517847
-4.079255	губернских	-0.0517847
-4.079255	губернского	-0.05168891
-4.079255	губу	-0.003757298
-4.079255	гудящие	-0.05176593
-4.079255	гуляющую	-0.05165743
-3.22649	гусев	-0.1115632
-4.079255	гусеву	-0.0517847
-4.079255	густо	-0.05124809
-4.079255	гуще	-0.0517847
-3.897773	гынь	-0.09297673
-3.897773	гэ	-0.0771022
-4.079255	гюго	-0.003757298
-4.079255	д'артуа	-0.05146855
-3.635622	да	0.0174014
-4.079255	давали	-0.05146855
-4.079255	давешнюю	-0.0517847
-3.897773	давит	-0.05172973
-3.635622	давно	-0.02145318
-4.079255	дадим	-0.05159448
-2.987889	даже	-0.0542329
-4.079255	дай	-0.05153152
-4.079255	дайте	-0.05071221
-4.079255	дак	-0.003757298
-3.798698	дал	-0.05006864
-3.51734	далеко	0.03712899
-4.079255	дало	-0.05109055
-3.798698	дальше	-0.001347221
-3.897773	далёкий	-0.0516654
-4.079255	дама	-0.01962962
-4.079255	дамочка	-0.003757298
-3.635622	дамы	0.03436575
-4.079255	данте	-0.0517847
-4.079255	дар	-0.0517847
-4.079255	дарохранительницы	-0.0517847
-3.897773	даст	-0.05136795
-4.079255	дать	-0.0517847
-3.897773	дают	-0.04956906
-3.897773	даёт	-0.05140084
-3.22649	два	-0.07198348
-4.079255	двадцатипфенниговые	-0.003757298
-4.079255	двадцатого	-0.003757298
-3.51734	двадцать	-0.08030441
-4.079255	дважды	-0.01962962
-3.897773	две	-0.1671407
-4.079255	двенадцати	-0.05137409
-4.079255	двенадцатый	-0.05175184
-3.635622	двенадцать	-0.1051608
-4.079255	дверей	-0.0517847
-3.897773	двери	-0.04104424
-4.079255	дверца	-0.04349251
-3.897773	дверцу	-0.003539547
-3.348009	дверь	0.01662416
-3.897773	дверью	-0.04343648
-4.079255	двести	-0.0517847
-4.079255	двигались	-0.0517847
-3.897773	двигатель	-0.01959065
-4.079255	движение	-0.04636933
-3.897773	движением	-0.05152679
-3.897773	движения	0.005439442
-4.079255	движениям	-0.0517847
-4.079255	движущего	-0.0517847
-4.079255	двинуться	-0.04982813
-4.079255	двое	-0.05074375
-4.079255	двойная	-0.003695901
-4.079255	двор	-0.00339888
-4.079255	дворе	-0.05162596
-4.079255	дворца	-0.0517847
-4.079255	дворцовый	-0.0517847
-3.635622	двух	-0.01945709
-3.635622	де	-0.09421583
-4.079255	девицей	-0.05042824
-4.079255	девичьего	-0.0517847
-4.079255	девка	-0.003757298
-3.798698	девочка	-0.0194824
-4.079255	девочки	-0.003757298
-4.079255	девушка	-0.003757298
-4.079255	девушки	-0.003757298
-4.079255	девчата	-0.003757298
-4.079255	девчонка	-0.01962962
-4.079255	девы	-0.05176593
-3.635622	действительно	-0.00239395
-4.079255	действительности	-0.01962962
-3.897773	действовать	-0.01375576
-4.079255	действует	-0.01962962
-4.079255	действующих	-0.0517847
-4.079255	дека	-0.003757298
-4.079255	дел	-0.04349251
-3.51734	дела	2.137572e-05
-4.079255	делает	-0.05176593
-4.079255	делается	-0.01962962
-3.897773	делал	-0.01525761
-3.283013	делать	-0.08970592
-4.079255	делают	-0.05140558
-3.897773	делая	-0.1671407
-3.798698	деле	-0.01199401
-3.22649	дело	-0.07781785
-4.079255	деловой	-0.05176593
-3.897773	делом	-0.00368017
-4.079255	делу	-0.01962962
-4.079255	демикотонном	-0.05176593
-4.079255	демократической	-0.0517847
-4.079255	демонстраций	-0.05118508
-4.079255	демонстрирует	-0.0517847
-3.897773	денег	-0.1349857
-3.176484	день	0.006887559
-4.079255	деньгами	0.005376756
-4.079255	деньгах	-0.01846949
-3.635622	деньги	-0.0533821
-4.079255	депо	-0.003757298
-4.079255	дергача	-0.01962962
-4.079255	дерев	-0.003757298
-3.897773	дерева	-0.04852558
-4.079255	деревенские	-0.0517847
-4.079255	деревне	-0.05172038
-4.079255	деревни	-0.003757298
-4.079255	деревню	-0.0517847
-3.798698	деревьев	0.03267511
-4.079255	деревья	-0.04963846
-4.079255	деревьям	-0.003757298
-4.079255	деревянной	-0.0517847
-4.079255	державшая	-0.0517847
-3.798698	держал	-0.003618777
-4.079255	держала	-0.0517847
-4.079255	десерт	-0.003757298
-4.079255	дескать	-0.05150004
-4.079255	десяти	-0.05175184
-4.079255	десятипфенниговые	-0.0517847
-4.079255	десятков	-0.05137409
-3.51734	десять	-0.003100011
-4.079255	детали	-0.01962962
-4.079255	детей	-0.05168891
-3.798698	дети	0.001524705
-4.079255	детишек	-0.04365284
-4.079255	детства	-0.003757298
-4.079255	джейн	-0.0517847
-4.079255	джемса	-0.05176593
-4.079255	джорджа	-0.01962962
-4.079255	джузеппе	-0.0517847
-4.079255	диагонали	-0.01962962
-4.079255	диван	-0.0517847
-4.079255	диване	-0.003757298
-4.079255	дикарки	-0.0517847
-4.079255	дикарь	-0.003757298
-4.079255	дикарями	-0.003757298
-4.079255	дикая	-0.0517847
-4.079255	дикого	-0.0517847
-4.079255	дистанционного	-0.0517847
-4.079255	длинна	-0.04349251
-4.079255	длинная	-0.05150004
-4.079255	длинном	-0.0517847
-3.897773	длинные	-0.05171565
-4.079255	длинный	-0.04365284
-4.079255	длинным	-0.0517847
-4.079255	длинными	-0.0517847
-2.834775	для	-0.07955429
-4.079255	дна	-0.05134259
-3.798698	дней	0.03240598
-4.079255	днепр	-0.0517847
-3.798698	дни	-0.003358435
-3.897773	дня	0.005660262
-4.079255	дням	-0.0517847
-4.079255	днём	-0.01962962
-2.904619	до	-0.1332245
-4.079255	добавляет	-0.05143707
-4.079255	добавьте	-0.04349251
-4.079255	доббин	-0.05096447
-4.079255	добраться	-0.01962962
-4.079255	добровольцем	-0.003757298
-4.079255	доброе	-0.05176593
-4.079255	доброхотов	-0.04349251
-4.079255	доверяю	-0.05176593
-4.079255	доволен	-0.003757298
-3.798698	довольно	-0.05171232
-4.079255	договорил	-0.0517847
-3.798698	доедет	-0.07296707
-4.079255	дождём	-0.003757298
-4.079255	доказал	-0.04967007
-4.079255	доказательств	-0.04349251
-4.079255	доказательства	-0.05159448
-4.079255	доктор	-0.05176593
-4.079255	доктора	-0.003757298
-4.079255	долга	-0.01962962
-3.897773	долго	-0.05164191
-4.079255	долетал	-0.01962962
-3.635622	должен	-0.05054407
-3.897773	должна	-0.044793
-3.897773	должно	-0.05013794
-4.079255	должности	-0.003757298
-3.798698	должны	-0.1247442
-4.079255	долило	-0.0517847
-4.079255	долотами	-0.05023882
-4.079255	долю	-0.0517847
-3.897773	дом	-0.05171565
-3.176484	дома	-0.07428933
-4.079255	домах	-0.01962962
-4.079255	домашняя	-0.003757298
-3.635622	доме	0.03260611
-4.079255	домик	-0.003757298
-4.079255	домов	-0.003574707
-3.798698	домой	0.00786728
-4.079255	домом	-0.05175184
-4.079255	дональд	-0.0517847
-4.079255	донесёт	-0.003757298
-4.079255	доносились	-0.05172038
-4.079255	донёсся	-0.05176593
-4.079255	дорога	-0.05165743
-3.635622	дороге	-0.01053444
-3.798698	дороги	-0.1878407
-3.897773	дорогой	0.03236206
-4.079255	дорогу	-0.04636933
-4.079255	доскам	-0.003757298
-4.079255	досками	-0.00368017
-4.079255	досмерти	-0.01962962
-4.079255	доставила	-0.04998614
-4.079255	достали	-0.04998614
-3.897773	достаточно	-0.05073761
-4.079255	достичь	-0.05146855
-4.079255	достоинство	-0.0517847
-4.079255	достоинством	-0.003757298
-4.079255	доступ	-0.05176593
-4.079255	досуге	-0.05176593
-4.079255	дохода	-0.04365284
-4.079255	доходившем	-0.05127959
-4.079255	дочери	-0.0517847
-4.079255	дочурка	-0.003757298
-3.798698	дочь	-0.01955168
-4.079255	дремлет	-0.0517847
-4.079255	дришка	-0.003757298
-3.897773	дрожали	-0.01375576
-4.079255	дрожь	-0.0517847
-3.635622	друг	-0.05386142
-3.635622	друга	-0.05729727
-3.798698	другая	-0.05156486
-3.897773	другим	-0.05172973
-4.079255	другими	-0.0517847
-4.079255	других	-0.05165743
-3.798698	другого	-0.125136
-3.897773	другое	-0.01935188
-3.348009	другой	-0.06765657
-3.798698	другом	-0.07177814
-3.897773	другому	-0.01953146
-3.635622	другую	-0.01942169
-4.079255	дружбы	-0.05131109
-4.079255	дружине	-0.05118508
-4.079255	друзья	-0.01962962
-4.079255	дрёму	-0.003757298
-4.079255	думаете	-0.01962962
-3.798698	думаешь	-0.01510738
-3.798698	думал	-0.01398277
-3.897773	думала	-0.01959065
-4.079255	думали	-0.04967007
-3.635622	думать	0.03367569
-3.348009	думаю	-0.05547062
-4.079255	думают	-0.05077529
-4.079255	думая	-0.05077529
-4.079255	дурной	-0.0517847
-3.897773	духа	0.03236206
-4.079255	духом	-0.05146855
-3.897773	душ	-0.1671407
-3.798698	душа	-0.01944851
-3.897773	душе	-0.01812963
-3.798698	души	-0.04104424
-4.079255	душно	-0.0517847
-4.079255	душу	-0.0517847
-4.079255	дыма	-0.04365284
-4.079255	дымящейся	-0.05176593
-4.079255	дыхания	-0.0517847
-4.079255	дышалось	-0.05176593
-4.079255	дышат	-0.05153152
-4.079255	дыши	-0.04524661
-4.079255	дьявол	-0.0517847
-4.079255	дьякон	-0.04365284
-4.079255	дьяконица	-0.003757298
-4.079255	дюма	-0.01962962
-4.079255	дюфи	-0.04979653
-4.079255	дюфэ	-0.01962962
-4.079255	дядей	-0.003757298
-3.897773	дядю	-0.01082671
-3.51734	дядя	-0.009950697
-4.079255	дёргалась	-0.05042824
-4.079255	дёргался	-0.003757298
-4.079255	дёрнул	-0.04636933
-4.079255	евгения	-0.05176593
-4.079255	еврейского	-0.0517847
-3.897773	европе	-0.01853743
-2.375124	его	0.05115374
-4.079255	едва	-0.05096447
-4.079255	единственное	-0.05172038
-4.079255	единственные	-0.05176593
-4.079255	единственный	-0.05020725
-4.079255	еду	-0.05146855
-4.079255	еды	-0.04963846
-4.079255	едят	-0.0517847
-4.079255	ездить	-0.05137409
-4.079255	ездят	-0.0517847
-3.019617	ей	-0.005295929
-2.721797	ему	-0.004683383
-3.176484	если	-0.08921435
-4.079255	естественно	-0.05093295
-4.079255	естественными	-0.0517847
-2.856832	есть	-0.0413109
-4.079255	ехал	-0.05172038
-4.079255	ехать	-0.003757298
-2.660079	ещё	-0.05593507
-4.079255	ею	-0.0517847
-2.457009	её	0.05364867
-3.51734	ж	0.01475532
-4.079255	жадно	-0.05176593
-4.079255	жажда	-0.003757298
-4.079255	жаждал	-0.003757298
-4.079255	жажду	-0.0517847
-4.079255	жалко	-0.05146855
-4.079255	жалованье	-0.05176593
-4.079255	жаль	-0.0517847
-3.897773	жареная	-0.05174851
-4.079255	жаркие	-0.0517847
-4.079255	жаркий	-0.003757298
-4.079255	жарко	-0.01962962
-4.079255	жгуты	-0.0517847
-3.424473	ждал	0.000760369
-4.079255	ждановскую	-0.0517847
-3.635622	ждать	-0.003246058
-4.079255	жду	-0.0517847
-4.079255	ждущие	-0.05033354
-3.798698	ждёт	-0.04991346
-2.53584	же	0.03079921
-4.079255	жевал	-0.0517847
-3.897773	желал	-0.05007476
-4.079255	желание	-0.05033354
-4.079255	желании	-0.0517847
-4.079255	желаю	-0.05026565
-4.079255	железнодорожная	-0.05175184
-4.079255	железнодорожную	-0.05175184
-4.079255	железное	-0.01962962
-4.079255	железной	-0.0517847
-4.079255	железный	-0.05159448
-4.079255	железных	-0.0517847
-4.079255	железо	-0.01962962
-4.079255	желтоватые	-0.0517847
-3.798698	жена	-0.01949607
-4.079255	женатым	-0.0517847
-3.897773	женился	-0.0380971
-4.079255	женитьбы	-0.01962962
-4.079255	женой	-0.01962962
-4.079255	женский	-0.05159448
-4.079255	женских	-0.003757298
-3.897773	женщин	-0.003539547
-3.635622	женщина	0.03647307
-4.079255	женщину	0.005556248
-3.897773	женщины	0.03236206
-3.897773	жены	-0.04361596
-4.079255	женяра	-0.0517847
-4.079255	жеребца	-0.003757298
-4.079255	жертвенник	-0.003757298
-4.079255	жертву	-0.0517847
-4.079255	жестокий	-0.0517847
-4.079255	жесты	-0.003757298
-4.079255	жестяном	-0.0517847
-4.079255	жиакомо	-0.003757298
-4.079255	жиан	-0.0517847
-4.079255	жив	-0.04963846
-4.079255	живое	-0.003757298
-4.079255	живоносного	-0.05176593
-4.079255	живописный	-0.05162596
-4.079255	животворному	-0.003757298
-4.079255	животные	-0.05176593
-3.798698	живу	-0.04737526
-4.079255	живут	-0.003757298
-4.079255	живым	-0.04365284
-3.897773	живёт	-0.04490322
-4.079255	жизненной	-0.0517847
-3.424473	жизни	-0.202094
-3.283013	жизнь	-0.002045427
-4.079255	жил	-0.0517847
-3.798698	жила	0.0341682
-3.897773	жили	-0.1588485
-3.897773	жилища	-0.003716871
-4.079255	жилой	-0.05176593
-4.079255	жимолости	-0.003757298
-4.079255	жителей	-0.01962962
-3.51734	жить	-0.05835323
-4.079255	жмурясь	-0.05042824
-4.079255	жмёт	-0.05172038
-4.079255	жоффруа	-0.05172038
-4.079255	жрать	-0.05042824
-4.079255	жрицы	-0.01962962
-4.079255	журавли	-0.01962962
-4.079255	журавлём	-0.003757298
-4.079255	жутко	-0.0517847
-4.079255	жюри	-0.003757298
-4.079255	жёлтая	-0.0517847
-4.079255	жёлтой	-0.05175184
-4.079255	жёлтою	-0.0517847
-4.079255	жёлтыми	-0.0517847
-4.079255	жёсткого	-0.0517847
-2.60605	за	-0.05877035
-3.897773	забавно	-0.01959065
-4.079255	забормотал	-0.04963846
-4.079255	заботясь	-0.05077529
-4.079255	забранные	-0.0517847
-4.079255	заброшена	-0.01962962
-4.079255	заброшенном	-0.05172038
-4.079255	забывая	-0.04967007
-3.51734	забыл	0.03886776
-4.079255	забыла	-0.04967007
-4.079255	забылись	-0.003757298
-4.079255	забыт	-0.01962962
-4.079255	заваленном	-0.05176593
-4.079255	завела	-0.0517847
-4.079255	завести	-0.05176593
-4.079255	завидев	-0.0517847
-4.079255	завизжали	-0.0517847
-4.079255	зависть	-0.05172038
-4.079255	заводе	-0.01962962
-3.798698	завтра	-0.01887189
-4.079255	завтрака	-0.003757298
-4.079255	завтракал	-0.01962962
-4.079255	завтракать	-0.003757298
-4.079255	завывает	-0.01962962
-4.079255	завывал	-0.01962962
-4.079255	завывающими	-0.0517847
-4.079255	завыли	-0.003757298
-4.079255	завёрнутая	-0.04349251
-3.897773	загадочной	-0.1671407
-4.079255	загаженном	-0.0517847
-4.079255	загнал	-0.05109055
-4.079255	загнувшись	-0.003757298
-4.079255	заговорил	-0.05077529
-4.079255	загонял	-0.04349251
-4.079255	загорается	-0.0517847
-4.079255	заграждений	-0.003757298
-4.079255	загримированный	-0.05118508
-4.079255	задавался	-0.05175184
-4.079255	задеть	-0.01962962
-4.079255	задувал	-0.0517847
-4.079255	зажги	-0.05165743
-3.897773	зажёг	-0.0515254
-4.079255	зазвякало	-0.0517847
-4.079255	зайдя	-0.05176593
-4.079255	займитесь	-0.05168891
-4.079255	займусь	-0.0517847
-4.079255	заказам	-0.05175184
-4.079255	заканчивалась	-0.01962962
-4.079255	заката	-0.04365284
-4.079255	закиданного	-0.0517847
-4.079255	закидывать	-0.0517847
-4.079255	закипевшую	-0.05175184
-4.079255	закипело	-0.04365284
-4.079255	заколоченные	-0.0517847
-4.079255	законного	-0.0517847
-4.079255	закончив	-0.05159448
-4.079255	закончится	-0.01962962
-4.079255	законы	-0.01962962
-4.079255	закопай	-0.05143707
-4.079255	закопчённый	-0.0517847
-4.079255	закричал	-0.04963846
-4.079255	закричали	-0.003757298
-4.079255	закрывающее	-0.05165743
-4.079255	закрытые	-0.0517847
-4.079255	закрытыми	-0.05175184
-4.079255	закурил	-0.003757298
-4.079255	закутываться	-0.05150004
-4.079255	залами	-0.003757298
-4.079255	зале	-0.003757298
-4.079255	залоснённые	-0.05176593
-3.798698	залу	0.03252226
-4.079255	залы	-0.05168891
-4.079255	замаслившимся	-0.04982813
-4.079255	замедленная	-0.0517847
-4.079255	заметали	-0.05176593
-3.798698	заметил	-0.1014583
-3.897773	заметила	-0.002553921
-4.079255	заметить	-0.003757298
-4.079255	заметно	-0.0517847
-4.079255	заметённую	-0.0517847
-4.079255	замечаемая	-0.0517847
-4.079255	замечает	-0.01962962
-4.079255	замечания	-0.05172973
-3.798698	замуж	0.03240598
-4.079255	замучили	-0.05131109
-4.079255	замыкают	-0.05150004
-4.079255	замышляет	-0.01962962
-4.079255	занавес	-0.003757298
-4.079255	занесло	-0.01962962
-4.079255	занимались	-0.05176593
-4.079255	занятие	-0.003757298
-4.079255	запад	-0.002201371
-4.079255	западни	-0.003757298
-4.079255	западу	-0.04365284
-3.424473	запах	-0.01520796
-4.079255	запахам	-0.003757298
-4.079255	запели	-0.0517847
-4.079255	записку	-0.05165743
-4.079255	заплакав	-0.003757298
-4.079255	заполнили	-0.05175184
-4.079255	запомнил	-0.01962962
-4.079255	запретную	-0.0517847
-4.079255	запрещено	-0.05042824
-4.079255	запрыгало	-0.01962962
-4.079255	запутались	-0.0517847
-4.079255	зарабатывать	-0.05175184
-4.079255	зарабатываю	-0.01962962
-4.079255	заражённые	-0.05153152
-4.079255	заранее	-0.05153152
-4.079255	зарезал	-0.0517847
-4.079255	заросли	-0.003757298
-4.079255	заросль	-0.01962962
-4.079255	заселённых	-0.0517847
-4.079255	заскрёб	-0.0517847
-3.897773	заснул	-0.003469218
-4.079255	заснуть	-0.003757298
-4.079255	засохнуть	-0.05176593
-4.079255	засохшей	-0.0517847
-3.897773	заставил	-0.05174851
-4.079255	заставила	-0.05175184
-4.079255	заставить	-0.05124809
-4.079255	заставленною	-0.0517847
-4.079255	заставляет	-0.05146855
-4.079255	заступиться	-0.05074375
-4.079255	застывшие	-0.0517847
-4.079255	застёгнутая	-0.0517847
-4.079255	засунул	-0.05074375
-4.079255	затейливые	-0.0517847
-3.798698	затем	-0.04801377
-4.079255	затерялось	-0.04349251
-4.079255	затея	-0.04802284
-4.079255	затрепетали	-0.05023882
-4.079255	затыкая	-0.0517847
-4.079255	затылке	-0.01962962
-4.079255	заученным	-0.05176593
-4.079255	захватив	-0.05134259
-4.079255	захватил	-0.0517847
-4.079255	захотела	-0.003757298
-4.079255	захохотала	-0.05080682
-3.798698	зачем	-0.047693
-3.897773	зашагал	-0.00329335
-4.079255	зашумел	-0.05159448
-3.897773	заявил	-0.04960208
-4.079255	звездою	-0.05042824
-4.079255	звезды-земли	-0.0517847
-4.079255	звенели	-0.05168891
-3.897773	зверь	-0.003539547
-4.079255	звон	-0.0517847
-4.079255	звонка	-0.04365284
-3.635622	звук	-0.05746375
-4.079255	звука	-0.01962962
-3.897773	звуке	-0.003716871
-3.897773	звуки	0.002336748
-4.079255	звучал	-0.04982813
-3.897773	звучит	0.002336748
-3.798698	звёзд	-0.04104424
-4.079255	звёздной	-0.0517847
-4.079255	звёздном	-0.05175184
-4.079255	звёздную	-0.0517847
-4.079255	звёзды	-0.003757298
-4.079255	здания	-0.003757298
-2.930641	здесь	-0.02569897
-4.079255	зевает	-0.05121659
-4.079255	зевать	-0.04365284
-4.079255	зевая	-0.05042824
-4.079255	зевоты	-0.04636933
-4.079255	зеленоватая	-0.003757298
-4.079255	зеленью	0.005376756
-4.079255	зелёное	-0.01962962
-3.897773	зелёные	-0.05174851
-4.079255	зелёный	-0.0517847
-4.079255	земзе	-0.01962962
-3.897773	земле	-0.002776276
-4.079255	земледелии	-0.003757298
-4.079255	землемер	-0.01962962
-4.079255	землемеры	-0.0517847
-4.079255	землетрясение	-0.0517847
-3.091006	земли	-0.1912097
-4.079255	землистая	-0.05176593
-3.798698	землю	-0.04225791
-3.635622	земля	-0.07334156
-4.079255	земляную	-0.05175184
-4.079255	земная	-0.05176593
-4.079255	земное	-0.0517847
-4.079255	земнухова	-0.003757298
-4.079255	земную	-0.0517847
-4.079255	зениту	-0.003757298
-4.079255	зеркалами	-0.01962962
-4.079255	зеркало	-0.003757298
-4.079255	зеркальному	-0.05176593
-4.079255	зерно	-0.01962962
-4.079255	зигзагами	-0.0517847
-4.079255	зизи	-0.0517847
-4.079255	зимой	-0.04349251
-4.079255	зимы	-0.0517847
-4.079255	злая	-0.01962962
-4.079255	зло	-0.05042824
-4.079255	злоумышленников	-0.05172038
-4.079255	злу	-0.003757298
-4.079255	знаем	-0.05077529
-3.51734	знает	-0.0888586
-3.897773	знаете	-0.1650261
-4.079255	знаешь	-0.04982813
-4.079255	знакомы	-0.05172038
-4.079255	знакомый	-0.05172038
-4.079255	знакомьтесь	-0.003757298
-3.635622	знал	-0.01833261
-4.079255	знали	-0.01748316
-4.079255	знаменитая	-0.0517847
-4.079255	знаменитыми	-0.05020725
-4.079255	знание	-0.01962962
-4.079255	знатной	-0.0517847
-3.51734	знать	-0.001668796
-3.798698	значит	-0.003472857
-4.079255	значительного	-0.0517847
-4.079255	значительных	-0.0517847
-3.424473	знаю	-0.0440821
-3.897773	знают	-0.01941969
-4.079255	зное	-0.0517847
-4.079255	зовут	-0.01962962
-3.897773	зовёт	-0.04979178
-4.079255	золота	-0.04365284
-4.079255	золотистой	-0.0517847
-4.079255	золотистым	-0.0517847
-4.079255	золотит	-0.0517847
-4.079255	золото	-0.01962962
-4.079255	золотого	-0.0517847
-3.897773	золотой	-0.05171565
-3.798698	золотом	-0.05161651
-4.079255	золотую	-0.0517847
-4.079255	золотых	-0.0517847
-4.079255	зонтики	-0.04856204
-4.079255	зрачках	-0.0517847
-4.079255	зрелища	-0.003757298
-4.079255	зубами	-0.05033354
-4.079255	зубах	-0.04998614
-4.079255	зубчатым	-0.0517847
-3.798698	зубы	0.0326369
-4.079255	зыбкие	-0.0517847
-3.798698	зыбь	-0.003567886
-4.079255	зыбью	-0.003757298
-3.897773	зюйд	-0.05172973
-4.079255	зятю	-0.0517847
-4.079255	зёрна	-0.0517847
-1.729744	и	0.04832991
-3.635622	ибо	-0.05129078
-3.897773	иванович	-0.003716871
-3.798698	игра	-0.01955168
-4.079255	играет	-0.04349251
-4.079255	играл	-0.01962962
-4.079255	играющие	-0.04636933
-4.079255	игрой	-0.05172038
-4.079255	игру	-0.04979653
-4.079255	идейной	-0.0517847
-4.079255	идите	-0.01962962
-3.424473	идти	-0.01026173
-4.079255	иду	-0.04349251
-3.635622	идёт	-0.04922292
-2.430783	из	-0.0670585
-3.176484	из-за	-0.06702202
-3.635622	из-под	-0.04966245
-4.079255	избегали	-0.05172038
-3.897773	известно	-0.0003566034
-3.897773	известного	-0.09297673
-3.897773	известную	-0.05168417
-4.079255	извилистой	-0.05176593
-4.079255	извращений	-0.003757298
-4.079255	издал	-0.0517847
-3.897773	издалека	-0.003716871
-3.798698	издали	-0.0189722
-4.079255	издательств	-0.01962962
-4.079255	излучины	-0.003757298
-4.079255	изменьщица	-0.01962962
-4.079255	измеряется	-0.05175184
-4.079255	изнеможении	-0.003757298
-4.079255	изнывали	-0.05042824
-4.079255	изо	-0.05162596
-4.079255	изображавший	-0.04349251
-4.079255	изображена	-0.05105903
-4.079255	изображение	-0.05175184
-4.079255	изредка	-0.05176593
-4.079255	изъеденное	-0.0517847
-4.079255	изыскание	-0.0517847
-4.079255	изящными	-0.0517847
-2.880068	или	-0.06907584
-4.079255	иль-де-франс	-0.003757298
-3.176484	им	-0.04943354
-4.079255	имеем	-0.0517847
-4.079255	имеет	-0.05176593
-3.897773	имел	-0.04604442
-3.897773	имела	-0.05140084
-4.079255	имели	-0.05118508
-4.079255	имело	-0.05165743
-3.897773	именем	-0.003539547
-3.283013	именно	-0.03974797
-3.897773	иметь	-0.1349857
-4.079255	имею	-0.04349251
-4.079255	имеющие	-0.05168891
-4.079255	ими	-0.0517847
-3.798698	имя	0.04229737
-4.079255	иначе	-0.01962962
-4.079255	индейку	-0.04365284
-4.079255	инженер	-0.003757298
-4.079255	инженера	-0.0517847
-3.635622	иногда	-0.04584069
-4.079255	иного	-0.05176593
-3.897773	иной	-0.05133646
-4.079255	иностранных	-0.0517847
-4.079255	инстинктивно	-0.04802284
-4.079255	инструментов	0.005376756
-4.079255	интерес	-0.05156301
-4.079255	интересно	-0.01962962
-3.897773	интересует	-0.1349857
-4.079255	интересуют	-0.01962962
-3.897773	интересующийся	-0.0516527
-4.079255	интриганом	-0.003757298
-4.079255	информации	-0.003757298
-3.424473	иные	-0.1121391
-4.079255	иоанна	-0.04365284
-4.079255	иоганн	-0.0517847
-4.079255	иоганны	-0.01962962
-4.079255	ионвиле	-0.05176593
-3.897773	ионвиля	-0.04852558
-3.897773	ипполит	-0.1633789
-4.079255	иска	-0.05146855
-4.079255	искал	-0.05175184
-4.079255	искателем	-0.05176593
-4.079255	исключением	-0.0517847
-4.079255	исключительно	-0.0517847
-4.079255	искоркой	-0.01962962
-4.079255	искра	-0.003757298
-4.079255	искусно	-0.05146855
-4.079255	искусств	-0.0517847
-4.079255	испански	-0.0517847
-4.079255	испещрённые	-0.0517847
-4.079255	испивать	-0.05143707
-4.079255	использовали	-0.05118508
-4.079255	использования	-0.04349251
-4.079255	использует	-0.05030197
-4.079255	используется	-0.04349251
-4.079255	испугался	-0.04982813
-4.079255	испугать	-0.05146855
-4.079255	испытаю	-0.003757298
-4.079255	иссечённым	-0.0517847
-4.079255	истина	-0.0517847
-4.079255	истлевшего	-0.0517847
-3.897773	истории	-0.01948748
-4.079255	исторических	-0.0517847
-4.079255	история	-0.05172038
-4.079255	источники	-0.003757298
-4.079255	истошные	-0.0517847
-4.079255	истребить	-0.01962962
-4.079255	истрёпанном	-0.0517847
-4.079255	истёртым	-0.0517847
-4.079255	истёртых	-0.0517847
-4.079255	исцеляли	-0.05175184
-4.079255	исчез	-0.01962962
-4.079255	исчезает	-0.04349251
-4.079255	исчезли	-0.05105903
-4.079255	итак	-0.003757298
-4.079255	италии	-0.05023882
-2.689843	их	0.06480576
-3.798698	ихи	-0.003676455
-4.079255	ищет	-0.0517847
-4.079255	иё	-0.0517847
-4.079255	йода	-0.003757298
-3.897773	йозеф	-0.05171565
-2.339327	к	-0.1190338
-4.079255	кабака	-0.05175184
-4.079255	кабана	-0.003757298
-4.079255	кабанья	-0.05159448
-4.079255	каббале	-0.0517847
-4.079255	кабинета	-0.0517847
-4.079255	кабинете	-0.002906188
-4.079255	кабриолет	-0.0517847
-4.079255	кабы	-0.05162596
-4.079255	кавалеристов	-0.003757298
-4.079255	каждого	-0.003757298
-3.51734	каждый	-0.09203322
-3.897773	кажется	-0.04104424
-4.079255	казакова	-0.05172038
-4.079255	казалась	-0.0517847
-3.798698	казались	-0.1251548
-3.22649	казалось	-0.0105494
-4.079255	казань	-0.04760386
-4.079255	казобон	-0.003757298
-4.079255	кай-куму	-0.05172038
-2.339327	как	-0.0004597604
-3.51734	как-то	-0.04935275
-3.897773	какая	-0.05129412
-3.51734	какие	-0.08546585
-3.635622	какие-то	-0.05156153
-3.897773	каким	-0.04958321
-4.079255	каким-то	-0.0517847
-4.079255	какими	-0.05115357
-3.897773	каких	-0.05133785
-4.079255	каких-либо	-0.0517847
-4.079255	каких-нибудь	-0.0517847
-4.079255	какого	-0.05137409
-4.079255	какого-нибудь	-0.0517847
-3.51734	какое	-0.1230405
-3.798698	какой	-0.1513696
-3.798698	какой-нибудь	-0.003655486
-3.51734	какой-то	-0.05129078
-4.079255	каком-нибудь	-0.05175184
-3.798698	какую	-0.05048189
-4.079255	какую-нибудь	-0.0517847
-4.079255	какую-то	-0.0517847
-4.079255	каменным	-0.0517847
-4.079255	каменными	-0.05175184
-4.079255	каменных	-0.05174851
-4.079255	камере	-0.003757298
-4.079255	камина	-0.05176593
-4.079255	камню	-0.003757298
-4.079255	камю	-0.003757298
-4.079255	канал	-0.01962962
-3.897773	каналы	-0.003645018
-4.079255	канивэ	-0.01962962
-4.079255	канифасовых	-0.0517847
-4.079255	каноэ	-0.003757298
-4.079255	капала	-0.04636933
-4.079255	капли	-0.0517847
-4.079255	капустой	-0.0517847
-4.079255	капусты	-0.003757298
-4.079255	капюшона	-0.01962962
-4.079255	капюшоном	-0.0517847
-4.079255	карательных	-0.0517847
-4.079255	карельской	-0.0517847
-4.079255	каретного	-0.05175184
-4.079255	карлейл	-0.04365284
-4.079255	карман	-0.05175184
-4.079255	кармана	-0.0517847
-4.079255	кармане	-0.01962962
-4.079255	карманов	-0.003757298
-4.079255	картинах	-0.05176593
-4.079255	картине	-0.0517847
-4.079255	картины	-0.05137409
-4.079255	картофель	-0.04856204
-4.079255	картошка	-0.0517847
-4.079255	картошку	-0.003757298
-3.897773	картуз	-0.04355041
-4.079255	карьеру	-0.04636933
-4.079255	касается	-0.0517847
-4.079255	кастеляншей	-0.05033354
-4.079255	кастро	-0.003757298
-4.079255	катались	-0.04349251
-4.079255	катаров	-0.04982813
-4.079255	категории	-0.05174851
-4.079255	катей	-0.003695901
-4.079255	кати	-0.001318738
-4.079255	катить	-0.05176593
-4.079255	католического	-0.05175184
-4.079255	катюшиной	-0.05172038
-4.079255	катя	-0.01962962
-4.079255	кафе	-0.05127959
-4.079255	кафедральный	-0.0517847
-4.079255	кафель	-0.003757298
-4.079255	качнулась	-0.05086989
-4.079255	квадратные	-0.003757298
-4.079255	квадратный	-0.0517847
-4.079255	квадратов	-0.003757298
-4.079255	кварталы	-0.003757298
-3.897773	квартире	-0.0495058
-3.897773	квартиру	0.0057787
-4.079255	кварту	-0.0517847
-3.897773	кверху	-0.1191133
-3.798698	кем	-0.04157886
-4.079255	керосинщик	-0.05086989
-4.079255	кессиди	-0.003757298
-4.079255	кивнул	-0.05137409
-4.079255	киврин	-0.05176593
-4.079255	кидались	-0.04349251
-4.079255	киевом	-0.003757298
-3.897773	кий	0.002336748
-3.897773	километров	0.03236206
-4.079255	кильб	-0.003757298
-4.079255	кимоно	-0.05143707
-4.079255	кинги	-0.05176593
-4.079255	кинжал	-0.003757298
-4.079255	киноаппаратик	-0.003757298
-4.079255	кинул	-0.05168891
-4.079255	кинулась	-0.04982813
-4.079255	кинуло	-0.01962962
-4.079255	кинулся	-0.04982813
-4.079255	кипсека	-0.01962962
-4.079255	кипы	-0.0517847
-4.079255	кирпич	-0.04365284
-4.079255	кирпичиках	-0.01962962
-4.079255	кирпично-красный	-0.0517847
-4.079255	кирпичной	-0.0517847
-4.079255	кирпичный	-0.05175184
-4.079255	кирпичных	-0.003757298
-3.897773	кислородные	-0.1671407
-4.079255	китайцы	-0.04349251
-4.079255	клавдии	-0.0517847
-4.079255	кладу	-0.04636933
-4.079255	кладёт	-0.04636933
-4.079255	клары	-0.01962962
-4.079255	класса	-0.01962962
-4.079255	классы	-0.01962962
-3.897773	клевать	-0.003222983
-4.079255	клеёнкам	-0.0517847
-4.079255	клоуна	-0.003757298
-4.079255	клубки	-0.01962962
-4.079255	клубов	-0.0517847
-4.079255	клубы	-0.05176593
-4.079255	клёпкой	-0.00368017
-4.079255	книгами	-0.003695901
-4.079255	книгах	-0.01962962
-3.897773	книге	-0.003695901
-3.897773	книги	-0.01957043
-4.079255	книжечками	-0.01962962
-4.079255	книжку	-0.04856204
-4.079255	кнопку	-0.0517847
-4.079255	княжеской	-0.0517847
-4.079255	князя	-0.003757298
-3.51734	ко	-0.2778364
-4.079255	кобуру	-0.003757298
-4.079255	кобыла	-0.003757298
-4.079255	ковбой	-0.0517847
-3.053846	когда	-0.05785757
-3.897773	когда-нибудь	-0.05163392
-3.635622	когда-то	-0.1047511
-3.897773	кого	-0.05039053
-4.079255	кое-какие	-0.0517847
-3.897773	кожа	-0.04633267
-4.079255	кожаная	-0.0517847
-3.897773	кожаного	-0.003695901
-3.798698	кожи	0.03290449
-4.079255	козлы	-0.04365284
-4.079255	козырёк	-0.003757298
-4.079255	козьим	-0.0517847
-4.079255	кокетство	-0.05162596
-4.079255	кокотка	-0.01962962
-4.079255	кокотки	-0.003757298
-4.079255	колебания	-0.003757298
-4.079255	колебаниям	-0.003757298
-3.897773	колени	-0.05121185
-4.079255	коленях	-0.01962962
-3.897773	колесо	-0.01931798
-4.079255	колец	-0.0517847
-4.079255	коллежский	-0.0517847
-4.079255	коллектива	-0.003757298
-4.079255	колодезь	-0.0517847
-4.079255	колодки	-0.04365284
-4.079255	колодцах	-0.05042824
-4.079255	колокольне	-0.003757298
-4.079255	колонизации	-0.0517847
-4.079255	колоний	-0.04349251
-4.079255	колонн	-0.0517847
-4.079255	колонну	-0.01962962
-4.079255	колпачком	-0.003757298
-4.079255	колышется	-0.05030197
-4.079255	колючую	-0.05175184
-4.079255	коляша	-0.05172038
-4.079255	ком	-0.05172038
-4.079255	командой	-0.05176593
-4.079255	кометы	-0.0517847
-4.079255	комнате	0.005556248
-3.798698	комнату	-7.472187e-05
-3.897773	комнаты	-0.01925016
-4.079255	комодом	-0.01962962
-4.079255	комсомолок	-0.003757298
-4.079255	комсомольцев	-0.003757298
-3.897773	кому	-0.05068865
-4.079255	конвертов	-0.003757298
-4.079255	кондитера	-0.003757298
-4.079255	кондратович	-0.05176593
-3.897773	конец	-0.05172973
-3.348009	конечно	0.01562933
-4.079255	константин	-0.003757298
-4.079255	конституционно	-0.0517847
-4.079255	контура	-0.05176593
-3.897773	конурке	-0.04947417
-4.079255	конусе	-0.01962962
-4.079255	конца	-0.01955168
-4.079255	конце	-0.05171232
-4.079255	концерту	-0.0517847
-4.079255	концлагерь	-0.003757298
-4.079255	концов	-0.003757298
-4.079255	концом	-0.0517847
-4.079255	концу	-0.05176593
-4.079255	концы	-0.0517847
-4.079255	кончается	-0.0517847
-4.079255	кончились	-0.0517847
-3.897773	кончился	-0.01959065
-4.079255	кончится	-0.01962962
-4.079255	коньяку	-0.0517847
-4.079255	конюшню	-0.0517847
-4.079255	копчёная	-0.05176593
-4.079255	корабли	-0.003757298
-4.079255	корабль	-0.05176593
-4.079255	корабля	-0.0517847
-4.079255	кордильер	-0.05156301
-4.079255	корзинку	-0.04856204
-4.079255	коридора	-0.04963846
-4.079255	коридоров	-0.01962962
-4.079255	коридоры	-0.003757298
-4.079255	коричневой	-0.05176593
-4.079255	коричневую	-0.0517847
-4.079255	коричневых	-0.0517847
-4.079255	коробке	-0.003757298
-4.079255	королевы	-0.01962962
-4.079255	королём	-0.04349251
-4.079255	корону	-0.003757298
-4.079255	коротких	-0.01962962
-4.079255	короткую	-0.003757298
-4.079255	корреспондент	-0.003695901
-4.079255	корсо	-0.003757298
-4.079255	корточках	-0.05175184
-4.079255	кору	-0.003695901
-4.079255	корчагин	-0.05175184
-4.079255	космос	-0.01962962
-4.079255	коснулись	-0.003757298
-3.897773	костей	-0.01082671
-4.079255	костлявое	-0.003757298
-4.079255	кострище	-0.05134259
-4.079255	костёр	-0.05020725
-3.897773	косынку	-0.05143094
-4.079255	косынок	-0.01962962
-3.897773	которая	-0.04354221
-3.348009	которого	-0.04987943
-3.798698	которое	-0.04692386
-3.798698	которой	-0.05125134
-4.079255	котором	-0.05176593
-3.635622	которую	-0.04334495
-3.51734	которые	-0.0239042
-3.348009	который	-0.04854866
-4.079255	которым	-0.05096447
-4.079255	которыми	-0.0517847
-3.897773	которых	-0.04703972
-4.079255	кофею	-0.04365284
-4.079255	кочевников	-0.003757298
-4.079255	кошской	-0.0517847
-3.897773	край	-0.05143233
-4.079255	крайней	-0.0517847
-4.079255	крапивы	-0.003757298
-3.897773	красавец	-0.05152679
-4.079255	красивая	-0.0517847
-4.079255	красивой	-0.0517847
-4.079255	красивые	-0.05175184
-4.079255	красивым	-0.05176593
-4.079255	красильщикова	-0.003757298
-4.079255	краска	-0.04636933
-4.079255	красками	-0.05172038
-3.897773	краской	-0.01959065
-4.079255	краскою	-0.05175184
-4.079255	краснея	-0.05137409
-4.079255	краснобайство	-0.04856204
-4.079255	красноватой	-0.0517847
-4.079255	красноватый	-0.05176593
-4.079255	красного	-0.05176593
-4.079255	красной	-0.05176593
-4.079255	красным	-0.04982813
-4.079255	красоты	-0.003757298
-4.079255	краю	-0.01962962
-4.079255	края	-0.04802284
-4.079255	кредитку	-0.003757298
-4.079255	кредиторов	-0.01962962
-4.079255	крепкий	-0.0517847
-3.897773	крепости	-0.01952137
-4.079255	крестом	-0.01962962
-4.079255	крестьян	-0.04972715
-4.079255	крестьяне	-0.003757298
-4.079255	крестьянская	-0.0517847
-4.079255	крики	-0.0517847
-4.079255	крикнул	-0.05099599
-4.079255	крикнуть	-0.05156301
-4.079255	кристобаль	-0.0517847
-4.079255	кричало	-0.003757298
-4.079255	кричать	-0.003757298
-3.897773	кричит	0.03236206
-4.079255	кровавыми	-0.0517847
-3.798698	кровати	-0.04104424
-4.079255	кровать	-0.0517847
-3.897773	крови	-0.00339888
-3.283013	кровь	-0.08467576
-4.079255	кролю	-0.01962962
-3.51734	кроме	-0.05109566
-4.079255	кроткий	-0.0517847
-4.079255	кругам	-0.04349251
-4.079255	круги	-0.003757298
-3.897773	круглая	-0.1671407
-4.079255	круглое	-0.0517847
-3.798698	круглой	-0.05171232
-4.079255	кругов	-0.003757298
-3.798698	кругом	-0.0503368
-4.079255	кругу	-0.003757298
-4.079255	крупнейших	-0.0517847
-4.079255	крупными	-0.05176593
-4.079255	крутой	-0.05159448
-4.079255	крыльев	-0.003757298
-3.897773	крылья	-0.003469218
-4.079255	крынок	-0.05176593
-4.079255	крыши	-0.0517847
-4.079255	кстати	-0.04349251
-3.053846	кто	-0.02097949
-3.897773	кто-то	-0.003695901
-4.079255	куб	-0.0517847
-4.079255	куба	-0.003757298
-4.079255	кувшинки	-0.003757298
-4.079255	кувшинов	-0.0517847
-3.424473	куда	-0.04794596
-4.079255	куда-нибудь	-0.04349251
-4.079255	куда-то	-0.04349251
-4.079255	кузницы	-0.003757298
-4.079255	кузова	-0.01962962
-4.079255	кукурузные	-0.0517847
-4.079255	купе	-0.003757298
-4.079255	купеческими	-0.05172038
-4.079255	купила	-0.05124809
-4.079255	купола	-0.01962962
-4.079255	куполу	-0.003757298
-4.079255	купца	-0.0517847
-4.079255	купцы	-0.05023882
-4.079255	купюру	-0.05118508
-4.079255	курил	-0.0517847
-4.079255	куриной	-0.0517847
-4.079255	курица	-0.01962962
-4.079255	курфюрста	-0.003757298
-4.079255	куры-то	-0.04365284
-4.079255	курьеров	-0.01962962
-4.079255	кусочки	-0.003757298
-4.079255	кустарно	-0.05033354
-4.079255	кустов	-0.003757298
-4.079255	кухарку	-0.0517847
-3.897773	кухню	-0.1349857
-4.079255	кухонной	-0.0517847
-4.079255	куча	-0.0517847
-3.897773	куче	-0.05174851
-3.897773	кучер	-0.1671407
-4.079255	кучки	-0.003695901
-4.079255	кущ	-0.05134259
-4.079255	кущи	-0.05175184
-4.079255	кьеркегора	-0.003757298
-4.079255	кюре	-0.0517847
-4.079255	л'аббеи	-0.003757298
-4.079255	ла	-0.0517847
-4.079255	лавочек	-0.05124809
-4.079255	лавочки	-0.04856204
-4.079255	лавочнику	-0.0517847
-4.079255	лагере	-0.05172038
-4.079255	ладана	-0.003757298
-4.079255	ладно	-0.05176593
-3.897773	лакей	-0.1671407
-4.079255	лакейским	-0.0517847
-4.079255	лампочка	0.005556248
-4.079255	ландграф	-0.0517847
-4.079255	ландшафт	-0.01962962
-4.079255	лапами	-0.003757298
-4.079255	лапчатой	-0.0517847
-4.079255	ларей	-0.04365284
-4.079255	ларчик	-0.0517847
-4.079255	ласковая	-0.04365284
-4.079255	левой	-0.05175184
-3.897773	легко	-0.1191133
-4.079255	легла	-0.04349251
-4.079255	легонько	-0.05172038
-3.798698	легче	-0.09153593
-4.079255	лед	-0.01962962
-3.897773	леди	-0.05174851
-4.079255	ледяную	-0.05176593
-4.079255	ледяным	-0.0517847
-4.079255	ледяными	-0.0517847
-3.897773	лежавший	-0.1617254
-4.079255	лежал	-0.04963846
-3.897773	лежали	-0.1617254
-3.897773	лежащей	-0.1588485
-4.079255	лежит	-0.0517847
-4.079255	лейтенант	-0.05175184
-4.079255	ленивые	-0.003695901
-4.079255	леон	-0.05175184
-4.079255	леоноре	-0.04979653
-4.079255	лепетал	-0.05175184
-4.079255	лепёшки	-0.003757298
-4.079255	лере	-0.05096447
-4.079255	лесенку	-0.0517847
-4.079255	лесных	-0.0517847
-3.897773	лесов	-0.0771022
-4.079255	лестница	-0.05176593
-3.897773	лестнице	-0.1191133
-4.079255	лестницы	-0.0517847
-2.987889	лет	-0.05557317
-3.897773	летел	-0.03793471
-4.079255	летела	0.0004874133
-4.079255	лететь	-0.05020725
-4.079255	летит	-0.05176593
-4.079255	лето	-0.003757298
-4.079255	летящие	-0.0517847
-4.079255	летящих	-0.05176593
-4.079255	лжёт	-0.01962962
-2.793762	ли	-0.04722262
-4.079255	ливен	-0.003757298
-4.079255	ливень	-0.04856204
-4.079255	ливреях	-0.003757298
-4.079255	лидеров	-0.003757298
-4.079255	лижет	-0.05030197
-4.079255	лик	-0.0517847
-4.079255	лиловую	-0.01962962
-4.079255	линдауэр-хютте	-0.003757298
-4.079255	линии	-0.01962962
-3.897773	линий	-0.1191133
-4.079255	линию	-0.05030197
-4.079255	листе	-0.003757298
-4.079255	листы	-0.05030197
-4.079255	лития	-0.04365284
-4.079255	литургией	-0.05074375
-4.079255	лихих	-0.0517847
-4.079255	лихорадки	-0.01962962
-4.079255	лихорадок	-0.0517847
-4.079255	лиц	-0.003757298
-3.798698	лица	0.03242877
-3.348009	лицо	-0.06257705
-3.798698	лицом	-0.002583884
-4.079255	лицу	-0.01962962
-4.079255	личный	-0.0517847
-3.091006	лишь	-0.04786385
-4.079255	лишён	-0.0517847
-3.51734	лоб	-0.06776746
-4.079255	лобзиками	-0.05023882
-4.079255	ловким	0.005376756
-4.079255	лодка	-0.003757298
-3.897773	лодки	0.03236206
-4.079255	лодку	-0.04979653
-4.079255	лодок	-0.04365284
-4.079255	ложась	-0.05175184
-4.079255	ложечкой	-0.04856204
-4.079255	ложиться	-0.05175184
-4.079255	ложь	-0.04856204
-4.079255	локонами	-0.0517847
-4.079255	ломались	-0.05156301
-4.079255	лопаты	-0.003757298
-4.079255	лоскутке	-0.0517847
-4.079255	лоснится	-0.05042824
-4.079255	лоснящейся	-0.0517847
-3.22649	лось	0.03540137
-4.079255	лося	-0.00368017
-4.079255	лохмотья	-0.0517847
-3.897773	лошадей	-0.00339888
-4.079255	лошади	-0.01962962
-3.798698	лошадь	-0.002899356
-4.079255	лошадьми	-0.003757298
-4.079255	лувру	-0.01962962
-4.079255	лугах	-0.05176593
-4.079255	луковой	-0.0517847
-4.079255	лупить	-0.0517847
-3.897773	луч	-0.05172973
-4.079255	лучами	-0.01962962
-3.897773	лучи	-0.01959065
-4.079255	лучик	-0.05042824
-3.22649	лучше	-0.05645757
-4.079255	лысые	-0.05176593
-4.079255	льды	-0.01962962
-3.635622	любви	-0.02145318
-4.079255	любезной	-0.04856204
-4.079255	любезность	-0.05168891
-4.079255	любезны	-0.003757298
-4.079255	любила	-0.05093295
-4.079255	любимую	-0.003757298
-3.897773	любит	-0.01952137
-4.079255	любите	-0.003757298
-4.079255	любителями	-0.0517847
-4.079255	любить	-0.05172038
-3.897773	любишь	-0.01867328
-3.635622	люблю	-0.1496702
-4.079255	любовника	-0.003757298
-4.079255	любовной	-0.05176593
-3.22649	любовь	-0.1012408
-4.079255	любовью	-0.04365284
-4.079255	любого	-0.0517847
-4.079255	любопытный	-0.05176593
-4.079255	любопытство	-0.01962962
-4.079255	любу	-0.0517847
-4.079255	любую	-0.05168891
-4.079255	любят	-0.05153152
-3.424473	людей	-0.04081728
-3.897773	люди	-0.01553796
-4.079255	людьми	-0.01962962
-3.897773	людям	-0.003716871
-4.079255	люк	-0.003757298
-4.079255	люка	-0.01962962
-3.897773	люстра	-0.1668246
-4.079255	лёг	-0.04636933
-4.079255	лёгкая	-0.04982813
-3.798698	лёгким	-0.09297673
-4.079255	лёгкими	-0.0517847
-4.079255	лёгкую	-0.05175184
-4.079255	лёжа	-0.04856204
-4.079255	лётчик	-0.05176593
-4.079255	магацитла	-0.003757298
-4.079255	магацитлов	-0.003757298
-4.079255	магнитных	-0.0517847
-4.079255	мадленер-хаус	-0.003757298
-4.079255	мается	-0.05153152
-4.079255	мак-наббс	-0.003757298
-4.079255	макнуть	-0.04349251
-4.079255	малейший	-0.0517847
-4.079255	малейших	-0.0517847
-4.079255	маленькии	-0.0517847
-3.798698	маленький	-0.05167946
-4.079255	маленькими	-0.003757298
-4.079255	маленькой	-0.0517847
-4.079255	маленькому	-0.0517847
-3.424473	мало	0.03497612
-3.897773	малый	-0.05130496
-3.798698	мальчик	-0.02366924
-4.079255	мальчика	-0.01962962
-4.079255	мальчику	-0.04365284
-4.079255	малютка	-0.01962962
-4.079255	манием	-0.05156301
-4.079255	манишка	-0.0517847
-4.079255	маорийцами	-0.01962962
-4.079255	маорийцев	-0.01962962
-4.079255	мараскином	-0.003757298
-4.079255	маргарин	-0.0517847
-4.079255	марианне	-0.003757298
-3.897773	марии	-0.1349857
-4.079255	маркиз	-0.05172038
-4.079255	марок	-0.003757298
-3.897773	марс	-0.03655451
-3.635622	марса	-0.02145318
-4.079255	марсе	-0.0517847
-3.798698	марсиан	-0.04104424
-4.079255	марсиане	-0.003757298
-3.635622	марсианин	-0.05165735
-3.897773	мартин	-0.05171232
-4.079255	мартинетти	-0.003757298
-4.079255	масла	-0.003757298
-4.079255	масляной	-0.05176593
-4.079255	масляными	-0.0517847
-3.897773	массивной	-0.1668876
-3.897773	матери	-0.1191133
-4.079255	материк	-0.003695901
-4.079255	материка	-0.01962962
-4.079255	матерински	-0.01962962
-4.079255	матерью	-0.0517847
-4.079255	матросов	-0.04856204
-3.51734	мать	-0.118107
-4.079255	махающие	-0.05172038
-4.079255	махновщина	-0.05165743
-4.079255	махнул	-0.05172038
-4.079255	махнули	-0.04636933
-4.079255	мачтах	-0.04365284
-4.079255	маша	-0.05176593
-4.079255	машина	-0.05168891
-4.079255	машине	-0.04963846
-4.079255	машинного	-0.0517847
-4.079255	машиной	-0.003757298
-4.079255	машину	-0.05033354
-4.079255	машины	-0.01962962
-4.079255	мгновение	-0.0517847
-4.079255	мгновений	-0.0517847
-4.079255	мгновенно	-0.0517847
-4.079255	мебели	-0.01962962
-4.079255	мебель	-0.003757298
-4.079255	медведя	-0.003757298
-3.897773	меди	-0.01082671
-3.798698	медленно	-0.003001254
-4.079255	медленные	-0.0517847
-4.079255	медливший	-0.04365284
-4.079255	медные	-0.05172038
-4.079255	медузой	-0.05124809
-4.079255	медузы	-0.003757298
-4.079255	меж	-0.0517847
-3.635622	между	-0.05154883
-4.079255	междузвёздном	-0.05175184
-4.079255	межи	-0.04802284
-4.079255	мезер	-0.0517847
-4.079255	мелочь	-0.003757298
-4.079255	мельхиора	-0.003757298
-4.079255	менее	-0.05171096
-4.079255	менестрелями	-0.01962962
-4.079255	меньше	-0.05176593
-2.689843	меня	-0.001650006
-4.079255	меняющейся	-0.04982813
-4.079255	меняющиеся	-0.003757298
-4.079255	мере	0.0004874133
-4.079255	мерси	-0.01962962
-4.079255	мертвецу	-0.003757298
-4.079255	меру	-0.05175184
-4.079255	меры	-0.05175184
-3.897773	места	-0.04944254
-4.079255	местах	-0.01962962
-3.798698	месте	-0.04104424
-4.079255	местечко	-0.0517847
-4.079255	мести	-0.003757298
-3.897773	местность	-0.003716871
-4.079255	местный	-0.0517847
-4.079255	место	-0.003757298
-4.079255	месяц	-0.05105903
-4.079255	месяц-то	-0.04365284
-3.897773	месяцев	-0.01959065
-4.079255	металлическая	-0.0001154728
-4.079255	метнулась	-0.0517847
-4.079255	метро	-0.05176593
-3.897773	метров	0.005597536
-4.079255	механизм	-0.05176593
-4.079255	механизма	-0.002589162
-4.079255	механики	-0.003757298
-4.079255	механический	-0.0517847
-4.079255	мечтает	-0.003757298
-4.079255	мешку	-0.04856204
-4.079255	мешок	-0.003757298
-4.079255	мешочками	-0.04856204
-4.079255	милой	-0.05176593
-4.079255	милорда	-0.04365284
-4.079255	милый	-0.003757298
-4.079255	миль	-0.003757298
-3.635622	мимо	0.03337678
-4.079255	минули	-0.0517847
-3.51734	минут	-0.009629481
-3.51734	минуту	-0.1043165
-3.635622	минуты	0.0007836372
-3.897773	мир	0.03236206
-4.079255	мира	-0.0517847
-4.079255	мире	-0.003757298
-3.897773	мириады	-0.003676455
-4.079255	мирный	-0.0517847
-4.079255	миров	-0.01962962
-4.079255	мировой	-0.0517847
-4.079255	миром	-0.003757298
-4.079255	мишень	-0.04349251
-4.079255	мишка	-0.05168891
-4.079255	младенцами	-0.01962962
-4.079255	младенческие	-0.0517847
-2.593532	мне	-0.03832398
-4.079255	мнемозина	-0.003757298
-4.079255	мнение	-0.01962962
-4.079255	многие	-0.0517847
-3.51734	много	-0.05095826
-3.897773	многое	-0.05017092
-4.079255	многоугольную	-0.0517847
-4.079255	многоэтажных	-0.0517847
-3.51734	множество	-0.05160237
-4.079255	множеством	-0.0517847
-3.897773	мной	-0.008832689
-3.348009	мог	-0.03045593
-4.079255	могилой	-0.01962962
-4.079255	могилёв	-0.003757298
-3.798698	могла	-0.05142289
-3.635622	могли	-0.05030705
-3.897773	могу	-0.01849887
-3.798698	могут	-0.002980247
-4.079255	модестгассе	-0.00117049
-4.079255	моду	-0.05172038
-4.079255	моего	-0.0517847
-4.079255	можем	-0.01962962
-3.131645	может	-0.04888016
-3.798698	можете	-0.003655486
-3.798698	можешь	-0.05022795
-3.053846	можно	0.00471852
-4.079255	мозг	-0.003757298
-4.079255	мозги	-0.04856204
-3.51734	мои	-0.05152393
-3.897773	моих	-0.05169687
-3.424473	мой	-0.03318838
-3.897773	мол	-0.05172973
-4.079255	молитва	-0.04349251
-4.079255	молитвенника	-0.003757298
-4.079255	молнии	-0.003757298
-4.079255	молод	-0.01962962
-3.798698	молодого	-0.05169355
-3.51734	молодой	-0.1201652
-4.079255	молодости	-0.00149541
-3.897773	молодость	-0.00209555
-3.897773	молодую	-0.1671407
-4.079255	молодчикам	-0.04982813
-4.079255	молодые	-0.05172038
-4.079255	молодых	-0.0517847
-4.079255	молодёжь	-0.003757298
-3.897773	молока	-0.01065379
-4.079255	молоком	-0.01962962
-4.079255	молотками	-0.05023882
-4.079255	молчал	-0.04365284
-4.079255	молчаливый	-0.04365284
-4.079255	молчании	-0.05121659
-4.079255	мольбой	-0.0517847
-4.079255	молэ	-0.003757298
-3.798698	момент	-0.003288079
-4.079255	монастырской	-0.0517847
-4.079255	монастырях	-0.0517847
-4.079255	монетную	-0.05175184
-4.079255	монсегюра	-0.01962962
-3.897773	море	-0.003716871
-3.897773	мороженое	-0.0001154728
-4.079255	морском	-0.0517847
-4.079255	морщинами	-0.05176593
-3.897773	морщинистые	-0.003716871
-4.079255	морю	-0.003757298
-4.079255	моря	-0.01962962
-3.897773	москву	0.006030239
-4.079255	москвы	-0.04349251
-4.079255	мостовой	-0.003757298
-4.079255	мотоциклистов	-0.003757298
-4.079255	мотыльки	-0.01962962
-4.079255	моцарт	-0.003757298
-4.079255	моче	-0.003757298
-4.079255	мошенник	-0.01962962
-3.897773	мощь	-0.05174851
-3.635622	мою	-0.05151735
-3.51734	моя	0.0022626
-3.798698	моё	-0.05169355
-4.079255	мрачной	-0.0517847
-4.079255	мрачные	-0.003757298
-4.079255	мрачными	-0.0517847
-3.897773	мстислав	-0.1671407
-4.079255	муаром	-0.01962962
-4.079255	мудрый	-0.05176593
-3.635622	муж	-0.007062823
-4.079255	мужа	-0.003757298
-4.079255	мужеством	-0.05175184
-4.079255	мужик	-0.01962962
-4.079255	мужика	-0.0517847
-4.079255	мужикам	-0.0517847
-4.079255	мужу	-0.04636933
-4.079255	мужчина	-0.05165743
-4.079255	мужчину	-0.05176593
-4.079255	мужчины	-0.003757298
-4.079255	муз	-0.003757298
-4.079255	музыки	-0.05176593
-4.079255	мускул	-0.01962962
-4.079255	мутных	-0.0517847
-4.079255	мухи	-0.003757298
-3.897773	мучительно	-0.01894485
-4.079255	мучительных	-0.05176593
-2.958323	мы	0.04375784
-4.079255	мыльца	-0.0517847
-3.897773	мыслей	-0.003716871
-4.079255	мысленно	-0.04979653
-3.897773	мысли	0.03236206
-3.897773	мысль	-0.01553796
-4.079255	мыслями	-0.01962962
-4.079255	мыслях	-0.05118508
-4.079255	мышц	-0.003757298
-4.079255	мышь	-0.0517847
-4.079255	мэрию	-0.003757298
-4.079255	мягко	-0.0517847
-3.897773	мягкой	-0.04361596
-4.079255	мясной	-0.0517847
-4.079255	мять	-0.04349251
-4.079255	мёрз	-0.04349251
-4.079255	мёрзлую	-0.05176593
-1.903986	на	-0.07383303
-4.079255	набережной	-0.00368017
-4.079255	набережную	-0.01962962
-4.079255	набивают	-0.05146855
-4.079255	набили	-0.05176593
-4.079255	наблюдать	-0.05074375
-4.079255	наблюдения	-0.04365284
-4.079255	навалился	-0.04636933
-4.079255	навеки	-0.003757298
-4.079255	наверно	-0.05131109
-3.635622	наверное	-0.04657512
-4.079255	наверняка	-0.05134259
-3.897773	наверху	-0.003716871
-4.079255	навозной	-0.05176593
-4.079255	навроде	-0.04982813
-4.079255	навсегда	-0.01962962
-3.897773	навстречу	-0.01931798
-4.079255	навьюченными	-0.0517847
-4.079255	нагнувши	-0.04856204
-4.079255	нагнулся	-0.003757298
-4.079255	нагреты	-0.0517847
-3.22649	над	-0.0509572
-3.897773	надежды	-0.0380971
-4.079255	надеюсь	-0.04349251
-4.079255	надеялся	-0.01962962
-4.079255	надеяться	-0.003757298
-3.091006	надо	-0.02088198
-4.079255	надобностям	-0.01962962
-4.079255	надоедать	-0.01962962
-4.079255	надоедают	-0.04982813
-4.079255	надоело	-0.003757298
-4.079255	надолго	-0.0517847
-3.897773	надписями	-0.1191133
-4.079255	надёжный	-0.0517847
-4.079255	нажал	-0.04636933
-3.897773	назад	-0.003618777
-4.079255	назвать	-0.05176593
-4.079255	назовёшь	-0.05175184
-3.897773	называют	-0.04345562
-4.079255	наивен	-0.003757298
-4.079255	найду	-0.04365284
-4.079255	наказание	-0.01962962
-4.079255	накануне	-0.04998614
-4.079255	накинул	-0.0517847
-3.283013	наконец	-0.04999786
-4.079255	накрыв	-0.05030197
-4.079255	накупившими	-0.05093295
-4.079255	налево	-0.01962962
-4.079255	налетел	-0.04856204
-4.079255	налил	-0.003757298
-3.176484	нам	-0.03070277
-3.897773	нами	-0.05174851
-4.079255	намёк	-0.01962962
-4.079255	наоборот	-0.003757298
-4.079255	написал	-0.04636933
-4.079255	написать	-0.05176593
-4.079255	напишу	-0.05150004
-4.079255	наплевать	-0.003757298
-4.079255	наповал	-0.05176593
-4.079255	направлении	-0.05171096
-4.079255	направлению	-0.04979178
-3.897773	направо	-0.003539547
-4.079255	напрасно	-0.05172038
-4.079255	например	-0.003757298
-3.897773	напротив	-0.05169687
-4.079255	напряг	-0.05127959
-4.079255	напряжённо	-0.05176593
-4.079255	напряжённого	-0.003757298
-3.897773	народа	-0.1191133
-4.079255	народов	-0.05176593
-3.897773	нарочно	-0.003716871
-4.079255	наружности	-0.01962962
-4.079255	наружный	-0.0517847
-4.079255	нарядного	-0.003757298
-3.176484	нас	0.007677115
-4.079255	насекомых	-0.01962962
-4.079255	население	-0.0517847
-4.079255	населённый	-0.05175184
-4.079255	насколько	-0.0517847
-4.079255	наследника	-0.01962962
-4.079255	наследства	-0.01962962
-4.079255	насобирать	-0.0517847
-4.079255	наспину	-0.01962962
-4.079255	наставлениями	-0.04982813
-3.798698	настолько	-0.04959735
-3.897773	настоящее	-0.05168279
-4.079255	настроение	-0.01962962
-4.079255	наступление	-0.01962962
-4.079255	наступления	-0.05176593
-3.798698	насыпь	-0.04267894
-4.079255	насыщена	-0.05146855
-4.079255	насьональ	-0.003757298
-4.079255	натерпелся	-0.0517847
-4.079255	натолкнуться	-0.04636933
-4.079255	науками	-0.01962962
-4.079255	научились	-0.0517847
-4.079255	научись	-0.0517847
-4.079255	научно	-0.0517847
-4.079255	нахмурясь	-0.05162596
-4.079255	находившуюся	-0.0517847
-3.897773	находились	-0.003695901
-4.079255	находится	-0.05131109
-4.079255	наци	-0.01962962
-4.079255	национальной	-0.05176593
-4.079255	нацисты	-0.0517847
-3.635622	начал	-0.09174985
-3.897773	начала	-0.04361596
-4.079255	начали	-0.05176593
-3.798698	начало	-0.05169355
-4.079255	начался	-0.05146855
-4.079255	начальника	-0.0517847
-4.079255	начаты	-0.05137409
-3.897773	начать	-0.05174851
-4.079255	начинала	-0.05176593
-4.079255	начинаются	-0.0517847
-4.079255	начинающего	-0.0517847
-4.079255	начиная	-0.05143707
-3.798698	наш	-0.05167946
-3.635622	наша	-0.04843374
-4.079255	нашего	-0.0517847
-4.079255	нашей	-0.0517847
-4.079255	нашими	-0.0517847
-3.897773	нашли	-0.05111593
-4.079255	нашлось	-0.05093295
-4.079255	нашу	-0.05150004
-3.635622	нашёл	-0.1026004
-2.060121	не	-0.07933382
-3.798698	неба	0.03484933
-3.897773	небе	-0.01959065
-4.079255	небо	-0.01962962
-3.897773	небольшая	-0.05172973
-4.079255	небольшим	-0.0517847
-3.897773	небольшой	-0.003655486
-4.079255	небом	-0.0517847
-4.079255	небу	-0.003716871
-3.897773	небыло	-0.00209555
-4.079255	неважно	-0.05077529
-4.079255	невдомёк	-0.003757298
-4.079255	неве	-0.003757298
-4.079255	невежество	-0.04365284
-4.079255	невещественных	-0.05176593
-4.079255	невинное	-0.0517847
-3.798698	невозможно	-0.01761274
-4.079255	невшательском	-0.0517847
-3.283013	него	0.02833971
-4.079255	негодяем	-0.003757298
-4.079255	негодяйка	-0.01962962
-4.079255	негра	-0.04365284
-4.079255	негры	-0.003757298
-4.079255	недавно	-0.05096447
-4.079255	недалеко	-0.003757298
-4.079255	неделе	-0.0517847
-4.079255	неделей	-0.0517847
-4.079255	недолго	-0.05172038
-4.079255	недоразумения	-0.01962962
-4.079255	нежилыми	-0.003757298
-3.897773	нежно	-0.003695901
-4.079255	независимость	-0.01962962
-4.079255	незаметных	-0.05165743
-4.079255	неизбежно	-0.0517847
-3.897773	неизвестно	-0.04146108
-4.079255	неизвестный	-0.05168891
-4.079255	неизменно	-0.0517847
-4.079255	неизречённые	-0.0517847
-4.079255	неизъяснённая	-0.05156301
-4.079255	неистово	-0.003757298
-3.424473	ней	-0.009065717
-4.079255	некая	-0.0517847
-4.079255	некому	-0.01962962
-4.079255	некоторые	-0.0517847
-3.51734	нельзя	-0.0833123
-3.897773	нем	-0.1349857
-4.079255	немало	-0.01962962
-3.897773	немедленно	-0.05172973
-4.079255	немезидой	-0.003757298
-4.079255	немецкие	-0.05174851
-4.079255	немецкого	-0.05176593
-4.079255	немецкое	-0.05172038
-4.079255	немногим	-0.05156301
-3.798698	немного	-0.003393609
-4.079255	немолчным	-0.0517847
-3.897773	нему	0.04260605
-3.897773	немцев	-0.01959065
-4.079255	немыслимый	-0.05165743
-4.079255	ненавистных	-0.05176593
-4.079255	ненависть	-0.05118508
-4.079255	необузданный	-0.01962962
-4.079255	необходимостью	-0.003757298
-4.079255	необходимые	-0.05118508
-4.079255	необыкновенного	-0.0517847
-4.079255	необыкновенную	-0.0517847
-4.079255	необычайно	-0.05176593
-4.079255	неожиданно	-0.0517847
-4.079255	неожиданный	-0.01962962
-4.079255	неосторожна	-0.003757298
-4.079255	неотразимой	-0.003757298
-4.079255	неплохая	-0.003757298
-4.079255	неплохой	-0.0517847
-4.079255	неповторимый	-0.003757298
-4.079255	неподалёку	-0.05042824
-4.079255	неподвижными	-0.0517847
-4.079255	непостигаемые	-0.05176593
-4.079255	непостижимых	-0.05118508
-4.079255	непредвиденного	-0.04979653
-4.079255	непредвиденное	-0.003757298
-3.798698	непременно	-0.05164799
-4.079255	непрерывная	-0.003757298
-4.079255	непрерывной	-0.0517847
-4.079255	непрестанно	-0.05165743
-4.079255	неприятелем	-0.01962962
-4.079255	неприятельскую	-0.05150004
-4.079255	неприятное	-0.003757298
-4.079255	непроросшее	-0.0517847
-4.079255	нервничал	-0.003757298
-4.079255	нервную	-0.0517847
-4.079255	нервы	-0.05168891
-3.897773	нерождённых	-0.003117409
-4.079255	несказанно	-0.0517847
-4.079255	несколькими	-0.0517847
-4.079255	нескольких	-0.0517847
-2.987889	несколько	-0.08814997
-4.079255	нескончаемую	-0.0517847
-4.079255	несметной	-0.0517847
-4.079255	несметные	-0.0517847
-4.079255	несовершенства	-0.0517847
-3.897773	несомненно	-0.01959065
-4.079255	несётся	-0.05176593
-2.958323	нет	-0.1504575
-4.079255	нетерпения	-0.003757298
-4.079255	неторопливо	-0.0517847
-3.897773	нетрудно	0.03236206
-4.079255	неужели	-0.0489238
-4.079255	неуклонно	-0.0517847
-4.079255	неумолимая	-0.0517847
-3.798698	нечего	0.03294272
-3.897773	нечто	-0.003645018
-4.079255	неширокие	-0.05176593
-4.079255	нею	-0.01948748
-4.079255	неясные	-0.003757298
-3.283013	неё	-0.01000834
-2.834775	ни	-0.05661462
-4.079255	нигде	-0.05118508
-4.079255	нижнего	-0.0517847
-4.079255	нижней	-0.0517847
-4.079255	нижние	-0.0517847
-4.079255	нижний	-0.04802284
-4.079255	нижнюю	-0.0517847
-4.079255	низенький	-0.05159448
-4.079255	низкий	-0.05168891
-4.079255	низким	-0.0517847
-4.079255	низко	-0.0517847
-4.079255	низкое	-0.05172038
-3.51734	никак	-0.2750502
-4.079255	никаких	-0.04998614
-4.079255	никакого	-0.0517847
-4.079255	никакой	-0.0517847
-4.079255	никем	-0.003757298
-3.283013	никогда	-0.3442335
-3.51734	никого	-0.04548347
-4.079255	николаю	-0.0517847
-3.897773	никому	-0.1633789
-3.897773	никто	-0.1633789
-3.424473	ним	-0.01759018
-3.798698	ними	-0.05167613
-4.079255	нимфа	-0.04856204
-4.079255	нисколько	-0.04802284
-4.079255	ниспосланный	-0.05099599
-3.897773	ниточка	-0.05174851
-3.348009	них	-0.04680108
-4.079255	ницце	-0.0517847
-2.930641	ничего	-0.2710314
-4.079255	ничем	-0.0517847
-3.51734	ничто	-0.1292528
-4.079255	нищий	-0.003757298
-3.22649	но	-0.01957317
-4.079255	новенькими	-0.0517847
-4.079255	новеньком	-0.003757298
-4.079255	нового	-0.0517847
-3.897773	новое	-0.05174851
-4.079255	новорождённого	-0.01962962
-4.079255	новороссийска	-0.04349251
-3.897773	новые	-0.04358248
-4.079255	новыми	-0.0517847
-4.079255	новых	-0.0517847
-3.897773	ног	-0.01959065
-4.079255	нога	-0.003757298
-4.079255	ногам	-0.05176593
-4.079255	ноге	-0.04365284
-3.51734	ноги	-0.02955537
-4.079255	ногой	-0.003757298
-4.079255	ногти	-0.0517847
-3.798698	ногу	-0.0771022
-4.079255	ножками	-0.003757298
-4.079255	ноздри	-0.003757298
-3.897773	номер	-0.1671407
-3.897773	норд	-0.05172973
-4.079255	нормандия	-0.003757298
-4.079255	нормандцем	-0.04365284
-3.798698	нос	-0.001523878
-3.798698	носил	-0.05158364
-4.079255	носками	-0.04982813
-4.079255	носом	-0.01962962
-4.079255	носятся	-0.0517847
-4.079255	ночам	-0.04349251
-4.079255	ночевал	-0.01962962
-3.897773	ночи	-0.003469218
-3.424473	ночь	-0.04758288
-3.897773	ночью	-0.003695901
-4.079255	нравится	-0.01962962
-3.798698	ну	-0.002347767
-4.079255	нужна	-0.01962962
-3.51734	нужно	-0.04889398
-4.079255	нумер	-0.05146855
-3.635622	нынче	-0.004824944
-4.079255	нюхать	-0.003757298
-4.079255	нюхнувшего	-0.0517847
-3.897773	нём	-0.0505436
-2.618941	о	-0.1171708
-3.22649	об	-0.1043679
-4.079255	оба	-0.05175184
-4.079255	обвязывают	-0.0517847
-4.079255	обгоревшие	-0.0517847
-4.079255	обдают	-0.05093295
-4.079255	обед	-0.05175184
-4.079255	обеда	-0.05150004
-4.079255	обедали	-0.003757298
-4.079255	обедать	-0.003757298
-4.079255	обезобразить	-0.05153152
-4.079255	обеими	-0.05175184
-4.079255	обернулся	-0.04982813
-4.079255	обеспечить	-0.05176593
-4.079255	обильно	-0.05162596
-4.079255	обитые	-0.0517847
-3.798698	облака	-0.003407799
-4.079255	облаков	-0.003757298
-4.079255	обливаясь	-0.0517847
-4.079255	обличье	-0.003757298
-4.079255	обломков	-0.0517847
-4.079255	облысели	-0.003757298
-4.079255	обменялись	-0.05176593
-4.079255	обмотках	-0.01962962
-4.079255	обмывался	-0.003757298
-4.079255	обмылся	-0.05176593
-3.897773	обнимает	-0.003539547
-4.079255	обнимешь	-0.05175184
-4.079255	обнять	-0.01962962
-4.079255	обо	-0.05162596
-4.079255	обогатили	-0.05109055
-4.079255	обоз	-0.003695901
-4.079255	оборками	-0.0517847
-4.079255	оборотился	-0.05176593
-3.897773	обрадовалась	-0.002553921
-4.079255	образом	-0.05118508
-4.079255	обратился	-0.04982813
-4.079255	обращались	-0.0517847
-4.079255	обращаются	-0.01962962
-4.079255	обращая	-0.04636933
-4.079255	обрубок	-0.003757298
-4.079255	обстоятельно	-0.04365284
-4.079255	обсыпавшиеся	-0.003757298
-4.079255	обувь	-0.05168891
-4.079255	обширных	-0.0517847
-4.079255	общего	-0.05172038
-4.079255	общему	-0.0517847
-3.798698	общества	0.03501273
-4.079255	обществе	-0.05150004
-4.079255	общественное	-0.0517847
-4.079255	общие	-0.0517847
-4.079255	общими	-0.0517847
-4.079255	общих	-0.0517847
-4.079255	общую	-0.05175184
-4.079255	объехал	-0.05165743
-4.079255	объявит	-0.0517847
-4.079255	объявление	-0.003757298
-4.079255	объявлением	-0.003604595
-3.897773	объяснить	-0.1661313
-4.079255	объятия	-0.003757298
-4.079255	обыкновению	-0.05175184
-3.897773	обычно	-0.05174851
-3.897773	обычные	-0.04345562
-4.079255	овечьей	-0.0517847
-4.079255	овладев	-0.0517847
-4.079255	овощи	-0.0517847
-4.079255	огибали	-0.0517847
-3.897773	оглянул	-0.167122
-4.079255	огненные	-0.0517847
-4.079255	огненный	-0.0517847
-3.897773	огня	-0.05171565
-4.079255	огнём	-0.0517847
-4.079255	оголённую	-0.0517847
-4.079255	огоньки	-0.01962962
-3.897773	огромном	-0.003082216
-3.897773	огромную	-0.05171565
-3.897773	огромные	-0.003716871
-4.079255	огромными	-0.0517847
-4.079255	огурец	-0.0517847
-4.079255	одарял	-0.0517847
-4.079255	одевают	-0.04349251
-4.079255	одеваясь	-0.04349251
-4.079255	одежд	-0.01962962
-4.079255	одежде	-0.0517847
-4.079255	одеждой	-0.003757298
-4.079255	одежды	-0.003757298
-4.079255	одета	-0.0517847
-4.079255	одеяло	-0.01962962
-4.079255	одеялу	-0.003757298
-2.958323	один	0.009750627
-4.079255	одиннадцатый	-0.05124809
-4.079255	одинокого	-0.003757298
-4.079255	одинокое	-0.05042824
-4.079255	одиночество	-0.003695901
-4.079255	одичавшими	-0.0517847
-3.51734	одна	-0.0603175
-4.079255	однажды	-0.04527855
-3.424473	однако	-0.07606002
-3.897773	одни	-0.04361596
-4.079255	одним	-0.05020725
-3.897773	одних	-0.05174851
-3.51734	одно	-0.04066001
-3.348009	одного	-0.04823364
-3.635622	одной	-0.04900734
-4.079255	одном	-0.05176593
-4.079255	одному	-0.0517847
-4.079255	одною	-0.0517847
-3.424473	одну	0.008609302
-4.079255	ожидал	-0.05146855
-4.079255	ожидании	-0.01962962
-3.897773	ожидания	0.005376756
-4.079255	ожидающей	-0.0517847
-4.079255	ожила	-0.003757298
-4.079255	озадаченного	-0.0517847
-4.079255	озера	-0.003757298
-4.079255	озеро	-0.05175184
-4.079255	озирался	-0.003757298
-4.079255	означает	-0.05175184
-4.079255	оказалась	-0.05153152
-3.897773	оказалось	-0.01957043
-3.798698	оказался	-0.1055527
-4.079255	оказать	-0.05099599
-4.079255	океан	-0.04963846
-4.079255	океана	-0.0517847
-4.079255	океане	-0.01962962
-4.079255	океану	-0.01962962
-4.079255	океаны	-0.01962962
-4.079255	окиси	-0.0517847
-4.079255	окладов	-0.01962962
-3.635622	окна	-0.04341921
-4.079255	окнами	-0.01962962
-3.798698	окне	-0.05167946
-4.079255	окно	-0.01962962
-3.51734	около	-0.05101991
-3.897773	окон	0.03236206
-4.079255	окончена	-0.01962962
-4.079255	окоченелый	-0.0517847
-3.897773	окраски	-0.1349857
-4.079255	округа	-0.05176593
-4.079255	округе	-0.05121659
-4.079255	округлую	-0.04982813
-4.079255	окружала	-0.0517847
-4.079255	окружённый	-0.0517847
-3.897773	окунул	-0.1588485
-3.897773	олег	-0.1191133
-4.079255	оловянную	-0.0517847
-4.079255	омрачает	-0.0517847
-4.079255	омэ	-0.003757298
-2.299934	он	0.03878561
-2.60605	она	0.04167639
-2.813785	они	-0.0005700439
-4.079255	оно	-0.0517847
-4.079255	опала	-0.003757298
-4.079255	опалённые	-0.0517847
-4.079255	оперлась	-0.05077529
-4.079255	оплот	-0.003757298
-4.079255	оплывшей	-0.05023882
-4.079255	ополченец	-0.003757298
-4.079255	оправдана	-0.01962962
-4.079255	определил	-0.00135408
-4.079255	определилась	-0.05172038
-4.079255	определить	-0.003757298
-4.079255	опрокинутая	-0.0517847
-4.079255	опрятном	-0.0517847
-4.079255	опускалась	-0.04636933
-4.079255	опускался	-0.003757298
-4.079255	опустело	-0.003757298
-4.079255	опустив	-0.05172038
-4.079255	опустошённого	-0.05172038
-4.079255	опушке	-0.003757298
-4.079255	опущенный	-0.04349251
-4.079255	опыт	-0.01962962
-3.348009	опять	-0.05089892
-4.079255	ор	-0.0517847
-4.079255	оранжевые	-0.003757298
-4.079255	орда	-0.0517847
-4.079255	ордена	-0.0517847
-4.079255	ореол	-0.04636933
-4.079255	орудие	-0.05143707
-3.798698	оружие	-0.08716206
-4.079255	осадил	-0.05175184
-4.079255	осборн	-0.0517847
-4.079255	осборна	-0.003757298
-4.079255	осведомляться	-0.05077529
-4.079255	осветил	-0.04998614
-4.079255	освещаемое	-0.0517847
-4.079255	освещён	-0.003757298
-4.079255	освещённая	-0.0517847
-4.079255	освещённые	-0.05172038
-4.079255	освещённых	-0.05176593
-4.079255	освоить	-0.0517847
-4.079255	оседают	-0.04636933
-4.079255	осени	-0.003757298
-4.079255	осенний	-0.05168891
-4.079255	осень	-0.01962962
-4.079255	осенью	-0.05137409
-4.079255	осколками	-0.0517847
-4.079255	осколки	-0.0517847
-4.079255	ослепительно	-0.0517847
-4.079255	ослепительный	-0.05176593
-4.079255	осматривал	-0.05143707
-4.079255	основание	-0.05162596
-4.079255	основатель	-0.0517847
-3.798698	особенно	-0.04970356
-4.079255	особенным	-0.01962962
-4.079255	оспы	-0.04365284
-4.079255	ост	-0.003757298
-3.51734	оставалось	-0.00193385
-4.079255	оставался	-0.04349251
-4.079255	оставила	-0.0517847
-4.079255	оставим	-0.05146855
-4.079255	оставить	-0.05077529
-4.079255	оставляют	-0.04636933
-4.079255	оставшиеся	-0.05175184
-4.079255	оставь	-0.04258735
-4.079255	оставьте	-0.05093295
-4.079255	осталась	-0.05121659
-4.079255	остались	-0.0517847
-3.798698	осталось	-0.01774887
-4.079255	останавливается	-0.05159448
-3.897773	останется	-0.05149531
-4.079255	остановил	-0.0517847
-4.079255	остановилась	-0.003757298
-4.079255	остановились	-0.01962962
-3.635622	остановился	-0.05753561
-4.079255	остаётся	-0.04349251
-3.798698	осторожно	-0.003676455
-4.079255	осторожность	-0.01962962
-3.897773	острова	-0.01959065
-4.079255	острове	-0.0517847
-4.079255	островерхий	-0.05176593
-4.079255	острые	-0.05176593
-4.079255	острых	-0.003757298
-4.079255	остывающих	-0.05175184
-4.079255	остывших	-0.05175184
-2.494638	от	-0.0617877
-4.079255	отбивную	-0.01962962
-4.079255	отведены	-0.05118508
-4.079255	отверг	-0.05105903
-4.079255	отверстие	-0.0517847
-3.897773	отверстия	-0.05172973
-4.079255	отвести	-0.05124809
-4.079255	ответ	-0.003757298
-3.635622	ответил	0.0327265
-4.079255	ответила	-0.003757298
-4.079255	ответили	-0.0517847
-4.079255	ответить	-0.05156301
-4.079255	отвечает	-0.05074375
-3.798698	отвечал	-0.04905662
-4.079255	отвинтил	-0.0517847
-4.079255	отвлечь	-0.05176593
-4.079255	отвлечься	-0.05042824
-4.079255	отворил	-0.05162596
-4.079255	отвратительная	-0.0517847
-4.079255	отдавая	-0.0517847
-4.079255	отдаст	-0.05030197
-4.079255	отдать	-0.04365284
-4.079255	отдела	-0.01962962
-4.079255	отделявших	-0.05153152
-4.079255	отделяла	-0.04998614
-4.079255	отдохнувши	-0.04963846
-3.424473	отец	-0.0384099
-4.079255	отечески	-0.003757298
-4.079255	отказаться	-0.01962962
-4.079255	откидывает	-0.003757298
-3.897773	отклонил	-0.1671407
-4.079255	откроется	-0.05099599
-3.51734	открыл	-0.07680549
-4.079255	открыт	-0.05162596
-4.079255	открыто	-0.0517847
-4.079255	открытую	-0.04349251
-4.079255	открытым	-0.0517847
-4.079255	открыть	-0.05176593
-3.635622	откуда	-0.08081899
-4.079255	откуда-то	-0.0517847
-4.079255	отличающаяся	-0.05042824
-4.079255	отложил	-0.05176593
-4.079255	отложите	-0.003757298
-4.079255	отменную	-0.0517847
-3.897773	относившиеся	-0.1670135
-4.079255	относится	-0.04982813
-4.079255	относящие	-0.05176593
-4.079255	отношение	-0.01962962
-4.079255	отныне	-0.0517847
-3.897773	отнюдь	-0.1633789
-3.897773	отобьём	0.005376756
-4.079255	оторвал	-0.05168891
-4.079255	оторвался	-0.05042824
-4.079255	оторопь	-0.0517847
-4.079255	отошёл	-0.05042824
-4.079255	отплыли	-0.04856204
-4.079255	отползал	-0.04349251
-4.079255	отпор	-0.0517847
-3.635622	отправился	-0.09172259
-4.079255	отпугивает	-0.05030197
-4.079255	отпускал	-0.003757298
-4.079255	отпыхиваясь	-0.003757298
-3.897773	отрицательно	-0.05172973
-4.079255	отряд	-0.0517847
-4.079255	отрядом	-0.0517847
-4.079255	отряду	-0.05172038
-4.079255	отставные	-0.0517847
-3.897773	отсюда	-0.002476595
-4.079255	оттиска	-0.04636933
-4.079255	отто	-0.003757298
-3.897773	оттого	-0.05147181
-3.798698	отца	-0.06755494
-4.079255	отцовскую	-0.0517847
-3.897773	отцом	0.03236206
-4.079255	отцу	-0.04365284
-3.897773	отчего	-0.04988519
-4.079255	отчёта	-0.003757298
-4.079255	отъезда	-0.05165743
-3.897773	отыскал	-0.1251548
-4.079255	офицер	-0.05176593
-4.079255	офицеры	-0.05176593
-4.079255	ох	-0.04967007
-4.079255	очевидно	-0.003757298
-2.904619	очень	-0.06509436
-4.079255	очень-то	-0.05093295
-3.897773	очертания	-0.1191133
-4.079255	очки	-0.05175184
-4.079255	очумели	-0.04967007
-4.079255	очутившись	-0.05074375
-4.079255	очутились	-0.04636933
-4.079255	ошибки	-0.01962962
-4.079255	ошибся	-0.003757298
-4.079255	ощутил	-0.0517847
-4.079255	ощущаю	-0.05030197
-3.897773	павел	-0.167122
-4.079255	падавших	-0.04636933
-4.079255	падаем	-0.01962962
-4.079255	падает	-0.05020725
-4.079255	падала	-0.0517847
-3.897773	падали	-0.07352178
-4.079255	падение	-0.003757298
-4.079255	пазы	-0.003757298
-4.079255	пакетик	-0.0517847
-4.079255	пал	-0.05118508
-4.079255	палаты	-0.05143707
-4.079255	палтуса	-0.003757298
-4.079255	палубе	-0.0517847
-4.079255	пальмы	-0.01962962
-4.079255	пальто	-0.04365284
-3.897773	пальцев	-0.1349857
-3.798698	пальцы	-0.008636203
-3.897773	пальчиком	-0.003716871
-3.897773	памяти	-0.003716871
-4.079255	памятник	-0.0517847
-3.897773	память	-0.05150801
-4.079255	панталонах	-0.05172038
-4.079255	панцырных	-0.0517847
-4.079255	папа	-0.01962962
-3.798698	папаша	-0.003583621
-4.079255	папаше	-0.05176593
-4.079255	папироску	-0.003757298
-4.079255	папиросная	-0.05176593
-4.079255	пара	-0.0517847
-4.079255	парадными	-0.0517847
-4.079255	параллельная	-0.0517847
-4.079255	парень	-0.05175184
-4.079255	паренёк	-0.003757298
-4.079255	парижа	-0.003757298
-4.079255	парило	-0.003757298
-4.079255	парк	-0.01962962
-4.079255	парного	-0.05176593
-4.079255	паровозном	-0.0517847
-4.079255	партизанского	-0.0517847
-4.079255	партии	-0.003757298
-4.079255	партий	-0.0517847
-4.079255	пару	-0.05176593
-4.079255	парусах	-0.003757298
-4.079255	парфюмерной	-0.0517847
-4.079255	пары	-0.0517847
-4.079255	паслись	-0.05131109
-4.079255	пассажиры	-0.04365284
-4.079255	пастбища	-0.0517847
-4.079255	пастух	-0.003757298
-4.079255	патриотизма	-0.003757298
-4.079255	патрона	-0.003757298
-4.079255	патронных	-0.0517847
-3.897773	паук	-0.05174851
-4.079255	паучиные	-0.05176593
-3.897773	пахло	-0.05174851
-4.079255	пахнет	-0.05176593
-4.079255	паша	-0.05175184
-4.079255	пейзаж	-0.003757298
-4.079255	пелену	-0.0517847
-4.079255	пелерины	-0.003757298
-4.079255	первая	-0.05174851
-3.897773	первого	0.03236206
-4.079255	первое	-0.0517847
-4.079255	первородное	-0.0517847
-4.079255	первые	-0.05175184
-3.51734	первый	-0.1522965
-4.079255	перебраться	-0.05140558
-4.079255	переброшенных	-0.003757298
-4.079255	перевалившим	-0.05140558
-4.079255	перевалили	-0.05140558
-4.079255	перевернёт	-0.05105903
-4.079255	перевозившая	-0.05175184
-4.079255	перевоплощаешься	-0.04349251
-4.079255	перегонного	-0.0517847
-4.079255	перегруженных	-0.0517847
-3.091006	перед	-0.1012667
-4.079255	переданных	-0.04349251
-4.079255	передаются	-0.0517847
-4.079255	передвижение	-0.05176593
-4.079255	передней	-0.05127959
-4.079255	передо	-0.05176593
-4.079255	переедут	-0.05165743
-4.079255	пережили	-0.003757298
-4.079255	перекатываясь	-0.003757298
-4.079255	перекинется	-0.04856204
-4.079255	переключить	-0.0517847
-4.079255	перекрутил	-0.0517847
-4.079255	перелески	-0.003757298
-4.079255	переливался	-0.05176593
-4.079255	переливов	-0.0517847
-4.079255	переливы	-0.05176593
-3.897773	перелёт	0.007398278
-4.079255	перелёта	-0.003695901
-4.079255	перемен	-0.04365284
-4.079255	переплёт	-0.0517847
-4.079255	переправы	-0.01962962
-4.079255	перепрыгивали	-0.05140558
-4.079255	пересекавшем	-0.0517847
-4.079255	пересекая	-0.05176593
-4.079255	пересечём	-0.0517847
-3.897773	перестань	-0.01959065
-3.897773	переулков	-0.0771022
-4.079255	переход	-0.04349251
-3.897773	переходит	-0.03793471
-4.079255	переходы	-0.05156301
-4.079255	перечислять	-0.0517847
-4.079255	перешёл	-0.04982813
-4.079255	перила	-0.003757298
-4.079255	перрона	-0.04982813
-4.079255	персонала	-0.003757298
-4.079255	песком	-0.003757298
-4.079255	песку	-0.003222983
-4.079255	песню	-0.01962962
-4.079255	пестрота	-0.003757298
-4.079255	петербурга	0.005376756
-4.079255	петербургом	0.005376756
-4.079255	петлях	-0.003757298
-4.079255	петра	-0.003757298
-4.079255	петрович	-0.0517847
-4.079255	петрушка	-0.05147652
-4.079255	петя	-0.05146855
-4.079255	печаль	-0.003757298
-4.079255	печке	-0.05140558
-3.897773	пиво	0.005376756
-4.079255	пикардия	-0.04365284
-4.079255	пики	-0.01962962
-4.079255	пирамиды	-0.003757298
-4.079255	пирожком	-0.05176593
-4.079255	пирожок	-0.05156301
-4.079255	писал	-0.05118508
-4.079255	писанные	-0.0517847
-4.079255	писаному	-0.003757298
-4.079255	писаря	-0.01962962
-4.079255	писатель	-0.0517847
-3.897773	писать	-0.0503731
-4.079255	писают	-0.04349251
-4.079255	пистолетом	-0.01962962
-4.079255	письмо	-0.01962962
-4.079255	питает	-0.0517847
-4.079255	питомник	-0.003757298
-3.897773	пить	-0.01957043
-4.079255	пиша	-0.04365284
-4.079255	пишет	-0.003757298
-4.079255	пишу	-0.05176593
-4.079255	плакать	-0.01962962
-3.897773	план	-0.003716871
-4.079255	планет	-0.003695901
-4.079255	планы	-0.01962962
-4.079255	платиновыми	-0.0517847
-4.079255	платье	-0.003757298
-4.079255	платьем	-0.05175184
-4.079255	плач	-0.0517847
-4.079255	плачет	-0.01955526
-3.635622	плащ	0.00153162
-4.079255	плаща	-0.01962962
-4.079255	племена	-0.0517847
-3.798698	племени	-0.003604595
-4.079255	пленительной	-0.04365284
-4.079255	плену	-0.05033354
-4.079255	плетёная	-0.0517847
-4.079255	плеча	-0.01962962
-3.798698	плечо	0.03482642
-4.079255	плечу	-0.003757298
-4.079255	плоские	-0.0517847
-4.079255	плоским	-0.04982813
-4.079255	плоти	-0.05175184
-4.079255	плотское	-0.05168891
-4.079255	плоть	-0.04365284
-3.897773	площади	-0.01925016
-3.798698	площадь	0.03271334
-4.079255	плывущий	-0.04349251
-4.079255	плюшевом	-0.05042824
-2.43935	по	-0.07081281
-4.079255	по-казацки	-0.01962962
-4.079255	по-моему	-0.05175184
-4.079255	по-прежнему	-0.003757298
-4.079255	по-русски	-0.01962962
-4.079255	победе	-0.05176593
-3.897773	победы	-0.04798492
-4.079255	побежал	-0.05153152
