
\data\
ngram 1=100
ngram 2=2177
ngram 3=8821

\1-grams:
-1.819777	</s>
-99	<s>	-0.6781581
-1.794199	<sil>	-0.1663181
-1.574677	A	-0.1116768
-1.574677	A0	-0.1025144
-2.865523	A0l	-0.2747726
-2.01632	Al	-0.3080428
-1.794199	B	-0.5852803
-1.819777	B0	-0.6094016
-2.739383	B0l	-0.3656476
-2.739383	Bl	-0.2301334
-1.794199	D	-0.6221655
-1.781953	D0	-0.6430264
-2.494805	D0l	-0.3935486
-2.739383	DZ	-0.2235054
-3.104299	DZ0	-0.2792936
-2.562093	DZH	-0.197372
-2.562093	DZH0	-0.222821
-2.297766	Dl	-0.4095781
-1.567248	E0	-0.07456046
-2.739383	E0l	-0.5290068
-1.781953	F	-0.3629789
-1.846958	F0	-0.1002115
-3.061698	F0l	-0.2745585
-2.865523	Fl	-0.2414533
-1.781953	G	-0.6178949
-1.875953	G0	-0.8184383
-2.865523	G0l	-0.240974
-2.339289	GH	-0.4815166
-2.865523	Gl	-0.2204794
-1.675411	I	-0.01181233
-1.781953	I0	0.1617766
-2.494805	I0l	-0.3095182
-2.08338	Il	-0.1287879
-1.666064	J0	0.08498013
-2.641754	J0l	-0.4220158
-1.74716	K	-0.5028725
-1.794199	K0	-0.9382586
-3.061698	K0l	-0.2697644
-1.781953	KH	-0.3472236
-1.923435	KH0	-0.669646
-3.104299	KH0l	-0.2839842
-2.739383	KHl	-0.2369637
-2.339289	Kl	-0.411617
-1.74716	L	-0.07870692
-1.684963	L0	-0.007469475
-2.494805	L0l	-0.417057
-2.739383	Ll	-0.225477
-1.684963	M	-0.1770421
-1.69473	M0	-0.2458766
-2.739383	M0l	-0.3177803
-2.494805	Ml	-0.3683505
-1.704722	N	-0.1323078
-1.704722	N0	0.04375213
-2.385205	N0l	-0.5598791
-2.339289	Nl	-0.5241523
-3.104299	O	-0.2839842
-1.589925	O0	0.01166171
-2.641754	O0l	-0.2815357
-1.736156	P	-0.4639536
-1.8068	P0	-0.393212
-2.739383	P0l	-0.5277857
-2.562093	Pl	-0.412117
-1.684963	R	-0.1013038
-1.725423	R0	0.002334654
-3.061698	R0l	-0.2745585
-3.061698	Rl	-0.2554966
-1.770043	S	-0.5471272
-1.794199	S0	-0.1998
-2.385205	S0l	-0.4076889
-1.781953	SH	-0.2477072
-1.875953	SH0	-0.204172
-3.104299	SH0l	-0.281951
-2.865523	SHl	-0.2414551
-2.192751	Sl	-0.2136081
-1.736156	T	-0.521667
-1.794199	T0	-0.3059783
-2.297766	T0l	-0.5257063
-1.833155	TS	-0.2348644
-1.8068	TSH0	-0.3125423
-3.061698	TSH0l	-0.2745585
-3.104299	TSl	-0.284187
-2.297766	Tl	-0.3552615
-1.582234	U	-0.2346323
-1.605729	U0	-0.1261511
-3.061698	U0l	-0.2747658
-2.739383	Ul	-0.2511574
-1.704722	V	-0.7541984
-1.725423	V0	-0.8594906
-2.436557	V0l	-0.4757313
-2.494805	Vl	-0.3863824
-1.794199	Y	0.09772289
-2.01632	Y0	0.02651936
-1.794199	Z	-0.5526141
-1.833155	Z0	-0.4777643
-2.641754	Z0l	-0.2208256
-1.819777	ZH	-0.4594367
-2.739383	ZH0	-0.2299689
-2.865523	ZHl	-0.2438985
-2.385205	Zl	-0.4987321

\2-grams:
-1.041322	<s> A	-0.1852913
-2.873199	<s> A0	-0.1580743
-1.911366	<s> B	-0.2522896
-2.684576	<s> B0	-0.1981965
-1.634717	<s> D	-0.2589124
-2.553505	<s> D0	-0.04543902
-1.886311	<s> E0	-0.2987859
-1.516094	<s> F	-0.3051485
-3.448738	<s> F0
-1.662893	<s> G	-0.1647192
-1.214227	<s> I	-0.1099093
-2.684576	<s> I0	-0.1654163
-1.263545	<s> J0	-0.8753775
-1.31919	<s> K	-0.6515986
-3.448738	<s> K0
-2.452957	<s> KH	-0.07295031
-3.448738	<s> KH0
-3.448738	<s> Kl
-2.029155	<s> L	-0.5489437
-1.96628	<s> L0	-0.1512444
-1.486019	<s> M	-0.3898678
-2.302707	<s> M0	-0.2214287
-1.134044	<s> N	-0.8728058
-1.406577	<s> N0	-0.9496948
-1.353492	<s> O0	-0.8125055
-1.147161	<s> P	-0.6872115
-1.96628	<s> P0	-0.207405
-1.911366	<s> R	-0.3890262
-2.553505	<s> R0	-0.1746326
-1.299839	<s> S	-0.2303184
-2.452957	<s> S0	-0.05967313
-1.516094	<s> SH	-0.8039718
-3.197156	<s> SH0
-3.448738	<s> Sl
-1.263545	<s> T	-0.6884857
-1.911366	<s> T0	-0.4012043
-2.684576	<s> TS	-0.3333904
-2.19129	<s> TSH0	-0.7057528
-1.760391	<s> U	-0.0836581
-3.197156	<s> U0
-1.275309	<s> V	0.1543738
-1.779002	<s> V0	-0.1626833
-3.448738	<s> Vl
-2.243436	<s> Y	-0.042457
-1.840161	<s> Z	-0.4726016
-2.14474	<s> Z0	-0.2979733
-2.14474	<s> ZH	-0.2018366
-1.344368	<sil> A	-0.2551955
-2.492164	<sil> A0
-3.067703	<sil> Al
-1.505277	<sil> B	-0.1748649
-1.810256	<sil> B0	-0.2622001
-1.585245	<sil> D	-0.2079825
-1.990332	<sil> D0	-0.1833434
-3.067703	<sil> DZH
-1.505277	<sil> E0	-0.4753295
-1.556921	<sil> F	-0.1911946
-2.816122	<sil> F0	-0.1284932
-1.721666	<sil> G	-0.02883315
-2.303542	<sil> G0	0.1721307
-1.379357	<sil> I	-0.0860309
-2.303542	<sil> I0	-0.07519007
-3.067703	<sil> I0l
-2.492164	<sil> Il	-0.1288847
-1.615546	<sil> J0	-0.5896001
-1.36151	<sil> K	-0.5819893
-2.816122	<sil> K0	-0.02982889
-1.990332	<sil> KH	-0.2303723
-3.067703	<sil> Kl
-1.990332	<sil> L	-0.128308
-1.862401	<sil> L0	-0.2077691
-1.585245	<sil> M	-0.2911668
-1.921673	<sil> M0	-0.02359006
-1.437769	<sil> N	-0.7358981
-1.530332	<sil> N0	-0.8427784
-1.505277	<sil> O0	-0.6206318
-1.327877	<sil> P	-0.5418109
-1.763706	<sil> P0	-0.2613681
-1.721666	<sil> R	-0.4856606
-2.492164	<sil> R0	-0.1586033
-1.397968	<sil> S	-0.1812822
-1.810256	<sil> S0	-0.298972
-1.505277	<sil> SH	-0.5195853
-2.492164	<sil> SH0	-0.04961221
-1.481589	<sil> T	-0.3854188
-1.763706	<sil> T0	-0.48848
-3.067703	<sil> TS
-1.763706	<sil> TSH0	-0.1035974
-1.585245	<sil> U	-0.04662842
-2.303542	<sil> U0	-0.2227053
-1.459126	<sil> V	-0.1029194
-1.556921	<sil> V0	0.03368038
-3.067703	<sil> Vl
-1.921673	<sil> Y	-0.02490458
-3.067703	<sil> Y0
-1.585245	<sil> Z	-0.7063611
-2.492164	<sil> Z0	-0.1175804
-1.921673	<sil> ZH	-0.05054073
-2.816122	<sil> Zl
-1.557035	A </s>
-1.542719	A <sil>	0.03348583
-1.587166	A B	-0.2098424
-1.890722	A B0	-0.3980552
-3.34288	A B0l
-3.091298	A Bl
-1.571839	A D	-0.1681483
-1.571839	A D0	-0.5801001
-2.447647	A D0l	0.06986251
-3.34288	A DZ0	0.02220237
-3.091298	A DZH
-3.34288	A DZH0
-2.447647	A Dl	-0.1282624
-1.860421	A E0	-0.6764007
-1.692589	A F	-0.283921
-2.347098	A F0	0.09252833
-3.34288	A F0l
-2.76734	A Fl
-1.636686	A G	-0.45191
-2.085432	A G0	-0.01181817
-3.34288	A G0l
-2.447647	A GH	-0.04925813
-3.091298	A Gl	-0.1229023
-1.712945	A I	-0.07641482
-2.137577	A I0	-0.2094453
-3.34288	A I0l
-3.091298	A Il
-1.619544	A J0	-0.3661959
-3.34288	A J0l
-1.557035	A K	-0.3842151
-1.890722	A K0	-0.4227225
-3.34288	A K0l
-1.734303	A KH	-0.1806689
-3.091298	A KH0	-0.03293169
-2.76734	A Kl
-1.636686	A L	-0.3058186
-1.673144	A L0	-0.4872234
-2.447647	A L0l	-0.04719409
-1.654533	A M	-0.1699848
-1.673144	A M0	-0.7375789
-3.091298	A Ml	0.01639929
-1.571839	A N	-0.5112107
-1.515429	A N0	-0.7281623
-2.038882	A Nl	-0.5055681
-1.923297	A O0	-0.2936022
-1.489752	A P	-0.5401727
-1.805508	A P0	-0.2930064
-3.091298	A P0l	0.2680371
-2.347098	A Pl	-0.4586481
-1.571839	A R	-0.3930824
-1.890722	A R0	-0.4961978
-3.091298	A R0l	-0.2630847
-1.489752	A S	-0.410451
-1.692589	A S0	-0.3748942
-2.578718	A S0l	-0.02874787
-1.756765	A SH	-0.3619016
-2.085432	A SH0	-0.02777854
-2.447647	A Sl	-0.2096462
-1.502401	A T	-0.3196311
-1.654533	A T0	-0.2079242
-3.34288	A T0l	0.0496639
-1.734303	A TS	-0.001623422
-1.734303	A TSH0	-0.1986908
-2.347098	A Tl	0.05366243
-1.832097	A U	-0.1133874
-1.958514	A U0	-0.3337287
-1.619544	A V	-0.4979804
-1.780453	A V0	-0.4162747
-3.091298	A V0l
-3.091298	A Vl	0.004768729
-2.196849	A Y	-0.2997408
-1.734303	A Z	-0.2365425
-1.923297	A Z0	0.0126096
-3.34288	A Z0l
-1.636686	A ZH	-0.4818214
-3.34288	A ZH0
-3.34288	A ZHl
-3.34288	A Zl
-1.657617	A0 </s>
-1.716242	A0 <sil>	-0.04719332
-1.716242	A0 B	-0.09288797
-2.404238	A0 B0	-0.293407
-3.1684	A0 B0l
-1.605973	A0 D	-0.4206743
-1.631028	A0 D0	-0.3620113
-2.59286	A0 Dl
-2.404238	A0 E0	-0.4489987
-1.559823	A0 F	-0.3840991
-2.273167	A0 F0	-0.0359662
-3.1684	A0 Fl
-1.685941	A0 G	-0.2966302
-2.273167	A0 G0	-0.4730215
-2.404238	A0 GH	-0.04925813
-2.916818	A0 Gl	-0.09158696
-1.864402	A0 I	-0.07395716
-2.273167	A0 I0	-0.07051893
-1.428574	A0 J0	-0.6633477
-3.1684	A0 J0l	0.01482683
-1.582285	A0 K	0.04333705
-2.172619	A0 K0	-0.3123779
-1.631028	A0 KH	-0.2122866
-2.59286	A0 KH0	-0.2455533
-2.916818	A0 Kl	-0.07092157
-1.462206	A0 L	-0.4100561
-1.462206	A0 L0	-0.6499842
-2.59286	A0 L0l	0.009345129
-2.916818	A0 Ll	-0.2151334
-1.582285	A0 M	-0.1520109
-1.685941	A0 M0	-0.5463293
-2.916818	A0 Ml	-0.03344601
-1.498664	A0 N	-0.3364802
-1.538465	A0 N0	-0.6364764
-2.404238	A0 N0l	0.05280066
-1.963098	A0 Nl	-0.05467197
-2.091029	A0 O0	-0.5143917
-1.538465	A0 P	-0.4726299
-2.916818	A0 P0
-3.1684	A0 Pl
-1.538465	A0 R	-0.1876158
-1.864402	A0 R0	-0.7840676
-1.462206	A0 S	-0.1370071
-1.784034	A0 S0	-0.20207
-2.59286	A0 S0l	-0.2402213
-1.748817	A0 SH	-0.277776
-1.822362	A0 SH0	-0.5760846
-3.1684	A0 SHl
-2.273167	A0 Sl	-0.002533168
-1.445065	A0 T	-0.2439908
-1.462206	A0 T0	-0.3020549
-2.404238	A0 T0l	-0.0660477
-1.657617	A0 TS	-0.511
-1.963098	A0 TSH0	-0.5213427
-2.916818	A0 Tl	-0.2095505
-1.963098	A0 U	-0.1056391
-2.091029	A0 U0	-0.4669202
-1.685941	A0 V	-0.228101
-1.822362	A0 V0	-0.4984753
-3.1684	A0 Vl
-2.916818	A0 Y
-1.657617	A0 Z	-0.4103655
-1.963098	A0 Z0	-0.04708505
-3.1684	A0 Z0l
-1.631028	A0 ZH	-0.5973389
-2.172619	A0 Zl	-0.04071905
-0.7881887	A0l D
-0.7881887	A0l Nl
-0.7881887	A0l SH
-1.26712	Al B	-0.1124285
-2.344491	Al B0
-1.198461	Al D	-0.6413546
-1.449258	Al D0	0.005265594
-2.344491	Al D0l
-2.344491	Al Dl
-2.344491	Al F
-2.344491	Al F0
-1.449258	Al G	-0.09856573
-2.344491	Al G0
-1.580329	Al K	-0.08794545
-2.09291	Al KH
-2.344491	Al L
-2.09291	Al M
-1.580329	Al N	-0.683024
-1.26712	Al N0	-0.4603471
-1.26712	Al P	-0.3138603
-2.09291	Al P0	-0.1427039
-2.09291	Al Pl	0.009245992
-1.449258	Al R	-0.07851746
-2.09291	Al R0	-0.2077613
-1.087043	Al S	-0.2225868
-2.344491	Al S0	-0.2024525
-2.344491	Al SH0
-2.344491	Al Sl
-0.8923336	Al T	-0.1469629
-2.344491	Al T0
-1.580329	Al TS
-1.768952	Al TSH0
-2.344491	Al Tl
-2.344491	Al Z
-2.344491	Al ZH
-1.013571	B A	-0.2113897
-1.339508	B A0	-0.1391532
-2.391924	B D	-0.08560265
-2.067966	B D0
-2.643506	B E0	-0.3520887
-2.391924	B G	-0.2075686
-2.643506	B G0
-2.643506	B J0	-0.370277
-1.438204	B L	-0.5210738
-1.25914	B L0	-0.3159758
-2.643506	B L0l
-2.391924	B M	-0.08148277
-2.643506	B M0
-1.748273	B N	-0.4151719
-2.391924	B N0	-0.08408257
-1.057391	B O0	-0.4286769
-1.161047	B R	-0.7905971
-1.438204	B R0	-0.2726705
-1.132723	B U	-0.2881981
-1.057391	B U0	-0.4770522
-2.643506	B V
-2.391924	B V0	-0.2635387
-1.013571	B Y	-0.1581973
-0.9551589	B Y0	-0.9733598
-2.391924	B Z
-2.391924	B Z0	-0.144943
-2.067966	B ZH
-2.180299	B0 A
-1.60476	B0 A0	-0.1176814
-1.928717	B0 D	-0.2210068
-2.180299	B0 D0
-0.6695167	B0 E0	-0.08842459
-2.180299	B0 E0l	0.2680371
-1.928717	B0 G	-0.2284008
-0.4569638	B0 I	-0.3451374
-1.034269	B0 I0	-0.3496147
-1.184518	B0 J0	-0.2568454
-2.180299	B0 O0	-0.535338
-1.928717	B0 U
-2.180299	B0 U0	-0.2527313
-2.180299	B0 Z
-2.180299	B0 Z0
-0.337588	B0l I
-0.9131275	B0l Il
-1.010037	Bl A
-0.7584558	Bl A0
-1.010037	Bl U
-1.010037	Bl Y
-0.9802353	D A	-0.1743909
-1.173522	D A0	-0.1738856
-1.740168	D Al	-0.2498175
-1.840716	D B	-0.3444561
-1.971787	D B0	-0.02500752
-2.735949	D E0
-1.589918	D G	-0.3389387
-2.16041	D G0	0.1912499
-2.735949	D J0	-0.07272706
-2.16041	D L	-0.30726
-1.253491	D L0	-0.7557236
-2.735949	D M	-0.2250219
-2.484367	D M0	0.1003044
-1.478501	D N	-0.8246272
-1.351584	D N0	-0.4697354
-1.198577	D O0	-0.3560917
-1.173522	D R	-0.7034119
-1.530647	D R0	-0.07416745
-1.316366	D U	-0.1085341
-1.283792	D U0	-0.5357392
-2.484367	D Ul	-0.2243605
-1.283792	D V	-0.6278532
-1.198577	D V0	-0.3537095
-1.283792	D Y	-0.2348099
-1.740168	D Y0	-0.0985789
-1.840716	D Z	-0.3010787
-1.971787	D Z0
-1.840716	D ZH	-0.4152723
-1.549373	D0 A	-0.1037426
-1.187159	D0 A0	-0.3042103
-1.448825	D0 B	-0.1464092
-1.680445	D0 B0	0.09070405
-0.7384129	D0 E0	-0.3427418
-1.367235	D0 G	-0.0299978
-2.193025	D0 G0	0.08202282
-0.6735657	D0 I	-0.261968
-1.187159	D0 I0	-0.3922563
-1.549373	D0 Il
-1.549373	D0 J0	-0.242756
-2.444606	D0 M
-2.193025	D0 M0	-0.2054442
-1.239304	D0 O0	-0.4255259
-1.869067	D0 U
-1.549373	D0 Z	-0.05854353
-1.869067	D0 Z0
-1.869067	D0 ZH	-0.1059983
-0.7769207	D0l A0	-0.2495123
-0.5882984	D0l E0	-0.3818001
-0.7769207	D0l I	-0.1832032
-1.35246	D0l U
-1.26531	DZ B
-1.26531	DZ B0
-1.26531	DZ D
-1.26531	DZ D0
-1.013728	DZ G	-0.2075686
-1.26531	DZ G0
-1.26531	DZ Z
-1.26531	DZ ZH
-0.3110675	DZ0 E0	-0.2567026
-1.214157	DZH A
-1.214157	DZH A0
-0.9625757	DZH E0
-0.9625757	DZH O0
-0.9625757	DZH U
-1.26531	DZH0 B
-1.26531	DZH0 B0
-1.26531	DZH0 D
-1.26531	DZH0 D0
-1.26531	DZH0 G
-1.013728	DZH0 Z	-0.1961018
-1.26531	DZH0 Z0
-1.26531	DZH0 ZH
-0.7380537	Dl A	-0.04518966
-0.7380537	Dl A0	-0.0881074
-1.633287	Dl L0
-1.057747	Dl O0	-0.1643852
-1.057747	Dl R	-0.1293128
-1.057747	Dl U0	-0.1506403
-1.633287	Dl V
-1.621307	E0 </s>
-1.58609	E0 <sil>	-0.07820282
-2.11044	E0 A	-0.09278926
-3.005673	E0 A0
-1.748225	E0 B	-0.1515824
-1.928301	E0 B0	-0.1754074
-1.659635	E0 D	-0.4183588
-1.80037	E0 D0	-0.1603117
-2.754091	E0 DZ
-3.005673	E0 DZH0
-3.005673	E0 Dl
-1.748225	E0 F	-0.2798051
-2.754091	E0 F0	-0.1284932
-1.80037	E0 G	-0.1816179
-3.005673	E0 GH
-2.11044	E0 I
-3.005673	E0 I0
-1.419558	E0 J0	-0.2059652
-1.621307	E0 K	-0.2248485
-2.754091	E0 K0	-0.2356483
-1.748225	E0 KH	-0.2656385
-1.58609	E0 L	-0.502151
-1.553515	E0 L0	-0.6089182
-3.005673	E0 L0l
-3.005673	E0 Ll	-0.1857871
-1.553515	E0 M	-0.02935234
-1.928301	E0 M0	-0.3309966
-2.241511	E0 M0l	0.02017261
-1.859642	E0 Ml	-0.2354943
-1.419558	E0 N	-0.2701907
-1.443246	E0 N0	-0.6781171
-2.11044	E0 N0l	-0.4954415
-1.80037	E0 Nl	-0.2254204
-2.241511	E0 O0	-0.3964654
-1.859642	E0 P	-0.2247304
-2.241511	E0 P0	0.008260339
-3.005673	E0 P0l
-3.005673	E0 Pl
-1.419558	E0 R	-0.3028191
-1.58609	E0 R0	-0.2063133
-3.005673	E0 R0l
-3.005673	E0 Rl
-1.58609	E0 S	-0.7288131
-1.701675	E0 S0	-0.4229815
-2.241511	E0 S0l	0.002816722
-1.80037	E0 SH	-0.3868879
-2.11044	E0 SH0	-0.3139097
-2.241511	E0 Sl	-0.06368949
-1.140255	E0 T	-0.5795068
-1.375738	E0 T0	-0.3219689
-2.754091	E0 T0l	0.0496639
-1.859642	E0 TS	-0.1183781
-1.859642	E0 TSH0	-0.446335
-2.430133	E0 Tl	0.04181907
-2.11044	E0 U	-0.02766973
-3.005673	E0 U0
-1.701675	E0 V	-0.1681041
-2.11044	E0 V0	0.04165131
-1.928301	E0 Z	-0.3709916
-1.80037	E0 Z0	-0.1478362
-1.80037	E0 ZH	-0.4990958
-3.005673	E0 ZH0
-0.1489657	E0l T	-0.6933388
-1.735242	F </s>
-1.653652	F <sil>	-0.241311
-1.346658	F A	-0.1880601
-1.83579	F A0	-0.06597631
-2.155484	F E0
-2.155484	F J0	-0.2063355
-1.193651	F K	-0.476599
-2.155484	F K0	-0.1387383
-1.584993	F KH	-0.2303723
-2.731023	F KH0
-2.155484	F L	-0.2007161
-2.479441	F L0
-1.966861	F M	-0.09275103
-2.479441	F M0	-0.03445956
-1.966861	F N	-0.3319276
-2.479441	F N0	-0.1871249
-1.31144	F O0	-0.4107794
-1.144909	F P	-0.5091689
-1.653652	F P0	-0.3552325
-1.584993	F R	-0.3285673
-2.479441	F R0	-0.05860337
-1.080732	F S	-0.3214905
-1.042676	F S0	-1.022922
-1.384985	F SH	-0.8494419
-2.731023	F SH0	-0.09653516
-1.220241	F T	-0.4788374
-1.427025	F T0	-0.2713958
-1.653652	F TS	-0.2203217
-1.584993	F TSH0	-0.1156
-2.155484	F U	-0.1666705
-2.155484	F U0	-0.1695274
-1.653652	F V	-0.1142643
-2.479441	F V0
-1.735242	F Y	-0.04519466
-2.155484	F Y0
-1.957113	F0 <sil>
-1.957113	F0 A
-2.208694	F0 A0
-1.003392	F0 E0	-0.2817015
-0.5584036	F0 I	-0.1014057
-1.313462	F0 I0	-0.06598508
-2.208694	F0 Il
-1.957113	F0 J0
-2.208694	F0 K
-2.208694	F0 K0
-2.208694	F0 L
-2.208694	F0 L0
-2.208694	F0 M
-1.957113	F0 M0
-2.208694	F0 N
-2.208694	F0 N0
-1.444533	F0 O0	-0.1677536
-2.208694	F0 P
-2.208694	F0 P0
-2.208694	F0 R
-2.208694	F0 R0
-2.208694	F0 S
-1.957113	F0 S0
-2.208694	F0 SH
-1.957113	F0 T	-0.2393786
-1.957113	F0 T0	-0.2095842
-2.208694	F0 TSH0	-0.2507198
-1.957113	F0 U
-1.633155	F0 U0
-2.208694	F0 V
-2.208694	F0 V0
-2.208694	F0 V0l
-0.6120974	F0l I
-0.6120974	F0l I0
-0.7584558	Fl P	-0.2183398
-1.010037	Fl R
-1.010037	Fl S0
-1.010037	Fl SH
-0.879636	G A	-0.3231276
-1.557979	G A0	-0.2480012
-2.383768	G Al	-0.1356532
-1.871188	G B	-0.3039362
-2.383768	G B0	-0.08248489
-1.489319	G D	-0.8727268
-1.124567	G D0	-0.844217
-2.05981	G E0	-0.1070711
-1.097978	G L	-0.7576795
-1.215767	G L0	-0.6757341
-2.63535	G M
-2.63535	G M0
-1.740117	G N	-0.1806291
-1.557979	G N0	-0.05446176
-1.049235	G O0	-0.4294828
-1.072923	G R	-0.6168307
-1.331352	G R0	-0.3825241
-1.183192	G U	-0.3010297
-1.331352	G U0	-0.3396515
-2.383768	G V	-0.1312052
-2.63535	G V0
-2.383768	G Y0	-0.2488162
-1.557979	G Z	-0.1386675
-1.871188	G Z0	0.02481128
-2.63535	G ZH	-0.4812307
-0.9487545	G0 E0	-0.09210868
-0.2561889	G0 I	-0.135906
-0.7985054	G0 I0	-0.1636044
-1.944536	G0 J0
-1.944536	G0 U
-1.692954	G0 U0	-0.2527313
-0.7881887	G0l E0
-0.536607	G0l I
-0.7388461	GH B	-0.1070072
-1.564636	GH B0
-0.9209844	GH D	-0.1010559
-1.240678	GH D0	-0.07540877
-0.8204361	GH G	-0.04191449
-1.816217	GH G0
-0.9209844	GH Z	-0.1176839
-1.816217	GH Z0
-1.564636	GH ZH
-0.837637	Gl A	-0.1492336
-1.089219	Gl L
-1.089219	Gl O0	-0.2605375
-1.089219	Gl U
-1.089219	Gl U0
-1.710536	I </s>
-1.603227	I <sil>	0.03401804
-1.790504	I A	-0.3443953
-2.195591	I A0	-0.312425
-3.272963	I A0l
-1.735591	I B	-0.1729025
-1.888597	I B0	-0.4690416
-1.664386	I D	-0.1966105
-1.686848	I D0	-0.5477396
-3.272963	I D0l
-3.021381	I DZ
-3.272963	I DZH
-3.272963	I DZH0
-2.37773	I Dl	0.02287409
-2.195591	I E0	-0.4843175
-1.710536	I F	0.008514464
-2.508801	I F0	0.04478841
-1.549628	I G	-0.2244433
-2.37773	I G0	0.2623569
-3.272963	I G0l
-2.508801	I GH	-0.0139042
-3.021381	I Gl
-1.566769	I J0	-0.4354908
-3.272963	I J0l
-1.549628	I K	-0.2883192
-1.888597	I K0	0.1358886
-1.926925	I KH	-0.004319608
-3.021381	I KH0	-0.09860274
-3.272963	I KHl
-3.272963	I Kl
-1.664386	I L	-0.2687109
-1.501922	I L0	-0.2835133
-2.697423	I L0l	-0.08799297
-3.272963	I Ll	-0.2243605
-1.584616	I M	-0.3321401
-1.664386	I M0	-0.351895
-3.272963	I M0l
-3.021381	I Ml	-0.1100821
-1.487118	I N	-0.2941164
-1.603227	I N0	-0.3710203
-2.37773	I N0l	-0.4082913
-1.926925	I Nl	-0.6154083
-1.790504	I O0	-0.4755194
-1.566769	I P	-0.5192357
-1.820805	I P0	-0.5238354
-3.021381	I Pl	0.009245992
-1.549628	I R	-0.2067664
-1.735591	I R0	-0.7822516
-3.021381	I Rl
-1.501922	I S	-0.1597398
-1.664386	I S0	-0.2524991
-2.508801	I S0l	-0.07212429
-1.686848	I SH	-0.08957368
-1.820805	I SH0	-0.362776
-3.272963	I SH0l
-3.021381	I SHl	-0.05299718
-2.277182	I Sl	-0.05555846
-1.566769	I T	0.08932102
-1.686848	I T0	-0.2731811
-2.126932	I T0l	0.199469
-1.686848	I TS	-0.3828634
-1.76218	I TSH0	-0.2217916
-3.272963	I TSH0l	-0.1473731
-2.697423	I Tl	-0.00396733
-1.85338	I U	-0.05837452
-2.126932	I U0	-0.270746
-1.533137	I V	-0.5312596
-1.76218	I V0	-0.2630956
-3.272963	I V0l	-0.08036204
-3.272963	I Vl
-2.277182	I Y	-0.08120649
-1.603227	I Z	-0.1402037
-1.888597	I Z0	-0.0956929
-3.272963	I Z0l
-1.820805	I ZH	-0.4111039
-3.021381	I ZH0
-2.067661	I Zl	-0.341749
-1.594781	I0 </s>
-1.693476	I0 <sil>	-0.01564747
-2.134617	I0 A	-0.1815277
-2.898778	I0 A0
-1.821407	I0 B	-0.08133796
-2.647197	I0 B0
-2.898778	I0 Bl
-1.641331	I0 D	-0.3176531
-1.821407	I0 D0	-0.706997
-2.898778	I0 D0l
-2.898778	I0 DZH0
-2.647197	I0 Dl
-2.647197	I0 E0	-0.22715
-1.641331	I0 F	-0.3453532
-2.898778	I0 F0
-2.647197	I0 Fl	-0.2243605
-1.902997	I0 G	-0.2247867
-2.647197	I0 G0	-0.1305988
-2.003546	I0 GH	0.03094387
-1.752748	I0 J0	-0.4532344
-1.752748	I0 K	-0.2026731
-2.647197	I0 K0	-0.2356483
-1.514413	I0 KH	-0.192403
-2.323239	I0 KH0	-0.1486433
-2.898778	I0 Kl
-1.479195	I0 L	-0.2753403
-1.41632	I0 L0	-0.6342376
-2.647197	I0 L0l
-2.647197	I0 Ll
-1.361407	I0 M	-0.1746474
-1.693476	I0 M0	-0.4536921
-2.898778	I0 M0l
-2.898778	I0 Ml
-1.387996	I0 N	-0.3511337
-1.514413	I0 N0	-0.5928104
-2.647197	I0 N0l	0.0596028
-2.134617	I0 Nl	-0.1852329
-2.323239	I0 O0	-0.1534273
-1.641331	I0 P	-0.1246955
-2.647197	I0 P0
-2.898778	I0 P0l
-1.821407	I0 R	-0.3689637
-2.323239	I0 R0	-0.2538138
-1.514413	I0 S	-0.3669111
-1.902997	I0 S0	-0.07251326
-1.693476	I0 SH	-0.2861055
-1.902997	I0 SH0	-0.1131462
-2.898778	I0 Sl
-1.479195	I0 T	-0.04545137
-1.446621	I0 T0	-0.322226
-2.647197	I0 T0l
-1.55274	I0 TS	-0.4078063
-1.514413	I0 TSH0	-0.5943302
-2.898778	I0 TSl
-2.898778	I0 Tl
-2.134617	I0 U
-2.003546	I0 U0	-0.07198513
-1.594781	I0 V	-0.317295
-2.323239	I0 V0	-0.1453643
-2.898778	I0 Y
-1.55274	I0 Z	-0.1424851
-1.902997	I0 Z0	-0.0445386
-1.902997	I0 ZH	-0.3185555
-2.898778	I0 ZHl
-2.898778	I0 Zl
-1.35246	I0l DZ
-1.35246	I0l GH
-0.5882984	I0l KH
-1.35246	I0l L0
-1.35246	I0l M
-1.35246	I0l M0
-1.100878	I0l S
-1.345253	Il </s>
-1.094456	Il <sil>	-0.03174429
-1.664947	Il A
-2.240486	Il B	-0.2247415
-2.240486	Il D
-1.664947	Il D0
-2.240486	Il E0
-2.240486	Il F
-2.240486	Il G
-1.988905	Il J0
-1.476325	Il K	-0.11509
-2.240486	Il L
-1.244705	Il L0	-0.4168348
-2.240486	Il M
-1.988905	Il M0	-0.1817843
-1.163115	Il N	-0.1394142
-1.664947	Il N0
-1.476325	Il P	-0.2265628
-1.163115	Il S	-0.1049085
-1.988905	Il S0
-2.240486	Il SH
-2.240486	Il Sl
-1.988905	Il T
-2.240486	Il T0	-0.1190398
-2.240486	Il T0l
-2.240486	Il TS
-2.240486	Il U
-2.240486	Il U0
-1.476325	Il V	-0.1079838
-1.345253	Il Z	-0.1516023
-1.988905	Il Z0	-0.07692258
-1.988905	Il Zl	-0.02686186
-1.952393	J0 </s>
-1.770254	J0 <sil>	-0.04435924
-1.501588	J0 A	-0.09313363
-1.047465	J0 A0	-0.200096
-1.770254	J0 Al	-0.05941184
-1.952393	J0 B	-0.1396554
-2.596044	J0 B0	0.03298441
-1.701595	J0 D	-0.1408736
-1.952393	J0 D0	-0.202398
-2.847626	J0 DZH
-1.076585	J0 E0	-0.6157842
-1.851845	J0 F	-0.1015526
-2.847626	J0 F0
-1.851845	J0 G	-0.1340376
-2.847626	J0 G0
-0.9362551	J0 I	-0.3341789
-2.847626	J0 I0
-2.272086	J0 I0l
-2.083464	J0 Il	-0.07972164
-1.952393	J0 K	-0.2987134
-2.272086	J0 K0	-0.1090101
-1.952393	J0 KH	-0.05266023
-2.847626	J0 KH0
-1.851845	J0 L	-0.1085126
-1.851845	J0 L0	-0.2587295
-1.952393	J0 M	-0.180163
-2.083464	J0 M0	-0.2617995
-1.770254	J0 N	-0.4480518
-1.770254	J0 N0	-0.5795946
-1.590178	J0 O0	-0.1366172
-2.847626	J0 O0l
-1.851845	J0 P	-0.2425427
-2.272086	J0 P0	-0.3222519
-1.851845	J0 R	-0.4621623
-2.596044	J0 R0	-0.05860337
-1.770254	J0 S	-0.2184588
-1.952393	J0 S0	-0.5280529
-2.847626	J0 S0l
-1.851845	J0 SH	-0.3407409
-2.596044	J0 SH0	-0.04961221
-1.851845	J0 T	-0.2816236
-1.770254	J0 T0	-0.474027
-2.083464	J0 TS	-0.1661622
-2.083464	J0 TSH0	-0.384648
-1.310254	J0 U	-0.146204
-1.590178	J0 U0	-0.1226809
-2.847626	J0 U0l	-0.1473731
-2.847626	J0 Ul
-2.083464	J0 V	-0.09146421
-2.083464	J0 V0	-0.3477172
-2.272086	J0 Y
-2.083464	J0 Z	-0.2352122
-2.847626	J0 Z0
-2.596044	J0 ZH	-0.1093288
-0.9625757	J0l A0	-0.1501296
-1.214157	J0l E0
-0.3189245	J0l I	-0.1370755
-1.627651	K </s>
-1.627651	K <sil>	0.02645129
-1.019681	K A	-0.4745862
-1.145272	K A0	-0.3295386
-1.889317	K Al	-0.0405304
-1.989866	K E0	-0.52818
-1.739068	K F	-0.02658145
-2.633517	K F0
-1.989866	K J0	-0.303368
-2.309559	K KH
-2.885099	K KH0
-1.581101	K L	-0.4766904
-1.465516	K L0	-0.1922933
-1.989866	K M	-0.1020841
-2.885099	K M0	-0.1436867
-1.465516	K N	-0.5348996
-1.374316	K N0	-0.587419
-1.234808	K O0	-0.4481594
-1.739068	K P	-0.3466308
-2.633517	K P0
-1.255164	K R	-0.8121251
-1.432941	K R0	-0.6121685
-1.539061	K S	-0.1001447
-1.539061	K S0	-0.3529713
-2.120937	K SH	-0.3600157
-2.885099	K SH0	-0.2307771
-1.40264	K T	-0.5674748
-1.989866	K T0	-0.7617728
-2.633517	K TS
-2.309559	K TSH0	-0.03383671
-1.161763	K U	-0.1774051
-1.374316	K U0	-0.1939232
-1.500733	K V	-0.5620511
-1.679796	K V0	0.04936111
-1.989866	K Y	-0.06327634
-2.633517	K Y0	-0.1621873
-1.072545	K0 E0	-0.1658805
-0.3640716	K0 I	-0.4793336
-0.5638019	K0 I0	-0.3674711
-1.072545	K0 Il
-2.149917	K0 J0
-2.149917	K0 U
-1.898335	K0 U0
-0.6120974	K0l E0
-0.6120974	K0l I
-1.487782	KH </s>
-1.547054	KH <sil>	-0.0723474
-0.9220439	KH A	-0.4153821
-1.347046	KH A0	-0.1213814
-2.693084	KH Al
-1.797852	KH F	-0.06005155
-2.693084	KH F0
-1.797852	KH J0	-0.1759367
-1.487782	KH K	-0.2713
-2.117545	KH K0	-0.4397684
-1.697303	KH L	-0.3363577
-1.797852	KH L0	-0.1279571
-1.435637	KH M	-0.2784536
-2.117545	KH M0	-0.09059705
-1.389087	KH N	-0.3409515
-1.547054	KH N0	-0.4467731
-1.210626	KH O0	-0.3412232
-1.435637	KH P	-0.4474962
-2.441503	KH P0	-0.05824013
-1.435637	KH R	-0.3155392
-1.928923	KH R0	-0.2538138
-1.487782	KH S	-0.08247446
-2.117545	KH S0	-0.368939
-2.693084	KH S0l
-1.697303	KH SH	-0.1184355
-2.693084	KH SH0
-1.487782	KH T	-0.07957441
-2.441503	KH T0	-0.2282669
-2.441503	KH TS	-0.07471631
-2.117545	KH TSH0	-0.2748542
-1.347046	KH U	-0.2020391
-1.797852	KH U0	-0.1811296
-1.487782	KH V	-0.1799162
-2.693084	KH V0
-1.547054	KH Y	-0.07997288
-2.441503	KH Y0
-1.578	KH0 E0
-0.3774238	KH0 I	-0.1860153
-0.5255835	KH0 I0	-0.1646357
-1.578	KH0 Il
-1.829581	KH0 J0
-1.578	KH0 U0	-0.2680086
-0.3110675	KH0l I0
-0.6615457	KHl A
-0.9131275	KHl L0
-0.9131275	KHl U0
-0.5919257	Kl A	-0.2516406
-0.722997	Kl A0	-0.4467731
-1.487159	Kl N0
-0.9116193	Kl R	-0.1195266
-1.487159	Kl T
-1.487159	Kl U0
-1.505359	L </s>
-1.705366	L <sil>	-0.1032818
-1.128062	L A	-0.3025596
-1.24282	L A0	-0.07968685
-1.705366	L Al	-0.3191746
-1.956164	L B	-0.2420884
-2.851397	L B0
-1.705366	L D	-0.3248503
-2.599815	L D0
-2.275857	L E0	-0.1462693
-1.593949	L F	-0.1255815
-2.599815	L F0	-0.2236347
-1.774026	L G	-0.3032138
-2.851397	L G0
-2.851397	L G0l
-1.705366	L J0	-0.7135425
-1.646095	L K	-0.241757
-1.956164	L K0	-0.0118472
-2.599815	L KH
-2.851397	L KH0
-2.851397	L Kl
-1.855616	L M	-0.230441
-2.087235	L M0	-0.09059705
-1.593949	L N	-0.7188472
-1.855616	L N0	-0.5104911
-1.111571	L O0	-0.2032028
-1.646095	L P	-0.3732204
-2.599815	L P0
-2.087235	L R	-0.1951122
-2.599815	L R0
-1.593949	L S	-0.242571
-1.646095	L S0	-1.102333
-2.851397	L S0l
-1.774026	L SH	-0.424646
-2.599815	L SH0	-0.2256473
-2.851397	L Sl
-1.646095	L T	-0.2543986
-2.851397	L T0
-2.599815	L TS
-1.956164	L TSH0	-0.1199723
-1.340614	L U	-0.3091758
-1.340614	L U0	-0.2636741
-1.646095	L V	-0.07698846
-2.851397	L V0
-2.851397	L V0l	-0.01730821
-2.851397	L Vl
-1.368938	L Y	-0.1963077
-1.547399	L Y0	-0.2874727
-1.774026	L Z	-0.2182444
-2.599815	L Z0	-0.03571593
-1.956164	L ZH	-0.2855269
-2.158774	L0 </s>
-1.588283	L0 <sil>	-0.04591825
-1.738532	L0 A	-0.1373756
-1.430315	L0 A0	-0.1959956
-1.970152	L0 B	-0.07417864
-2.734313	L0 B0
-2.482732	L0 D	-0.1518173
-2.734313	L0 D0
-2.734313	L0 Dl
-1.02812	L0 E0	-0.3118261
-2.734313	L0 E0l	0.2772642
-2.734313	L0 F
-2.734313	L0 F0
-2.734313	L0 G	-0.2568302
-2.734313	L0 G0
-0.8688956	L0 I	-0.1927522
-1.045966	L0 I0	-0.1373537
-2.482732	L0 I0l	-0.1393923
-1.476866	L0 Il	-0.1705001
-1.83908	L0 J0	-0.1707318
-2.158774	L0 K	-0.9624661
-2.158774	L0 K0	0.06708112
-2.482732	L0 KH
-2.734313	L0 KH0
-1.970152	L0 M
-2.734313	L0 M0	-0.1436867
-1.588283	L0 N	-0.8742718
-1.970152	L0 N0	-0.5358688
-1.31473	L0 O0	-0.3216546
-2.158774	L0 P	-0.0860689
-2.734313	L0 P0
-2.734313	L0 R
-2.734313	L0 R0
-1.656942	L0 S	-0.3956265
-2.158774	L0 S0
-1.970152	L0 SH	-0.5059382
-2.734313	L0 SH0
-2.734313	L0 Sl
-2.158774	L0 T	-0.04184555
-2.158774	L0 T0	-0.334523
-1.970152	L0 TS	-0.3376147
-2.734313	L0 TSH0	-0.7471455
-1.148199	L0 U	-0.5109625
-1.282156	L0 U0	-0.157099
-2.158774	L0 V	-0.06116617
-2.482732	L0 V0	-0.1436322
-2.482732	L0 Z	-0.0828879
-2.482732	L0 Z0	-0.5652819
-2.734313	L0 ZH
-1.487159	L0l <sil>
-1.235577	L0l E0	-0.07727011
-0.4913774	L0l I
-0.722997	L0l I0	-0.07519007
-1.487159	L0l U
-1.487159	L0l U0
-0.7584558	Ll A
-1.010037	Ll A0
-1.010037	Ll O0	-0.1539701
-1.010037	Ll U	-0.263775
-1.577613	M </s>
-1.577613	M <sil>	-0.1261707
-1.016193	M A	-0.155149
-1.273033	M A0	-0.2782696
-1.986377	M Al	-0.08516207
-1.885829	M B	0.07694122
-2.306071	M B0	-0.2951065
-1.804239	M D	-0.1305057
-2.306071	M D0	-0.04543902
-1.885829	M E0	-0.06045435
-1.804239	M F	-0.1443499
-2.88161	M F0	-0.1284932
-1.804239	M G	-0.04852059
-2.88161	M G0
-1.885829	M J0	-0.3459474
-1.73558	M K	-0.3244222
-2.88161	M K0	-0.02302675
-2.117449	M KH	-0.0654684
-2.88161	M KH0
-2.117449	M L	-0.1880356
-1.986377	M L0	-0.3544813
-1.399152	M N	-0.7406471
-1.370828	M N0	-0.9849031
-1.141784	M O0	-0.4090512
-1.676308	M P	-0.2305643
-2.306071	M P0	-0.1181319
-1.73558	M R	-0.2544906
-2.88161	M R0	-0.2077613
-1.73558	M S	-0.09979047
-1.885829	M S0	-0.1206564
-1.885829	M SH	-0.07359334
-2.630029	M SH0
-1.885829	M T	-0.2839024
-1.885829	M T0	-0.07438876
-2.630029	M TS	-0.3005965
-1.885829	M TSH0	-0.2041994
-1.577613	M U	-0.1329509
-1.344239	M U0	0.05586162
-2.88161	M U0l
-2.88161	M Ul
-1.804239	M V	-0.01704295
-1.804239	M V0	0.06174219
-1.429453	M Y	-0.05715936
-1.273033	M Y0	-0.1499
-1.986377	M Z	-0.4261464
-2.306071	M Z0	-0.03571593
-2.117449	M ZH	-0.2674482
-2.428339	M0 </s>
-2.428339	M0 <sil>
-1.664177	M0 A	-0.1744842
-1.350967	M0 A0	-0.224173
-2.428339	M0 Al
-2.428339	M0 B0
-2.428339	M0 D
-2.428339	M0 D0	-0.2812282
-0.7399917	M0 E0	-0.3625858
-2.428339	M0 F	-0.2659703
-2.428339	M0 G
-0.6008875	M0 I	-0.2226508
-0.8659121	M0 I0	-0.2406169
-2.428339	M0 I0l
-1.533106	M0 Il	-0.05197614
-2.176757	M0 J0	-0.1254417
-2.428339	M0 K
-2.428339	M0 K0
-2.428339	M0 KH
-2.176757	M0 L0	-0.2262744
-2.428339	M0 N
-2.428339	M0 N0
-1.533106	M0 O0	-0.09714091
-2.428339	M0 P
-2.428339	M0 P0
-2.428339	M0 R
-2.428339	M0 S
-2.428339	M0 SH
-2.428339	M0 T
-2.428339	M0 T0
-2.428339	M0 TSH0	-0.1921012
-2.428339	M0 U	-0.2496672
-2.428339	M0 U0
-2.428339	M0 V
-2.428339	M0 V0
-2.428339	M0 Z
-2.428339	M0 ZH
-0.7584558	M0l E0	-0.1510709
-0.434498	M0l I	-0.0743002
-0.545735	Ml A	-0.1400459
-0.965977	Ml A0	-0.2349925
-0.965977	Ml O0	-0.1493049
-1.289935	Ml U
-1.541516	Ml U0
-1.541516	Ml Y
-1.541516	Ml Y0
-1.775275	N </s>
-1.775275	N <sil>	-0.02276206
-0.9412759	N A	-0.402595
-1.129311	N A0	-0.2051448
-1.370188	N Al	0.03601836
-2.088485	N B	-0.3432879
-2.852647	N B0
-1.775275	N D	-0.06159195
-2.601065	N D0	-0.1087185
-2.852647	N DZH
-2.088485	N E0	-0.1002888
-1.856865	N F	-0.1742236
-2.852647	N F0
-2.088485	N G	-0.05272271
-2.601065	N G0	0.09124997
-2.088485	N J0	-0.2210087
-1.856865	N K	-0.3877926
-2.088485	N K0	-0.4397684
-2.852647	N K0l
-2.852647	N KH	-0.03333227
-2.601065	N KH0
-2.852647	N L
-2.277107	N L0
-2.277107	N M	-0.2432984
-2.852647	N M0
-1.129311	N O0	-0.2246876
-2.601065	N O0l	-0.2247583
-1.706616	N P	-0.5920641
-2.277107	N P0	-0.02122188
-2.277107	N R	-0.1386459
-1.957414	N R0	-0.140873
-1.647344	N S	-0.2645346
-2.277107	N S0	-0.173748
-2.277107	N SH	-0.05343025
-2.852647	N SH0
-1.647344	N T	-0.2143404
-2.852647	N T0
-1.775275	N TS	-0.2123817
-2.852647	N TSH0	-0.03708774
-1.202356	N U	-0.3730165
-1.222712	N U0	-0.4656621
-2.601065	N Ul
-1.856865	N V	-0.2174275
-1.957414	N V0	0.1226943
-1.1643	N Y	-0.4711464
-1.29022	N Y0	-0.1901054
-2.601065	N Z	-0.3648609
-2.601065	N Z0	-0.04395899
-2.088485	N ZH	-0.4435394
-1.901014	N0 </s>
-2.089637	N0 <sil>
-1.669394	N0 A	-0.06377253
-1.407728	N0 A0	-0.1354894
-2.665176	N0 A0l
-2.665176	N0 Al
-2.413594	N0 B
-2.413594	N0 B0
-2.665176	N0 D
-1.769943	N0 D0	-0.0374473
-0.8793309	N0 E0	-0.2304941
-2.665176	N0 E0l
-2.413594	N0 F
-2.665176	N0 F0
-2.413594	N0 G	-0.3460643
-2.665176	N0 G0	-0.1305988
-0.7648456	N0 I	-0.412278
-1.127804	N0 I0	-0.1058916
-2.413594	N0 I0l
-1.213018	N0 Il	-0.1517898
-1.769943	N0 J0	-0.3788263
-1.901014	N0 K	-0.4733325
-2.413594	N0 K0	-0.3678771
-2.665176	N0 KH	-0.329378
-2.665176	N0 KH0
-2.665176	N0 L
-2.665176	N0 L0
-2.413594	N0 M
-2.665176	N0 M0
-1.407728	N0 O0	-0.189933
-2.413594	N0 P
-2.665176	N0 P0
-2.665176	N0 R	-0.2287537
-2.413594	N0 R0
-2.665176	N0 S
-2.413594	N0 S0	-0.1635483
-2.413594	N0 SH	-0.3303385
-2.089637	N0 SH0	-0.8485821
-2.089637	N0 T	-0.1301515
-1.769943	N0 T0	-0.4952555
-2.665176	N0 TS
-1.669394	N0 TSH0	-0.5541369
-1.319138	N0 U	-0.3233932
-2.089637	N0 U0	-0.1805438
-2.413594	N0 V
-2.665176	N0 V0
-2.665176	N0 Z
-2.665176	N0 Z0
-2.665176	N0 ZH
-0.7769207	N0l E0	-0.1061787
-0.2750888	N0l I	-0.2355437
-1.35246	N0l I0
-0.5160177	Nl A	-0.2548456
-1.773466	Nl A0
-1.521884	Nl Al
-1.773466	Nl O0	-0.17586
-1.773466	Nl O0l
-1.773466	Nl R
-1.009304	Nl U	-0.4200167
-1.773466	Nl V
-0.6274349	Nl Y	-0.9219245
-0.3110675	O KH
-1.713653	O0 </s>
-1.74887	O0 <sil>	-0.0530024
-2.055864	O0 A	-0.1557289
-3.133235	O0 A0
-1.713653	O0 B	-0.3470864
-2.055864	O0 B0	-0.8748901
-3.133235	O0 B0l
-1.595864	O0 D	-0.2526556
-1.927933	O0 D0	-0.455405
-2.881654	O0 D0l	-0.03016524
-2.881654	O0 DZH0	-0.0897631
-2.557696	O0 Dl	-0.1721248
-2.557696	O0 E0	-0.585602
-1.622453	O0 F	-0.1872198
-2.238003	O0 F0	0.009090677
-1.787197	O0 G	-0.283259
-2.557696	O0 G0	-0.8295687
-3.133235	O0 GH
-1.987205	O0 I	-0.1190663
-2.881654	O0 I0
-1.547121	O0 J0	-0.2503148
-2.369074	O0 J0l	-0.06388139
-1.427042	O0 K	-0.03021958
-2.055864	O0 K0	-0.8377084
-1.829238	O0 KH	-0.1543201
-3.133235	O0 KH0
-1.524658	O0 L	-0.3792751
-1.713653	O0 L0	-0.5411344
-1.482945	O0 M	-0.2499142
-1.927933	O0 M0	-0.4773053
-3.133235	O0 M0l	-0.1857871
-2.881654	O0 Ml
-1.244234	O0 N	-0.08790392
-1.829238	O0 N0	-0.7294711
-1.829238	O0 N0l	-0.4786783
-1.547121	O0 Nl	-0.5396301
-1.524658	O0 P	-0.3630153
-2.369074	O0 P0	-0.2642599
-1.377522	O0 R	-0.5146471
-2.055864	O0 R0	-0.3535917
-1.427042	O0 S	-0.1887555
-1.875788	O0 S0	-0.1988693
-2.557696	O0 S0l	-0.07794177
-1.713653	O0 SH	-0.1570684
-2.137454	O0 SH0	-0.3685516
-2.881654	O0 Sl	-0.1269591
-1.393409	O0 T	-0.1209518
-1.713653	O0 T0	-0.3707121
-2.557696	O0 T0l	0.05889106
-1.927933	O0 TS	-0.4761238
-1.503301	O0 TSH0	-0.6194597
-3.133235	O0 TSH0l
-2.238003	O0 Tl	0.09659325
-1.829238	O0 U	-0.03722679
-2.881654	O0 U0
-1.595864	O0 V	-0.4191347
-1.787197	O0 V0	-0.1554674
-3.133235	O0 Vl
-2.369074	O0 Y
-1.595864	O0 Z	-0.3887674
-1.987205	O0 Z0	0.056012
-2.881654	O0 Z0l
-1.622453	O0 ZH	-0.8464211
-3.133235	O0 ZH0
-3.133235	O0 ZHl
-2.557696	O0 Zl	0.1341847
-1.26531	O0l G
-0.6897705	O0l N	-0.06033926
-1.013728	O0l N0l	-0.2322
-1.26531	O0l Nl
-1.26531	O0l P
-1.26531	O0l TSH0
-2.758225	P </s>
-1.680854	P <sil>	-0.05412335
-0.9580643	P A	-0.4002512
-1.220854	P A0	-0.3012128
-2.758225	P A0l
-1.862993	P Al	-0.06458949
-2.758225	P F
-2.182686	P F0	-0.2304369
-2.758225	P J0
-1.994064	P K	-0.5796906
-1.680854	P K0	-0.4769869
-2.182686	P KH	-0.1235585
-1.275767	P L	-0.6433231
-1.412187	P L0	-0.4637653
-2.758225	P M	-0.2250219
-2.758225	P M0
-1.862993	P N	-0.05795148
-2.506644	P N0
-1.08849	P O0	-0.3804841
-1.018399	P R	-1.278118
-0.9580643	P R0	-1.339197
-2.182686	P S	-0.3279169
-2.182686	P S0
-1.862993	P SH	-0.05636233
-1.994064	P SH0	-0.4390269
-2.182686	P T	-0.08001088
-2.182686	P T0	-0.1920195
-2.182686	P TS	-0.1681103
-1.994064	P TSH0	-0.09643463
-1.338643	P U	-0.6181357
-1.454228	P U0	-0.1263815
-1.994064	P V
-2.758225	P V0
-1.412187	P Y	-0.1943983
-1.762444	P Y0	-0.1654033
-1.726754	P0 <sil>
-1.096991	P0 A0	-0.4777332
-0.7915111	P0 E0	-0.6895767
-2.302294	P0 F
-0.5164486	P0 I	-0.5011809
-1.044846	P0 I0	-0.3076545
-1.726754	P0 J0	-0.1189997
-2.050712	P0 K
-2.302294	P0 K0
-2.302294	P0 KH
-2.302294	P0 L0
-2.302294	P0 M
-2.302294	P0 M0
-2.302294	P0 N
-2.302294	P0 N0
-1.726754	P0 O0	-0.0954027
-2.302294	P0 R
-2.302294	P0 R0
-2.050712	P0 S
-2.050712	P0 S0
-2.050712	P0 T
-2.302294	P0 T0
-2.302294	P0 U	-0.2575614
-2.302294	P0 U0
-2.302294	P0 V
-0.1489657	P0l I
-0.3250569	Pl A	-0.5535193
-1.089219	Pl S
-1.089219	Pl Y
-1.761326	R </s>
-1.692667	R <sil>	-0.01666742
-0.9613276	R A	-0.3647589
-1.052852	R A0	-0.3249637
-2.263158	R Al	-0.08986677
-2.838697	R B	-0.4401143
-2.587116	R B0	0.02674222
-2.263158	R D	-0.1679172
-1.943464	R D0	-0.2017541
-2.838697	R DZ
-2.838697	R DZH
-2.838697	R Dl
-2.587116	R E0
-1.943464	R F	-0.06452273
-2.263158	R F0
-1.842916	R G	-0.3720076
-1.943464	R G0	0.207698
-2.587116	R J0	-0.2155627
-1.692667	R K	-0.2541003
-1.842916	R K0	-0.5069501
-2.074536	R KH	-0.1695308
-2.263158	R KH0	0.05717619
-2.838697	R L	-0.4560712
-2.263158	R L0	-0.002191514
-1.943464	R M	-0.2615179
-2.074536	R M0	-0.2593983
-1.633395	R N	-0.5896253
-1.943464	R N0	-0.1745054
-1.208763	R O0	-0.2226932
-1.943464	R P	-0.05173112
-2.587116	R P0	-0.3198435
-1.692667	R S	-0.1703784
-1.842916	R S0	-0.5272304
-1.842916	R SH	-0.2760432
-2.263158	R SH0	-0.07300141
-1.692667	R T	-0.1435868
-1.842916	R T0	-0.5179029
-2.074536	R TS	-0.2988992
-2.074536	R TSH0	-0.04417802
-1.168962	R U	-0.2462581
-1.15035	R U0	-0.3195998
-1.842916	R V	-0.4253618
-2.587116	R V0
-1.38654	R Y	-0.2769117
-1.492659	R Y0	-0.2311643
-2.263158	R Z	-0.1635827
-2.838697	R Z0	-0.1398836
-2.263158	R ZH	-0.1947811
-2.509725	R0 </s>
-1.745563	R0 <sil>
-1.745563	R0 A	-0.08088057
-1.090142	R0 A0	-0.2488266
-2.509725	R0 B	-0.2179788
-2.509725	R0 B0
-2.509725	R0 D
-2.509725	R0 D0	-0.1814323
-0.9472979	R0 E0	-0.3494825
-2.509725	R0 F	-0.2313691
-2.509725	R0 F0
-2.509725	R0 G
-2.509725	R0 G0
-0.6822733	R0 I	-0.2320598
-0.9472979	R0 I0	-0.1467414
-1.745563	R0 Il	-0.131017
-1.513943	R0 J0	-0.1616173
-2.509725	R0 K	-0.2253921
-2.509725	R0 K0
-2.509725	R0 KH
-2.509725	R0 KH0
-2.509725	R0 L
-2.509725	R0 L0	-0.1583584
-2.258143	R0 M
-2.509725	R0 M0
-2.258143	R0 N	-0.2069889
-2.509725	R0 N0
-2.509725	R0 O
-1.252277	R0 O0	-0.1873759
-2.509725	R0 P	-0.2183398
-2.509725	R0 P0
-2.258143	R0 S	-0.1532806
-2.509725	R0 S0
-2.509725	R0 SH
-2.509725	R0 T
-2.509725	R0 T0
-2.509725	R0 TS
-2.509725	R0 TSH0
-2.258143	R0 U
-1.745563	R0 U0
-2.258143	R0 V
-2.509725	R0 V0	-0.1385622
-2.509725	R0 Z	-0.1961018
-2.509725	R0 Z0
-2.509725	R0 ZH	-0.1814648
-0.6120974	R0l I	-0.2422875
-0.6120974	R0l I0
-0.7881887	Rl A
-0.7881887	Rl A0
-0.7881887	Rl O0
-1.852789	S </s>
-1.510578	S <sil>	-0.06662627
-1.241814	S A	-0.2276229
-1.447702	S A0	-0.4320537
-1.78413	S Al	-0.09555075
-2.678579	S E0
-1.852789	S F	-0.1503286
-2.034928	S F0	-0.07540357
-2.165999	S J0	-0.1102018
-1.174447	S K	-0.8491683
-1.392789	S K0	-0.5675303
-2.165999	S KH	-0.1095578
-2.678579	S KH0	-0.006041899
-1.27987	S L	-0.7967931
-1.510578	S L0	-0.7978805
-1.545795	S M	-0.6156794
-1.584123	S M0	-0.5518637
-1.419378	S N	-0.6660043
-2.678579	S N0	-0.2731083
-1.392789	S O0	-0.2504407
-1.321584	S P	-0.4221857
-1.510578	S P0	-0.3211752
-1.852789	S R	-0.2940154
-1.724858	S R0	-0.2839457
-2.165999	S SH	-0.06912814
-2.678579	S SH0
-1.144316	S T	-0.7535408
-2.930161	S T0l
-2.165999	S TS	-0.05634856
-2.678579	S TSH0	-0.05983038
-1.626163	S U	-0.08619481
-1.626163	S U0	-0.1841187
-1.344046	S V	-0.7455507
-1.419378	S V0	-0.2653837
-1.584123	S Y	-0.09164431
-1.672713	S Y0	-0.3038929
-1.651746	S0 </s>
-1.570156	S0 <sil>	-0.09654585
-1.301489	S0 A	-0.2318682
-1.752294	S0 A0	-0.2331984
-2.071988	S0 Al	-0.2954497
-1.085101	S0 E0	-0.1784172
-2.647527	S0 E0l	-0.1487045
-1.752294	S0 F	-0.1350935
-2.647527	S0 F0
-0.9077009	S0 I	-0.3996699
-1.19537	S0 I0	-0.2581025
-2.647527	S0 Il
-2.071988	S0 J0	-0.242756
-1.883365	S0 K	-0.05278867
-2.647527	S0 K0
-2.647527	S0 KH
-2.647527	S0 KH0
-2.395946	S0 L	-0.2354109
-2.395946	S0 L0	-0.1158048
-1.883365	S0 M	-0.2924686
-2.071988	S0 M0	-0.1523546
-2.071988	S0 N	-0.2300732
-1.390079	S0 N0	-0.5043195
-2.071988	S0 O0	-0.08669908
-1.883365	S0 P	-0.3375742
-2.071988	S0 P0	-0.02122188
-1.883365	S0 R	-0.1274242
-2.395946	S0 R0	-0.2322112
-1.752294	S0 SH	-0.4809981
-2.395946	S0 SH0	-0.04961221
-1.651746	S0 T	-0.06235261
-0.9972363	S0 T0	-0.4169329
-2.395946	S0 T0l
-2.395946	S0 TS
-1.883365	S0 TSH0	0.02364406
-2.647527	S0 Tl	-0.1131944
-1.570156	S0 U	-0.2922375
-1.883365	S0 U0	-0.09065932
-1.651746	S0 V	-0.08804449
-2.395946	S0 V0
-1.612098	S0l A
-1.612098	S0l E0
-0.4660669	S0l I	-0.04706815
-1.036558	S0l I0	-0.1514815
-1.360516	S0l Il
-1.360516	S0l N0
-1.036558	S0l T0	-0.09156826
-2.093463	SH </s>
-1.773769	SH <sil>
-1.186544	SH A	-0.1647042
-1.15822	SH A0	-0.1953627
-2.669002	SH Al
-1.365004	SH E0	-0.2851489
-2.417421	SH F	-0.2277524
-2.669002	SH F0
-2.669002	SH I
-2.417421	SH I0
-1.904841	SH J0	-0.06054916
-1.322964	SH K	-0.591697
-1.904841	SH K0	-0.3167807
-2.417421	SH KH	-0.2136664
-2.669002	SH KH0
-1.591631	SH L	-0.5217381
-1.365004	SH L0	-0.352149
-1.904841	SH M	-0.06978679
-2.669002	SH M0
-1.904841	SH N	-0.6258655
-1.773769	SH N0	-0.2636536
-1.365004	SH O0	-0.4085334
-1.673221	SH P	-0.06736033
-2.669002	SH P0
-2.669002	SH R
-2.093463	SH R0	-0.1077614
-2.093463	SH S	-0.05860189
-2.669002	SH S0	-0.1375376
-0.9628088	SH T	-1.180513
-2.417421	SH T0	-0.1095843
-2.417421	SH TS
-2.669002	SH TSH0
-1.522972	SH U	-0.1547912
-1.904841	SH U0	-0.2353376
-1.673221	SH V	-0.04185171
-2.417421	SH V0
-0.929176	SH Y	-0.2666918
-1.4637	SH Y0	-0.2427971
-2.27955	SH0 </s>
-2.27955	SH0 <sil>
-2.027969	SH0 A	-0.1013745
-1.202179	SH0 A0	-0.2378592
-1.074248	SH0 E0	-0.2247609
-2.27955	SH0 F
-0.6496158	SH0 I	-0.4349243
-1.384317	SH0 I0	-0.1937672
-2.27955	SH0 J0
-2.27955	SH0 K
-2.27955	SH0 K0
-2.27955	SH0 KH
-2.27955	SH0 L0
-2.027969	SH0 M
-2.27955	SH0 M0
-1.704011	SH0 N	-0.128972
-2.027969	SH0 N0	-0.1871249
-1.022103	SH0 O0	-0.100664
-2.27955	SH0 P
-2.27955	SH0 P0
-2.27955	SH0 R
-2.027969	SH0 R0
-2.027969	SH0 S0
-2.27955	SH0 T
-2.27955	SH0 T0
-2.27955	SH0 TSH0
-1.283769	SH0 U	-0.2179318
-1.515389	SH0 U0	-0.1039557
-2.27955	SH0 V
-2.27955	SH0 V0
-0.3110675	SH0l I
-0.9131275	SHl K
-0.6615457	SHl T	-0.2290483
-0.9131275	SHl U
-1.944536	Sl </s>
-0.7985054	Sl A	-0.09634791
-1.944536	Sl A0
-1.944536	Sl E0
-1.049303	Sl K	-0.3767222
-1.944536	Sl K0	-0.1759569
-1.944536	Sl KH
-1.368997	Sl L
-1.692954	Sl L0	-0.2170472
-1.692954	Sl M	-0.09275103
-1.944536	Sl M0	-0.03445956
-1.944536	Sl N
-1.692954	Sl O0
-1.368997	Sl P	-0.2061041
-1.944536	Sl R0
-1.180374	Sl T	-0.06929482
-1.944536	Sl U
-1.692954	Sl V	-0.1400512
-1.368997	Sl Y
-1.453921	T </s>
-1.552014	T <sil>	-0.07241112
-1.180666	T A	-0.3852308
-1.165339	T A0	-0.42608
-2.041147	T Al	0.01253111
-2.041147	T E0	-0.189321
-1.859009	T F	-0.04358903
-2.93638	T F0	-0.1284932
-1.678932	T J0	-0.6256543
-1.590342	T K	-0.3548343
-1.632382	T K0	-0.17632
-2.172218	T KH	-0.1552925
-2.684798	T KH0
-1.940598	T L	-0.2697762
-1.790349	T L0	-0.3401935
-1.940598	T M	-0.1422224
-2.041147	T M0	0.1055531
-1.552014	T N	-0.5730299
-1.552014	T N0	-0.4943157
-1.165339	T O0	-0.3789364
-2.93638	T O0l	-0.3243105
-1.632382	T P	-0.3661472
-1.940598	T P0	-0.3940322
-1.327803	T R	-0.7418659
-1.306445	T R0	-0.7740649
-1.632382	T S	-0.145524
-2.172218	T S0	-0.1837138
-1.940598	T SH	-0.5161405
-2.360841	T SH0	-0.1888631
-2.684798	T TS
-2.041147	T TSH0	-0.3171793
-1.286089	T U	0.003886133
-1.552014	T U0	-0.1035149
-1.516797	T V	-0.438876
-1.516797	T V0	-0.4270487
-2.93638	T V0l
-1.399008	T Y	-0.1973006
-1.327803	T Y0	-0.01317951
-1.41361	T0 </s>
-1.571577	T0 <sil>	-0.1016122
-1.571577	T0 A	-0.05790984
-1.822375	T0 A0	-0.1374845
-1.047872	T0 E0	-0.2655735
-1.571577	T0 F	-0.05992535
-2.466026	T0 F0	-0.01926608
-0.9618938	T0 I	-0.2791816
-1.206825	T0 I0	-0.1921112
-2.466026	T0 Il
-1.46016	T0 J0	-0.3944649
-1.571577	T0 K	-0.1525218
-2.466026	T0 K0	-0.130538
-2.466026	T0 KH	-0.2136664
-2.717608	T0 KH0
-2.717608	T0 L
-1.721826	T0 L0	-0.1938369
-1.512305	T0 M	-0.2264387
-1.822375	T0 M0	0.05211207
-1.571577	T0 N	-0.4517826
-1.46016	T0 N0	-0.612437
-1.298025	T0 O0	-0.273692
-1.640236	T0 P	-0.2727403
-2.466026	T0 P0
-2.466026	T0 R	-0.06372845
-2.717608	T0 R0
-1.571577	T0 S	-0.134374
-1.640236	T0 S0	-0.3569549
-1.640236	T0 SH	-0.293069
-2.717608	T0 SH0
-2.466026	T0 Sl
-2.717608	T0 TS
-2.142068	T0 TSH0	-0.08287414
-1.512305	T0 U	-0.04272373
-2.466026	T0 U0	-0.1594948
-1.571577	T0 V	-0.03886752
-1.953446	T0 V0	-0.1524194
-2.717608	T0 V0l
-1.541516	T0l A0
-1.289935	T0l E0
-0.2840686	T0l I	-0.1782562
-0.965977	T0l I0	-0.06255337
-1.541516	T0l O0
-1.751026	TS </s>
-1.751026	TS <sil>	-0.0813621
-1.130822	TS A	-0.1317904
-1.369157	TS A0	-0.1089843
-1.619954	TS Al	-0.01164539
-0.9527608	TS E0	-0.3575455
-2.263606	TS F
-2.515188	TS F0
-2.515188	TS J0
-1.519406	TS K	-0.2529839
-1.619954	TS K0	-0.03362435
-2.515188	TS KH0
-2.515188	TS L
-2.263606	TS L0
-2.263606	TS M
-1.751026	TS M0	-0.09167639
-2.263606	TS N	-0.1261081
-2.515188	TS N0
-1.619954	TS O0	-0.2233495
-2.263606	TS P	-0.1091127
-2.515188	TS P0
-2.515188	TS R
-2.515188	TS R0
-2.515188	TS S	-0.101465
-2.515188	TS S0
-2.515188	TS SH
-2.515188	TS SH0
-1.369157	TS T	-0.5420473
-2.263606	TS T0
-1.619954	TS U	-0.3198493
-1.619954	TS U0	-0.1258364
-2.263606	TS V
-1.06303	TS V0	-0.5140486
-0.9290729	TS Y	-0.1436862
-1.369157	TS Y0	-0.08262057
-1.825659	TSH0 </s>
-1.694588	TSH0 <sil>	-0.1563078
-1.825659	TSH0 A
-0.981244	TSH0 A0	-0.3361002
-1.107363	TSH0 E0	-0.4295468
-2.338239	TSH0 F
-2.589821	TSH0 F0
-0.7896599	TSH0 I	-0.4750521
-1.384519	TSH0 I0	-0.3032448
-2.014282	TSH0 J0	-0.185269
-1.59404	TSH0 K	-0.6127533
-1.59404	TSH0 K0	-0.376047
-2.589821	TSH0 KH
-2.589821	TSH0 L
-1.825659	TSH0 L0	-0.1808736
-2.589821	TSH0 M
-2.589821	TSH0 M0
-1.332373	TSH0 N	-0.8580657
-1.694588	TSH0 N0	-0.655019
-1.205456	TSH0 O0	-0.2310534
-2.338239	TSH0 P	-0.2183398
-2.589821	TSH0 P0
-2.589821	TSH0 R
-1.825659	TSH0 R0	-0.4596333
-2.589821	TSH0 S
-2.589821	TSH0 S0
-2.589821	TSH0 SH	-0.7282785
-1.51245	TSH0 T	-0.5034012
-1.825659	TSH0 T0	-0.4713022
-2.589821	TSH0 TS
-1.332373	TSH0 U	-0.1047609
-1.443791	TSH0 U0	-0.2707337
-2.014282	TSH0 V
-2.589821	TSH0 V0	-0.1385622
-0.6120974	TSH0l I
-0.6120974	TSH0l I0	-0.2555242
-0.3110675	TSl Y
-0.5207384	Tl A	-0.1177958
-1.150501	Tl A0
-0.9618791	Tl O0	-0.2074479
-1.726041	Tl P
-1.726041	Tl R
-1.726041	Tl R0
-1.474459	Tl U	-0.1635244
-1.474459	Tl U0
-1.726041	Tl V0
-1.726041	Tl Y
-1.726041	Tl Y0	-0.2655912
-1.458365	U </s>
-1.55616	U <sil>	0.111695
-1.720904	U A	-0.1717728
-2.302781	U A0	-0.2701191
-1.720904	U B	-0.2213356
-1.647359	U B0	-0.4149217
-1.458365	U D	-0.5356841
-1.55616	U D0	-0.1564947
-3.066942	U Dl
-2.491403	U E0	-0.1271501
-1.809495	U F	-0.07195626
-2.302781	U F0	0.02977134
-1.504516	U G	-0.2237399
-2.491403	U G0	-0.476497
-3.066942	U GH
-1.584484	U I	-0.09862897
-2.491403	U I0	-0.07170325
-1.397207	U J0	-0.8503873
-1.504516	U K	-0.519303
-2.815361	U K0	-0.3388709
-1.762944	U KH	-0.2728966
-2.815361	U KH0
-3.066942	U KHl
-1.682577	U L	-0.1780557
-1.720904	U L0	-0.1795368
-1.55616	U M	-0.3960355
-1.529571	U M0	-0.544217
-1.504516	U N	-0.5968329
-1.647359	U N0	-0.6576579
-3.066942	U N0l
-2.302781	U O0	-0.06320106
-1.529571	U P	-0.2326929
-1.920912	U P0	-0.2529285
-1.55616	U R	-0.1857453
-1.989571	U R0	-0.08005258
-1.360749	U S	-0.2989525
-1.720904	U S0	-0.2663905
-1.584484	U SH	-0.08479708
-1.809495	U SH0	-0.7035497
-1.529571	U T	0.0374673
-1.682577	U T0	-0.1209853
-2.071161	U TS	-0.2447953
-1.584484	U TSH0	-0.4006259
-2.815361	U Tl	-0.1640937
-1.529571	U V	-0.127718
-1.647359	U V0	-0.06641233
-3.066942	U V0l
-2.491403	U Y
-1.809495	U Z	-0.1520677
-2.171709	U Z0	-0.2072825
-3.066942	U Z0l	-0.2008141
-1.647359	U ZH	-0.1022463
-1.540217	U0 </s>
-1.466672	U0 <sil>	-0.08209315
-1.740225	U0 A	-0.04091581
-2.886255	U0 A0
-1.540217	U0 B	-0.1630253
-2.122093	U0 B0	-0.2600124
-2.886255	U0 B0l
-2.886255	U0 Bl
-1.50189	U0 D	-0.3767743
-1.991022	U0 D0	-0.8527898
-2.886255	U0 DZH0
-2.886255	U0 E0
-1.808884	U0 F	-0.328548
-2.886255	U0 F0	-0.1284932
-2.886255	U0 F0l
-2.122093	U0 G	-0.4997131
-2.634674	U0 G0	0.08202282
-1.680953	U0 I	-0.08268659
-1.466672	U0 J0	-0.6534716
-1.466672	U0 K	-0.1937083
-2.122093	U0 K0	-0.3308589
-1.540217	U0 KH	-0.2554914
-2.310716	U0 KH0	-0.1189151
-2.886255	U0 Kl
-2.310716	U0 L	-0.2722523
-1.434098	U0 L0	-0.6261866
-1.680953	U0 M	-0.6285712
-1.808884	U0 M0	-0.3546088
-1.582257	U0 N	-0.2989236
-2.634674	U0 N0	-0.2731083
-2.634674	U0 O0	-0.1459417
-1.466672	U0 P	-0.1286235
-2.634674	U0 P0
-2.886255	U0 P0l
-2.886255	U0 Pl
-1.434098	U0 R	-0.1013249
-1.808884	U0 R0	-0.5918621
-1.375473	U0 S	-0.2624727
-1.680953	U0 S0	-0.5147341
-1.277678	U0 SH	-0.1980636
-1.808884	U0 SH0	-0.5806148
-2.886255	U0 SHl
-2.310716	U0 Sl	-0.3870558
-1.375473	U0 T	-0.1773601
-1.808884	U0 T0	-0.1498349
-2.634674	U0 T0l	0.05889106
-2.122093	U0 TS	-0.4540406
-1.628808	U0 TSH0	-0.3892011
-2.886255	U0 Tl	-0.6268461
-1.808884	U0 V	-0.05906422
-1.991022	U0 V0	-0.1575645
-1.740225	U0 Z	-0.1855073
-2.122093	U0 Z0	0.03539108
-1.323829	U0 ZH	-0.6610081
-0.6120974	U0l L0	-0.2059126
-0.6120974	U0l SH
-1.010037	Ul F
-1.010037	Ul K
-1.010037	Ul P
-1.010037	Ul S
-1.010037	Ul T
-1.06759	V A	-0.3878395
-1.211875	V A0	-0.4092193
-1.535572	V Al	-0.006698161
-1.804239	V B	-0.07096587
-1.885829	V B0	-0.1590086
-1.319184	V D	-0.3082727
-1.676308	V D0	-0.1369822
-1.624163	V E0	-0.6562602
-1.399152	V G	-0.3260502
-2.630029	V G0	-0.2171735
-1.676308	V J0	-0.2699325
-1.676308	V L	-0.1651907
-1.497245	V L0	-0.7577585
-1.535572	V M	-0.2512393
-1.804239	V M0	-0.3287462
-1.399152	V N	-0.5033152
-1.319184	V N0	-0.6377582
-1.193263	V O0	-0.2618625
-2.88161	V O0l
-1.319184	V R	-0.5224665
-1.676308	V R0	-0.5702525
-1.73558	V U	-0.1583577
-1.676308	V U0	-0.2018228
-1.193263	V Y	-0.3137358
-1.231319	V Y0	-0.1366309
-1.344239	V Z	-0.2459422
-1.804239	V Z0	-0.421285
-1.986377	V ZH	-0.04919393
-1.225735	V0 A0	-0.2855176
-2.120183	V0 B	-0.2291922
-2.371765	V0 B0
-2.371765	V0 D0
-0.6007246	V0 E0	-0.5025641
-0.5859203	V0 I	-0.5291759
-0.7214743	V0 I0	-0.4969652
-2.371765	V0 Il
-1.607604	V0 J0	-0.213495
-1.114318	V0 O0	-0.4856422
-2.371765	V0 U0	-0.2527313
-2.371765	V0 Z
-2.371765	V0 Z0
-2.371765	V0 ZH
-0.7769207	V0l E0	-0.2458835
-0.3566788	V0l I	-0.1098241
-1.35246	V0l I0
-1.35246	V0l O0
-0.6897705	Vl A
-1.26531	Vl A0
-0.5011482	Vl O0	-0.08286307
-1.26531	Vl Y
-1.439277	Y </s>
-1.524491	Y <sil>	-0.1091492
-1.592283	Y A	-0.2205177
-2.401109	Y A0
-1.672651	Y B	-0.2461382
-2.212487	Y B0	0.2455151
-2.976649	Y Bl
-1.63061	Y D	-0.2258683
-1.830618	Y D0	-0.03245479
-2.401109	Y E0	-0.3893073
-1.63061	Y F	-0.1484788
-2.725067	Y F0	-0.2473851
-1.524491	Y G	-0.09447797
-2.725067	Y G0
-1.899277	Y GH	-0.04266161
-1.719201	Y I	-0.1717794
-2.976649	Y I0
-2.976649	Y Il
-1.557065	Y J0	-0.3044106
-2.725067	Y J0l
-1.524491	Y K	-0.1966319
-1.980867	Y K0	-0.2339489
-1.63061	Y KH	0.05811232
-2.725067	Y KH0	-0.115269
-2.976649	Y KH0l
-2.976649	Y KHl
-2.976649	Y Kl	-0.06868444
-1.672651	Y L	-0.5163387
-1.49419	Y L0	-0.3970286
-1.557065	Y M	0.08530483
-1.592283	Y M0	-0.5939775
-2.401109	Y Ml
-1.524491	Y N	-0.4185797
-1.63061	Y N0	-0.5334096
-2.725067	Y Nl	-0.1438402
-1.771346	Y O0	-0.3537752
-1.439277	Y P	-0.3581204
-2.081415	Y P0	0.0582137
-1.771346	Y R	-0.3471395
-2.081415	Y R0	-0.1428273
-1.368071	Y S	-0.3258068
-1.830618	Y S0	-0.2818159
-2.725067	Y S0l
-1.771346	Y SH	-0.142424
-2.081415	Y SH0	-0.1096214
-2.401109	Y Sl	-0.1508922
-1.592283	Y T	-0.1242442
-2.212487	Y T0	-0.4140349
-2.725067	Y T0l
-2.212487	Y TS	-0.1443145
-1.980867	Y TSH0	-0.2747318
-1.980867	Y U	-0.1518374
-2.976649	Y U0
-1.465866	Y V	-0.5264835
-1.719201	Y V0	-0.1889502
-1.524491	Y Z	-0.1012691
-1.980867	Y Z0	-0.008587956
-2.081415	Y ZH	-0.0190994
-2.725067	Y Zl	-0.02686186
-1.534253	Y0 </s>
-1.474981	Y0 <sil>	-0.03140902
-1.916122	Y0 A
-1.684502	Y0 B	0.01912841
-2.104744	Y0 B0	-0.03094323
-1.916122	Y0 D	-0.2059126
-1.78505	Y0 D0	-0.07908671
-2.680283	Y0 D0l	-0.1895891
-1.684502	Y0 F	-0.2332865
-2.680283	Y0 F0
-1.916122	Y0 G	-0.2794177
-2.680283	Y0 G0	0.08202282
-1.916122	Y0 GH	-0.06955101
-1.684502	Y0 I	-0.02711758
-2.680283	Y0 I0l
-1.684502	Y0 J0	-0.7688898
-1.684502	Y0 K	-0.05705414
-2.428702	Y0 K0	0.08620036
-1.422836	Y0 KH	-0.2125203
-2.680283	Y0 KH0
-2.680283	Y0 KHl
-2.680283	Y0 Kl
-1.534253	Y0 L	-0.28508
-1.474981	Y0 L0	-0.6525306
-2.428702	Y0 L0l	-0.09988198
-1.334245	Y0 M	-0.02663732
-1.602912	Y0 M0	-0.4678059
-1.602912	Y0 N	-0.1924325
-1.602912	Y0 N0	-0.3126789
-2.680283	Y0 N0l	-0.1895891
-2.428702	Y0 Nl	-0.04299028
-1.376285	Y0 P	-0.1072117
-1.916122	Y0 P0	-0.2364369
-1.602912	Y0 R	-0.2647626
-2.104744	Y0 R0	-0.3633544
-1.422836	Y0 S	-0.2651555
-2.104744	Y0 S0	-0.6284213
-1.684502	Y0 SH	-0.4806523
-2.104744	Y0 SH0	-0.3714609
-1.534253	Y0 T	-0.1620514
-1.78505	Y0 T0	-0.1643314
-2.104744	Y0 TS	-0.1264051
-2.104744	Y0 TSH0	-0.2621863
-2.428702	Y0 Tl
-2.680283	Y0 U
-2.680283	Y0 U0
-2.104744	Y0 V	-0.1094363
-2.428702	Y0 V0	-0.05352429
-2.680283	Y0 V0l
-1.916122	Y0 Z	-0.06677496
-2.428702	Y0 Z0	-0.6559678
-1.684502	Y0 ZH	-0.148139
-2.680283	Y0 Zl
-0.8109142	Z A	-0.282168
-1.240569	Z A0	-0.3754813
-2.624935	Z Al
-1.320937	Z B	-0.06508711
-1.629153	Z B0	-0.08487174
-1.240569	Z D	-0.1379912
-2.373353	Z D0	-0.0913244
-2.624935	Z E0	-0.1271501
-1.419632	Z G	-0.2870412
-2.049395	Z G0	0.1912499
-2.049395	Z J0	-0.1063356
-1.478904	Z L	-0.2372267
-1.547563	Z L0	-0.4950714
-1.860773	Z M	-0.2720692
-1.860773	Z M0	-0.1382607
-1.016358	Z N	-0.9774545
-1.860773	Z O0	-0.132136
-1.547563	Z R	-0.1155749
-1.729702	Z R0	-0.1147409
-1.547563	Z U	-0.1621777
-2.049395	Z U0	-0.1476713
-1.240569	Z V	-0.3394091
-1.240569	Z V0	-0.2259639
-1.478904	Z Y	-0.2622581
-1.860773	Z Y0	-0.0877937
-2.049395	Z ZH	-0.2533139
-2.344491	Z0 A
-1.580329	Z0 A0	-0.1602609
-1.768952	Z0 B	-0.0471443
-2.09291	Z0 B0	-0.1981965
-1.449258	Z0 D	-0.02072631
-0.8071194	Z0 D0	-0.6553503
-2.09291	Z0 D0l	-0.1393923
-2.344491	Z0 Dl
-1.198461	Z0 E0	-0.3721753
-1.449258	Z0 G	-0.04930404
-2.344491	Z0 G0
-0.6046649	Z0 I	-0.4117831
-1.34871	Z0 I0	-0.1184931
-2.344491	Z0 Il	-0.2489479
-1.768952	Z0 J0
-2.344491	Z0 M
-2.344491	Z0 M0
-1.087043	Z0 N0	-0.1890512
-2.344491	Z0 N0l
-2.09291	Z0 O0	-0.1015038
-2.344491	Z0 U
-2.09291	Z0 U0	-0.2539288
-2.09291	Z0 ZH
-1.089219	Z0l A0
-0.837637	Z0l D0	-0.1814323
-0.837637	Z0l E0	-0.1474755
-1.089219	Z0l I
-1.273082	ZH A	-0.1563885
-0.9959263	ZH A0	-0.4955674
-2.226803	ZH B	-0.07417864
-2.226803	ZH B0	-0.08248489
-1.094019	ZH D	-0.6520211
-1.401013	ZH D0	-0.325864
-1.220937	ZH E0	-0.6914028
-1.902845	ZH G
-2.226803	ZH G0	-0.1937945
-2.226803	ZH J0	-0.1063356
-2.226803	ZH L0	-0.3216242
-2.226803	ZH M	-0.2488998
-2.478385	ZH M0
-1.332354	ZH N	-0.7372612
-1.583152	ZH N0	-0.3854235
-1.583152	ZH O0	-0.3848062
-2.478385	ZH R
-2.478385	ZH R0
-1.482603	ZH U	-0.07703231
-2.226803	ZH U0	-0.09187644
-2.478385	ZH V0
-0.7385585	ZH Y	-0.19713
-1.026227	ZH Y0	-0.3624124
-2.226803	ZH Z	-0.1059939
-2.226803	ZH Z0
-1.214157	ZH0 B
-0.9625757	ZH0 D	-0.2210068
-1.214157	ZH0 D0
-1.214157	ZH0 G
-1.214157	ZH0 G0
-1.214157	ZH0 Z
-1.214157	ZH0 Z0
-0.7881887	ZHl O0
-0.536607	ZHl Y
-0.3691569	Zl A	-0.0531525
-0.7510257	Zl A0	-0.07840537
-1.515188	Zl B
-1.515188	Zl U
-1.515188	Zl U0
-1.515188	Zl V0

\3-grams:
-1.225685	A <sil> A
-2.589656	A <sil> B
-2.424574	A <sil> B0
-1.688773	A <sil> D
-2.029974	A <sil> E0
-1.826694	A <sil> F
-2.424574	A <sil> G
-0.9713225	A <sil> I
-2.589656	A <sil> I0
-1.826694	A <sil> J0
-1.291445	A <sil> K
-2.18392	A <sil> K0
-2.589656	A <sil> KH
-2.029974	A <sil> L0
-1.584256	A <sil> M
-1.2684	A <sil> N
-1.398225	A <sil> N0
-1.826694	A <sil> O0
-1.151107	A <sil> P
-2.029974	A <sil> P0
-1.584256	A <sil> R
-1.291445	A <sil> S
-1.688773	A <sil> S0
-1.315781	A <sil> SH
-1.584256	A <sil> T
-2.029974	A <sil> T0
-2.424574	A <sil> TSH0
-1.826694	A <sil> U
-1.246518	A <sil> V
-2.589656	A <sil> V0
-2.424574	A <sil> Y
-1.584256	A <sil> Z
-2.424574	A <sil> Z0
-2.029974	A <sil> ZH
-1.353101	A0 <sil> A
-1.758838	A0 <sil> D
-1.758838	A0 <sil> D0
-1.085729	A0 <sil> I
-1.758838	A0 <sil> N
-1.593756	A0 <sil> N0
-1.199156	A0 <sil> P
-1.593756	A0 <sil> S
-1.593756	A0 <sil> S0
-1.085729	A0 <sil> SH
-1.758838	A0 <sil> T
-1.593756	A0 <sil> T0
-1.593756	A0 <sil> V
-1.331878	E0 <sil> A
-1.49696	E0 <sil> E0
-1.091223	E0 <sil> P
-0.9372781	E0 <sil> SH
-1.331878	E0 <sil> T
-1.245732	F <sil> A
-1.805414	F <sil> F
-0.8000135	F <sil> I
-0.9680387	F <sil> K
-1.805414	F <sil> N
-0.8000135	F <sil> P
-1.805414	F <sil> R
-1.132305	F <sil> S
-1.805414	F <sil> T
-1.010985	I <sil> A
-1.889853	I <sil> B
-1.444135	I <sil> D
-2.449535	I <sil> D0
-2.449535	I <sil> E0
-1.493257	I <sil> F
-1.400009	I <sil> G
-0.8790393	I <sil> I
-2.043798	I <sil> J0
-1.258104	I <sil> K
-2.449535	I <sil> KH
-2.284453	I <sil> L0
-1.548652	I <sil> M
-1.686573	I <sil> N
-1.548652	I <sil> N0
-1.889853	I <sil> O0
-1.046676	I <sil> P
-2.284453	I <sil> P0
-2.284453	I <sil> R
-1.548652	I <sil> S
-2.449535	I <sil> S0
-1.686573	I <sil> SH
-1.889853	I <sil> T
-2.284453	I <sil> T0
-2.043798	I <sil> TSH0
-1.493257	I <sil> U
-1.686573	I <sil> V
-2.449535	I <sil> V0
-1.61216	I <sil> Z
-2.449535	I <sil> Zl
-1.300844	I0 <sil> A
-1.465926	I0 <sil> E0
-1.465926	I0 <sil> G
-1.465926	I0 <sil> I
-1.465926	I0 <sil> N
-1.300844	I0 <sil> P
-1.300844	I0 <sil> S
-0.9486612	Il <sil> A
-1.190677	J0 <sil> A
-1.547903	J0 <sil> B0
-1.95364	J0 <sil> D
-1.788558	J0 <sil> G
-1.116265	J0 <sil> I
-1.547903	J0 <sil> J0
-1.280531	J0 <sil> K
-1.547903	J0 <sil> L0
-1.95364	J0 <sil> M
-1.788558	J0 <sil> O0
-1.280531	J0 <sil> P
-1.190677	J0 <sil> S
-1.788558	J0 <sil> S0
-1.788558	J0 <sil> SH
-1.788558	J0 <sil> T
-1.280531	J0 <sil> V
-1.95364	J0 <sil> V0
-1.215243	K <sil> A
-1.609843	K <sil> B0
-1.774925	K <sil> F
-0.9375494	K <sil> I
-1.774925	K <sil> K
-1.774925	K <sil> L0
-1.609843	K <sil> N
-1.774925	K <sil> N0
-1.609843	K <sil> P
-1.774925	K <sil> S
-1.369188	K <sil> SH
-1.774925	K <sil> T
-1.774925	K <sil> U
-1.609843	K <sil> V
-1.609843	K <sil> Z
-1.614346	KH <sil> A
-1.449264	KH <sil> B
-1.614346	KH <sil> B0
-1.449264	KH <sil> F
-0.9412365	KH <sil> I
-1.614346	KH <sil> K
-1.054664	KH <sil> P
-1.614346	KH <sil> U0
-1.024211	L <sil> A
-1.69732	L <sil> I
-1.69732	L <sil> J0
-1.291583	L <sil> K
-1.137638	L <sil> N
-1.69732	L <sil> N0
-1.137638	L <sil> P
-1.69732	L <sil> S
-0.934357	L <sil> SH
-1.69732	L <sil> V
-1.69732	L <sil> V0
-1.289834	L0 <sil> A
-1.124752	L0 <sil> I
-1.289834	L0 <sil> K
-1.289834	L0 <sil> N0
-1.289834	L0 <sil> S
-1.131685	M <sil> A
-1.409379	M <sil> G
-0.9195338	M <sil> I
-1.409379	M <sil> J0
-1.206098	M <sil> K
-1.96906	M <sil> KH
-1.96906	M <sil> L
-1.409379	M <sil> N
-1.563324	M <sil> O0
-1.068177	M <sil> P
-1.409379	M <sil> S
-1.96906	M <sil> SH
-1.96906	M <sil> T
-1.96906	M <sil> Y
-1.96906	M <sil> Z
-1.566041	N <sil> A
-1.160304	N <sil> I
-1.400959	N <sil> K
-1.160304	N <sil> N
-1.566041	N <sil> N0
-1.400959	N <sil> P
-1.400959	N <sil> SH
-1.465926	O0 <sil> A
-1.060189	O0 <sil> I
-1.465926	O0 <sil> K
-1.465926	O0 <sil> KH
-1.465926	O0 <sil> N
-1.465926	O0 <sil> S0
-1.300844	O0 <sil> SH
-1.465926	O0 <sil> T
-1.034562	P <sil> I
-1.034562	P <sil> V
-1.313316	R <sil> A
-1.313316	R <sil> K
-1.148234	R <sil> P
-1.400959	S <sil> A
-1.566041	S <sil> B
-0.8929318	S <sil> I
-1.006359	S <sil> P
-1.566041	S <sil> S
-1.566041	S <sil> SH
-1.566041	S <sil> V
-1.031183	S0 <sil> A
-1.590865	S0 <sil> B
-1.590865	S0 <sil> F
-0.9177554	S0 <sil> I
-1.590865	S0 <sil> N
-1.590865	S0 <sil> O0
-1.031183	S0 <sil> P
-1.590865	S0 <sil> SH
-1.590865	S0 <sil> V
-0.783374	T <sil> A
-1.909623	T <sil> B
-1.909623	T <sil> E0
-1.909623	T <sil> F
-1.349941	T <sil> I
-1.744541	T <sil> J0
-1.503886	T <sil> K
-1.503886	T <sil> N
-1.503886	T <sil> N0
-0.9042227	T <sil> P
-1.349941	T <sil> S
-1.503886	T <sil> SH
-1.744541	T <sil> T
-1.744541	T <sil> U
-1.909623	T <sil> V
-1.909623	T <sil> V0
-1.336395	T0 <sil> A
-1.742132	T0 <sil> B
-0.9047568	T0 <sil> I
-1.336395	T0 <sil> K
-1.57705	T0 <sil> N
-1.57705	T0 <sil> N0
-1.18245	T0 <sil> P
-0.9791694	T0 <sil> S
-1.57705	T0 <sil> SH
-1.742132	T0 <sil> U
-0.9888045	TS <sil> J0
-0.9888045	TS <sil> TSH0
-0.4748801	TSH0 <sil> P
-1.352679	U <sil> A
-1.860706	U <sil> B
-1.466106	U <sil> D
-2.025788	U <sil> E0
-1.620051	U <sil> F
-1.262825	U <sil> G
-1.020388	U <sil> I
-2.025788	U <sil> J0
-1.124905	U <sil> K
-2.025788	U <sil> L
-2.025788	U <sil> M
-1.466106	U <sil> N
-2.025788	U <sil> N0
-1.620051	U <sil> P
-2.025788	U <sil> P0
-1.860706	U <sil> R
-2.025788	U <sil> S
-2.025788	U <sil> SH
-1.860706	U <sil> T
-2.025788	U <sil> U
-1.352679	U <sil> V
-1.860706	U <sil> V0
-1.466106	U <sil> Z
-1.133975	U0 <sil> A
-1.539712	U0 <sil> D
-1.539712	U0 <sil> I
-0.8666029	U0 <sil> K
-1.37463	U0 <sil> N
-1.37463	U0 <sil> O0
-1.539712	U0 <sil> P
-1.37463	U0 <sil> SH
-1.253548	Y <sil> A
-1.52092	Y <sil> B
-1.926657	Y <sil> D
-1.52092	Y <sil> F
-1.926657	Y <sil> G
-1.163694	Y <sil> I
-1.926657	Y <sil> J0
-1.366975	Y <sil> K
-1.253548	Y <sil> N
-1.253548	Y <sil> P
-1.761575	Y <sil> R
-0.9212561	Y <sil> S
-1.52092	Y <sil> U
-1.52092	Y <sil> V
-1.926657	Y <sil> Z0
-1.26742	Y0 <sil> I
-1.432502	Y0 <sil> J0
-1.26742	Y0 <sil> K
-1.432502	Y0 <sil> N
-1.432502	Y0 <sil> P
-1.432502	Y0 <sil> R
-1.432502	Y0 <sil> V0
-1.37197	<s> A B
-1.129532	<s> A D
-1.969851	<s> A D0
-1.969851	<s> A F
-1.969851	<s> A J0
-1.969851	<s> A K
-2.134933	<s> A L
-2.134933	<s> A M
-0.9142458	<s> A N
-1.129532	<s> A N0
-1.461823	<s> A P
-1.969851	<s> A Pl
-1.234049	<s> A S
-1.969851	<s> A S0
-2.134933	<s> A SH
-1.297557	<s> A T
-1.461823	<s> A T0
-2.134933	<s> A TS
-2.134933	<s> A TSH0
-2.134933	<s> A Tl
-1.729196	<s> A U0
-1.297557	<s> A V
-1.205253	<sil> A B
-1.804916	<sil> A B0
-1.650971	<sil> A D
-1.44769	<sil> A D0
-2.210653	<sil> A G
-2.210653	<sil> A G0
-2.045571	<sil> A J0
-1.373278	<sil> A K
-2.210653	<sil> A M
-0.9625581	<sil> A N
-1.30977	<sil> A N0
-2.210653	<sil> A O0
-1.44769	<sil> A P
-2.210653	<sil> A R
-1.121073	<sil> A S
-0.8268025	<sil> A T
-1.650971	<sil> A T0
-1.44769	<sil> A V
-2.210653	<sil> A Z
-2.045571	<sil> A ZH
-2.127984	B A </s>
-1.454875	B A <sil>
-2.127984	B A D
-1.962902	B A F
-1.454875	B A G
-2.127984	B A G0
-2.127984	B A J0
-1.2271	B A K
-1.568302	B A K0
-1.722247	B A L
-0.725124	B A L0
-1.962902	B A M
-1.722247	B A M0
-2.127984	B A N
-1.722247	B A P
-1.038404	B A R
-1.962902	B A R0
-2.127984	B A R0l
-1.722247	B A S
-2.127984	B A TSH0
-1.171705	B A V
-1.722247	B A ZH
-1.520329	D A </s>
-1.378425	D A <sil>
-1.321761	D A B
-2.404774	D A B0
-2.569856	D A D
-1.896747	D A D0
-2.404774	D A E0
-2.164119	D A F
-2.404774	D A G
-2.010174	D A I
-1.131306	D A J0
-1.409794	D A K
-1.896747	D A KH
-1.520329	D A L
-1.186005	D A L0
-1.053127	D A M
-1.806893	D A M0
-1.896747	D A N
-1.806893	D A N0
-1.806893	D A Nl
-2.569856	D A P
-1.205884	D A R
-2.164119	D A R0
-1.443607	D A S
-1.520329	D A S0
-2.164119	D A SH
-1.564456	D A T
-2.164119	D A T0
-1.806893	D A TSH0
-2.164119	D A U0
-1.025412	D A V
-2.569856	D A V0
-2.569856	D A Z
-2.404774	D A ZH
-0.6288251	D0 A <sil>
-0.937652	Dl A KH
-0.86948	E0 A B0
-1.034562	E0 A N0
-1.511683	F A D
-1.511683	F A K
-1.105946	F A M0
-1.346601	F A N
-1.511683	F A R
-1.511683	F A R0
-1.105946	F A S
-0.8385742	F A T
-1.511683	F A V
-2.086707	G A </s>
-1.655069	G A <sil>
-2.492444	G A B0
-1.819335	G A D
-2.492444	G A D0
-2.086707	G A G
-1.932762	G A J0
-1.932762	G A KH
-1.037092	G A L
-1.487043	G A L0
-1.59156	G A M
-1.655069	G A M0
-1.729481	G A N
-1.932762	G A N0
-1.819335	G A P
-1.218568	G A R
-1.244349	G A R0
-1.089584	G A S
-1.366195	G A S0
-1.402864	G A T
-1.932762	G A T0
-2.492444	G A TS
-2.327362	G A U
-0.7069835	G A V
-2.327362	G A V0
-2.492444	G A Y
-2.086707	G A Z0
-2.086707	G A ZH
-0.5116832	Gl A V
-0.9168006	I A B
-2.164896	I A B0
-0.944209	I A D
-1.605214	I A D0
-1.401933	I A G
-1.491787	I A K
-1.605214	I A L0
-1.759159	I A M0
-1.208617	I A N
-1.999814	I A N0
-1.491787	I A P
-1.759159	I A P0
-1.004834	I A S
-0.944209	I A T
-2.164896	I A T0
-2.164896	I A TS
-1.999814	I A TSH0
-2.164896	I A ZH
-0.87966	I0 A S
-0.87966	I0 A T
-0.87966	I0 A TS
-1.259771	J0 A </s>
-0.8443432	J0 A <sil>
-1.445802	J0 A B
-1.891521	J0 A D
-2.451202	J0 A D0
-1.68824	J0 A F
-1.177327	J0 A I
-2.045466	J0 A J0
-1.177327	J0 A K
-2.451202	J0 A KH
-1.891521	J0 A L
-2.28612	J0 A L0
-1.778093	J0 A M
-1.891521	J0 A M0
-1.613827	J0 A N
-1.550319	J0 A N0
-1.891521	J0 A O0
-1.361622	J0 A P
-2.451202	J0 A Pl
-2.045466	J0 A R
-2.451202	J0 A R0
-1.203107	J0 A S
-2.28612	J0 A S0
-2.045466	J0 A SH
-1.68824	J0 A T
-2.451202	J0 A T0
-2.28612	J0 A TS
-1.778093	J0 A U
-1.401676	J0 A V
-2.28612	J0 A V0
-2.451202	J0 A Z
-1.891521	J0 A ZH
-1.633852	K A </s>
-1.633852	K A <sil>
-2.005397	K A B
-2.381814	K A B0
-2.217548	K A D
-2.649186	K A D0
-3.054923	K A E0
-1.538194	K A F
-2.889841	K A F0
-1.173094	K A G
-2.15404	K A I
-1.154958	K A J0
-1.393502	K A K
-1.671072	K A K0
-2.217548	K A KH
-1.690952	K A L
-1.318357	K A L0
-3.054923	K A L0l
-1.225521	K A M
-1.538194	K A M0
-2.649186	K A Ml
-1.327069	K A N
-1.254316	K A N0
-3.054923	K A O0
-1.583395	K A P
-2.381814	K A P0
-1.448064	K A R
-1.965343	K A R0
-3.054923	K A R0l
-1.834237	K A S
-2.217548	K A S0
-2.098645	K A SH
-1.137549	K A T
-2.049523	K A T0
-2.049523	K A TSH0
-2.495241	K A U
-1.327069	K A V
-2.649186	K A V0
-0.9977244	K A Z
-2.098645	K A ZH
-2.1199	KH A </s>
-1.447607	KH A <sil>
-1.879245	KH A B
-2.1199	KH A D
-0.7405379	KH A D0
-2.1199	KH A K
-2.1199	KH A KH
-0.9210103	KH A L
-1.611873	KH A M
-1.7253	KH A N0
-2.1199	KH A P
-0.9011312	KH A R
-2.1199	KH A S
-1.328703	KH A T
-0.8639107	KH A T0
-1.7253	KH A TSH0
-2.284982	KH A V
-1.7253	KH A Z0
-0.4739231	Kl A T
-0.87966	Kl A Z
-1.505028	L A </s>
-1.343141	L A <sil>
-1.79985	L A B
-2.9261	L A B0
-1.438976	L A D
-1.79985	L A D0
-2.9261	L A E0
-1.876573	L A F
-1.652223	L A G
-2.366418	L A I
-2.9261	L A I0
-1.264678	L A J0
-1.48755	L A K
-2.761017	L A K0
-2.025216	L A KH
-2.025216	L A L
-2.163137	L A L0
-1.604843	L A M
-1.969821	L A M0
-1.766037	L A N
-1.52324	L A N0
-2.761017	L A Nl
-1.604843	L A P
-2.366418	L A R
-1.31924	L A S
-0.9122141	L A S0
-2.088724	L A SH
-2.366418	L A SH0
-2.366418	L A Sl
-1.225482	L A T
-1.604843	L A T0
-2.366418	L A TSH0
-2.163137	L A U
-2.9261	L A U0
-1.198245	L A V
-1.264678	L A V0
-2.9261	L A Y
-1.438976	L A Z
-1.734668	L A Z0
-1.505028	L A ZH
-1.045571	L0 A </s>
-1.045571	L0 A <sil>
-1.210653	L0 A I
-1.210653	L0 A P
-1.210653	L0 A S0
-1.729941	M A </s>
-1.666433	M A <sil>
-1.804354	M A D
-2.16158	M A D0
-1.894207	M A F
-1.224178	M A G
-2.567316	M A G0
-2.402234	M A I
-1.804354	M A I0
-0.8858551	M A J0
-2.007634	M A K
-2.567316	M A K0
-1.894207	M A KH
-1.036509	M A L
-1.666433	M A L0
-1.894207	M A M
-2.007634	M A M0
-1.611038	M A N
-1.729941	M A N0
-2.567316	M A Nl
-2.402234	M A P
-1.269105	M A R
-2.402234	M A R0
-1.407254	M A S
-1.894207	M A S0
-2.567316	M A S0l
-1.611038	M A SH
-2.007634	M A SH0
-1.050587	M A T
-1.561916	M A T0
-2.402234	M A TS
-1.611038	M A TSH0
-2.567316	M A U0
-1.804354	M A V
-2.567316	M A Z
-2.567316	M A Z0
-0.9510444	M0 A </s>
-0.9510444	M0 A <sil>
-1.191699	M0 A I
-0.9510444	M0 A K
-1.238682	Ml A J0
-1.0736	Ml A KH
-1.0736	Ml A L
-1.0736	Ml A N0
-1.238682	Ml A P
-1.515312	N A </s>
-1.491411	N A <sil>
-1.626742	N A B
-2.197387	N A B0
-1.515312	N A D
-1.906839	N A D0
-2.048744	N A E0
-1.677199	N A F
-1.426714	N A G
-2.008691	N A I
-3.098271	N A I0
-0.9587076	N A J0
-1.153348	N A K
-2.933188	N A K0
-1.824395	N A KH
-3.098271	N A L
-1.877584	N A L0
-1.27589	N A M
-1.71442	N A M0
-1.850175	N A N
-1.71442	N A N0
-1.248459	N A P
-2.425162	N A P0
-1.755132	N A R
-2.538589	N A R0
-1.344787	N A S
-1.290284	N A S0
-1.777015	N A SH
-2.933188	N A SH0
-1.553826	N A T
-2.141992	N A T0
-2.692534	N A TS
-1.527774	N A TSH0
-2.141992	N A U
-2.141992	N A U0
-1.228966	N A V
-1.457859	N A V0
-3.098271	N A V0l
-3.098271	N A Vl
-1.642918	N A Z
-2.141992	N A Z0
-2.335308	N A ZH
-1.099929	N0 A </s>
-1.265011	N0 A <sil>
-1.099929	N0 A P
-2.141772	Nl A </s>
-1.736035	Nl A <sil>
-1.97669	Nl A D
-2.141772	Nl A D0
-2.141772	Nl A E0
-2.141772	Nl A G
-1.97669	Nl A I
-0.5349126	Nl A J0
-2.141772	Nl A K
-1.092245	Nl A M
-2.141772	Nl A M0
-2.141772	Nl A N
-1.736035	Nl A N0
-1.58209	Nl A P
-2.141772	Nl A S
-1.97669	Nl A S0
-2.141772	Nl A T
-0.7986332	Nl A V
-1.736035	Nl A Z
-1.284453	O0 A D
-1.449535	O0 A Dl
-1.449535	O0 A K
-1.284453	O0 A N
-1.284453	O0 A P0
-0.7764263	O0 A S
-2.043769	P A B
-2.107277	P A B0
-0.8518522	P A D
-1.623397	P A D0
-2.944653	P A DZ0
-2.944653	P A DZH
-2.271544	P A E0
-2.18169	P A F
-1.696557	P A G
-2.18169	P A G0
-2.779571	P A I
-1.753221	P A J0
-1.122272	P A K
-2.779571	P A K0
-1.646441	P A KH
-1.044687	P A L
-1.580681	P A L0
-1.939252	P A M
-1.753221	P A M0
-1.939252	P A N
-1.670777	P A N0
-1.523581	P A P
-2.384971	P A P0
-1.541793	P A R
-2.538916	P A R0
-0.9788841	P A S
-1.646441	P A S0
-1.670777	P A SH
-1.208086	P A T
-2.107277	P A T0
-2.944653	P A T0l
-1.939252	P A TS
-1.442474	P A TSH0
-2.944653	P A Tl
-2.384971	P A U
-2.779571	P A U0
-1.988374	P A V
-1.895126	P A V0
-1.988374	P A Z
-2.779571	P A Z0
-1.753221	P A ZH
-1.18069	Pl A L0
-0.1752895	Pl A R
-1.979742	R A </s>
-1.637809	R A <sil>
-1.572049	R A B
-2.93602	R A B0
-1.405213	R A D
-1.93062	R A D0
-1.886494	R A F
-2.770938	R A F0
-1.979742	R A G
-1.662144	R A I
-1.254559	R A J0
-1.329161	R A K
-2.770938	R A K0
-1.637809	R A KH
-2.530283	R A L
-2.770938	R A L0
-1.480668	R A M
-2.376338	R A M0
-1.480668	R A N
-1.464492	R A N0
-1.775958	R A P
-2.93602	R A P0
-2.93602	R A R
-1.11364	R A S
-1.317686	R A S0
-2.262911	R A S0l
-1.464492	R A SH
-1.979742	R A SH0
-1.514949	R A Sl
-1.637809	R A T
-1.572049	R A T0
-2.262911	R A TS
-2.262911	R A TSH0
-1.174319	R A V
-1.55217	R A V0
-1.036055	R A Z
-1.886494	R A Z0
-1.572049	R A ZH
-0.714578	R0 A </s>
-1.807319	S A </s>
-1.410722	S A <sil>
-1.240751	S A B
-1.807319	S A B0
-1.961264	S A D0
-1.093125	S A F
-2.367	S A G
-1.807319	S A J0
-2.201918	S A K
-1.693891	S A KH
-1.529625	S A L
-2.201918	S A L0
-0.9116483	S A M
-2.367	S A M0
-1.529625	S A N
-2.201918	S A N0
-2.201918	S A Nl
-1.529625	S A P
-1.466117	S A R
-1.023862	S A S
-1.604038	S A S0
-1.466117	S A T
-2.367	S A TSH0
-2.201918	S A V
-1.175569	S A V0
-2.367	S A Z
-1.24927	S0 A </s>
-0.8161202	S0 A <sil>
-1.581561	S0 A B
-2.089588	S0 A D
-1.417295	S0 A F
-1.694988	S0 A G
-2.089588	S0 A I
-1.094608	S0 A K
-2.089588	S0 A L
-2.25467	S0 A M
-1.16509	S0 A N
-2.25467	S0 A O0
-1.353787	S0 A P
-2.089588	S0 A P0
-1.848933	S0 A R
-1.417295	S0 A S
-1.581561	S0 A T
-2.25467	S0 A TSH0
-2.089588	S0 A U0
-1.298391	S0 A V
-1.417295	S0 A Z
-2.25467	S0 A ZH
-1.854106	SH A <sil>
-1.689024	SH A B
-1.689024	SH A D
-1.448369	SH A D0
-1.854106	SH A F
-0.8978273	SH A G
-1.180997	SH A J0
-1.016731	SH A L
-1.854106	SH A L0
-1.854106	SH A N0
-1.854106	SH A P
-1.448369	SH A R
-1.854106	SH A S
-1.689024	SH A T
-1.091143	SH A T0
-0.636622	SH0 A <sil>
-1.015608	Sl A B
-1.015608	Sl A M
-1.18069	Sl A R
-1.689594	T A </s>
-1.52492	T A <sil>
-1.491941	T A B
-2.557733	T A B0
-1.772038	T A D
-2.200507	T A D0
-2.798388	T A D0l
-1.599498	T A F
-1.579619	T A G
-2.96347	T A Gl
-1.87389	T A I
-2.062586	T A I0
-0.9977012	T A J0
-1.209986	T A K
-1.620331	T A K0
-2.126094	T A KH
-1.620331	T A L
-2.007191	T A L0
-2.96347	T A L0l
-1.007999	T A M
-1.958069	T A M0
-1.380511	T A N
-1.620331	T A N0
-2.290361	T A O0
-1.87389	T A P
-1.162863	T A R
-1.87389	T A R0
-1.56061	T A S
-2.557733	T A S0
-2.290361	T A SH
-2.403788	T A SH0
-1.52492	T A T
-2.557733	T A T0
-2.96347	T A TS
-1.87389	T A TSH0
-2.96347	T A U0
-0.9104128	T A V
-2.403788	T A V0
-1.958069	T A Z
-2.403788	T A ZH
-1.26742	T0 A </s>
-1.26742	T0 A B
-1.432502	T0 A D
-1.432502	T0 A N
-1.432502	T0 A N0
-1.26742	T0 A T
-0.9564583	TS A </s>
-0.9564583	TS A <sil>
-2.089588	TS A B
-2.089588	TS A D
-1.848933	TS A D0
-2.089588	TS A F
-2.089588	TS A G
-1.491707	TS A I
-2.25467	TS A I0
-2.25467	TS A J0
-1.417295	TS A K
-1.848933	TS A M
-2.089588	TS A M0
-1.694988	TS A N
-1.581561	TS A P
-2.089588	TS A R
-1.417295	TS A S
-1.848933	TS A S0
-1.581561	TS A T
-0.9807941	TS A T0
-2.25467	TS A TSH0
-2.25467	TS A U
-1.24927	TS A V
-2.089588	TS A Z
-2.25467	TS A Z0
-1.39629	Tl A B
-1.39629	Tl A E0
-0.8366079	Tl A K
-1.231208	Tl A V
-1.39629	Tl A ZH
-1.075983	U A B
-1.48172	U A L0
-0.6443447	U A T
-1.316638	U A TS
-1.148505	U0 A B
-1.148505	U0 A T
-1.451612	V A </s>
-1.381071	V A <sil>
-1.88921	V A B
-2.938736	V A B0
-1.500186	V A D
-1.849156	V A D0
-1.66486	V A F
-2.533	V A G
-1.778674	V A I
-1.747305	V A I0
-0.9629086	V A J0
-1.71805	V A K
-1.153276	V A L
-1.483384	V A L0
-1.517665	V A M
-2.379055	V A M0
-1.812487	V A N
-1.933336	V A N0
-2.938736	V A Nl
-2.773654	V A O0
-1.500186	V A P
-2.938736	V A P0
-1.219773	V A R
-1.153276	V A R0
-1.287693	V A S
-1.88921	V A S0
-1.778674	V A SH
-1.849156	V A T
-1.574765	V A T0
-2.101361	V A TS
-1.574765	V A TSH0
-2.773654	V A U
-1.331877	V A V
-2.938736	V A V0
-1.517665	V A Z
-2.101361	V A Z0
-1.778674	V A ZH
-0.9177554	Y A B
-1.425782	Y A K
-0.9177554	Y A N
-1.590865	Y A N0
-0.8279017	Y A S
-1.425782	Y A T
-1.590865	Y A T0
-2.105946	Z A </s>
-1.073133	Z A B
-1.555405	Z A D
-2.346601	Z A D0
-2.346601	Z A E0
-1.385434	Z A G
-2.511683	Z A I
-1.74872	Z A J0
-1.147712	Z A K
-2.105946	Z A K0
-2.105946	Z A KH
-1.351621	Z A L
-1.6108	Z A M
-1.263588	Z A M0
-1.674308	Z A N
-1.385434	Z A N0
-1.555405	Z A P
-2.511683	Z A P0
-1.6108	Z A R
-2.346601	Z A R0
-1.040155	Z A S
-1.6108	Z A SH
-1.74872	Z A T
-1.506283	Z A T0
-1.74872	Z A TSH0
-2.511683	Z A U0
-1.168545	Z A V
-1.462157	Z A V0
-2.105946	Z A ZH
-1.356781	ZH A <sil>
-1.191699	ZH A L
-0.7970994	ZH A N
-0.9510444	ZH A S
-1.449535	Zl A B
-1.284453	Zl A K
-1.449535	Zl A M0
-1.449535	Zl A N0
-1.284453	Zl A T
-1.449535	Zl A U0
-0.5116832	<s> A0 GH
-1.238308	B A0 J0
-1.79799	B A0 K
-1.79799	B A0 K0
-1.79799	B A0 KH
-1.79799	B A0 KH0
-1.124881	B A0 L
-1.238308	B A0 L0
-1.79799	B A0 M0
-1.632908	B A0 N0
-0.9606147	B A0 R
-1.238308	B A0 SH
-1.632908	B A0 T
-1.79799	B A0 V
-1.79799	B A0 V0
-1.482264	B0 A0 </s>
-1.087664	B0 A0 <sil>
-1.087664	B0 A0 F
-1.647346	B0 A0 I
-1.241609	B0 A0 K
-1.647346	B0 A0 N
-1.647346	B0 A0 O0
-1.482264	B0 A0 P
-1.647346	B0 A0 R
-1.482264	B0 A0 S
-1.647346	B0 A0 T
-1.482264	B0 A0 Z
-1.738467	D A0 </s>
-1.941748	D A0 <sil>
-1.828321	D A0 D
-2.50143	D A0 D0
-2.50143	D A0 E0
-2.336348	D A0 F
-1.738467	D A0 G
-1.664054	D A0 I
-2.50143	D A0 I0
-1.227554	D A0 J0
-2.336348	D A0 K
-1.180174	D A0 L
-1.41185	D A0 L0
-1.253335	D A0 M
-2.50143	D A0 M0
-1.600546	D A0 N
-1.180174	D A0 N0
-1.828321	D A0 O0
-1.41185	D A0 P
-1.545151	D A0 R
-2.095693	D A0 R0
-1.451903	D A0 S
-2.336348	D A0 S0
-1.37518	D A0 T
-1.280743	D A0 T0
-1.941748	D A0 TSH0
-1.738467	D A0 U
-1.941748	D A0 U0
-1.941748	D A0 V
-1.941748	D A0 V0
-2.095693	D A0 Z
-1.029901	D A0 ZH
-0.9800301	D0 A0 D0
-1.539712	D0 A0 J0
-0.8666029	D0 A0 M0
-1.37463	D0 A0 P
-0.6388284	D0 A0 SH0
-1.37463	D0 A0 T
-0.3466012	D0l A0 D0
-0.937652	Dl A0 T0
-0.937652	Dl A0 ZH
-1.034562	F A0 B
-1.034562	F A0 N
-1.766956	G A0 <sil>
-1.766956	G A0 D
-0.9295805	G A0 J0
-1.361219	G A0 KH
-0.7615553	G A0 L
-1.766956	G A0 M
-1.093847	G A0 N
-1.766956	G A0 Nl
-1.601874	G A0 R
-1.207274	G A0 S0l
-1.300844	I A0 D
-1.465926	I A0 L0
-0.5650422	I A0 N
-0.702963	I A0 N0
-1.465926	I A0 T
-1.889853	J0 A0 </s>
-1.776426	J0 A0 <sil>
-1.548652	J0 A0 B
-1.289473	J0 A0 D
-1.400009	J0 A0 F
-1.61216	J0 A0 I
-1.228849	J0 A0 J0
-1.61216	J0 A0 K
-2.449535	J0 A0 K0
-2.043798	J0 A0 KH
-1.359955	J0 A0 L
-2.284453	J0 A0 L0
-2.449535	J0 A0 M
-1.493257	J0 A0 N
-1.175659	J0 A0 N0
-2.284453	J0 A0 Nl
-2.043798	J0 A0 O0
-1.359955	J0 A0 P
-1.548652	J0 A0 R
-1.323286	J0 A0 S
-1.776426	J0 A0 SH0
-1.258104	J0 A0 T
-1.400009	J0 A0 T0
-2.043798	J0 A0 U
-2.284453	J0 A0 U0
-1.289473	J0 A0 V
-1.889853	J0 A0 V0
-1.493257	J0 A0 Z
-1.776426	J0 A0 ZH
-0.5116832	J0l A0 Z
-2.359438	K A0 </s>
-2.52452	K A0 <sil>
-2.359438	K A0 D
-2.118784	K A0 F
-1.085971	K A0 G
-2.359438	K A0 I
-1.022342	K A0 J0
-0.4355347	K A0 K
-1.761558	K A0 KH
-2.359438	K A0 Kl
-1.398271	K A0 L
-2.118784	K A0 L0
-2.52452	K A0 M
-1.276425	K A0 M0
-2.359438	K A0 Ml
-2.118784	K A0 N
-2.118784	K A0 N0
-2.118784	K A0 P
-1.964839	K A0 R
-2.359438	K A0 R0
-2.118784	K A0 S
-2.52452	K A0 SH
-2.118784	K A0 T
-1.568242	K A0 T0
-2.52452	K A0 TS
-2.52452	K A0 U
-1.761558	K A0 Z
-1.398271	K A0 ZH
-1.313316	KH A0 J0
-0.9075787	KH A0 N0
-1.313316	KH A0 R
-1.313316	KH A0 T
-1.313316	KH A0 U
-1.313316	KH A0 V
-0.937652	Kl A0 G
-0.2645429	Kl A0 K
-1.673207	L A0 </s>
-1.673207	L A0 <sil>
-1.508941	L A0 B
-1.583353	L A0 D
-2.181234	L A0 D0
-1.508941	L A0 F
-2.346316	L A0 G
-2.181234	L A0 G0
-1.125629	L A0 J0
-1.673207	L A0 K
-2.181234	L A0 L
-1.786634	L A0 M
-2.346316	L A0 M0
-1.256736	L A0 N
-1.583353	L A0 N0
-2.346316	L A0 O0
-1.256736	L A0 P
-1.940579	L A0 R
-1.340915	L A0 S
-1.673207	L A0 S0
-1.786634	L A0 SH0
-2.181234	L A0 Sl
-1.125629	L A0 T
-1.583353	L A0 T0
-1.786634	L A0 TSH0
-2.346316	L A0 U
-2.346316	L A0 U0
-1.154884	L A0 V
-2.346316	L A0 V0
-2.181234	L A0 Z
-2.181234	L A0 Z0
-0.8983932	L0 A0 D
-1.903794	L0 A0 D0
-1.738712	L0 A0 F
-1.903794	L0 A0 G
-0.8142137	L0 A0 J0
-1.140831	L0 A0 L
-1.344112	L0 A0 L0
-1.344112	L0 A0 N
-1.903794	L0 A0 P
-1.903794	L0 A0 S
-1.230685	L0 A0 T
-1.498057	L0 A0 T0
-1.903794	L0 A0 TS
-1.903794	L0 A0 V
-1.903794	L0 A0 Z
-2.235959	M A0 </s>
-1.676277	M A0 <sil>
-1.56285	M A0 G
-2.235959	M A0 G0
-1.015272	M A0 J0
-2.235959	M A0 K
-2.235959	M A0 KH
-2.235959	M A0 KH0
-1.146379	M A0 L
-0.9147031	M A0 L0
-1.398584	M A0 N
-1.472996	M A0 N0
-2.070877	M A0 P
-1.044528	M A0 R
-1.56285	M A0 S
-2.070877	M A0 S0
-1.830222	M A0 SH
-1.676277	M A0 T
-0.987864	M A0 T0
-2.235959	M A0 TS
-1.56285	M A0 TSH0
-2.235959	M A0 V0
-0.7080064	M0 A0 KH
-1.113743	M0 A0 N
-1.113743	M0 A0 N0
-0.9486612	M0 A0 SH0
-0.733532	Ml A0 L
-0.56845	Ml A0 R
-1.855608	N A0 </s>
-1.969035	N A0 <sil>
-1.627833	N A0 B
-1.969035	N A0 B0
-1.185578	N A0 D
-2.528717	N A0 D0
-2.528717	N A0 F
-2.363635	N A0 G
-2.528717	N A0 I
-0.9842725	N A0 J0
-1.439137	N A0 K
-2.528717	N A0 KH
-1.185578	N A0 L
-1.627833	N A0 L0
-1.368654	N A0 M
-1.969035	N A0 M0
-1.969035	N A0 N
-1.572438	N A0 N0
-1.337285	N A0 P
-1.107645	N A0 S
-1.572438	N A0 SH
-1.30803	N A0 T
-1.691341	N A0 T0
-1.368654	N A0 TS
-1.254841	N A0 TSH0
-2.363635	N A0 U
-1.855608	N A0 V
-2.528717	N A0 V0
-1.855608	N A0 Z
-2.12298	N A0 ZH
-1.366975	N0 A0 </s>
-1.52092	N0 A0 <sil>
-1.926657	N0 A0 B
-0.970378	N0 A0 F
-1.52092	N0 A0 I
-1.253548	N0 A0 J0
-1.163694	N0 A0 L
-1.761575	N0 A0 L0
-1.926657	N0 A0 N
-1.366975	N0 A0 N0
-1.761575	N0 A0 O0
-1.926657	N0 A0 S
-1.761575	N0 A0 T
-1.089281	N0 A0 T0
-1.926657	N0 A0 V0
-1.089281	P A0 D
-1.761575	P A0 J0
-1.761575	P A0 KH
-0.9212561	P A0 L
-0.8004073	P A0 L0
-1.163694	P A0 M0
-1.926657	P A0 N
-1.163694	P A0 R
-1.926657	P A0 R0
-1.253548	P A0 SH
-1.761575	P A0 T0
-1.926657	P A0 V0
-1.52092	P A0 ZH
-1.284453	P0 A0 SH0
-0.2581039	P0 A0 T0
-1.449535	P0 A0 TS
-1.284453	P0 A0 Tl
-2.551758	R A0 </s>
-1.992076	R A0 <sil>
-1.391696	R A0 D
-2.146021	R A0 D0
-2.146021	R A0 F
-2.146021	R A0 F0
-1.208619	R A0 J0
-2.551758	R A0 J0l
-2.146021	R A0 K
-2.146021	R A0 K0
-1.788795	R A0 KH
-1.595479	R A0 L
-1.788795	R A0 L0
-1.878649	R A0 M
-1.360326	R A0 N
-1.788795	R A0 N0
-2.551758	R A0 N0l
-1.714383	R A0 Nl
-0.8702966	R A0 S
-2.386676	R A0 S0
-1.502231	R A0 SH
-1.208619	R A0 T
-1.462178	R A0 T0
-1.878649	R A0 TS
-1.546357	R A0 TSH0
-1.096406	R A0 V
-1.546357	R A0 V0
-1.02095	R A0 Z
-1.878649	R A0 Z0
-2.551758	R A0 ZH
-2.551758	R A0 Zl
-0.8144913	R0 A0 D
-1.819892	R0 A0 J0
-1.414155	R0 A0 L
-1.65481	R0 A0 M
-0.9825165	R0 A0 M0
-1.819892	R0 A0 S0
-0.8636132	R0 A0 T
-1.65481	R0 A0 T0
-1.414155	R0 A0 TSH0
-1.414155	R0 A0 Z
-1.840742	S A0 <sil>
-1.67566	S A0 D0
-1.67566	S A0 J0
-1.28106	S A0 KH
-1.840742	S A0 L
-0.3385633	S A0 M
-1.077779	S A0 M0
-1.435005	S A0 T0
-1.840742	S A0 V0
-1.590865	S0 A0 D
-1.590865	S0 A0 F
-0.7534891	S0 A0 K
-0.6899809	S0 A0 K0
-1.425782	S0 A0 SH0
-1.590865	S0 A0 T
-1.625627	SH A0 </s>
-1.460545	SH A0 F
-1.625627	SH A0 G
-1.21989	SH A0 J0
-1.625627	SH A0 P
-0.6202261	SH A0 R
-1.21989	SH A0 R0
-1.625627	SH A0 T0
-1.625627	SH A0 ZH
-0.5589145	SH0 A0 J0
-1.231208	SH0 A0 L
-1.231208	SH0 A0 L0
-1.39629	SH0 A0 S
-1.39629	SH0 A0 S0
-1.231208	SH0 A0 T0
-2.492444	T A0 B
-1.819335	T A0 F
-1.932762	T A0 F0
-1.271757	T A0 G
-2.492444	T A0 Gl
-1.271757	T A0 J0
-0.8414003	T A0 K
-2.492444	T A0 KH
-2.086707	T A0 Kl
-0.7473366	T A0 L
-1.128472	T A0 L0
-1.053894	T A0 M
-2.327362	T A0 M0
-2.327362	T A0 N
-1.536165	T A0 N0
-1.301013	T A0 R
-2.492444	T A0 S
-2.492444	T A0 SH
-1.729481	T A0 T
-1.932762	T A0 T0
-2.492444	T A0 TS
-1.729481	T A0 V
-1.301013	T A0 V0
-2.327362	T A0 ZH
-1.265011	T0 A0 B
-0.859274	T0 A0 G0
-1.265011	T0 A0 SH0
-1.099929	T0 A0 T
-0.9298551	TS A0 </s>
-1.335592	TS A0 <sil>
-1.335592	TS A0 K
-1.335592	TS A0 N
-1.335592	TS A0 R
-1.335592	TS A0 T0
-2.134933	TSH0 A0 </s>
-1.969851	TSH0 A0 F
-0.6478086	TSH0 A0 J0
-2.134933	TSH0 A0 KH
-0.7510818	TSH0 A0 L
-1.461823	TSH0 A0 L0
-2.134933	TSH0 A0 M
-2.134933	TSH0 A0 M0
-1.575251	TSH0 A0 N0
-0.9435011	TSH0 A0 S
-1.969851	TSH0 A0 S0
-1.575251	TSH0 A0 SH
-1.575251	TSH0 A0 SH0
-1.969851	TSH0 A0 Sl
-1.969851	TSH0 A0 T
-1.969851	TSH0 A0 T0
-1.575251	TSH0 A0 Z
-0.3199781	U A0 R
-2.420168	V A0 <sil>
-2.420168	V A0 B
-2.420168	V A0 D
-2.255086	V A0 F
-0.9816184	V A0 J0
-0.8496722	V A0 L
-1.121956	V A0 L0
-1.260106	V A0 M
-2.420168	V A0 M0
-1.519285	V A0 N
-1.582793	V A0 N0
-1.260106	V A0 R
-1.172073	V A0 R0
-1.228737	V A0 S
-1.293919	V A0 SH
-1.370642	V A0 T
-1.330588	V A0 T0
-1.582793	V A0 TS
-2.255086	V A0 TSH0
-2.420168	V A0 V
-2.420168	V A0 Z
-1.747059	V A0 ZH
-1.289834	V0 A0 KH
-1.289834	V0 A0 Nl
-0.3889509	V0 A0 Z
-2.297013	Z A0 D
-2.297013	Z A0 D0
-1.340734	Z A0 F
-2.297013	Z A0 G
-2.131931	Z A0 J0
-2.131931	Z A0 KH
-0.3970475	Z A0 L
-1.340734	Z A0 L0
-2.297013	Z A0 Ll
-1.891276	Z A0 M
-2.131931	Z A0 M0
-1.623904	Z A0 N
-1.623904	Z A0 N0
-1.136951	Z A0 P
-2.131931	Z A0 R
-2.131931	Z A0 S
-1.737331	Z A0 T
-1.105582	Z A0 T0
-1.737331	Z A0 TS
-1.39629	Z0 A0 B
-1.39629	Z0 A0 F
-0.8366079	Z0 A0 I
-0.990553	Z0 A0 L
-1.39629	Z0 A0 S
-1.39629	Z0 A0 SH0
-1.357088	ZH A0 F
-0.8387657	ZH A0 J0
-0.4351239	ZH A0 L
-1.073919	ZH A0 L0
-1.865115	ZH A0 M0
-1.470515	ZH A0 R
-2.030197	ZH A0 R0
-1.865115	ZH A0 S
-2.030197	ZH A0 SH0
-1.357088	ZH A0 T0
-1.865115	ZH A0 ZH
-0.733532	Zl A0 D0
-1.148505	D Al B
-0.3855426	D Al N
-0.5116832	G Al N0
-1.356781	J0 Al D0
-1.356781	J0 Al P
-1.356781	J0 Al P0
-1.191699	J0 Al R
-0.7970994	J0 Al T
-1.18069	K Al D
-1.015608	K Al N0
-1.18069	K Al R
-0.3335559	L Al N
-0.8840976	L Al T
-0.733532	M Al R0
-1.539712	N Al B
-1.133975	N Al D
-1.37463	N Al P
-1.539712	N Al P0
-1.133975	N Al S
-1.37463	N Al S0
-1.37463	N Al T
-1.539712	N Al TSH0
-0.77257	P Al D0
-0.636622	R Al N0
-0.937652	S Al B
-0.77257	S Al P
-0.2530314	S0 Al T
-0.9888045	T Al T
-0.937652	TS Al S
-0.937652	TS Al T
-1.284453	V Al B
-1.449535	V Al G
-1.449535	V Al N0
-0.6865726	V Al P
-1.449535	V Al R
-1.449535	V Al S
-1.284453	V Al T
-1.289834	<s> B R
-0.8840976	<s> B U0
-0.3889509	<s> B Y0
-0.905521	<sil> B A
-1.57863	<sil> B L
-1.57863	<sil> B R
-0.7412547	<sil> B U0
-0.7412547	<sil> B Y
-0.905521	<sil> B Y0
-1.09162	A B A
-1.28404	A B A0
-2.475471	A B D
-2.069734	A B E0
-1.470071	A B J0
-1.638096	A B L
-1.227376	A B L0
-2.310389	A B M
-2.069734	A B N0
-0.7940098	A B O0
-1.036921	A B R
-1.638096	A B R0
-1.519192	A B U
-1.519192	A B U0
-1.003943	A B Y
-0.7565074	A B Y0
-1.004906	A0 B A
-1.118333	A0 B L
-1.512933	A0 B R
-1.272278	A0 B R0
-1.272278	A0 B U0
-0.628488	A0 B Y
-1.118333	A0 B Y0
-0.5540614	Al B R
-1.113743	Al B Y
-1.335592	D B A
-0.9298551	D B O0
-0.2860653	D B Y0
-0.7749531	D0 B A
-0.7749531	D0 B Y
-0.7749531	D0 B Y0
-0.5834334	E0 B A
-1.539712	E0 B N
-1.539712	E0 B O0
-1.37463	E0 B R0
-1.37463	E0 B U
-1.539712	E0 B Y
-0.6388284	E0 B Y0
-1.335592	G B L0
-0.5726292	G B U0
-0.4982167	G B Y
-1.335592	G B Y0
-1.39629	GH B L0
-1.39629	GH B O0
-1.231208	GH B U0
-0.990553	GH B Y
-0.4954063	GH B Y0
-0.8167184	I B A
-1.131163	I B A0
-2.015608	I B L
-1.17529	I B L0
-1.417727	I B O0
-1.17529	I B R
-2.015608	I B R0
-0.8167184	I B U
-1.417727	I B U0
-1.17529	I B Y
-0.7253379	I B Y0
-1.099929	I0 B A
-1.265011	I0 B L0
-1.099929	I0 B Y
-0.5919018	I0 B Y0
-0.335592	Il B A
-1.075955	J0 B A0
-0.5162728	J0 B Y0
-0.8237225	L B R
-0.4291226	L B Y
-0.636622	L0 B O0
-0.9662418	M B A
-1.525924	M B A0
-0.9662418	M B L0
-1.120187	M B O0
-1.525924	M B R
-1.525924	M B U
-1.360842	M B Y
-0.8528146	M B Y0
-1.313316	N B A0
-1.313316	N B O0
-1.313316	N B U
-0.2637889	N B Y0
-1.563324	O0 B A
-1.563324	O0 B L0
-1.068177	O0 B N
-1.295951	O0 B O0
-1.295951	O0 B R
-1.96906	O0 B U0
-0.3507265	O0 B Y
-0.8794804	O0 B Y0
-0.1746892	R B U0
-0.335592	R0 B Y0
-1.28106	U B A
-0.8353415	U B A0
-1.28106	U B L0
-1.840742	U B N0
-0.4976032	U B O0
-1.840742	U B U
-1.435005	U B U0
-1.28106	U B V0
-1.28106	U B Y0
-0.4634959	U0 B A
-1.553076	U0 B L0
-1.553076	U0 B O0
-0.7157006	U0 B Y
-1.553076	U0 B Y0
-1.034562	V B L
-1.034562	V B R0
-1.034562	V B U
-1.034562	V B Y0
-0.335592	V0 B U0
-0.9933941	Y B A
-0.7901132	Y B A0
-1.553076	Y B D
-1.147339	Y B N
-1.553076	Y B Y
-0.5967973	Y B Y0
-1.075955	Y0 B A
-1.075955	Y0 B R
-1.075955	Y0 B U0
-1.075955	Y0 B Y0
-0.9510444	Z B A
-1.356781	Z B A0
-1.356781	Z B O0
-0.6836722	Z B R
-1.191699	Z B U
-1.191699	Z B U0
-0.937652	Z0 B A0
-0.937652	Z0 B Y
-0.636622	ZH B O0
-0.2308851	<s> B0 I
-1.124752	<sil> B0 E0
-0.1635852	<sil> B0 I
-0.6068937	A B0 E0
-0.2361482	A B0 I
-1.361219	A B0 I0
-1.766956	A B0 J0
-0.1746892	A0 B0 I
-0.77257	D B0 E0
-0.3779701	D B0 I
-0.636622	D0 B0 E0
-0.636622	D0 B0 I
-0.2476218	E0 B0 I
-0.335592	G B0 I
-0.4769207	I B0 A0
-0.4542669	I B0 E0
-2.08378	I B0 E0l
-0.8356849	I B0 I
-1.918698	I B0 I0
-1.410671	I B0 O0
-2.08378	I B0 U0
-0.4739231	J0 B0 E0
-0.714578	J0 B0 I
-0.1738501	M B0 I
-0.03943963	O0 B0 I
-0.5116832	R B0 I
-0.7231332	U B0 E0
-0.4288625	U B0 I
-0.5145015	U B0 I0
-0.1922268	U0 B0 I
-0.9888045	V B0 E0
-0.2258417	V B0 I
-0.937652	Y B0 E0
-0.937652	Y B0 I
-0.937652	Y B0 J0
-0.56845	Y0 B0 I
-0.733532	Y0 B0 J0
-0.9510444	Z B0 E0
-0.5938185	Z B0 I
-0.4558977	Z B0 I0
-0.2308851	Z0 B0 I
-0.335592	ZH B0 I
-0.7157006	<s> D A
-0.4634959	<s> D A0
-1.387994	<s> D L0
-1.553076	<s> D O0
-1.387994	<s> D R
-0.6082847	<sil> D A
-0.5682313	<sil> D A0
-1.657811	<sil> D R
-1.657811	<sil> D R0
-1.657811	<sil> D U0
-1.252074	<sil> D V
-1.657811	<sil> D V0
-1.657811	<sil> D Y
-0.761462	A D A
-1.060057	A D A0
-2.425782	A D B
-2.031183	A D B0
-2.590864	A D E0
-1.585464	A D G
-1.917755	A D J0
-2.590864	A D L
-1.541338	A D L0
-2.590864	A D M
-2.031183	A D M0
-0.8809772	A D N
-1.020368	A D N0
-1.060057	A D O0
-1.269608	A D R
-2.590864	A D R0
-1.917755	A D U
-1.226893	A D U0
-1.541338	A D V
-1.399433	A D V0
-2.590864	A D Y
-1.689981	A D Y0
-2.590864	A D Z
-2.590864	A D ZH
-0.3217007	A0 D A
-1.926385	A0 D A0
-1.531785	A0 D B
-2.091467	A0 D G
-2.091467	A0 D L0
-1.68573	A0 D N
-1.926385	A0 D N0
-1.926385	A0 D O0
-1.254092	A0 D U
-1.190583	A0 D U0
-0.8707801	A0 D Y
-0.1083427	Al D N
-0.636622	B D V0
-0.335592	B0 D A
-0.8111101	E0 D A
-0.9043582	E0 D L0
-1.300955	E0 D N
-0.5867608	E0 D N0
-0.9043582	E0 D U
-1.695555	E0 D Y
-1.695555	E0 D Z
-1.546762	G D A
-0.09713744	G D A0
-1.433335	G D Al
-2.106444	G D O0
-1.433335	G D R
-2.106444	G D V0
-0.5888235	GH D A
-1.148505	GH D U
-0.7887248	I D A
-0.8801054	I D A0
-2.078995	I D B
-2.244077	I D G
-1.684395	I D L
-1.19455	I D L0
-2.244077	I D M0
-2.078995	I D N0
-1.084015	I D O0
-1.343193	I D R
-1.406702	I D U
-0.8801054	I D U0
-1.684395	I D V
-1.19455	I D V0
-2.244077	I D Y0
-2.078995	I D Z
-1.83834	I D ZH
-1.031183	I0 D A
-0.3701777	I0 D N
-1.590865	I0 D N0
-1.590865	I0 D R
-1.031183	I0 D Y
-0.7593929	J0 D A
-1.26742	J0 D A0
-0.7593929	J0 D O0
-1.026765	J0 D R
-1.432502	J0 D U0
-0.990553	L D A
-0.4954063	L D A0
-1.231208	L D R
-0.7231808	L D V0
-0.5116832	L0 D Y0
-1.300844	M D A
-1.465926	M D L0
-1.300844	M D N0
-0.6285504	M D O0
-1.300844	M D V
-0.9062439	M D V0
-1.265011	N D A
-1.099929	N D A0
-1.265011	N D O0
-0.7053291	N D R
-1.265011	N D Y
-0.4417895	O0 D A
-1.452604	O0 D A0
-1.847204	O0 D B
-2.012286	O0 D G
-2.012286	O0 D L0
-0.9227056	O0 D N
-1.111402	O0 D N0
-2.012286	O0 D R
-1.452604	O0 D U
-2.012286	O0 D V
-1.339177	O0 D Y
-2.012286	O0 D Z
-1.452604	O0 D ZH
-0.4069764	R D A
-0.9597532	U D A
-0.2537775	U D A0
-1.4549	U D G
-1.860637	U D L0
-1.097674	U D O0
-1.695555	U D V
-0.5107427	U0 D A
-1.593756	U0 D Al
-0.9214625	U0 D N
-1.593756	U0 D R
-0.8025593	U0 D U
-1.199156	U0 D ZH
-0.7008568	V D A
-1.790437	V D A0
-1.117328	V D O0
-0.4472981	V D R
-1.3847	V D U
-1.790437	V D V
-1.014665	Y D A
-0.4670877	Y D A0
-1.014665	Y D B
-1.687775	Y D N0
-1.282038	Y D O0
-1.522692	Y D R
-1.687775	Y D V0
-0.4406342	Y0 D A
-0.9486612	Y0 D U0
-0.5766289	Z D A
-0.9970013	Z D A0
-1.732803	Z D G
-1.732803	Z D O0
-1.732803	Z D R
-0.8924844	Z D U
-1.224776	Z D U0
-1.492148	Z D V
-1.338203	Z D V0
-1.732803	Z D Y
-0.9108726	Z0 D A
-1.075955	Z0 D O0
-0.8579543	ZH D A
-0.4375819	ZH D A0
-0.8025593	ZH D U
-0.7534373	ZH D Y
-0.335592	ZH0 D A
-0.56845	<s> D0 E0
-0.733532	<s> D0 I
-0.3156954	<sil> D0 I
-1.153825	A D0 A0
-0.6186533	A D0 E0
-0.777896	A D0 I
-0.4236679	A D0 I0
-1.442699	A D0 O0
-2.280075	A D0 Z
-2.280075	A D0 ZH
-0.9177554	A0 D0 A
-0.9177554	A0 D0 B
-0.4308024	A0 D0 I
-1.590865	A0 D0 U
-1.185128	A0 D0 Z
-0.77257	Al D0 E0
-0.77257	Al D0 I
-0.937652	Al D0 I0
-1.060189	E0 D0 E0
-0.3058636	E0 D0 I
-0.04969653	G D0 E0
-1.668031	G D0 I
-0.4715399	GH D0 I
-1.491787	I D0 A0
-1.999814	I D0 B
-0.4737509	I D0 E0
-2.164896	I D0 G
-0.6072304	I D0 I
-0.6933672	I D0 I0
-1.159495	I D0 O0
-1.593756	I0 D0 E0
-0.06769303	I0 D0 I
-1.289834	J0 D0 A0
-0.4524592	J0 D0 E0
-1.289834	J0 D0 I
-0.6167254	J0 D0 O0
-0.733532	M D0 E0
-0.56845	M D0 I
-0.2308851	M0 D0 I
-0.714578	N D0 E0
-0.4739231	N D0 I
-0.9486612	N0 D0 E0
-0.5540614	N0 D0 I
-0.9486612	N0 D0 I0
-1.566041	O0 D0 B
-1.160304	O0 D0 E0
-0.1631813	O0 D0 I
-1.566041	O0 D0 J0
-0.4028456	R D0 I
-1.075955	R D0 I0
-1.075955	R D0 Il
-0.335592	R0 D0 E0
-1.208609	U D0 A0
-0.4542835	U D0 E0
-0.8513828	U D0 I
-0.9412365	U D0 I0
-0.05089726	U0 D0 I
-0.7080064	V D0 E0
-0.4406342	V D0 I
-0.8237225	Y D0 E0
-0.9888045	Y D0 I0
-0.9888045	Y D0 O0
-0.8127133	Y0 D0 G
-0.6476312	Y0 D0 I
-0.4715399	Z D0 E0
-0.1308547	Z0 D0 E0
-0.9398584	Z0 D0 I
-1.840742	Z0 D0 ZH
-0.335592	Z0l D0 E0
-0.7231808	ZH D0 E0
-0.6333271	ZH D0 I
-0.4954063	ZH D0 O0
-0.87966	A D0l E0
-0.714578	A D0l I
-0.5116832	O0 D0l E0
-0.335592	Y0 D0l I
-0.335592	Z0 D0l E0
-0.335592	A DZ0 E0
-0.636622	O0 DZH0 D
-0.4069764	A Dl A0
-0.937652	I Dl A
-0.937652	I Dl O0
-0.3466012	O0 Dl A
-1.313316	<s> E0 Ml
-0.3079151	<s> E0 T
-0.207844	<sil> E0 T
-1.075983	<sil> E0 T0
-1.230885	A E0 Ml
-1.636622	A E0 R
-0.1650935	A E0 T
-1.230885	A E0 T0
-0.1738501	A0 E0 T
-0.2308851	B E0 T
-1.611096	B0 E0 </s>
-1.851751	B0 E0 <sil>
-2.016833	B0 E0 A
-1.343724	B0 E0 D
-1.851751	B0 E0 D0
-1.343724	B0 E0 G
-1.851751	B0 E0 I
-1.851751	B0 E0 J0
-2.016833	B0 E0 K
-1.060555	B0 E0 L
-1.457151	B0 E0 N
-1.851751	B0 E0 P
-1.343724	B0 E0 R
-1.457151	B0 E0 R0
-2.016833	B0 E0 S
-1.343724	B0 E0 SH
-1.851751	B0 E0 T
-2.016833	B0 E0 U
-2.016833	B0 E0 V
-1.179458	B0 E0 Z
-1.611096	B0 E0 ZH
-2.439396	D0 E0 </s>
-2.439396	D0 E0 A
-2.439396	D0 E0 B
-1.676433	D0 E0 F
-2.274314	D0 E0 G
-1.16552	D0 E0 J0
-2.439396	D0 E0 K
-0.5895843	D0 E0 L
-1.279334	D0 E0 L0
-2.439396	D0 E0 M
-1.766287	D0 E0 N
-0.9085882	D0 E0 N0
-2.033659	D0 E0 P
-2.274314	D0 E0 R
-2.439396	D0 E0 R0
-2.439396	D0 E0 S
-1.000846	D0 E0 S0
-2.439396	D0 E0 Sl
-1.538512	D0 E0 T
-1.433995	D0 E0 T0
-2.439396	D0 E0 TSH0
-1.538512	D0 E0 V
-1.538512	D0 E0 ZH
-0.87966	D0l E0 L
-0.3199781	D0l E0 N0
-0.335592	DZ0 E0 M
-0.8329451	F0 E0 N0l
-0.4757192	F0 E0 R
-1.238682	F0 E0 T
-0.636622	G E0 G
-0.8237225	G0 E0 J0
-0.9888045	G0 E0 R
-0.1574647	I E0 T
-0.3466012	I0 E0 T
-1.608419	J0 E0 D
-1.405138	J0 E0 D0
-2.168101	J0 E0 F
-0.7470296	J0 E0 J0
-1.1627	J0 E0 KH
-2.003019	J0 E0 L
-1.494992	J0 E0 R
-0.7127488	J0 E0 S
-0.7652413	J0 E0 S0
-1.608419	J0 E0 Z
-1.762364	J0 E0 Z0
-1.267217	J0 E0 ZH
-0.1396042	K E0 T
-1.48172	K0 E0 </s>
-1.316638	K0 E0 J0
-0.808611	K0 E0 M
-1.075983	K0 E0 O0
-1.48172	K0 E0 T
-1.075983	K0 E0 V0
-0.4715399	L E0 T
-2.265011	L0 E0 A
-0.9218721	L0 E0 D
-2.265011	L0 E0 D0
-2.099929	L0 E0 F
-1.591902	L0 E0 J0
-2.265011	L0 E0 K
-2.099929	L0 E0 KH
-2.099929	L0 E0 M
-2.099929	L0 E0 M0
-2.099929	L0 E0 N
-0.7342033	L0 E0 N0
-1.215484	L0 E0 S
-1.591902	L0 E0 S0
-0.7628322	L0 E0 T
-2.099929	L0 E0 T0
-1.591902	L0 E0 TS
-1.859274	L0 E0 TSH0
-2.265011	L0 E0 Tl
-1.591902	L0 E0 V
-1.591902	L0 E0 Z
-2.265011	L0 E0 Z0
-0.733532	L0l E0 R0
-0.714578	M E0 T
-2.275111	M0 E0 </s>
-2.275111	M0 E0 B0
-1.269711	M0 E0 D
-2.275111	M0 E0 D0
-1.027016	M0 E0 J0
-1.115049	M0 E0 L
-1.512148	M0 E0 L0
-1.269711	M0 E0 N
-1.602002	M0 E0 N0
-1.512148	M0 E0 Nl
-1.148862	M0 E0 R
-1.869374	M0 E0 R0
-1.318833	M0 E0 S
-1.115049	M0 E0 S0
-1.869374	M0 E0 SH
-1.512148	M0 E0 SH0
-1.148862	M0 E0 T
-1.269711	M0 E0 T0
-1.869374	M0 E0 TS
-1.602002	M0 E0 ZH
-0.5116832	M0l E0 S0
-0.77257	N E0 <sil>
-0.937652	N E0 T
-1.297746	N0 E0 </s>
-1.694845	N0 E0 <sil>
-1.331559	N0 E0 B
-2.457808	N0 E0 B0
-2.457808	N0 E0 D
-2.457808	N0 E0 D0
-2.292726	N0 E0 F
-2.457808	N0 E0 G
-0.9556292	N0 E0 J0
-1.408281	N0 E0 K
-2.457808	N0 E0 KH
-1.898126	N0 E0 L
-2.052071	N0 E0 L0
-1.501529	N0 E0 M
-1.898126	N0 E0 N
-2.052071	N0 E0 N0
-2.457808	N0 E0 Nl
-1.694845	N0 E0 P
-1.620432	N0 E0 R
-0.9133638	N0 E0 S
-1.620432	N0 E0 SH
-0.9133638	N0 E0 T
-2.052071	N0 E0 T0
-1.159596	N0 E0 TS
-1.452407	N0 E0 TSH0
-2.457808	N0 E0 U
-1.898126	N0 E0 V
-2.457808	N0 E0 ZH
-0.636622	N0l E0 B
-0.1196761	O0 E0 T
-2.071989	P0 E0 F
-1.066588	P0 E0 L
-2.071989	P0 E0 N0
-0.9824085	P0 E0 R
-0.2221771	P0 E0 R0
-2.071989	P0 E0 T0
-1.666252	P0 E0 TSH0
-1.578937	R0 E0 B
-2.086964	R0 E0 B0
-1.578937	R0 E0 D
-2.252046	R0 E0 D0
-2.252046	R0 E0 F
-1.351162	R0 E0 J0
-2.252046	R0 E0 K
-1.246645	R0 E0 L
-1.578937	R0 E0 L0
-2.252046	R0 E0 Ll
-0.8681952	R0 E0 M0
-2.252046	R0 E0 N0
-1.489083	R0 E0 P
-1.692364	R0 E0 S
-1.162466	R0 E0 T
-0.97817	R0 E0 T0
-1.578937	R0 E0 TS
-1.202519	R0 E0 TSH0
-1.692364	R0 E0 V
-1.578937	R0 E0 V0
-2.252046	R0 E0 Z
-1.295767	R0 E0 ZH
-2.036797	S0 E0 A
-2.036797	S0 E0 B
-1.438917	S0 E0 D
-2.201879	S0 E0 D0
-2.201879	S0 E0 G
-1.438917	S0 E0 J0
-1.642197	S0 E0 K
-1.196479	S0 E0 KH
-1.245601	S0 E0 L
-1.642197	S0 E0 L0
-0.9811926	S0 E0 M
-1.152353	S0 E0 M0
-2.201879	S0 E0 Ml
-2.201879	S0 E0 N
-1.52877	S0 E0 N0
-1.796142	S0 E0 N0l
-1.796142	S0 E0 P
-1.112299	S0 E0 R
-1.642197	S0 E0 T
-1.642197	S0 E0 T0
-2.036797	S0 E0 U
-1.52877	S0 E0 V0
-1.796142	S0 E0 Z
-1.636622	SH E0 I
-0.9635129	SH E0 J0
-0.7992467	SH E0 N0
-1.07694	SH E0 Nl
-1.636622	SH E0 R
-1.07694	SH E0 S
-0.9635129	SH E0 S0
-1.636622	SH E0 T
-1.105946	SH0 E0 L0
-0.7487205	SH0 E0 N0
-1.511683	SH0 E0 P
-0.7487205	SH0 E0 S
-0.6702178	T E0 T
-0.6702178	T E0 T0
-2.192924	T0 E0 <sil>
-1.787188	T0 E0 DZ
-1.519815	T0 E0 J0
-1.787188	T0 E0 K
-1.787188	T0 E0 KH
-0.7718532	T0 E0 L
-1.187524	T0 E0 L0
-1.143398	T0 E0 M
-1.429962	T0 E0 N
-1.032862	T0 E0 N0
-2.192924	T0 E0 P
-1.633243	T0 E0 P0
-2.192924	T0 E0 R0
-1.633243	T0 E0 S
-1.519815	T0 E0 T
-1.519815	T0 E0 T0
-1.292041	T0 E0 TS
-2.027843	T0 E0 TSH0
-1.633243	T0 E0 ZH
-1.609843	TS E0 B0
-1.774925	TS E0 G
-1.609843	TS E0 K
-0.9375494	TS E0 L
-1.101816	TS E0 L0
-1.101816	TS E0 N
-0.8186461	TS E0 P0
-0.8186461	TS E0 R
-1.319021	TSH0 E0 J0
-1.724758	TSH0 E0 K
-0.3816193	TSH0 E0 M
-1.165076	TSH0 E0 N0
-1.319021	TSH0 E0 R
-1.724758	TSH0 E0 R0
-1.051649	TSH0 E0 S0
-0.5116832	U E0 T
-0.1288895	V E0 T
-1.211903	V E0 T0
-2.337827	V0 E0 </s>
-1.943227	V0 E0 <sil>
-2.097172	V0 E0 D
-1.8298	V0 E0 D0
-1.943227	V0 E0 J0
-1.064359	V0 E0 K
-2.097172	V0 E0 K0
-2.337827	V0 E0 L
-1.739946	V0 E0 N0
-2.097172	V0 E0 Nl
-0.907836	V0 E0 R
-0.9861804	V0 E0 R0
-1.229033	V0 E0 S
-1.602026	V0 E0 S0
-1.943227	V0 E0 SH0
-2.502909	V0 E0 Sl
-0.9199508	V0 E0 T
-0.8518657	V0 E0 T0
-1.181653	V0 E0 TSH0
-2.097172	V0 E0 Z0
-1.943227	V0 E0 ZH
-0.636622	V0l E0 R
-0.636622	V0l E0 TSH0
-0.206551	Y E0 T
-0.5116832	Z E0 T
-0.357037	Z0 E0 M
-1.148234	Z0 E0 R
-0.9075787	Z0 E0 T
-0.5116832	Z0l E0 L0
-1.230755	ZH E0 L0
-1.625355	ZH E0 N
-0.1953635	ZH E0 N0
-1.790437	ZH E0 R
-1.027474	ZH E0 S
-0.335592	B0 E0l T
-0.3466012	L0 E0l T
-0.1002766	S0 E0l T
-0.9949214	<s> F K
-1.108349	<s> F P
-0.9050677	<s> F S
-0.476599	<s> F S0
-1.502948	<s> F T
-1.668031	<s> F TS
-1.668031	<s> F TSH0
-1.118333	<sil> F K
-1.678015	<sil> F KH
-1.512933	<sil> F P
-1.512933	<sil> F P0
-1.118333	<sil> F S
-0.4865832	<sil> F S0
-1.678015	<sil> F SH
-1.272278	<sil> F T
-1.512933	<sil> F TS
-1.230539	A F </s>
-0.899048	A F <sil>
-1.482744	A F A
-2.320119	A F A0
-2.320119	A F E0
-1.314719	A F K
-2.155037	A F O0
-1.230539	A F P
-1.419236	A F R
-1.19387	A F S
-0.610232	A F S0
-1.557157	A F SH
-1.19387	A F T
-1.64701	A F V
-2.320119	A F Y
-2.320119	A F Y0
-1.988804	A0 F <sil>
-1.429123	A0 F K
-1.583068	A0 F P
-1.988804	A0 F P0
-1.988804	A0 F R0
-0.8992245	A0 F S
-0.983404	A0 F S0
-0.4866258	A0 F SH
-0.8992245	A0 F T
-1.39629	E0 F K
-1.39629	E0 F S
-0.3067098	E0 F SH
-1.135188	I F <sil>
-2.091467	I F A
-1.531785	I F A0
-1.68573	I F K
-2.091467	I F KH
-1.926385	I F L
-2.091467	I F M0
-1.926385	I F O0
-1.001887	I F P
-1.926385	I F P0
-1.68573	I F R
-1.135188	I F S
-0.6886072	I F S0
-1.328504	I F SH
-1.926385	I F T
-1.68573	I F TSH0
-2.091467	I F U
-2.091467	I F U0
-1.926385	I F V
-1.926385	I F Y
-1.465926	I0 F K
-1.465926	I0 F S0
-0.245239	I0 F SH
-1.075955	J0 F A
-0.6702178	J0 F S
-1.075955	J0 F S0
-1.0736	K F P
-1.238682	K F S
-0.8329451	K F S0
-1.238682	K F T
-1.034562	KH F P0
-0.86948	KH F S0
-1.511683	L F K
-1.346601	L F P
-1.105946	L F S
-0.6743079	L F S0
-0.8385742	L F T
-1.346601	L F T0
-1.045571	M F A
-0.5375442	M F S0
-0.335592	M0 F U0
-1.045571	N F S
-0.4476905	N F S0
-0.8167977	O0 F </s>
-0.8167977	O0 F <sil>
-1.383365	O0 F A
-1.269938	O0 F K
-1.943047	O0 F K0
-1.777965	O0 F P
-1.269938	O0 F S
-1.042163	O0 F S0
-1.383365	O0 F SH0
-1.943047	O0 F T
-1.943047	O0 F V
-1.383365	O0 F Y
-0.8127133	R F Y
-0.335592	R0 F S
-1.075955	S F A
-0.5162728	S F S0
-0.5540614	S0 F K
-1.113743	S0 F P
-1.113743	S0 F S0
-0.335592	SH F S0
-1.238682	T F <sil>
-1.238682	T F P
-0.8329451	T F S0
-1.045571	T0 F K
-1.210653	T0 F P
-0.8049164	T0 F S
-1.045571	T0 F S0
-1.335592	U F A
-1.335592	U F KH
-0.7759101	U F S
-1.17051	U F S0
-1.17051	U F SH
-0.5096472	U0 F S
-1.300844	U0 F S0
-0.5650422	U0 F SH
-1.07694	Y F </s>
-1.230885	Y F <sil>
-1.636622	Y F K
-1.636622	Y F M
-0.9635129	Y F P
-1.636622	Y F P0
-0.7992467	Y F S0
-1.230885	Y F T
-1.636622	Y F TS
-1.148505	Y0 F R
-0.4753963	Y0 F SH
-1.148505	Y0 F T0
-0.335592	<sil> F0 I
-0.86948	A F0 E0
-1.034562	A F0 I
-0.7080064	A0 F0 I
-1.113743	A0 F0 Il
-1.113743	A0 F0 T0
-0.335592	E0 F0 I
-0.8127133	I F0 E0
-0.8127133	I F0 I
-0.335592	L F0 E0
-0.335592	M F0 I
-0.7023367	O0 F0 <sil>
-1.539712	O0 F0 I
-1.539712	O0 F0 TSH0
-1.539712	O0 F0 V
-0.3277951	P F0 E0
-0.4069764	S F0 I
-0.335592	T F0 I
-0.5116832	T0 F0 I
-0.6476312	U F0 I
-0.335592	U0 F0 I
-0.335592	Y F0 I0
-0.335592	I0 Fl S0
-0.8528146	<s> G A
-1.360842	<s> G D0
-0.9662418	<s> G L
-1.360842	<s> G O0
-0.5696451	<s> G U0
-0.669348	<sil> G A
-1.460545	<sil> G D
-0.8626638	<sil> G D0
-1.21989	<sil> G L
-1.21989	<sil> G L0
-1.625627	<sil> G N0
-1.625627	<sil> G R
-1.625627	<sil> G R0
-1.460545	<sil> G U0
-0.7890214	A G A
-1.096315	A G A0
-0.4993948	A G D
-1.920484	A G D0
-1.320104	A G L
-1.353917	A G L0
-1.807057	A G N
-1.024814	A G O0
-1.024814	A G R
-1.717203	A G R0
-2.315084	A G U
-1.642791	A G U0
-0.7891263	A0 G A
-0.7239442	A0 G B
-1.242267	A0 G D
-1.242267	A0 G D0
-1.915376	A0 G L
-1.915376	A0 G R0
-1.750293	A0 G U
-1.750293	A0 G U0
-1.915376	A0 G Z
-1.915376	A0 G Z0
-0.6672804	A0 G ZH
-0.6476312	Al G N0
-0.335592	B G A
-0.335592	B0 G O0
-0.323286	D G A
-1.043798	D G A0
-1.043798	D G O0
-0.8237225	D0 G O0
-0.335592	DZ G A
-0.4982167	E0 G A
-1.335592	E0 G E0
-0.9298551	E0 G O0
-1.17051	E0 G R
-0.77257	GH G A
-0.937652	GH G L
-0.5821755	I G A
-1.10697	I G A0
-1.10697	I G D
-1.827482	I G D0
-1.395844	I G L
-2.233219	I G L0
-0.7164901	I G O0
-1.012532	I G R
-2.233219	I G R0
-2.233219	I G U
-1.227819	I G U0
-2.068137	I G V
-0.3614529	I0 G A
-1.034562	I0 G D0
-0.702963	J0 G A
-1.300844	J0 G L
-0.6285504	J0 G O0
-1.465926	J0 G R
-1.465926	J0 G R0
-1.465926	J0 G V
-0.3202518	L G A
-1.511683	L G N0
-1.105946	L G O0
-1.346601	L G U0
-1.511683	L G Z
-0.335592	L0 G A0
-0.6402065	M G A
-1.148234	M G D0
-1.313316	M G L
-1.148234	M G N
-1.313316	M G O0
-1.313316	M G U
-0.7427685	N G A
-1.148505	N G L
-0.9834233	N G L0
-0.3199781	N0 G A
-0.87966	N0 G Y0
-0.3785504	O0 G A
-1.833902	O0 G Al
-1.833902	O0 G B
-1.668821	O0 G L
-1.833902	O0 G O0
-1.668821	O0 G R
-0.6424711	O0 G U
-1.833902	O0 G U0
-0.2476218	R G A
-0.9834233	R G O0
-1.348225	U G A
-1.183958	U G A0
-1.615597	U G D0
-1.015933	U G L
-1.615597	U G L0
-0.3497768	U G O0
-2.021334	U G R
-1.856252	U G R0
-1.615597	U G U
-1.12045	U G U0
-0.3216579	U0 G A
-1.48172	U0 G D
-0.6443447	U0 G L
-1.48172	U0 G Z
-1.241609	V G A
-0.3491341	V G L
-1.647346	V G L0
-0.7464623	V G O0
-1.647346	V G R0
-1.647346	V G U
-0.7339972	Y G A
-0.9372781	Y G L0
-1.331878	Y G O0
-0.9372781	Y G R
-1.091223	Y G U
-0.2645429	Y0 G A
-0.5532371	Z G A
-1.437682	Z G L
-0.4765144	Z G L0
-1.437682	Z G O0
-1.437682	Z G R
-1.602764	Z G U
-0.6476312	Z0 G A
-0.4715399	<sil> G0 I
-0.7536337	A G0 I
-0.2637889	A G0 I0
-0.07055417	A0 G0 I
-0.5116832	D G0 I
-0.335592	D0 G0 I
-0.733532	I G0 I
-0.1738501	I0 G0 I
-0.3466012	N G0 I
-0.1738501	N0 G0 I
-0.02964235	O0 G0 I
-0.77257	R G0 E0
-0.5319151	R G0 I
-0.1431048	U G0 I0
-0.335592	U0 G0 I
-0.335592	V G0 E0
-0.335592	Y0 G0 I
-0.5116832	Z G0 I
-0.335592	ZH G0 I0
-0.56845	A GH B
-0.56845	A0 GH B
-0.87966	I GH D
-0.87966	I GH Z
-0.412432	I0 GH B
-1.148234	I0 GH D
-1.313316	I0 GH D0
-1.313316	I0 GH G
-1.313316	I0 GH Z
-0.7536337	Y GH B
-0.6402065	Y GH D
-1.148234	Y GH Z
-0.8127133	Y0 GH G
-0.6476312	Y0 GH Z
-0.5116832	A Gl O0
-0.5116832	A0 Gl A
-1.558244	<s> I A
-1.798899	<s> I D
-1.201018	<s> I J0
-1.404299	<s> I K
-1.798899	<s> I L0
-1.558244	<s> I M0
-1.963981	<s> I N
-1.798899	<s> I N0
-1.404299	<s> I P
-1.404299	<s> I S
-1.558244	<s> I SH
-1.201018	<s> I T
-1.963981	<s> I TSH0
-1.963981	<s> I U0
-1.404299	<s> I V
-1.126606	<s> I Z
-1.963981	<s> I Z0
-1.963981	<s> I ZH
-1.963981	<s> I Zl
-1.235017	<sil> I A
-1.764915	<sil> I B
-2.324597	<sil> I B0
-1.651488	<sil> I D
-2.324597	<sil> I D0
-1.764915	<sil> I F
-1.91886	<sil> I G
-1.91886	<sil> I J0
-1.487221	<sil> I K
