
\data\
ngram 1=100
ngram 2=2177
ngram 3=8537

\1-grams:
-1.819777	</s>
-99	<s>	-0.6581408
-1.794199	<sil>	-0.1614249
-1.574677	A	-0.1037573
-1.574677	A0	-0.09680039
-2.865523	A0l	-0.2722008
-2.01632	Al	-0.3049797
-1.794199	B	-0.5825513
-1.819777	B0	-0.6069643
-2.739383	B0l	-0.3609568
-2.739383	Bl	-0.2300083
-1.794199	D	-0.6173462
-1.781953	D0	-0.6352572
-2.494805	D0l	-0.388317
-2.739383	DZ	-0.2223155
-3.104299	DZ0	-0.2767218
-2.562093	DZH	-0.1992448
-2.562093	DZH0	-0.2216312
-2.297766	Dl	-0.4044128
-1.567248	E0	-0.06812412
-2.739383	E0l	-0.5233862
-1.781953	F	-0.3587
-1.846958	F0	-0.09903499
-3.061698	F0l	-0.2719868
-2.865523	Fl	-0.2563837
-1.781953	G	-0.6219714
-1.875953	G0	-0.8151281
-2.865523	G0l	-0.2423825
-2.339289	GH	-0.4784194
-2.865523	Gl	-0.2199591
-1.675411	I	-0.007007599
-1.781953	I0	0.165374
-2.494805	I0l	-0.3075539
-2.08338	Il	-0.1304212
-1.666064	J0	0.08961803
-2.641754	J0l	-0.4204957
-1.74716	K	-0.4954932
-1.794199	K0	-0.9345526
-3.061698	K0l	-0.2671926
-1.781953	KH	-0.3428352
-1.923435	KH0	-0.6690696
-3.104299	KH0l	-0.2814125
-2.739383	KHl	-0.2374225
-2.339289	Kl	-0.4069263
-1.74716	L	-0.07243466
-1.684963	L0	-0.002087355
-2.494805	L0l	-0.4143626
-2.739383	Ll	-0.2253519
-1.684963	M	-0.1720348
-1.69473	M0	-0.2428241
-2.739383	M0l	-0.3164954
-2.494805	Ml	-0.3651016
-1.704722	N	-0.1271282
-1.704722	N0	0.04600716
-2.385205	N0l	-0.5548071
-2.339289	Nl	-0.521
-3.104299	O	-0.2814125
-1.589925	O0	0.01675737
-2.641754	O0l	-0.2796431
-1.736156	P	-0.4557957
-1.8068	P0	-0.3906961
-2.739383	P0l	-0.5221651
-2.562093	Pl	-0.4079214
-1.684963	R	-0.09682065
-1.725423	R0	0.005000234
-3.061698	R0l	-0.2719868
-3.061698	Rl	-0.2529248
-1.770043	S	-0.5396076
-1.794199	S0	-0.1946864
-2.385205	S0l	-0.4054618
-1.781953	SH	-0.2440141
-1.875953	SH0	-0.2017717
-3.104299	SH0l	-0.2793793
-2.865523	SHl	-0.2419139
-2.192751	Sl	-0.2113262
-1.736156	T	-0.5145633
-1.794199	T0	-0.2991539
-2.297766	T0l	-0.5229979
-1.833155	TS	-0.2319436
-1.8068	TSH0	-0.3118486
-3.061698	TSH0l	-0.2719868
-3.104299	TSl	-0.2816153
-2.297766	Tl	-0.3529543
-1.582234	U	-0.2281767
-1.605729	U0	-0.1219085
-3.061698	U0l	-0.272194
-2.739383	Ul	-0.2485856
-1.704722	V	-0.7454206
-1.725423	V0	-0.855651
-2.436557	V0l	-0.4710405
-2.494805	Vl	-0.3816916
-1.794199	Y	0.1075951
-2.01632	Y0	0.0306828
-1.794199	Z	-0.5453302
-1.833155	Z0	-0.4710093
-2.641754	Z0l	-0.2222341
-1.819777	ZH	-0.4574707
-2.739383	ZH0	-0.2289478
-2.865523	ZHl	-0.2453069
-2.385205	Zl	-0.4945366

\2-grams:
-1.047314	<s> A	-0.1829707
-3.177565	<s> A0
-1.922916	<s> B	-0.2343528
-2.671443	<s> B0	-0.2100213
-1.619469	<s> D	-0.2666677
-2.539765	<s> D0	-0.05481909
-1.871225	<s> E0	-0.3021538
-1.500796	<s> F	-0.3150698
-3.435992	<s> F0
-1.677806	<s> G	-0.1423466
-1.198851	<s> I	-0.1190374
-2.671443	<s> I0	-0.1726735
-1.259945	<s> J0	-0.8737689
-1.310484	<s> K	-0.6501755
-3.435992	<s> K0
-2.438862	<s> KH	-0.07856131
-3.435992	<s> KH0
-3.435992	<s> Kl
-2.087852	<s> L	-0.4884131
-1.981601	<s> L0	-0.1298684
-1.490535	<s> M	-0.3824517
-2.357039	<s> M0	-0.1749346
-1.1453	<s> N	-0.8580853
-1.39939	<s> N0	-0.9507506
-1.367689	<s> O0	-0.8196611
-1.1453	<s> P	-0.6806251
-1.951268	<s> P0	-0.2148958
-1.922916	<s> R	-0.3735873
-2.539765	<s> R0	-0.1819247
-1.310484	<s> S	-0.214473
-2.438862	<s> S0	-0.06477265
-1.511307	<s> SH	-0.8245644
-3.177565	<s> SH0
-3.435992	<s> Sl
-1.254022	<s> T	-0.6920174
-1.896302	<s> T0	-0.4057697
-2.671443	<s> TS	-0.345125
-2.22882	<s> TSH0	-0.6708294
-1.763835	<s> U	-0.08653776
-3.177565	<s> U0
-1.290836	<s> V	0.138799
-1.783293	<s> V0	-0.1564595
-3.435992	<s> Vl
-2.22882	<s> Y	-0.04383006
-1.825038	<s> Z	-0.479217
-2.129954	<s> Z0	-0.3139059
-2.129954	<s> ZH	-0.2052715
-1.344623	<sil> A	-0.2551939
-2.495753	<sil> A0
-3.070412	<sil> Al
-1.505645	<sil> B	-0.1711457
-1.811	<sil> B0	-0.2715476
-1.585688	<sil> D	-0.2065598
-1.991459	<sil> D0	-0.1866493
-3.070412	<sil> DZH
-1.505645	<sil> E0	-0.4797404
-1.557336	<sil> F	-0.2023749
-2.811985	<sil> F0	-0.1393671
-1.722272	<sil> G	-0.03028068
-2.305863	<sil> G0	0.1645483
-1.379632	<sil> I	-0.095824
-2.305863	<sil> I0	-0.07802296
-3.070412	<sil> I0l
-2.495753	<sil> Il	-0.1341317
-1.616021	<sil> J0	-0.5979723
-1.361775	<sil> K	-0.5831974
-2.811985	<sil> K0	-0.03723629
-1.991459	<sil> KH	-0.2376785
-3.070412	<sil> Kl
-1.991459	<sil> L	-0.1386318
-1.86324	<sil> L0	-0.221023
-1.585688	<sil> M	-0.2878239
-1.922635	<sil> M0	-0.03270805
-1.438084	<sil> N	-0.7411755
-1.530722	<sil> N0	-0.8418292
-1.505645	<sil> O0	-0.6278293
-1.328122	<sil> P	-0.5493274
-1.764374	<sil> P0	-0.2732807
-1.722272	<sil> R	-0.4970978
-2.495753	<sil> R0	-0.1703442
-1.398256	<sil> S	-0.1816077
-1.811	<sil> S0	-0.2907485
-1.505645	<sil> SH	-0.5473353
-2.495753	<sil> SH0	-0.05524765
-1.481938	<sil> T	-0.3973808
-1.764374	<sil> T0	-0.4986199
-3.070412	<sil> TS
-1.764374	<sil> TSH0	-0.1141384
-1.585688	<sil> U	-0.0531244
-2.305863	<sil> U0	-0.2336056
-1.459458	<sil> V	-0.1121706
-1.557336	<sil> V0	-0.09301829
-3.070412	<sil> Vl
-1.922635	<sil> Y	-0.02588047
-3.070412	<sil> Y0
-1.585688	<sil> Z	-0.7088817
-2.495753	<sil> Z0	-0.05396456
-1.922635	<sil> ZH	-0.05462509
-2.811985	<sil> Zl
-1.5532	A </s>
-1.538877	A <sil>	0.01973343
-1.583347	A B	-0.2010707
-1.887142	A B0	-0.4891299
-3.341533	A B0l
-3.083106	A Bl
-1.568012	A D	-0.1586819
-1.583347	A D0	-0.5872955
-2.445307	A D0l	0.06129521
-3.341533	A DZ0	0.008871675
-3.083106	A DZH
-3.341533	A DZH0
-2.445307	A Dl	-0.1338889
-1.887142	A E0	-0.652118
-1.688835	A F	-0.2941115
-2.344403	A F0	0.08830121
-3.341533	A F0l
-3.083106	A Fl
-1.632896	A G	-0.4414848
-2.082121	A G0	0.02818173
-3.341533	A G0l
-2.445307	A GH	-0.05475307
-3.083106	A Gl
-1.730579	A I	-0.08831239
-2.134361	A I0	-0.2166807
-3.341533	A I0l
-3.083106	A Il
-1.615744	A J0	-0.3609023
-3.341533	A J0l
-1.5532	A K	-0.376843
-1.919754	A K0	-0.403819
-3.341533	A K0l
-1.730579	A KH	-0.1664596
-3.083106	A KH0	-0.04403342
-2.766874	A Kl
-1.632896	A L	-0.2950584
-1.669377	A L0	-0.4941275
-2.445307	A L0l	-0.08859598
-1.650753	A M	-0.1870927
-1.669377	A M0	-0.7120698
-3.083106	A Ml	0.007810384
-1.568012	A N	-0.499174
-1.511574	A N0	-0.7305893
-2.035495	A Nl	-0.5182417
-1.919754	A O0	-0.2992631
-1.485886	A P	-0.5308068
-1.828457	A P0	-0.2841595
-3.083106	A P0l	0.2516575
-2.445307	A Pl	-0.2963186
-1.583347	A R	-0.3822398
-1.887142	A R0	-0.4995848
-3.083106	A R0l	-0.1507062
-1.485886	A S	-0.4107804
-1.688835	A S0	-0.3865672
-2.576984	A S0l	0.008610934
-1.753059	A SH	-0.358755
-2.134361	A SH0	-0.007626027
-2.445307	A Sl	-0.2071023
-1.49854	A T	-0.3212441
-1.650753	A T0	-0.2067446
-3.341533	A T0l	0.0381006
-1.730579	A TS	-0.004575014
-1.730579	A TSH0	-0.1886032
-2.344403	A Tl	0.04948176
-1.856809	A U	-0.122056
-1.955015	A U0	-0.3097519
-1.615744	A V	-0.5004796
-1.776767	A V0	-0.396772
-3.083106	A V0l
-3.083106	A Vl	-0.001840755
-2.193756	A Y	-0.2254813
-1.730579	A Z	-0.2240498
-1.919754	A Z0	0.01796407
-3.341533	A Z0l
-1.632896	A ZH	-0.4735038
-3.341533	A ZH0
-3.341533	A ZHl
-3.341533	A Zl
-1.656824	A0 </s>
-1.715509	A0 <sil>	-0.05522203
-1.715509	A0 B	-0.09148583
-2.405351	A0 B0	-0.1758444
-3.1699	A0 B0l
-1.605134	A0 D	-0.4081495
-1.630211	A0 D0	-0.3691476
-2.595241	A0 Dl
-2.405351	A0 E0	-0.460564
-1.558946	A0 F	-0.3552299
-2.273674	A0 F0	-0.04144643
-3.1699	A0 Fl
-1.685176	A0 G	-0.3016404
-2.273674	A0 G0	-0.4850526
-2.595241	A0 GH
-2.911474	A0 Gl	-0.09642398
-1.863862	A0 I	-0.07814242
-2.273674	A0 I0	-0.07279532
-1.427611	A0 J0	-0.6691351
-3.1699	A0 J0l
-1.581426	A0 K	0.03453088
-2.172771	A0 K0	-0.3008641
-1.630211	A0 KH	-0.2035705
-2.595241	A0 KH0	-0.1606744
-2.911474	A0 Kl	-0.08418593
-1.461263	A0 L	-0.4247991
-1.461263	A0 L0	-0.6410882
-2.595241	A0 L0l	0.003154606
-2.911474	A0 Ll	-0.2354118
-1.581426	A0 M	-0.1705059
-1.685176	A0 M0	-0.553816
-2.911474	A0 Ml	-0.02041112
-1.497744	A0 N	-0.321396
-1.537573	A0 N0	-0.6298254
-2.405351	A0 N0l	0.04428989
-1.962729	A0 Nl	-0.04210365
-2.090947	A0 O0	-0.5215896
-1.537573	A0 P	-0.504459
-2.911474	A0 P0
-3.1699	A0 Pl
-1.537573	A0 R	-0.1909491
-1.863862	A0 R0	-0.7694787
-1.479121	A0 S	-0.1408381
-1.783382	A0 S0	-0.209714
-2.595241	A0 S0l	-0.2479599
-1.748121	A0 SH	-0.2652469
-1.821761	A0 SH0	-0.5571912
-3.1699	A0 SHl
-2.273674	A0 Sl	-0.008135542
-1.444111	A0 T	-0.2339344
-1.461263	A0 T0	-0.2890297
-2.405351	A0 T0l	-0.07854041
-1.656824	A0 TS	-0.5022798
-1.962729	A0 TSH0	-0.4931004
-2.911474	A0 Tl	-0.2206573
-1.962729	A0 U	-0.1017699
-2.090947	A0 U0	-0.4431956
-1.685176	A0 V	-0.227113
-1.821761	A0 V0	-0.510735
-3.1699	A0 Vl
-2.911474	A0 Y
-1.656824	A0 Z	-0.3934958
-1.962729	A0 Z0	-0.05824187
-3.1699	A0 Z0l
-1.630211	A0 ZH	-0.6161276
-2.172771	A0 Zl	-0.04667948
-0.7908971	A0l D
-0.7908971	A0l Nl
-0.7908971	A0l SH
-1.268247	Al B	-0.1164626
-2.3472	Al B0
-1.199422	Al D	-0.6486198
-1.450973	Al D0	-0.01232982
-2.3472	Al D0l
-2.3472	Al Dl
-2.3472	Al F
-2.3472	Al F0
-1.450973	Al G	-0.1026497
-2.3472	Al G0
-1.58265	Al K	-0.09148202
-2.088773	Al KH
-2.3472	Al L
-2.088773	Al M
-1.58265	Al N	-0.6881879
-1.268247	Al N0	-0.4343202
-1.268247	Al P	-0.316057
-2.088773	Al P0	-0.1500165
-2.088773	Al Pl	-0.003586352
-1.450973	Al R	-0.0841324
-2.088773	Al R0	-0.2194966
-1.087788	Al S	-0.2360678
-2.3472	Al S0	-0.2221895
-2.3472	Al SH0
-2.3472	Al Sl
-0.8928087	Al T	-0.155665
-2.3472	Al T0
-1.58265	Al TS
-1.77254	Al TSH0
-2.3472	Al Tl
-2.3472	Al Z
-2.3472	Al ZH
-1.013887	B A	-0.200909
-1.340176	B A0	-0.1122635
-2.387787	B D
-2.071555	B D0
-2.646214	B E0	-0.363654
-2.387787	B G	-0.2180492
-2.646214	B G0
-2.646214	B J0	-0.2402759
-1.439043	B L	-0.5108916
-1.259696	B L0	-0.3328145
-2.646214	B L0l
-2.387787	B M
-2.646214	B M0
-1.749988	B N	-0.4281848
-2.387787	B N0	-0.08480626
-1.05774	B O0	-0.4097412
-1.16149	B R	-0.7689527
-1.439043	B R0	-0.2828369
-1.133139	B U	-0.3156861
-1.05774	B U0	-0.4603142
-2.646214	B V
-2.387787	B V0	-0.1916677
-1.013887	B Y	-0.1570921
-0.9554346	B Y0	-0.9670429
-2.387787	B Z
-2.387787	B Z0	-0.1598229
-2.071555	B ZH
-2.183008	B0 A
-1.608348	B0 A0	-0.1269535
-1.924581	B0 D	-0.2317933
-2.183008	B0 D0
-0.6699318	B0 E0	-0.09537053
-2.183008	B0 E0l	0.2516575
-1.924581	B0 G	-0.2389913
-0.4572182	B0 I	-0.3286452
-1.035231	B0 I0	-0.3233868
-1.185878	B0 J0	-0.2122272
-2.183008	B0 O0	-0.5469973
-1.924581	B0 U
-2.183008	B0 U0	-0.2633302
-2.183008	B0 Z
-2.183008	B0 Z0
-0.3411766	B0l I
-0.9158359	B0l Il
-1.012746	Bl A
-0.754319	Bl A0
-1.012746	Bl U
-1.012746	Bl Y
-0.9804713	D A	-0.2003722
-1.173891	D A0	-0.1708228
-1.741528	D Al	-0.2545026
-1.842431	D B	-0.2818371
-1.974108	D B0	-0.03710225
-2.738657	D E0
-1.59088	D G	-0.3277692
-2.163998	D G0	0.1853628
-2.738657	D J0	-0.07685855
-2.163998	D L	-0.2543299
-1.253934	D L0	-0.7929943
-2.738657	D M	-0.2358004
-2.480231	D M0	0.08879369
-1.479245	D N	-0.8174546
-1.352139	D N0	-0.521894
-1.198968	D O0	-0.3513083
-1.173891	D R	-0.7093709
-1.531486	D R0	-0.08037204
-1.316878	D U	-0.1046368
-1.284267	D U0	-0.5727041
-2.480231	D Ul	-0.2354118
-1.284267	D V	-0.6158199
-1.198968	D V0	-0.4288105
-1.284267	D Y	-0.2477597
-1.741528	D Y0	-0.09223349
-1.842431	D Z	-0.3048398
-1.974108	D Z0
-1.842431	D ZH	-0.4218898
-1.547883	D0 A	-0.1061225
-1.184698	D0 A0	-0.3029349
-1.44698	D0 B	-0.1548327
-1.67956	D0 B0	0.0795387
-0.7354724	D0 E0	-0.3374845
-1.365157	D0 G	-0.03232325
-2.185683	D0 G0	0.07092109
-0.6705885	D0 I	-0.2564107
-1.236938	D0 I0	-0.392756
-1.547883	D0 Il
-1.547883	D0 J0	-0.2541252
-2.44411	D0 M
-2.185683	D0 M0	-0.2162612
-1.236938	D0 O0	-0.4003302
-1.86945	D0 U
-1.547883	D0 Z	-0.06106418
-1.86945	D0 Z0
-1.86945	D0 ZH	-0.07484841
-0.7805093	D0l A0	-0.2611811
-0.5906193	D0l E0	-0.3260864
-0.7805093	D0l I	-0.1838383
-1.355169	D0l U
-1.268018	DZ B
-1.268018	DZ B0
-1.268018	DZ D
-1.268018	DZ D0
-1.009591	DZ G	-0.2180492
-1.268018	DZ G0
-1.268018	DZ Z
-1.268018	DZ ZH
-0.3137759	DZ0 E0	-0.2674246
-1.216866	DZH A
-1.216866	DZH A0
-0.9584389	DZH E0
-0.9584389	DZH O0
-0.9584389	DZH U
-1.268018	DZH0 B
-1.268018	DZH0 B0
-1.268018	DZH0 D
-1.268018	DZH0 D0
-1.268018	DZH0 G
-1.009591	DZH0 Z	-0.2065112
-1.268018	DZH0 Z0
-1.268018	DZH0 ZH
-0.7397689	Dl A	-0.04673902
-0.7397689	Dl A0	-0.09178695
-1.635995	Dl L0
-1.061336	Dl O0	-0.1716128
-1.061336	Dl R	-0.1348781
-1.061336	Dl U0	-0.1561033
-1.635995	Dl V
-1.620104	E0 </s>
-1.584844	E0 <sil>	-0.05171122
-2.110396	E0 A	-0.09657815
-3.006623	E0 A0
-1.747211	E0 B	-0.162347
-1.92767	E0 B0	-0.178924
-1.658483	E0 D	-0.4202181
-1.799451	E0 D0	-0.1617508
-2.748196	E0 DZ
-3.006623	E0 DZH0
-3.006623	E0 Dl
-1.747211	E0 F	-0.2841932
-2.748196	E0 F0	-0.1393671
-1.858846	E0 G	-0.2182001
-3.006623	E0 GH
-2.110396	E0 I
-3.006623	E0 I0
-1.418149	E0 J0	-0.2105948
-1.620104	E0 K	-0.2262797
-2.748196	E0 K0	-0.1505945
-1.747211	E0 KH	-0.2601234
-1.584844	E0 L	-0.5076579
-1.552232	E0 L0	-0.610452
-3.006623	E0 L0l
-3.006623	E0 Ll	-0.1956671
-1.552232	E0 M	-0.03455821
-1.92767	E0 M0	-0.3077447
-2.242074	E0 M0l	0.01085961
-1.858846	E0 Ml	-0.2447029
-1.418149	E0 N	-0.2378868
-1.441856	E0 N0	-0.6473526
-2.110396	E0 N0l	-0.4670083
-1.799451	E0 Nl	-0.2389849
-2.242074	E0 O0	-0.3367292
-1.92767	E0 P	-0.1850532
-2.242074	E0 P0	0.005456597
-3.006623	E0 P0l
-3.006623	E0 Pl
-1.418149	E0 R	-0.2977293
-1.584844	E0 R0	-0.1973964
-3.006623	E0 R0l
-3.006623	E0 Rl
-1.584844	E0 S	-0.7403196
-1.700585	E0 S0	-0.4041352
-2.242074	E0 S0l	-0.004921868
-1.799451	E0 SH	-0.3784292
-2.110396	E0 SH0	-0.3173809
-2.242074	E0 Sl	-0.06586279
-1.13868	E0 T	-0.5670239
-1.374295	E0 T0	-0.3396941
-2.748196	E0 T0l	0.0381006
-1.858846	E0 TS	-0.1053499
-1.858846	E0 TSH0	-0.4278635
-2.431963	E0 Tl	0.037723
-2.110396	E0 U	-0.02903089
-3.006623	E0 U0
-1.700585	E0 V	-0.1600343
-2.110396	E0 V0	0.02950048
-1.92767	E0 Z	-0.3774253
-1.799451	E0 Z0	-0.1600339
-1.799451	E0 ZH	-0.4834151
-3.006623	E0 ZH0
-0.1512866	E0l T	-0.7004491
-1.736602	F </s>
-1.654779	F <sil>	-0.2477578
-1.347213	F A	-0.1987198
-1.837505	F A0	-0.06874602
-2.159072	F E0
-2.159072	F J0	-0.2180455
-1.194042	F K	-0.4515251
-2.159072	F K0	-0.02565573
-1.585955	F KH	-0.2376785
-2.733732	F KH0
-2.159072	F L	-0.2131431
-2.475305	F L0
-1.969182	F M	-0.09801444
-2.475305	F M0	-0.04007086
-1.969182	F N	-0.3434756
-2.475305	F N0	-0.197919
-1.311952	F O0	-0.4168117
-1.145258	F P	-0.4953865
-1.654779	F P0	-0.3349873
-1.585955	F R	-0.3369378
-2.475305	F R0
-1.081033	F S	-0.3225532
-1.042952	F S0	-1.026193
-1.385592	F SH	-0.8323379
-2.733732	F SH0	-0.05524765
-1.220656	F T	-0.4664016
-1.427694	F T0	-0.2467435
-1.654779	F TS	-0.2257695
-1.585955	F TSH0	-0.1278796
-2.159072	F U	-0.1738784
-2.159072	F U0	-0.1777928
-1.654779	F V	-0.09227592
-2.475305	F V0
-1.736602	F Y	-0.0406002
-2.159072	F Y0
-1.952976	F0 <sil>
-1.952976	F0 A
-2.211403	F0 A0
-1.004231	F0 E0	-0.2602436
-0.5587046	F0 I	-0.1044601
-1.315177	F0 I0	-0.06826166
-2.211403	F0 Il
-1.952976	F0 J0
-2.211403	F0 K
-2.211403	F0 K0
-2.211403	F0 L
-2.211403	F0 L0
-2.211403	F0 M
-1.952976	F0 M0
-2.211403	F0 N
-2.211403	F0 N0
-1.446854	F0 O0	-0.1749864
-2.211403	F0 P
-2.211403	F0 P0
-2.211403	F0 R
-2.211403	F0 R0
-2.211403	F0 S
-1.952976	F0 S0
-2.211403	F0 SH
-1.952976	F0 T	-0.2500083
-1.952976	F0 T0	-0.2208809
-2.211403	F0 TSH0
-1.952976	F0 U
-1.636744	F0 U0
-2.211403	F0 V
-2.211403	F0 V0
-2.211403	F0 V0l
-0.6148059	F0l I
-0.6148059	F0l I0
-0.9158359	Fl P
-0.9158359	Fl R
-0.9158359	Fl S0
-0.9158359	Fl SH
-0.877809	G A	-0.3233886
-1.557042	G A0	-0.2382966
-2.377568	G Al	-0.1412619
-1.871446	G B	-0.3136714
-2.635995	G B0
-1.488218	G D	-0.8720531
-1.122919	G D0	-0.8191209
-2.061336	G E0	-0.111685
-1.096305	G L	-0.7428045
-1.214216	G L0	-0.6235105
-2.635995	G M
-2.635995	G M0
-1.739769	G N	-0.1933096
-1.557042	G N0	-0.0613783
-1.047521	G O0	-0.4286135
-1.071229	G R	-0.6157432
-1.329957	G R0	-0.3739505
-1.181604	G U	-0.2967894
-1.329957	G U0	-0.3131287
-2.377568	G V	-0.09000918
-2.635995	G V0
-2.377568	G Y0	-0.2605334
-1.557042	G Z	-0.1435314
-1.871446	G Z0	0.01324929
-2.635995	G ZH	-0.4654719
-0.9501146	G0 E0	-0.09654517
-0.2564646	G0 I	-0.1731638
-0.7994673	G0 I0	-0.1391161
-1.947244	G0 J0
-1.947244	G0 U
-1.688817	G0 U0	-0.2633302
-0.7908971	G0l E0
-0.5324702	G0l I
-0.7399729	GH B	-0.1196218
-1.560499	GH B0
-0.9226996	GH D	-0.06985721
-1.244267	GH D0	-0.08184373
-0.8217962	GH G	-0.04679091
-1.818926	GH G0
-0.9226996	GH Z	-0.07568912
-1.818926	GH Z0
-1.560499	GH ZH
-0.8335002	Gl A	-0.1546841
-1.091927	Gl L
-1.091927	Gl O0
-1.091927	Gl U
-1.091927	Gl U0
-1.71043	I </s>
-1.603041	I <sil>	0.03133887
-1.790473	I A	-0.3356538
-2.196244	I A0	-0.3087728
-3.275197	I A0l
-1.735507	I B	-0.1600661
-1.888678	I B0	-0.4730529
-1.664243	I D	-0.1777866
-1.686723	I D0	-0.5386057
-3.275197	I D0l
-3.01677	I DZ
-3.275197	I DZH
-3.275197	I DZH0
-2.378971	I Dl	0.01828288
-2.196244	I E0	-0.4894382
-1.71043	I F	-0.06477517
-2.510648	I F0	0.04891063
-1.549408	I G	-0.2246695
-2.378971	I G0	0.2591988
-3.275197	I G0l
-2.510648	I GH	-0.01890703
-3.01677	I Gl
-1.56656	I J0	-0.4598275
-3.275197	I J0l
-1.549408	I K	-0.2732695
-1.888678	I K0	0.191712
-1.927057	I KH	-0.01651329
-3.01677	I KH0	-0.1094939
-3.275197	I KHl
-3.275197	I Kl
-1.664243	I L	-0.2577684
-1.501676	I L0	-0.278185
-2.700538	I L0l	-0.09147079
-3.275197	I Ll
-1.584417	I M	-0.323802
-1.664243	I M0	-0.3415368
-3.275197	I M0l
-3.01677	I Ml
-1.486864	I N	-0.2783474
-1.603041	I N0	-0.3755361
-2.378971	I N0l	-0.4212508
-1.927057	I Nl	-0.6003414
-1.790473	I O0	-0.4701198
-1.56656	I P	-0.5211427
-1.820806	I P0	-0.5138265
-3.01677	I Pl	-0.003586352
-1.549408	I R	-0.1902782
-1.735507	I R0	-0.7475357
-3.01677	I Rl
-1.501676	I S	-0.1462581
-1.664243	I S0	-0.2466213
-2.510648	I S0l	-0.07622035
-1.71043	I SH	-0.08654803
-1.820806	I SH0	-0.3744783
-3.275197	I SH0l
-3.01677	I SHl	-0.05738131
-2.278067	I Sl	-0.05990195
-1.56656	I T	0.08562732
-1.686723	I T0	-0.26222
-2.12742	I T0l	0.190156
-1.686723	I TS	-0.3868014
-1.762121	I TSH0	-0.2283215
-3.275197	I TSH0l	-0.159004
-2.700538	I Tl	-0.00987336
-1.853418	I U	-0.05715364
-2.12742	I U0	-0.2761493
-1.532907	I V	-0.5841087
-1.762121	I V0	-0.2503832
-3.275197	I V0l
-3.275197	I Vl
-2.278067	I Y	-0.08554912
-1.603041	I Z	-0.1434938
-1.888678	I Z0	-0.1006121
-3.275197	I Z0l
-1.820806	I ZH	-0.3770921
-3.01677	I ZH0
-2.068025	I Zl	-0.3477095
-1.595449	I0 </s>
-1.694315	I0 <sil>	-0.02112988
-2.136938	I0 A	-0.1893736
-2.901487	I0 A0
-1.822534	I0 B	-0.06285785
-2.64306	I0 B0
-2.901487	I0 Bl
-1.642075	I0 D	-0.3122527
-1.822534	I0 D0	-0.6858323
-2.901487	I0 D0l
-2.901487	I0 DZH0
-2.64306	I0 Dl
-2.64306	I0 E0	-0.247013
-1.642075	I0 F	-0.3333518
-2.901487	I0 F0
-2.64306	I0 Fl	-0.2235746
-1.904357	I0 G	-0.1850621
-2.64306	I0 G0	-0.1426299
-2.00526	I0 GH	0.0419313
-1.75371	I0 J0	-0.4483224
-1.75371	I0 K	-0.1896433
-2.64306	I0 K0	-0.2475045
-1.514968	I0 KH	-0.1953737
-2.326828	I0 KH0	-0.1606744
-2.901487	I0 Kl
-1.479708	I0 L	-0.2780897
-1.416763	I0 L0	-0.6272343
-2.64306	I0 L0l
-2.64306	I0 Ll
-1.361797	I0 M	-0.1755843
-1.694315	I0 M0	-0.4959335
-2.901487	I0 M0l
-2.901487	I0 Ml
-1.388411	I0 N	-0.3426144
-1.514968	I0 N0	-0.599352
-2.64306	I0 N0l	0.0475727
-2.136938	I0 Nl	-0.1979066
-2.326828	I0 O0	-0.1606379
-1.642075	I0 P	-0.09748785
-2.64306	I0 P0
-2.901487	I0 P0l
-1.822534	I0 R	-0.3628386
-2.326828	I0 R0	-0.261106
-1.514968	I0 S	-0.3366941
-1.904357	I0 S0	-0.05024428
-1.694315	I0 SH	-0.291171
-1.904357	I0 SH0	-0.1196815
-2.901487	I0 Sl
-1.479708	I0 T	-0.04617104
-1.447096	I0 T0	-0.3229164
-2.64306	I0 T0l
-1.553347	I0 TS	-0.4039271
-1.514968	I0 TSH0	-0.5664815
-2.901487	I0 TSl
-2.901487	I0 Tl
-2.136938	I0 U
-2.00526	I0 U0	-0.07515121
-1.595449	I0 V	-0.2927353
-2.326828	I0 V0	-0.1526811
-2.901487	I0 Y
-1.553347	I0 Z	-0.1158894
-1.904357	I0 Z0	-0.007179677
-1.904357	I0 ZH	-0.3118058
-2.901487	I0 ZHl
-2.901487	I0 Zl
-1.355169	I0l DZ
-1.355169	I0l GH
-0.5906193	I0l KH
-1.355169	I0l L0
-1.355169	I0l M
-1.355169	I0l M0
-1.096742	I0l S
-1.341829	Il </s>
-1.090278	Il <sil>	-0.03354622
-1.663396	Il A
-2.238055	Il B	-0.2355343
-2.238055	Il D
-1.663396	Il D0
-2.238055	Il E0
-2.238055	Il F
-2.238055	Il G
-1.979628	Il J0
-1.473506	Il K	-0.06648081
-2.238055	Il L
-1.240925	Il L0	-0.5761221
-2.238055	Il M
-1.979628	Il M0	-0.1926045
-1.159102	Il N	-0.1495982
-1.663396	Il N0
-1.473506	Il P	-0.2530341
-1.159102	Il S	-0.1039869
-1.979628	Il S0
-2.238055	Il SH
-2.238055	Il Sl
-2.238055	Il T
-2.238055	Il T0
-2.238055	Il T0l
-2.238055	Il TS
-2.238055	Il U
-2.238055	Il U0
-1.473506	Il V	-0.1130049
-1.341829	Il Z	-0.155904
-1.979628	Il Z0	-0.08036202
-1.979628	Il Zl	-0.03833742
-1.954108	J0 </s>
-1.771381	J0 <sil>	-0.05311936
-1.502195	J0 A	-0.09215695
-1.047678	J0 A0	-0.2036447
-1.771381	J0 Al	-0.06507796
-1.954108	J0 B	-0.1442806
-2.591908	J0 B0	0.00535512
-1.702557	J0 D	-0.1486278
-1.954108	J0 D0	-0.2106641
-2.850334	J0 DZH
-1.076813	J0 E0	-0.6251827
-1.853205	J0 F	-0.1078524
-2.850334	J0 F0
-1.853205	J0 G	-0.1245447
-2.850334	J0 G0
-0.93642	J0 I	-0.3319293
-2.850334	J0 I0
-2.275675	J0 I0l
-2.085785	J0 Il	-0.08537385
-1.954108	J0 K	-0.3018101
-2.275675	J0 K0	-0.03723629
-1.954108	J0 KH	-0.05727764
-2.850334	J0 KH0
-1.853205	J0 L	-0.1127468
-1.853205	J0 L0	-0.148583
-1.954108	J0 M	-0.1936098
-2.085785	J0 M0	-0.2324412
-1.771381	J0 N	-0.4345438
-1.771381	J0 N0	-0.5913665
-1.590922	J0 O0	-0.1436842
-2.850334	J0 O0l
-1.853205	J0 P	-0.2429193
-2.275675	J0 P0	-0.3295879
-1.853205	J0 R	-0.4600594
-2.591908	J0 R0	-0.06420024
-1.771381	J0 S	-0.2223293
-1.954108	J0 S0	-0.5198016
-2.850334	J0 S0l
-1.853205	J0 SH	-0.2806681
-2.591908	J0 SH0	-0.05524765
-1.853205	J0 T	-0.2702356
-1.771381	J0 T0	-0.5225205
-2.085785	J0 TS	-0.1258782
-2.085785	J0 TSH0	-0.37874
-1.310645	J0 U	-0.1431668
-1.590922	J0 U0	-0.137681
-2.850334	J0 U0l
-2.850334	J0 Ul
-2.085785	J0 V	-0.09000322
-2.085785	J0 V0	-0.3296757
-2.275675	J0 Y
-2.085785	J0 Z	-0.2423937
-2.850334	J0 Z0
-2.591908	J0 ZH	-0.065534
-0.9584389	J0l A0	-0.2700978
-1.216866	J0l E0
-0.3206396	J0l I	-0.07857642
-1.624907	K </s>
-1.624907	K <sil>	0.0182291
-1.016376	K A	-0.4686211
-1.142029	K A0	-0.3518123
-1.887189	K Al	-0.04464211
-1.988093	K E0	-0.5397452
-1.736542	K F	-0.03259376
-2.625892	K F0
-1.988093	K J0	-0.315137
-2.309659	K KH
-2.884319	K KH0
-1.578281	K L	-0.4510381
-1.46254	K L0	-0.208525
-1.988093	K M	-0.1096631
-2.884319	K M0	-0.1545125
-1.46254	K N	-0.5384461
-1.371243	K N0	-0.5768644
-1.23162	K O0	-0.4734803
-1.736542	K P	-0.3517737
-2.625892	K P0
-1.251991	K R	-0.8029249
-1.429928	K R0	-0.6014054
-1.536179	K S	-0.08926193
-1.578281	K S0	-0.3403736
-2.11977	K SH	-0.3665842
-2.884319	K SH0	-0.2416132
-1.399595	K T	-0.5530379
-1.988093	K T0	-0.7728138
-2.625892	K TS
-2.625892	K TSH0	-0.06421994
-1.158529	K U	-0.1772808
-1.371243	K U0	-0.1969699
-1.4978	K V	-0.5551065
-1.736542	K V0	0.09747726
-1.988093	K Y	-0.0698856
-2.625892	K Y0	-0.1694561
-1.073672	K0 E0	-0.1778692
-0.3642918	K0 I	-0.5043272
-0.5641509	K0 I0	-0.3656005
-1.073672	K0 Il
-2.152625	K0 J0
-2.152625	K0 U
-1.894198	K0 U0
-0.6148059	K0l E0
-0.6148059	K0l I
-1.488621	KH </s>
-1.548016	KH <sil>	-0.07759881
-0.9222717	KH A	-0.4120314
-1.347653	KH A0	-0.1275937
-2.695793	KH Al
-1.799567	KH F	-0.06406866
-2.695793	KH F0
-1.799567	KH J0	-0.1832244
-1.488621	KH K	-0.2640997
-2.121134	KH K0	-0.3936325
-1.698663	KH L	-0.311026
-1.799567	KH L0	-0.1383887
-1.436381	KH M	-0.2706884
-2.121134	KH M0	-0.01672657
-1.389755	KH N	-0.3113713
-1.548016	KH N0	-0.4540872
-1.211069	KH O0	-0.3431845
-1.436381	KH P	-0.4545272
-2.437366	KH P0	0.01560085
-1.436381	KH R	-0.3017161
-1.931244	KH R0	-0.261106
-1.488621	KH S	-0.08797552
-2.121134	KH S0	-0.3497823
-2.695793	KH S0l
-1.698663	KH SH	-0.1257497
-2.695793	KH SH0
-1.488621	KH T	-0.08543708
-2.437366	KH T0	-0.2387165
-2.437366	KH TS	-0.0784957
-2.121134	KH TSH0	-0.2176404
-1.347653	KH U	-0.20999
-1.799567	KH U0	-0.1842957
-1.488621	KH V	-0.1630929
-2.695793	KH V0
-1.548016	KH Y	-0.07807067
-2.437366	KH Y0
-1.573863	KH0 E0
-0.3778989	KH0 I	-0.1892676
-0.5262519	KH0 I0	-0.1694777
-1.573863	KH0 Il
-1.83229	KH0 J0
-1.573863	KH0 U0	-0.2787469
-0.3137759	KH0l I0
-0.657409	KHl A
-0.9158359	KHl L0
-0.9158359	KHl U0
-0.5936408	Kl A	-0.2596931
-0.7253179	Kl A0	-0.4580541
-1.489867	Kl N0
-0.9152079	Kl R	-0.1250924
-1.489867	Kl T
-1.489867	Kl U0
-1.503455	L </s>
-1.703818	L <sil>	-0.1111034
-1.125806	L A	-0.3311518
-1.240641	L A0	-0.07590705
-1.703818	L Al	-0.3245623
-1.955369	L B	-0.2511029
-2.851595	L B0
-1.703818	L D	-0.2744258
-2.593168	L D0
-2.276936	L E0	-0.1533858
-1.592183	L F	-0.1191826
-2.593168	L F0	-0.234486
-1.772642	L G	-0.2931311
-2.851595	L G0
-2.851595	L G0l
-1.703818	L J0	-0.7130771
-1.644423	L K	-0.2450288
-1.955369	L K0	0.05180377
-2.593168	L KH
-2.851595	L KH0
-2.851595	L Kl
-1.854465	L M	-0.2207702
-2.087046	L M0	-0.09590781
-1.592183	L N	-0.7038436
-1.854465	L N0	-0.4913691
-1.125806	L O0	-0.2025594
-1.644423	L P	-0.3309235
-2.593168	L P0
-2.087046	L R	-0.2093457
-2.593168	L R0
-1.592183	L S	-0.2378377
-1.644423	L S0	-1.094879
-2.851595	L S0l
-1.854465	L SH	-0.4109482
-2.593168	L SH0	-0.2364843
-2.851595	L Sl
-1.644423	L T	-0.2620593
-2.851595	L T0
-2.593168	L TS
-1.955369	L TSH0	-0.1012809
-1.338519	L U	-0.3250242
-1.338519	L U0	-0.2924688
-1.644423	L V	-0.07102759
-2.851595	L V0
-2.851595	L V0l
-2.851595	L Vl
-1.366871	L Y	-0.1895725
-1.545557	L Y0	-0.2896289
-1.772642	L Z	-0.220765
-2.593168	L Z0
-1.955369	L ZH	-0.3350883
-2.160721	L0 </s>
-1.587603	L0 <sil>	-0.05101946
-1.73825	L0 A	-0.1449398
-1.429342	L0 A0	-0.207922
-1.970831	L0 B	-0.07794657
-2.73538	L0 B0
-2.476953	L0 D
-2.73538	L0 D0
-2.73538	L0 Dl
-1.026743	L0 E0	-0.303798
-2.73538	L0 E0l	0.2599553
-2.73538	L0 F
-2.73538	L0 F0
-2.73538	L0 G	-0.2675625
-2.73538	L0 G0
-0.8674371	L0 I	-0.1897961
-1.0446	L0 I0	-0.1452077
-2.476953	L0 I0l	-0.1509556
-1.475968	L0 Il	-0.1314802
-1.839154	L0 J0	-0.1497148
-2.160721	L0 K	-0.9655654
-2.160721	L0 K0	0.05967371
-2.476953	L0 KH
-2.73538	L0 KH0
-1.970831	L0 M
-2.73538	L0 M0
-1.587603	L0 N	-0.8803083
-1.970831	L0 N0	-0.5436245
-1.348861	L0 O0	-0.2807117
-2.160721	L0 P	-0.09095247
-2.73538	L0 P0
-2.73538	L0 R
-2.73538	L0 R0
-1.656427	L0 S	-0.3916174
-2.160721	L0 S0
-1.970831	L0 SH	-0.5449569
-2.73538	L0 SH0
-2.73538	L0 Sl
-2.160721	L0 T
-2.160721	L0 T0	-0.3458196
-1.970831	L0 TS	-0.3429051
-2.73538	L0 TSH0	-0.6708294
-1.146906	L0 U	-0.5332335
-1.280989	L0 U0	-0.1635967
-2.160721	L0 V	-0.06376953
-2.476953	L0 V0	-0.1544674
-2.476953	L0 Z	-0.08898592
-2.476953	L0 Z0	-0.5724751
-2.73538	L0 ZH
-1.489867	L0l <sil>
-1.23144	L0l E0	-0.08005226
-0.4927374	L0l I
-0.7253179	L0l I0
-1.489867	L0l U
-1.489867	L0l U0
-0.754319	Ll A
-1.012746	Ll A0
-1.012746	Ll O0
-1.012746	Ll U
-1.578281	M </s>
-1.578281	M <sil>	-0.1333322
-1.016376	M A	-0.2001223
-1.273365	M A0	-0.2661342
-1.988093	M Al	-0.08794361
-1.887189	M B	0.07682016
-2.309659	M B0	-0.3069313
-1.805366	M D	-0.1060554
-2.309659	M D0	-0.05481909
-1.887189	M E0	-0.06371136
-1.805366	M F	-0.1485184
-2.884319	M F0	-0.1393671
-1.805366	M G	-0.06146801
-2.884319	M G0
-1.887189	M J0	-0.3549367
-1.736542	M K	-0.3210304
-2.884319	M K0	-0.03395347
-2.11977	M KH	-0.06798986
-2.884319	M KH0
-2.11977	M L	-0.1909799
-1.988093	M L0	-0.3516797
-1.399595	M N	-0.7754411
-1.371243	M N0	-0.9928696
-1.142029	M O0	-0.4357147
-1.677147	M P	-0.2120048
-2.309659	M P0	-0.02855794
-1.736542	M R	-0.2628619
-2.884319	M R0	-0.2277943
-1.736542	M S	-0.1089768
-1.887189	M S0	-0.1277269
-1.887189	M SH	-0.07901412
-2.625892	M SH0
-1.887189	M T	-0.2993461
-1.887189	M T0	-0.06832375
-2.625892	M TS	-0.3078827
-1.887189	M TSH0	-0.1364809
-1.578281	M U	-0.1250314
-1.344629	M U0	0.04555202
-2.884319	M U0l
-2.884319	M Ul
-1.805366	M V	-0.03213783
-1.805366	M V0	0.0500091
-1.429928	M Y	-0.08659677
-1.273365	M Y0	-0.1509706
-1.988093	M Z	-0.4041227
-2.309659	M Z0	-0.04538126
-2.11977	M ZH	-0.2747425
-2.431047	M0 </s>
-2.431047	M0 <sil>
-1.666498	M0 A	-0.1958367
-1.352094	M0 A0	-0.1958389
-2.431047	M0 Al
-2.431047	M0 B0
-2.431047	M0 D
-2.431047	M0 D0	-0.1671732
-0.7402675	M0 E0	-0.3681474
-2.431047	M0 F	-0.2767544
-2.431047	M0 G
-0.6010876	M0 I	-0.257101
-0.8662806	M0 I0	-0.2189425
-2.431047	M0 I0l
-1.534821	M0 Il	-0.03469985
-2.17262	M0 J0	-0.1064531
-2.431047	M0 K
-2.431047	M0 K0
-2.431047	M0 KH
-2.17262	M0 L0	-0.2368906
-2.431047	M0 N
-2.431047	M0 N0
-1.534821	M0 O0	-0.1015689
-2.431047	M0 P
-2.431047	M0 P0
-2.431047	M0 R
-2.431047	M0 S
-2.431047	M0 SH
-2.431047	M0 T
-2.431047	M0 T0
-2.431047	M0 TSH0
-2.431047	M0 U	-0.2603686
-2.431047	M0 U0
-2.431047	M0 V
-2.431047	M0 V0
-2.431047	M0 Z
-2.431047	M0 ZH
-0.754319	M0l E0	-0.1565932
-0.4380866	M0l I	-0.07710701
-0.5470951	Ml A	-0.144472
-0.9695655	Ml A0	-0.2512489
-0.9695655	Ml O0	-0.1548435
-1.285798	Ml U
-1.544225	Ml U0
-1.544225	Ml Y
-1.544225	Ml Y0
-1.775152	N </s>
-1.775152	N <sil>	-0.01497985
-0.9401911	N A	-0.3898951
-1.128316	N A0	-0.2080619
-1.369381	N Al	0.03073356
-2.089556	N B	-0.3526365
-2.854105	N B0
-1.775152	N D	-0.06944485
-2.595678	N D0	-0.05151899
-2.854105	N DZH
-2.089556	N E0	-0.105479
-1.856976	N F	-0.1788927
-2.854105	N F0
-2.089556	N G	-0.05802509
-2.595678	N G0	0.07921883
-2.089556	N J0	-0.2299979
-1.856976	N K	-0.3664683
-2.089556	N K0	-0.3936325
-2.854105	N K0l
-2.854105	N KH	-0.03617862
-2.595678	N KH0
-2.854105	N L
-2.279446	N L0
-2.279446	N M	-0.2505571
-2.854105	N M0
-1.128316	N O0	-0.2231534
-2.595678	N O0l	-0.2350712
-1.706328	N P	-0.6004227
-2.279446	N P0	-0.007743448
-2.279446	N R	-0.1459069
-1.957879	N R0	-0.1200372
-1.646934	N S	-0.2533382
-2.279446	N S0	-0.1146099
-2.279446	N SH	-0.05571971
-2.854105	N SH0
-1.646934	N T	-0.2035742
-2.854105	N T0
-1.775152	N TS	-0.1721314
-2.854105	N TSH0	-0.03996787
-1.201407	N U	-0.3606788
-1.243151	N U0	-0.4644231
-2.595678	N Ul
-1.856976	N V	-0.1934533
-1.957879	N V0	0.1106636
-1.163326	N Y	-0.4617617
-1.289339	N Y0	-0.1759816
-2.595678	N Z	-0.3697552
-2.595678	N Z0	-0.0589622
-2.089556	N ZH	-0.3996812
-1.903335	N0 </s>
-2.093225	N0 <sil>
-1.670755	N0 A	-0.06711125
-1.408472	N0 A0	-0.1321089
-2.667884	N0 A0l
-2.667884	N0 Al
-2.409457	N0 B
-2.409457	N0 B0
-2.667884	N0 D
-1.771658	N0 D0	-0.05642095
-0.8795512	N0 E0	-0.2297269
-2.667884	N0 E0l
-2.409457	N0 F
-2.667884	N0 F0
-2.409457	N0 G	-0.290129
-2.667884	N0 G0	-0.04571992
-0.7650148	N0 I	-0.4137176
-1.128195	N0 I0	-0.09832054
-2.409457	N0 I0l
-1.213493	N0 Il	-0.1586993
-1.771658	N0 J0	-0.3302102
-1.903335	N0 K	-0.4782256
-2.409457	N0 K0	-0.3433255
-2.667884	N0 KH	-0.3410973
-2.667884	N0 KH0
-2.667884	N0 L
-2.667884	N0 L0
-2.409457	N0 M
-2.667884	N0 M0
-1.408472	N0 O0	-0.1726808
-2.409457	N0 P
-2.667884	N0 P0
-2.667884	N0 R
-2.409457	N0 R0
-2.667884	N0 S
-2.409457	N0 S0	-0.1712985
-2.409457	N0 SH	-0.3420595
-2.093225	N0 SH0	-0.7634516
-2.093225	N0 T	-0.1355666
-1.771658	N0 T0	-0.4795714
-2.667884	N0 TS
-1.670755	N0 TSH0	-0.5614899
-1.319744	N0 U	-0.3145212
-2.093225	N0 U0	-0.1876817
-2.409457	N0 V
-2.667884	N0 V0
-2.667884	N0 Z
-2.667884	N0 Z0
-2.667884	N0 ZH
-0.7805093	N0l E0	-0.1098947
-0.2762156	N0l I	-0.2241539
-1.355169	N0l I0
-0.5167617	Nl A	-0.2509939
-1.776174	Nl A0
-1.517747	Nl Al
-1.776174	Nl O0	-0.1564956
-1.776174	Nl O0l
-1.776174	Nl R
-1.011625	Nl U	-0.4252087
-1.776174	Nl V
-0.6283968	Nl Y	-0.9074778
-0.3137759	O KH
-1.71351	O0 </s>
-1.748771	O0 <sil>	-0.05296731
-2.056336	O0 A	-0.1601135
-3.135289	O0 A0
-1.71351	O0 B	-0.3526557
-2.056336	O0 B0	-0.8632337
-3.135289	O0 B0l
-1.5956	O0 D	-0.2609109
-1.928118	O0 D0	-0.4625812
-2.876863	O0 D0l
-2.876863	O0 DZH0	-0.09365249
-2.56063	O0 Dl	-0.1841959
-2.56063	O0 E0	-0.5927184
-1.622214	O0 F	-0.180594
-2.239063	O0 F0	0.0156872
-1.78715	O0 G	-0.2822535
-2.56063	O0 G0	-0.8238712
-3.135289	O0 GH
-1.987512	O0 I	-0.1200349
-2.876863	O0 I0
-1.546815	O0 J0	-0.2494666
-2.56063	O0 J0l
-1.426652	O0 K	-0.04146925
-2.056336	O0 K0	-0.8038069
-1.829251	O0 KH	-0.1413883
-3.135289	O0 KH0
-1.524335	O0 L	-0.3685613
-1.71351	O0 L0	-0.537389
-1.482591	O0 M	-0.248915
-1.928118	O0 M0	-0.4477639
-3.135289	O0 M0l	-0.1956671
-2.876863	O0 Ml
-1.243753	O0 N	-0.1041605
-1.829251	O0 N0	-0.7399244
-1.829251	O0 N0l	-0.4608601
-1.546815	O0 Nl	-0.5356952
-1.524335	O0 P	-0.3645978
-2.37074	O0 P0	-0.271596
-1.377103	O0 R	-0.5169455
-2.056336	O0 R0	-0.3362772
-1.426652	O0 S	-0.1845716
-1.875877	O0 S0	-0.177872
-2.56063	O0 S0l	-0.08082476
-1.71351	O0 SH	-0.1317595
-2.13816	O0 SH0	-0.3727533
-2.876863	O0 Sl	-0.08824251
-1.393	O0 T	-0.1197056
-1.71351	O0 T0	-0.3761376
-2.56063	O0 T0l	0.04639834
-1.928118	O0 TS	-0.4815677
-1.502962	O0 TSH0	-0.5988418
-3.135289	O0 TSH0l
-2.239063	O0 Tl	0.09127361
-1.829251	O0 U	-0.03703122
-2.876863	O0 U0
-1.5956	O0 V	-0.4158317
-1.78715	O0 V0	-0.1457169
-3.135289	O0 Vl
-2.37074	O0 Y
-1.5956	O0 Z	-0.3798541
-1.987512	O0 Z0	0.04361612
-2.876863	O0 Z0l
-1.622214	O0 ZH	-0.8207557
-3.135289	O0 ZH0
-3.135289	O0 ZHl
-2.56063	O0 Zl	-0.08101738
-1.268018	O0l G
-0.6933591	O0l N	-0.06260175
-1.009591	O0l N0l	-0.2451596
-1.268018	O0l Nl
-1.268018	O0l P
-1.268018	O0l TSH0
-2.757821	P </s>
-1.678868	P <sil>	-0.05696364
-0.9551642	P A	-0.3913669
-1.218131	P A0	-0.298306
-2.757821	P A0l
-1.861594	P Al	-0.04767781
-2.757821	P F
-2.183161	P F0	-0.2377688
-2.757821	P J0
-1.993271	P K	-0.5607682
-1.678868	P K0	-0.4174476
-2.183161	P KH	-0.1308291
-1.273097	P L	-0.6113986
-1.409681	P L0	-0.4447211
-2.757821	P M
-2.757821	P M0
-1.861594	P N	-0.06192169
-2.499394	P N0
-1.085664	P O0	-0.3787929
-1.015531	P R	-1.273175
-0.9551642	P R0	-1.330258
-2.183161	P S	-0.327453
-2.183161	P S0
-1.861594	P SH	-0.0371408
-1.993271	P SH0	-0.429235
-2.183161	P T	-0.08398661
-2.183161	P T0	-0.2027877
-2.183161	P TS	-0.1764536
-1.993271	P TSH0	-0.1034382
-1.371302	P U	-0.566427
-1.451783	P U0	-0.1317065
-2.183161	P V
-2.757821	P V0
-1.409681	P Y	-0.197536
-1.760691	P Y0	-0.1553107
-1.730343	P0 <sil>
-1.09783	P0 A0	-0.4862842
-0.7919261	P0 E0	-0.6709019
-2.305002	P0 F
-0.5166689	P0 I	-0.4794628
-1.04559	P0 I0	-0.2971106
-1.730343	P0 J0	-0.1245651
-2.046575	P0 K
-2.305002	P0 K0
-2.305002	P0 KH
-2.305002	P0 L0
-2.305002	P0 M
-2.305002	P0 M0
-2.305002	P0 N
-2.305002	P0 N0
-1.730343	P0 O0	-0.0991188
-2.305002	P0 R
-2.305002	P0 R0
-2.046575	P0 S
-2.046575	P0 S0
-2.046575	P0 T
-2.305002	P0 T0
-2.305002	P0 U	-0.2682914
-2.305002	P0 U0
-2.305002	P0 V
-0.1512866	P0l I
-0.3273779	Pl A	-0.4572728
-1.091927	Pl S
-1.091927	Pl Y
-1.762453	R </s>
-1.693629	R <sil>	-0.01936708
-0.9615059	R A	-0.3580092
-1.053073	R A0	-0.318088
-2.266747	R Al	-0.09366551
-2.841406	R B	-0.3224487
-2.582979	R B0	0.02106142
-2.266747	R D	-0.1731886
-1.945179	R D0	-0.2139817
-2.841406	R DZ
-2.841406	R DZH
-2.841406	R Dl
-2.582979	R E0
-1.945179	R F	-0.06680752
-2.266747	R F0
-1.844276	R G	-0.3078908
-1.945179	R G0	0.1978403
-2.582979	R J0	-0.2263432
-1.693629	R K	-0.251506
-1.844276	R K0	-0.4843943
-2.076857	R KH	-0.1758575
-2.266747	R KH0	0.04959376
-2.841406	R L	-0.3707171
-2.266747	R L0	0.006330378
-1.945179	R M	-0.246693
-2.076857	R M0	-0.2711536
-1.634234	R N	-0.5885627
-1.945179	R N0	-0.1774107
-1.209078	R O0	-0.2427595
-1.945179	R P	-0.05645272
-2.582979	R P0	-0.2911753
-1.693629	R S	-0.196499
-1.844276	R S0	-0.5146617
-1.844276	R SH	-0.287521
-2.266747	R SH0	-0.1237579
-1.693629	R T	-0.1348256
-1.844276	R T0	-0.4804714
-2.076857	R TS	-0.2850979
-2.076857	R TSH0	-0.04078668
-1.169249	R U	-0.2619011
-1.150626	R U0	-0.3203253
-1.844276	R V	-0.4321542
-2.582979	R V0
-1.387015	R Y	-0.2777176
-1.493266	R Y0	-0.2130567
-2.266747	R Z	-0.1030363
-2.841406	R Z0
-2.266747	R ZH	-0.1874613
-2.512433	R0 </s>
-1.747884	R0 <sil>
-1.747884	R0 A	-0.06252298
-1.090654	R0 A0	-0.2433584
-2.512433	R0 B	-0.2287721
-2.512433	R0 B0
-2.512433	R0 D
-2.512433	R0 D0	-0.1915314
-0.9476664	R0 E0	-0.3493874
-2.512433	R0 F
-2.512433	R0 F0
-2.512433	R0 G
-2.512433	R0 G0
-0.6824734	R0 I	-0.2256772
-0.9476664	R0 I0	-0.1696823
-1.747884	R0 Il	-0.1342346
-1.515303	R0 J0	-0.152077
-2.512433	R0 K	-0.2358004
-2.512433	R0 K0
-2.512433	R0 KH
-2.512433	R0 KH0
-2.512433	R0 L
-2.512433	R0 L0
-2.254006	R0 M
-2.512433	R0 M0
-2.254006	R0 N	-0.2268345
-2.512433	R0 N0
-2.512433	R0 O
-1.253021	R0 O0	-0.146725
-2.512433	R0 P
-2.512433	R0 P0
-2.254006	R0 S	-0.1395309
-2.512433	R0 S0
-2.512433	R0 SH
-2.512433	R0 T
-2.512433	R0 T0
-2.512433	R0 TS
-2.512433	R0 TSH0
-2.254006	R0 U
-1.747884	R0 U0
-2.254006	R0 V
-2.512433	R0 V0	-0.1493983
-2.512433	R0 Z
-2.512433	R0 Z0
-2.512433	R0 ZH	-0.1922784
-0.6148059	R0l I	-0.1529011
-0.6148059	R0l I0
-0.7908971	Rl A
-0.7908971	Rl A0
-0.7908971	Rl O0
-1.850773	S </s>
-1.507947	S <sil>	-0.07788395
-1.238946	S A	-0.2196172
-1.445002	S A0	-0.4332202
-1.781949	S Al	-0.10104
-2.671299	S E0
-1.850773	S F	-0.1549392
-2.0335	S F0	-0.001581103
-2.165177	S J0	-0.1185031
-1.17154	S K	-0.83638
-1.390036	S K0	-0.5689191
-2.165177	S KH	-0.1149773
-2.671299	S KH0	-0.01186989
-1.277027	S L	-0.790536
-1.507947	S L0	-0.8030809
-1.543207	S M	-0.5917817
-1.581586	S M0	-0.5098293
-1.41665	S N	-0.6640675
-2.671299	S N0	-0.2803831
-1.390036	S O0	-0.2457674
-1.341252	S P	-0.4203921
-1.507947	S P0	-0.2978847
-1.850773	S R	-0.3013037
-1.722554	S R0	-0.2913078
-2.165177	S SH	-0.05378269
-2.671299	S SH0
-1.141393	S T	-0.7492455
-2.929726	S T0l
-2.165177	S TS	-0.06050576
-2.671299	S TSH0	-0.06421994
-1.623688	S U	-0.08967806
-1.623688	S U0	-0.1756675
-1.341252	S V	-0.750905
-1.445002	S V0	-0.4316042
-1.623688	S Y	-0.1046984
-1.670314	S Y0	-0.3192095
-1.6511	S0 </s>
-1.569277	S0 <sil>	-0.1032257
-1.30009	S0 A	-0.2375435
-1.752003	S0 A0	-0.2381278
-2.07357	S0 Al	-0.3027592
-1.083463	S0 E0	-0.17503
-2.64823	S0 E0l	-0.1660135
-1.752003	S0 F	-0.06221291
-2.64823	S0 F0
-0.9059398	S0 I	-0.4197286
-1.193839	S0 I0	-0.2714695
-2.64823	S0 Il
-2.07357	S0 J0	-0.2541252
-1.88368	S0 K	-0.05827693
-2.64823	S0 K0
-2.64823	S0 KH
-2.64823	S0 KH0
-2.389803	S0 L	-0.2459878
-2.389803	S0 L0	-0.1020014
-1.88368	S0 M	-0.2971162
-2.07357	S0 M0	-0.07847524
-2.389803	S0 N	-0.3092986
-1.388817	S0 N0	-0.5031567
-2.07357	S0 O0	-0.06072496
-1.88368	S0 P	-0.304101
-2.07357	S0 P0	-0.007743448
-1.88368	S0 R	-0.06460996
-2.389803	S0 R0	-0.2430154
-1.752003	S0 SH	-0.48827
-2.389803	S0 SH0	-0.05524765
-1.6511	S0 T	-0.04507878
-0.9955312	S0 T0	-0.4196007
-2.389803	S0 T0l
-2.389803	S0 TS
-1.88368	S0 TSH0	0.02287875
-2.64823	S0 Tl	-0.124315
-1.569277	S0 U	-0.307362
-1.88368	S0 U0	-0.09417312
-1.6511	S0 V	-0.09497374
-2.389803	S0 V0
-1.614806	S0l A
-1.614806	S0l E0
-0.4670288	S0l I	-0.04947565
-1.040147	S0l I0	-0.1071374
-1.356379	S0l Il
-1.356379	S0l N0
-1.040147	S0l T0	-0.09695248
-2.097051	SH </s>
-1.775484	SH <sil>
-1.186987	SH A	-0.1590479
-1.158635	SH A0	-0.1863938
-2.671711	SH Al
-1.365673	SH E0	-0.2592781
-2.413284	SH F	-0.2385388
-2.671711	SH F0
-2.671711	SH I
-2.413284	SH I0
-1.907161	SH J0	-0.06430519
-1.323571	SH K	-0.5841105
-1.907161	SH K0	-0.2352518
-2.413284	SH KH	-0.2244563
-2.671711	SH KH0
-1.592758	SH L	-0.5147079
-1.365673	SH L0	-0.3462393
-1.907161	SH M	-0.07262063
-2.671711	SH M0
-1.907161	SH N	-0.6038386
-1.775484	SH N0	-0.2730732
-1.365673	SH O0	-0.4148036
-1.674581	SH P	-0.07222167
-2.671711	SH P0
-2.671711	SH R
-2.097051	SH R0	-0.1133526
-2.097051	SH S	-0.06120802
-2.671711	SH S0	-0.1430083
-0.9630735	SH T	-1.204893
-2.413284	SH T0	-0.1147369
-2.413284	SH TS
-2.671711	SH TSH0
-1.523934	SH U	-0.1061547
-1.907161	SH U0	-0.2397508
-1.674581	SH V	-0.04412279
-2.413284	SH V0
-0.9294209	SH Y	-0.2589944
-1.464539	SH Y0	-0.2394217
-2.282259	SH0 </s>
-2.282259	SH0 <sil>
-2.023832	SH0 A	-0.1049951
-1.203306	SH0 A0	-0.2479134
-1.075087	SH0 E0	-0.2151715
-2.282259	SH0 F
-0.6499312	SH0 I	-0.4241619
-1.386033	SH0 I0	-0.1977646
-2.282259	SH0 J0
-2.282259	SH0 K
-2.282259	SH0 K0
-2.282259	SH0 KH
-2.282259	SH0 L0
-2.023832	SH0 M
-2.282259	SH0 M0
-1.7076	SH0 N	-0.1344446
-2.023832	SH0 N0	-0.197919
-1.022847	SH0 O0	-0.1056536
-2.282259	SH0 P
-2.282259	SH0 P0
-2.282259	SH0 R
-2.023832	SH0 R0
-2.023832	SH0 S0
-2.282259	SH0 T
-2.282259	SH0 T0
-2.282259	SH0 TSH0
-1.285129	SH0 U	-0.2219906
-1.51771	SH0 U0	-0.08464583
-2.282259	SH0 V
-2.282259	SH0 V0
-0.3137759	SH0l I
-0.9158359	SHl K
-0.657409	SHl T	-0.2406017
-0.9158359	SHl U
-1.947244	Sl </s>
-0.7994673	Sl A	-0.1012745
-1.947244	Sl A0
-1.947244	Sl E0
-1.051018	Sl K	-0.2734353
-1.947244	Sl K0	-0.1833643
-1.947244	Sl KH
-1.372585	Sl L
-1.688817	Sl L0	-0.2285929
-1.688817	Sl M	-0.09801444
-1.947244	Sl M0	-0.04007086
-1.947244	Sl N
-1.688817	Sl O0
-1.372585	Sl P	-0.2120763
-1.947244	Sl R0
-1.182695	Sl T	-0.07610512
-1.947244	Sl U
-1.688817	Sl V	-0.1469797
-1.372585	Sl Y
-1.452301	T </s>
-1.550507	T <sil>	-0.07643318
-1.178839	T A	-0.3812301
-1.178839	T A0	-0.4335598
-2.040799	T Al	0.0110426
-2.040799	T E0	-0.1538127
-1.858072	T F	-0.04724574
-2.937025	T F0	-0.1393671
-1.677613	T J0	-0.6201611
-1.588885	T K	-0.362647
-1.630987	T K0	-0.1678154
-2.172476	T KH	-0.1614413
-2.678598	T KH0
-1.939896	T L	-0.2486422
-1.789248	T L0	-0.3472025
-1.939896	T M	-0.1495703
-2.040799	T M0	0.09351581
-1.550507	T N	-0.5933431
-1.550507	T N0	-0.4810896
-1.163504	T O0	-0.3798884
-2.937025	T O0l	-0.3320183
-1.630987	T P	-0.3691256
-1.939896	T P0	-0.3646104
-1.326071	T R	-0.7157336
-1.304698	T R0	-0.7945954
-1.677613	T S	-0.1428211
-2.172476	T S0	-0.1915781
-1.939896	T SH	-0.4957187
-2.362366	T SH0	-0.200352
-2.678598	T TS
-2.040799	T TSH0	-0.3228309
-1.284327	T U	-0.02442488
-1.550507	T U0	-0.08933072
-1.515246	T V	-0.44032
-1.515246	T V0	-0.4247624
-2.937025	T V0l
-1.397335	T Y	-0.1985199
-1.326071	T Y0	-0.03139842
-1.410858	T0 </s>
-1.569119	T0 <sil>	-0.1001567
-1.569119	T0 A	-0.05809018
-1.952347	T0 A0	-0.138317
-1.04474	T0 E0	-0.2562064
-1.569119	T0 F	-0.03776477
-2.458469	T0 F0
-0.9587103	T0 I	-0.2786636
-1.203821	T0 I0	-0.191021
-2.458469	T0 Il
-1.457484	T0 J0	-0.3826482
-1.569119	T0 K	-0.1576239
-2.458469	T0 K0	-0.141428
-2.458469	T0 KH	-0.2244563
-2.716896	T0 KH0
-2.716896	T0 L
-1.719767	T0 L0	-0.2025425
-1.509725	T0 M	-0.1907928
-1.82067	T0 M0	0.09145623
-1.569119	T0 N	-0.4631013
-1.457484	T0 N0	-0.6165827
-1.330378	T0 O0	-0.2519342
-1.637943	T0 P	-0.2802952
-2.458469	T0 P0
-2.458469	T0 R	-0.06748477
-2.716896	T0 R0
-1.569119	T0 S	-0.1252156
-1.637943	T0 S0	-0.3190872
-1.637943	T0 SH	-0.2996375
-2.716896	T0 SH0
-2.458469	T0 Sl
-2.716896	T0 TS
-2.142237	T0 TSH0	-0.08756424
-1.509725	T0 U	-0.04432944
-2.458469	T0 U0	-0.1012921
-1.569119	T0 V	-3.08156e-05
-1.952347	T0 V0	-0.09079358
-2.716896	T0 V0l
-1.544225	T0l A0
-1.285798	T0l E0
-0.2848127	T0l I	-0.1840576
-0.9695655	T0l I0	-0.06483008
-1.544225	T0l O0
-1.753347	TS </s>
-1.753347	TS <sil>	-0.08459654
-1.131377	TS A	-0.1358982
-1.370119	TS A0	-0.1103104
-1.62167	TS Al	-0.003850639
-0.9531293	TS E0	-0.3657859
-2.259469	TS F
-2.517896	TS F0
-2.517896	TS J0
-1.520766	TS K	-0.2588827
-1.62167	TS K0	-0.04559159
-2.517896	TS KH0
-2.517896	TS L
-2.259469	TS L0
-2.259469	TS M
-1.753347	TS M0	-0.09897736
-2.259469	TS N	-0.1332074
-2.517896	TS N0
-1.62167	TS O0	-0.201108
-2.259469	TS P	-0.1142968
-2.517896	TS P0
-2.517896	TS R
-2.517896	TS R0
-2.517896	TS S
-2.517896	TS S0
-2.517896	TS SH
-2.517896	TS SH0
-1.370119	TS T	-0.5420638
-2.259469	TS T0
-1.62167	TS U	-0.2599694
-1.62167	TS U0	-0.1003429
-2.259469	TS V
-1.063505	TS V0	-0.5057668
-0.9294218	TS Y	-0.1750782
-1.370119	TS Y0	-0.08679111
-1.823385	TSH0 </s>
-1.691707	TSH0 <sil>	-0.1591901
-1.823385	TSH0 A
-0.9769796	TSH0 A0	-0.360449
-1.133543	TSH0 E0	-0.4245707
-2.329507	TSH0 F
-2.587934	TSH0 F0
-0.7852772	TSH0 I	-0.4934206
-1.380762	TSH0 I0	-0.3021523
-2.013274	TSH0 J0	-0.1966358
-1.590804	TSH0 K	-0.5845833
-1.590804	TSH0 K0	-0.3243452
-2.587934	TSH0 KH
-2.587934	TSH0 L
-1.823385	TSH0 L0	-0.1913233
-2.587934	TSH0 M
-2.587934	TSH0 M0
-1.328522	TSH0 N	-0.8533908
-1.691707	TSH0 N0	-0.61559
-1.201415	TSH0 O0	-0.23843
-2.587934	TSH0 P
-2.587934	TSH0 P0
-2.587934	TSH0 R
-1.823385	TSH0 R0	-0.4713742
-2.587934	TSH0 S
-2.587934	TSH0 S0
-2.587934	TSH0 SH	-0.7399995
-1.508981	TSH0 T	-0.5124143
-1.823385	TSH0 T0	-0.4796905
-2.587934	TSH0 TS
-1.328522	TSH0 U	-0.1091973
-1.440157	TSH0 U0	-0.2755885
-2.013274	TSH0 V
-2.587934	TSH0 V0	-0.1493983
-0.6148059	TSH0l I
-0.6148059	TSH0l I0	-0.2663006
-0.3137759	TSl Y
-0.5215775	Tl A	-0.1224491
-1.15409	Tl A0
-0.9642	Tl O0	-0.212689
-1.728749	Tl P
-1.728749	Tl R
-1.728749	Tl R0
-1.470322	Tl U	-0.1707209
-1.470322	Tl U0
-1.728749	Tl V0
-1.728749	Tl Y
-1.728749	Tl Y0	-0.2763785
-1.45717	U </s>
-1.555048	U <sil>	0.1037509
-1.719984	U A	-0.175405
-2.303575	U A0	-0.2083895
-1.719984	U B	-0.1938503
-1.646345	U B0	-0.415635
-1.45717	U D	-0.5314904
-1.555048	U D0	-0.1546066
-3.068124	U Dl
-2.493465	U E0	-0.1325713
-1.808712	U F	-0.07724151
-2.303575	U F0	0.02554578
-1.528434	U G	-0.2225965
-2.493465	U G0	-0.4819225
-3.068124	U GH
-1.5834	U I	-0.09387414
-2.493465	U I0	-0.07453628
-1.395968	U J0	-0.8304119
-1.503358	U K	-0.5590446
-2.809697	U K0	-0.3215834
-1.762086	U KH	-0.2775719
-2.809697	U KH0
-3.068124	U KHl
-1.681606	U L	-0.1907918
-1.719984	U L0	-0.1708917
-1.555048	U M	-0.3663608
-1.528434	U M0	-0.5026568
-1.528434	U N	-0.6133111
-1.646345	U N0	-0.6554694
-3.068124	U N0l
-2.303575	U O0	-0.06598736
-1.528434	U P	-0.2546077
-1.920347	U P0	-0.2252942
-1.555048	U R	-0.1925734
-1.989171	U R0	-0.08642422
-1.359487	U S	-0.3073461
-1.719984	U S0	-0.2471432
-1.5834	U SH	-0.09353244
-1.808712	U SH0	-0.7090844
-1.528434	U T	0.05791327
-1.681606	U T0	-0.1087938
-2.070995	U TS	-0.2546732
-1.5834	U TSH0	-0.3887221
-2.809697	U Tl	-0.1711891
-1.528434	U V	-0.1335686
-1.646345	U V0	-0.0418514
-3.068124	U V0l
-2.493465	U Y
-1.808712	U Z	-0.1835949
-2.171898	U Z0	-0.2111842
-3.068124	U Z0l
-1.646345	U ZH	-0.08229911
-1.536179	U0 </s>
-1.46254	U0 <sil>	-0.08928722
-1.805366	U0 A
-2.884319	U0 A0
-1.536179	U0 B	-0.1419642
-2.11977	U0 B0	-0.2642595
-2.884319	U0 B0l
-2.884319	U0 Bl
-1.4978	U0 D	-0.3842214
-1.988093	U0 D0	-0.8438649
-2.884319	U0 DZH0
-2.884319	U0 E0
-1.805366	U0 F	-0.334418
-2.884319	U0 F0
-2.884319	U0 F0l
-2.11977	U0 G	-0.4928653
-2.625892	U0 G0	0.07092109
-1.736542	U0 I	-0.07767735
-1.46254	U0 J0	-0.6229995
-1.46254	U0 K	-0.1881635
-2.11977	U0 K0	-0.3382663
-1.536179	U0 KH	-0.2422344
-2.309659	U0 KH0	-0.1264975
-2.884319	U0 Kl
-2.309659	U0 L	-0.267948
-1.429928	U0 L0	-0.5865871
-1.677147	U0 M	-0.6349173
-1.805366	U0 M0	-0.3619153
-1.624907	U0 N	-0.2887012
-2.625892	U0 N0	-0.2803831
-2.884319	U0 O0
-1.46254	U0 P	-0.1364672
-2.625892	U0 P0
-2.884319	U0 P0l
-2.884319	U0 Pl
-1.429928	U0 R	-0.08160083
-1.805366	U0 R0	-0.546006
-1.371243	U0 S	-0.2686939
-1.677147	U0 S0	-0.5225319
-1.273365	U0 SH	-0.1802031
-1.805366	U0 SH0	-0.5879455
-2.884319	U0 SHl
-2.309659	U0 Sl	-0.3923306
-1.371243	U0 T	-0.1700842
-1.805366	U0 T0	-0.1551611
-2.625892	U0 T0l	0.04639834
-2.11977	U0 TS	-0.4623871
-1.624907	U0 TSH0	-0.4153188
-2.884319	U0 Tl	-0.638896
-1.805366	U0 V	-0.06520951
-1.988093	U0 V0	-0.111127
-1.736542	U0 Z	-0.192336
-2.11977	U0 Z0	0.02845477
-1.319552	U0 ZH	-0.6718704
-0.6148059	U0l L0
-0.6148059	U0l SH
-1.012746	Ul F
-1.012746	Ul K
-1.012746	Ul P
-1.012746	Ul S
-1.012746	Ul T
-1.06428	V A	-0.3715275
-1.208646	V A0	-0.4236816
-1.532662	V Al	-0.03933844
-1.801849	V B	-0.07724656
-1.883673	V B0	-0.06159168
-1.316036	V D	-0.3144694
-1.67363	V D0	-0.1044922
-1.62139	V E0	-0.623611
-1.426411	V G	-0.3622102
-2.622375	V G0	-0.2281046
-1.67363	V J0	-0.2789214
-1.67363	V L	-0.1780843
-1.494284	V L0	-0.7355394
-1.532662	V M	-0.2595885
-1.801849	V M0	-0.4697919
-1.396078	V N	-0.4684044
-1.316036	V N0	-0.7012413
-1.190022	V O0	-0.2615443
-2.880802	V O0l
-1.316036	V R	-0.5143547
-1.67363	V R0	-0.5623746
-1.733025	V U	-0.1646179
-1.67363	V U0	-0.2104951
-1.190022	V Y	-0.3057708
-1.228104	V Y0	-0.1438622
-1.367726	V Z	-0.2032507
-1.801849	V Z0	-0.3993925
-2.116253	V ZH	-0.03024039
-1.226697	V0 A0	-0.2654375
-2.116047	V0 B	-0.2399846
-2.374474	V0 B0
-2.374474	V0 D0
-0.6009526	V0 E0	-0.4956707
-0.5861406	V0 I	-0.5207757
-0.7217753	V0 I0	-0.4923657
-2.374474	V0 Il
-1.609925	V0 J0	-0.2200335
-1.115062	V0 O0	-0.4065237
-2.374474	V0 U0	-0.2633302
-2.374474	V0 Z
-2.374474	V0 Z0
-2.374474	V0 ZH
-0.7805093	V0l E0	-0.1484274
-0.3580389	V0l I	-0.06094559
-1.355169	V0l I0
-1.355169	V0l O0
-0.6933591	Vl A
-1.268018	Vl A0
-0.5034692	Vl O0	-0.08567967
-1.268018	Vl Y
-1.434002	Y </s>
-1.519301	Y <sil>	-0.1179863
-1.625552	Y A	-0.2147429
-2.399033	Y A0
-1.667654	Y B	-0.2324248
-2.209143	Y B0	0.004570156
-2.973692	Y Bl
-1.625552	Y D	-0.2141545
-1.825915	Y D0	-0.04315062
-2.399033	Y E0	-0.3964238
-1.625552	Y F	-0.156943
-2.715265	Y F0	-0.2582314
-1.519301	Y G	-0.08517712
-2.715265	Y G0
-1.894739	Y GH	-0.02649267
-1.71428	Y I	-0.1770994
-2.973692	Y I0
-2.973692	Y Il
-1.551913	Y J0	-0.3211821
-2.715265	Y J0l
-1.519301	Y K	-0.1992523
-1.976562	Y K0	-0.2413563
-1.625552	Y KH	0.06720158
-2.715265	Y KH0	-0.1263116
-2.973692	Y KH0l
-2.973692	Y KHl
-2.973692	Y Kl	-0.07476877
-1.667654	Y L	-0.5141565
-1.488968	Y L0	-0.3813078
-1.551913	Y M	0.08328429
-1.587174	Y M0	-0.5939436
-2.399033	Y Ml
-1.587174	Y N	-0.3916067
-1.625552	Y N0	-0.5333061
-2.715265	Y Nl	-0.1107564
-1.76652	Y O0	-0.3615672
-1.460616	Y P	-0.3657165
-2.077466	Y P0	0.05244781
-1.76652	Y R	-0.3132405
-2.077466	Y R0	-0.1501799
-1.385218	Y S	-0.3188972
-1.825915	Y S0	-0.2431709
-2.715265	Y S0l
-1.76652	Y SH	-0.1486423
-2.077466	Y SH0	-0.1187669
-2.399033	Y Sl	-0.1563506
-1.587174	Y T	-0.1175982
-2.209143	Y T0	-0.3551118
-2.715265	Y T0l
-2.209143	Y TS	-0.1484694
-1.976562	Y TSH0	-0.2857672
-1.976562	Y U	-0.1595459
-2.973692	Y U0
-1.460616	Y V	-0.5206045
-1.71428	Y V0	-0.1806234
-1.519301	Y Z	-0.1062635
-2.077466	Y Z0	-0.03158843
-2.077466	Y ZH	-0.02476738
-2.715265	Y Zl	-0.03833742
-1.535215	Y0 </s>
-1.47582	Y0 <sil>	-0.03599973
-1.918442	Y0 A
-1.685862	Y0 B	0.01262732
-2.108332	Y0 B0	-0.0425676
-1.918442	Y0 D	-0.1742648
-1.786765	Y0 D0	-0.08636886
-2.682992	Y0 D0l
-1.685862	Y0 F	-0.1880298
-2.682992	Y0 F0
-1.918442	Y0 G	-0.2843831
-2.682992	Y0 G0	0.07092109
-1.918442	Y0 GH	-0.07076064
-1.685862	Y0 I	-0.03237363
-2.682992	Y0 I0l
-1.685862	Y0 J0	-0.7268729
-1.685862	Y0 K	-0.06141937
-2.424565	Y0 K0	0.0804882
-1.42358	Y0 KH	-0.2015602
-2.682992	Y0 KH0
-2.682992	Y0 KHl
-2.682992	Y0 Kl
-1.535215	Y0 L	-0.2876229
-1.47582	Y0 L0	-0.6410073
-2.424565	Y0 L0l	-0.1112871
-1.334852	Y0 M	-0.03409913
-1.604039	Y0 M0	-0.4378721
-1.604039	Y0 N	-0.1962134
-1.604039	Y0 N0	-0.3300723
-2.682992	Y0 N0l	-0.2010647
-2.424565	Y0 Nl
-1.376954	Y0 P	-0.1558491
-1.918442	Y0 P0	-0.2399135
-1.604039	Y0 R	-0.2459561
-2.108332	Y0 R0	-0.3280528
-1.42358	Y0 S	-0.2625566
-2.108332	Y0 S0	-0.6398605
-1.685862	Y0 SH	-0.4867104
-2.108332	Y0 SH0	-0.3832403
-1.535215	Y0 T	-0.141335
-1.786765	Y0 T0	-0.1707769
-2.108332	Y0 TS	-0.1319938
-2.108332	Y0 TSH0	-0.2672414
-2.424565	Y0 Tl
-2.682992	Y0 U
-2.682992	Y0 U0
-2.108332	Y0 V	-0.05703989
-2.424565	Y0 V0	-0.06084019
-2.682992	Y0 V0l
-1.918442	Y0 Z	-0.07069527
-2.424565	Y0 Z0	-0.6609166
-1.685862	Y0 ZH	-0.1523043
-2.682992	Y0 Zl
-0.8090072	Z A	-0.2726876
-1.239011	Z A0	-0.3570462
-2.62553	Z Al
-1.319492	Z B	-0.08060914
-1.6284	Z B0	-0.02839902
-1.239011	Z D	-0.135478
-2.367103	Z D0	-0.09790427
-2.62553	Z E0
-1.418358	Z G	-0.2849342
-2.05087	Z G0	0.1853628
-2.05087	Z J0	-0.1119016
-1.477753	Z L	-0.1920767
-1.546577	Z L0	-0.5059784
-2.05087	Z M	-0.205494
-1.860981	Z M0	-0.09413847
-1.014576	Z N	-1.007969
-1.860981	Z O0	-0.1368963
-1.546577	Z R	-0.1224155
-1.729303	Z R0	-0.1200372
-1.546577	Z U	-0.165846
-2.05087	Z U0	-0.1350694
-1.239011	Z V	-0.3381186
-1.239011	Z V0	-0.2027708
-1.477753	Z Y	-0.2652336
-1.860981	Z Y0	-0.0912023
-2.05087	Z ZH	-0.2586124
-2.34316	Z0 A
-1.57861	Z0 A0	-0.1670313
-1.7685	Z0 B	-0.01908984
-2.084733	Z0 B0	-0.2100213
-1.446933	Z0 D	-0.02429072
-0.8034698	Z0 D0	-0.7015674
-2.084733	Z0 D0l	-0.1509556
-2.34316	Z0 Dl
-1.195383	Z0 E0	-0.3319256
-1.446933	Z0 G	-0.05313632
-2.34316	Z0 G0
-0.6173702	Z0 I	-0.4006364
-1.34603	Z0 I0	-0.1245942
-2.34316	Z0 Il
-1.7685	Z0 J0
-2.34316	Z0 M
-2.34316	Z0 M0
-1.083748	Z0 N0	-0.1853897
-2.34316	Z0 N0l
-2.084733	Z0 O0	-0.1052293
-2.34316	Z0 U
-2.084733	Z0 U0	-0.264541
-2.084733	Z0 ZH
-1.091927	Z0l A0
-0.8335002	Z0l D0	-0.1915314
-0.8335002	Z0l E0
-1.091927	Z0l I
-1.273921	ZH A	-0.1400101
-0.9963693	ZH A0	-0.4900526
-2.222666	ZH B	-0.07794657
-2.222666	ZH B0	-0.09338026
-1.094575	ZH D	-0.635792
-1.40214	ZH D0	-0.2936599
-1.221681	ZH E0	-0.6604035
-1.906434	ZH G
-2.222666	ZH G0	-0.2047351
-2.222666	ZH J0	-0.1119016
-2.222666	ZH L0	-0.3330841
-2.222666	ZH M	-0.2596773
-2.481093	ZH M0
-1.333316	ZH N	-0.7334303
-1.584867	ZH N0	-0.3323002
-1.584867	ZH O0	-0.3911943
-2.481093	ZH R
-2.481093	ZH R0
-1.483963	ZH U	-0.05255318
-2.222666	ZH U0	-0.05050807
-2.481093	ZH V0
-0.7388034	ZH Y	-0.1999976
-1.026702	ZH Y0	-0.3565422
-2.222666	ZH Z	-0.09206954
-2.222666	ZH Z0
-1.216866	ZH0 B
-0.9584389	ZH0 D	-0.2317933
-1.216866	ZH0 D0
-1.216866	ZH0 G
-1.216866	ZH0 G0
-1.216866	ZH0 Z
-1.216866	ZH0 Z0
-0.7908971	ZHl O0
-0.5324702	ZHl Y
-0.3701188	Zl A	-0.04649926
-0.7533466	Zl A0	-0.08120115
-1.517896	Zl B
-1.517896	Zl U
-1.517896	Zl U0
-1.517896	Zl V0

\3-grams:
-1.222368	A <sil> A
-2.575016	A <sil> B
-2.408288	A <sil> B0
-1.683766	A <sil> D
-2.021908	A <sil> E0
-1.820727	A <sil> F
-2.408288	A <sil> G
-0.9684006	A <sil> I
-2.575016	A <sil> I0
-1.820727	A <sil> J0
-1.287983	A <sil> K
-2.173475	A <sil> K0
-2.575016	A <sil> KH
-2.021908	A <sil> L0
-1.62868	A <sil> M
-1.264992	A <sil> N
-1.394475	A <sil> N0
-1.820727	A <sil> O0
-1.147931	A <sil> P
-2.021908	A <sil> P0
-1.5798	A <sil> R
-1.287983	A <sil> S
-1.683766	A <sil> S0
-1.312259	A <sil> SH
-1.5798	A <sil> T
-2.021908	A <sil> T0
-2.408288	A <sil> TSH0
-1.820727	A <sil> U
-1.243158	A <sil> V
-2.575016	A <sil> V0
-2.408288	A <sil> Y
-1.5798	A <sil> Z
-2.575016	A <sil> Z0
-2.021908	A <sil> ZH
-1.345083	A0 <sil> A
-1.746624	A0 <sil> D
-1.746624	A0 <sil> D0
-1.081378	A0 <sil> I
-1.746624	A0 <sil> N
-1.579895	A0 <sil> N0
-1.193516	A0 <sil> P
-1.579895	A0 <sil> S
-1.579895	A0 <sil> S0
-1.081378	A0 <sil> SH
-1.746624	A0 <sil> T
-1.579895	A0 <sil> T0
-1.579895	A0 <sil> V
-1.286983	E0 <sil> A
-1.453712	E0 <sil> E0
-1.286983	E0 <sil> P
-1.052171	E0 <sil> SH
-1.286983	E0 <sil> T
-1.240092	F <sil> A
-1.7932	F <sil> F
-0.7979839	F <sil> I
-0.9650537	F <sil> K
-1.7932	F <sil> N
-0.7979839	F <sil> P
-1.7932	F <sil> R
-1.127954	F <sil> S
-1.7932	F <sil> T
-1.01925	I <sil> A
-1.87578	I <sil> B
-1.433672	I <sil> D
-2.428888	I <sil> D0
-2.428888	I <sil> E0
-1.482552	I <sil> F
-1.433672	I <sil> G
-0.8700527	I <sil> I
-2.027347	I <sil> J0
-1.279618	I <sil> K
-2.428888	I <sil> KH
-2.262159	I <sil> L0
-1.537639	I <sil> M
-1.674599	I <sil> N
-1.600742	I <sil> N0
-1.87578	I <sil> O0
-1.037429	I <sil> P
-2.262159	I <sil> P0
-2.262159	I <sil> R
-1.537639	I <sil> S
-2.428888	I <sil> S0
-1.763643	I <sil> SH
-1.87578	I <sil> T
-2.262159	I <sil> T0
-2.027347	I <sil> TSH0
-1.482552	I <sil> U
-1.674599	I <sil> V
-2.428888	I <sil> V0
-1.600742	I <sil> Z
-2.428888	I <sil> Zl
-1.286983	I0 <sil> A
-1.453712	I0 <sil> E0
-1.453712	I0 <sil> G
-1.453712	I0 <sil> I
-1.453712	I0 <sil> N
-1.286983	I0 <sil> P
-1.286983	I0 <sil> S
-0.9348005	Il <sil> A
-1.187137	J0 <sil> A
-1.539885	J0 <sil> B0
-1.941426	J0 <sil> D
-1.774697	J0 <sil> G
-1.11328	J0 <sil> I
-1.539885	J0 <sil> J0
-1.276181	J0 <sil> K
-1.539885	J0 <sil> L0
-1.941426	J0 <sil> M
-1.774697	J0 <sil> O0
-1.276181	J0 <sil> P
-1.187137	J0 <sil> S
-1.774697	J0 <sil> S0
-1.774697	J0 <sil> SH
-1.774697	J0 <sil> T
-1.276181	J0 <sil> V
-1.941426	J0 <sil> V0
-1.209602	K <sil> A
-1.595982	K <sil> B0
-1.762711	K <sil> F
-0.9345644	K <sil> I
-1.762711	K <sil> K
-1.762711	K <sil> L0
-1.595982	K <sil> N
-1.762711	K <sil> N0
-1.595982	K <sil> P
-1.762711	K <sil> S
-1.36117	K <sil> SH
-1.762711	K <sil> T
-1.762711	K <sil> U
-1.595982	K <sil> V
-1.595982	K <sil> Z
-1.602132	KH <sil> A
-1.435403	KH <sil> B
-1.602132	KH <sil> B0
-1.435403	KH <sil> F
-0.9368861	KH <sil> I
-1.602132	KH <sil> K
-1.049023	KH <sil> P
-1.602132	KH <sil> U0
-1.01986	L <sil> A
-1.685106	L <sil> I
-1.685106	L <sil> J0
-1.283565	L <sil> K
-1.131998	L <sil> N
-1.685106	L <sil> N0
-1.131998	L <sil> P
-1.685106	L <sil> S
-0.9308164	L <sil> SH
-1.685106	L <sil> V
-1.685106	L <sil> V0
-1.277621	L0 <sil> A
-1.110892	L0 <sil> I
-1.277621	L0 <sil> K
-1.277621	L0 <sil> N0
-1.277621	L0 <sil> S
-1.1287	M <sil> A
-1.403738	M <sil> G
-0.9176999	M <sil> I
-1.403738	M <sil> J0
-1.202557	M <sil> K
-1.956846	M <sil> KH
-1.956846	M <sil> L
-1.403738	M <sil> N
-1.555306	M <sil> O0
-1.065597	M <sil> P
-1.403738	M <sil> S
-1.956846	M <sil> SH
-1.956846	M <sil> T
-1.956846	M <sil> Y
-1.956846	M <sil> Z
-1.540862	N <sil> A
-1.139321	N <sil> I
-1.374133	N <sil> K
-1.374133	N <sil> N
-1.540862	N <sil> N0
-1.374133	N <sil> P
-1.374133	N <sil> SH
-1.437321	O0 <sil> A
-1.035781	O0 <sil> I
-1.437321	O0 <sil> K
-1.437321	O0 <sil> KH
-1.437321	O0 <sil> N
-1.270593	O0 <sil> SH
-1.437321	O0 <sil> T
-1.022348	P <sil> I
-1.022348	P <sil> V
-1.301102	R <sil> A
-1.301102	R <sil> K
-1.134373	R <sil> P
-1.374133	S <sil> A
-1.540862	S <sil> B
-0.8756164	S <sil> I
-0.9877536	S <sil> P
-1.540862	S <sil> S
-1.540862	S <sil> V
-1.025542	S0 <sil> A
-1.57865	S0 <sil> B
-1.57865	S0 <sil> F
-0.913405	S0 <sil> I
-1.57865	S0 <sil> N
-1.57865	S0 <sil> O0
-1.025542	S0 <sil> P
-1.57865	S0 <sil> SH
-1.57865	S0 <sil> V
-0.7760069	T <sil> A
-1.89158	T <sil> B
-1.89158	T <sil> E0
-1.89158	T <sil> F
-1.338471	T <sil> I
-1.724851	T <sil> J0
-1.490039	T <sil> K
-1.490039	T <sil> N
-1.490039	T <sil> N0
-0.8963637	T <sil> P
-1.490039	T <sil> S
-1.490039	T <sil> SH
-1.724851	T <sil> T
-1.724851	T <sil> U
-1.89158	T <sil> V
-1.89158	T <sil> V0
-1.554589	T0 <sil> A
-1.721318	T0 <sil> B
-0.8931717	T0 <sil> I
-1.319777	T0 <sil> K
-1.554589	T0 <sil> N
-1.554589	T0 <sil> N0
-1.16821	T0 <sil> P
-0.9670286	T0 <sil> S
-1.554589	T0 <sil> SH
-1.721318	T0 <sil> U
-0.9765905	TS <sil> J0
-0.9765905	TS <sil> TSH0
-0.4692397	TSH0 <sil> P
-1.339374	U <sil> A
-1.837891	U <sil> B
-1.603078	U <sil> D
-2.004619	U <sil> E0
-1.603078	U <sil> F
-1.25033	U <sil> G
-1.009403	U <sil> I
-2.004619	U <sil> J0
-1.11337	U <sil> K
-2.004619	U <sil> L
-2.004619	U <sil> M
-1.451511	U <sil> N
-2.004619	U <sil> N0
-1.603078	U <sil> P
-2.004619	U <sil> P0
-2.004619	U <sil> R
-2.004619	U <sil> S
-2.004619	U <sil> SH
-1.837891	U <sil> T
-2.004619	U <sil> U
-1.339374	U <sil> V
-1.837891	U <sil> V0
-1.451511	U <sil> Z
-1.125957	U0 <sil> A
-1.527498	U0 <sil> D
-1.527498	U0 <sil> I
-0.8622525	U0 <sil> K
-1.360769	U0 <sil> N
-1.360769	U0 <sil> O0
-1.527498	U0 <sil> P
-1.360769	U0 <sil> SH
-1.226334	Y <sil> A
-1.724851	Y <sil> B
-1.89158	Y <sil> D
-1.490039	Y <sil> F
-1.13729	Y <sil> I
-1.89158	Y <sil> J0
-1.338471	Y <sil> K
-1.226334	Y <sil> N
-1.226334	Y <sil> P
-1.89158	Y <sil> R
-0.9452432	Y <sil> S
-1.490039	Y <sil> U
-1.490039	Y <sil> V
-1.89158	Y <sil> Z0
-1.23583	Y0 <sil> I
-1.402559	Y0 <sil> J0
-1.23583	Y0 <sil> K
-1.402559	Y0 <sil> N
-1.402559	Y0 <sil> P
-1.402559	Y0 <sil> R
-1.436284	<s> A B
-1.155193	<s> A D
-1.934801	<s> A D0
-1.934801	<s> A F
-1.934801	<s> A J0
-1.934801	<s> A K
-2.101529	<s> A L
-2.101529	<s> A M
-0.9209883	<s> A N
-1.106313	<s> A N0
-1.436284	<s> A P
-2.101529	<s> A Pl
-1.21028	<s> A S
-2.101529	<s> A S0
-2.101529	<s> A SH
-1.273383	<s> A T
-1.436284	<s> A T0
-2.101529	<s> A TS
-2.101529	<s> A TSH0
-2.101529	<s> A Tl
-1.699988	<s> A U0
-1.34724	<s> A V
-1.197394	<sil> A B
-1.791069	<sil> A B0
-1.639501	<sil> A D
-1.43832	<sil> A D0
-2.19261	<sil> A G
-2.19261	<sil> A G0
-2.025881	<sil> A J0
-1.364463	<sil> A K
-2.19261	<sil> A M
-0.9828995	<sil> A N
-1.30136	<sil> A N0
-2.19261	<sil> A O0
-1.43832	<sil> A P
-2.19261	<sil> A R
-1.113571	<sil> A S
-0.8201227	<sil> A T
-1.791069	<sil> A T0
-1.43832	<sil> A V
-2.19261	<sil> A Z
-2.025881	<sil> A ZH
-2.097895	B A </s>
-1.432649	B A <sil>
-2.097895	B A D
-1.931166	B A F
-1.544787	B A G
-2.097895	B A G0
-2.097895	B A J0
-1.206645	B A K
-1.544787	B A K0
-1.696354	B A L
-0.7452473	B A L0
-1.931166	B A M
-1.931166	B A M0
-2.097895	B A N
-1.696354	B A P
-1.018856	B A R
-1.931166	B A R0
-2.097895	B A R0l
-1.931166	B A S
-2.097895	B A TSH0
-1.151558	B A V
-1.696354	B A ZH
-1.505646	D A </s>
-1.364251	D A <sil>
-1.307749	D A B
-2.378063	D A B0
-2.544792	D A D
-1.991684	D A D0
-2.378063	D A E0
-2.143251	D A F
-2.378063	D A G
-1.991684	D A I
-1.153333	D A J0
-1.395522	D A K
-1.879547	D A KH
-1.505646	D A L
-1.172305	D A L0
-1.069212	D A M
-1.790503	D A M0
-1.879547	D A N
-1.790503	D A N0
-1.790503	D A Nl
-2.544792	D A P
-1.192145	D A R
-2.143251	D A R0
-1.429219	D A S
-1.505646	D A S0
-2.143251	D A SH
-1.598456	D A T
-2.143251	D A T0
-1.790503	D A TSH0
-2.143251	D A U0
-1.05418	D A V
-2.544792	D A V0
-2.378063	D A ZH
-0.6208072	D0 A <sil>
-0.925438	Dl A KH
-0.8556193	E0 A B0
-1.022348	E0 A N0
-1.484746	F A D
-1.083205	F A M0
-1.318017	F A N
-1.484746	F A R
-1.484746	F A R0
-1.083205	F A S
-0.8195005	F A T
-1.484746	F A V
-2.055376	G A </s>
-1.628771	G A <sil>
-2.456917	G A B0
-1.791671	G A D
-2.456917	G A D0
-2.290188	G A G
-1.903809	G A J0
-1.903809	G A KH
-1.047279	G A L
-1.461701	G A L0
-1.628771	G A M
-1.791671	G A M0
-1.791671	G A N
-1.903809	G A N0
-1.903809	G A P
-1.219874	G A R
-1.247207	G A R0
-1.065457	G A S
-1.341344	G A S0
-1.41777	G A T
-1.903809	G A T0
-2.456917	G A TS
-2.290188	G A U
-0.6833331	G A V
-2.290188	G A V0
-2.290188	G A Z0
-2.290188	G A ZH
-0.4994693	Gl A V
-0.9265812	I A B
-2.136291	I A B0
-0.9557504	I A D
-1.734751	I A D0
-1.382002	I A G
-1.471046	I A K
-1.583183	I A L0
-1.734751	I A M0
-1.189955	I A N
-1.969563	I A N0
-1.471046	I A P
-1.734751	I A P0
-0.9870208	I A S
-0.9870208	I A T
-2.136291	I A T0
-2.136291	I A TS
-1.969563	I A TSH0
-2.136291	I A ZH
-0.8674461	I0 A S
-0.8674461	I0 A T
-0.8674461	I0 A TS
-1.260467	J0 A </s>
-0.8145835	J0 A <sil>
-1.414522	J0 A B
-2.008197	J0 A D
-2.409738	J0 A D0
-1.744492	J0 A F
-1.200028	J0 A I
-2.243009	J0 A J0
-1.146981	J0 A K
-2.409738	J0 A KH
-2.008197	J0 A L
-2.243009	J0 A L0
-1.856629	J0 A M
-1.856629	J0 A M0
-1.581591	J0 A N
-1.518488	J0 A N0
-1.856629	J0 A O0
-1.330699	J0 A P
-2.008197	J0 A R
-2.409738	J0 A R0
-1.200028	J0 A S
-2.243009	J0 A S0
-2.008197	J0 A SH
-1.655448	J0 A T
-2.409738	J0 A T0
-2.243009	J0 A TS
-2.008197	J0 A U
-1.463401	J0 A V
-2.243009	J0 A V0
-2.409738	J0 A Z
-2.008197	J0 A ZH
-1.633487	K A </s>
-1.615308	K A <sil>
-1.985799	K A B
-2.3597	K A B0
-2.1968	K A D
-2.623405	K A D0
-3.024946	K A E0
-1.519805	K A F
-2.858217	K A F0
-1.167578	K A G
-2.133696	K A I
-1.187058	K A J0
-1.37529	K A K
-1.672298	K A K0
-2.3597	K A KH
-1.714922	K A L
-1.317803	K A L0
-3.024946	K A L0l
-1.228853	K A M
-1.549366	K A M0
-2.623405	K A Ml
-1.326871	K A N
-1.243729	K A N0
-3.024946	K A O0
-1.581087	K A P
-2.3597	K A P0
-1.478925	K A R
-1.945907	K A R0
-1.815236	K A S
-2.1968	K A S0
-2.078609	K A SH
-1.119537	K A T
-2.078609	K A T0
-2.02973	K A TSH0
-2.471838	K A U
-1.336133	K A V
-2.623405	K A V0
-1.005236	K A Z
-2.078609	K A ZH
-2.088615	KH A </s>
-1.427198	KH A <sil>
-1.853803	KH A B
-2.088615	KH A D
-0.7502028	KH A D0
-2.088615	KH A K
-2.088615	KH A KH
-0.9026964	KH A L
-1.590099	KH A M
-2.088615	KH A N0
-2.255344	KH A P
-0.9026964	KH A R
-2.088615	KH A S
-1.309008	KH A T
-0.8638846	KH A T0
-1.702236	KH A TSH0
-2.255344	KH A V
-1.702236	KH A Z0
-0.4659052	Kl A T
-0.8674461	Kl A Z
-1.499533	L A </s>
-1.332157	L A <sil>
-1.77542	L A B
-1.463907	L A D
-1.811954	L A D0
-2.890992	L A E0
-1.851846	L A F
-1.628235	L A G
-2.337884	L A I
-2.890992	L A I0
-1.27321	L A J0
-1.499533	L A K
-2.724264	L A K0
-2.062846	L A KH
-1.999743	L A L
-2.136703	L A L0
-1.580969	L A M
-2.062846	L A M0
-1.811954	L A N
-1.580969	L A N0
-2.724264	L A Nl
-1.580969	L A P
-2.489452	L A R
-1.31971	L A S
-0.8936983	L A S0
-2.136703	L A SH
-2.489452	L A SH0
-2.337884	L A Sl
-1.221316	L A T
-1.580969	L A T0
-2.337884	L A TSH0
-2.136703	L A U
-2.890992	L A U0
-1.211642	L A V
-1.284377	L A V0
-1.430983	L A Z
-1.710451	L A Z0
-1.499533	L A ZH
-1.031711	L0 A </s>
-1.031711	L0 A <sil>
-1.198439	L0 A I
-1.198439	L0 A P
-1.198439	L0 A S0
-1.704747	M A </s>
-1.641643	M A <sil>
-1.778604	M A D
-2.131352	M A D0
-1.867648	M A F
-1.270136	M A G
-2.532893	M A G0
-2.366164	M A I
-1.778604	M A I0
-0.8731115	M A J0
-1.979785	M A K
-1.867648	M A KH
-1.027752	M A L
-1.641643	M A L0
-1.867648	M A M
-2.131352	M A M0
-1.586556	M A N
-1.778604	M A N0
-2.532893	M A Nl
-2.532893	M A P
-1.24586	M A R
-2.366164	M A R0
-1.453854	M A S
-1.867648	M A S0
-1.641643	M A SH
-1.979785	M A SH0
-1.027752	M A T
-1.586556	M A T0
-2.366164	M A TS
-1.586556	M A TSH0
-1.778604	M A V
-2.532893	M A Z
-2.532893	M A Z0
-0.9218372	M0 A </s>
-0.9218372	M0 A <sil>
-1.156649	M0 A I
-0.9218372	M0 A K
-1.198439	Ml A J0
-1.198439	Ml A KH
-1.031711	Ml A L
-1.031711	Ml A N0
-1.198439	Ml A P
-1.512956	N A </s>
-1.463823	N A <sil>
-1.631891	N A B
-2.167727	N A B0
-1.526159	N A D
-1.909706	N A D0
-2.063761	N A E0
-1.706329	N A F
-1.430308	N A G
-2.01983	N A I
-3.058977	N A I0
-0.9560227	N A J0
-1.14792	N A K
-3.058977	N A K0
-1.821934	N A KH
-3.058977	N A L
-1.878436	N A L0
-1.325713	N A M
-1.706329	N A M0
-1.849267	N A N
-1.727118	N A N0
-1.241483	N A P
-2.393731	N A P0
-1.727118	N A R
-2.505869	N A R0
-1.325713	N A S
-1.270258	N A S0
-1.771944	N A SH
-2.892248	N A SH0
-1.568365	N A T
-2.167727	N A T0
-2.892248	N A TS
-1.539777	N A TSH0
-2.11264	N A U
-2.167727	N A U0
-1.221089	N A V
-1.463823	N A V0
-3.058977	N A V0l
-3.058977	N A Vl
-1.68649	N A Z
-2.167727	N A Z0
-2.304688	N A ZH
-1.086068	N0 A </s>
-1.252797	N0 A <sil>
-1.086068	N0 A P
-2.112253	Nl A </s>
-1.710712	Nl A <sil>
-1.945524	Nl A D
-2.112253	Nl A D0
-2.112253	Nl A E0
-2.112253	Nl A G
-2.112253	Nl A I
-0.5409708	Nl A J0
-2.112253	Nl A K
-1.165917	Nl A M
-2.112253	Nl A M0
-2.112253	Nl A N
-1.710712	Nl A N0
-1.559145	Nl A P
-2.112253	Nl A S
-1.945524	Nl A S0
-2.112253	Nl A T
-0.7803946	Nl A V
-1.710712	Nl A Z
-1.253559	O0 A D
-1.420288	O0 A Dl
-1.253559	O0 A N
-1.253559	O0 A P0
-0.7550425	O0 A S
-2.085181	P A B
-2.085181	P A B0
-0.859998	P A D
-1.603304	P A D0
-2.913328	P A DZ0
-2.913328	P A DZH
-2.360219	P A E0
-2.159038	P A F
-1.732787	P A G
-2.360219	P A G0
-2.746599	P A I
-1.732787	P A J0
-1.109983	P A K
-2.746599	P A K0
-1.626294	P A KH
-1.049655	P A L
-1.581469	P A L0
-1.918112	P A M
-1.732787	P A M0
-2.022078	P A N
-1.703617	P A N0
-1.50369	P A P
-2.511787	P A P0
-1.540841	P A R
-2.511787	P A R0
-0.975082	P A S
-1.626294	P A S0
-1.703617	P A SH
-1.215253	P A T
-2.085181	P A T0
-2.913328	P A T0l
-1.918112	P A TS
-1.437747	P A TSH0
-2.913328	P A Tl
-2.360219	P A U
-2.746599	P A U0
-1.966991	P A V
-1.918112	P A V0
-1.966991	P A Z
-2.746599	P A Z0
-1.732787	P A ZH
-1.063741	Pl A L0
-0.2355943	Pl A R
-2.009045	R A </s>
-1.613262	R A <sil>
-1.613262	R A B
-2.900295	R A B0
-1.409683	R A D
-1.905079	R A D0
-1.905079	R A F
-2.733566	R A F0
-1.953958	R A G
-1.637538	R A I
-1.240513	R A J0
-1.354274	R A K
-2.900295	R A K0
-1.663252	R A KH
-2.733566	R A L
-2.733566	R A L0
-1.456436	R A M
-2.498754	R A M0
-1.490657	R A N
-1.440285	R A N0
-1.821256	R A P
-2.900295	R A P0
-2.900295	R A R
-1.126711	R A S
-1.305141	R A S0
-2.235049	R A S0l
-1.456436	R A SH
-1.953958	R A SH0
-1.508835	R A Sl
-1.637538	R A T
-1.568437	R A T0
-2.235049	R A TS
-2.235049	R A TSH0
-1.167031	R A V
-1.568437	R A V0
-1.042927	R A Z
-1.861148	R A Z0
-1.568437	R A ZH
-0.8004993	R0 A </s>
-1.783107	S A </s>
-1.444965	S A <sil>
-1.220642	S A B
-1.783107	S A B0
-1.934674	S A D0
-1.073458	S A F
-2.336215	S A G
-1.783107	S A J0
-2.169487	S A K
-1.67097	S A KH
-1.67097	S A L
-2.169487	S A L0
-0.8923558	S A M
-2.336215	S A M0
-1.508069	S A N
-2.169487	S A N0
-2.169487	S A Nl
-1.581926	S A P
-1.581926	S A R
-1.004357	S A S
-1.581926	S A S0
-1.581926	S A T
-2.336215	S A TSH0
-2.336215	S A V
-1.155674	S A V0
-2.336215	S A Z
-1.269136	S0 A </s>
-0.788387	S0 A <sil>
-1.662364	S0 A B
-2.048744	S0 A D
-1.387326	S0 A F
-1.813932	S0 A G
-2.048744	S0 A I
-1.066202	S0 A K
-2.215473	S0 A L
-2.215473	S0 A M
-1.176326	S0 A N
-2.215473	S0 A O0
-1.324223	S0 A P
-2.048744	S0 A P0
-2.215473	S0 A R
-1.461183	S0 A S
-1.550227	S0 A T
-2.215473	S0 A TSH0
-2.215473	S0 A U0
-1.269136	S0 A V
-1.387326	S0 A Z
-2.215473	S0 A ZH
-1.828528	SH A <sil>
-1.661799	SH A B
-1.661799	SH A D
-1.426987	SH A D0
-1.828528	SH A F
-1.000382	SH A G
-1.163283	SH A J0
-1.000382	SH A L
-1.828528	SH A L0
-1.828528	SH A N0
-1.828528	SH A P
-1.426987	SH A R
-1.828528	SH A S
-1.661799	SH A T
-1.074239	SH A T0
-0.624408	SH0 A <sil>
-1.001747	Sl A B
-1.001747	Sl A M
-1.168476	Sl A R
-1.694326	T A </s>
-1.504283	T A <sil>
-1.521731	T A B
-2.76464	T A B0
-1.750828	T A D
-2.177079	T A D0
-2.76464	T A D0l
-1.621345	T A F
-1.558882	T A G
-1.892222	T A I
-2.040119	T A I0
-1.003795	T A J0
-1.198105	T A K
-1.59951	T A K0
-2.103223	T A KH
-1.644336	T A L
-1.985032	T A L0
-1.009231	T A M
-2.040119	T A M0
-1.385347	T A N
-1.59951	T A N0
-2.266123	T A O0
-1.892222	T A P
-1.157785	T A R
-1.85233	T A R0
-1.558882	T A S
-2.529828	T A S0
-2.266123	T A SH
-2.378261	T A SH0
-1.539909	T A T
-2.529828	T A T0
-2.931369	T A TS
-1.892222	T A TSH0
-2.931369	T A U0
-0.9073114	T A V
-2.378261	T A V0
-1.985032	T A Z
-2.378261	T A ZH
-1.402559	T0 A </s>
-1.23583	T0 A B
-1.402559	T0 A D
-1.402559	T0 A N
-1.402559	T0 A N0
-1.23583	T0 A T
-0.9475025	TS A </s>
-0.9475025	TS A <sil>
-2.067807	TS A B
-2.067807	TS A D
-1.832995	TS A D0
-2.067807	TS A F
-2.067807	TS A G
-1.480246	TS A I
-2.234536	TS A I0
-2.234536	TS A J0
-1.406389	TS A K
-1.832995	TS A M
-2.234536	TS A M0
-1.681427	TS A N
-1.56929	TS A P
-2.067807	TS A R
-1.406389	TS A S
-1.832995	TS A S0
-1.56929	TS A T
-0.9974926	TS A T0
-2.234536	TS A TSH0
-2.234536	TS A U
-1.288199	TS A V
-2.067807	TS A Z
-2.234536	TS A Z0
-1.384076	Tl A B
-1.384076	Tl A E0
-0.8309675	Tl A K
-1.217347	Tl A V
-1.384076	Tl A ZH
-1.067965	U A B
-1.469506	U A L0
-0.6413597	U A T
-1.302777	U A TS
-1.429292	V A </s>
-1.358851	V A <sil>
-1.909657	V A B
-2.904873	V A B0
-1.495235	V A D
-1.865726	V A D0
-1.695162	V A F
-2.738144	V A G
-1.7893	V A I
-1.724332	V A I0
-0.956211	V A J0
-1.724332	V A K
-1.171609	V A L
-1.477787	V A L0
-1.513413	V A M
-2.503332	V A M0
-1.7893	V A N
-1.958536	V A N0
-2.904873	V A Nl
-2.738144	V A O0
-1.513413	V A P
-2.904873	V A P0
-1.235197	V A R
-1.139059	V A R0
-1.265583	V A S
-1.958536	V A S0
-1.755602	V A SH
-1.865726	V A T
-1.573014	V A T0
-2.076726	V A TS
-1.594849	V A TSH0
-2.738144	V A U
-1.32149	V A V
-2.904873	V A V0
-1.532385	V A Z
-2.150583	V A Z0
-1.825834	V A ZH
-0.9877536	Y A B
-1.374133	Y A K
-0.8756164	Y A N
-1.540862	Y A N0
-0.8756164	Y A S
-1.374133	Y A T
-1.540862	Y A T0
-2.078689	Z A </s>
-1.08877	Z A B
-1.533893	Z A D
-2.313501	Z A D0
-2.313501	Z A E0
-1.364657	Z A G
-2.48023	Z A I
-1.72594	Z A J0
-1.193197	Z A K
-2.078689	Z A K0
-2.078689	Z A KH
-1.330959	Z A L
-1.58898	Z A M
-1.243187	Z A M0
-1.72594	Z A N
-1.364657	Z A N0
-1.533893	Z A P
-2.48023	Z A P0
-1.652084	Z A R
-2.313501	Z A R0
-1.02022	Z A S
-1.72594	Z A SH
-1.72594	Z A T
-1.485014	Z A T0
-1.72594	Z A TSH0
-2.48023	Z A U0
-1.193197	Z A V
-1.533893	Z A V0
-2.078689	Z A ZH
-1.323378	ZH A <sil>
-1.156649	ZH A L
-0.9218372	ZH A N
-0.9218372	ZH A S
-1.420288	Zl A B
-1.253559	Zl A K
-1.420288	Zl A M0
-1.420288	Zl A N0
-1.253559	Zl A T
-1.16821	B A0 J0
-1.721318	B A0 K
-1.721318	B A0 KH
-1.16821	B A0 L
-1.319777	B A0 L0
-1.554589	B A0 N0
-0.8931717	B A0 R
-1.554589	B A0 SH
-1.721318	B A0 T
-1.721318	B A0 V
-1.721318	B A0 V0
-1.468403	B0 A0 </s>
-1.082024	B0 A0 <sil>
-1.082024	B0 A0 F
-1.635132	B0 A0 I
-1.233591	B0 A0 K
-1.635132	B0 A0 N
-1.635132	B0 A0 O0
-1.468403	B0 A0 P
-1.635132	B0 A0 R
-1.468403	B0 A0 S
-1.635132	B0 A0 T
-1.468403	B0 A0 Z
-1.721377	D A0 </s>
-1.922558	D A0 <sil>
-1.810421	D A0 D
-2.475666	D A0 D0
-2.475666	D A0 E0
-2.308938	D A0 F
-1.721377	D A0 G
-1.64752	D A0 I
-2.475666	D A0 I0
-1.238623	D A0 J0
-2.308938	D A0 K
-1.165642	D A0 L
-1.396628	D A0 L0
-1.238623	D A0 M
-2.475666	D A0 M0
-1.64752	D A0 N
-1.188633	D A0 N0
-1.810421	D A0 O0
-1.396628	D A0 P
-1.584417	D A0 R
-2.074126	D A0 R0
-1.43652	D A0 S
-2.308938	D A0 S0
-1.48045	D A0 T
-1.295125	D A0 T0
-1.922558	D A0 TSH0
-1.721377	D A0 U
-2.074126	D A0 U0
-1.922558	D A0 V
-1.922558	D A0 V0
-2.074126	D A0 Z
-1.015657	D A0 ZH
-0.9463609	D0 A0 D0
-1.499469	D0 A0 J0
-0.9463609	D0 A0 M0
-1.499469	D0 A0 P
-0.6082196	D0 A0 SH0
-1.332741	D0 A0 T
-0.3327405	D0l A0 D0
-0.925438	Dl A0 T0
-0.925438	Dl A0 ZH
-1.022348	F A0 B
-1.022348	F A0 N
-1.738351	G A0 <sil>
-1.738351	G A0 D
-0.910205	G A0 J0
-1.33681	G A0 KH
-0.8471016	G A0 L
-1.738351	G A0 M
-1.073106	G A0 N
-1.738351	G A0 Nl
-1.571623	G A0 R
-1.185243	G A0 S0l
-1.420288	I A0 D
-1.420288	I A0 L0
-0.5290383	I A0 N
-0.7550425	I A0 N0
-1.420288	I A0 T
-1.87748	J0 A0 </s>
-1.765342	J0 A0 <sil>
-1.539338	J0 A0 B
-1.281317	J0 A0 D
-1.435372	J0 A0 F
-1.602442	J0 A0 I
-1.220878	J0 A0 J0
-1.676298	J0 A0 K
-2.430588	J0 A0 K0
-2.029047	J0 A0 KH
-1.351549	J0 A0 L
-2.263859	J0 A0 L0
-2.430588	J0 A0 M
-1.484251	J0 A0 N
-1.167831	J0 A0 N0
-2.263859	J0 A0 Nl
-2.029047	J0 A0 O0
-1.351549	J0 A0 P
-1.539338	J0 A0 R
-1.315015	J0 A0 S
-1.87748	J0 A0 SH0
-1.250047	J0 A0 T
-1.391441	J0 A0 T0
-2.029047	J0 A0 U
-2.263859	J0 A0 U0
-1.315015	J0 A0 V
-1.87748	J0 A0 V0
-1.484251	J0 A0 Z
-1.765342	J0 A0 ZH
-0.323378	J0l A0 Z
-2.323967	K A0 </s>
-2.490695	K A0 <sil>
-2.323967	K A0 D
-2.089154	K A0 F
-1.06361	K A0 G
-2.323967	K A0 I
-1.06361	K A0 J0
-0.4176027	K A0 K
-1.736406	K A0 KH
-2.323967	K A0 Kl
-1.411657	K A0 L
-2.089154	K A0 L0
-2.490695	K A0 M
-1.253652	K A0 M0
-2.490695	K A0 Ml
-2.323967	K A0 N
-2.089154	K A0 N0
-2.089154	K A0 P
-1.937587	K A0 R
-2.490695	K A0 R0
-2.089154	K A0 S
-2.323967	K A0 T
-1.82545	K A0 T0
-2.490695	K A0 TS
-2.490695	K A0 U
-1.736406	K A0 Z
-1.375123	K A0 ZH
-1.301102	KH A0 J0
-0.8995607	KH A0 N0
-1.301102	KH A0 R
-1.301102	KH A0 T
-1.301102	KH A0 U
-1.301102	KH A0 V
-0.925438	Kl A0 G
-0.2601925	Kl A0 K
-1.635856	L A0 </s>
-1.635856	L A0 <sil>
-1.472955	L A0 B
-1.546812	L A0 D
-2.134373	L A0 D0
-1.546812	L A0 F
-2.301102	L A0 G
-2.134373	L A0 G0
-1.091391	L A0 J0
-1.747993	L A0 K
-2.134373	L A0 L
-1.899561	L A0 M
-2.301102	L A0 M0
-1.261955	L A0 N
-1.546812	L A0 N0
-2.301102	L A0 O0
-1.354765	L A0 P
-2.134373	L A0 R
-1.354765	L A0 S
-1.635856	L A0 S0
-1.747993	L A0 SH0
-2.301102	L A0 Sl
-1.120561	L A0 T
-1.635856	L A0 T0
-1.899561	L A0 TSH0
-2.301102	L A0 U0
-1.151831	L A0 V
-2.301102	L A0 V0
-2.134373	L A0 Z
-2.134373	L A0 Z0
-1.033051	L0 A0 D
-1.861197	L0 A0 D0
-1.694468	L0 A0 F
-0.7821584	L0 A0 J0
-1.106908	L0 A0 L
-1.308089	L0 A0 L0
-1.308089	L0 A0 N
-1.861197	L0 A0 P
-1.861197	L0 A0 S
-1.195952	L0 A0 T
-1.459656	L0 A0 T0
-1.861197	L0 A0 TS
-1.861197	L0 A0 V
-2.195534	M A0 </s>
-1.642426	M A0 <sil>
-1.530289	M A0 G
-2.195534	M A0 G0
-0.9858241	M A0 J0
-2.195534	M A0 K
-2.195534	M A0 KH
-2.195534	M A0 KH0
-1.156388	M A0 L
-0.9584913	M A0 L0
-1.367388	M A0 N
-1.441245	M A0 N0
-2.195534	M A0 P
-1.116496	M A0 R
-1.530289	M A0 S
-2.028805	M A0 S0
-1.793993	M A0 SH
-1.642426	M A0 T
-0.9858241	M A0 T0
-2.195534	M A0 TS
-1.642426	M A0 TSH0
-2.195534	M A0 V0
-0.8970119	M0 A0 KH
-1.063741	M0 A0 N
-1.063741	M0 A0 N0
-0.8970119	M0 A0 SH0
-0.624408	Ml A0 L
-0.624408	Ml A0 R
-1.839976	N A0 </s>
-1.952113	N A0 <sil>
-1.613972	N A0 B
-2.338493	N A0 B0
-1.173363	N A0 D
-2.505222	N A0 D0
-2.505222	N A0 F
-2.505222	N A0 G
-2.505222	N A0 I
-0.9860217	N A0 J0
-1.426183	N A0 K
-2.505222	N A0 KH
-1.173363	N A0 L
-1.613972	N A0 L0
-1.355951	N A0 M
-1.952113	N A0 M0
-1.952113	N A0 N
-1.558885	N A0 N0
-1.324681	N A0 P
-1.095584	N A0 S
-1.558885	N A0 SH
-1.295511	N A0 T
-1.677075	N A0 T0
-1.389649	N A0 TS
-1.295511	N A0 TSH0
-2.338493	N A0 U
-1.839976	N A0 V
-2.505222	N A0 V0
-1.952113	N A0 Z
-2.103681	N A0 ZH
-1.350053	N0 A0 </s>
-1.501621	N0 A0 <sil>
-1.903162	N0 A0 B
-1.075015	N0 A0 F
-1.501621	N0 A0 I
-1.237916	N0 A0 J0
-1.148872	N0 A0 L
-1.736433	N0 A0 L0
-1.903162	N0 A0 N
-1.350053	N0 A0 N0
-1.736433	N0 A0 O0
-1.903162	N0 A0 S
-1.736433	N0 A0 T
-1.075015	N0 A0 T0
-1.903162	N0 A0 V0
-1.075015	P A0 D
-1.736433	P A0 J0
-1.736433	P A0 KH
-0.956825	P A0 L
-0.824123	P A0 L0
-1.148872	P A0 M0
-1.903162	P A0 N
-1.148872	P A0 R
-1.903162	P A0 R0
-1.237916	P A0 SH
-1.736433	P A0 T0
-1.903162	P A0 V0
-1.501621	P A0 ZH
-1.270593	P0 A0 SH0
-0.2567804	P0 A0 T0
-1.437321	P0 A0 TS
-1.270593	P0 A0 Tl
-2.520658	R A0 </s>
-1.96755	R A0 <sil>
-1.44162	R A0 D
-2.119118	R A0 D0
-2.119118	R A0 F
-2.119118	R A0 F0
-1.210635	R A0 J0
-2.119118	R A0 K
-2.119118	R A0 K0
-1.766369	R A0 KH
-1.574322	R A0 L
-1.855413	R A0 L0
-1.855413	R A0 M
-1.405086	R A0 N
-1.766369	R A0 N0
-2.520658	R A0 N0l
-1.766369	R A0 Nl
-0.8608771	R A0 S
-2.35393	R A0 S0
-1.481512	R A0 SH
-1.233625	R A0 T
-1.481512	R A0 T0
-1.96755	R A0 TS
-1.525442	R A0 TSH0
-1.076799	R A0 V
-1.525442	R A0 V0
-1.015517	R A0 Z
-1.855413	R A0 Z0
-2.520658	R A0 ZH
-2.520658	R A0 Zl
-0.7905599	R0 A0 D
-1.785776	R0 A0 J0
-1.384235	R0 A0 L
-1.619047	R0 A0 M
-0.9576296	R0 A0 M0
-1.785776	R0 A0 S0
-0.8945263	R0 A0 T
-1.785776	R0 A0 T0
-1.384235	R0 A0 TSH0
-1.619047	R0 A0 Z
-1.821689	S A0 <sil>
-1.65496	S A0 D0
-1.65496	S A0 J0
-1.26858	S A0 KH
-1.821689	S A0 L
-0.3461082	S A0 M
-1.067399	S A0 M0
-1.420148	S A0 T0
-1.821689	S A0 V0
-1.57865	S0 A0 D
-1.57865	S0 A0 F
-0.7505041	S0 A0 K
-0.6874008	S0 A0 K0
-1.411922	S0 A0 SH0
-1.57865	S0 A0 T
-1.566416	SH A0 </s>
-1.399687	SH A0 F
-1.566416	SH A0 G
-1.399687	SH A0 J0
-0.5712	SH A0 R
-1.399687	SH A0 R0
-1.566416	SH A0 T0
-0.5366243	SH0 A0 J0
-1.198042	SH0 A0 L
-1.198042	SH0 A0 L0
-1.364771	SH0 A0 S0
-1.198042	SH0 A0 T0
-2.463257	T A0 B
-1.910149	T A0 F
-1.910149	T A0 F0
-1.282716	T A0 G
-2.463257	T A0 Gl
-1.253547	T A0 J0
-0.8239677	T A0 K
-2.463257	T A0 KH
-2.061716	T A0 Kl
-0.7472315	T A0 L
-1.153233	T A0 L0
-1.053619	T A0 M
-2.296528	T A0 M0
-2.296528	T A0 N
-1.572007	T A0 N0
-1.313987	T A0 R
-2.463257	T A0 S
-2.463257	T A0 SH
-1.708968	T A0 T
-1.910149	T A0 T0
-2.463257	T A0 TS
-1.708968	T A0 V
-1.282716	T A0 V0
-2.463257	T A0 ZH
-1.226468	T0 A0 B
-0.8249272	T0 A0 G0
-1.226468	T0 A0 SH0
-1.226468	T0 A0 T
-0.8995607	TS A0 </s>
-1.301102	TS A0 <sil>
-1.301102	TS A0 K
-1.301102	TS A0 R
-1.301102	TS A0 T0
-2.119258	TSH0 A0 </s>
-1.952529	TSH0 A0 F
-0.6436777	TSH0 A0 J0
-0.746771	TSH0 A0 L
-1.454013	TSH0 A0 L0
-2.119258	TSH0 A0 M
-2.119258	TSH0 A0 M0
-1.56615	TSH0 A0 N0
-0.9387171	TSH0 A0 S
-1.952529	TSH0 A0 S0
-1.56615	TSH0 A0 SH
-1.56615	TSH0 A0 SH0
-1.952529	TSH0 A0 Sl
-1.952529	TSH0 A0 T
-1.952529	TSH0 A0 T0
-1.56615	TSH0 A0 Z
-0.3989584	U A0 R
-2.393416	V A0 <sil>
-2.393416	V A0 D
-2.226687	V A0 F
-0.9837781	V A0 J0
-0.8473945	V A0 L
-1.156373	V A0 L0
-1.277843	V A0 M
-2.393416	V A0 M0
-1.565269	V A0 N
-1.639126	V A0 N0
-1.244145	V A0 R
-1.156373	V A0 R0
-1.212875	V A0 S
-1.277843	V A0 SH
-1.354269	V A0 T
-1.314377	V A0 T0
-1.565269	V A0 TS
-2.226687	V A0 TSH0
-2.393416	V A0 V
-2.393416	V A0 Z
-1.72817	V A0 ZH
-1.252797	V0 A0 KH
-1.252797	V0 A0 Nl
-0.4246505	V0 A0 Z
-2.255344	Z A0 D
-2.255344	Z A0 D0
-1.427198	Z A0 F
-2.255344	Z A0 G
-2.088615	Z A0 J0
-2.088615	Z A0 KH
-0.3916718	Z A0 L
-1.427198	Z A0 L0
-1.853803	Z A0 M
-2.088615	Z A0 M0
-1.702236	Z A0 N
-1.590099	Z A0 N0
-1.139771	Z A0 P
-2.088615	Z A0 R
-2.088615	Z A0 S
-1.853803	Z A0 T
-1.074803	Z A0 T0
-1.702236	Z A0 TS
-1.384076	Z0 A0 B
-1.384076	Z0 A0 F
-0.8309675	Z0 A0 I
-0.982535	Z0 A0 L
-1.384076	Z0 A0 S
-1.384076	Z0 A0 SH0
-1.428281	ZH A0 F
-0.8008485	ZH A0 J0
-0.435368	ZH A0 L
-1.153243	ZH A0 L0
-1.981389	ZH A0 M0
-1.428281	ZH A0 R
-1.981389	ZH A0 R0
-1.814661	ZH A0 S
-1.316144	ZH A0 T0
-1.814661	ZH A0 ZH
-0.721318	Zl A0 D0
-1.136291	D Al B
-0.3820019	D Al N
-0.4994693	G Al N0
-1.344567	J0 Al D0
-1.344567	J0 Al P
-1.344567	J0 Al P0
-1.177839	J0 Al R
-0.791459	J0 Al T
-1.168476	K Al D
-1.001747	K Al N0
-1.168476	K Al R
-0.331284	L Al N
-0.8760797	L Al T
-0.721318	M Al R0
-1.51371	N Al B
-1.112169	N Al D
-1.346981	N Al P
-1.51371	N Al P0
-1.112169	N Al S
-1.51371	N Al S0
-1.346981	N Al T
-1.51371	N Al TSH0
-0.8674461	P Al D0
-0.624408	R Al N0
-0.925438	S Al B
-0.7587093	S Al P
-0.2473909	S0 Al T
-0.9765905	T Al T
-0.8674461	TS Al T
-1.253559	V Al B
-1.420288	V Al G
-0.6659986	V Al P
-1.420288	V Al R
-1.420288	V Al S
-1.253559	V Al T
-1.252797	<s> B R
-0.8512561	<s> B U0
-0.4246505	<s> B Y0
-0.8885815	<sil> B A
-1.553827	<sil> B L
-1.553827	<sil> B R
-0.7995375	<sil> B U0
-0.7256805	<sil> B Y
-0.8885815	<sil> B Y0
-1.063161	A B A
-1.286377	A B A0
-2.435648	A B D
-2.034107	A B E0
-1.607501	A B J0
-1.681358	A B L
-1.255107	A B L0
-2.435648	A B M
-2.034107	A B N0
-0.8069788	A B O0
-1.063161	A B R
-1.607501	A B R0
-1.544398	A B U
-1.489311	A B U0
-0.9917883	A B Y
-0.7285048	A B Y0
-0.990571	A0 B A
-1.102708	A0 B L
-1.489088	A0 B R
-1.254276	A0 B R0
-1.254276	A0 B U0
-0.6166699	A0 B Y
-1.254276	A0 B Y0
-0.548421	Al B R
-1.101529	Al B Y
-1.252797	D B A
-0.8512561	D B O0
-0.3615472	D B Y0
-0.7669352	D0 B A
-0.7669352	D0 B Y
-0.7669352	D0 B Y0
-0.5811614	E0 B A
-1.527498	E0 B N
-1.527498	E0 B O0
-1.360769	E0 B R0
-1.360769	E0 B U
-1.527498	E0 B Y
-0.6362483	E0 B Y0
-1.323378	G B L0
-0.5690886	G B U0
-0.4952316	G B Y
-1.323378	G B Y0
-1.323378	GH B L0
-1.156649	GH B U0
-1.156649	GH B Y
-0.4952316	GH B Y0
-0.8328981	I B A
-1.196585	I B A0
-1.976193	I B L
-1.147706	I B L0
-1.589814	I B O0
-1.196585	I B R
-1.976193	I B R0
-0.7902743	I B U
-1.388633	I B U0
-1.196585	I B Y
-0.6990625	I B Y0
-1.059739	I0 B A
-1.226468	I0 B L0
-1.059739	I0 B Y
-0.6733597	I0 B Y0
-0.323378	Il B A
-1.063741	J0 B A0
-0.5106324	J0 B Y0
-0.8098617	L B R
-0.4234822	L B Y
-0.624408	L0 B O0
-1.083205	M B A
-1.484746	M B A0
-0.9316377	M B L0
-1.083205	M B O0
-1.484746	M B R
-1.484746	M B U
-1.484746	M B Y
-0.8195005	M B Y0
-1.301102	N B A0
-1.301102	N B O0
-1.301102	N B U
-0.2619551	N B Y0
-1.550226	O0 B A
-1.550226	O0 B L0
-1.060517	O0 B N
-1.286521	O0 B O0
-1.398659	O0 B R
-1.951767	O0 B U0
-0.3451513	O0 B Y
-0.8727283	O0 B Y0
-0.2473909	R B U0
-0.323378	R0 B Y0
-1.232668	U B A
-1.031487	U B A0
-1.232668	U B L0
-0.4539175	U B O0
-1.785776	U B U
-1.384235	U B U0
-1.384235	U B V0
-1.232668	U B Y0
-0.4745632	U0 B A
-1.51371	U0 B L0
-1.51371	U0 B O0
-0.7594203	U0 B Y
-1.51371	U0 B Y0
-0.9765905	V B L
-0.9765905	V B R0
-0.9765905	V B Y0
-0.323378	V0 B U0
-1.112169	Y B A
-0.7594203	Y B A0
-1.112169	Y B N
-1.51371	Y B Y
-0.5673732	Y B Y0
-1.063741	Y0 B A
-1.063741	Y0 B R
-1.063741	Y0 B U0
-1.063741	Y0 B Y0
-0.9218372	Z B A
-1.323378	Z B A0
-1.323378	Z B O0
-0.6581325	Z B R
-1.156649	Z B U
-1.323378	Z B U0
-0.8674461	Z0 B Y
-0.624408	ZH B O0
-0.2228671	<s> B0 I
-1.110892	<sil> B0 E0
-0.1620477	<sil> B0 I
-0.5890808	A B0 E0
-0.2332101	A B0 I
-1.33681	A B0 I0
-0.2473909	A0 B0 I
-0.7587093	D B0 E0
-0.3723297	D B0 I
-0.624408	D0 B0 E0
-0.624408	D0 B0 I
-0.2450417	E0 B0 I
-0.4685864	I B0 A0
-0.457125	I B0 E0
-2.063741	I B0 E0l
-0.8540305	I B0 I
-1.897012	I B0 I0
-1.398495	I B0 O0
-2.063741	I B0 U0
-0.3989584	J0 B0 E0
-0.8004993	J0 B0 I
-0.1682097	M B0 I
-0.04057754	O0 B0 I
-0.4994693	R B0 I
-0.7141613	U B0 E0
-0.420713	U B0 I
-0.5304431	U B0 I0
-0.1899548	U0 B0 I
-0.8674461	V B0 E0
-0.3143377	V B0 I
-0.8674461	Y B0 E0
-0.8674461	Y B0 J0
-0.5545892	Y0 B0 I
-0.721318	Y0 B0 J0
-0.8760797	Z B0 E0
-0.612375	Z B0 I
-0.523331	Z B0 I0
-0.2228671	Z0 B0 I
-0.323378	ZH B0 I
-0.7127156	<s> D A
-0.4618233	<s> D A0
-1.374133	<s> D L0
-1.540862	<s> D O0
-1.374133	<s> D R
-0.6399158	<sil> D A
-0.5560932	<sil> D A0
-1.635132	<sil> D R
-1.635132	<sil> D R0
-1.635132	<sil> D U0
-1.233591	<sil> D V
-1.635132	<sil> D V0
-1.635132	<sil> D Y
-0.7663833	A D A
-1.035903	A D A0
-2.388374	A D B
-2.001994	A D B0
-2.555102	A D E0
-1.608766	A D G
-1.889857	A D J0
-2.555102	A D L
-1.515956	A D L0
-2.555102	A D M
-2.001994	A D M0
-0.8757523	A D N
-1.049961	A D N0
-1.035903	A D O0
-1.245079	A D R
-2.555102	A D R0
-1.889857	A D U
-1.292345	A D U0
-1.559886	A D V
-1.476064	A D V0
-2.555102	A D Y
-1.663853	A D Y0
-2.555102	A D Z
-2.555102	A D ZH
-0.2978697	A0 D A
-1.889043	A0 D A0
-1.889043	A0 D B
-2.055772	A0 D G
-2.055772	A0 D L0
-1.654231	A0 D N
-1.889043	A0 D N0
-1.889043	A0 D O0
-1.227625	A0 D U
-1.164522	A0 D U0
-0.9767331	A0 D Y
-0.1063132	Al D N
-0.323378	B0 D A
-0.8027454	E0 D A
-0.8955554	E0 D L0
-1.440351	E0 D N
-0.579135	E0 D N0
-0.8955554	E0 D U
-1.675163	E0 D Y
-1.675163	E0 D Z
-1.529938	G D A
-0.09505229	G D A0
-1.4178	G D Al
-2.083046	G D O0
-1.529938	G D R
-2.083046	G D V0
-0.6999884	GH D A
-1.101529	GH D U
-0.7742394	I D A
-0.8913011	I D A0
-2.034596	I D B
-2.201325	I D G
-1.799784	I D L
-1.254988	I D L0
-2.201325	I D M0
-2.034596	I D N0
-1.085752	I D O0
-1.310075	I D R
-1.447036	I D U
-0.8486773	I D U0
-1.799784	I D V
-1.254988	I D V0
-2.201325	I D Y0
-2.034596	I D Z
-1.799784	I D ZH
-1.013308	I0 D A
-0.3858751	I0 D N
-1.566416	I0 D N0
-1.566416	I0 D R
-1.013308	I0 D Y
-0.7550425	J0 D A
-1.253559	J0 D A0
-0.7550425	J0 D O0
-1.018747	J0 D R
-1.420288	J0 D U0
-0.9218372	L D A
-0.5690886	L D A0
-1.156649	L D R
-0.7702697	L D V0
-1.253559	M D A
-1.420288	M D L0
-1.253559	M D N0
-0.6659986	M D O0
-1.253559	M D V
-1.018747	M D V0
-1.252797	N D A
-1.086068	N D A0
-1.252797	N D O0
-0.6996886	N D R
-1.252797	N D Y
-0.4401145	O0 D A
-1.433028	O0 D A0
-1.986136	O0 D B
-1.986136	O0 D G
-1.986136	O0 D L0
-0.9469893	O0 D N
-1.094886	O0 D N0
-1.986136	O0 D R
-1.433028	O0 D U
-1.986136	O0 D V
-1.32089	O0 D Y
-1.986136	O0 D Z
-1.433028	O0 D ZH
-0.3989584	R D A
-0.9440117	U D A
-0.2639791	U D A0
-1.43372	U D G
-1.835261	U D L0
-1.080972	U D O0
-1.668533	U D V
-0.5095809	U0 D A
-1.579895	U0 D Al
-0.9184775	U0 D N
-1.579895	U0 D R
-0.8002873	U0 D U
-1.193516	U0 D ZH
-0.6991842	V D A
-1.778223	V D A0
-1.112977	V D O0
-0.4463644	V D R
-1.376682	V D U
-1.778223	V D V
-1.102708	Y D A
-0.4461063	Y D A0
-0.990571	Y D B
-1.655816	Y D N0
-1.489088	Y D O0
-1.489088	Y D R
-1.655816	Y D V0
-0.5106324	Y0 D A
-0.8970119	Y0 D U0
-0.5635825	Z D A
-0.9823567	Z D A0
-1.706878	Z D G
-1.706878	Z D O0
-1.706878	Z D R
-0.8783903	Z D U
-1.320498	Z D U0
-1.472065	Z D V
-1.472065	Z D V0
-1.706878	Z D Y
-0.8970119	Z0 D A
-1.063741	Z0 D O0
-0.8300683	ZH D A
-0.4342849	ZH D A0
-0.8931717	ZH D U
-0.7261019	ZH D Y
-0.323378	ZH0 D A
-0.5545892	<s> D0 E0
-0.721318	<s> D0 I
-0.311345	<sil> D0 I
-1.208511	A D0 A0
-0.6083679	A D0 E0
-0.7720769	A D0 I
-0.4164613	A D0 I0
-1.493368	A D0 O0
-2.247657	A D0 Z
-0.913405	A0 D0 A
-0.913405	A0 D0 B
-0.4293799	A0 D0 I
-1.57865	A0 D0 U
-1.17711	A0 D0 Z
-0.8674461	Al D0 E0
-0.7007173	Al D0 I
-0.8674461	Al D0 I0
-1.052171	E0 D0 E0
-0.3044412	E0 D0 I
-0.0531257	G D0 E0
-1.624408	G D0 I
-0.4576792	GH D0 I
-1.464312	I D0 A0
-1.962829	I D0 B
-0.4902686	I D0 E0
-2.129558	I D0 G
-0.5967403	I D0 I
-0.6856985	I D0 I0
-1.183221	I D0 O0
-1.554589	I0 D0 E0
-0.07166173	I0 D0 I
-1.277621	J0 D0 A0
-0.4494742	J0 D0 E0
-1.277621	J0 D0 I
-0.612375	J0 D0 O0
-0.721318	M D0 E0
-0.5545892	M D0 I
-0.3327405	M0 D0 I
-0.6337705	N D0 E0
-0.6337705	N D0 I
-1.063741	N0 D0 E0
-0.5106324	N0 D0 I
-0.8970119	N0 D0 I0
-1.553827	O0 D0 B
-1.152286	O0 D0 E0
-0.1623674	O0 D0 I
-1.553827	O0 D0 J0
-0.3984952	R D0 I
-1.063741	R D0 I0
-1.063741	R D0 Il
-0.323378	R0 D0 E0
-1.189009	U D0 A0
-0.474977	U D0 E0
-0.8362603	U D0 I
-0.9253042	U D0 I0
-0.05191761	U0 D0 I
-0.6621999	V D0 E0
-0.5106324	V D0 I
-0.8098617	Y D0 E0
-0.9765905	Y D0 I0
-0.9765905	Y D0 O0
-0.8004993	Y0 D0 G
-0.6337705	Y0 D0 I
-0.4576792	Z D0 E0
-0.1259263	Z0 D0 E0
-0.92349	Z0 D0 I
-1.81474	Z0 D0 ZH
-0.323378	Z0l D0 E0
-0.6793218	ZH D0 E0
-0.6793218	ZH D0 I
-0.516421	ZH D0 O0
-0.8674461	A D0l E0
-0.7007173	A D0l I
-0.323378	Z0 D0l E0
-0.323378	A DZ0 E0
-0.624408	O0 DZH0 D
-0.3989584	A Dl A0
-0.925438	I Dl A
-0.925438	I Dl O0
-0.3327405	O0 Dl A
-1.301102	<s> E0 Ml
-0.3058855	<s> E0 T
-0.2067491	<sil> E0 T
-1.067965	<sil> E0 T0
-1.189009	A E0 Ml
-1.59055	A E0 R
-0.180912	A E0 T
-1.189009	A E0 T0
-0.1682097	A0 E0 T
-0.2228671	B E0 T
-1.598531	B0 E0 </s>
-1.833343	B0 E0 <sil>
-2.000072	B0 E0 A
-1.334826	B0 E0 D
-1.833343	B0 E0 D0
-1.334826	B0 E0 G
-1.833343	B0 E0 I
-1.833343	B0 E0 J0
-2.000072	B0 E0 K
-1.053735	B0 E0 L
-1.598531	B0 E0 N
-1.833343	B0 E0 P
-1.334826	B0 E0 R
-1.446963	B0 E0 R0
-2.000072	B0 E0 S
-1.334826	B0 E0 SH
-1.833343	B0 E0 T
-2.000072	B0 E0 U
-2.000072	B0 E0 V
-1.171925	B0 E0 Z
-1.598531	B0 E0 ZH
-2.406163	D0 E0 </s>
-2.406163	D0 E0 A
-2.406163	D0 E0 B
-1.651874	D0 E0 F
-2.239435	D0 E0 G
-1.143406	D0 E0 J0
-2.406163	D0 E0 K
-0.5886699	D0 E0 L
-1.256893	D0 E0 L0
-2.406163	D0 E0 M
-2.004622	D0 E0 N
-0.9155511	D0 E0 N0
-2.406163	D0 E0 P
-2.239435	D0 E0 R
-2.406163	D0 E0 R0
-2.406163	D0 E0 S
-0.9965256	D0 E0 S0
-2.406163	D0 E0 Sl
-1.514914	D0 E0 T
-1.459827	D0 E0 T0
-2.406163	D0 E0 TSH0
-1.514914	D0 E0 V
-1.578017	D0 E0 ZH
-0.8004993	D0l E0 L
-0.3989584	D0l E0 N0
-0.323378	DZ0 E0 M
-0.7968984	F0 E0 N0l
-0.5331938	F0 E0 R
-1.198439	F0 E0 T
-0.624408	G E0 G
-0.8098617	G0 E0 J0
-0.9765905	G0 E0 R
-0.1551927	I E0 T
-0.323378	I0 E0 T
-1.593091	J0 E0 D
-1.39191	J0 E0 D0
-2.1462	J0 E0 F
-0.7365619	J0 E0 J0
-1.199863	J0 E0 KH
-2.1462	J0 E0 L
-1.480954	J0 E0 R
-0.7023402	J0 E0 S
-0.7737126	J0 E0 S0
-1.593091	J0 E0 Z
-1.744659	J0 E0 Z0
-1.25495	J0 E0 ZH
-0.1352538	K E0 T
-1.437321	K0 E0 </s>
-1.270593	K0 E0 J0
-0.7720758	K0 E0 M
-1.270593	K0 E0 O0
-1.035781	K0 E0 V0
-0.4576792	L E0 T
-2.226468	L0 E0 A
-0.8946095	L0 E0 D
-2.226468	L0 E0 D0
-2.059739	L0 E0 F
-1.561223	L0 E0 J0
-2.226468	L0 E0 K
-2.059739	L0 E0 KH
-2.059739	L0 E0 M
-2.059739	L0 E0 M0
-2.059739	L0 E0 N
-0.7664585	L0 E0 N0
-1.231252	L0 E0 S
-1.67336	L0 E0 S0
-0.7664585	L0 E0 T
-2.059739	L0 E0 T0
-1.561223	L0 E0 TS
-2.059739	L0 E0 TSH0
-2.226468	L0 E0 Tl
-1.561223	L0 E0 V
-1.561223	L0 E0 Z
-2.226468	L0 E0 Z0
-0.721318	L0l E0 R0
-0.7007173	M E0 T
-2.237192	M0 E0 B0
-1.290855	M0 E0 D
-2.237192	M0 E0 D0
-1.000149	M0 E0 J0
-1.087921	M0 E0 L
-1.482902	M0 E0 L0
-1.345942	M0 E0 N
-1.684084	M0 E0 N0
-1.482902	M0 E0 Nl
-1.158153	M0 E0 R
-1.835651	M0 E0 R0
-1.290855	M0 E0 S
-1.087921	M0 E0 S0
-2.070463	M0 E0 SH
-1.482902	M0 E0 SH0
-1.198045	M0 E0 T
-1.241976	M0 E0 T0
-1.835651	M0 E0 TS
-1.684084	M0 E0 ZH
-0.4994693	M0l E0 S0
-0.7587093	N E0 <sil>
-0.925438	N E0 T
-1.283011	N0 E0 </s>
-1.677992	N0 E0 <sil>
-1.316708	N0 E0 B
-2.432281	N0 E0 B0
-2.432281	N0 E0 D
-2.432281	N0 E0 D0
-2.265552	N0 E0 F
-2.432281	N0 E0 G
-0.9722717	N0 E0 J0
-1.393135	N0 E0 K
-2.432281	N0 E0 KH
-1.879173	N0 E0 L
-2.03074	N0 E0 L0
-1.485945	N0 E0 M
-1.879173	N0 E0 N
-2.03074	N0 E0 N0
-2.432281	N0 E0 Nl
-1.677992	N0 E0 P
-1.677992	N0 E0 R
-0.9130812	N0 E0 S
-1.604135	N0 E0 SH
-0.9271399	N0 E0 T
-2.03074	N0 E0 T0
-1.169524	N0 E0 TS
-1.437065	N0 E0 TSH0
-2.432281	N0 E0 U
-2.03074	N0 E0 V
-2.432281	N0 E0 ZH
-0.624408	N0l E0 B
-0.1174041	O0 E0 T
-2.035185	P0 E0 F
-1.039969	P0 E0 L
-2.035185	P0 E0 N0
-0.9561466	P0 E0 R
-0.2318407	P0 E0 R0
-2.035185	P0 E0 T0
-1.868456	P0 E0 TSH0
-1.563928	R0 E0 B
-2.062445	R0 E0 B0
-1.563928	R0 E0 D
-2.229174	R0 E0 D0
-2.229174	R0 E0 F
-1.337924	R0 E0 J0
-2.229174	R0 E0 K
-1.282837	R0 E0 L
-1.563928	R0 E0 L0
-2.229174	R0 E0 Ll
-0.8765262	R0 E0 M0
-2.229174	R0 E0 N0
-1.474884	R0 E0 P
-1.676066	R0 E0 S
-1.150135	R0 E0 T
-0.966417	R0 E0 T0
-1.563928	R0 E0 TS
-1.233958	R0 E0 TSH0
-1.827633	R0 E0 V
-1.563928	R0 E0 V0
-2.229174	R0 E0 Z
-1.282837	R0 E0 ZH
-2.007908	S0 E0 A
-2.007908	S0 E0 B
-1.420347	S0 E0 D
-2.174636	S0 E0 D0
-2.174636	S0 E0 G
-1.420347	S0 E0 J0
-1.621528	S0 E0 K
-1.17942	S0 E0 KH
-1.283387	S0 E0 L
-1.621528	S0 E0 L0
-0.9649262	S0 E0 M
-1.2283	S0 E0 M0
-2.174636	S0 E0 Ml
-2.174636	S0 E0 N
-1.509391	S0 E0 N0
-2.007908	S0 E0 N0l
-1.773095	S0 E0 P
-1.13549	S0 E0 R
-1.621528	S0 E0 T
-1.621528	S0 E0 T0
-2.007908	S0 E0 U
-1.509391	S0 E0 V0
-1.773095	S0 E0 Z
-1.59055	SH E0 I
-0.9253042	SH E0 J0
-0.7624034	SH E0 N0
-1.037441	SH E0 Nl
-1.59055	SH E0 R
-1.189009	SH E0 S
-1.189009	SH E0 S0
-1.59055	SH E0 T
-1.083205	SH0 E0 L0
-0.8195005	SH0 E0 N0
-1.484746	SH0 E0 P
-0.7304565	SH0 E0 S
-0.8556193	T E0 T
-0.6208072	T E0 T0
-2.162227	T0 E0 <sil>
-1.760686	T0 E0 DZ
-1.496982	T0 E0 J0
-1.760686	T0 E0 K
-1.760686	T0 E0 KH
-0.7897401	T0 E0 L
-1.167011	T0 E0 L0
-1.12308	T0 E0 M
-1.407938	T0 E0 N
-1.012957	T0 E0 N0
-2.162227	T0 E0 P
-1.609119	T0 E0 P0
-2.162227	T0 E0 R0
-1.609119	T0 E0 S
-1.496982	T0 E0 T
-1.760686	T0 E0 T0
-1.334081	T0 E0 TS
-1.995498	T0 E0 TSH0
-1.760686	T0 E0 ZH
-1.595982	TS E0 B0
-1.762711	TS E0 G
-1.595982	TS E0 K
-0.9345644	TS E0 L
-1.097465	TS E0 L0
-1.097465	TS E0 N
-0.8163741	TS E0 P0
-0.8163741	TS E0 R
-1.283565	TSH0 E0 J0
-0.375082	TSH0 E0 M
-1.131998	TSH0 E0 N0
-1.283565	TSH0 E0 R
-1.685106	TSH0 E0 R0
-1.131998	TSH0 E0 S0
-0.4994693	U E0 T
-0.1428371	V E0 T
-1.156649	V E0 T0
-2.299664	V0 E0 </s>
-2.299664	V0 E0 <sil>
-2.064852	V0 E0 D
-1.801147	V0 E0 D0
-1.913285	V0 E0 J0
-1.056755	V0 E0 K
-2.299664	V0 E0 K0
-2.299664	V0 E0 L
-1.712103	V0 E0 N0
-2.064852	V0 E0 Nl
-0.9075573	V0 E0 R
-1.006383	V0 E0 R0
-1.22935	V0 E0 S
-1.712103	V0 E0 S0
-1.913285	V0 E0 SH0
-2.466393	V0 E0 Sl
-0.8951105	V0 E0 T
-0.8486105	V0 E0 T0
-1.17936	V0 E0 TSH0
-2.064852	V0 E0 Z0
-1.913285	V0 E0 ZH
-0.4994693	V0l E0 R
-0.2022005	Y E0 T
-0.3615472	Z0 E0 M
-1.086068	Z0 E0 R
-1.086068	Z0 E0 T
-1.185243	ZH E0 L0
-1.571623	ZH E0 N
-0.2191515	ZH E0 N0
-1.738351	ZH E0 R
-0.9840619	ZH E0 S
-0.323378	B0 E0l T
-0.3327405	L0 E0l T
-0.09729163	S0 E0l T
-0.990571	<s> F K
-1.102708	<s> F P
-0.901527	<s> F S
-0.4752755	<s> F S0
-1.489088	<s> F T
-1.655816	<s> F TS
-1.655816	<s> F TSH0
-1.112692	<sil> F K
-1.665801	<sil> F KH
-1.499072	<sil> F P
-1.499072	<sil> F P0
-1.112692	<sil> F S
-0.4852597	<sil> F S0
-1.665801	<sil> F SH
-1.26426	<sil> F T
-1.499072	<sil> F TS
-1.208127	A F </s>
-0.8775281	A F <sil>
-1.459019	A F A
-2.287166	A F A0
-2.287166	A F E0
-1.29195	A F K
-2.120437	A F O0
-1.29195	A F P
-1.395916	A F R
-1.248019	A F S
-0.6078157	A F S0
-1.532876	A F SH
-1.208127	A F T
-1.734058	A F V
-2.287166	A F Y0
-1.936162	A0 F <sil>
-1.534621	A0 F K
-1.534621	A0 F P
-1.936162	A0 F P0
-0.8571232	A0 F S
-0.9409458	A0 F S0
-0.5090762	A0 F SH
-0.9409458	A0 F T
-1.384076	E0 F K
-1.384076	E0 F S
-0.3050372	E0 F SH
-1.117404	I F <sil>
-1.510632	I F A0
-1.897012	I F K
-2.063741	I F KH
-1.897012	I F L
-2.063741	I F M0
-1.897012	I F O0
-0.9847021	I F P
-2.063741	I F P0
-1.6622	I F R
-1.117404	I F S
-0.6722811	I F S0
-1.309451	I F SH
-1.897012	I F T
-1.6622	I F TSH0
-2.063741	I F U
-2.063741	I F U0
-1.897012	I F V
-2.063741	I F Y
-1.437321	I0 F K
-1.437321	I0 F S0
-0.2567804	I0 F SH
-1.063741	J0 F A
-0.6621999	J0 F S
-1.063741	J0 F S0
-1.059739	K F P
-1.226468	K F S
-0.8249272	K F S0
-1.226468	K F T
-1.022348	KH F P0
-0.8556193	KH F S0
-1.484746	L F K
-1.318017	L F P
-1.318017	L F S
-0.6565996	L F S0
-0.8195005	L F T
-1.318017	L F T0
-1.031711	M F A
-0.5331938	M F S0
-0.323378	M0 F U0
-1.031711	N F S
-0.4441498	N F S0
-0.8844644	O0 F </s>
-0.7641077	O0 F <sil>
-1.326572	O0 F A
-1.214435	O0 F K
-1.879681	O0 F P
-1.214435	O0 F S
-0.9884308	O0 F S0
-1.712952	O0 F SH0
-1.879681	O0 F T
-1.47814	O0 F Y
-0.8004993	R F Y
-1.063741	S F A
-0.5106324	S F S0
-0.8556193	S0 F K
-1.022348	S0 F P
-1.022348	S0 F S0
-0.323378	SH F S0
-1.226468	T F <sil>
-1.226468	T F P
-0.8249272	T F S0
-1.001747	T0 F K
-1.168476	T0 F P
-1.001747	T0 F S
-1.001747	T0 F S0
-1.301102	U F A
-1.301102	U F KH
-0.7479933	U F S
-1.301102	U F S0
-1.134373	U F SH
-0.5073752	U0 F S
-1.286983	U0 F S0
-0.5624621	U0 F SH
-1.0713	Y F </s>
-1.222867	Y F <sil>
-1.624408	Y F K
-1.624408	Y F M
-0.9591625	Y F P
-1.624408	Y F P0
-0.7962616	Y F S0
-1.222867	Y F T
-1.624408	Y F TS
-1.063741	Y0 F R
-0.5106324	Y0 F SH
-0.323378	<sil> F0 I
-0.8556193	A F0 E0
-1.022348	A F0 I
-0.6999884	A0 F0 I
-1.101529	A0 F0 Il
-1.101529	A0 F0 T0
-0.323378	E0 F0 I
-0.721318	I F0 I
-0.323378	L F0 E0
-0.323378	M F0 I
-0.6855633	O0 F0 <sil>
-1.51371	O0 F0 I
-1.51371	O0 F0 V
-0.3197772	P F0 E0
-0.5545892	S F0 I
-0.323378	T F0 I
-0.6337705	U F0 I
-0.323378	Y F0 I0
-0.323378	I0 Fl S0
-0.8195005	<s> G A
-1.318017	<s> G D0
-1.083205	<s> G L
-1.318017	<s> G O0
-0.5934963	<s> G U0
-0.6993001	<sil> G A
-1.423821	<sil> G D
-0.8362603	<sil> G D0
-1.189009	<sil> G L
-1.189009	<sil> G L0
-1.59055	<sil> G N0
-1.59055	<sil> G R
-1.59055	<sil> G R0
-1.59055	<sil> G U0
-0.7726278	A G A
-1.110445	A G A0
-0.4834703	A G D
-1.889195	A G D0
-1.403157	A G L
-1.495967	A G L0
-1.777058	A G N
-1.015218	A G O0
-1.032666	A G R
-1.688014	A G R0
-2.442304	A G U
-1.614157	A G U0
-0.8066322	A0 G A
-0.7051299	A0 G B
-1.220425	A0 G D
-1.220425	A0 G D0
-1.885671	A0 G L
-1.885671	A0 G R0
-1.718942	A0 G U
-1.885671	A0 G U0
-1.885671	A0 G Z
-1.885671	A0 G Z0
-0.6759607	A0 G ZH
-0.6337705	Al G N0
-0.323378	B G A
-0.323378	B0 G O0
-0.3412493	D G A
-1.018747	D G A0
-1.018747	D G O0
-0.8098617	D0 G O0
-0.323378	DZ G A
-0.4729553	E0 G A
-1.301102	E0 G E0
-0.8995607	E0 G O0
-1.134373	E0 G R
-0.7587093	GH G A
-0.925438	GH G L
-0.6004238	I G A
-1.091467	I G A0
-1.128001	I G D
-1.805499	I G D0
-1.378893	I G L
-2.207039	I G L0
-0.7018982	I G O0
-0.9973292	I G R
-2.207039	I G R0
-2.207039	I G U
-1.211823	I G U0
-2.207039	I G V
-0.4234822	I0 G A
-0.9765905	I0 G D0
-0.7720758	J0 G A
-1.270593	J0 G L
-0.609175	J0 G O0
-1.437321	J0 G R
-1.437321	J0 G R0
-1.437321	J0 G V
-0.2880508	L G A
-1.270593	L G O0
-1.437321	L G U0
-1.437321	L G Z
-0.323378	L0 G A0
-0.612375	M G A
-1.277621	M G D0
-1.277621	M G L
-1.110892	M G N
-1.277621	M G O0
-1.277621	M G U
-0.7347505	N G A
-1.136291	N G L
-0.9695626	N G L0
-0.3989584	N0 G A
-0.8004993	N0 G Y0
-0.3876541	O0 G A
-1.81474	O0 G Al
-1.81474	O0 G B
-1.648011	O0 G L
-1.81474	O0 G O0
-1.648011	O0 G R
-0.6341988	O0 G U
-1.81474	O0 G U0
-0.3094513	R G A
-0.8970119	R G O0
-1.433028	U G A
-1.15799	U G A0
-1.986136	U G D0
-0.9909198	U G L
-1.819407	U G L0
-0.3364795	U G O0
-1.986136	U G R
-1.819407	U G R0
-1.584595	U G U
-1.094886	U G U0
-0.3044412	U0 G A
-1.453712	U0 G D
-0.6994223	U0 G L
-1.453712	U0 G Z
-1.222867	V G A
-0.3373749	V G L
-1.624408	V G L0
-0.7331583	V G O0
-1.624408	V G U
-0.7152166	Y G A
-1.067965	Y G L0
-1.302777	Y G O0
-0.9163978	Y G R
-1.067965	Y G U
-0.2601925	Y0 G A
-0.539504	Z G A
-1.411922	Z G L
-0.4996119	Z G L0
-1.411922	Z G O0
-1.411922	Z G R
-1.57865	Z G U
-0.6337705	Z0 G A
-0.4576792	<sil> G0 I
-0.6996886	A G0 I
-0.3064604	A G0 I0
-0.06852462	A0 G0 I
-0.4994693	D G0 I
-0.323378	D0 G0 I
-0.721318	I G0 I
-0.1682097	I0 G0 I
-0.3327405	N G0 I
-0.2228671	N0 G0 I
-0.03007222	O0 G0 I
-0.7587093	R G0 E0
-0.5238971	R G0 I
-0.1410753	U G0 I0
-0.323378	U0 G0 I
-0.323378	V G0 E0
-0.323378	Y0 G0 I
-0.4994693	Z G0 I
-0.323378	ZH G0 I0
-0.5545892	A GH B
-0.8674461	I GH D
-0.8674461	I GH Z
-0.4494742	I0 GH B
-1.110892	I0 GH D
-1.277621	I0 GH D0
-1.277621	I0 GH G
-1.277621	I0 GH Z
-0.6996886	Y GH B
-0.6996886	Y GH D
-1.252797	Y GH Z
-0.721318	Y0 GH G
-0.721318	Y0 GH Z
-0.4994693	A0 Gl A
-1.550226	<s> I A
-1.785038	<s> I D
-1.197477	<s> I J0
-1.398659	<s> I K
-1.785038	<s> I L0
-1.550226	<s> I M0
-1.951767	<s> I N
-1.785038	<s> I N0
-1.398659	<s> I P
-1.398659	<s> I S
-1.550226	<s> I SH
-1.197477	<s> I T
-1.951767	<s> I TSH0
-1.951767	<s> I U0
-1.398659	<s> I V
-1.123621	<s> I Z
-1.951767	<s> I Z0
-1.951767	<s> I ZH
-1.951767	<s> I Zl
-1.233344	<sil> I A
-1.759274	<sil> I B
-2.312383	<sil> I B0
-1.647137	<sil> I D
-2.312383	<sil> I D0
-1.759274	<sil> I F
-1.910842	<sil> I G
-1.910842	<sil> I J0
-1.484236	<sil> I K
-1.647137	<sil> I L0
-2.145654	<sil> I M
-1.910842	<sil> I M0
-1.19681	<sil> I N
-1.484236	<sil> I N0
-1.759274	<sil> I O0
-1.025349	<sil> I P
-2.312383	<sil> I P0
-2.145654	<sil> I R
-1.049626	<sil> I S
-1.647137	<sil> I S0
-2.145654	<sil> I SH
-1.558093	<sil> I T
-2.312383	<sil> I T0
-2.145654	<sil> I U
-1.273236	<sil> I V
-2.145654	<sil> I V0
-1.421133	<sil> I Z
-2.145654	<sil> I ZH
-1.945524	A I A
-2.112253	A I B
-2.112253	A I B0
-1.559145	A I D
-2.112253	A I D0
-1.357964	A I F
-1.447008	A I G
-2.112253	A I J0
-1.710712	A I K
-1.447008	A I L0
-2.112253	A I M
-1.221003	A I M0
-1.357964	A I N
-1.710712	A I N0
-1.357964	A I P
-2.112253	A I P0
-1.945524	A I R
-0.9317122	A I S
-1.945524	A I S0
-2.112253	A I U
-2.112253	A I V
-2.112253	A I V0
-1.284107	A I Z
-1.559145	A I Z0
-1.945524	A I Zl
-1.57865	A0 I K
-1.411922	A0 I M0
-1.025542	A0 I N
-1.411922	A0 I N0
-1.411922	A0 I P
-1.17711	A0 I S
-2.270321	B0 I </s>
-2.270321	B0 I D
-1.717213	B0 I D0
-1.516032	B0 I G
-1.86878	B0 I J0
-1.516032	B0 I L0
-1.605076	B0 I N
-1.605076	B0 I N0
-1.516032	B0 I Nl
-0.8606835	B0 I R
-1.275105	B0 I R0
-0.8103118	B0 I S
-2.103592	B0 I S0
-1.86878	B0 I SH
-2.103592	B0 I Sl
-1.379072	B0 I T
-2.103592	B0 I TS
-1.717213	B0 I V
-1.154749	B0 I Z
-2.270321	B0 I Z0
-1.323985	B0 I ZH
-2.270321	B0 I Zl
-1.696193	D0 I </s>
-2.283754	D0 I <sil>
-2.450483	D0 I A
-2.283754	D0 I D
-1.696193	D0 I F
-1.33491	D0 I J0
-1.785237	D0 I K
-2.283754	D0 I K0
-0.9904733	D0 I L
-1.696193	D0 I L0
-1.371444	D0 I M
-2.283754	D0 I M0
-1.269942	D0 I N
-1.455267	D0 I N0
-2.048942	D0 I Nl
-1.16345	D0 I R
-1.33491	D0 I R0
-1.897375	D0 I S
-1.455267	D0 I S0
-1.897375	D0 I SH
-0.9312829	D0 I T
-1.33491	D0 I T0
-2.048942	D0 I TS
-2.450483	D0 I TSH0
-2.048942	D0 I U
-1.785237	D0 I V
