
\data\
ngram 1=6453
ngram 2=15294
ngram 3=822

\1-grams:
-1.140275	</s>
-99	<s>	-0.2208437
-1.024277	<sil>	-0.1113189
-2.878055	а	-0.006385855
-4.124652	абажура	-0.04972223
-4.124652	аббатство	-0.04758413
-4.124652	абрикосы	-0.006612889
-4.124652	аванс	-0.006612889
-4.124652	аверьянов	-0.04952044
-4.124652	авось	-0.04969087
-4.124652	автограф	-0.04972223
-4.124652	автор	-0.006612889
-4.124652	агитпоезда	-0.04972223
-4.124652	агонии	-0.0171166
-3.831969	ад	0.04032154
-4.124652	ада	-0.006612889
-4.124652	адрес	-0.04972223
-4.124652	адреса	-0.006612889
-4.124652	адресной	-0.04970588
-4.124652	аж	-0.04166501
-4.124652	аиу	-0.006612889
-4.124652	айртон	-0.04972223
-4.124652	айртона	-0.006612889
-4.124652	айяй	-0.006612889
-4.124652	акаций	-0.006612889
-4.124652	акведуки	-0.006612889
-4.124652	актов	-0.04166501
-4.124652	акциям	-0.006612889
-4.124652	александровне	-0.0171166
-4.124652	алексей	-0.04970588
-4.124652	алигьери	-0.0171166
-4.124652	аллею	-0.006612889
-4.124652	алмазные	-0.04972223
-4.124652	алфавита	-0.006612889
-4.124652	альберт	-0.04960566
-4.124652	американец	-0.04972223
-3.948125	американской	-0.1866089
-4.124652	америке	-0.006612889
-4.124652	ампутирована	-0.04972223
-4.124652	амфитеатр	-0.006612889
-4.124652	амфитеатра	-0.006612889
-4.124652	амфора	-0.006612889
-4.124652	ангел	-0.006612889
-4.124652	ангелом	-0.04821153
-4.124652	английских	-0.04972223
-4.124652	англичане	-0.006612889
-4.124652	андреа	-0.0171166
-4.124652	анды	-0.006612889
-4.124652	анеля	-0.0171166
-4.124652	анну	-0.04082521
-4.124652	апельсинового	-0.006612889
-3.672382	аппарат	-0.01878401
-3.948125	аппараты	-0.1866252
-4.124652	аптекаря	-0.04946361
-4.124652	арийцев	-0.006612889
-4.124652	армия	-0.04972223
-4.124652	артиллерии	-0.0171166
-4.124652	артиллерия	-0.006612889
-4.124652	архитектору	-0.0171166
-4.124652	архитектуре	-0.04949202
-3.948125	арчибальд	-0.006542265
-4.124652	ассоциации	-0.04838248
-4.124652	астролог	-0.04972223
-4.124652	астрономов	-0.006612889
-4.124652	асфальт	-0.0171166
-4.124652	атаку	-0.0171166
-4.124652	атанора	-0.0477268
-4.124652	атанору	-0.006612889
-4.124652	атлантическом	-0.04972223
-3.948125	атлантов	-0.1540196
-4.124652	африки	0.002330575
-3.948125	ах	-0.04932938
-4.124652	ашхе	-0.006612889
-3.948125	аэлита	-0.04898815
-4.124652	аэлиту	-0.0171166
-4.124652	аэлиты	-0.04917936
-4.124652	б	-0.04681989
-4.124652	бабушка	-0.04972223
-4.124652	багровые	-0.04972223
-4.124652	баз	-0.006612889
-4.124652	бакенбарды	-0.04895183
-4.124652	баки	-0.006558843
-4.124652	бала	-0.04972223
-4.124652	балалайке	-0.006612889
-3.948125	балки	-0.01706384
-4.124652	балу	-0.04972223
-4.124652	бальзамо	-0.04895183
-4.124652	баранками	-0.0171166
-4.124652	барельеф	-0.04821153
-4.124652	барином	-0.04972223
-4.124652	баронетами	-0.006612889
-4.124652	баррикаду	-0.04082521
-4.124652	баррикады	-0.006612889
-4.124652	барского	-0.04970588
-4.124652	бархатные	-0.04082521
-4.124652	барыни	-0.006612889
-4.124652	барышни	-0.04838248
-3.948125	барышня	0.02957992
-4.124652	бах	-0.006612889
-4.124652	башнями	-0.006612889
-4.124652	бдительность	-0.006612889
-4.124652	бег	-0.04883802
-4.124652	бегал	-0.048012
-4.124652	бегать	-0.04838248
-4.124652	бегая	-0.04082521
-4.124652	беглецы	-0.006612889
-4.124652	бегущие	-0.04972223
-4.124652	бегущих	-0.04838248
-4.124652	бедная	-0.006612889
-4.124652	бедуины	-0.04972223
-4.124652	бежала	-0.04821153
-3.831969	бежали	-0.1341539
-3.672382	бежать	-0.03164598
-4.124652	беженцев	-0.006612889
-3.030648	без	-0.06997819
-4.124652	безвестных	-0.04972223
-4.124652	безвоздушном	-0.04969087
-4.124652	безграничную	-0.006612889
-4.124652	бездна	-0.04972223
-4.124652	бездны	-0.04738431
-4.124652	беззаботного	-0.006612889
-4.124652	безнадёжное	-0.04972223
-4.124652	безоружных	-0.04969087
-4.124652	безумие	-0.04972223
-4.124652	безумное	-0.04972223
-4.124652	безумном	-0.04970588
-4.124652	бейкер-стрит	-0.006612889
-4.124652	бейракрс	-0.0171166
-4.124652	бекингэма	-0.0171166
-4.124652	белого	-0.04960566
-3.948125	белой	-0.04965828
-4.124652	белом	-0.04972223
-4.124652	белые	-0.04972223
-4.124652	белый	-0.04972223
-3.831969	белых	-0.04964069
-4.124652	бельбо	-0.006612889
-4.124652	берег	-0.04968964
-3.948125	берега	-0.0165575
-4.124652	берегов	-0.04972223
-4.124652	берегу	-0.0169558
-4.124652	берлин	-0.0171166
-4.124652	беру	-0.0442322
-4.124652	берут	-0.006612889
-4.124652	берёзы	-0.0171166
-4.124652	берёт	-0.006612889
-4.124652	беседа	-0.04883802
-4.124652	беседки	-0.006612889
-4.124652	беседуя	-0.006612889
-4.124652	бесконечная	-0.006612889
-3.831969	бесконечно	-0.04945521
-4.124652	бесконечную	-0.04966247
-4.124652	бесконечные	-0.04972223
-4.124652	бесплодной	-0.04970588
-4.124652	беспокойтесь	-0.04970588
-4.124652	беспокоящим	-0.04949202
-4.124652	беспомощно	-0.04972223
-4.124652	беспросветная	-0.006612889
-4.124652	беспутный	-0.04970588
-4.124652	бесспорно	-0.006612889
-4.124652	бестактным	-0.006612889
-4.124652	бесценных	-0.04972223
-3.948125	бесшумно	-0.04968964
-4.124652	бетховен	-0.006612889
-4.124652	бетховену	-0.006612889
-4.124652	бешеные	-0.04970588
-4.124652	бешеным	-0.04972223
-4.124652	бешеных	-0.04972223
-4.124652	библиотеки	-0.006612889
-3.948125	била	-0.178568
-4.124652	билетёр	-0.0171166
-4.124652	били	-0.04892338
-4.124652	билль	-0.006612889
-4.124652	бильярд	-0.0171166
-4.124652	бильярда	-0.006612889
-3.948125	бинэ	0.02957992
-4.124652	битки	-0.04972223
-4.124652	биться	-0.04166501
-4.124652	бичами	-0.0171166
-4.124652	благовидные	-0.04952044
-4.124652	благоговеешь	-0.006612889
-4.124652	благодарна	-0.006612889
-4.124652	благодать	-0.04972223
-3.948125	благополучно	-0.04968964
-4.124652	благоприятный	-0.04972223
-4.124652	благородными	-0.04972223
-4.124652	благословляет	-0.006612889
-4.124652	блаженства	-0.006612889
-4.124652	бледнел	-0.006612889
-4.124652	бледно	-0.04972223
-4.124652	бледно-зелёные	-0.04972223
-4.124652	бледный	-0.04960566
-3.948125	блеск	-0.04651971
-4.124652	блеска	-0.04898028
-4.124652	блеснуло	-0.04972223
-4.124652	блестели	-0.04917936
-4.124652	ближайшей	-0.04972223
-4.124652	ближайший	-0.04972223
-3.948125	ближе	-0.04927253
-4.124652	близ	-0.04957725
-3.948125	близко	-0.1435159
-4.124652	блин	-0.04055696
-4.124652	блудницей	-0.04166501
-4.124652	блуждая	-0.04932151
-4.124652	блузе	-0.04909405
-4.124652	блюд	-0.006612889
-3.948125	блюда	-0.04877394
-4.124652	блюдца	-0.006612889
-4.124652	блюхер	-0.04972223
-3.831969	бовари	-0.04933858
-3.831969	бог	-0.04875631
-4.124652	богатым	-0.04972223
-4.124652	богатыри	-0.0171166
-3.948125	богиня	-0.04965828
-4.124652	богом	-0.04970588
-4.124652	богу	-0.04082521
-4.124652	бодро	-0.04966247
-3.948125	боже	-0.1865086
-4.124652	божественность	-0.0171166
-4.124652	божественный	-0.006612889
-4.124652	божественными	-0.04082521
-4.124652	божия	-0.0171166
-4.124652	божьим	-0.0171166
-4.124652	бойко	-0.04972223
-4.124652	боков	-0.04789794
-3.388508	более	-0.0468875
-4.124652	болезней	-0.04166501
-4.124652	боли	-0.006612889
-4.124652	болота	-0.006612889
-4.124652	болотные	-0.04972223
-3.831969	больных	-0.005941231
-3.096317	больше	0.01047171
-4.124652	большеглазых	-0.04972223
-4.124652	большее	-0.04838248
-4.124652	большею	-0.04969087
-3.948125	большие	-0.0495417
-4.124652	больших	-0.04972223
-3.948125	большого	-0.04968964
-3.388508	большой	-0.03969982
-4.124652	большою	-0.04972223
-3.948125	большую	-0.04968964
-4.124652	бормочет	-0.04940677
-4.124652	бородавки	-0.0171166
-4.124652	бородою	-0.0171166
-4.124652	бороды	-0.006612889
-4.124652	борху	-0.0171166
-3.948125	борьбы	-0.04968964
-4.124652	бостоном	-0.0171166
-4.124652	бостончик	-0.04929308
-4.124652	босую	-0.006558843
-4.124652	боялась	-0.04972223
-4.124652	брала	-0.04789794
-3.831969	брат	-0.1032453
-3.831969	брата	-0.2269154
-4.124652	братскому	-0.04970588
-4.124652	брату	-0.0171166
-4.124652	брать	-0.006612889
-3.831969	братья	-0.1271121
-4.124652	бредить	-0.04972223
-4.124652	бредут	-0.04972223
-4.124652	бренди	-0.006612889
-3.948125	бричка	-0.01708147
-4.124652	бричке	-0.04955671
-4.124652	бровей	-0.04970588
-4.124652	брови	-0.006612889
-4.124652	бровями	-0.04082521
-4.124652	бродяги	-0.006612889
-3.948125	бронзовым	-0.04965828
-4.124652	бронхитик	-0.006612889
-4.124652	бросаешь	-0.04972223
-4.124652	бросил	-0.04923623
-3.948125	бросилась	-0.04671993
-4.124652	бросить	-0.04789794
-4.124652	броутон	-0.006612889
-4.124652	брусничного	-0.04966247
-4.124652	брустверам	-0.0171166
-4.124652	брызгами	-0.006612889
-4.124652	брюхом	-0.006612889
-4.124652	брючек	-0.006612889
-4.124652	бубен	-0.0171166
-4.124652	бубенцов	-0.04082521
-3.948125	бубнили	-0.006558843
-3.948125	будем	-0.04903297
-3.001197	будет	-0.01601817
-4.124652	будете	-0.04875264
-3.948125	будешь	-0.04142622
-4.124652	будочников	-0.04917936
-3.672382	будто	-0.07042158
-3.948125	буду	-0.04949273
-3.672382	будут	-0.01674532
-4.124652	будущее	-0.04838248
-4.124652	будь	-0.04758413
-4.124652	будьте	-0.04969087
-4.124652	букв	-0.0171166
-4.124652	буква	-0.04972223
-4.124652	буклями	-0.04903717
-4.124652	булавкою	-0.04638385
-4.124652	булыжник	-0.0171166
-4.124652	бульваре	-0.0171166
-3.948125	бумага	-0.005600229
-3.948125	бумаги	-0.1435159
-3.948125	бумагу	-0.04944306
-4.124652	бумажке	-0.04969087
-4.124652	бумажки	-0.048012
-4.124652	бури	-0.0171166
-4.124652	бурому	-0.04972223
-4.124652	бурь	-0.04166501
-4.124652	буря	-0.006612889
-4.124652	бутылке	-0.006612889
-4.124652	буфер	-0.0171166
-4.124652	бухты	-0.04972223
-2.782227	бы	-0.04392994
-4.124652	бывает	-0.04166501
-3.948125	бывал	-0.04917221
-4.124652	бывало	-0.0171166
-3.831969	бывают	-0.04870984
-4.124652	быков	-0.006612889
-2.601868	был	0.06110077
-2.782227	была	0.02365601
-2.878055	были	-0.04061244
-4.124652	былинках	-0.006612889
-2.501006	было	0.003650673
-3.831969	быстро	-0.04045834
-4.124652	бытие	-0.006612889
-3.218289	быть	-0.007010434
-4.124652	бычачий	-0.04972223
-4.124652	бьющий	-0.04166501
-3.948125	бьётся	-0.005812302
-4.124652	бювар	-0.006612889
-4.124652	бюши	-0.04972223
-1.733884	в	-0.0776468
-3.948125	важнее	-0.04940258
-4.124652	важнейшие	-0.04972223
-3.948125	важно	-0.1540196
-4.124652	важное	-0.0171166
-4.124652	валентин	-0.04972223
-4.124652	валится	-0.0442322
-4.124652	вальтер	-0.04972223
-4.124652	валялась	-0.04972223
-4.124652	валялись	-0.006612889
-3.096317	вам	-0.0532169
-4.124652	вами	-0.04972223
-4.124652	ванной	-0.04972223
-4.124652	ваня	-0.04082521
-4.124652	варварское	-0.04972223
-4.124652	варо	-0.04972223
-4.124652	варёное	-0.04972223
-4.124652	варёную	-0.04972223
-3.173716	вас	0.03387622
-4.124652	ватанабэ	-0.006612889
-4.124652	ваш	-0.04966247
-3.948125	ваша	-0.04960933
-3.948125	ваше	-0.1866252
-3.948125	вашего	-0.04965828
-4.124652	вашей	-0.04972223
-3.948125	ваши	-0.04948783
-3.831969	вашу	-0.04964069
-4.124652	ввели	-0.04937835
-3.948125	вверх	-0.04709151
-4.124652	вверху	-0.04838248
-4.124652	ввёл	-0.04166501
-3.948125	вглубь	-0.04962988
-3.948125	вглядывался	-0.178568
-3.948125	вдали	-0.01708147
-3.948125	вдова	-0.04753495
-4.124652	вдоль	-0.04969087
-4.124652	вдохнови	-0.04972223
-4.124652	вдребезги	-0.04972223
-3.324068	вдруг	-0.01925882
-4.124652	вдыхание	-0.04082521
-4.124652	вегетативную	-0.04972223
-4.124652	веду	-0.04917936
-3.324068	ведь	0.0009758659
-4.124652	ведёрке	-0.04972223
-4.124652	ведёшь	-0.04952044
-4.124652	вежливо	-0.006612889
-3.948125	вежливым	-0.01708147
-3.831969	везде	-0.01558942
-3.831969	век	0.02975898
-4.124652	веке	-0.006612889
-4.124652	веки	-0.0171166
-3.948125	веку	-0.01701704
-4.124652	вел	-0.0171166
-3.948125	вела	-0.04107872
-4.124652	велел	-0.04970588
-4.124652	великая	-0.04952044
-4.124652	велико	-0.006612889
-3.948125	великого	-0.04967329
-4.124652	величественная	-0.04972223
-4.124652	величественный	-0.0171166
-4.124652	величины	-0.04972223
-4.124652	вельможами	-0.04972223
-4.124652	вендер	-0.0171166
-4.124652	венец	-0.04972223
-4.124652	венчаться	-0.04166501
-4.124652	вера	-0.006612889
-3.948125	верил	-0.005820218
-4.124652	верит	-0.04875264
-3.831969	верить	-0.006879274
-4.124652	вернее	-0.04969087
-3.464203	верно	-0.05738875
-4.124652	верного	-0.04082521
-4.124652	верное	-0.04972223
-4.124652	вернувшихся	-0.0442322
-3.948125	вернулась	-0.04965828
-3.948125	вернулся	-0.178568
-3.948125	вернуть	-0.04863162
-3.948125	вернуться	-0.01492989
-3.948125	вероятно	-0.004214864
-4.124652	вертикальные	-0.04972223
-4.124652	вертлявым	-0.04923623
-4.124652	верующим	-0.04972223
-4.124652	верхнего	-0.04972223
-4.124652	верхний	-0.04866725
-4.124652	верхнюю	-0.0171166
-4.124652	вершины	-0.006612889
-4.124652	верёвками	-0.04082521
-3.948125	верёвочки	-0.06665491
-4.124652	вес	-0.0171166
-4.124652	веселье	-0.006612889
-4.124652	весеннем	-0.0171166
-4.124652	весло	-0.04970588
-4.124652	весна	-0.006612889
-4.124652	весной	-0.0171166
-4.124652	весом	-0.0171166
-4.124652	вест	-0.006612889
-3.948125	вести	-0.01689455
-4.124652	вестибюль	-0.006612889
-4.124652	вестового	-0.04082521
-3.324068	весь	-0.04811479
-3.267966	весьма	-0.0165121
-3.948125	весёлая	-0.01701704
-4.124652	весёлой	-0.04972223
-4.124652	весёлыми	-0.04972223
-4.124652	ветвях	-0.04082521
-3.555936	ветер	-0.01669715
-4.124652	ветра	-0.04082521
-4.124652	ветреная	-0.0171166
-3.948125	ветром	-0.006291255
-4.124652	ветхие	-0.04972223
-3.672382	вечер	-0.01651459
-4.124652	вечера	-0.006612889
-4.124652	вечерам	-0.0171166
-3.948125	вечеринке	-0.01708147
-4.124652	вечеринку	-0.0171166
-3.831969	вечером	-0.2164117
-4.124652	вечеру	-0.04927253
-4.124652	вечной	-0.04972223
-4.124652	вечною	-0.04972223
-4.124652	вечные	-0.006612889
-4.124652	вечный	-0.04972223
-4.124652	вещей	-0.0460403
-4.124652	вещество	-0.006612889
-3.948125	вещи	-0.006558843
-3.672382	вещь	-0.01642581
-4.124652	веяло	-0.04838248
-4.124652	взад	-0.04082521
-4.124652	взвился	-0.04972223
-4.124652	взвод	-0.0171166
-3.555936	взгляд	-0.03528109
-4.124652	взгляды	-0.04972223
-4.124652	взглянув	-0.0442322
-3.948125	взглянул	-0.04418264
-3.948125	взглянуть	-0.03518713
-4.124652	вздор	-0.04863878
-4.124652	вздохи	-0.006612889
-3.672382	вздохнул	-0.133643
-4.124652	вздымали	-0.04923623
-4.124652	вздымающийся	-0.04937835
-3.948125	взлохмаченная	-0.1865938
-4.124652	взоры	-0.04972223
-4.124652	взошёл	-0.0442322
-3.948125	взрослых	0.02957992
-3.948125	взявши	-0.0382304
-3.948125	взял	-0.04968964
-3.948125	взяла	-0.04636943
-3.948125	взялся	-0.04843228
-4.124652	взять	-0.04638385
-4.124652	вид	-0.04758413
-3.464203	видел	-0.08149088
-3.948125	видела	-0.006576896
-4.124652	видели	-0.04758413
-4.124652	виден	-0.04972223
-3.672382	видеть	-0.08012549
-4.124652	видим	-0.04972223
-3.672382	видимо	-0.0889442
-3.948125	видите	-0.005851638
-4.124652	видишь	-0.04812603
-3.948125	видна	-0.04859893
-3.672382	видно	-0.00113038
-3.948125	видны	-0.04967329
-4.124652	видные	-0.04821153
-4.124652	видом	-0.006612889
-4.124652	виду	-0.0171166
-4.124652	видывал	-0.04972223
-4.124652	видывано	-0.04940677
-3.948125	вижу	-0.04743423
-4.124652	визгом	-0.04972223
-4.124652	визит	-0.04963407
-4.124652	визитам	-0.0171166
-4.124652	визитов	-0.04738431
-3.948125	визиты	-0.006448153
-4.124652	виктора	-0.04972223
-4.124652	вилась	-0.04972223
-4.124652	вились	-0.04972223
-4.124652	вильфор	-0.0171166
-4.124652	виляют	-0.04954885
-4.124652	винты	-0.0171166
-4.124652	висбаден-хютте	-0.0171166
-4.124652	висевшей	-0.04638385
-4.124652	висела	-0.048012
-3.948125	висели	-0.04823285
-3.948125	виски	-0.006558843
-4.124652	вист	-0.04963407
-4.124652	виста	-0.0171166
-4.124652	висящих	-0.04972223
-4.124652	вице-губернатору	-0.04949202
-4.124652	вицегубернатором	-0.04082521
-4.124652	вишь	-0.04923623
-4.124652	включённого	-0.0442322
-4.124652	вкратце	-0.04972223
-4.124652	вкус	-0.0477268
-4.124652	вкусах	-0.0460403
-4.124652	вкусом	-0.04972223
-4.124652	владыке	-0.04960566
-4.124652	влажным	-0.04972223
-4.124652	властвующие	-0.0460403
-4.124652	власти	-0.04946361
-4.124652	властителями	-0.04738431
-4.124652	влево	-0.006612889
-4.124652	влез	-0.0442322
-4.124652	влезет	-0.0171166
-4.124652	влетают	-0.04972223
-4.124652	влетели	-0.04970588
-4.124652	влетит	-0.04166501
-3.464203	вместе	-0.3366899
-3.948125	вместо	-0.04928889
-3.948125	внезапно	-0.04161515
-4.124652	внесено	-0.04970588
-4.124652	внесены	-0.04917936
-4.124652	внесли	-0.04970588
-4.124652	внесён	-0.04866725
-3.948125	вниз	-0.006576896
-3.831969	внизу	-0.03455826
-3.831969	внимание	-0.00506084
-4.124652	внимания	-0.006612889
-3.831969	внимательно	-0.01584419
-4.124652	внимательность	-0.0477268
-3.388508	вновь	-0.04917764
-4.124652	внутренности	-0.0487811
-4.124652	внутренность	-0.04821153
-3.831969	внутри	-0.1354924
-3.948125	внутрь	-0.04965828
-2.947684	во	-0.1232476
-3.948125	вовсе	-0.0458039
-3.948125	вода	-0.04554592
-4.124652	воде	-0.0171166
-4.124652	водила	-0.048012
-4.124652	водится	-0.04963407
-3.831969	воду	-0.05674024
-3.831969	воды	-0.08398958
-4.124652	водя	-0.048012
-4.124652	воевали	-0.04638385
-4.124652	воем	-0.006612889
-4.124652	военкома	-0.04972223
-4.124652	военной	-0.04972223
-4.124652	вождь	-0.04972223
-4.124652	вождями	-0.04969087
-4.124652	возбуждённые	-0.006612889
-4.124652	возведено	-0.04166501
-4.124652	возводят	-0.04166501
-4.124652	возвращались	-0.04960566
-4.124652	возвращался	-0.0442322
-4.124652	возвращаться	-0.006612889
-4.124652	возвышении	-0.04970588
-3.672382	воздух	-0.01587355
-3.948125	воздуха	-0.1435159
-4.124652	воздухе	-0.04969087
-4.124652	воздухом	-0.04972223
-4.124652	воздуху	-0.006612889
-4.124652	воздушно	-0.04082521
-3.948125	воздушные	-0.04967329
-4.124652	возились	-0.04946361
-4.124652	возиться	-0.04960566
-3.831969	возле	-0.04888356
-4.124652	возможном	-0.04972223
-4.124652	возможности	-0.0171166
-4.124652	возможность	-0.0171166
-4.124652	возносившихся	-0.0477268
-4.124652	возьмите	-0.04937835
-4.124652	возьму	-0.04972223
-4.124652	возьмёт	-0.04943519
-4.124652	войдёт	-0.0487811
-4.124652	войлоком	-0.0171166
-3.831969	войн	-0.04745855
-4.124652	войне	-0.0171166
-3.948125	войти	-0.0394534
-3.388508	вокруг	0.004815683
-4.124652	волги	-0.0171166
-4.124652	воле	-0.006612889
-4.124652	волнистых	-0.04969087
-3.948125	волны	-0.04967329
-4.124652	володя	-0.006612889
-3.831969	волос	0.03095419
-3.948125	волосами	-0.007482268
-4.124652	волоска	-0.04082521
-4.124652	волосы	-0.04809332
-3.948125	вон	-0.04154199
-4.124652	воображению	-0.04972223
-4.124652	вообразить	-0.0460403
-3.464203	вообще	-0.009980548
-4.124652	вообще-то	-0.04972223
-4.124652	вооружённым	-0.04972223
-4.124652	вооружённых	-0.04082521
-4.124652	вопрос	-0.04972223
-4.124652	вопроса	-0.0171166
-4.124652	вопросов	-0.04937835
-4.124652	вопросы	-0.0171166
-3.831969	ворона	0.02965669
-4.124652	ворот	-0.04917936
-3.831969	ворота	-0.1353786
-4.124652	воротах	-0.04949202
-4.124652	воротник	-0.04758413
-4.124652	воротником	-0.006612889
-4.124652	ворчливо	-0.006612889
-4.124652	восемнадцатого	-0.006612889
-4.124652	восемнадцать	-0.0171166
-3.133295	восемь	-0.03939353
-3.831969	восемьдесят	-0.01642715
-4.124652	воскликнул	-0.04972223
-4.124652	воскликнула	-0.04963407
-4.124652	восклицания	-0.04972223
-4.124652	восковую	-0.04082521
-4.124652	воскресений	-0.006612889
-4.124652	воскресенье	-0.04970588
-4.124652	воскресной	-0.04972223
-4.124652	воспоминания	-0.006612889
-4.124652	воспроизведены	-0.04972223
-4.124652	восседал	-0.04972223
-4.124652	восстание	-0.006612889
-4.124652	востока	-0.0442322
-4.124652	востоку	-0.04838248
-4.124652	восточном	-0.04972223
-4.124652	восточному	-0.04972223
-4.124652	восточный	-0.04972223
-4.124652	восхитили	-0.04082521
-4.124652	восхищаешься	-0.006612889
-3.948125	восьми	-0.04594716
-3.218289	вот	-0.03561028
-3.831969	вот-вот	-0.04962568
-4.124652	вошедши	-0.04166501
-3.948125	вошли	-0.178568
-3.831969	вошёл	-0.2514638
-4.124652	вояки	-0.04970588
-4.124652	впадающих	-0.0171166
-4.124652	впадинах	-0.0171166
-3.948125	впервые	-0.04154872
-3.831969	вперёд	-0.004651483
-4.124652	вплоть	-0.04923623
-4.124652	вполне	-0.04970588
-3.948125	впоследствии	-0.04908689
-3.948125	вправду	-0.0489555
-3.948125	вправо	-0.006576896
-3.267966	впрочем	3.14787e-06
-4.124652	впрямь	-0.04579478
-4.124652	врага	-0.0171166
-4.124652	врагу	-0.006612889
-4.124652	вразбитную	-0.04932151
-3.948125	врач	-0.006558843
-4.124652	врачебной	-0.04972223
-4.124652	времена	-0.04960566
-3.672382	времени	-0.03826028
-4.124652	временное	-0.04970588
-3.218289	время	-0.04356672
-4.124652	времён	-0.04972223
-3.948125	вроде	-0.04937416
-4.124652	врознь	-0.0171166
-4.124652	вряд	-0.04906561
-2.675966	все	-0.08473556
-3.218289	всегда	-0.04036717
-3.133295	всего	-0.00378491
-3.948125	всей	-0.04968964
-4.124652	вселенной	-0.0171166
-3.464203	всем	-0.006034847
-4.124652	всеми	-0.04972223
-4.124652	всему	-0.04937835
-4.124652	всеобщее	-0.04972223
-4.124652	всерьёз	-0.0171166
-3.218289	всех	-0.02494654
-4.124652	всецело	-0.006612889
-4.124652	вскинул	-0.0442322
-4.124652	вскользь	-0.04758413
-4.124652	вскоре	-0.04940677
-4.124652	вскрикивая	-0.006612889
-3.672382	вслед	-0.1956949
-4.124652	вслух	-0.04738431
-4.124652	всплеснул	-0.04969087
-3.948125	вспоминал	-0.04771962
-3.948125	вспомнил	-0.04964069
-4.124652	вспомнила	-0.04863878
-4.124652	вспомнить	-0.04738431
-3.948125	вспыхнул	-0.1866252
-4.124652	вставали	-0.04883802
-4.124652	вставляй	-0.006612889
-4.124652	встал	-0.04972223
-4.124652	встала	-0.04166501
-3.948125	встретил	-0.04955671
-4.124652	встретились	-0.04972223
-4.124652	встретился	-0.04963407
-4.124652	встретится	-0.04638385
-4.124652	встречен	-0.04972223
-4.124652	встречи	-0.04861031
-3.948125	встречный	-0.04968964
-4.124652	встряхивал	-0.04970588
-4.124652	встряхнул	-0.04970588
-4.124652	вступили	-0.04166501
-4.124652	вступился	-0.0171166
-4.124652	вступить	-0.04166501
-4.124652	всунули	-0.04972223
-3.831969	всю	-0.04954045
-3.948125	всюду	-0.006479524
-3.672382	вся	-0.03928903
-3.464203	всякий	-0.1417014
-4.124652	всяким	-0.04972223
-3.831969	всякого	-0.04962434
-4.124652	всякое	-0.04970588
-4.124652	всякой	-0.04952044
-3.948125	всяком	-0.04968964
-3.001197	всё	-0.0090148
-3.555936	всё-таки	-0.09891336
-4.124652	всём	-0.04968964
-4.124652	вторая	-0.04972223
-3.948125	второго	-0.006558843
-4.124652	второе	-0.006612889
-3.831969	второй	-0.006237157
-4.124652	второму	-0.04972223
-4.124652	втянули	-0.04789794
-4.124652	втянуть	-0.04166501
-4.124652	входа	-0.008389004
-4.124652	входил	-0.04966247
-3.948125	входит	-0.178568
-4.124652	входящего	-0.04934993
-4.124652	вцепился	-0.04166501
-4.124652	вчера	-0.006612889
-4.124652	вчерашнего	-0.04972223
-4.124652	въедет	-0.04166501
-4.124652	въезд	-0.04789794
-4.124652	въезжаешь	-0.04758413
-4.124652	въехал	-0.0442322
-4.124652	въехала	-0.04963407
-3.062242	вы	-0.05123873
-4.124652	выбегали	-0.04972223
-4.124652	выбежал	-0.04970588
-4.124652	выбравшись	-0.04821153
-4.124652	выбритые	-0.04972223
-4.124652	выброшена	-0.0442322
-4.124652	вывешивали	-0.04972223
-4.124652	выводиться	-0.04972223
-4.124652	выглядывала	-0.0442322
-4.124652	выглядывали	-0.04972223
-4.124652	выглядывающими	-0.04758413
-4.124652	выгода	-0.04970588
-4.124652	выдали	-0.006612889
-4.124652	выдать	-0.04972223
-4.124652	выдвинуты	-0.04166501
-4.124652	выдержал	0.003259994
-4.124652	выдыхание	-0.0171166
-4.124652	выехал	-0.04970588
-4.124652	выздоровления	-0.04970588
-4.124652	вызывает	-0.04952044
-4.124652	выиграем	-0.0171166
-3.948125	выйти	-0.04416744
-4.124652	выкинул	-0.04957725
-4.124652	выкладками	-0.0171166
-4.124652	выключил	-0.04970588
-4.124652	выкрашен	-0.04972223
-4.124652	выкрашенные	-0.04972223
-4.124652	выкушал	-0.04969087
-4.124652	вылез	-0.04821153
-4.124652	вылезавшие	-0.0171166
-4.124652	вылезшие	-0.04821153
-4.124652	выложили	-0.04969087
-4.124652	вымерять	-0.04972223
-4.124652	вымышленным	-0.04970588
-4.124652	вынул	-0.04821153
-4.124652	выпей	-0.04972223
-4.124652	выпив	-0.04969087
-4.124652	выпили	-0.04943519
-4.124652	выписаны	-0.04963407
-4.124652	выписывает	-0.04166501
-3.948125	выпить	0.02957992
-4.124652	выползли	-0.0442322
-4.124652	выпросил	-0.04812603
-4.124652	выпрямливался	-0.04972223
-4.124652	выпятил	-0.04972223
-4.124652	выражая	-0.04972223
-4.124652	выражение	-0.006612889
-3.948125	выражения	-0.01649619
-4.124652	вырази	-0.04972223
-4.124652	выразил	-0.0442322
-4.124652	выразительную	-0.006612889
-3.948125	выразить	-0.04928593
-4.124652	вырвавшись	-0.006612889
-4.124652	вырвать	-0.04972223
-4.124652	вырваться	-0.04821153
-4.124652	вырезанная	-0.04970588
-4.124652	вырисовывалась	-0.04969087
-4.124652	вырождение	-0.04972223
-4.124652	выросшим	-0.0442322
-4.124652	вырывались	-0.04970588
-4.124652	высказываний	-0.04972223
-4.124652	выслала	-0.04937835
-4.124652	высмаркивался	-0.04963407
-4.124652	высматривает	-0.04957725
-4.124652	высокие	-0.04082521
-4.124652	высокий	-0.006612889
-4.124652	высоких	-0.04972223
-4.124652	высоко	-0.04972223
-4.124652	высокогорных	-0.04970588
-4.124652	высокой	-0.006612889
-4.124652	высокую	-0.04969087
-4.124652	высоте	-0.04970588
-4.124652	высоту	-0.0171166
-4.124652	высоты	0.003259994
-4.124652	высохшие	-0.04972223
-4.124652	выстрела	-0.04963407
-4.124652	выступить	-0.04166501
-4.124652	высыпали	-0.04821153
-4.124652	вытащил	-0.04972223
-4.124652	вытащить	-0.04969087
-4.124652	вытер	-0.04937835
-4.124652	вытребовать	-0.04812603
-4.124652	вытягиваться	-0.04926465
-4.124652	вытягивая	-0.04963407
-4.124652	вытянулось	-0.0171166
-4.124652	выхода	-0.01545262
-4.124652	выходе	-0.04821153
-4.124652	выходил	-0.006612889
-4.124652	выходила	-0.04954885
-4.124652	выходить	-0.04166501
-4.124652	выходя	-0.04638385
-4.124652	выходящее	-0.04821153
-4.124652	выходящих	-0.006612889
-3.948125	выше	-0.04782951
-3.672382	вышел	-0.08690897
-4.124652	вышивает	-0.04903717
-4.124652	вышивал	-0.04957725
-3.948125	вышины	-0.006197087
-3.948125	вышла	-0.006510895
-4.124652	выщекатурен	-0.04082521
-4.124652	выщипнул	-0.04972223
-4.124652	вьющимися	-0.04972223
-4.124652	вязли	-0.048012
-4.124652	вёзших	-0.04883802
-3.948125	вёрст	-0.04800482
-4.124652	габсбурги	-0.006612889
-4.124652	гадали	-0.04863878
-4.124652	газет	-0.0171166
-3.948125	газеты	0.02963867
-4.124652	галантерейщица	-0.04638385
-4.124652	галерее	-0.04972223
-4.124652	галлюцинациями	-0.04970588
-4.124652	галя	-0.0171166
-4.124652	гардероба	-0.04970588
-4.124652	гарцевавших	-0.048012
-4.124652	гаскони	-0.006612889
-3.948125	гасси	-0.0060715
-3.948125	гвардии	0.002330575
-4.124652	гвоздиками	-0.04972223
-4.124652	гвоздями	-0.006612889
-3.001197	где	-0.03438503
-3.831969	где-нибудь	-0.127952
-3.672382	где-то	-0.04664832
-4.124652	гелашвили	-0.0171166
-4.124652	гениальный	-0.006612889
-4.124652	геннельхольм	-0.0171166
-3.948125	генрих	-0.006542265
-4.124652	генриэттой	-0.0171166
-4.124652	генэго	-0.006612889
-4.124652	геометрически	-0.04972223
-4.124652	геометрическими	-0.04972223
-4.124652	геометрических	-0.04972223
-4.124652	геометрического	-0.04970588
-4.124652	гермафродита	-0.006612889
-4.124652	геройские	-0.04972223
-4.124652	героях	-0.04972223
-4.124652	герцог	-0.04970588
-4.124652	герцога	-0.04972223
-4.124652	герцогиня	-0.0171166
-4.124652	гессенский	-0.006612889
-4.124652	гибкие	-0.04970588
-4.124652	гибких	-0.04972223
-3.948125	гигантских	-0.04968964
-3.948125	гигантской	-0.04967329
-4.124652	гидрата	-0.04972223
-4.124652	гийому	-0.04972223
-4.124652	гинденбург	-0.04970588
-4.124652	главе	-0.04963407
-4.124652	главным	-0.04970588
-4.124652	главными	-0.04972223
-4.124652	гладкие	-0.0460403
-4.124652	гладких	-0.04970588
-4.124652	гладко	-0.04972223
-3.672382	глаз	-0.01558873
-3.218289	глаза	-0.04403965
-3.831969	глазами	-0.05674024
-3.948125	глазах	-0.01557553
-3.948125	глазков	0.02957992
-4.124652	глазных	-0.04972223
-4.124652	глазом	-0.04866725
-4.124652	гленарван	-0.04972223
-4.124652	глинистая	-0.04970588
-4.124652	глины	-0.006612889
-4.124652	глоткой	-0.04972223
-3.948125	глотку	-0.1435159
-4.124652	глубже	-0.04972223
-4.124652	глубине	-0.04786522
-3.948125	глубины	-0.01704632
-4.124652	глубокие	-0.04970588
-3.831969	глубоко	-0.04959727
-3.672382	глубь	-0.005799912
-3.948125	глуп	-0.006576896
-4.124652	глухо	-0.04972223
-4.124652	глюк	-0.006612889
-3.831969	глядел	-0.254031
-3.948125	глядели	-0.04419919
-4.124652	глядеть	-0.04166501
-4.124652	гляди	-0.006612889
-4.124652	глядит	-0.0442322
-4.124652	глядь	-0.04738431
-4.124652	глядя	-0.04166501
-4.124652	глядят	-0.04972223
-4.124652	глянул	-0.0442322
-4.124652	гневно	0.003259994
-4.124652	гневному	-0.04082521
-4.124652	гниющей	-0.04970588
-4.124652	говит	-0.006612889
-3.948125	говор	-0.006576896
-4.124652	говори	-0.04886647
-3.324068	говорил	-0.03973118
-3.948125	говорила	-0.04777668
-3.831969	говорили	-0.01609294
-3.464203	говорит	-0.002285283
-3.267966	говорить	-0.07017367
-4.124652	говоришь	-0.006612889
-3.948125	говорю	-0.0169558
-3.948125	говоря	-0.04891622
-3.831969	говорят	-0.04845655
-4.124652	год	-0.04972223
-4.124652	года	-0.0171166
-4.124652	годы	-0.0171166
-4.124652	голенищ	-0.04972223
-4.124652	голова	-0.0460403
-3.948125	голове	-0.002508588
-3.672382	головой	-0.03346012
-4.124652	головою	-0.0171166
-3.672382	голову	0.02983578
-3.831969	головы	0.003296826
-4.124652	голоден	-0.0171166
-3.324068	голос	-0.08254258
-4.124652	голосами	-0.0171166
-4.124652	голубую	-0.04972223
-4.124652	голубые	-0.04968964
-4.124652	голубым	-0.04972223
-4.124652	голубя	-0.0171166
-4.124652	гонит	-0.006612889
-4.124652	гонт-хауса	-0.04970588
-3.672382	гор	-0.1175374
-4.124652	гора	-0.006612889
-3.948125	гораздо	-0.04877394
-3.948125	горела	-0.1866089
-4.124652	горелому	-0.006612889
-4.124652	горечь	-0.04972223
-4.124652	горизонта	-0.0171166
-4.124652	горизонте	-0.04932151
-4.124652	горная	-0.04946361
-4.124652	горничная	-0.006612889
-4.124652	горном	-0.04972223
-3.948125	горную	-0.1863666
-3.324068	город	-0.06971858
-3.388508	города	-0.01968617
-4.124652	городам	-0.04969087
-4.124652	городах	-0.04932151
-3.948125	городе	-0.01260459
-4.124652	городок	-0.006612889
-4.124652	городским	-0.04970588
-4.124652	городских	-0.04972223
-4.124652	городской	-0.04972223
-4.124652	городскому	-0.04972223
-4.124652	горой	-0.0171166
-3.948125	горошком	0.003296826
-4.124652	горький	-0.04960566
-3.948125	горят	-0.04930095
-4.124652	горячая	-0.04954885
-4.124652	горячего	-0.04972223
-4.124652	горячек	-0.04972223
-4.124652	горячий	-0.006612889
-4.124652	господа	-0.04972223
-4.124652	господами	-0.04972223
-3.173716	господин	-0.04440651
-3.948125	господина	-0.04967329
-4.124652	госпожи	-0.04969087
-4.124652	госте	-0.0460403
-4.124652	гостей	-0.006612889
-4.124652	гостиница	-0.04903717
-4.124652	гостинице	-0.0171166
-3.555936	гостиницы	-0.1006036
-4.124652	гостиную	-0.04972223
-3.831969	гость	-0.007446334
-4.124652	гостю	-0.04972223
-4.124652	государей	-0.006612889
-4.124652	государю	-0.04972223
-3.948125	готов	-0.04871998
-4.124652	готовить	-0.04966247
-4.124652	готовые	-0.04972223
-4.124652	готовый	-0.0477268
-4.124652	гравюрах	-0.006612889
-4.124652	гравюру	-0.006612889
-4.124652	градусов	-0.0171166
-4.124652	граждан	-0.006612889
-4.124652	граждане	-0.04972223
-4.124652	гранаты	-0.0171166
-3.948125	граф	-0.04737713
-4.124652	графиня	-0.04966247
-4.124652	гребень	-0.04972223
-4.124652	гремящую	-0.04946361
-4.124652	грессигмана	-0.006612889
-4.124652	грехом	-0.04972223
-4.124652	греца	-0.006612889
-4.124652	григорьевичу	-0.04082521
-4.124652	грозовой	-0.04966247
-4.124652	грозой	-0.0171166
-4.124652	грома	-0.006612889
-3.672382	громко	-0.07758662
-4.124652	громыхавшими	-0.04972223
-4.124652	гроссмейстера	-0.04972223
-4.124652	грохотом	-0.04082521
-4.124652	грубее	-0.04972223
-4.124652	груди	-0.006612889
-3.672382	грудь	-0.08374606
-4.124652	грудями	-0.01698642
-4.124652	группе	-0.04972223
-4.124652	группы	-0.0171166
-4.124652	грустно	-0.0171166
-4.124652	груффельштрассе	-0.0171166
-4.124652	гряда	-0.04972223
-4.124652	гряды	-0.04972223
-4.124652	грязноватых	-0.04883802
-4.124652	грязной	-0.04972223
-4.124652	грязны	-0.04082521
-4.124652	грязные	-0.006612889
-3.948125	грязь	0.02957992
-4.124652	грязью	-0.0171166
-4.124652	грёб	-0.04937835
-4.124652	губ	-0.04934993
-3.948125	губами	-0.007482268
-4.124652	губах	-0.0171166
-3.948125	губернатор	-0.04922907
-4.124652	губернатора	-0.04949202
-4.124652	губернатором	-0.04949202
-3.948125	губернаторский	-0.04939962
-4.124652	губернаторской	-0.04970588
-4.124652	губернатору	-0.04972223
-4.124652	губернаторше	-0.0171166
-4.124652	губернии	-0.04972223
-4.124652	губернию	-0.04972223
-4.124652	губернским	-0.04972223
-4.124652	губернских	-0.04972223
-4.124652	губернского	-0.04957725
-3.948125	губу	-0.006576896
-4.124652	гудящие	-0.04970588
-4.124652	гуляющую	-0.04954885
-3.267966	гусев	-0.1175562
-4.124652	гусеву	-0.04972223
-4.124652	густо	-0.04923623
-3.948125	густыми	-0.04967329
-4.124652	гуще	-0.04972223
-3.948125	гынь	-0.103384
-3.948125	гэ	-0.092879
-4.124652	гюго	-0.006612889
-4.124652	д'артуа	-0.04937835
-3.555936	да	-0.0068115
-4.124652	давали	-0.04943519
-4.124652	давешнюю	-0.04972223
-3.948125	давит	-0.04967329
-3.672382	давно	-0.03346012
-4.124652	дадим	-0.04952044
-2.900047	даже	-0.08281182
-4.124652	дай	-0.04949202
-4.124652	дайте	-0.04875264
-4.124652	дак	-0.006612889
-3.831969	дал	-0.04811167
-3.555936	далеко	0.03423236
-4.124652	дало	-0.04903717
-3.831969	дальше	-0.004364572
-3.948125	далёкий	-0.04961353
-3.831969	дам	-0.03966493
-3.948125	дама	-0.1540196
-4.124652	дамам	-0.04866725
-4.124652	дамочка	-0.006612889
-4.124652	дамских	-0.04972223
-3.555936	дамы	0.0321664
-4.124652	данте	-0.04972223
-4.124652	дар	-0.04972223
-4.124652	дарохранительницы	-0.04972223
-3.948125	даст	-0.04934278
-4.124652	дать	-0.04972223
-3.948125	дают	-0.04749132
-3.948125	даёт	-0.04937416
-3.062242	два	-0.07338937
-4.124652	двадцатипфенниговые	-0.006612889
-4.124652	двадцатого	-0.006612889
-3.555936	двадцать	-0.08329461
-4.124652	дважды	-0.0171166
-3.672382	две	-0.1121364
-4.124652	двенадцати	-0.04932151
-4.124652	двенадцатый	-0.04969087
-3.672382	двенадцать	-0.1123354
-4.124652	дверей	-0.04972223
-3.948125	двери	-0.05674024
-4.124652	дверца	-0.04166501
-3.948125	дверцу	-0.006416779
-3.388508	дверь	0.00911431
-3.948125	дверью	-0.04161515
-4.124652	двести	-0.04972223
-4.124652	двигались	-0.04972223
-3.948125	двигатель	-0.01708147
-4.124652	движение	-0.0442322
-3.948125	движением	-0.04940258
-3.948125	движения	0.003315296
-4.124652	движениям	-0.04972223
-4.124652	движениями	-0.04972223
-4.124652	движущего	-0.04972223
-4.124652	двинуться	-0.0477268
-4.124652	двое	-0.04861031
-4.124652	двойку	-0.0171166
-4.124652	двойная	-0.006558843
-4.124652	двор	-0.006291255
-4.124652	дворе	-0.04957725
-4.124652	дворца	-0.04972223
-4.124652	дворцовый	-0.04972223
-3.555936	двух	-0.01692459
-3.672382	де	-0.09933349
-4.124652	девицей	-0.04838248
-4.124652	девичьего	-0.04972223
-4.124652	девка	-0.006612889
-3.831969	девочка	-0.01698189
-4.124652	девочки	-0.006612889
-4.124652	девушка	-0.006612889
-4.124652	девушки	-0.006612889
-4.124652	девчата	-0.006612889
-4.124652	девчонка	-0.0171166
-4.124652	девы	-0.04970588
-3.672382	действительно	-0.005328171
-4.124652	действительности	-0.0171166
-3.948125	действовать	-0.01115998
-4.124652	действует	-0.0171166
-4.124652	действующих	-0.04970588
-4.124652	дека	-0.006612889
-4.124652	дел	-0.04166501
-3.464203	дела	-0.001501203
-3.948125	делает	-0.04783373
-3.948125	делается	-0.01706384
-3.948125	делал	-0.01260841
-3.267966	делать	-0.08294261
-4.124652	делают	-0.04926465
-3.948125	делая	-0.1866252
-3.831969	деле	-0.009441812
-4.124652	делит	-0.04789794
-3.267966	дело	-0.08769315
-4.124652	деловой	-0.04970588
-3.948125	делом	-0.006510895
-4.124652	делу	-0.0171166
-4.124652	дельному	-0.0171166
-4.124652	демикотонном	-0.04970588
-4.124652	демократической	-0.04972223
-4.124652	демонстраций	-0.04909405
-4.124652	демонстрирует	-0.04972223
-3.948125	денег	-0.1540196
-3.173716	день	0.00439534
-4.124652	деньгами	0.003259994
-4.124652	деньгах	-0.01606679
-3.672382	деньги	-0.07222246
-4.124652	депо	-0.006612889
-4.124652	дергача	-0.0171166
-4.124652	дерев	-0.006612889
-3.948125	дерева	-0.04635101
-4.124652	деревенские	-0.04972223
-4.124652	деревенька	-0.04949202
-4.124652	деревне	-0.04966247
-4.124652	деревни	-0.006612889
-4.124652	деревню	-0.01708147
-3.831969	деревьев	0.0298613
-4.124652	деревья	-0.04738431
-4.124652	деревьям	-0.006612889
-4.124652	деревянной	-0.04972223
-4.124652	державшая	-0.04972223
-3.831969	держал	-0.006488197
-4.124652	держала	-0.04972223
-4.124652	десерт	-0.006612889
-4.124652	дескать	-0.04946361
-4.124652	десяти	-0.04969087
-4.124652	десятипфенниговые	-0.04972223
-4.124652	десятков	-0.04932151
-3.555936	десять	-0.005991496
-4.124652	детали	-0.0171166
-4.124652	детей	-0.04963407
-3.672382	дети	-0.0004615821
-4.124652	детишек	-0.04082521
-4.124652	детства	-0.006612889
-4.124652	деятельность	-0.04970588
-4.124652	джейн	-0.04972223
-4.124652	джемса	-0.04969087
-4.124652	джорджа	-0.0171166
-4.124652	джузеппе	-0.04972223
-4.124652	диагонали	-0.0171166
-4.124652	диван	-0.04972223
-4.124652	диване	-0.006612889
-4.124652	дикарки	-0.04972223
-4.124652	дикарь	-0.006612889
-4.124652	дикарями	-0.006612889
-4.124652	дикая	-0.04972223
-4.124652	дикого	-0.04972223
-4.124652	дистанционного	-0.04972223
-4.124652	длинна	-0.04166501
-4.124652	длинная	-0.04946361
-4.124652	длинном	-0.04972223
-3.948125	длинные	-0.04965828
-4.124652	длинный	-0.04082521
-4.124652	длинным	-0.04972223
-4.124652	длинными	-0.04972223
-2.782227	для	-0.07460169
-4.124652	дна	-0.04932151
-4.124652	дне	-0.04966247
-3.831969	дней	0.02961905
-4.124652	днепр	-0.04972223
-3.831969	дни	-0.006192446
-3.831969	дня	0.008655224
-4.124652	дням	-0.04972223
-4.124652	днём	-0.0171166
-2.923213	до	-0.1339844
-4.124652	добавляет	-0.04937835
-4.124652	добавьте	-0.04166501
-4.124652	доббин	-0.04866725
-4.124652	добраться	-0.0171166
-4.124652	добро	-0.04954885
-4.124652	добровольцем	-0.006612889
-4.124652	доброе	-0.04970588
-4.124652	доброхотов	-0.04166501
-4.124652	добряк	-0.04082521
-4.124652	доверяю	-0.04970588
-4.124652	доволен	-0.006612889
-3.555936	довольно	-0.04930175
-4.124652	договорил	-0.04972223
-3.831969	доедет	-0.07956764
-4.124652	дождём	-0.006612889
-4.124652	доказал	-0.04758413
-4.124652	доказательств	-0.04166501
-4.124652	доказательства	-0.04952044
-4.124652	доктор	-0.04970588
-4.124652	доктора	-0.006612889
-4.124652	докучными	-0.04972223
-3.948125	долг	-0.01706384
-4.124652	долга	-0.0171166
-3.555936	долго	-0.04936349
-4.124652	долетал	-0.0171166
-3.555936	должен	-0.04739198
-3.948125	должна	-0.04266185
-3.948125	должно	-0.04811885
-4.124652	должности	-0.006612889
-3.831969	должны	-0.1354669
-4.124652	долило	-0.04972223
-4.124652	долотами	-0.048012
-4.124652	долю	-0.04972223
-3.464203	дом	-0.01564311
-3.218289	дома	-0.08656953
-4.124652	домах	-0.0171166
-4.124652	домашнюю	-0.04972223
-4.124652	домашняя	-0.006612889
-3.672382	доме	0.02980168
-4.124652	домик	-0.006612889
-4.124652	домов	-0.006448153
-3.831969	домой	0.005939238
-4.124652	домом	-0.04969087
-4.124652	дональд	-0.04972223
-4.124652	донесёт	-0.006612889
-4.124652	доносились	-0.04966247
-4.124652	донёсся	-0.04970588
-4.124652	дорога	-0.04960566
-3.672382	дороге	-0.008281436
-3.672382	дороги	-0.1536596
-3.948125	дорогой	0.02957992
-4.124652	дорогу	-0.0442322
-4.124652	доскам	-0.006612889
-4.124652	досками	-0.006542265
-4.124652	досмерти	-0.0171166
-4.124652	доставила	-0.04789794
-4.124652	достали	-0.04789794
-3.948125	достаточно	-0.04866008
-4.124652	достичь	-0.04943519
-4.124652	достоин	-0.04932151
-4.124652	достоинство	-0.04972223
-4.124652	достоинством	-0.006612889
-4.124652	достойны	-0.04957725
-4.124652	доступ	-0.04970588
-4.124652	досуге	-0.04970588
-4.124652	дохода	-0.04082521
-4.124652	доходившем	-0.04923623
-4.124652	дочери	-0.04972223
-4.124652	дочурка	-0.006612889
-3.831969	дочь	-0.01704632
-4.124652	дремлет	-0.04972223
-4.124652	дришка	-0.006612889
-3.948125	дрожали	-0.01115998
-4.124652	дрожь	-0.04972223
-3.672382	друг	-0.06586463
-3.672382	друга	-0.07623309
-3.831969	другая	-0.04952114
-4.124652	другие	-0.04972223
-3.948125	другим	-0.04967329
-4.124652	другими	-0.04972223
-4.124652	других	-0.04960566
-3.831969	другого	-0.1359216
-3.948125	другое	-0.01686392
-3.267966	другой	-0.06170373
-3.831969	другом	-0.06516244
-3.948125	другому	-0.01702869
-3.464203	другую	-0.01672987
-4.124652	дружбы	-0.04929308
-4.124652	дружине	-0.04909405
-4.124652	друзья	-0.0171166
-4.124652	дрёму	-0.006612889
-4.124652	думаете	-0.0171166
-3.831969	думаешь	-0.01265468
-3.831969	думал	-0.01154763
-3.948125	думала	-0.01708147
-4.124652	думали	-0.04758413
-3.672382	думать	0.03095924
-3.388508	думаю	-0.06730716
-4.124652	думают	-0.04863878
-4.124652	думая	-0.04863878
-4.124652	дурной	-0.04972223
-3.948125	духа	0.02957992
-4.124652	духом	-0.04943519
-3.831969	душ	-0.259521
-3.831969	душа	-0.01695127
-3.948125	душе	-0.01563697
-3.672382	души	-0.1175374
-4.124652	душно	-0.04972223
-4.124652	душу	-0.04972223
-4.124652	дыма	-0.04082521
-4.124652	дымящейся	-0.04970588
-4.124652	дыхания	-0.04972223
-4.124652	дышалось	-0.04969087
-4.124652	дышат	-0.04949202
-4.124652	дыши	-0.04321719
-4.124652	дьявол	-0.04972223
-4.124652	дьякон	-0.04082521
-4.124652	дьяконица	-0.006612889
-4.124652	дюма	-0.0171166
-4.124652	дюфи	-0.04789794
-4.124652	дюфэ	-0.0171166
-4.124652	дядей	-0.006612889
-3.948125	дядю	-0.007482268
-3.555936	дядя	-0.0199254
-4.124652	дёргалась	-0.04838248
-4.124652	дёргался	-0.006612889
-4.124652	дёрнул	-0.0442322
-4.124652	евгения	-0.04970588
-4.124652	еврейского	-0.04972223
-3.948125	европе	-0.01594403
-2.369928	его	0.04057255
-4.124652	едва	-0.04866725
-4.124652	единственное	-0.04966247
-4.124652	единственные	-0.04970588
-4.124652	единственный	-0.04821153
-4.124652	еду	-0.04937835
-4.124652	еды	-0.04738431
-4.124652	едят	-0.04972223
-4.124652	ездить	-0.0492078
-4.124652	ездят	-0.04972223
-3.062242	ей	-0.002684772
-2.689644	ему	-0.02426174
-3.062242	если	-0.09036238
-4.124652	естественно	-0.04892338
-4.124652	естественными	-0.04972223
-2.878055	есть	-0.03707061
-4.124652	ехал	-0.04966247
-4.124652	ехать	-0.006612889
-2.649836	ещё	-0.06181123
-4.124652	ею	-0.04972223
-2.483369	её	0.05237094
-3.555936	ж	0.01236737
-4.124652	жадно	-0.04970588
-4.124652	жажда	-0.006612889
-4.124652	жаждал	-0.006612889
-4.124652	жажду	-0.04972223
-4.124652	жал	-0.04886647
-4.124652	жалко	-0.04943519
-4.124652	жалованье	-0.04969087
-3.948125	жаль	-0.04755138
-4.124652	жандарма	-0.04972223
-3.948125	жареная	-0.04968964
-4.124652	жаркие	-0.04972223
-4.124652	жаркий	-0.006612889
-4.124652	жарко	-0.0171166
-4.124652	жаркого	-0.04972223
-4.124652	жгуты	-0.04972223
-3.464203	ждал	-0.002229899
-4.124652	ждановскую	-0.04972223
-3.672382	ждать	-0.006153144
-4.124652	жду	-0.04972223
-4.124652	ждущие	-0.04812603
-3.831969	ждёт	-0.04783247
-2.528884	же	0.03313798
-4.124652	жевал	-0.04972223
-3.948125	желал	-0.04806184
-4.124652	желание	-0.04812603
-4.124652	желании	-0.04972223
-4.124652	желаю	-0.04829281
-4.124652	желая	-0.04972223
-4.124652	железнодорожная	-0.04969087
-4.124652	железнодорожную	-0.04969087
-4.124652	железное	-0.0171166
-4.124652	железной	-0.04972223
-4.124652	железный	-0.04954885
-4.124652	железных	-0.04972223
-4.124652	железо	-0.0171166
-4.124652	желтоватые	-0.04972223
-3.831969	жена	-0.01699489
-4.124652	женатым	-0.04972223
-3.948125	женился	-0.03518713
-4.124652	женитьбы	-0.0171166
-4.124652	женой	-0.0171166
-4.124652	женский	-0.04954885
-4.124652	женских	-0.006612889
-3.948125	женщин	-0.006322637
-3.672382	женщина	0.03380091
-4.124652	женщину	0.002330575
-3.948125	женщины	0.02957992
-3.831969	жены	-0.04050697
-4.124652	женяра	-0.04972223
-4.124652	жеребца	-0.006612889
-4.124652	жертвенник	-0.006612889
-4.124652	жертву	-0.04972223
-4.124652	жестокий	-0.04972223
-4.124652	жесты	-0.006612889
-4.124652	жестяном	-0.04972223
-4.124652	жиакомо	-0.006612889
-4.124652	жиан	-0.04972223
-4.124652	жив	-0.04738431
-4.124652	живое	-0.006612889
-4.124652	живоносного	-0.04970588
-4.124652	живописный	-0.04954885
-4.124652	животворному	-0.006612889
-4.124652	животные	-0.04970588
-3.831969	живу	-0.04542399
-4.124652	живут	-0.006612889
-4.124652	живым	-0.04082521
-3.672382	живёт	0.0001981184
-4.124652	жизненной	-0.04972223
-3.464203	жизни	-0.2287586
-3.267966	жизнь	-0.002892945
-4.124652	жил	-0.04972223
-3.831969	жила	0.03153591
-3.948125	жили	-0.178568
-3.948125	жилища	-0.006576896
-4.124652	жилой	-0.04970588
-4.124652	жимолости	-0.006612889
-4.124652	жителей	-0.0171166
-4.124652	жительства	-0.0171166
-3.555936	жить	-0.06266613
-4.124652	жмурясь	-0.04838248
-4.124652	жмёт	-0.04966247
-4.124652	жоффруа	-0.04966247
-4.124652	жрать	-0.04838248
-4.124652	жрицы	-0.0171166
-4.124652	журавли	-0.0171166
-4.124652	журавлём	-0.006612889
-4.124652	жутко	-0.04972223
-4.124652	жюри	-0.006612889
-4.124652	жёлтая	-0.04972223
-4.124652	жёлтой	-0.04969087
-4.124652	жёлтою	-0.04972223
-4.124652	жёлтыми	-0.04972223
-4.124652	жёстких	-0.04969087
-4.124652	жёсткого	-0.04972223
-2.579735	за	-0.06132708
-3.948125	забавно	-0.01708147
-4.124652	забормотал	-0.04738431
-4.124652	заботились	-0.04758413
-4.124652	заботясь	-0.04863878
-4.124652	забранные	-0.04972223
-4.124652	заброшена	-0.0171166
-4.124652	заброшенном	-0.04966247
-4.124652	забывая	-0.04758413
-3.555936	забыл	0.03654614
-4.124652	забыла	-0.04758413
-4.124652	забылись	-0.006612889
-4.124652	забыт	-0.0171166
-4.124652	заваленном	-0.04970588
-4.124652	завела	-0.04972223
-4.124652	завести	-0.04969087
-4.124652	завидев	-0.04970588
-4.124652	завизжали	-0.04972223
-4.124652	зависть	-0.04966247
-4.124652	заводе	-0.0171166
-3.831969	завтра	-0.01624634
-4.124652	завтрака	-0.006612889
-4.124652	завтракал	-0.0171166
-4.124652	завтракать	-0.006612889
-4.124652	завывает	-0.0171166
-4.124652	завывал	-0.0171166
-4.124652	завывающими	-0.04972223
-4.124652	завыли	-0.006612889
-4.124652	завёрнутая	-0.04166501
-3.948125	загадочной	-0.1866252
-4.124652	загаженном	-0.04972223
-4.124652	загнал	-0.04903717
-4.124652	загнувшись	-0.006612889
-4.124652	заговорил	-0.04863878
-4.124652	загонял	-0.04166501
-4.124652	загорается	-0.04972223
-4.124652	заграждений	-0.006612889
-4.124652	загримированный	-0.04909405
-4.124652	задавался	-0.04969087
-4.124652	задеть	-0.0171166
-4.124652	задние	-0.04895183
-4.124652	задувал	-0.04972223
-4.124652	зажги	-0.04960566
-4.124652	зажмурить	-0.04949202
-3.948125	зажёг	-0.04948488
-4.124652	зазвякало	-0.04972223
-4.124652	зайдя	-0.04970588
-4.124652	займитесь	-0.04963407
-4.124652	займусь	-0.04972223
-4.124652	заказам	-0.04969087
-4.124652	заканчивалась	-0.0171166
-4.124652	заката	-0.04082521
-4.124652	закиданного	-0.04972223
-4.124652	закидывать	-0.04972223
-4.124652	закипевшую	-0.04969087
-4.124652	закипело	-0.04082521
-4.124652	заколоченные	-0.04972223
-4.124652	законного	-0.04972223
-4.124652	закончив	-0.04952044
-4.124652	закончится	-0.0171166
-4.124652	законы	-0.0171166
-4.124652	закопай	-0.04937835
-4.124652	закопчённый	-0.04972223
-4.124652	закричал	-0.04738431
-4.124652	закричали	-0.006612889
-4.124652	закруглённые	-0.04082521
-4.124652	закрывающее	-0.04960566
-4.124652	закрытые	-0.04972223
-4.124652	закрытыми	-0.04969087
-4.124652	закурил	-0.006612889
-4.124652	закутываться	-0.04917936
-4.124652	зал	-0.04963407
-4.124652	залами	-0.006612889
-4.124652	зале	-0.006612889
-4.124652	залито	-0.01704766
-4.124652	заложенной	-0.04166501
-4.124652	заложив	-0.04943519
-4.124652	залоснённые	-0.04970588
-3.831969	залу	0.02972488
-4.124652	залы	-0.04960566
-4.124652	замаслившимся	-0.04758413
-4.124652	замедленная	-0.04972223
-4.124652	заметали	-0.04970588
-3.831969	заметил	-0.1082479
-3.948125	заметила	-0.005537353
-4.124652	заметили	-0.04966247
-4.124652	заметить	-0.006612889
-4.124652	заметно	-0.04972223
-4.124652	заметною	-0.04972223
-4.124652	заметённую	-0.04972223
-4.124652	замечаемая	-0.04972223
-4.124652	замечает	-0.0171166
-4.124652	замечания	-0.04967329
-3.831969	замуж	0.02961905
-4.124652	замучили	-0.04923623
-4.124652	замыкают	-0.04946361
-4.124652	замышляет	-0.0171166
-4.124652	занавес	-0.006612889
-4.124652	занесло	-0.0171166
-4.124652	занимали	-0.04972223
-4.124652	занимались	-0.04970588
-4.124652	занимают	-0.04972223
-4.124652	заняли	-0.04970588
-4.124652	заняло	-0.04638385
-4.124652	занятие	-0.006612889
-4.124652	занятию	-0.04972223
-4.124652	запад	-0.005096972
-4.124652	западни	-0.006612889
-4.124652	западу	-0.04082521
-3.464203	запах	-0.0127184
-4.124652	запаха	-0.04969087
-4.124652	запахам	-0.006612889
-4.124652	запели	-0.04972223
-4.124652	записку	-0.04957725
-4.124652	заплакав	-0.006612889
-4.124652	заполнили	-0.04969087
-4.124652	запомнил	-0.0171166
-4.124652	запретную	-0.04972223
-4.124652	запрещено	-0.04838248
-4.124652	запрыгало	-0.0171166
-4.124652	запутались	-0.04972223
-4.124652	зарабатывать	-0.04966247
-4.124652	зарабатываю	-0.0171166
-4.124652	заражённые	-0.04937835
-4.124652	заранее	-0.04949202
-4.124652	зарезал	-0.04972223
-4.124652	заросли	-0.006612889
-4.124652	заросль	-0.0171166
-3.948125	засвидетельствовать	-0.04958512
-4.124652	заселённых	-0.04972223
-4.124652	заскрёб	-0.04972223
-4.124652	заслуживши	-0.04972223
-3.948125	заснул	-0.006197087
-4.124652	заснуть	-0.006612889
-4.124652	засохнуть	-0.04970588
-4.124652	засохшей	-0.04972223
-3.948125	заставил	-0.04968964
-4.124652	заставила	-0.04969087
-4.124652	заставить	-0.04917936
-4.124652	заставленною	-0.04972223
-4.124652	заставляет	-0.04943519
-4.124652	заставы	-0.0442322
-4.124652	заступиться	-0.04861031
-4.124652	застывшие	-0.04972223
-4.124652	застёгнутая	-0.04972223
-4.124652	засунул	-0.04861031
-4.124652	затейливые	-0.04972223
-3.831969	затем	-0.04574306
-4.124652	затерялось	-0.04166501
-4.124652	затея	-0.0460403
-4.124652	зато	-0.04166501
-4.124652	затрепетали	-0.048012
-4.124652	затрещит	-0.04895183
-4.124652	затыкая	-0.04970588
-4.124652	затылке	-0.0171166
-4.124652	заученным	-0.04970588
-4.124652	захватив	-0.04932151
-4.124652	захватил	-0.04972223
-4.124652	захотела	-0.006612889
-4.124652	захохотала	-0.04866725
-3.831969	зачем	-0.04571071
-4.124652	зачёсанные	-0.04972223
-3.948125	зашагал	-0.006197087
-4.124652	зашумел	-0.04943519
-3.948125	заявил	-0.04735155
-4.124652	звезде	-0.04952044
-4.124652	звездою	-0.04838248
-4.124652	звезды-земли	-0.04972223
-4.124652	звенели	-0.04960566
-3.948125	зверь	-0.006322637
-4.124652	звон	-0.04972223
-4.124652	звонка	-0.04082521
-3.672382	звук	-0.06955406
-4.124652	звука	-0.0171166
-3.948125	звуке	-0.006576896
-3.948125	звуки	-0.0005094185
-4.124652	звучал	-0.04758413
-3.948125	звучит	-0.0005094185
-3.831969	звёзд	-0.05674024
-4.124652	звёздной	-0.04972223
-4.124652	звёздном	-0.04969087
-4.124652	звёздную	-0.04972223
-4.124652	звёзды	-0.006612889
-4.124652	здания	-0.006612889
-2.923213	здесь	-0.03915064
-4.124652	зевает	-0.04917936
-4.124652	зевать	-0.04082521
-4.124652	зевая	-0.04838248
-4.124652	зевоты	-0.0442322
-4.124652	зеленоватая	-0.006612889
-4.124652	зеленью	0.003259994
-4.124652	зелёного	-0.04972223
-4.124652	зелёное	-0.0171166
-3.948125	зелёные	-0.04968964
-3.948125	зелёный	-0.04967329
-4.124652	земзе	-0.0171166
-3.948125	земле	-0.005575083
-4.124652	земледелии	-0.006612889
-4.124652	землемер	-0.0171166
-4.124652	землемеры	-0.04972223
-4.124652	землетрясение	-0.04972223
-3.133295	земли	-0.2071985
-4.124652	землистая	-0.04970588
-3.831969	землю	-0.05357434
-3.672382	земля	-0.08006106
-4.124652	земляную	-0.04969087
-4.124652	земная	-0.04970588
-4.124652	земное	-0.04972223
-4.124652	земнухова	-0.006612889
-4.124652	земную	-0.04972223
-4.124652	зениту	-0.006612889
-4.124652	зеркалами	-0.0171166
-4.124652	зеркало	-0.006612889
-4.124652	зеркалом	-0.04972223
-4.124652	зеркальному	-0.04970588
-4.124652	зерно	-0.0171166
-4.124652	зигзагами	-0.04972223
-4.124652	зизи	-0.04972223
-4.124652	зимой	-0.04166501
-4.124652	зимы	-0.04972223
-4.124652	злая	-0.0171166
-4.124652	зло	-0.04838248
-4.124652	злоумышленников	-0.04966247
-4.124652	злу	-0.006612889
-4.124652	знаем	-0.04863878
-3.555936	знает	-0.093862
-3.948125	знаете	-0.1844871
-4.124652	знаешь	-0.04758413
-4.124652	знакомого	-0.0442322
-4.124652	знакомы	-0.04966247
-4.124652	знакомые	-0.04960566
-4.124652	знакомый	-0.04966247
-4.124652	знакомьтесь	-0.006612889
-3.672382	знал	-0.02837504
-4.124652	знали	-0.01477603
-4.124652	знаменитая	-0.04972223
-4.124652	знаменитыми	-0.04821153
-4.124652	знание	-0.0171166
-4.124652	знатной	-0.04972223
-3.555936	знать	-0.004494712
-3.831969	значит	-0.006358057
-4.124652	значительного	-0.04972223
-4.124652	значительных	-0.04972223
-3.464203	знаю	-0.06091598
-3.948125	знают	-0.01683328
-4.124652	зное	-0.04972223
-4.124652	зовут	-0.0171166
-3.948125	зовёт	-0.04769406
-4.124652	золота	-0.04082521
-4.124652	золотистой	-0.04972223
-4.124652	золотистым	-0.04972223
-4.124652	золотит	-0.04972223
-4.124652	золото	-0.0171166
-4.124652	золотого	-0.04972223
-3.948125	золотой	-0.04965828
-3.831969	золотом	-0.04956886
-4.124652	золотую	-0.04972223
-4.124652	золотых	-0.04972223
-4.124652	зонтики	-0.04638385
-4.124652	зрачках	-0.04972223
-4.124652	зрелища	-0.006612889
-4.124652	зубами	-0.04812603
-4.124652	зубах	-0.04789794
-4.124652	зубчатым	-0.04972223
-3.831969	зубы	0.02982719
-4.124652	зыбкие	-0.04972223
-3.831969	зыбь	-0.006440245
-4.124652	зыбью	-0.006612889
-3.948125	зюйд	-0.04967329
-4.124652	зятю	-0.04972223
-4.124652	зёрна	-0.04972223
-1.691409	и	0.04051637
-3.555936	ибо	-0.04915242
-3.948125	иванович	-0.006479524
-3.831969	игра	-0.01704632
-4.124652	играет	-0.04166501
-4.124652	играл	-0.0171166
-4.124652	играющие	-0.0442322
-4.124652	игрой	-0.04966247
-4.124652	игру	-0.04789794
-3.948125	игры	-0.01708147
-4.124652	идейной	-0.04972223
-4.124652	идите	-0.0171166
-3.464203	идти	-0.007529855
-4.124652	иду	-0.04166501
-3.672382	идёт	-0.04720648
-2.450106	из	-0.07919361
-3.173716	из-за	-0.0661865
-3.672382	из-под	-0.04760494
-4.124652	избегал	-0.04952044
-4.124652	избегали	-0.04966247
-4.124652	избрать	-0.04943519
-3.948125	известно	-0.003196582
-3.948125	известного	-0.103384
-3.948125	известную	-0.04957306
-4.124652	извилистой	-0.04970588
-4.124652	извнутри	-0.04972223
-4.124652	изволили	-0.04969087
-4.124652	извращений	-0.006612889
-4.124652	издал	-0.04972223
-3.948125	издалека	-0.006576896
-3.831969	издали	-0.01648847
-4.124652	издательств	-0.0171166
-4.124652	излучины	-0.006612889
-4.124652	изменьщица	-0.0171166
-4.124652	измеряется	-0.04969087
-4.124652	изнеможении	-0.006612889
-4.124652	изнывали	-0.04838248
-4.124652	изо	-0.04949202
-4.124652	изображавший	-0.04166501
-4.124652	изображена	-0.04903717
-4.124652	изображение	-0.04969087
-4.124652	изредка	-0.04970588
-4.124652	изъеденное	-0.04972223
-4.124652	изыскание	-0.04972223
-4.124652	изящными	-0.04972223
-2.733473	или	-0.05477976
-4.124652	иль-де-франс	-0.006612889
-3.062242	им	-0.04141663
-4.124652	имевший	-0.04949202
-4.124652	имеем	-0.04972223
-4.124652	имеет	-0.04969087
-3.555936	имел	-0.09328632
-3.948125	имела	-0.04934574
-3.948125	имели	-0.0479478
-4.124652	имело	-0.04960566
-3.948125	именем	-0.006416779
-4.124652	имения	-0.04917936
-3.324068	именно	-0.03754802
-3.948125	иметь	-0.1540196
-4.124652	имею	-0.04166501
-4.124652	имеющего	-0.04970588
-4.124652	имеющие	-0.04960566
-3.831969	ими	-0.1344135
-3.555936	имя	-0.009308822
-4.124652	иначе	-0.0171166
-4.124652	индейку	-0.04082521
-4.124652	инженер	-0.006612889
-4.124652	инженера	-0.04972223
-3.388508	иногда	-0.07642938
-4.124652	иного	-0.04970588
-3.948125	иной	-0.04931436
-4.124652	иностранных	-0.04972223
-4.124652	инспектору	-0.04972223
-4.124652	инстинктивно	-0.0460403
-4.124652	инструментов	0.003259994
-4.124652	интерес	-0.04929308
-4.124652	интересно	-0.0171166
-3.948125	интересует	-0.1540196
-4.124652	интересуют	-0.0171166
-3.948125	интересующийся	-0.04960147
-4.124652	интриганом	-0.006612889
-4.124652	информации	-0.006612889
-3.464203	иные	-0.1209205
-4.124652	иных	-0.04917936
-4.124652	иоанна	-0.04082521
-4.124652	иоганн	-0.04972223
-4.124652	иоганны	-0.0171166
-4.124652	ионвиле	-0.04970588
-3.948125	ионвиля	-0.04635101
-3.948125	ипполит	-0.1829433
-4.124652	иска	-0.04943519
-4.124652	искал	-0.04969087
-4.124652	искателем	-0.04970588
-4.124652	исключением	-0.04972223
-4.124652	исключительно	-0.04972223
-4.124652	искоркой	-0.0171166
-4.124652	искра	-0.006612889
-4.124652	искренним	-0.0171166
-4.124652	искрой	-0.04954885
-3.831969	искусно	-0.04825713
-4.124652	искусств	-0.04972223
-4.124652	испански	-0.04972223
-4.124652	испещрённые	-0.04972223
-4.124652	испивать	-0.04937835
-4.124652	исполинского	-0.04972223
-4.124652	исполнить	-0.04929308
-4.124652	использовали	-0.04903717
-4.124652	использования	-0.04166501
-4.124652	использует	-0.0483255
-4.124652	используется	-0.04166501
-4.124652	испугался	-0.04758413
-4.124652	испугать	-0.04943519
-4.124652	испытал	-0.04952044
-4.124652	испытаю	-0.006612889
-4.124652	иссечённым	-0.04972223
-4.124652	истина	-0.04972223
-4.124652	истлевшего	-0.04972223
-3.948125	истории	-0.01698642
-4.124652	исторических	-0.04972223
-4.124652	история	-0.04966247
-4.124652	источники	-0.006612889
-4.124652	истошные	-0.04970588
-4.124652	истребить	-0.0171166
-4.124652	истрёпанном	-0.04972223
-4.124652	истёртым	-0.04972223
-4.124652	истёртых	-0.04972223
-4.124652	исцеляли	-0.04969087
-4.124652	исчез	-0.0171166
-4.124652	исчезает	-0.04166501
-4.124652	исчезли	-0.04883802
-4.124652	итак	-0.006612889
-4.124652	италии	-0.048012
-2.675966	их	0.05523474
-3.831969	ихи	-0.006540891
-3.948125	ищет	-0.01708147
-4.124652	июльского	-0.04972223
-4.124652	иё	-0.04972223
-4.124652	йода	-0.006612889
-3.948125	йозеф	-0.04965828
-2.331725	к	-0.1324112
-4.124652	кабака	-0.04969087
-4.124652	кабана	-0.006612889
-4.124652	кабанья	-0.04954885
-4.124652	каббале	-0.04972223
-4.124652	кабинета	-0.04972223
-4.124652	кабинете	-0.005820218
-4.124652	кабриолет	-0.04972223
-4.124652	кабы	-0.04957725
-4.124652	кавалеристов	-0.006612889
-3.948125	каждого	0.02957992
-4.124652	каждому	-0.0171166
-3.555936	каждый	-0.09724309
-3.948125	кажется	-0.05674024
-4.124652	казакова	-0.04966247
-4.124652	казалась	-0.04972223
-3.831969	казались	-0.1360098
-3.267966	казалось	-0.01466972
-4.124652	казань	-0.04554592
-4.124652	казобон	-0.006612889
-4.124652	казёнными	-0.04972223
-4.124652	кай-куму	-0.04966247
-2.30227	как	-0.01392713
-3.324068	как-то	-0.04676287
-3.948125	какая	-0.04927456
-3.555936	какие	-0.08926472
-3.672382	какие-то	-0.04949149
-3.948125	каким	-0.04733511
-4.124652	каким-то	-0.04972223
-4.124652	какими	-0.04898028
-4.124652	какими-то	-0.04970588
-3.948125	каких	-0.04928889
-4.124652	каких-либо	-0.04972223
-4.124652	каких-нибудь	-0.04972223
-4.124652	какого	-0.0492078
-4.124652	какого-нибудь	-0.04972223
-3.555936	какое	-0.1337551
-3.831969	какой	-0.1402058
-3.831969	какой-нибудь	-0.006522834
-3.464203	какой-то	-0.04921225
-4.124652	каком	-0.04972223
-4.124652	каком-нибудь	-0.04969087
-3.831969	какую	-0.04840255
-4.124652	какую-нибудь	-0.04972223
-4.124652	какую-то	-0.04972223
-4.124652	каменным	-0.04972223
-4.124652	каменными	-0.04969087
-4.124652	каменных	-0.04968964
-4.124652	камере	-0.006612889
-4.124652	камина	-0.04969087
-4.124652	камню	-0.006612889
-4.124652	камю	-0.006612889
-4.124652	канал	-0.0171166
-3.948125	каналы	-0.006510895
-4.124652	канивэ	-0.0171166
-4.124652	канифасовых	-0.04972223
-4.124652	каноэ	-0.006612889
-4.124652	капала	-0.0442322
-4.124652	капли	-0.04972223
-4.124652	капустой	-0.04972223
-4.124652	капусты	-0.006612889
-4.124652	капюшона	-0.0171166
-4.124652	капюшоном	-0.04972223
-4.124652	карательных	-0.04972223
-4.124652	карельской	-0.04972223
-4.124652	каретного	-0.04969087
-4.124652	карлейл	-0.04082521
-4.124652	карман	-0.04969087
-4.124652	кармана	-0.04972223
-4.124652	кармане	-0.0171166
-4.124652	карманов	-0.006612889
-4.124652	карт	-0.0171166
-4.124652	картинах	-0.04970588
-4.124652	картине	-0.04972223
-4.124652	картины	-0.04926465
-4.124652	картофель	-0.04638385
-4.124652	картошка	-0.04972223
-4.124652	картошку	-0.006612889
-4.124652	карту	-0.0442322
-3.948125	картуз	-0.04073095
-4.124652	карты	-0.0171166
-4.124652	карьеру	-0.0442322
-4.124652	касается	-0.04972223
-4.124652	кастеляншей	-0.04812603
-4.124652	кастро	-0.006612889
-4.124652	катались	-0.04166501
-4.124652	катаров	-0.0477268
-4.124652	категории	-0.04968964
-4.124652	катей	-0.006558843
-4.124652	кати	-0.003994059
-4.124652	катить	-0.04970588
-4.124652	католического	-0.04969087
-4.124652	катюшиной	-0.04966247
-4.124652	катя	-0.0171166
-4.124652	кафе	-0.04923623
-4.124652	кафедральный	-0.04972223
-4.124652	кафель	-0.006612889
-4.124652	качнулась	-0.0487811
-4.124652	квадратные	-0.006612889
-4.124652	квадратный	-0.04972223
-4.124652	квадратов	-0.006612889
-4.124652	кварталы	-0.006612889
-3.948125	квартире	-0.0472629
-3.948125	квартиру	0.003749605
-4.124652	кварту	-0.04972223
-3.948125	кверху	-0.1435159
-3.831969	кем	-0.03874332
-4.124652	керосинщик	-0.0487811
-4.124652	кессиди	-0.006612889
-4.124652	кивнул	-0.04926465
-4.124652	киврин	-0.04970588
-4.124652	кидались	-0.04166501
-4.124652	киевом	-0.006612889
-3.948125	кий	-0.0005094185
-3.948125	километров	0.02957992
-4.124652	кильб	-0.006612889
-4.124652	кимоно	-0.04937835
-4.124652	кинги	-0.04970588
-4.124652	кинжал	-0.006612889
-4.124652	киноаппаратик	-0.006612889
-4.124652	кинул	-0.04963407
-4.124652	кинулась	-0.0477268
-4.124652	кинуло	-0.0171166
-4.124652	кинулся	-0.0477268
-4.124652	кипсека	-0.0171166
-4.124652	кипы	-0.04972223
-4.124652	кирпич	-0.04082521
-4.124652	кирпичиках	-0.0171166
-4.124652	кирпично-красный	-0.04972223
-4.124652	кирпичной	-0.04972223
-4.124652	кирпичный	-0.04969087
-4.124652	кирпичных	-0.006612889
-3.948125	кислородные	-0.1866252
-4.124652	китайцы	-0.04166501
-4.124652	клавдии	-0.04972223
-4.124652	кладу	-0.0442322
-4.124652	кладёт	-0.0442322
-4.124652	клары	-0.0171166
-4.124652	класса	-0.0171166
-4.124652	классы	-0.0171166
-3.948125	клевать	-0.006134301
-4.124652	клеёнкам	-0.04972223
-4.124652	клоуна	-0.006612889
-4.124652	клубки	-0.0171166
-4.124652	клубов	-0.04972223
-4.124652	клубы	-0.04970588
-4.124652	ключница	-0.04972223
-4.124652	клёпкой	-0.006542265
-4.124652	книгами	-0.006558843
-4.124652	книгах	-0.0171166
-3.948125	книге	-0.006542265
-3.948125	книги	-0.01706384
-4.124652	книжечками	-0.0171166
-4.124652	книжку	-0.04638385
-4.124652	книжные	-0.04972223
-4.124652	кнопку	-0.04972223
-4.124652	княжеской	-0.04972223
-4.124652	князя	-0.006612889
-3.464203	ко	-0.3719285
-4.124652	кобуру	-0.006612889
-4.124652	кобыла	-0.006612889
-4.124652	ковбой	-0.04972223
-3.030648	когда	-0.05535962
-3.948125	когда-нибудь	-0.04958512
-3.672382	когда-то	-0.1116811
-3.948125	кого	-0.04834682
-4.124652	кое	-0.04929308
-4.124652	кое-где	-0.04972223
-4.124652	кое-какие	-0.04972223
-3.948125	кожа	-0.04419919
-4.124652	кожаная	-0.04972223
-3.948125	кожаного	-0.006558843
-3.831969	кожи	0.03027081
-4.124652	козлы	-0.04082521
-4.124652	козырёк	-0.006612889
-4.124652	козьим	-0.04972223
-4.124652	кокетство	-0.04952044
-4.124652	кокотка	-0.0171166
-4.124652	кокотки	-0.006612889
-4.124652	колебания	-0.006612889
-4.124652	колебаниям	-0.006612889
-3.948125	колени	-0.04914673
-4.124652	коленях	-0.0171166
-3.948125	колесо	-0.01671074
-4.124652	колец	-0.04972223
-4.124652	коллежский	-0.04972223
-4.124652	коллектива	-0.006612889
-4.124652	колодезь	-0.04972223
-4.124652	колодки	-0.04082521
-4.124652	колодцах	-0.04838248
-4.124652	колокольне	-0.006612889
-4.124652	колонизации	-0.04972223
-4.124652	колоний	-0.04166501
-4.124652	колонн	-0.04972223
-4.124652	колонну	-0.0171166
-4.124652	колпачком	-0.006612889
-4.124652	колышется	-0.0483255
-4.124652	колючую	-0.04969087
-4.124652	коляска	-0.04638385
-4.124652	коляша	-0.04960566
-4.124652	ком	-0.04966247
-4.124652	командой	-0.04970588
-4.124652	кометы	-0.04972223
-4.124652	комнате	0.002330575
-3.672382	комнату	-0.002274249
-3.948125	комнаты	-0.01664945
-4.124652	комодом	-0.0171166
-4.124652	комплимент	-0.04952044
-4.124652	комсомолок	-0.006612889
-4.124652	комсомольцев	-0.006612889
-3.831969	кому	-0.0480127
-4.124652	конвертов	-0.006612889
-4.124652	кондитера	-0.006612889
-4.124652	кондратович	-0.04970588
-3.948125	конец	-0.04967329
-3.388508	конечно	0.008094914
-4.124652	константин	-0.006612889
-4.124652	конституционно	-0.04972223
-4.124652	контура	-0.04970588
-3.948125	конурке	-0.04723434
-4.124652	конусе	-0.0171166
-4.124652	конца	-0.01704632
-3.948125	конце	-0.04924489
-4.124652	концерту	-0.04972223
-4.124652	концлагерь	-0.006612889
-4.124652	концов	-0.006612889
-4.124652	концом	-0.04972223
-4.124652	концу	-0.04970588
-4.124652	концы	-0.04972223
-4.124652	кончается	-0.04972223
-4.124652	кончились	-0.04972223
-3.948125	кончился	-0.01708147
-4.124652	кончится	-0.0171166
-4.124652	коньяку	-0.04972223
-4.124652	конюшню	-0.04972223
-4.124652	копчёная	-0.04970588
-4.124652	корабли	-0.006612889
-4.124652	корабль	-0.04970588
-4.124652	корабля	-0.04972223
-4.124652	кордильер	-0.04949202
-4.124652	корзинку	-0.04638385
-4.124652	коридора	-0.04738431
-4.124652	коридоров	-0.0171166
-4.124652	коридоры	-0.006612889
-4.124652	коричневой	-0.04970588
-4.124652	коричневую	-0.04972223
-4.124652	коричневых	-0.04972223
-4.124652	коробке	-0.006612889
-4.124652	королевы	-0.0171166
-4.124652	король	-0.04960566
-4.124652	королём	-0.04166501
-4.124652	корону	-0.006612889
-4.124652	коротких	-0.0171166
-4.124652	короткую	-0.006612889
-4.124652	корреспондент	-0.006558843
-4.124652	корсо	-0.006612889
-4.124652	корточках	-0.04969087
-4.124652	кору	-0.006558843
-4.124652	корчагин	-0.04969087
-4.124652	косвенных	-0.04972223
-4.124652	косились	-0.04082521
-4.124652	космос	-0.0171166
-4.124652	коснулись	-0.006612889
-3.948125	костей	-0.007482268
-4.124652	костлявое	-0.006612889
-4.124652	кострище	-0.04932151
-4.124652	костёр	-0.04821153
-3.948125	косынку	-0.04939962
-4.124652	косынок	-0.0171166
-3.948125	которая	-0.0407254
-3.388508	которого	-0.04799779
-3.672382	которое	-0.04454823
-3.672382	которой	-0.04507913
-4.124652	котором	-0.04970588
-4.124652	которому	-0.04972223
-3.555936	которую	-0.03911621
-3.267966	которые	-0.03960206
-3.218289	который	-0.04081494
-4.124652	которым	-0.04866725
-3.948125	которыми	-0.04968964
-3.831969	которых	-0.04367888
-4.124652	кофею	-0.04082521
-4.124652	кочевников	-0.006612889
-4.124652	кошской	-0.04972223
-3.948125	край	-0.04928889
-4.124652	крайней	-0.04972223
-4.124652	крапивы	-0.006612889
-3.948125	красавец	-0.04926046
-4.124652	красивая	-0.04972223
-4.124652	красивой	-0.04972223
-4.124652	красивые	-0.04969087
-4.124652	красивым	-0.04970588
-4.124652	красильщикова	-0.006612889
-4.124652	краска	-0.0442322
-4.124652	красками	-0.04963407
-3.948125	краской	-0.01708147
-4.124652	краскою	-0.04969087
-4.124652	краснея	-0.04934993
-4.124652	краснобайство	-0.04638385
-4.124652	красноватой	-0.04972223
-4.124652	красноватый	-0.04970588
-4.124652	красного	-0.04970588
-4.124652	красной	-0.04970588
-4.124652	красным	-0.04758413
-4.124652	красоты	-0.006612889
-4.124652	краю	-0.0171166
-4.124652	края	-0.0460403
-4.124652	кредитку	-0.006612889
-4.124652	кредиторов	-0.0171166
-4.124652	крепкие	-0.04875264
-4.124652	крепкий	-0.04972223
-3.948125	крепко	-0.01706384
-3.948125	крепости	-0.01701704
-4.124652	крестом	-0.0171166
-4.124652	крестьян	-0.03848542
-4.124652	крестьяне	-0.006612889
-4.124652	крестьянская	-0.04972223
-3.948125	крики	-0.04967329
-4.124652	крикнул	-0.04886647
-4.124652	крикнуть	-0.04952044
-4.124652	кристобаль	-0.04972223
-4.124652	кричало	-0.006612889
-4.124652	кричать	-0.006612889
-3.948125	кричит	0.02957992
-4.124652	кровавыми	-0.04972223
-3.831969	кровати	-0.05674024
-4.124652	кровать	-0.04972223
-3.948125	крови	-0.006291255
-3.324068	кровь	-0.1006094
-4.124652	кролю	-0.0171166
-3.555936	кроме	-0.04901309
-4.124652	кроткий	-0.04972223
-4.124652	кругам	-0.04166501
-4.124652	круги	-0.006612889
-3.948125	круглая	-0.1866252
-4.124652	круглое	-0.04972223
-3.831969	круглой	-0.04965704
-4.124652	круглые	-0.0171166
-4.124652	кругов	-0.006612889
-3.831969	кругом	-0.04828563
-4.124652	кругу	-0.006612889
-4.124652	крупнейших	-0.04972223
-4.124652	крупными	-0.04970588
-4.124652	крутой	-0.04954885
-4.124652	крылышками	-0.04895183
-4.124652	крыльев	-0.006612889
-3.948125	крылья	-0.006291255
-4.124652	крынок	-0.04970588
-4.124652	крыши	-0.04972223
-4.124652	кстати	-0.04166501
-2.973616	кто	-0.03691647
-3.948125	кто-то	-0.006558843
-4.124652	куб	-0.04972223
-4.124652	куба	-0.006612889
-4.124652	кувшинки	-0.006612889
-4.124652	кувшинов	-0.04972223
-3.464203	куда	-0.04602017
-4.124652	куда-нибудь	-0.04166501
-4.124652	куда-то	-0.04166501
-4.124652	кузницы	-0.006612889
-4.124652	кузова	-0.0171166
-4.124652	кукурузные	-0.04972223
-4.124652	купе	-0.006612889
-4.124652	купеческими	-0.04963407
-4.124652	купила	-0.04917936
-4.124652	купленный	-0.0442322
-4.124652	купола	-0.0171166
-4.124652	куполу	-0.006612889
-4.124652	купца	-0.04972223
-4.124652	купцы	-0.048012
-4.124652	купюру	-0.04903717
-4.124652	курил	-0.04972223
-4.124652	куриной	-0.04972223
-4.124652	курица	-0.0171166
-4.124652	курфюрста	-0.006612889
-4.124652	куры-то	-0.04082521
-4.124652	курьеров	-0.0171166
-4.124652	курьерских	-0.04883802
-4.124652	куски	-0.04932151
-4.124652	кусочки	-0.006612889
-4.124652	кустарно	-0.04812603
-4.124652	кустов	-0.006612889
-4.124652	кухарку	-0.04972223
-3.948125	кухню	-0.1540196
-4.124652	кухонной	-0.04972223
-4.124652	куча	-0.04972223
-3.948125	кучами	-0.0492036
-3.831969	куче	-0.04964069
-3.948125	кучер	-0.1866252
-4.124652	кучки	-0.006558843
-4.124652	кущ	-0.04932151
-4.124652	кущи	-0.04969087
-4.124652	кьеркегора	-0.006612889
-4.124652	кюре	-0.04972223
-4.124652	л'аббеи	-0.006612889
-4.124652	ла	-0.04972223
-4.124652	лавочек	-0.04895183
-4.124652	лавочки	-0.04638385
-4.124652	лавочнику	-0.04972223
-4.124652	лагере	-0.04966247
-4.124652	ладана	-0.006612889
-4.124652	ладно	-0.04970588
-3.948125	лакей	-0.1866252
-4.124652	лакейским	-0.04972223
-3.948125	лакомые	-0.04967329
-4.124652	лаконически	-0.0171166
-4.124652	ламп	-0.04082521
-4.124652	лампочка	0.002330575
-4.124652	ландграф	-0.04972223
-4.124652	ландшафт	-0.0171166
-4.124652	лапами	-0.006612889
-4.124652	лапки	-0.04970588
-4.124652	лапчатой	-0.04972223
-4.124652	ларей	-0.04082521
-4.124652	ларчик	-0.04972223
-4.124652	ласковая	-0.04082521
-4.124652	левой	-0.04969087
-4.124652	левым	-0.04972223
-3.831969	легко	-0.09289706
-4.124652	легла	-0.04166501
-4.124652	легонько	-0.04966247
-3.831969	легче	-0.1019571
-4.124652	лед	-0.0171166
-3.948125	леди	-0.04968964
-4.124652	ледяную	-0.04970588
-4.124652	ледяным	-0.04972223
-4.124652	ледяными	-0.04972223
-3.948125	лежавший	-0.1811352
-4.124652	лежал	-0.04738431
-3.948125	лежали	-0.1811352
-3.948125	лежащей	-0.178568
-4.124652	лежит	-0.04972223
-4.124652	лейтенант	-0.04969087
-4.124652	ленивые	-0.006558843
-4.124652	леон	-0.04969087
-4.124652	леоноре	-0.04789794
-4.124652	лепетал	-0.04969087
-4.124652	лепёшки	-0.006612889
-4.124652	лере	-0.04866725
-4.124652	лесенку	-0.04972223
-4.124652	лесных	-0.04972223
-3.948125	лесов	-0.092879
-4.124652	лестница	-0.04970588
-3.948125	лестнице	-0.1435159
-4.124652	лестницы	-0.04972223
-4.124652	лестное	-0.04970588
-3.001197	лет	-0.0576241
-4.124652	лета	-0.04934993
-3.948125	летел	-0.03603788
-4.124652	летела	-0.002508588
-4.124652	лететь	-0.04821153
-4.124652	летит	-0.04970588
-4.124652	лето	-0.006612889
-4.124652	летом	-0.04082521
-4.124652	летящие	-0.04972223
-4.124652	летящих	-0.04970588
-4.124652	лжёт	-0.0171166
-2.799775	ли	-0.05500387
-4.124652	ливен	-0.006612889
-4.124652	ливень	-0.04638385
-4.124652	ливреях	-0.006612889
-4.124652	лидеров	-0.006612889
-4.124652	лижет	-0.0483255
-4.124652	лик	-0.04972223
-4.124652	лиловую	-0.0171166
-4.124652	линдауэр-хютте	-0.006612889
-4.124652	линии	-0.0171166
-3.948125	линий	-0.1435159
-4.124652	линию	-0.0483255
-4.124652	листе	-0.006612889
-4.124652	листы	-0.0483255
-4.124652	лития	-0.04082521
-4.124652	литургией	-0.0487811
-4.124652	лихих	-0.04972223
-4.124652	лихорадки	-0.0171166
-4.124652	лихорадок	-0.04972223
-3.948125	лиц	-0.005411576
-3.464203	лица	0.0320738
-3.948125	лице	-0.04957011
-3.267966	лицо	-0.05610368
-3.831969	лицом	-0.005375471
-4.124652	лицу	-0.0171166
-4.124652	личный	-0.04972223
-4.124652	лишком	-0.04937835
-3.133295	лишь	-0.04580042
-4.124652	лишён	-0.04972223
-3.555936	лоб	-0.08391608
-4.124652	лобзиками	-0.048012
-4.124652	ловким	0.003259994
-4.124652	ловко	-0.04972223
-4.124652	лодка	-0.006612889
-3.948125	лодки	0.02957992
-4.124652	лодку	-0.04789794
-4.124652	лодок	-0.04082521
-4.124652	ложась	-0.04969087
-4.124652	ложечкой	-0.04638385
-4.124652	ложиться	-0.04969087
-4.124652	ложь	-0.04638385
-4.124652	локонами	-0.04972223
-4.124652	ломались	-0.04949202
-4.124652	ломбард	-0.04812603
-4.124652	лопаты	-0.006612889
-4.124652	лоскутке	-0.04972223
-4.124652	лоснится	-0.04838248
-4.124652	лоснящейся	-0.04972223
-3.267966	лось	0.03145909
-4.124652	лося	-0.006542265
-4.124652	лохмотья	-0.04972223
-3.948125	лошадей	-0.005977288
-4.124652	лошади	-0.0171166
-3.831969	лошадь	-0.005749457
-4.124652	лошадьми	-0.006612889
-4.124652	лувру	-0.0171166
-4.124652	лугах	-0.04970588
-4.124652	луковой	-0.04972223
-4.124652	лупить	-0.04972223
-3.948125	луч	-0.04967329
-4.124652	лучами	-0.0171166
-3.948125	лучи	-0.01708147
-4.124652	лучик	-0.04838248
-3.218289	лучше	-0.05036453
-4.124652	лысые	-0.04969087
-4.124652	льды	-0.0171166
-3.672382	любви	-0.03346012
-4.124652	любезного	-0.04957725
-4.124652	любезной	-0.04638385
-4.124652	любезность	-0.04963407
-4.124652	любезны	-0.006612889
-4.124652	любила	-0.04892338
-4.124652	любимую	-0.006612889
-3.948125	любит	-0.0169558
-4.124652	любите	-0.006612889
-4.124652	любителями	-0.04972223
-4.124652	любить	-0.04963407
-3.948125	любишь	-0.0162202
-3.672382	люблю	-0.1640425
-4.124652	любовника	-0.006612889
-4.124652	любовной	-0.04970588
-3.267966	любовь	-0.1082404
-4.124652	любовью	-0.04082521
-4.124652	любого	-0.04972223
-4.124652	любознательность	-0.04929308
-4.124652	любопытно	-0.04861031
-4.124652	любопытный	-0.04970588
-4.124652	любопытство	-0.0171166
-4.124652	любу	-0.04972223
-4.124652	любую	-0.04963407
-3.948125	любят	-0.0438797
-3.464203	людей	-0.05640007
-3.948125	люди	-0.01311082
-4.124652	людьми	-0.0171166
-3.948125	людям	-0.006576896
-4.124652	люк	-0.006612889
-4.124652	люка	-0.0171166
-3.948125	люстра	-0.1862813
-4.124652	лёг	-0.0442322
-4.124652	лёгкая	-0.04758413
-3.672382	лёгким	-0.08010787
-4.124652	лёгкими	-0.04972223
-4.124652	лёгкую	-0.04969087
-4.124652	лёжа	-0.04638385
-4.124652	лётчик	-0.04970588
-4.124652	магацитла	-0.006612889
-4.124652	магацитлов	-0.006612889
-4.124652	магнитных	-0.04972223
-4.124652	мадленер-хаус	-0.006612889
-4.124652	мается	-0.04949202
-4.124652	мак-наббс	-0.006612889
-4.124652	макнуть	-0.04166501
-4.124652	малейший	-0.04972223
-4.124652	малейших	-0.04972223
-4.124652	маленькии	-0.04972223
-3.831969	маленький	-0.04962568
-4.124652	маленькими	-0.006612889
-4.124652	маленькой	-0.04972223
-4.124652	маленькому	-0.04972223
-3.464203	мало	0.03194766
-3.831969	малый	-0.01654978
-3.831969	мальчик	-0.03193319
-4.124652	мальчика	-0.0171166
-4.124652	мальчику	-0.04082521
-4.124652	малютка	-0.0171166
-4.124652	манер	-0.04972223
-4.124652	манием	-0.04943519
-3.948125	манилов	-0.03983125
-4.124652	маниловым	-0.04082521
-4.124652	манишка	-0.04972223
-4.124652	манишку	-0.04972223
-4.124652	маорийцами	-0.0171166
-4.124652	маорийцев	-0.0171166
-4.124652	мараскином	-0.006612889
-4.124652	маргарин	-0.04972223
-4.124652	марианне	-0.006612889
-3.948125	марии	-0.1540196
-4.124652	маркиз	-0.04966247
-4.124652	марок	-0.006612889
-3.948125	марс	-0.04590409
-3.672382	марса	-0.03346012
-4.124652	марсе	-0.04972223
-3.831969	марсиан	-0.05674024
-4.124652	марсиане	-0.006612889
-3.672382	марсианин	-0.04960808
-3.948125	мартин	-0.04965704
-4.124652	мартинетти	-0.006612889
-4.124652	масла	-0.006612889
-4.124652	масляной	-0.04970588
-4.124652	масляными	-0.04972223
-3.948125	массивной	-0.186395
-4.124652	масти	-0.04166501
-3.948125	матери	-0.1435159
-4.124652	материк	-0.006558843
-4.124652	материка	-0.0171166
-4.124652	матерински	-0.0171166
-4.124652	матерью	-0.04972223
-4.124652	матросов	-0.04638385
-3.555936	мать	-0.127928
-4.124652	махающие	-0.04966247
-4.124652	махновщина	-0.04960566
-4.124652	махнул	-0.04966247
-4.124652	махнули	-0.0442322
-4.124652	мачтах	-0.04082521
-4.124652	маша	-0.04970588
-4.124652	машина	-0.04963407
-4.124652	машине	-0.04738431
-4.124652	машинного	-0.04972223
-4.124652	машиной	-0.006612889
-4.124652	машину	-0.04812603
-4.124652	машины	-0.0171166
-4.124652	мгновение	-0.04972223
-4.124652	мгновений	-0.04972223
-4.124652	мгновенно	-0.04972223
-4.124652	мебели	-0.0171166
-4.124652	мебель	-0.006612889
-4.124652	медведя	-0.006612889
-3.948125	меди	-0.007482268
-3.831969	медленно	-0.005905177
-4.124652	медленные	-0.04972223
-4.124652	медливший	-0.04082521
-4.124652	медные	-0.04966247
-4.124652	медузой	-0.04895183
-4.124652	медузы	-0.006612889
-4.124652	меж	-0.04972223
-3.555936	между	-0.04933017
-4.124652	междузвёздном	-0.04969087
-4.124652	межи	-0.0460403
-4.124652	мезер	-0.04972223
-4.124652	мелочь	-0.006612889
-4.124652	мелькавших	-0.0171166
-4.124652	мелькали	-0.04082521
-4.124652	мельхиора	-0.006612889
-4.124652	менее	-0.04965694
-4.124652	менестрелями	-0.0171166
-4.124652	меньше	-0.04970588
-2.718367	меня	-0.01018143
-4.124652	меняющейся	-0.04758413
-4.124652	меняющиеся	-0.006612889
-4.124652	мере	-0.002508588
-4.124652	мерси	-0.0171166
-4.124652	мертвецу	-0.006612889
-4.124652	меру	-0.04969087
-4.124652	меры	-0.04969087
-4.124652	мест	-0.04917936
-3.948125	места	-0.04746278
-4.124652	местами	-0.04638385
-4.124652	местах	-0.0171166
-3.831969	месте	-0.05674024
-4.124652	местечко	-0.04972223
-4.124652	мести	-0.006612889
-3.948125	местность	-0.006576896
-4.124652	местный	-0.04972223
-3.831969	место	-0.00578415
-4.124652	месяц	-0.04883802
-4.124652	месяц-то	-0.04082521
-3.948125	месяцев	-0.01706384
-4.124652	металлическая	-0.002888341
-4.124652	метнулась	-0.04972223
-4.124652	метро	-0.04970588
-3.948125	метров	0.002367329
-4.124652	механизм	-0.04970588
-4.124652	механизма	-0.005505912
-4.124652	механики	-0.006612889
-4.124652	механический	-0.04972223
-4.124652	мечтает	-0.006612889
-4.124652	мешку	-0.04638385
-4.124652	мешок	-0.006612889
-4.124652	мешочками	-0.04638385
-4.124652	милой	-0.04970588
-4.124652	милорда	-0.04082521
-4.124652	милый	-0.006612889
-4.124652	миль	-0.006612889
-3.672382	мимо	0.03055769
-4.124652	минули	-0.04972223
-3.555936	минут	-0.01963801
-3.555936	минуту	-0.09863399
-3.555936	минуты	-0.002012771
-3.948125	мир	0.02957992
-3.831969	мира	-0.103384
-4.124652	мире	-0.006612889
-3.948125	мириады	-0.006540891
-4.124652	мирный	-0.04972223
-4.124652	миров	-0.0171166
-4.124652	мировой	-0.04972223
-4.124652	миром	-0.006612889
-4.124652	мишень	-0.04166501
-4.124652	мишка	-0.04960566
-4.124652	младенцами	-0.0171166
-4.124652	младенческие	-0.04972223
-2.637338	мне	-0.04510195
-4.124652	мнемозина	-0.006612889
-4.124652	мнение	-0.0171166
-3.948125	многие	-0.04960147
-3.267966	много	-0.0417561
-3.948125	многое	-0.04817883
-4.124652	многоугольную	-0.04972223
-4.124652	многоэтажных	-0.04972223
-3.555936	множество	-0.04955912
-4.124652	множеством	-0.04972223
-3.948125	мной	-0.006427709
-3.388508	мог	-0.03042662
-4.124652	могилой	-0.0171166
-4.124652	могилёв	-0.006612889
-3.831969	могла	-0.04926412
-3.672382	могли	-0.04827002
-3.948125	могу	-0.01602913
-3.831969	могут	-0.005887095
-4.124652	моде	-0.0171166
-4.124652	модестгассе	-0.004080754
-4.124652	моду	-0.04966247
-4.124652	моего	-0.04972223
-4.124652	можем	-0.0171166
-3.173716	может	-0.05457842
-3.831969	можете	-0.006522834
-3.831969	можешь	-0.04817164
-3.062242	можно	-0.02732402
-4.124652	мозг	-0.006612889
-4.124652	мозги	-0.04638385
-3.555936	мои	-0.04945591
-3.948125	моих	-0.04964193
-3.464203	мой	-0.04105715
-3.948125	мол	-0.04967329
-4.124652	молитва	-0.04166501
-4.124652	молитвенника	-0.006612889
-4.124652	молнии	-0.006612889
-4.124652	молод	-0.0171166
-3.831969	молодого	-0.04962434
-3.555936	молодой	-0.1301705
-4.124652	молодости	-0.004561622
-3.948125	молодость	-0.004813634
-3.948125	молодую	-0.1866252
-4.124652	молодчикам	-0.04758413
-4.124652	молодые	-0.04963407
-4.124652	молодых	-0.04972223
-4.124652	молодёжь	-0.006612889
-3.948125	молока	-0.008389004
-4.124652	молоком	-0.0171166
-4.124652	молот	-0.04917936
-4.124652	молотками	-0.048012
-4.124652	молчал	-0.04082521
-4.124652	молчаливого	-0.04970588
-4.124652	молчаливый	-0.04082521
-4.124652	молчании	-0.04917936
-4.124652	мольбой	-0.04972223
-4.124652	молэ	-0.006612889
-3.831969	момент	-0.006129656
-4.124652	монастырской	-0.04972223
-4.124652	монастырях	-0.04972223
-4.124652	монетную	-0.04969087
-4.124652	монсегюра	-0.0171166
-3.948125	море	-0.006576896
-3.948125	мороженое	-0.002888341
-4.124652	морском	-0.04972223
-4.124652	морщинами	-0.04970588
-3.948125	морщинистые	-0.006576896
-4.124652	морю	-0.006612889
-4.124652	моря	-0.0171166
-3.948125	москву	0.004167359
-4.124652	москвы	-0.04166501
-4.124652	мостовой	-0.006612889
-4.124652	мотоциклистов	-0.006612889
-4.124652	мотыльки	-0.0171166
-4.124652	моцарт	-0.006612889
-4.124652	моче	-0.006612889
-4.124652	мошенник	-0.0171166
-3.948125	мощь	-0.04968964
-3.672382	мою	-0.04947943
-3.555936	моя	-0.006545372
-3.831969	моё	-0.04964069
-4.124652	мрачной	-0.04972223
-4.124652	мрачные	-0.006612889
-4.124652	мрачными	-0.04972223
-3.948125	мстислав	-0.1866252
-4.124652	муаром	-0.0171166
-4.124652	мудрый	-0.04970588
-4.124652	мудрых	-0.04972223
-3.672382	муж	-0.003599364
-4.124652	мужа	-0.006612889
-4.124652	мужеством	-0.04969087
-3.948125	мужик	-0.01649619
-4.124652	мужика	-0.04972223
-4.124652	мужикам	-0.04972223
-4.124652	мужу	-0.0442322
-4.124652	мужчин	-0.0171166
-4.124652	мужчина	-0.04952044
-4.124652	мужчину	-0.04970588
-3.948125	мужчины	-0.0060401
-4.124652	муз	-0.006612889
-4.124652	музыки	-0.04970588
-4.124652	мускул	-0.0171166
-4.124652	мутных	-0.04972223
-4.124652	мух	-0.0171166
-3.948125	мухи	-0.0005094185
-3.948125	мучительно	-0.01634289
-4.124652	мучительных	-0.04970588
-3.001197	мы	0.04049632
-4.124652	мылом	-0.04917936
-4.124652	мыльца	-0.04972223
-3.948125	мыслей	-0.006576896
-4.124652	мысленно	-0.04789794
-3.948125	мысли	0.02957992
-3.948125	мысль	-0.01311082
-4.124652	мыслями	-0.0171166
-4.124652	мыслях	-0.04903717
-4.124652	мыслящую	-0.04972223
-4.124652	мышц	-0.006612889
-4.124652	мышь	-0.04972223
-4.124652	мэрию	-0.006612889
-4.124652	мягко	-0.04972223
-3.948125	мягкой	-0.04079195
-4.124652	мясной	-0.04972223
-4.124652	мять	-0.04166501
-4.124652	мёрз	-0.04166501
-4.124652	мёрзлую	-0.04970588
-1.898397	на	-0.07993173
-4.124652	набережной	-0.006542265
-4.124652	набережную	-0.0171166
-4.124652	набивают	-0.04943519
-4.124652	набили	-0.04970588
-4.124652	наблюдать	-0.04861031
-4.124652	наблюдения	-0.04082521
-4.124652	набок	-0.04952044
-4.124652	навалился	-0.0442322
-4.124652	навеки	-0.006612889
-4.124652	наверно	-0.04923623
-3.672382	наверное	-0.04459939
-4.124652	наверняка	-0.04932151
-3.948125	наверху	-0.006576896
-4.124652	навозной	-0.04969087
-4.124652	навроде	-0.04758413
-4.124652	навсегда	-0.0171166
-3.948125	навстречу	-0.01671074
-4.124652	навьюченными	-0.04972223
-4.124652	нагнувши	-0.04638385
-4.124652	нагнулся	-0.006612889
-4.124652	нагреты	-0.04972223
-3.173716	над	-0.04883127
-3.948125	надежды	-0.03518713
-4.124652	надел	-0.0171166
-4.124652	надеюсь	-0.04166501
-4.124652	надеялся	-0.0171166
-4.124652	надеяться	-0.006612889
-3.133295	надо	-0.0325752
-4.124652	надобностям	-0.0171166
-4.124652	надоедать	-0.0171166
-4.124652	надоедают	-0.04758413
-4.124652	надоело	-0.006612889
-4.124652	надолго	-0.04972223
-3.948125	надписями	-0.1435159
-4.124652	надёжно	-0.04082521
-4.124652	надёжный	-0.04972223
-4.124652	нажал	-0.0442322
-3.831969	назад	-0.006417546
-4.124652	названия	-0.04970588
-4.124652	назвать	-0.04970588
-4.124652	назначают	-0.04972223
-4.124652	назовёшь	-0.04963407
-3.948125	называют	-0.04163181
-4.124652	наивен	-0.006612889
-4.124652	найду	-0.04082521
-4.124652	найти	-0.04972223
-4.124652	наказание	-0.0171166
-4.124652	накануне	-0.04789794
-4.124652	накинул	-0.04972223
-4.124652	наклонением	-0.04969087
-3.133295	наконец	-0.006050855
-4.124652	накрыв	-0.0483255
-4.124652	накупившими	-0.04883802
-4.124652	налево	-0.0171166
-4.124652	налетел	-0.04638385
-4.124652	налил	-0.006612889
-3.218289	нам	-0.03186219
-4.124652	намекнул	-0.04954885
-3.948125	нами	-0.04968964
-4.124652	намёк	-0.0171166
-4.124652	наоборот	-0.006612889
-4.124652	написал	-0.0442322
-4.124652	написать	-0.04970588
-4.124652	напишу	-0.04946361
-4.124652	наплевать	-0.006612889
-4.124652	наповал	-0.04970588
-4.124652	направлении	-0.04965694
-4.124652	направлению	-0.04769406
-3.948125	направо	-0.006416779
-4.124652	напрасно	-0.04966247
-4.124652	например	-0.006612889
-3.831969	напротив	-0.0492085
-4.124652	напряг	-0.04923623
-4.124652	напряжённо	-0.04970588
-4.124652	напряжённого	-0.006612889
-3.948125	народа	-0.1435159
-4.124652	народов	-0.04970588
-3.948125	нарочно	-0.006576896
-4.124652	наружного	-0.04972223
-4.124652	наружности	-0.0171166
-4.124652	наружный	-0.04972223
-4.124652	нарядного	-0.006612889
-3.218289	нас	-0.00125479
-4.124652	насекомых	-0.0171166
-4.124652	население	-0.04972223
-4.124652	населённый	-0.04969087
-4.124652	насколько	-0.04972223
-4.124652	наследника	-0.0171166
-4.124652	наследники	-0.04972223
-4.124652	наследства	-0.0171166
-4.124652	насобирать	-0.04972223
-4.124652	наспину	-0.0171166
-4.124652	наставлениями	-0.04758413
-3.831969	настолько	-0.04751861
-3.948125	настоящее	-0.04957011
-4.124652	настроение	-0.0171166
-4.124652	наступил	-0.0442322
-4.124652	наступление	-0.0171166
-4.124652	наступления	-0.04970588
-3.948125	насчёт	-0.04968964
-3.831969	насыпь	-0.04090059
-4.124652	насыщена	-0.04943519
-4.124652	насыщенные	-0.04972223
-4.124652	насьональ	-0.006612889
-4.124652	натерпелся	-0.04972223
-4.124652	натолкнуться	-0.0442322
-4.124652	науками	-0.0171166
-4.124652	научились	-0.04972223
-4.124652	научись	-0.04972223
-4.124652	научно	-0.04972223
-4.124652	нахмурясь	-0.04954885
-4.124652	находившуюся	-0.04972223
-3.948125	находились	-0.006558843
-4.124652	находится	-0.04923623
-4.124652	находятся	-0.04883802
-4.124652	наци	-0.0171166
-4.124652	национальной	-0.04970588
-4.124652	нацисты	-0.04972223
-4.124652	начав	-0.04946361
-3.672382	начал	-0.09664626
-3.948125	начала	-0.04079195
-4.124652	начали	-0.04970588
-3.831969	начало	-0.04964069
-4.124652	начался	-0.04943519
-3.948125	начальника	-0.049431
-4.124652	начаты	-0.04917936
-3.948125	начать	-0.04968964
-4.124652	начинала	-0.04970588
-4.124652	начинать	-0.0171166
-4.124652	начинают	-0.04972223
-4.124652	начинаются	-0.04970588
-4.124652	начинающего	-0.04972223
-4.124652	начиная	-0.04937835
-3.672382	наш	-0.04956171
-3.672382	наша	-0.04626882
-4.124652	нашего	-0.04972223
-4.124652	нашей	-0.04972223
-4.124652	нашими	-0.04972223
-3.948125	нашли	-0.04897312
-3.948125	нашлось	-0.04880536
-4.124652	нашу	-0.04946361
-3.672382	нашёл	-0.1097091
-2.069737	не	-0.08652101
-3.831969	неба	0.03207464
-3.948125	небе	-0.01708147
-4.124652	небо	-0.0171166
-3.948125	небольшая	-0.04967329
-4.124652	небольшим	-0.04972223
-4.124652	небольшого	-0.04972223
-3.948125	небольшой	-0.006522834
-4.124652	небом	-0.04972223
-4.124652	небрежно	-0.04972223
-4.124652	небу	-0.006576896
-3.948125	небыло	-0.004813634
-4.124652	неважно	-0.04863878
-4.124652	невдомёк	-0.006612889
-4.124652	неве	-0.006612889
-4.124652	невежество	-0.04082521
-4.124652	невещественных	-0.04970588
-4.124652	невинное	-0.04972223
-3.831969	невозможно	-0.01516821
-4.124652	невшательском	-0.04972223
-3.218289	него	0.02572884
-4.124652	негодяем	-0.006612889
-4.124652	негодяйка	-0.0171166
-4.124652	негра	-0.04082521
-4.124652	негры	-0.006612889
-4.124652	недавно	-0.04866725
-4.124652	недалеко	-0.006612889
-4.124652	неделе	-0.04972223
-4.124652	неделей	-0.04972223
-4.124652	недолго	-0.04966247
-4.124652	недоразумения	-0.0171166
-4.124652	нежели	-0.04966247
-4.124652	нежилыми	-0.006612889
-3.948125	нежно	-0.006558843
-4.124652	независимость	-0.0171166
-4.124652	незаметных	-0.04960566
-3.948125	незначащий	-0.04967329
-4.124652	неизбежно	-0.04972223
-3.948125	неизвестно	-0.0394534
-4.124652	неизвестный	-0.04963407
-4.124652	неизменно	-0.04972223
-4.124652	неизречённые	-0.04972223
-4.124652	неизъяснённая	-0.04952044
-4.124652	неистово	-0.006612889
-3.464203	ней	-0.01895824
-4.124652	некая	-0.04972223
-4.124652	некому	-0.0171166
-3.948125	некоторые	-0.04817883
-3.555936	нельзя	-0.08081216
-3.948125	нем	-0.1034016
-4.124652	немало	-0.0171166
-3.948125	немедленно	-0.04967329
-4.124652	немезидой	-0.006612889
-4.124652	немецкие	-0.04968964
-4.124652	немецкого	-0.04970588
-4.124652	немецкое	-0.04966247
-4.124652	немногим	-0.04949202
-3.672382	немного	-0.006090347
-4.124652	немолчным	-0.04972223
-3.948125	нему	0.03994166
-3.948125	немцев	-0.01708147
-4.124652	немыслимый	-0.04960566
-4.124652	ненавистных	-0.04970588
-4.124652	ненависть	-0.04909405
-4.124652	ненадёжно	-0.04966247
-4.124652	необузданный	-0.0171166
-4.124652	необходимостью	-0.006612889
-4.124652	необходимые	-0.04903717
-4.124652	необыкновенного	-0.04972223
-3.948125	необыкновенную	-0.04968964
-4.124652	необычайно	-0.04969087
-4.124652	неожиданно	-0.04972223
-4.124652	неожиданный	-0.0171166
-4.124652	неосторожна	-0.006612889
-4.124652	неотразимой	-0.006612889
-4.124652	неплохая	-0.006612889
-4.124652	неплохой	-0.04972223
-4.124652	неповторимый	-0.006612889
-4.124652	неподалёку	-0.04838248
-4.124652	неподвижными	-0.04972223
-4.124652	непосредственно	-0.04861031
-4.124652	непостигаемые	-0.04970588
-4.124652	непостижимых	-0.04903717
-4.124652	непредвиденного	-0.04789794
-4.124652	непредвиденное	-0.006612889
-3.831969	непременно	-0.04956886
-4.124652	непременный	-0.04970588
-4.124652	непрерывная	-0.006612889
-4.124652	непрерывной	-0.04972223
-4.124652	непрестанно	-0.04960566
-4.124652	неприятелей	-0.04972223
-4.124652	неприятелем	-0.0171166
-4.124652	неприятельскую	-0.04946361
-4.124652	неприятное	-0.006612889
-4.124652	непроросшее	-0.04972223
-4.124652	нервничал	-0.006612889
-4.124652	нервную	-0.04972223
-4.124652	нервы	-0.04960566
-3.948125	нерождённых	-0.00572595
-4.124652	несказанно	-0.04972223
-4.124652	несколькими	-0.04972223
-4.124652	нескольких	-0.04972223
-2.878055	несколько	-0.04443338
-4.124652	нескончаемую	-0.04972223
-4.124652	несметной	-0.04972223
-4.124652	несметные	-0.04972223
-4.124652	несовершенства	-0.04972223
-3.948125	несомненно	-0.01708147
-4.124652	несётся	-0.04970588
-3.001197	нет	-0.1628889
-4.124652	нетерпения	-0.006612889
-4.124652	неторопливо	-0.04972223
-3.948125	нетрудно	0.02957992
-4.124652	неужели	-0.04696281
-4.124652	неуклонно	-0.04972223
-4.124652	неуклюжим	-0.0442322
-4.124652	неумолимая	-0.04972223
-3.831969	нечего	0.03010014
-3.948125	нечто	-0.006354019
-4.124652	неширокие	-0.04970588
-4.124652	нею	-0.0169558
-4.124652	неясные	-0.006612889
-3.324068	неё	-0.009311471
-2.782227	ни	-0.07596781
-4.124652	нигде	-0.04903717
-4.124652	нижнего	-0.04972223
-4.124652	нижней	-0.04972223
-4.124652	нижнею	-0.04970588
-4.124652	нижние	-0.04972223
-4.124652	нижний	-0.0460403
-4.124652	нижнюю	-0.04970588
-4.124652	низенький	-0.04952044
-4.124652	низенького	-0.04957725
-4.124652	низкий	-0.04963407
-4.124652	низким	-0.04972223
-3.948125	низко	-0.04968964
-4.124652	низкое	-0.04966247
-3.555936	никак	-0.2899458
-4.124652	никаких	-0.04789794
-4.124652	никакого	-0.04972223
-4.124652	никакой	-0.04972223
-4.124652	никем	-0.006612889
-3.267966	никогда	-0.4052085
-3.555936	никого	-0.04357
-4.124652	николаю	-0.04972223
-3.948125	никому	-0.1829433
-3.948125	никто	-0.1829433
-3.464203	ним	-0.02659487
-3.672382	ними	-0.0169584
-4.124652	нимфа	-0.04638385
-4.124652	нисколько	-0.0460403
-4.124652	ниспосланный	-0.04886647
-3.948125	ниточка	-0.04968964
-3.388508	них	-0.04797284
-4.124652	ницце	-0.04972223
-2.973616	ничего	-0.2734911
-4.124652	ничем	-0.04970588
-3.555936	ничто	-0.1436668
-4.124652	нищий	-0.006612889
-2.973616	но	-0.02448149
-4.124652	новенькими	-0.04972223
-4.124652	новеньком	-0.006612889
-4.124652	нового	-0.04972223
-3.948125	новое	-0.04968964
-4.124652	новом	-0.04970588
-4.124652	новорождённого	-0.0171166
-4.124652	новороссийска	-0.04166501
-3.948125	новые	-0.04075994
-3.948125	новыми	-0.04968964
-4.124652	новых	-0.04972223
-3.948125	ног	-0.01708147
-4.124652	нога	-0.006612889
-4.124652	ногам	-0.04970588
-4.124652	ноге	-0.04082521
-3.555936	ноги	-0.0431151
-4.124652	ногой	-0.006612889
-4.124652	ногою	-0.04972223
-4.124652	ногти	-0.04972223
-3.555936	ногу	-0.01997913
-4.124652	ножками	-0.006612889
-4.124652	ножки	-0.04895183
-4.124652	ноздри	-0.006612889
-3.948125	номер	-0.1866252
-3.948125	норд	-0.04967329
-4.124652	нормандия	-0.006612889
-4.124652	нормандцем	-0.04082521
-3.831969	нос	-0.004396096
-3.831969	носил	-0.04950908
-4.124652	носили	-0.04903717
-4.124652	носились	-0.04972223
-4.124652	носками	-0.0477268
-4.124652	носом	-0.0171166
-4.124652	носу	-0.04937835
-3.948125	носятся	-0.04967329
-4.124652	ночам	-0.04166501
-4.124652	ночевал	-0.0171166
-3.948125	ночи	-0.006354019
-3.464203	ночь	-0.05003398
-3.948125	ночью	-0.006558843
-4.124652	нравится	-0.0171166
-3.831969	ну	-0.006722681
-4.124652	нужна	-0.0171166
-3.464203	нужно	-0.01407584
-4.124652	нумер	-0.04932151
-4.124652	нынешнее	-0.04949202
-3.672382	нынче	-0.00249264
-4.124652	нюхать	-0.006612889
-4.124652	нюхнувшего	-0.04972223
-3.948125	нём	-0.04857046
-2.59066	о	-0.1297363
-3.218289	об	-0.1542581
-4.124652	оба	-0.04969087
-4.124652	обвязывают	-0.04972223
-4.124652	обгоревшие	-0.04972223
-4.124652	обдают	-0.04883802
-4.124652	обделывать	-0.04960566
-4.124652	обдуманно	-0.04082521
-4.124652	обе	-0.04970588
-3.948125	обед	-0.04922907
-4.124652	обеда	-0.04946361
-4.124652	обедали	-0.006612889
-4.124652	обедать	-0.006612889
-4.124652	обезобразить	-0.04949202
-4.124652	обеими	-0.04969087
-4.124652	обернулся	-0.0477268
-4.124652	обеспечить	-0.04970588
-4.124652	обильно	-0.04957725
-4.124652	обитые	-0.04972223
-3.831969	облака	-0.006237157
-4.124652	облаков	-0.006612889
-4.124652	обливаясь	-0.04972223
-4.124652	обличье	-0.006612889
-4.124652	обломки	-0.04937835
-4.124652	обломков	-0.04972223
-4.124652	облысели	-0.006612889
-4.124652	обменялись	-0.04970588
-4.124652	обмотках	-0.0171166
-4.124652	обмывался	-0.006612889
-4.124652	обмылся	-0.04970588
-3.948125	обнимает	-0.006322637
-4.124652	обнимешь	-0.04969087
-4.124652	обнять	-0.0171166
-4.124652	обо	-0.04949202
-4.124652	обогатили	-0.04903717
-4.124652	обоз	-0.006558843
-4.124652	оборками	-0.04972223
-4.124652	оборотился	-0.04969087
-4.124652	обороты	-0.0171166
-3.948125	обрадовалась	-0.005537353
-3.948125	образом	-0.04900453
-4.124652	обратился	-0.0477268
-4.124652	обращались	-0.04972223
-4.124652	обращаются	-0.0171166
-4.124652	обращая	-0.0442322
-4.124652	обрубок	-0.006612889
-4.124652	обстоятельно	-0.04082521
-4.124652	обсыпавшиеся	-0.006612889
-4.124652	обсыпают	-0.04970588
-4.124652	обувь	-0.04960566
-4.124652	обутою	-0.04166501
-4.124652	обходительными	-0.04082521
-4.124652	обширных	-0.04972223
-4.124652	общего	-0.04966247
-4.124652	общему	-0.04972223
-3.831969	общества	0.0324271
-3.948125	обществе	-0.01671074
-4.124652	общественное	-0.04972223
-4.124652	общество	-0.04082521
-4.124652	общие	-0.04972223
-3.948125	общими	-0.04968964
-4.124652	общих	-0.04972223
-4.124652	общую	-0.04969087
-4.124652	объехал	-0.04957725
-4.124652	объявит	-0.04972223
-4.124652	объявление	-0.006612889
-4.124652	объявлением	-0.006474886
-3.948125	объяснить	-0.1856556
-4.124652	объятия	-0.006612889
-4.124652	обыкновению	-0.04966247
-4.124652	обычаю	-0.0442322
-3.948125	обычно	-0.04968964
-3.948125	обычные	-0.04163181
-4.124652	овалы	-0.04970588
-4.124652	овечьей	-0.04972223
-4.124652	овладев	-0.04972223
-4.124652	овощи	-0.04972223
-4.124652	огибали	-0.04972223
-3.948125	оглянул	-0.1866089
-4.124652	огненные	-0.04972223
-4.124652	огненный	-0.04972223
-3.948125	огня	-0.04965828
-4.124652	огнём	-0.04972223
-4.124652	оголённую	-0.04972223
-4.124652	огоньки	-0.0171166
-3.948125	огромном	-0.005977288
-3.948125	огромную	-0.04965828
-3.948125	огромные	-0.006576896
-4.124652	огромными	-0.04972223
-4.124652	огурец	-0.04972223
-4.124652	одарял	-0.04972223
-4.124652	одевают	-0.04166501
-4.124652	одеваясь	-0.04166501
-4.124652	одевшись	-0.04082521
-4.124652	одежд	-0.0171166
-4.124652	одежде	-0.04972223
-4.124652	одеждой	-0.006612889
-4.124652	одежды	-0.006612889
-4.124652	оделись	-0.04926465
-4.124652	одета	-0.04972223
-4.124652	одеты	-0.04082521
-4.124652	одеяло	-0.0171166
-4.124652	одеялу	-0.006612889
-3.001197	один	0.0013109
-4.124652	одиннадцатый	-0.04895183
-4.124652	одинокого	-0.006612889
-4.124652	одинокое	-0.04838248
-4.124652	одиночество	-0.006558843
-4.124652	одичавшими	-0.04972223
-3.464203	одна	-0.05518974
-4.124652	однажды	-0.04324601
-3.388508	однако	-0.1072387
-3.948125	одни	-0.04068098
-4.124652	одним	-0.04821153
-3.948125	одних	-0.04968964
-3.555936	одно	-0.03802777
-3.388508	одного	-0.05081173
-3.672382	одной	-0.04686313
-4.124652	одном	-0.04970588
-4.124652	одному	-0.04972223
-4.124652	одною	-0.04972223
-3.464203	одну	0.006444801
-4.124652	ожидал	-0.04943519
-4.124652	ожидании	-0.0171166
-3.948125	ожидания	0.003259994
-4.124652	ожидающей	-0.04972223
-4.124652	ожила	-0.006612889
-4.124652	озадаченного	-0.04972223
-4.124652	озарённым	-0.04972223
-4.124652	озера	-0.006612889
-4.124652	озеро	-0.04969087
-4.124652	озирался	-0.006612889
-4.124652	означает	-0.04969087
-4.124652	оказал	-0.04970588
-3.948125	оказалась	-0.0493712
-3.831969	оказалось	-0.01701107
-3.831969	оказался	-0.1127199
-4.124652	оказать	-0.04886647
-3.948125	океан	-0.01456053
-4.124652	океана	-0.04972223
-4.124652	океане	-0.0171166
-4.124652	океану	-0.0171166
-4.124652	океаны	-0.0171166
-4.124652	окиси	-0.04972223
-4.124652	окладов	-0.0171166
-3.672382	окна	-0.04061139
-4.124652	окнами	-0.0171166
-3.831969	окне	-0.04962568
-4.124652	окно	-0.0171166
-4.124652	окном	-0.0171166
-3.464203	около	-0.0489085
-3.948125	окон	0.02957992
-4.124652	окончании	-0.04970588
-4.124652	окончена	-0.0171166
-4.124652	окоченелый	-0.04972223
-3.948125	окраски	-0.1540196
-4.124652	округа	-0.04970588
-4.124652	округе	-0.04917936
-4.124652	округлую	-0.04758413
-4.124652	окружала	-0.04972223
-4.124652	окружённый	-0.04972223
-3.948125	окунул	-0.178568
-3.948125	олег	-0.1435159
-4.124652	оловянную	-0.04972223
-4.124652	омрачает	-0.04972223
-4.124652	омэ	-0.006612889
-2.264127	он	0.02278417
-2.649836	она	0.03450081
-2.749124	они	-0.007930018
-4.124652	оно	-0.04972223
-4.124652	опала	-0.006612889
-4.124652	опалённые	-0.04972223
-4.124652	оперлась	-0.04863878
-4.124652	оплот	-0.006612889
-4.124652	оплывшей	-0.048012
-4.124652	ополченец	-0.006612889
-4.124652	оправдана	-0.0171166
-4.124652	определил	-0.004214864
-4.124652	определилась	-0.04966247
-4.124652	определить	-0.006612889
-4.124652	опрокинутая	-0.04972223
-4.124652	опрятном	-0.04972223
-4.124652	опускалась	-0.0442322
-4.124652	опускался	-0.006612889
-4.124652	опустело	-0.006612889
-4.124652	опустив	-0.04966247
-4.124652	опустошённого	-0.04966247
-4.124652	опушке	-0.006612889
-4.124652	опущенный	-0.04166501
-4.124652	опыт	-0.0171166
-3.324068	опять	-0.04870095
-4.124652	ор	-0.04972223
-4.124652	оранжевые	-0.006612889
-4.124652	орда	-0.04972223
-4.124652	ордена	-0.04972223
-4.124652	ореол	-0.0442322
-4.124652	орудие	-0.04934993
-3.831969	оружие	-0.09748013
-4.124652	осадил	-0.04969087
-4.124652	осборн	-0.04972223
-4.124652	осборна	-0.006612889
-4.124652	осведомились	-0.0171166
-3.948125	осведомился	-0.04646249
-4.124652	осведомляться	-0.04863878
-4.124652	осветил	-0.04789794
-4.124652	освещаемое	-0.04970588
-4.124652	освещением	-0.04821153
-3.948125	освещён	-0.006416779
-4.124652	освещённая	-0.04972223
-4.124652	освещённые	-0.04966247
-4.124652	освещённых	-0.04970588
-4.124652	освоить	-0.04972223
-4.124652	оседают	-0.0442322
-4.124652	осени	-0.006612889
-4.124652	осенний	-0.04963407
-4.124652	осень	-0.0171166
-4.124652	осенью	-0.04917936
-4.124652	осколками	-0.04972223
-4.124652	осколки	-0.04972223
-4.124652	ослепительно	-0.04972223
-4.124652	ослепительный	-0.04970588
-4.124652	осматривал	-0.04937835
-4.124652	осмотреться	-0.04758413
-4.124652	основание	-0.04957725
-4.124652	основатель	-0.04972223
-4.124652	основательность	-0.04963407
-4.124652	особ	-0.04970588
-3.672382	особенно	-0.04758062
-3.948125	особенным	-0.01708147
-3.948125	особливо	-0.04163181
-4.124652	оспы	-0.04082521
-4.124652	ост	-0.006612889
-3.555936	оставалось	-0.00497875
-4.124652	оставался	-0.04166501
-4.124652	оставила	-0.04972223
-4.124652	оставим	-0.04943519
-4.124652	оставить	-0.04875264
-4.124652	оставляет	-0.04972223
-4.124652	оставляют	-0.0442322
-4.124652	оставшиеся	-0.04969087
-4.124652	оставь	-0.04081792
-4.124652	оставьте	-0.04892338
-4.124652	осталась	-0.04917936
-4.124652	остались	-0.04972223
-3.831969	осталось	-0.0152912
